E2F5 1.5827137 1.0253854 0.7590082 -1.3385015 0.11019553 -0.5581924 -0.14714645 -0.95636624 -0.08552497 1.3386157 -0.20257783 -0.8735096 -0.23395155 -0.11845411 -0.26682225 0.37383533
EIF3G 1.0732944 0.13166402 -0.024023633 0.8631048 -0.048125457 0.5402892 0.1877184 1.1496303 0.7420939 0.84225357 0.39260083 0.8956162 0.09763025 0.34282187 0.1287584 0.25504148
LOX -0.5625463 -0.2684028 0.46725324 1.0566505 0.026243059 0.1199255 0.27628273 -0.11904962 -0.6838532 0.41059178 -0.36786643 -0.06579153 -0.54345506 1.4342939 -0.39531666 0.1569781
PPWD1 -0.18224098 -0.124654196 -0.0043725558 0.675143 0.015512494 0.6517496 -0.13579895 -0.089423 -0.5199476 0.020282473 0.14012668 0.12960812 0.14573716 1.2949979 -0.42554948 0.84031165
RCN2 1.0162164 0.42937177 1.7224578 0.5121897 -0.0118299695 0.059349217 -0.2917189 0.7601627 0.07370958 0.8030303 0.2883557 0.036221534 0.31849992 -0.08877107 -1.3551059 -0.058698427
DACH1 0.02770612 0.1860952 -0.5184552 -0.013265746 0.15746883 0.33429828 0.69694805 -0.015830288 0.59429663 0.046788674 -0.32197064 0.25453594 -0.85548276 -0.05959048 0.5755772 0.43303427
SFRP5 -1.5739423 0.39954174 0.45869842 0.3392499 -0.0029501237 0.20333594 0.6927597 0.073230624 0.32913947 0.29548535 0.26480561 0.2044516 0.18458201 0.705461 -0.00069152465 0.34048873
NCBP2 -0.612765 0.39354208 -0.017520845 0.41000882 0.1977732 0.30623418 0.24062309 0.13309005 0.41791192 0.12031102 0.14226532 0.4766605 0.57138693 0.332247 0.044043675 0.20057172
WAS 1.3526709 0.45309356 -0.6286676 -0.3711569 0.30432126 1.0333586 0.09227598 0.12354853 0.6211543 0.22891845 -0.9148819 0.42781562 0.21863213 0.63655823 -0.13075735 0.14201488
PPIA -0.2405716 0.4485428 1.157676 1.0868934 0.17540482 0.046982158 -0.19710398 0.5055506 0.5362512 0.6182648 -0.024128556 1.1594098 -1.6505914 0.066389285 -0.38949937 0.62342274
REXO4 -0.97755504 0.34975135 0.2342592 0.22272705 0.3531921 -0.15283021 0.30679804 -0.3441533 -0.70207566 0.8364347 0.7366292 -0.012620498 -0.74904954 0.29318634 0.01653766 1.4579473
RTP3 0.1301968 0.31637353 -0.10577726 0.047551896 -0.2494971 -0.8471129 -0.33259577 -0.08517 -0.028181557 -0.6462804 -1.085229 0.08116727 0.75260085 0.055371303 0.083572805 0.10828589
SMC1A 1.5368204 -0.2687157 0.812958 0.31083986 -0.33351913 0.29476267 0.059411198 0.86473566 0.23249713 1.5522618 0.21558462 -0.19994362 0.09211098 0.76188105 0.6178776 -0.004459547
RBM4B -0.12988989 -0.2511723 -0.023117086 -0.09445051 0.5500396 0.5094342 0.16573922 -1.449874 0.30153742 0.5991248 -0.9588394 1.0667632 0.20995931 0.10947689 0.40789664 1.0453798
TRIP13 0.14061628 1.006967 0.00995619 -0.25455913 -0.0062168925 0.17064595 0.13101049 1.3534793 -0.02993522 -0.10867124 -1.167836 -0.32524255 0.29161015 0.68780506 -0.053666983 0.007589453
CDC23 -0.14849584 0.18593903 0.0024082616 0.6003357 -0.12996444 0.29038972 0.059255853 0.8485494 0.7436215 -0.059562024 0.38406378 0.46818992 0.29480818 0.424746 -0.04821439 0.037054893
TRIM32 -0.14760657 0.26352042 -0.64235556 -0.69096375 -0.69237936 0.18391669 -0.003598819 0.26330763 -0.7067942 0.05032331 0.35234186 0.09672836 0.72782546 0.3181719 -1.0958788 0.0573434
PSMG3 -0.5132855 0.40227053 -1.6761866 0.32416174 -0.031811845 -0.12808146 1.1464182 0.48442718 0.9493851 1.376801 0.47939226 0.7236195 -0.017693467 0.5499237 0.11645137 0.3829982
TPD52L1 0.5822073 -0.27328447 0.034143243 0.06430565 0.57380384 0.40820518 -0.09695103 -0.07226853 1.454454 0.5112966 0.42182812 0.62179154 0.2245532 0.3527932 0.5962987 0.0065786783
SMAD3 0.18017022 -0.3233325 0.35683504 -0.37776336 -0.020216824 0.6729393 -1.4196763 -0.5358836 0.098092586 -1.2704396 0.21929325 -0.30695397 -0.094415754 0.42505497 0.6214763 -0.3055722
AVPR1A 0.5026643 -0.11389665 0.7139921 -0.5946703 0.024997521 0.23819524 0.28660077 0.015050587 0.4807943 0.3992528 -0.86771697 -0.16264625 0.27987358 0.36824995 -0.06725978 -0.0039850594
BUB1B 0.4230871 0.09009355 0.93998224 -0.012350638 0.0269098 -0.12165176 0.022600837 0.70585376 0.35758653 1.0566943 0.30372885 0.55945104 0.55933475 -0.21459033 0.041690715 0.052160684
AKR1B10 -0.16635242 0.13573642 -0.029181933 -0.39682993 0.1146445 -0.20898566 -0.18198171 1.4157666 1.3030246 1.2705667 0.43095914 0.42147163 -0.96941864 -0.06808196 -0.061231874 1.3005162
CENPJ 0.14865856 0.38517568 1.67054 1.2455268 -0.009500507 0.39480466 0.18672644 0.17451404 0.31331795 -0.45811638 -0.49462545 0.09809124 -0.1627452 0.4515052 -0.05469063 0.095652364
CCDC86 0.32729378 0.33321947 0.35843533 0.4470136 0.9278747 -0.27683032 -0.022682844 0.007549321 -0.22276846 -1.5732682 0.15195338 0.5056118 0.48551524 0.18987544 -0.15202308 0.37863705
ACACB 0.18410671 -0.38063005 -0.0777638 0.2227037 0.658229 0.24627182 0.2762097 0.0059413267 0.8547376 -0.7230532 0.4464671 1.0644428 0.2633055 0.22127976 0.025722472 0.06303271
PA2G4 0.39473853 -0.47559747 0.10241522 0.3727505 -0.04621153 0.021728007 -0.024319887 -0.81732446 0.03217312 -0.12186514 0.48841912 0.45321584 0.66174835 -0.13225691 -0.072741814 0.5097317
FBLN1 0.06233797 0.58826804 0.09242189 0.99889237 0.22772077 0.16638626 0.2529779 0.6120159 0.39445105 -0.46568933 0.36872908 -0.3525803 0.31823862 0.77377176 0.11387587 -0.07111723
CCDC124 -0.5329003 0.256266 -0.23960093 0.5383281 0.06449885 -0.21378203 -0.097637184 0.20442632 1.1120261 0.34070364 0.0242804 0.32317108 0.15635487 -0.24657743 -0.5086889 0.6355101
COLEC12 1.230791 -0.21315089 0.56568706 0.5322954 0.07052353 0.7152299 -0.47722167 -0.5757385 -0.2948261 0.21622095 0.15614145 -0.06333898 2.221144 1.3439267 1.3026112 -0.29506588
MSH3 1.1424662 0.34443945 0.1512307 0.0005945817 0.0392774 -0.21107922 -0.8239102 -0.3681747 0.30059618 0.64719003 -0.09990077 -0.36041176 -0.059418775 0.3589159 -0.046414778 -0.044741888
GALE 0.7691478 0.121902235 0.295806 0.4468339 -0.19893299 0.03628797 -0.47855434 1.3534249 -0.22327694 -1.645586 0.3768136 0.31666365 0.5936937 0.47301042 -0.0681361 -0.10811917
ARMC6 -0.5367976 0.47430936 0.019063182 0.01466883 0.7333968 0.10699356 -0.15007226 -0.2338953 0.69044083 -0.038394373 0.28939605 0.21697521 -0.94210213 0.48156857 -1.0237664 0.008164005
KCTD7 1.0679338 -0.47401115 0.46444878 0.33449775 0.2155629 -1.7618688 -0.58410317 -0.34362495 0.21198729 0.420126 0.6175164 0.06473167 0.54456866 0.6189608 0.43756208 -0.08520957
FBP1 -0.8531268 0.056522686 -0.5186748 0.71481794 -0.07941865 -0.1486583 -0.022920147 1.2552418 1.548898 -0.49109238 0.74113876 1.4494233 -1.3005581 0.15678121 -0.2892193 0.45679978
HK3 1.3759414 1.9672326 0.13487779 0.41977876 0.179355 0.05894725 0.049421877 0.0024702046 0.10340258 0.65583163 0.6429495 -0.042046297 0.2902792 -0.092861965 -0.0127686765 0.06721147
RPL18 -0.118448906 -0.36755168 0.027912734 -0.16419964 -0.99350303 0.16808216 -0.15332869 1.6490583 -0.11818222 -0.5031011 0.41366988 0.26132753 0.013751203 0.5757658 -0.47124553 -0.2515866
AKT3 -0.060981467 0.0008889877 0.3341929 -0.04916412 -0.25124308 0.38168505 0.35849416 -0.5182092 0.26598993 -0.40743902 0.27706912 0.4936047 0.3600728 0.004333792 0.83904094 0.07213522
CYP8B1 -0.9452779 1.6547021 -0.22434428 0.99683815 -0.16672044 -1.4120445 0.8764863 0.21865563 -0.09097173 1.152416 0.95787364 -0.018301018 -0.0758743 0.32205316 0.056630727 0.6959638
HDAC2 -0.10132043 0.29808882 -0.20122825 -0.03655414 0.4128136 0.11237051 0.28993157 -0.15495957 -0.40516353 0.19005443 0.5988772 1.1307054 0.20722596 0.7945629 0.15643524 0.24208757
ASXL2 -0.5043084 0.4773386 1.3947222 0.2297058 -0.022966966 -0.19548139 -0.46312255 0.21974799 0.8106182 0.3953638 -0.58898467 1.3280649 0.23711875 0.07980145 -0.23232292 -0.046066638
RETSAT 0.098066635 -0.067862846 0.3599152 -1.2463266 0.0140974205 0.59826666 0.18041988 0.049117055 -0.22032365 0.18567343 -0.3592735 0.12206802 -0.0057474812 0.5226405 -0.025056208 -0.8255463
SLC25A37 1.661393 -0.7826786 0.10541675 -0.31048226 0.0036777635 0.5100357 0.0064777215 -0.01696844 -1.8945338 -0.113524966 0.21197194 -0.87895155 0.47051698 0.28744313 0.14615425 0.22872359
SLC25A6 0.2683317 0.34004468 0.036575884 2.2268972 0.5579845 0.32704005 0.55665505 1.0925841 0.061063632 0.16052483 0.7820974 -0.069438815 -0.4261119 2.421014 0.48686102 0.41407228
EIF2S3 0.24295416 0.23689279 1.0156072 0.94478565 0.25054482 0.66653687 0.11219589 -0.23891234 -0.48827955 0.61813134 0.14848854 -0.05085793 0.15640442 0.14438038 0.26935333 0.73866117
HSP90AA1 0.6473464 0.253911 0.5380797 1.6335922 0.1544492 0.20647024 0.14044298 0.3251614 0.38273272 1.1021396 -0.50099295 0.14920622 0.20284861 -0.6911722 -0.6249797 0.42083576
PHF6 0.3364465 0.49395642 0.48683038 0.9848187 -0.017527804 0.45805192 -0.13714986 -0.58489466 0.7166071 0.07676516 -0.6580282 1.5116081 1.1337552 -0.40402612 -0.46063983 -1.5223601
CH25H 0.61848545 -0.12215021 -0.7800201 0.5702279 0.38367972 0.39370242 -0.08437213 2.189674 0.51517266 0.7843235 1.363236 0.28263104 -0.06935622 -0.74503297 -0.089457296 0.09662592
ARL6IP6 0.23262948 -2.1659408 -0.59895635 -0.5699352 -0.03789626 0.3292796 -0.062794015 0.09401667 0.7405484 -0.10499528 0.120383635 0.46916905 0.3037706 0.47447723 -0.079965524 -0.21684416
MAPK3 0.33478698 0.43263376 0.42801246 0.89608574 0.48478487 -1.5509375 0.007691779 1.4355233 -0.122971885 0.22636382 -0.80854857 0.72989523 0.4506861 0.8520523 0.038695894 0.0088149095
PEX5 0.5346594 0.12733848 0.12856682 -0.55181146 -0.03855152 0.10709895 -0.03470373 -0.43921375 0.09467962 0.9489774 0.3927749 -0.25717786 -0.19125158 -0.0029824986 -0.5327574 0.46748403
ECHDC2 -0.3171406 -1.081578 0.03327331 0.25126904 0.37719253 -0.43619573 0.23220012 -0.07668243 1.2973034 0.0031465543 -0.3517758 1.437383 -0.9207104 1.4813105 0.00044529466 0.19771862
UCKL1 0.14677921 0.38539967 0.1761644 1.04914 0.031671017 0.017975252 -0.39510894 -0.009113321 0.38167202 0.29271653 0.2713352 0.20604216 0.3271098 0.40875113 -0.015919182 0.23362839
DYNC1H1 0.29792333 -0.29252747 0.96382827 0.76321125 0.53636193 0.5026016 0.31726962 0.017724214 -0.56750304 -1.4636536 0.14279333 -0.10460612 0.20726685 0.65133476 -0.04564784 1.0420406
DPF2 -0.15013638 -1.2627819 -0.782149 -0.10511797 0.44731587 0.18480101 0.06241603 -1.4528586 -0.068785384 -0.07910001 0.6825482 0.7562116 -0.4069964 0.15094243 -0.22436343 1.016842
NELFCD 0.96845424 -0.46360925 -0.43801498 -0.3450602 -0.79312545 -1.6903759 0.79708874 -0.091448516 0.7802706 -0.211303 0.19238405 0.8304879 0.62895036 0.12541513 -0.7133869 -0.059314135
U2SURP -0.012025068 0.021234471 0.55628365 -0.15087321 -1.5256727 0.40207523 1.4813147 0.47511587 -0.14468205 -0.11906266 0.49612495 0.12264394 0.3200252 1.2171489 0.6492705 -0.046651796
CDCA8 1.4218985 -0.34083593 0.45870465 -0.14009584 0.50415784 -0.1639146 0.024806593 0.46243262 0.63434297 -0.45498872 1.9716709 0.28641337 0.21114618 0.6075944 0.118832275 -0.15773965
ACADM 0.5412274 0.23973079 -1.3357072 0.09662792 0.17539842 0.373663 0.2314131 -0.018456807 0.51720625 -0.2402764 -0.5373087 0.39356968 0.33951154 0.3595181 0.36424103 0.21601054
GTF2H4 0.21689019 0.3519441 0.18920948 0.38177362 0.09809995 0.05477326 0.1864337 -0.09857831 0.29088178 -0.5303438 0.05698199 0.10868308 0.32968172 0.86153626 -0.02599741 0.11544007
GSTO1 -0.029301956 -0.13651086 0.4074274 0.04885515 -0.17377312 -0.1310746 0.75514716 -0.18842822 0.25508457 0.4454747 -0.034272674 -0.25990516 -0.17526676 1.5928171 -0.061783724 0.07791765
CYP2B6 0.569062 -0.8311812 0.88909197 -1.9486674 -0.011501924 -0.054057825 -0.731182 0.10598664 0.45196366 0.52793366 1.1868867 -1.0253505 -0.57606983 0.4364277 0.0072373254 -1.3646199
CCNE1 0.06874132 0.00590584 0.5330301 -0.11711125 -0.055959232 0.28581694 0.029332405 0.31030923 -0.27886277 0.119449265 1.4856713 -0.03723788 0.6682085 0.58444667 0.14205071 0.06350051
IVD -0.01664949 0.12347352 0.2391551 0.4516706 1.0345544 0.29213303 0.71191406 0.116784684 0.3338143 -0.10853737 -0.51601434 -0.057908 0.06154747 0.4231154 0.53303635 0.91400003
SMG5 -0.40307108 0.4713805 -0.73054886 0.39521873 0.002227285 0.4613381 -0.81636846 -0.18188922 0.9080549 0.3755684 0.33400884 0.18423115 -0.46975437 0.26858896 0.003979027 0.35034215
ZSWIM5 0.18810767 0.40078124 0.85283166 -0.38555405 -0.015981002 0.26918644 0.8221542 -0.64164764 0.28398183 1.5343345 0.34775528 0.10147871 0.24252047 0.352213 0.3101704 0.22429924
TRPV4 0.20799771 0.18989931 0.15620482 -0.023516353 -8.931123e-05 0.77917194 0.8114174 0.5155015 0.6804533 -0.26353523 0.3242875 0.12700424 0.16398874 -0.4809472 -0.9263995 -1.663813
FAM91A1 0.35949773 -0.22362337 0.1925644 1.0581386 -0.09622529 0.21529631 0.050190736 0.2707292 0.77627695 0.82636356 0.39623863 0.17916119 0.13646764 -0.30771583 0.20215353 -0.1738964
NMRK1 0.12434502 0.39067698 0.2264378 0.53917897 -0.004021859 0.25994244 0.78514564 0.45163497 0.35421765 0.45016775 -0.60517097 -0.6514997 0.26102582 -0.56905705 1.0066868 0.1361364
POGZ 0.30420583 0.86761737 -0.16830365 -0.18771423 0.008194552 0.7007727 0.13344108 -0.00049606955 0.45788616 -0.43189284 0.5667311 -0.3817167 0.4280024 -0.41051266 -0.29510754 0.06838906
RPL29 -0.18387085 0.058642223 0.7404751 0.83395946 -1.0481138 0.48003292 1.1263745 -0.34863982 -0.114792645 0.31015754 0.08590039 -0.053013615 0.46230185 -0.07606085 -0.06490141 2.7815747
S100A8 -0.3107165 0.18549162 0.5514064 0.2994518 -0.04825281 -0.30786544 0.552984 0.27108374 0.36855525 1.8743715 0.5454146 0.04423908 -0.4936923 -0.06468055 0.032788545 0.37991372
EPB41L4A -0.5721281 0.23646812 0.64468336 0.7776521 1.474275 1.0596725 0.15799417 -1.5512491 -0.015872188 -0.5307171 0.022163015 0.26820654 1.2247181 -0.12794234 0.14723243 0.0077481577
TPR -0.09411293 0.23015827 0.58806115 -0.2384031 -0.39836636 -0.35714674 2.3586054 0.64834905 -0.10660375 -0.30097094 -0.13966411 0.07054661 0.1635016 0.10304928 0.2657937 0.4148477
LSM4 0.6031151 0.26722685 0.46026132 0.6508942 0.50020313 -0.053363185 -0.15448365 -0.6838986 -0.12344003 0.32009888 0.21946396 -0.063677885 0.683604 1.042966 0.0718812 0.8842302
SLC31A1 0.44401836 0.02983343 0.4127291 1.6795624 0.67278266 0.5161465 0.301645 0.5258998 0.14066301 -0.16123724 0.41739476 1.9071469 -0.17630288 0.1788143 0.88351345 0.035360932
MIEN1 0.3708843 0.4358263 1.0354193 0.47984165 0.021864014 0.29088575 0.276574 0.18508002 -1.1112566 0.23537473 -0.13288602 -0.02001781 0.15262298 0.7469632 -0.61906224 0.23477896
TLCD1 -0.004568713 -0.58839804 -0.8444745 -0.10088544 0.13649417 -0.6413268 0.6527582 -1.2199897 1.0059723 0.272781 -0.4075045 0.47570583 -0.3061251 0.07724978 0.1570749 0.5014605
GDI1 -0.09353794 0.214692 -0.111546844 0.569346 -0.059529275 0.47339565 0.55382854 0.43413264 0.095760085 -0.30852664 -0.10281161 -0.10693185 -0.18242215 -0.048586484 0.18384406 1.632204
EFCAB7 -0.91101664 -0.2841844 0.5234274 0.67554647 0.2524011 0.22941919 -0.3791837 -0.06072484 2.0096114 -1.0467426 0.3407036 -0.61813754 -0.010235098 0.20671973 -0.10435246 -0.48181143
BIRC5 0.3042969 0.25196448 0.71368396 0.40730333 0.053491425 -0.30911496 0.51130694 0.06201361 0.0035319678 -0.2202026 0.19184363 -0.08158861 0.25001958 1.137728 -0.73310745 0.20156384
NDUFA2 0.0823884 0.26790264 0.29480913 0.76612115 -0.18604839 -0.54661095 -0.092755064 0.7629568 0.5537008 0.11463645 -0.41838515 1.0317702 0.2307254 0.36026865 -0.28055185 0.0027031172
DYNLL1 0.31012598 -0.23566522 -1.4784783 -0.13294905 0.17089212 0.6931482 -0.072302766 0.56243545 0.7247296 0.036648862 -0.146455 0.15659608 0.1997807 0.50872785 -0.036566257 0.011192901
SMARCB1 0.57624656 -0.7132522 0.104210295 -0.08188708 -1.0483091 0.29861104 -0.10123931 -0.50982803 -0.0026426546 -0.009704294 0.24938016 0.8231078 1.0068476 1.4537882 0.048080727 -0.6307324
TMEM65 -0.029042691 -0.042473387 0.27255324 -0.56726795 -0.021894764 0.29917422 -0.25537768 0.0066110846 -0.34540287 0.25314423 -0.037731458 0.086539365 0.33724847 -0.16194426 -0.034243792 0.17855214
RAB4A 0.23559557 0.6540877 0.30151284 0.9029748 -0.099330075 0.16952232 0.1594945 0.06480691 0.19645894 -0.015701156 0.25100154 0.16691107 0.9158947 0.2930917 -0.0089706555 -0.048861753
PPFIBP2 2.4736764 -0.51837164 1.5003883 -0.28208518 -0.76996267 0.41187224 -0.18024474 -0.033516742 -0.22037801 0.5539352 0.53409564 -0.6182347 0.87233037 0.52899593 1.2775329 -0.087711446
TALDO1 -0.29514548 0.35067943 0.173491 -0.51906157 0.16049789 0.27019602 0.1809678 0.09689644 1.2950022 0.08797807 1.0801585 0.37274817 0.5938214 0.7572304 0.0057813255 0.06364729
CNOT1 0.08809855 -0.4053928 -0.22247869 0.122643605 -0.19330868 0.28502926 -0.16970974 0.22750802 0.39678714 0.1640779 0.45890793 -0.5434512 -0.1739519 0.0735884 -0.015893096 0.33661804
TBCC -0.20922413 0.34363812 0.7248991 -0.11326441 -0.005884254 0.46835002 1.5077642 -0.13458401 -0.47939128 0.36735758 0.5040668 0.1175821 -0.040990166 -0.1239918 0.65835273 -0.7344857
XRCC6 0.1130052 0.12196573 -0.2714483 0.45835853 -0.025842354 0.48712814 -0.608863 0.7606881 0.12034918 0.60421276 0.45771474 0.48915574 0.06715166 0.22955048 -0.21252695 0.81704056
ETS2 0.01551942 0.23220128 1.2107148 -0.10810296 -0.061845243 0.82558125 -0.39760694 -0.101153515 0.90594965 0.9387961 -0.44126296 0.10879145 0.11075996 0.016882094 0.024960324 0.018312093
CAMK2B -0.2643492 0.25992554 0.023491766 0.55921817 -0.13963394 -0.105332114 0.1478413 0.054117873 0.6248162 -1.0499016 0.1764154 0.976335 0.5878747 0.8903679 -0.3539308 -0.11339681
VKORC1 0.60264546 -0.93598884 0.068426624 0.37928808 0.67424726 -0.051108357 -0.0010127758 0.023738164 0.62945396 -1.0999225 -0.12902221 0.4292763 0.04083059 0.4839752 -0.0054963552 0.14020368
ZNF623 0.22335854 0.4242585 -0.6467761 0.3818187 0.048303764 0.14894181 0.15739287 -1.10956 -0.6883052 0.30641064 -0.09890197 -0.36330456 -0.41246256 -0.7189205 -0.024929473 0.872035
DVL2 -0.77173537 -0.26251674 0.975121 0.8201724 -0.01570919 -0.13491112 -0.3243305 -0.0007846653 -0.24756622 0.58061624 -0.39823246 -1.901879 0.6151232 0.1625596 0.015782204 0.7951652
CENPQ -0.17711617 -0.1833483 0.12657405 -0.12633914 0.87600297 0.34100288 -0.37572068 -2.1583104 -0.21320401 -0.044075955 -0.18486369 -0.0933617 0.49497792 2.0142953 0.40275028 0.32445386
ACTG1 -0.17099239 0.24026854 1.458048 -0.050929513 -0.25477514 0.10803775 0.033028077 0.032134894 -0.4786104 -0.69634736 -0.27271914 0.6647073 0.4961605 0.160787 -0.04617983 -0.03125143
FUS 0.118891105 0.16687539 -0.48772326 -0.51984197 0.23510675 -0.051182374 0.6805341 -0.17855489 0.8064034 -0.36253953 0.18633054 0.73071647 0.6197834 0.5115962 0.07570645 -0.052490592
EIF3B -0.18599966 0.46423957 -0.034125376 0.6842569 -0.1490355 0.17110048 0.041117515 0.8717608 -0.20285717 1.074531 -0.3703766 0.69256455 0.67961264 1.4969047 0.30551702 -0.3266233
CIDEB 0.13525526 0.304631 0.08744897 0.15082683 0.2620113 0.63708615 0.50300306 0.2914995 0.21224232 -0.73607 0.07246781 -0.22204414 0.6174692 1.0890986 -0.01774589 0.49222392
GGH 0.4675448 -0.17912842 0.23741886 0.77052027 0.04268982 0.18731165 0.18816328 -0.023277145 -0.009953086 0.3979381 -2.1014771 0.051115688 -0.056605183 -0.33298567 -0.7707387 1.0395365
FZD7 -0.21097569 -0.11489232 0.09704554 0.12504393 0.19131538 0.31615508 1.1822674 0.4143988 0.36279038 -0.37290013 0.20558988 0.13801348 0.12026566 0.7860018 -0.1120666 0.38678363
CETN2 0.33605754 0.2460287 0.1644894 0.3482492 -0.7098833 -0.12916957 0.29810548 0.14058529 -0.44120818 0.33752742 -0.40800485 0.31734145 0.24992718 0.25961056 -0.83046854 0.19599342
POLRMT 0.09262589 0.12195906 0.16852003 0.63125664 -0.1850956 0.38779444 0.21793504 -0.10747915 0.14965473 -0.44138247 0.015130129 -1.0310988 -0.3024827 0.33594835 -0.022833843 0.72685707
GGCT 0.28670892 -0.06328184 0.7130794 -0.17114928 0.46183935 1.0309348 0.3205367 -0.017386058 0.26237118 -0.25373045 1.0354706 1.3566076 -0.31252542 0.09842295 0.27554554 0.55716
COPA 0.06860612 0.29604417 0.45407167 -0.16571176 -0.11480947 0.5283914 0.635286 0.27952677 -0.4251599 -0.7661557 -0.12521894 0.01971573 0.19928719 -0.39958397 -1.9560567 0.32809964
RPS24 -0.13850673 0.2341315 1.3895485 0.5353885 -0.004512685 0.15514693 0.41833475 -0.007894376 0.26294708 -0.6513773 0.15391509 0.011917207 0.783959 -0.257792 -0.78585064 0.15769391
TUBA1B -0.25540522 0.06619624 0.3010531 0.5879551 -0.61486876 0.32199165 0.15527168 0.13212875 -0.21902594 0.5788098 0.4224548 -1.1242793 -0.10147328 -0.21136294 0.39540917 -0.5766659
IGF2BP2 0.05935626 1.1287019 -0.04598848 -1.9867731 0.42098325 0.15126199 0.6587439 2.2906098 1.2612703 0.07600096 -0.5154273 0.65975827 -0.087889075 1.0784258 -1.6169406 0.000103152706
RFX5 -0.0660089 0.3984311 0.33101228 0.13971269 0.23959164 -0.37828937 0.94902956 -1.0878457 -0.016555483 -0.06681767 0.2231715 0.55995774 0.56447214 0.22725832 0.3927362 0.23331712
MICAL2 -0.26417336 0.095752105 0.1799176 0.61747164 1.413442 0.30879262 0.13528648 0.6249935 0.23094891 -0.026932906 -0.05415342 0.18717878 -0.045740478 0.76047415 0.009346141 0.73226255
PRC1 0.39150405 1.1550864 0.6182821 -0.091150545 -0.12195401 0.08969209 0.4397066 -0.19236304 0.1323636 1.203193 -0.39801472 -0.01803598 0.32940692 0.16455351 1.234584 -0.07272457
PDE7A -0.9483609 0.3237198 0.4928083 0.2614805 0.10470907 0.12514627 -0.14207938 -0.86445963 0.6976147 0.28246975 0.5320539 -0.0019253426 0.32679835 -1.5427086 -0.083205596 -1.4372692
SRXN1 -0.5071661 0.35063747 0.37751612 -0.079119295 -0.21480936 -0.6890339 0.5803277 -0.0068957205 1.0231714 0.47359523 -0.96994895 0.005558209 0.10032159 -0.58544403 -0.42790523 0.5008179
FLAD1 0.65915704 0.9931001 0.34272385 0.4722516 -0.011661841 0.4322932 -0.22652031 0.71223426 -0.16595148 0.641447 -0.9555838 0.32890502 0.2928316 -0.25142816 -0.7139566 -0.19729272
BCL2L1 0.49104518 0.38451025 0.28869587 -0.86222744 0.60152334 0.20890874 -0.07580225 1.4051205 0.29685438 0.25500652 0.35911143 0.08365837 -0.03486722 0.54653966 -0.808854 -0.64284796
SETDB1 0.40711483 0.31119332 0.36839163 -0.008858863 0.01057898 -0.30664074 -0.39537206 -0.210914 0.88663375 0.78120404 0.065553054 -0.52836126 -0.02125645 0.6146858 0.37003705 0.6468941
GAS1 0.059154958 -0.27824888 1.1858512 0.5364737 0.14794925 0.56594175 0.2416148 -0.1118094 -1.0347108 0.08720404 -0.06836744 1.3243452 0.30350262 0.3117779 0.45696574 0.16409075
TCHP 0.7749457 0.9948241 0.21112928 -0.26818183 -0.0053492915 -0.3695463 0.056763716 0.13209699 -0.8530672 0.43765128 0.36091754 -0.040764235 0.19019087 0.27268064 -0.02193735 0.32148984
NAT2 0.1442637 0.23109412 0.74209327 -0.022503873 0.96623266 0.083400905 0.868734 -0.013920334 0.19688189 0.061193082 0.14032514 0.45298165 0.3410191 -0.41572985 0.33161837 0.6116719
FAM216A -2.8676302 0.4862055 1.4406209 0.78081363 1.4646074 0.19083983 1.2504393 -0.4625619 -0.25403056 -0.05477419 0.21745655 0.6420291 0.1028061 0.68956804 0.6226477 0.74699515
TMEM9 -0.11353421 -0.27460906 0.24589956 -0.40372342 0.2909164 0.38415277 0.47047624 0.72465724 0.075332776 0.22617027 0.56042135 0.6010944 0.254617 0.71708596 0.90252185 -0.09957793
C18orf21 0.5681914 -0.5710703 -0.1269212 0.60258335 -0.008154258 0.015181673 0.01361876 0.044446364 0.552852 0.42310995 -0.9328844 -0.004863098 -0.09152585 0.15572748 -0.06158092 -0.63974005
TPD52L2 0.5147794 0.166809 0.3668654 0.15791479 0.026514579 0.38307452 0.081449166 -0.67288655 -0.49162263 0.43826845 0.39339787 0.53359514 0.5458786 -0.44466493 0.28328598 0.17227402
SLC2A3 -0.24660416 0.3177407 -0.19133024 -0.047970027 -0.01075768 0.08464424 -0.19448897 0.66647416 0.4287228 0.3701678 -0.486167 0.34350052 0.57892996 0.26345557 0.027262675 0.08105442
SDHB -0.13059154 -0.2240251 0.42418224 0.001002026 -0.43502933 -0.34974697 0.6035609 0.19906841 -1.0871301 0.21472426 0.3804043 0.68686056 -0.34916854 0.11522674 -0.75056696 -0.06802081
NRF1 -0.07277793 0.5395474 0.4933153 0.23397425 -0.0073726904 0.10312759 -0.4413244 1.3296818 0.23923503 0.6890988 0.68072885 0.16580927 -0.28722984 0.47619444 -0.22423457 0.08285011
TLE1 -0.061818633 0.22060387 0.5460674 1.2873079 -0.73738956 -0.062167022 -0.004179891 -0.263158 -0.72058856 -0.5491183 0.5479865 0.32172382 0.18024689 0.05148057 -0.028396009 0.39569405
PRKAR2A 1.5792488 0.50468874 -0.99694633 0.0052869143 0.10077844 -0.4944974 0.025020763 0.09311582 0.0152467955 -0.15846135 0.18978846 0.17431723 -0.73564327 0.2788071 -0.14458948 -0.61092
SLC39A14 0.54052866 0.23009382 -0.021070259 -0.16927333 -0.12864125 0.8948645 0.09903094 0.12390123 0.062609196 1.3162466 -0.2593138 0.06339006 -0.27182204 -0.50106704 0.10310632 0.14436279
IL1B -0.49656135 0.22539657 -0.30573118 0.18883121 -1.360263 -0.37212867 0.23192428 -0.19783744 0.52975076 -0.4419467 0.26000667 0.17774819 0.4663253 0.48177007 -0.28049803 0.0024759506
BRCA2 -0.08628214 -0.5597774 1.4451189 0.92001015 -0.39830267 -1.0639026 0.77957255 0.52021646 -0.22645158 0.1472368 -0.4379077 -0.09145151 -1.070941 0.09720292 -0.008038956 0.52478004
ELK1 0.112802126 1.1426735 -1.0201472 -0.13372219 -0.17347649 0.41597834 0.31788373 0.3156191 -1.1592467 0.52476376 -0.34174845 0.69569165 0.09759425 1.4433931 -0.32725677 -0.7750971
COL4A1 -0.5261222 0.42929962 0.94830006 0.28322485 0.6738202 0.15493058 0.5299167 0.26547155 0.7602112 2.174858 0.288193 0.10484173 -0.535455 -0.24592856 0.40548614 0.5347226
WNT5A 0.72216666 0.19300035 -0.35606456 -0.19927663 1.5349553 0.39868715 0.020239934 0.051260725 -0.048138198 -0.14895734 -0.8654979 0.8446446 0.1283833 0.8030301 0.17921561 0.6920743
AURKB -0.56677663 -0.3219527 0.47356522 0.38615146 0.15684803 0.6210065 0.16812815 0.044637408 -0.15146881 -0.34951428 0.39476815 -0.8265714 0.27601516 0.508688 0.089608 0.5068328
NR2C2 0.76992595 0.52260935 0.93547505 0.16703592 -0.010976321 -0.028342562 -0.5576753 2.2029843 -0.29619452 0.8025098 0.7249999 0.14249596 0.7098487 -0.38692918 0.30336422 -1.1069779
GGNBP2 0.28098947 0.44835344 -0.21059576 -0.047075473 0.051080253 -0.8309277 0.052294847 -0.8611152 0.98481846 0.49136358 0.4080423 -0.5141357 -0.17884943 -0.7297641 -0.016597636 0.1361157
SMARCD3 -0.1623937 0.50328684 0.047094204 1.132423 1.5493691 0.36247337 0.15634058 0.40212423 0.15327789 0.3466431 -0.26654062 1.3236258 0.010117593 0.05808982 0.33545947 0.26598865
ARAF 0.3225921 -0.29518476 1.0834464 0.092601106 -0.04652233 0.15976974 -0.10950971 -0.08192115 -0.4763181 0.11438666 0.14604731 0.1887691 0.9405123 0.18314429 0.021080494 -0.31341833
DNMT3A 0.3128439 0.15226078 -0.1104218 0.26272395 -0.039470527 0.67409205 -1.4797548 0.37389964 -0.25519878 0.5143063 0.3570197 0.2903492 -0.0074362955 0.1520659 0.010255822 -0.24506982
RRM1 1.140561 0.21104838 1.1796116 0.10685397 0.156613 0.25619087 0.2149024 0.38992912 0.9273157 1.1464417 0.09675257 -0.0035871693 0.21060206 0.25239283 -0.52842224 -0.009708423
HYAL1 0.6186777 0.14227344 1.8037341 0.88428384 0.1400518 -0.17177609 0.3349613 0.8809677 -0.22128148 1.5181777 0.49761513 0.16312143 0.06288736 0.3242836 0.44647324 0.48626798
RNASEH2A -0.23716824 0.27315974 -0.008714808 0.5590589 0.019884735 0.70566094 -0.68002534 0.5457599 -0.15368566 0.17803624 0.15851468 0.1420787 0.3570706 1.4855776 0.036658347 0.037099287
ANKH 0.38141248 0.30748972 -1.5345052 -0.7588502 1.1389986 0.31277058 0.21083276 0.04846218 0.5683669 0.19794805 1.2057574 1.0719467 -0.04447613 -0.31231382 0.00452575 0.9607768
ZNF532 0.4746405 -0.018061351 -0.33224106 -0.31770834 -0.130542 0.17729373 0.10933574 -0.066822134 -0.6033691 -0.16625814 0.15050817 0.29464796 1.5867792 0.5934712 0.030532295 -0.031108968
WNT4 -0.59479403 1.270789 -0.22454329 -0.18971962 1.0334896 0.8952439 -0.2937388 0.82016724 0.044902075 0.46287116 0.28810334 0.43894288 -0.0382668 0.15814961 -0.071093984 0.2707104
FANCF 0.18145481 -1.0827061 -0.01160797 -0.13540472 0.414372 0.030175306 0.3740395 0.12310639 0.6219754 -0.48289055 1.6146563 0.7469604 0.110350296 0.27305022 0.10692345 0.5570845
HNRNPK 0.2478638 1.0766363 1.9293796 0.47428215 0.80100834 0.16272295 0.56220216 0.025899785 0.85467464 0.7088276 0.24493346 -0.015677456 -0.16677545 -0.13228442 0.0206571 0.37759358
SMARCE1 0.28156498 0.0110603515 0.42368174 -0.37066635 0.64177233 0.23971468 0.7376477 0.031178486 0.2660524 0.052844044 0.5691308 -0.5512755 -0.005756383 0.6357013 0.6458442 0.2002393
ANK3 0.21395046 1.5091335 -0.14660752 -0.6664012 0.13149732 0.19442768 -0.47969824 1.026868 0.05358364 -0.3791701 0.42951638 0.35096675 0.14124267 0.46708086 -0.03418402 -0.010327301
PPP2R5A 0.18988077 -0.81701875 0.13524766 1.4838395 -0.06540707 0.20851642 -1.3835565 0.6437109 0.52145857 -0.334119 -0.077899 0.2353716 -0.50365436 0.8706437 -0.2780609 -0.015613625
MLLT6 0.39213657 0.4315861 0.057305053 1.3441652 1.0503433 -0.50040233 0.052626893 0.6411677 -0.118388206 -0.24098802 -0.34147555 0.972831 -0.34797782 0.48632905 0.014688046 0.2564032
RALA 0.032368008 0.27562067 1.1987896 0.18093115 0.54278463 0.16496357 -0.18441832 0.4206812 0.7930605 -0.22031051 1.425585 0.2788945 -0.68913597 0.063235946 0.025220402 0.13575484
PUS7 0.1992627 -0.26769614 -0.15498488 0.61794615 -0.10198592 0.37095228 0.14459133 -0.697971 -0.1859214 0.09662006 1.0592898 0.12849233 0.012300711 0.29386947 0.03882844 0.38224787
PXDC1 1.1361623 0.24157079 1.4217876 -0.2875602 -1.3178575 -0.073065706 0.2893684 0.35114026 0.3309834 0.8968502 0.38558173 -0.013508923 0.22797312 0.29621455 0.07673462 -0.0022981355
RPLP2 0.4120396 0.680868 0.43737802 0.5804689 -0.22896722 1.1267428 -1.8755033 0.046692334 -0.10143758 0.6383084 1.108652 0.14386366 0.075264946 0.03584841 -0.10884056 0.51756126
GPSM2 -1.2705803 0.37589672 -0.08447302 0.21465574 0.37880993 0.4463665 0.6853467 0.11061552 -0.8037175 -1.2814292 -0.35570428 0.40692806 0.08870996 -0.14344588 1.0434647 -0.2317018
EXOC2 0.99517125 0.050566386 0.20005083 0.26037657 0.07580534 -0.09812622 0.05571016 -0.32576427 0.04097548 0.4865309 -0.07351226 0.41260153 0.3548075 -0.8230128 -1.0757319 0.3898442
MAZ -0.13683626 -1.0744106 -0.9655125 0.84780055 -0.19881588 0.79481864 -0.017375039 1.2432022 0.14327405 0.03207399 0.24705118 -0.56264156 -0.05572254 -0.020910412 -0.5111406 1.2156185
CKAP5 0.514366 -0.069436684 -0.02005636 -0.45956492 0.79783756 0.6059997 0.7865153 -0.15853065 0.6902756 0.58302516 0.26588276 1.0899107 0.17067114 0.85845804 1.927096 -0.074566714
UNC5C 1.3747778 0.20118156 -0.18543907 0.4489745 -0.042767346 0.89840376 -0.8746657 -0.30085528 0.5886064 0.81755406 -0.65013164 -0.2926105 1.5664085 -0.21494235 -0.16846894 0.0983787
GSTT1 0.53341216 0.21997921 -1.2863364 0.82077205 -0.9871849 0.3655433 0.18677914 -0.45780745 -0.15576337 -0.2760125 -0.68281174 0.02677968 0.3193349 0.3971765 -0.0018108214 0.07852493
NIPBL 0.29637635 1.842047 -0.0297913 0.32579204 0.7783884 -0.062137373 -0.74734896 0.3631447 0.093260996 0.29719114 0.4269772 1.0008428 -0.34544238 0.17253998 0.066361375 -0.0901453
HIF1AN 0.24257119 -0.14616528 0.36051068 -0.6610086 0.008558038 0.26512855 0.14066105 0.39414236 -0.15843455 0.33117196 1.3275167 0.070327364 0.104823075 0.836357 0.27296117 0.12438262
KRTAP13-1 -0.55086994 0.25556368 0.7255863 0.5532023 -0.03734242 0.17798409 0.08386612 0.43664515 0.41479412 0.45231977 0.26139352 -0.073769316 0.23576061 0.46260998 -0.009488421 0.029780056
RAB25 0.37719953 0.44193998 -0.0007323377 -0.18228802 0.0742267 0.26399305 0.63119566 -0.019371131 0.3263807 0.14748919 0.38512173 -0.071083374 0.65031844 0.30321717 0.78149366 0.31587085
PNPLA7 0.3023666 0.3101929 0.43275777 1.862852 0.6718512 -0.011607534 1.3757353 -0.53206074 -0.041578956 0.9497227 1.6103066 1.264691 0.08359778 0.031842425 1.4922752 0.1775743
CEP55 -0.10875391 0.54039675 0.9129053 0.14749192 0.20118517 0.36458677 -0.1601034 0.25216627 0.20076902 0.46020633 0.07640784 -0.056786835 -0.25749332 0.25727192 -0.26544273 0.19859621
ASAP2 -0.0666014 -0.6904132 -0.20093898 -0.010061521 -0.03744509 0.21556278 0.0015452036 0.0695567 -0.3883444 1.2361925 -1.255618 -0.031674612 0.55115014 -0.1864068 -0.6824989 0.26177716
UPF3B -0.19430713 -0.29143956 1.3071129 0.62880594 -0.0557605 0.3219491 0.3084879 -0.09695028 -2.7229452 -1.2965242 0.43587172 0.013953693 0.9404128 0.017289573 0.027706316 -0.70960474
LCMT1 1.7099438 0.94304585 0.9237644 0.52489656 0.5189835 0.5751832 0.95394766 -0.043691903 -1.7553102 -0.09065798 0.6884843 0.0402961 1.6279728 0.763555 0.5166382 -0.06631803
TSPAN7 0.046493903 0.2334912 0.28659055 0.86683166 0.2288905 0.23683472 0.040105477 0.28687912 0.45991534 -0.18229607 0.29635766 0.5197547 0.20544657 0.49205035 -0.33428174 0.62969935
SUZ12 -0.0055878004 0.9288873 0.19730659 -1.1792027 0.2112396 0.18516365 0.49535498 -0.0151464725 0.6818453 0.3493496 0.18814275 0.18277077 0.17315017 -0.25629255 -0.016016267 -0.03266812
RMI2 1.1912653 -1.4191314 -1.2831166 0.2700598 0.5306223 0.5669492 0.14011171 -0.04724246 -0.17431235 -0.45487025 0.26986924 0.6315807 0.34117374 0.46112263 0.52412266 0.32589698
AKR1D1 1.3857806 0.017857928 -0.098363765 -1.1583642 1.0458355 0.5131381 0.06187865 -0.031573247 0.30083057 0.0756126 0.00055161654 0.23787989 0.0004903937 0.5309015 -0.7065108 1.0296291
FBXL18 0.5221934 -0.9682883 0.26527914 -0.042148516 -0.33514854 0.26979476 0.06944583 0.2978649 0.2178669 0.44249028 -0.07723363 -0.34354287 -0.547387 0.30470797 -0.012837377 -0.62042385
LBR -0.21577707 0.8645764 0.5500438 -0.55194736 -0.036408544 0.3984194 1.028311 -0.62365866 -0.19853318 0.7611093 0.41210562 0.033409547 0.11015596 0.24711552 0.051873244 0.05087108
STAM 0.066071376 0.22714522 -0.46759135 -0.086430244 -0.088900134 0.043487158 -0.3779704 -1.582009 -0.011736486 -0.7198737 0.53250295 -0.009961311 -0.6569518 -0.01009448 0.18183897 -0.32149354
DNAJC9 0.25267592 0.116706766 0.1618914 0.098157525 0.17929554 -1.0728692 -0.4633342 0.25218898 0.6095358 0.056167945 0.21796939 0.22935592 0.46151155 1.3087776 -0.01579173 -0.05681674
MAP3K4 -0.867909 -0.37071955 1.4798664 0.08320511 -0.008042115 0.5685068 0.25498974 -0.17590699 0.49977636 0.913274 0.4341961 -0.33622408 -0.18366778 0.14169668 -0.0026076525 -0.49119294
IGF1 0.7951574 0.20765175 -0.14631511 -0.060325734 0.14942144 0.4501157 -0.5456486 0.18762414 -0.32839632 -0.18844791 -0.2584624 -0.9159053 0.46362075 1.4712502 0.1615176 -0.6972078
PTPN13 1.1200603 -0.6796301 0.07554328 0.33462828 0.28044817 0.9676926 0.16121987 0.15220605 -0.23123717 -0.61599934 0.3906736 0.32136592 0.3442673 -0.2900943 0.0111115 -0.0321237
CENPT 0.8993312 0.2915722 0.23731795 0.035991088 0.7364214 0.5268146 -1.2390456 0.2675983 -1.1242722 -0.4306949 0.27934682 -1.2093349 1.0651172 1.9676471 0.014221463 -0.03857468
CCNA2 0.19927424 0.25030604 0.31150514 2.215194 -0.27198812 0.28726938 0.6030761 0.05911198 0.90030915 0.31618205 -0.76536304 1.9720558 0.53960836 0.19420503 0.43647674 0.06880389
ZBTB37 0.2075649 0.11960957 0.24519603 0.07354268 -0.9900311 0.5295408 0.7350332 -0.8759374 0.77453244 -0.25694108 -1.1472114 1.0854694 0.46175438 0.59338343 0.13034299 0.013273586
RUVBL2 0.50833607 0.35381275 -0.06935913 0.43057206 -0.10926376 -0.22986077 -0.0007541771 0.58740616 -0.15514085 -0.043733828 -0.5041996 -0.09563964 0.14381887 1.1807858 -0.053799845 -0.16310489
TSC2 -0.10479867 0.282266 0.2476883 -0.37318033 0.3925511 0.45362797 0.36560798 0.16029456 -0.07686611 -0.09189916 -0.00034427154 -0.6999996 0.40692028 2.46557 -0.38766396 0.11911928
PTBP3 0.34915528 0.37856224 0.730243 -0.14656086 0.30668217 -0.20374775 -0.28845003 -0.022465788 -0.56230265 0.77942866 -0.2770223 0.28383303 0.3258045 -0.10135561 1.166429 0.6121716
ADRA1A -0.12027826 0.667638 0.082461275 0.89982057 -0.003970146 -0.93740016 -0.4871762 0.6775372 0.59325874 0.47866887 -0.11385189 -0.077844284 0.18721828 0.11432779 -1.347467 0.18484955
C5orf22 -0.15435246 0.08772755 0.48957226 1.1496515 0.3486255 0.17681414 0.1094704 0.08062045 0.79907 0.43622547 0.23322876 0.2056604 -0.36653367 -1.561921 0.15692829 -0.8692423
AGTR1 -0.21155494 -0.32749403 -0.025237693 0.24939057 -0.018700825 -0.5622337 -0.060216315 0.16172032 0.22953656 -0.17218974 0.27284202 0.2971257 0.5222031 0.4255304 -0.23075369 -0.025769485
CTH 0.41676846 0.18385775 1.0686857 0.1193102 -0.24945979 -0.3934303 1.4398704 -0.08148952 0.46200958 -0.67879486 0.460495 -0.17268877 0.115606494 -0.8008736 -0.027817426 0.6211661
NCOA2 -0.52013016 0.22643903 -0.018143265 -0.65816903 0.5211684 0.23230827 -0.18147725 0.35477328 0.61774397 -1.1497855 0.41814277 1.4509526 0.28870037 0.27024516 -0.022839997 0.09794726
FRMD6 -0.17520253 0.4216287 -0.55751276 0.681092 0.85020083 0.37171003 -0.16315071 0.037074994 0.035455074 -0.14078736 0.15348206 -0.07305146 -0.35153395 0.60700315 0.018744113 0.78998864
HGF -0.25926247 -0.2682881 0.64053625 0.6689951 -0.069219664 0.2178462 0.1441289 0.13586535 -0.39938685 0.21025991 -0.32599482 0.12920795 0.350851 0.33269158 -0.00026790696 -0.13180473
C8A 0.114204235 0.23038334 0.5401608 0.48759514 0.23783581 1.0363687 0.87822026 -0.016240725 0.00347953 -1.469954 0.16851158 -1.3972663 0.58729076 0.25465134 1.2785316 0.26097655
C6 -0.6707159 0.35180572 -0.08804048 -1.0065433 -0.018103587 0.086778365 -0.024009394 -0.02165642 -0.5787785 0.013855243 -1.338338 0.050092187 1.875588 0.14772172 -0.4715364 0.17199755
CDKN2A 0.41461504 0.34980235 -0.112561226 0.21842285 0.46282008 0.035784658 -0.015351173 -1.024014 1.363246 -0.44921425 0.6785413 -0.25037578 -0.010273378 0.45356154 0.0013053782 0.05040179
DCTN4 0.51033974 0.42430338 0.9066345 1.7522696 -0.016422655 -1.2744498 0.98046887 1.9705739 -0.10435788 1.1431335 -0.4346086 -0.04891145 0.040268205 0.90750957 -0.5331593 -0.89615643
RPS27 -0.90212774 1.147633 0.4775813 0.726971 0.0014298381 -0.042750265 -0.31222767 -0.0076200753 0.3330756 0.66518354 0.3455799 -0.06397304 0.39759436 -0.8322817 0.24326457 0.22776401
PPM1D 0.7066634 -0.7624051 -0.18330373 -0.89617157 0.8865743 0.13514893 0.08233192 -0.006650672 0.4273048 0.73883796 0.2780418 -0.4531344 -0.05852335 -0.98030233 0.049940914 0.28639638
CXCL12 0.495599 0.32950267 0.10359798 -0.04933891 -0.25489786 0.008224717 0.090917446 1.3776361 -1.1506625 0.8295917 0.8292836 0.13343497 -0.101490416 0.93000525 -0.02294015 0.0022165445
SFR1 0.14651836 0.14416616 0.9647104 0.64096665 0.20679238 0.040554073 0.11786644 0.012447089 0.5617843 0.47283226 0.288256 0.46917966 0.41593942 -1.4333291 0.034471627 -0.76012355
TIGD1 0.12934442 0.20968398 -0.13371947 -0.5506789 0.016488656 0.40041408 -0.5129521 0.050357327 -0.10902186 -0.21075812 0.66592425 1.2354252 -0.23708892 -0.90383494 0.0046088486 -0.9792971
RANBP1 0.038288727 -0.8432865 0.24952959 0.030472234 -0.08614868 0.29942033 0.3575424 0.18020914 0.5939173 0.30426577 0.5384699 0.15391289 0.16973828 0.21704592 -0.24797276 0.24033271
FAS 0.7397564 -0.33207363 0.59197265 -0.07681965 -0.22318722 0.33857659 0.13746575 0.19241858 -0.87851465 0.06326043 0.4512241 0.51687175 0.5562882 0.8140144 0.3990747 -0.028569125
CAMK1 0.38477397 0.2665262 0.3650863 0.53889906 -0.17014375 -0.08363193 0.061716795 -0.063312374 -2.0935252 0.48123226 1.9466963 -0.026667913 -0.020994058 -0.10698393 -0.05662092 0.81002045
PCCA -0.13252401 -0.5834002 0.30217043 0.8166719 -0.1373936 0.14594944 2.3695183 0.024297718 -0.19942828 -0.103217795 0.17836493 -0.074076034 -0.010836877 0.1157283 -1.0872386 0.737469
PKN1 0.6346968 0.2599508 -0.10749096 -0.06029684 0.3206408 0.16643961 0.05473609 0.3182795 0.08629676 0.016407471 -0.6379842 0.9043074 0.30628172 1.1421982 -0.45348918 0.03799827
ZNF398 0.59229 0.50914276 -0.853885 -0.10245835 0.6377669 0.22800584 -0.57126313 -1.104758 0.27128002 1.8778139 0.34676903 -0.04211258 0.31199676 0.2209749 0.089446105 0.6439672
NOSIP -0.08638446 0.14117481 0.15418378 0.8379834 0.20486549 0.15410185 -0.558726 0.04752967 1.0092242 0.79161185 -0.5840665 0.5354487 -0.46681374 -0.2580818 -0.035882946 1.3052068
C1orf74 -0.1826517 0.3107125 0.059652884 -1.128155 0.086449586 0.39615166 0.09190376 -0.38646594 -0.15274987 0.055964496 0.30089435 1.2016722 0.37289655 0.14603041 -0.092170045 0.06653231
PLSCR4 0.7803514 -0.0035444784 0.986429 0.32588312 0.3387312 0.53006756 0.67759776 -0.016699309 -1.0789459 0.3416275 -0.04992221 0.2972032 -1.0572311 0.6044834 0.7568246 0.06965373
MID1 0.20225552 0.08765496 0.1965567 0.5231715 -0.42999843 1.352347 0.9021427 -0.17872494 0.43006673 0.62082183 0.1657215 0.58504874 0.36917648 0.7890961 1.0548027 -0.06723261
DUT 0.40509844 0.5572922 0.7018642 -0.27197373 -0.21313812 0.3547934 1.0877837 -0.606762 0.12614027 0.32773817 0.2822712 0.13860464 0.33144033 -0.35057104 0.10019799 -0.5812454
LIPG 0.5167628 0.31552204 0.41512322 0.8843315 -0.036537282 0.14360389 0.0467298 -0.09809982 -0.004515823 0.5862052 -0.9042196 0.40129405 0.27933392 -0.5408351 0.014972176 -0.113900386
ADH1B -0.13372011 0.26465064 0.39594615 0.121683985 1.4839922 -0.16499254 0.5211493 0.046626255 -0.19702862 0.053618893 0.1810431 0.58297217 0.06325919 0.6795014 0.16404372 0.50258607
ADH4 0.29187557 0.5847363 0.74450445 0.40360516 1.0082272 1.3864079 0.37111488 -0.24608089 0.09612725 -0.08066834 -0.3184069 0.11572119 0.43397656 0.5428344 0.59753406 0.35604143
HMMR -0.06923623 -0.32629794 0.8061415 -0.0056722923 -0.013701988 0.35457668 1.3290962 -0.47823936 0.71281576 0.9822791 0.19852883 0.0058061345 -0.046580963 -0.051638994 -1.4465598 0.24353522
NGFR -0.040261876 0.27042702 -1.7597525 0.56122375 -0.49067673 -0.15414044 0.0062436503 -0.39035654 0.28796226 0.11383228 -0.45993647 0.0098670935 0.29185432 -0.23562962 -1.7318562 0.945151
C1RL 0.43997604 0.28582588 0.117995165 0.7327889 0.24820729 0.32178566 0.20183888 0.15173201 0.024584185 0.10105305 0.17237811 0.2582181 0.38209957 0.6706974 0.008978034 0.056650482
FCGR2C 1.1517799 -0.53191787 0.44888803 0.560218 -1.8294886 0.123220734 0.014858449 1.0601064 0.28568012 1.051119 0.19724645 -0.009511875 0.45944178 0.50253695 -0.012317138 -0.0018149099
AKT1 -0.11807214 0.0372101 -0.11649441 -0.11418944 0.096108735 0.93276536 0.76060903 -0.03778441 0.05555477 -0.34003383 0.046366718 0.45269307 0.95922416 -0.15438521 0.20307207 -0.029391881
MET -1.1284995 -0.011278998 -0.016598359 0.44747433 -0.021161165 0.15967844 -0.9443267 0.59814245 0.20564076 0.31262442 0.98915905 0.52516866 0.45036966 -0.17933688 0.39659435 -0.83073705
MUC6 0.3633902 -0.1893035 -0.01779953 0.64939886 0.019683676 0.26888016 0.02917159 0.31300327 -0.27442217 -0.2387266 0.2335503 0.71299255 0.21041769 -0.5241457 -0.64187884 0.41380134
PIK3CB -0.13352287 0.0016637801 1.520022 -0.14094563 -1.1936635 0.38218254 0.010071391 -0.09085269 -0.41454667 -0.22675554 0.4592449 0.19502668 0.38291544 -1.1445811 0.78456885 -1.0916791
TERT -0.9726097 0.9153002 1.044949 -0.16908364 0.44268537 0.20601977 1.4401435 -0.32721025 0.2854565 0.24018165 0.09638976 0.32304195 -0.3737902 0.45132318 0.36324528 0.36686847
MATR3 0.5037062 0.2113709 -0.18782964 -0.09644498 -0.7322288 0.22232814 0.13132103 0.3901306 0.017008582 0.77982014 -0.2087289 0.14777167 -0.29945508 1.3397202 0.09482939 0.012448855
ALDH1B1 -0.20529662 0.588838 -0.30343914 -0.32173738 0.11235145 0.5766707 -1.2715933 1.5871047 0.19174314 0.4956314 -0.35439438 -0.6686539 0.15314916 0.5333367 -0.1433322 0.07079995
ADSS1 0.1808312 0.33256832 0.13799822 0.38887897 0.071165614 0.22137523 -0.9978002 0.29072797 0.37305784 0.072796084 -0.2332569 0.057537924 0.48818144 1.5441976 -0.17925118 0.042871412
CSE1L 0.37505236 0.2671368 1.6460242 0.3163929 -0.30406952 0.5289426 -0.33532062 0.3791844 -0.14189689 0.8257097 0.21562761 -0.278102 0.3409092 0.03635461 0.001805155 -0.80930287
SMC3 0.33061972 -1.3482407 1.1738763 -0.035438288 -0.002585132 0.4125805 -0.0036429982 0.9427326 0.03822047 0.67023736 -1.2699862 0.06356941 0.3121623 0.3810842 -0.09615084 0.05355151
ID2 0.65867037 0.06926516 0.4302375 -0.09394761 0.039441545 0.79084086 -0.28421095 0.11733849 0.4794027 0.6710246 0.16290054 -0.4388193 0.6002136 0.8577199 -0.53899014 0.0700198
DISP1 0.6763207 0.19170985 0.60574436 0.7906799 -0.74465984 0.35431528 0.75697786 -0.07887744 0.062347893 0.47055492 0.6198184 -0.42120218 0.83166224 -0.3774925 0.75214857 -0.05317531
NNMT 0.656861 -0.23986642 0.3864972 -0.114802994 0.0961783 0.8303771 -0.13947566 0.4132332 -1.5692502 0.62266266 1.5596431 -0.08939843 0.14745663 0.03235712 -0.65215963 -0.07464111
PWP1 0.6327623 0.29534385 0.27103 0.90720165 0.6564366 0.44790328 0.85428894 0.5070641 -0.21623333 0.7168948 0.26303223 0.106845595 -1.6032475 0.18836255 0.051347516 1.3608301
RBM12 -0.16295959 -0.6866485 0.9743897 -1.0594093 -0.0144354645 0.10845817 0.027415648 -0.60171473 -1.1900179 -0.37316984 0.7533857 -0.06450693 0.43596974 0.18101627 -0.009093789 0.047318257
PCSK6 0.04850268 -0.88172835 0.32034802 -0.0076514715 -0.011396592 0.21274538 -0.44677594 -0.89211017 0.21795975 -0.5886178 -0.19500309 0.94706154 1.3308371 -0.75483644 -0.61033857 0.42220703
RPS10 0.22417118 0.33047947 0.56432176 0.7457208 -0.33919212 0.36381057 0.38961482 -0.26494312 0.5153935 0.97925836 -0.91380787 0.0229524 -0.05146911 -0.6229428 0.0041366476 -0.01068905
MELK -0.2996075 0.005911365 -0.52975595 -0.47977948 0.228552 -0.59127253 0.92664033 0.8172152 0.20223458 0.3798429 0.33620796 -0.07407804 0.3922635 0.42113626 0.042374942 1.3809142
SAFB2 0.42807207 1.3897476 -0.116445445 0.75633836 0.63960797 -0.9241608 0.3860986 0.045925964 0.13949047 0.23345661 0.027157854 0.141217 0.056858134 0.97311556 0.5886067 0.08515566
LIG3 1.5793878 0.13490748 0.38674685 0.00043223787 -0.052347235 0.55700195 -0.78223825 0.63211083 0.16225314 0.8125818 0.41647953 0.03366784 -0.59281546 0.39145583 0.14628316 -0.034086253
AKT2 0.16484092 0.03472929 0.6130885 0.28280455 0.24680242 1.1875772 0.8933861 -0.35079166 0.1979847 0.47964433 -0.19291316 0.53850627 -0.30819675 0.3383663 0.777142 -0.2622729
EIF4B -0.06524148 0.21169245 -1.4169735 1.0337516 -0.022191636 -0.010012959 -0.02387784 0.26254815 0.39348966 0.7404162 0.028224904 -0.001460517 2.359873 -0.24373053 -0.0025502201 -0.38029253
SLC27A5 0.7829808 -0.10131925 -0.24047895 0.28326726 -0.13557291 -0.6399676 0.29495728 0.16887827 -0.24279825 -0.025410965 -0.35648194 -0.021691239 0.36703023 1.5878179 -1.2105328 -0.016674126
RALGPS2 -0.040431112 0.29632148 -2.1418319 -0.50660044 -0.022628356 0.634979 -0.113594994 0.055170678 -0.19691284 0.034245163 0.19663914 0.41670415 0.5245507 0.2916611 -0.2409591 -0.02698808
PLG 0.57040447 0.31074977 0.38453138 0.26897797 0.29245982 0.039475992 0.13429822 -0.36958283 -0.04951426 -0.4300217 -0.5941106 -0.71216553 0.1606489 -0.25354803 0.007653402 -0.6785041
DVL3 0.077801615 -0.4187023 -0.17578308 0.00062863866 -0.18421023 -0.039825425 0.18146038 -0.042955626 0.22655885 0.4820279 -0.49561328 -0.02646666 -0.2014612 0.15694712 -0.025434375 1.3203917
CAMSAP2 -1.5631372 0.7773096 0.035891157 0.059228998 -0.023172839 0.27070212 0.5603857 -0.10403163 -1.3954616 -0.04547907 0.21657826 -0.41373086 0.43425253 0.6418378 -0.88202965 -0.36407474
TMPO 1.1182271 0.36463645 -0.29155913 -0.21415514 0.019591525 -0.3514134 0.11778489 -0.48719314 0.33575252 0.29035273 -0.6484042 0.022163862 0.70324713 -1.1904585 -0.008026699 -0.093927145
PRKAA2 -0.7602104 0.34954834 -0.15310885 0.30268538 0.07054282 0.30298382 -0.7943508 0.3846825 -0.74955004 0.12094636 0.51470435 -0.33744922 -0.39500102 -0.3741005 0.7506032 -0.02209411
ACD 0.18586983 0.65000945 -0.52610797 -0.4669975 -0.026115695 0.67033243 0.23470972 -0.55811036 -0.020851197 0.4101993 0.17500317 -0.6235083 0.24921574 0.09473725 -0.0306789 -0.32179692
KCND3 0.51864386 0.23740381 0.108667545 0.01434295 -0.09181087 0.8250826 0.46346328 -0.05103942 1.0968591 0.28423586 -1.0076185 0.62243855 -0.80217755 0.59684306 0.53893924 -1.1147249
GLS2 0.2880873 0.33468962 0.9441902 0.5990949 -0.48620248 0.0023433757 0.17737 -0.16770563 1.0118157 0.2037272 0.11519879 -0.15256828 2.0547915 0.12097854 0.28425968 -0.028870303
RNF144A 0.102678016 1.2623111 1.3845614 1.6113936 -0.08137493 -0.15874454 0.28512186 1.0824572 0.3122734 1.0206568 0.82401145 0.10644767 -0.098987564 1.0971792 -0.006816775 0.12045759
CA2 0.5394906 -0.65392935 0.21665724 -0.26108867 -0.52989864 0.73289967 -0.42784455 -0.0050194683 0.021688811 0.29275793 0.4276271 -0.67170316 0.3126974 0.85273564 -0.007379445 0.07308376
TSNAX 0.47769433 -0.20609562 -0.18301453 0.2682167 0.2574365 2.0568144 0.48668545 -0.018557204 0.42214882 0.15543374 0.2398936 0.37321135 -0.41284287 0.53415513 0.13954057 0.03547503
SLC3A1 0.4830685 0.17009862 -0.73784983 -0.80246854 -0.0028101336 0.20363437 -0.4982594 0.21628745 0.6326341 0.2920458 0.2957166 0.6274913 0.185353 0.4760484 -0.69245 -0.098604605
UBE2J2 1.6692842 0.43309027 -0.586276 0.07782966 1.2141671 0.4137467 0.55481887 0.068902746 -0.4667636 -0.0080207 0.15610975 0.24462803 0.28915396 2.0404522 0.6440688 0.03457201
ZNF189 0.029670134 0.25611675 0.58537203 1.5553188 -0.55211496 -0.14837407 1.6214598 0.22014704 0.8009191 -0.6853908 0.12585299 0.52649426 0.27009898 1.429778 0.018986542 0.022460774
CKS2 -0.05169591 -0.40817004 -0.24674286 0.92727834 -0.111781515 -0.3386759 0.08887767 0.014241303 1.4855005 -0.33828613 0.29044756 1.7421069 0.45912597 -0.20266646 0.113507904 -0.08800844
TOMM40L 0.7815074 0.095529705 0.30240288 -6.188813e-05 0.3795488 1.1842328 0.043617338 -0.58223 0.32126623 0.5425968 -0.0260711 0.028717639 0.20633489 1.1405708 -1.6749549 0.2707209
PIK3CA 0.0421081 0.09399745 -1.1873502 0.17889172 -0.22371453 0.0256534 1.2462248 0.45804548 -0.16033027 0.03195918 0.15564203 -0.4127285 0.39545786 0.6091531 -0.5982672 0.0082151145
KHK 0.99923503 0.02978615 0.5046533 -0.34096667 -0.5468 0.1474388 -1.5065416 0.32869768 -0.18757278 0.71885407 0.2430957 -0.66665995 0.44184583 0.283368 -0.007618528 0.13195379
CKS1B -0.035662517 0.31878605 0.6047723 -1.6643772 0.036639076 0.18136948 0.4089755 -0.03765428 1.1341364 -0.8965418 -0.009892518 0.021107262 0.5898889 -0.087146625 -0.023606194 -0.9786495
HBB 0.19041885 0.2541529 -0.09516553 0.1389247 0.40661827 -0.16281527 -0.7101191 1.500663 -0.14248526 0.62507176 0.6647221 0.16757904 -1.6221904 0.84109694 0.016150529 -0.074405424
INMT -0.5591837 0.2574469 0.48186505 0.2817557 0.25547317 -0.330461 -0.553756 0.09589583 0.4656119 -0.7254593 0.38075796 1.4172472 -0.5450879 0.20266443 -0.008574911 0.074416764
PTEN -0.006829963 0.042362496 0.5976849 -0.004910785 -0.023524467 0.2608581 0.1554847 0.3227542 0.6709193 -1.2912428 0.07392025 0.44570255 0.99482757 0.30392772 -0.3858525 0.22901285
ANLN -0.23185562 0.49771523 -0.65079176 1.2215894 0.095375635 1.6598557 0.046320964 -0.012617126 -0.36726397 0.12509748 -1.155296 0.20491374 0.25862613 0.20856346 0.21051103 0.80574685
PHIP 0.5276371 0.30906656 0.5023399 0.0970463 0.14677127 1.4528751 0.2501607 -0.20325221 -0.07617108 -0.14817904 0.4319896 -0.5290209 0.751227 -0.9477211 0.89366525 -0.17077133
RFC3 0.43492475 0.3235906 -0.39780754 -0.069045626 -0.7046859 -0.39539975 0.26090676 0.029081149 0.59765154 1.0609561 0.301856 -0.03382715 0.16811709 0.7742798 -0.05290832 0.10139403
EXOC6B 0.2707181 0.35391593 0.29196262 0.4411835 -0.013905081 -0.3530063 0.08469396 0.08734119 -0.06289609 0.4014126 0.36605737 0.18373443 0.39667714 -0.26992002 -0.004656292 -0.6034374
CCNB2 0.6696686 0.2799381 -0.0273116 0.12742761 0.28460598 1.1203694 -0.10718579 0.18896072 -0.4576123 0.22826317 0.5084858 -0.06638822 0.26851493 0.38737968 0.089838706 0.06391848
CLK2 -0.02267796 0.5589538 0.44593456 -0.19275469 0.1777133 -0.27536792 0.08102595 0.4465356 0.3186905 0.2886943 0.1959934 0.5559169 -0.098532975 -0.24465054 -0.9903285 1.2918252
FAM120AOS -0.57144934 0.26161203 -0.007046983 0.6899306 0.0027034804 0.27228957 0.011166055 0.49485174 -0.41293958 0.228198 0.33038747 0.14159895 0.33861026 0.42302296 -0.00802576 -1.0540763
SDC1 -0.009941538 0.42167917 0.09128513 -0.47295907 0.016283792 -0.03561898 1.0270604 0.30866408 0.8120929 -0.30947173 0.028690666 -0.07129243 -0.4592181 0.27787945 -0.18246277 -1.2085159
BTF3 0.28816324 0.3236322 0.29219088 0.9572748 0.29426196 0.2841014 0.1957901 0.1009998 0.16977727 0.30733097 0.3207676 0.050504204 0.23517686 0.3005787 0.0036616514 0.40929958
JUNB 0.08564923 0.25443995 -0.0986871 -0.045591317 0.10853439 0.78906566 -0.27646625 -0.15822513 -0.010890643 0.87872237 0.48841465 0.93750995 1.9498774 -0.021798685 1.0336852 -0.2878106
C11orf54 0.5980468 0.36508846 -1.1502576 -0.28898406 -0.022423286 -0.33060083 0.23962563 0.13154694 0.3887122 0.07567757 0.49925107 -0.8287649 0.5005287 -0.14951183 -0.8132829 0.33835605
ENSA 0.19415803 0.122549504 0.2116779 -0.8324927 -0.010828582 0.18197198 -0.55059797 -0.15575136 0.52339953 0.43949845 0.56386983 -0.10263323 0.43518826 -0.29796478 0.5762203 0.15792252
KPNA2 0.53205043 0.280372 0.47942272 0.15581682 -0.010189244 0.14298359 -0.11317033 -0.32013315 0.5204764 1.0448766 0.3324786 0.009676721 0.4168342 0.21197091 0.35629082 -0.9435229
EZH1 0.5573074 0.57259 0.52456754 -0.11805318 0.0032591852 1.6090919 -0.96657836 -0.52553433 -0.24738082 0.9250902 0.78079265 -1.8460755 -0.20488 -0.12401993 0.21843734 0.48397407
RIC3 -0.4500362 0.37844288 -1.2135116 0.29591638 0.13032626 0.23400123 0.59595394 0.025093839 0.9796001 -0.12727182 -0.7856573 -0.1502701 0.42509782 0.7155575 0.6536095 0.026755063
GBAP1 0.3933445 0.440347 0.5556702 0.32681304 -0.059242006 -0.19769189 0.16898522 0.610851 0.07649232 0.8575912 -0.41054857 0.13760307 -1.5878073 0.83940774 -0.55987674 0.19670345
WNT9A 0.48932818 0.38093078 0.40732688 -0.11534677 -0.15497318 -0.16483118 1.3339511 0.01160313 0.3029373 0.40005302 0.23048036 -0.07787543 0.43347812 -0.3023127 0.2537346 -0.13264367
POLR2J 0.04184455 0.27906495 -0.18084316 0.27775425 0.009478375 -1.2194858 0.6173979 -0.22029229 0.50245637 0.42241707 0.09222537 0.21919784 0.9325554 -0.3907998 0.47498843 0.2962491
BCHE 0.4649279 0.17401716 -0.2518346 0.2646516 0.041091803 0.6701359 0.21930133 -0.17516595 0.47286728 0.10944749 0.48885113 0.05074391 0.051974636 0.9840374 -1.5896984 0.011179639
RFWD3 0.047490668 -0.012031505 1.3277391 0.4028437 0.032167993 0.20271128 0.31443593 0.90699863 0.44131887 1.5297607 0.5347873 -0.21963252 0.13574854 -0.07876225 0.6267981 -0.9337703
ARID1B 0.4128634 0.9415855 -0.8837691 0.474897 0.06977589 -0.057475727 -0.06355173 1.3676943 -0.12683377 -0.09682411 0.39010435 0.17074826 0.776351 -0.5462024 -0.038397316 -0.73409945
ELK4 -1.136011 0.31919798 0.6240252 0.07855575 -0.2400858 -0.017272083 0.42635974 0.1876826 -0.18836987 0.39916644 -0.036331292 -0.6434456 1.7017641 0.45776978 0.07613281 0.020662269
UNG -0.037066177 -0.5754092 0.21695451 -0.52258646 -1.8825684 0.16040371 0.6485026 0.9487112 1.1392474 0.54320014 0.5850434 0.22559185 -0.0112685235 0.9082706 -0.120621175 -0.014150524
AVL9 0.3214532 0.4741939 0.19406283 -0.18940504 0.11405824 -0.40056583 0.04496869 -0.062466633 0.46775475 0.893681 0.25788096 0.05833207 -0.55296576 0.030864066 -0.54011387 0.04544086
TRIM22 1.2179556 0.007296113 0.9941283 0.39814582 0.3695534 0.44216955 -0.7328014 0.86552113 0.59262174 -0.41545665 0.53348684 2.673975 -0.3872589 -0.23548453 0.7376645 -0.20939942
CSPP1 0.49244288 0.37144732 0.5913752 0.7538852 -0.3619677 0.81863517 0.55681276 -0.05819273 -2.4632432 1.5169551 0.33289853 -0.0170354 0.010982512 -0.8323775 0.25039676 0.8613948
MRO 0.06742553 0.48624632 0.7913781 0.22130023 0.012889773 0.12899181 -0.29549104 -0.047833443 1.3290833 0.13697122 0.1817045 0.46216926 2.2537308 -0.09812127 0.019717822 -0.045563046
PGM1 -0.27799845 0.42070216 -1.7974727 0.3452737 0.010269063 -0.956703 0.001190233 0.07842354 0.36586687 0.835343 -0.20918596 -0.03209615 -0.20746972 0.8508792 0.14647274 0.44840884
RPL7 -0.2234042 -0.501376 0.21029648 -0.006537668 0.15072462 1.071064 0.046615575 -0.030105364 -0.23636891 -0.30099335 0.22506393 0.13982178 0.11986923 0.34069452 -1.2183717 0.33185494
FZD4 -0.13883886 0.41272217 -0.34560642 -0.20147194 -0.19547632 0.21814245 0.68398434 0.0042611975 0.42360374 0.038004134 0.19075859 0.2912582 1.1636026 0.3644954 0.01162289 -0.18191116
IMMP1L 0.027590288 0.61203307 0.46959835 1.0837294 -0.25069115 -0.57532156 0.060560647 -1.3434023 0.28478655 -0.47315916 0.12042838 0.012895172 1.1661669 0.210627 -0.59683543 0.14756514
NFYC -0.2489381 -0.32140964 0.19884716 0.43646643 -0.35283443 0.7861725 0.8013609 0.090614185 1.9524697 0.06452511 0.056273118 2.055992 0.3874165 1.3814394 -2.1462688 -1.4375979
SF3A3 0.61274296 0.14727648 2.3497748 0.3305106 -1.0774177 -0.87955177 -0.11185801 0.021718496 0.06443457 1.1658044 0.069692895 0.5693328 -0.60065633 -1.178051 0.10341145 -0.01360736
XPR1 0.22962359 0.020813711 -0.24325848 -0.05684156 -0.23397791 -0.16721381 -0.2760395 -0.9845498 0.47028768 0.29133767 0.13819829 -1.0830792 0.8336903 -0.9046537 -0.36591262 -0.7451364
CCT3 -0.1631569 -0.57826 0.7178633 0.871011 0.11487936 0.85729206 -0.59952873 -0.32695395 -1.1658248 0.39654633 0.9371057 0.09392412 0.15452367 -0.20095934 -0.012263512 1.2788347
SAMHD1 0.099043116 0.4208705 -0.3590086 0.33113575 0.019133978 -0.13432203 0.023698771 -0.21183367 -0.7820454 0.30467144 0.47691283 0.015688358 0.09349159 0.17862402 -0.19047116 0.7187609
LZIC 0.54836273 -1.2781281 0.80878484 0.060645368 -0.056167588 0.37898386 -0.033509973 0.9398026 -0.82981664 0.46734565 -0.24015215 0.49390736 0.03240578 0.39854157 -0.1661507 -0.051249903
E2F8 -0.5056349 0.603949 -0.015591731 0.56102735 0.0073711006 0.13318326 0.23126131 0.24122469 0.59265125 0.25122586 0.2823398 0.1624364 0.21724345 0.28604072 -1.0767757 0.0029440348
ACAT1 0.12285488 0.53246975 0.8121048 0.37404794 0.035595022 0.92925644 0.15262891 -0.0276651 -1.3114885 0.074246936 0.18157156 0.085180536 0.29100502 -0.5281145 -0.028061189 -0.26097962
GPM6A -0.8559727 0.41810307 -0.53627735 -0.18646947 0.5179105 0.2717032 -0.030756032 -0.017672177 0.2405832 0.19927189 0.8171392 -0.121777445 0.14903766 -0.19692579 0.61230814 1.0361333
SETD2 -0.45810562 0.17282248 0.58718956 1.3471984 -0.0027142104 0.07585503 0.44617605 1.9576094 0.552423 1.0454258 0.5715269 0.10063787 -0.6194468 0.7067954 -0.012208881 -0.425076
CEP152 1.0952021 0.4686945 0.06275574 1.119076 0.5420891 0.28674126 0.20126975 0.523316 0.24847658 0.20886905 0.30067733 0.3644212 0.13423134 0.931041 0.2730308 0.19891644
MRC2 0.70741993 0.59192544 0.069547035 -1.332914 0.059348192 -0.8024416 0.06433722 0.6676412 -0.61444956 0.9001565 -0.5136316 1.1189252 -0.016611932 0.410668 -0.25491592 -0.01742483
MCM3 0.4914622 0.2723354 -1.0100405 -0.1102362 0.82612705 0.48848292 0.18858457 -1.1847609 -0.18714052 -0.06360055 -1.1290113 0.12732962 0.27033553 -0.77359354 0.29220143 0.12768026
FOXP1 0.9415266 0.3259167 0.92989236 1.0669582 0.32669982 0.4190623 0.11738614 0.305749 -0.24565744 1.516774 0.32303977 -0.22034577 -0.06341304 -0.27850756 0.09828239 1.6081173
HOMER1 0.7727856 -0.72229034 -0.1699176 -0.4031658 0.8645702 -0.32619193 0.9705074 1.1332749 0.12678067 1.6039581 0.29186174 -1.1525537 -0.07963602 2.1059787 0.43986768 0.7178377
UBE2I -0.15877254 -0.2779551 0.024805102 0.09194857 0.5896387 -0.5481268 -0.10865118 2.5237186 0.23989888 -0.030610627 -0.29757556 0.8639055 -0.09740033 0.73360807 -0.04609706 0.08841356
NUP153 -0.2563126 0.42366192 0.5632769 -0.23209505 -1.0748078 0.25948343 1.3592204 0.4643974 -0.21209152 0.69524777 0.49632972 0.07657146 -0.067343585 1.5025096 0.089347124 -0.16785793
MTHFD1 0.42929628 0.34462395 0.9759331 0.025595099 -0.010357446 -0.6337199 -0.15106161 0.36087134 0.90171057 0.4002997 -0.3663643 0.10113084 1.2813761 -0.20583577 0.029978601 -1.6306077
PPOX 0.33688453 -0.7355313 0.0151520185 -0.4286559 -0.015807653 0.62396103 0.22840363 -0.88890964 -1.2926772 0.52016103 -0.45729372 0.10795983 -0.39942738 -0.17528151 0.5547197 -0.23320436
EP400 0.28465974 0.4252718 0.47937924 0.73421204 -1.1086969 0.41493377 0.91427004 0.03327217 0.6468949 0.16734153 0.3287349 0.10914052 0.18634775 0.39531305 -0.060601648 -0.86648
IFFO1 -0.039599955 -0.15941626 1.5158343 -1.6222825 0.2884945 0.038539868 1.9315283 0.20208582 1.006567 1.3204615 0.2156739 -1.2894784 -0.26421678 0.19780451 -0.047128495 0.5440443
SLC5A7 -0.50969636 0.7485029 -0.41835865 0.31896847 0.40382352 0.6016299 1.3387756 0.014149285 0.6523112 0.2463435 0.2701085 1.9502641 -0.48987415 0.17251216 0.026948974 0.8335474
PIK3R2 1.957952 -0.023796754 -0.018084481 2.3160212 -0.2901183 0.033547364 0.09123745 0.47564748 -0.32067326 0.17269239 -1.5170548 0.77599657 -0.03625926 -0.07279639 -0.75154245 1.0444562
HERC2 -0.3220898 0.4253426 0.76936156 -0.39562818 0.03194882 0.32770807 0.29716858 0.24610922 0.22363265 -0.12960772 0.3649569 -0.18736929 -0.4996559 -0.67893463 0.31647757 -0.16376474
ZHX1 0.7766656 -0.49332756 0.7684518 -0.36301064 0.83681536 0.220272 0.13745631 0.28937435 0.671663 0.36415714 -0.9605841 0.030006234 0.21958788 0.4502544 -0.23673715 0.3866269
DUSP9 0.6608072 0.27421314 0.18048896 0.43324578 1.4559883 0.2990182 1.7611144 -0.043267615 2.1567283 -0.14736293 0.33047295 1.230233 -0.017925639 1.0033833 0.68278164 0.07462595
ZNF7 0.72226423 0.31333393 0.049353033 -0.43118396 0.914586 0.7347615 0.14753713 -0.11895446 0.19185427 0.18207824 0.2692831 0.47096545 0.12360557 0.9670789 0.18311983 0.094922855
YWHAG -0.25584233 -0.6735226 0.10593069 1.2267652 1.4347845 0.6523589 0.37351054 1.2660698 0.22957896 0.1980307 1.2517605 1.3181698 0.019116117 1.0459975 1.0659595 0.35600764
TTC27 0.19897881 0.31501067 0.4687357 0.376105 -0.23899509 0.19836055 0.2661874 -0.25843522 0.5817047 0.80955565 -0.65694493 0.06982292 0.31938252 0.37579042 -0.25686857 -0.6631637
RPL37 -0.058940053 0.45460978 0.8540935 -0.22764991 -0.030211115 -0.2008818 1.2527628 -0.341161 0.4517369 -0.8763019 1.7403021 -0.36163095 0.23462252 -0.08608608 0.32096928 -0.7137773
PLCB2 -0.1142478 0.117039055 0.047758806 0.37737963 -0.38750663 -0.23817655 -0.13322364 -0.013510125 -0.6856157 -1.0476649 0.12711449 -0.09192072 0.6869994 -0.26626572 -0.121239126 -0.035694633
HACE1 0.6204073 0.6158161 -0.07772568 0.44728935 -0.0053304816 0.4184037 -0.13329999 0.78099316 -0.044552606 0.3867596 0.89413416 -0.051771127 0.24468562 0.39305347 0.0014555989 0.038220778
DMGDH 1.1358479 0.30238858 0.2236002 0.18453208 1.7212375 0.11687123 0.5013647 -0.07884761 0.308769 -0.07992131 -0.40240717 0.83569366 0.6503281 1.0513413 0.80309707 0.20026979
PLCB1 0.3272537 -0.044529304 2.0691156 0.21154287 -1.2748182 0.22559369 0.84651667 0.093677685 0.49555683 -1.0328261 -1.7863619 -0.20860386 -0.1986986 1.3368782 0.010012551 0.054314878
CHTOP -0.111360624 -0.3644081 1.4334592 0.16124386 0.11308245 1.2469405 0.5148403 0.18486847 0.43290037 -0.21507284 0.024867432 0.0764972 -0.63025564 -0.44408068 0.0140198115 0.2900759
PRPF31 -0.012588522 -0.29529056 0.27498525 -0.07824614 -0.52626467 -0.54280174 0.122889504 -0.010278128 0.35880014 0.039225496 -0.4304164 -0.33599648 -1.0327611 -1.2209275 -0.084650956 -0.07460011
DEPDC1B -0.35197398 0.28580964 0.66859037 -0.17604811 0.10968598 0.25143912 -0.35693163 -0.086191796 0.22679721 0.16312313 -0.7057799 0.14807273 0.5034497 0.49231982 0.8664837 0.010300988
ATP6V1F -0.06377448 1.7417054 0.6952161 -0.0015710839 0.8403433 0.09738165 -1.5491868 0.41940463 0.37035125 0.31149897 0.46093234 0.060248643 -0.1626449 0.69629854 -0.9032035 0.5413957
GAS5 -0.00511272 -0.10843242 0.032606937 0.5758223 -0.019922258 0.5521031 1.0058728 0.9712592 0.3502578 0.42919624 0.31300953 0.27972186 -0.11494413 0.39565882 0.05813813 0.16415356
CTSA 0.20724532 0.5111266 -0.2893846 0.20756929 0.12995282 0.24340844 -0.094912514 0.02657437 0.47233078 0.4264968 0.12838592 0.20320672 -0.74924105 -0.3656877 -0.004218318 0.30361128
KBTBD4 0.4527984 0.43478313 0.4485868 -0.13002905 -0.02449218 0.21348481 0.30655134 1.1612538 -0.024035256 0.5984204 1.524171 0.18681534 0.27306363 0.5253554 0.020305805 -0.85440993
ZMAT2 -0.4696475 -0.58668506 0.20183195 0.17701368 0.043381494 -0.3361243 0.32801756 -0.90576065 -0.4037063 0.24616225 -0.20974848 0.06722286 0.35766122 -0.4879087 -0.018227596 0.6919136
TGFA -0.047478877 1.3795419 0.20615147 0.93568474 0.041159365 0.79805773 -0.43093348 -0.14360642 -0.05582235 0.2575056 0.20469221 0.09903187 0.3982061 -0.004208087 -0.0055133104 0.17363942
GON4L -0.011208672 0.43771428 0.61671966 -0.3519664 0.23396218 -0.080768034 0.3380601 -0.10106417 0.7596743 0.10085938 -0.101475194 0.30969298 1.272058 -0.21375373 -0.0075531 -0.32180142
CHP1 -0.3684445 -0.07116314 0.35186937 0.08110131 -0.21681419 0.70299965 0.61189294 0.0085966475 0.7341978 0.30728802 0.44622448 0.47293985 -0.013686375 -1.1645628 -0.010453551 -0.2742264
SHC3 -0.0036430804 0.32964674 -0.55299264 0.7043705 1.0239773 0.8325805 0.17199425 -0.41566405 -0.10399794 -1.6382706 -1.6430894 0.22042397 -0.011278672 1.5289763 -0.17477423 0.6358809
DAP3 0.033190012 -0.23870991 0.65689987 0.45357242 -0.004314813 0.37712115 0.63889736 1.1206505 -0.15026377 -0.30872098 0.4908747 0.38192838 0.19299927 0.042207796 -0.032058846 0.04135525
SUV39H1 -0.4263428 -0.25548214 -0.35087812 0.8421314 0.05764983 1.4161063 0.15301496 -0.037957508 -0.16655678 -0.02559924 -1.2741718 0.8563129 1.50231 -0.0067505734 0.5140074 -1.6361381
PTH1R 0.10610814 0.32093757 0.105945975 -0.023853304 0.15603808 0.04026597 -0.38114873 0.044792384 -0.8699802 -0.040341664 0.43036413 0.41764012 1.215893 -0.14652096 -1.2772149 0.046170544
FREM2 -1.315511 0.5003995 0.3474521 -1.0025423 0.13920733 -0.7675765 -0.5859091 0.015057945 0.17889778 0.25354198 0.7362625 -0.1011163 -0.33814692 -0.025938177 0.35184827 -0.03201604
SUOX 0.078136586 1.5918149 -0.3823865 0.4975098 0.012826245 -0.3235688 -2.4689634 0.35024017 0.22460523 0.5060216 -0.97841436 -0.14984821 -0.27284697 0.3234182 -0.11514996 0.09757006
RALGAPB 0.85284644 0.21748514 0.06773436 1.5457972 -0.09690559 0.17141336 0.07410695 0.39866993 0.48112223 0.58359736 0.38182524 0.15020745 0.27581137 -0.94076914 -0.09144314 -0.2510292
DGKZ 0.3286873 0.4996313 -0.06987108 1.6268466 0.586734 1.567804 -0.16344228 1.5310183 -0.10213218 0.09704432 0.374631 0.7492282 0.27267432 0.415702 -0.059184052 1.2469423
TSPAN1 0.547688 -0.28550068 -1.5540584 -0.027946549 0.24829581 0.34524563 0.055162303 0.11585368 0.61860913 -0.44017416 0.42707294 0.7219446 -0.8997057 0.78742665 0.20192401 -0.2911215
PECAM1 0.48931855 -0.21755539 0.097482696 0.46479014 0.13889153 1.0248115 0.24038538 0.9500102 -0.36055318 0.28848398 0.42436185 0.6244163 0.15608425 0.38679954 0.41869015 -0.27305016
KRTCAP2 0.62569666 -0.90633106 1.1049434 -0.15204029 0.28796363 1.4597324 -0.5034714 2.1292157 -0.065851435 -0.48134825 0.560487 0.33091313 0.19107102 0.6121342 0.07602734 -0.046909105
MTIF2 0.5490709 0.47780782 -0.22259095 -0.30893144 0.17822342 -0.82025534 0.9222762 1.2762854 -0.13026954 0.52189255 1.7999971 -0.007136414 -0.021519093 0.5504997 -0.4145211 0.72764385
GSTA4 -0.04900729 0.23789719 -0.12955573 0.5991323 0.20670705 -0.2269055 0.289219 -1.5194803 1.1403116 -0.023293126 0.5063189 0.7671584 0.18542358 0.53655255 0.06588378 0.0041779066
KDM3B -0.1687133 -0.32639378 -0.12598741 -0.08448744 -0.1262115 -0.19804534 -0.52767056 0.25214916 0.89768857 0.36312148 0.26356134 0.39800745 0.83209634 0.70787483 -1.0520457 -0.3863324
TTL -0.25993505 0.24001071 0.7150808 0.47021857 -0.00080217933 0.28923988 0.05887129 -0.0044201775 -0.9233816 0.34110388 -0.9462027 0.3643368 0.3880642 -1.0268592 -0.063597314 0.48334196
SPRR1A -0.3726212 0.35868794 -1.3469081 0.23020038 -0.027658427 0.2743756 0.26971027 -0.022891853 0.5412453 0.9099759 -0.6967491 0.24981438 0.15105544 0.3310055 0.5568242 0.109550126
ALDH2 0.2836439 0.80168617 0.37845138 0.15213472 1.3249422 0.23629205 -0.14962459 0.017386781 0.05356632 -0.15701124 -0.011696473 0.48319244 0.3025095 0.6944512 -0.36403725 -0.110746376
METTL3 0.7119768 -0.570164 0.61842716 0.26671052 0.25331828 0.44953588 -0.6199428 0.026232826 -0.4231743 -0.15175892 -1.7833863 0.08536904 0.5359505 0.3420278 0.5443056 0.082719326
NEDD1 0.9456312 -1.3717883 0.004844864 0.051966846 0.06565159 0.39915663 -0.66645765 0.425434 -0.15134108 0.30034766 0.6454804 0.33154717 0.44490933 0.16393568 0.26930872 0.016108813
SCARB2 0.37127274 0.20806745 0.51939946 0.7219028 0.027288198 0.33661944 0.43221423 0.015986325 0.15646234 0.54588914 -0.038118664 -0.25149712 0.4652941 -0.20976435 0.14710286 0.28248057
KDM5B 0.2501333 0.37465104 -0.3116736 1.3736638 -0.027354706 0.21958335 0.04462571 0.42957652 0.46703222 0.33145007 0.43627694 0.31120223 0.23356324 0.43839416 -0.03300184 -0.09365121
E2F2 1.655668 -0.4690108 0.7350418 1.6246536 0.8510858 0.74885315 0.98037636 -0.104627304 -0.540892 -0.37627184 0.085191935 0.11523376 -0.6120781 -1.338176 -0.975474 0.57086504
KLHL12 -0.17270148 0.3860383 0.13440387 1.099412 0.28325093 0.047089428 -0.22422609 0.23162043 -0.021162394 0.18579622 -0.1968423 -0.317107 -0.40845388 -0.34255394 -0.007521418 0.5295796
MAP3K1 -0.62381667 0.28321818 -0.017320748 0.4107658 0.21084319 0.29370174 -0.5430009 0.14134413 -0.55054545 0.014381991 -0.006447284 0.96890455 0.90172875 0.008755438 -0.39720586 0.3418563
F3 0.05270099 -0.21925183 -0.32210508 0.18104233 0.85269755 0.088345096 0.4068362 -0.17776144 2.2906015 -0.029056434 0.05831047 -0.55731916 1.0560316 -0.24637231 -0.024033038 0.24436349
RPP40 -0.041457664 0.46782157 0.048816893 1.3416159 0.017330293 0.38934863 -0.68586546 0.38767523 0.7364427 0.61040515 0.24116023 0.5944762 0.23838893 0.32481983 -0.01594604 0.97460663
RRAGD 1.2462666 1.1974748 0.82960624 0.38604334 -0.0134014925 0.203857 0.24011903 0.23749012 0.086450234 0.101418935 1.237108 0.02668824 0.41182825 0.7838358 0.327136 -1.0748754
PAXIP1 1.2294127 -0.82712036 0.19479716 -0.11428225 0.37798706 1.077002 0.094688 0.23729838 -0.25121665 0.08691486 -0.31394908 0.2491285 -0.010950387 1.6323053 0.07633427 0.1872416
RAN 0.19675684 -0.29194307 0.23035523 0.2370755 -0.0753083 0.36843577 0.55608815 0.14385535 0.8787517 0.9261159 0.53957015 0.41585732 1.036558 0.34124666 0.18172416 0.103280105
GSTA3 0.0076202024 0.180756 0.3009291 0.13716282 0.14425495 0.4286301 1.5332382 -0.070723854 0.34286743 -0.25320226 1.7351886 0.67899823 0.0957155 0.12657315 0.74985665 0.2289769
HSF2 -0.57706285 0.9252312 -0.087093465 -0.6611176 0.45010483 -0.02010367 -0.60980076 -0.10614418 0.06113052 0.2255022 0.7848229 0.96008176 0.30022597 0.05488755 0.012115508 0.046549164
SART3 0.34175175 -0.8383964 0.219081 0.04144997 -0.4118922 -0.16901466 0.583655 -0.016446294 0.699745 0.3793774 -0.4481699 0.15913747 0.34126854 0.407807 0.25064877 0.01446332
TBL2 0.6393885 0.31867036 0.66958094 0.43824783 0.9429588 0.42064705 0.15558964 1.6064045 -0.056464527 -0.5019462 -0.34270787 -0.5961224 -0.14822672 0.47585785 0.068252005 0.24266571
DHX30 -0.051552005 0.46737844 1.8985403 1.2494609 0.0055751326 0.07218742 0.26783404 1.1199164 -0.032478064 1.3261585 0.16434175 0.03649624 0.056245815 0.39033425 -0.7707933 1.4959216
SUV39H2 1.2918694 -0.18375696 -0.08813749 0.33766404 0.2684738 -0.13562648 -0.071859986 0.34827203 -0.50497526 -0.01235054 0.38683492 -0.10265051 0.3408975 0.6246644 -0.10887039 0.007468112
KAT7 0.3040714 -1.5190523 -0.3912234 0.2542933 0.31302246 -0.072292104 0.79968226 0.20528911 -1.0021424 0.14209493 -0.20939425 0.33190635 0.48471567 0.11925624 0.017708475 -0.28302
GSTM4 0.4749034 0.2671099 -0.5857285 0.03939496 -0.0367589 0.20770115 -0.123423584 -0.28273144 0.6327876 0.3394537 -0.16275647 -0.13161169 0.43449578 1.6682932 -0.27834007 0.012187587
MRC1 0.41658992 0.20669132 0.6838325 0.0013563619 0.971093 0.20640536 0.14786702 -0.25522274 0.099414974 0.8622923 0.2624457 0.2605146 -0.43696353 0.45543915 0.22770748 0.5267257
NUTF2 0.1279583 0.70670027 0.46382183 1.5674037 -0.015398096 0.16703984 0.40555862 -0.49276823 0.26998764 0.27648035 0.27900568 0.024455544 0.16549538 -0.46580955 -0.4114087 0.14197381
MCM10 -0.38202277 -0.20561285 0.38084605 0.9944773 -1.2492185 -0.47730356 0.46035144 0.02484478 0.2486629 -0.22749758 0.38992736 -0.036329646 0.17612351 -0.4509417 -0.00022628599 0.009030353
ROCK2 0.18155378 0.2285652 1.2919024 1.1872925 0.19353005 0.22236682 0.22700846 0.4638355 0.2016057 -0.64290977 0.26576334 0.17514025 0.45924583 0.62975377 -0.029543366 0.00863377
NQO1 0.1109597 0.27135906 0.35197943 -0.18082322 0.29543683 0.22687937 2.1728818 -0.79058594 -0.0004441259 0.20555031 0.47737557 0.10554667 0.05866317 -0.018774305 1.3540305 0.018214084
ARF1 0.17515329 0.1533668 0.28015566 0.33655494 -0.0031579067 0.10857884 0.36842993 0.021312399 -0.063582405 0.08247644 0.08933472 0.1896618 0.61583936 -0.07327222 -0.01967018 0.054766808
NR1H4 0.8975671 0.12967303 -0.21935612 -0.3282951 -0.04526995 0.37246296 0.5896094 1.1214253 0.52607596 0.72759336 0.28986052 0.079618275 0.146111 0.51213956 -0.3066461 -0.0014355821
TPMT -0.11462829 0.5749123 0.049751934 0.8154215 0.37691802 0.26404658 0.4349622 0.37599316 0.1429164 0.6962653 0.27820265 -0.075389385 -0.034043353 1.3051016 -0.39872825 1.085015
PBLD 0.15102941 -0.08726852 -0.06748748 -0.274321 -0.012498462 0.4604991 0.6214768 -0.19248687 -0.48729873 0.17283453 0.77428037 0.3024041 0.29903105 0.13184653 -0.15899193 0.43420005
MEFV 0.31569627 -0.9994636 0.14185853 0.5385166 -0.18452899 0.07317615 0.04046685 -0.07213922 0.3342134 0.47009894 -1.2562689 -0.9726736 -0.22672206 -0.5200918 -0.36194432 0.5652913
LAMA2 -0.7660065 -0.2958788 -0.0453508 0.27286828 0.1487342 0.24993363 -0.31120527 -0.28427067 -0.18314825 0.03922753 0.3697391 0.47524714 0.08713719 0.0076671713 -0.122876376 1.7570679
SEM1 0.061899766 0.14074746 -0.09932887 -0.43681347 0.175542 1.9592716 0.267038 1.928961 -0.42318153 -0.24198312 0.47762266 1.039817 0.019144563 0.44807938 -0.08647326 0.055806924
OSTF1 -0.34995338 0.21191195 0.30373475 0.4437122 0.047758404 0.25687525 0.8117194 0.33460605 0.674838 0.3981736 -0.5608407 0.82991326 0.11616 0.307991 0.02518701 0.056420814
RPS6KA3 0.30927598 -0.065973446 1.3532511 0.5290773 0.9355464 -0.2673729 -0.49873668 0.3237993 -0.52652586 -0.26143 0.38185716 1.741082 0.47482276 0.62076706 0.37632626 0.7492653
ABL2 0.04520487 0.45182282 1.1560705 0.80038136 -0.006383387 -0.07209716 0.5740413 -0.14756957 0.50800854 0.37929174 0.16808653 0.037750293 0.46762818 -0.4760007 -0.0054655587 0.22305167
MGLL 0.9914135 -0.40324894 0.24973765 0.7390759 0.01265882 0.16820154 0.52804714 0.17779636 0.70178485 0.6490883 0.4165496 0.24638811 -0.28583452 0.4490484 0.039088096 0.7723955
CITED2 1.4747025 -0.015546612 -0.13358684 -0.906655 0.11981033 0.07854546 -0.2956698 0.44366828 -0.2670972 0.290385 0.732416 -0.14019921 1.0513543 0.7544824 0.019709753 -0.11570252
METTL13 0.04826758 0.099124305 -0.8981465 0.3950032 0.25183278 0.30253187 -0.888421 0.4172921 1.0132183 0.1487067 0.21580459 0.5387537 -0.41198188 0.7707401 -0.23076002 0.38717845
CD82 0.43807253 0.2716192 0.043379806 -0.8043179 0.32835564 0.28703877 0.51595306 0.101120085 -0.22463745 -0.1723354 -0.10198926 -0.07222047 0.21133997 0.793216 -0.010293942 -0.012694919
ETV4 0.020994771 0.7619128 0.18726806 -0.98890054 -1.8339264 -0.0405539 0.6743146 0.03921995 -0.18186215 0.0025524676 0.52287287 -0.44890752 1.6202756 0.41018093 -0.0047119763 0.038670603
NUP93 0.67238045 0.63754773 -0.060092896 -0.054618455 1.0342908 0.20512992 -0.5027606 -0.17518748 0.3330664 -0.17571166 0.11217491 0.9834041 -0.2774683 0.61610854 -0.0558424 0.019120887
ABCB4 0.056450997 0.38435572 -0.025726229 -0.07503013 0.84284234 -0.44625297 -1.4592161 0.46426073 1.1893741 -0.50500494 -0.95057714 0.19618134 -0.14341564 0.10645637 -0.38221475 1.3662874
ATP6V1C2 0.15044987 1.9416366 1.2277342 0.42144093 0.4046497 0.39133817 -0.17371161 0.40273365 -0.17088899 -0.6052497 0.08216933 0.013062237 0.47008285 -0.6584383 -0.004706674 0.013517236
TCF7 1.4447284 0.29389054 0.9614108 0.6753827 0.10189921 -1.194252 -0.36538076 0.37710306 0.14705157 0.08355711 0.26303926 -0.2506601 0.6132074 0.7376781 -0.046004683 -0.06363341
RAB4B 0.11113572 0.371607 1.2358279 -0.13164854 0.009340595 0.25985754 0.060325757 -0.921315 0.411086 0.15222903 0.3131965 0.09836493 0.41629115 -0.9232123 -0.05980592 0.054289367
ADAMTS1 1.2428963 0.2965993 0.114584215 0.6700088 0.040901713 0.0009834648 -0.35830465 0.25847915 -0.79797685 -0.40012136 0.9486741 0.013464648 -0.1805936 -0.2943806 -0.026927728 1.0774317
RRM2 0.3692253 0.57008785 0.28668302 -0.3418287 0.060461693 0.27260473 -0.058042627 0.9782742 -0.02284205 0.52928376 0.35705057 -0.17372915 0.17844877 0.42879388 -0.13157608 0.30273515
DHX9 -0.17187688 -0.5180855 -0.9730641 0.67653096 -0.028875927 0.261291 -0.14518979 2.4410572 0.4093425 0.66197586 1.204684 0.41436177 1.3072139 -0.39589012 -1.3789754 -0.06708311
PCYT1A -0.21678972 -1.3232945 0.29400548 0.02435684 -0.039273247 0.98006 0.8301654 -0.1274085 -1.0350829 -0.016735809 0.16663557 0.22092672 0.06893851 0.5392348 0.21021183 -0.5444204
CCDC167 2.125122 -0.0052741747 0.025682628 0.24144031 0.2688675 0.581417 0.01790339 0.31123 -0.064139515 0.797054 2.0264595 0.6025316 0.19596227 0.15957241 1.0271447 0.07292471
ZDHHC16 -0.12902203 0.9875805 0.52548856 -0.38459247 0.22098696 -0.6288511 0.47167018 -1.029813 0.003241283 -0.76238245 -0.569262 -0.08278959 0.57857233 -0.28963175 0.21115807 -0.3352901
MTHFD1L 0.64963645 -1.1430575 0.2684009 0.056673422 0.855811 -0.7828529 0.07747548 -0.56903213 -0.13737111 -0.17472628 0.14116694 0.03784135 0.00096735545 0.7443161 -0.12990443 0.32659912
STEAP3 0.24531767 -0.225026 0.42254695 -0.1797176 -0.04125582 0.15952289 -0.15724789 0.04034392 0.5207339 0.3618786 0.3213214 -0.5184015 0.11847862 0.44036558 -0.072673365 0.24154018
CD1D -1.3911985 -0.5811096 1.080852 0.07594807 0.9896601 0.7866866 0.27761638 -1.0870343 0.50228834 -0.1723388 -0.25902814 0.14805552 -0.119629815 0.39574465 0.06402485 -1.0457331
TERF1 -0.18627274 0.2475208 0.5151713 -0.6745943 0.93101907 0.990713 0.5510292 -0.008440193 -0.13016795 -0.0056464826 0.3893901 -1.5821991 -0.47737736 1.0115246 0.02165823 0.34994859
MTR 0.09468851 0.0792598 0.178129 -0.27041388 0.25093466 -1.0893949 0.07609261 -0.3653534 0.49189588 0.19383818 -0.25883746 0.105862744 0.25912067 -0.10026663 -0.85225195 0.5793474
PEAK1 0.2105678 0.25444067 1.3523698 -0.647557 0.11652749 -0.6357179 0.25975844 -0.29021347 0.50132 0.5343519 0.14657992 -0.72114855 0.34178087 0.58568335 -0.5663593 0.45693272
GJB2 -0.69391793 -0.29392797 0.68585545 -0.2799135 -0.0056185294 -0.07371006 0.95578045 0.09823899 0.65595454 0.084402755 -0.08634081 -0.22829069 0.28750077 0.47584856 0.13158582 0.428262
TACC3 0.074438736 0.35005203 -0.8959443 0.91481936 -1.314146 -0.19279939 0.2540659 0.81326425 -1.1453078 0.81271964 0.42520368 -0.085495934 -1.2907779 0.7018997 0.065203786 1.1206058
NKIRAS2 -0.027745076 -0.67742276 0.14480478 -0.07031183 0.69366604 0.2682899 -1.3112662 -0.25793564 1.256122 0.05074707 0.15107341 -0.0517427 0.28038836 0.1462569 0.17347834 -0.021200575
AP3B1 0.8626593 -0.015964262 0.20749018 -0.10981837 0.09718336 0.27516127 0.40478387 -0.1906772 0.24312085 -0.16722606 0.28477556 -0.1914498 -0.20317084 0.40995848 -0.3436704 0.038672898
CENPX 0.2150189 0.3335459 0.20495707 -0.32187158 0.03429163 0.88267386 0.2275963 0.9332691 0.35045928 0.69274086 0.501032 0.25524852 -0.574757 0.4672977 0.0071247276 0.07412207
SUPV3L1 -0.17313856 0.32460472 -0.11307892 -0.24532393 -0.17370278 -0.08747934 -0.35774848 -0.035124995 0.023352992 0.8262742 0.22887056 -0.19896293 -0.5449804 -0.12729974 0.057106405 2.5694938
CDKN1A -0.009314168 0.051136494 0.44736183 -0.63017684 -0.056375723 0.43091613 0.3801842 0.09399854 -1.0073888 0.44331545 0.55733436 0.6833461 -0.012771975 0.15332353 0.057091463 0.052859966
MLEC 0.22204007 -0.15703082 0.11040734 0.28935817 -0.02321481 0.25618976 0.9390579 0.3081141 0.14670068 -0.2614583 -0.28478372 -1.3316941 0.36114964 0.76008654 0.016000107 0.22316955
PRKCB 0.09826822 2.1305711 -0.08197235 0.56983167 0.33026245 0.02872695 -0.7505456 0.13983269 0.42483097 0.19427016 0.71732414 0.12854372 -0.055135157 -0.20111416 -0.58567256 0.18091464
SNRNP40 -0.50757 0.30802745 0.20535636 0.14131746 -0.013590226 0.4819027 0.37790763 0.1765159 -0.1885065 -0.57649446 -0.09539294 0.20520172 0.10488386 0.35175163 -0.37110427 0.2289902
ADIPOR1 0.23254503 -0.28532758 0.23414433 0.045798905 0.14221022 0.3706021 1.369973 -0.129786 0.8571979 0.2391439 0.18017869 0.45342073 0.262832 0.52646273 0.1808983 -0.074256755
ACTR6 -0.9795354 0.3942832 -0.6166336 1.0911372 0.23215848 0.10412674 0.22410928 -0.017393395 1.145915 -0.103544325 0.14782566 2.46255 0.43849897 -0.21241012 -0.53046906 -0.90052426
NDC80 0.047420315 1.6370479 1.4985656 -1.1727767 0.33255515 -0.26055342 0.13440281 1.3210517 0.14355116 0.7009024 0.24354862 0.39136806 -0.37084684 0.35203955 -0.050499287 -0.09896481
TSPYL1 -0.6531935 0.26038006 -0.38324842 -0.9962636 0.3914925 -0.3108278 -1.4172242 -1.0306572 1.2577866 0.0734915 0.4167607 0.21854024 -0.1677281 0.20183754 0.11691027 0.95745987
PUF60 0.23567 1.433567 0.24869731 0.01401686 0.49023077 0.34068942 0.4039728 0.055317298 0.18247947 0.18756226 0.20894839 0.18312763 0.19343764 0.47738314 -0.10412435 -0.3287464
TINAGL1 0.2088569 -0.4118483 0.10842312 0.099999726 0.9085826 0.546734 -0.19169569 -0.17733096 0.53884745 -0.019803423 -0.5891874 0.8892117 -0.9004261 0.75660014 1.0364695 0.16852422
AGAP1 0.0040625897 0.28956836 0.4964605 0.3381695 0.033216182 0.29459238 0.4712663 -0.5984796 0.27600998 0.5397639 0.22591135 0.030241666 -0.554961 -0.22872655 0.20089969 0.47092625
STK39 -0.43413568 -1.1358491 -1.0346278 1.92331 0.0021421816 0.36175093 -0.04917636 -0.35254312 1.4529134 0.16330428 0.28691941 0.74752134 0.27852315 0.420742 -0.775728 1.0596573
CCT6A 1.0379395 -0.8418534 0.557446 0.114792965 0.20422637 0.5280131 0.11737458 -0.947482 -0.15815842 -0.96952057 0.26972276 -0.2592493 0.08292059 0.31757683 0.029100299 0.09800893
DCN 0.3455189 0.27727246 0.3349589 0.46144322 0.02698687 -0.23354106 0.047659654 0.3540678 -0.6444109 0.5079526 0.050478112 0.07319561 0.36468163 0.13731945 0.00868904 0.31593943
CEP70 0.8823604 0.47109398 0.34164566 0.24977036 0.534552 0.20403658 -0.5759981 -0.055074804 -0.3106518 0.8113062 0.06917314 0.0030447713 0.55282843 0.3857434 0.5315345 0.29764584
SERPING1 -0.7726534 -0.04341594 -0.14202923 0.31391937 -0.19405283 0.35926422 0.5327344 0.1643875 0.33803722 0.09044232 -0.36870393 0.41573575 0.06020686 1.3302342 0.20144704 0.1705307
TPM3 0.67440623 -0.54862005 1.5148506 0.8239605 -0.2194819 0.24145277 0.058021385 -0.52469397 -0.2642611 0.1284433 1.0738637 -0.006468519 -0.25322634 -0.2881471 0.01276962 -0.18875307
CHKA -0.11109863 0.5891666 0.42168432 0.6441159 0.08618222 0.23175104 0.28803077 -0.15593967 0.32176375 -0.16852239 0.78229755 0.25579718 0.13557199 0.012192887 0.20108983 0.53320307
ADK 0.9324063 -0.5800653 0.2214947 0.91815746 1.2787917 0.9545635 -0.20214088 1.245217 0.29076016 -0.45861924 -0.03177029 0.55589455 0.2485278 0.9056337 -0.57877296 0.47804692
NOP2 -0.13620478 0.30538544 -0.26964796 0.4434761 1.0033996 0.10071528 0.07005426 0.07141931 0.48346028 -0.06500394 -0.16271292 0.04993179 0.13474938 0.60574096 0.02719364 0.08358881
RNF150 1.6015258 0.31773895 0.097572856 0.20883417 0.03588058 0.37354368 0.8392691 0.21831147 0.43844032 0.50880975 0.97593683 0.12338173 -0.19834381 -0.3884864 0.5007989 0.07705879
PPP1CC -0.1773903 0.6204369 -0.0981168 -0.37408856 -1.0983101 1.7061527 0.5388928 1.8191175e-05 -1.4884714 -0.40547553 0.18458569 0.22418173 0.2927866 -0.055248253 0.01617198 -0.10826846
LSM2 0.5058487 0.39885727 0.48394266 0.3830162 -0.025631545 -0.21981262 0.11741258 -0.30963328 0.4406767 0.7489079 0.36285138 -0.86025697 0.19601358 0.45745417 -0.006984301 -0.001474228
CNOT3 0.5409099 -0.24920852 -0.18931395 0.1450171 -0.011126498 0.36496916 0.09567833 0.034192134 -0.1402514 0.31552377 0.34258753 -0.0993851 0.45192426 -0.3229524 0.0040190993 0.16008799
PCLAF 0.17182891 -0.28091323 0.31879687 1.1971456 -0.13937098 0.39313397 0.16361274 -0.5310923 0.3345915 -0.35853606 -0.02299684 0.46395907 0.5340174 0.35759914 0.037398722 -0.16944548
TGFB1 0.40730414 0.16532205 0.2796451 0.28376412 0.2114799 0.37849134 0.29465932 0.053310797 -0.12228737 -0.54630214 0.3993561 0.11622367 0.32656136 0.31377915 0.5150447 0.010353634
CCDC6 0.4775631 -0.749152 -0.25353953 -0.1048801 0.39523745 0.21710368 0.16621462 0.19261833 0.7460864 0.11784323 0.207929 -0.6582823 -0.46250963 0.6870194 -1.001517 0.47824633
COMMD5 1.309949 0.06563829 -0.102270536 -0.12768103 0.34209692 -0.42114213 1.2479293 0.68373656 -0.44213822 -0.78802955 0.1077412 0.16136307 0.31919423 0.677889 -0.265754 -0.0048995465
ZSCAN29 0.17805961 0.45714855 0.1463295 0.3076195 0.002044566 0.32924965 0.4713172 -0.059380114 -0.14550538 -1.1152822 1.5750922 0.14258473 0.22949088 0.4916568 0.15720516 -0.5562762
ZNF322 -0.13821374 0.34254527 -0.375363 0.1948786 0.21432033 -0.18846563 0.35558838 -0.13363439 -1.5960039 0.10867263 0.093655154 0.053492136 -0.99438 -0.4427293 -0.022260597 1.022579
IMPDH2 0.5521406 0.2216816 -0.014650104 -0.08751194 0.37123317 0.24575394 -0.33815992 -0.10504131 -0.5582752 -0.048635982 -1.1575936 -0.14037828 -1.7975477 0.45303378 0.83399165 -0.020920696
RINT1 -0.06212302 0.5813179 -0.049325284 0.50466925 0.5422162 -0.11207643 0.17614308 -0.034683086 0.29839084 0.52230185 0.7186591 -0.066915125 -0.16705833 0.4520504 -0.036043655 1.4705287
CYP2A6 -0.061608657 0.41352022 0.16784824 0.98246306 0.67270947 0.40423203 0.12943645 0.07022639 0.26141676 0.26751083 0.08405463 0.86196345 -0.98039496 0.1915493 -0.031146597 1.2118219
ITGB3BP -0.25967482 1.9139967 0.45711634 0.020691434 0.2016873 0.10362166 -0.8348364 0.3737288 0.2540277 0.9145651 0.5866018 0.116224565 0.86483586 0.35151044 0.859149 -0.04230788
FAM20B 0.016132785 0.47802755 0.3843151 0.15617053 0.60138226 -1.1577986 0.43202287 -0.033236083 0.52885103 0.6825668 -0.030081103 -0.8842589 -0.61659956 0.87714565 0.46384472 -0.23777527
PIAS1 -1.3908192 -0.23641764 1.6421953 0.8661217 -0.043167137 0.20812418 0.26867568 0.43939814 0.8376585 0.31941962 0.43301368 1.2414749 0.6953561 -0.09298916 -0.15113093 0.28990984
ITGA2 -0.12809572 0.30420387 -0.24133526 0.083612934 -0.0020908308 0.39788607 1.4606947 -0.7874646 0.40777326 0.24343906 -1.6834314 1.1164035 1.4681522 -0.0032261573 1.0388943 -0.7544302
CNOT6 0.54451567 0.658114 -0.15604064 -0.15252508 0.01229014 -0.4911672 -0.050427176 0.91153014 0.23270988 0.47450146 -0.1655442 -0.2683812 -0.008629365 -0.22106607 -0.046385903 0.08714203
NRAS 1.2050248 -0.6438804 0.01984577 0.4281553 -0.06074565 -0.2421603 0.33410007 0.30602378 0.58886325 0.37089616 0.46033502 0.4895469 0.31525838 0.03130828 -0.8429089 -0.05504437
PSMD4 -0.6288895 1.2340909 0.045165345 0.47179627 0.115979016 0.1967913 -0.21977288 -0.17707749 1.1742693 -0.2124284 -0.75994724 -0.2839724 -0.37646267 0.32451028 -0.2861984 0.40143013
ZFP36 -0.20334175 0.21065238 -0.14797719 -1.1408882 0.73726374 0.3365713 -0.8438044 -0.69865674 0.89931965 -0.85349745 0.27175024 0.16419974 0.44168857 0.61494946 -0.18176031 0.6477485
ARHGAP11A -0.29720637 -0.14465375 0.51111245 -0.43846205 0.48489264 1.4906613 0.7977587 0.49355164 0.2285348 0.73654777 0.77708924 0.8214052 -1.9435505 0.75258493 1.5330698 -0.331354
USP21 1.1829283 0.21284701 -0.22611378 -0.059218995 0.0073606647 1.1329842 -0.0013809097 -0.4281461 0.101121634 0.2765556 0.12928656 0.49317873 1.4221923 -0.33681744 -0.24138744 0.015886903
FAM83H 0.45194378 0.13522771 -1.0661044 -0.13905267 0.5220895 0.85465497 0.21967056 -0.79779875 0.7113327 -0.36044893 -0.30855304 0.20668612 0.30706587 0.17810833 -0.9478495 -0.009414244
PCNA 0.4804467 0.24774553 0.3169416 0.52579975 0.0014894266 1.0099179 0.8496922 0.12846346 0.8351873 0.40011615 0.17404641 0.31274527 0.31673315 -0.79482776 0.112031184 -0.3781947
CENPS 0.08199798 0.16951823 -0.28912583 0.99354535 -1.0112803 0.6255905 0.25693226 0.41374704 0.059945613 -0.45295417 -0.6947464 -0.4890947 -0.8596445 -0.97136223 -0.009895831 0.40288308
WDR5 0.047460623 -0.31295213 -0.034031536 -0.23672543 0.1544961 0.17421384 -1.506503 0.50719094 0.93401945 0.14513567 0.1351588 1.5895255 -0.18915255 0.24405521 -0.88194305 0.24616519
HSDL1 0.3462438 -0.46735317 1.1480384 0.2920488 0.73239106 0.5819764 0.4943936 -0.0851611 0.24574466 -0.26457912 0.43732035 -0.11147946 0.051409658 0.35969204 0.767281 0.6548906
SNRPF 0.43908307 0.50057256 -0.048964035 -0.037237152 0.11113736 1.1778088 -0.34463727 0.20813593 0.45715463 0.35530025 0.30197537 0.40894747 0.29538885 0.9815967 0.18406484 0.028587962
CDC6 -1.0511935 0.6255474 0.43725353 0.35594496 -0.26040184 -0.28508103 1.2169195 0.10042806 0.64222354 0.6354323 0.29507923 0.07397962 0.28313476 0.17544001 0.056156624 0.08751369
PQBP1 1.5863868 0.31123707 0.082685456 2.090613 0.6679547 0.24818446 0.18971424 -0.3020995 0.3211895 0.7594257 0.53684837 0.4239209 -0.096101455 -0.033894416 0.25998783 1.3255385
LEF1 1.114741 0.17569837 0.3694496 -0.80023915 0.15814343 0.27465087 0.14608814 0.19349311 -1.438464 1.3446548 -0.9656912 -0.038368106 0.31744093 0.802906 0.032412022 -0.104986355
PRKD2 0.050873693 0.562141 -0.25630414 0.04289579 -0.3638785 0.11253743 0.47206792 -0.6194646 0.7551192 -1.3115176 -0.41204047 -0.546703 0.29244435 -0.8323483 0.004111937 -0.07561067
ARL15 0.38300973 0.35779053 -0.072010085 0.03262292 0.42579943 -0.39394298 0.6748135 0.0713785 -1.0685285 0.05991807 0.44807127 0.17327029 0.28331724 -0.2716231 0.060574736 -0.2082547
ASS1 0.26366478 0.115299866 0.47490636 -1.2257236 -0.4765624 1.2305304 0.5942492 -1.0850248 0.48179513 0.1444889 0.30545115 0.027725654 -0.3164654 0.23337294 0.06513297 -0.5216229
PAPSS2 1.3898748 0.38621914 0.09080614 0.1731554 -1.0891721 -0.18080227 -0.1928467 0.33424968 -1.013391 0.43277863 0.6725984 0.2327079 0.64783627 0.15439975 -0.6896169 -0.0033883005
MRPL34 -0.8580076 0.1866784 -0.9617284 0.6134176 0.10013996 0.49586275 -0.17106442 -0.7078363 -0.004534434 0.071774594 -1.1285186 0.48125252 -0.11193005 0.8981646 0.09470765 1.7439597
WNT6 0.12651008 0.27149928 1.3630311 0.16038652 0.059149712 0.12394124 0.094010115 -0.5215732 0.36611626 0.9204123 -0.037484046 0.122076064 0.9878697 -0.039161224 0.14935358 0.15542127
GTF3C2 0.15713263 -0.08272401 0.8898803 0.32272398 -0.5178417 0.24450201 0.40900618 0.07929513 0.31170115 -0.39720637 0.68976134 -0.14400835 -0.26115212 0.26688367 0.08780144 0.3698837
EXOC4 0.5226866 1.0161994 0.057957523 0.4764915 -0.10331913 0.34223366 -0.021129346 0.12767506 -0.21872535 -1.3271264 0.34087262 0.026109379 -0.016572554 0.2846706 -0.28863308 -0.067805715
THEM4 -0.07903817 0.3231646 0.28384942 0.61339927 -0.015833907 -0.24931255 0.0805694 0.023341993 0.30700383 0.21223171 -0.06150067 0.2112032 0.83499503 -0.34309405 -0.009544744 0.14541666
LAMB4 -0.2801312 -0.34661645 0.3751772 0.06061317 0.0071144844 0.40624356 0.049835637 0.9440356 0.28154913 0.33449775 0.28526926 0.052775715 0.32712224 0.50147676 0.049546607 0.2394697
UBE2A 0.31809238 1.1098789 0.19915384 0.12823592 0.5364699 0.11020776 -0.8865173 1.0828683 0.06299208 0.7161053 1.5731974 0.099465035 -0.033779774 0.39760163 -1.0582942 0.53303623
MMP12 -0.5629677 0.6431913 -0.29664087 -0.143148 0.0041196714 0.18599735 0.49554193 0.11656009 0.40975565 0.29769903 0.15328215 0.08089639 -0.044123452 0.38133013 0.019605767 -1.1121669
RCAN1 -0.25226414 0.02219124 -0.15183523 -0.6447058 -0.42237562 0.5681673 0.34913814 0.008080799 0.2381226 -1.1836702 -0.107983194 0.79517245 0.46689484 0.24080935 0.00050064386 -0.13106488
PPP2CB 0.055041365 0.2958329 1.3006288 -1.4905069 -0.03886656 0.10104864 0.68882865 0.16017295 0.69979 0.12011376 0.39323863 0.02509408 -0.11546881 0.99743974 -0.014518922 -0.9549831
GTF2IRD1 0.74499565 0.7989058 0.3618377 -0.16900699 -0.80364376 0.12347725 -0.10527434 -0.004068181 -0.45312995 0.7233484 0.41249347 0.08416444 0.08592043 -0.795357 -0.009164578 0.026581977
HOMER2 0.30759913 0.31685883 0.18338333 0.3216643 0.106942795 -1.1205008 0.0655365 0.21415223 -0.66133386 0.08392517 -0.054704398 0.4623613 0.46573377 0.100487426 -0.06464993 -1.3554285
HAX1 0.5569141 0.48014128 -0.5414755 0.18560077 0.1712428 0.12950176 0.1637595 -0.025592972 0.7544346 2.024081 0.4943908 1.0489902 -0.04007615 -0.6154459 0.14105536 0.32773823
MAPKAPK5 1.2604762 0.45428303 -0.36526018 0.06708296 -0.18258837 -0.046363104 0.05172816 -0.11997278 -0.5491099 0.43758982 -0.030864734 0.79546595 0.48285857 0.21128628 0.22877057 -0.075505614
ATF5 -0.71384376 1.0152828 -0.58343375 1.7200501 -0.1882003 -0.161066 -0.28914538 0.40458182 0.52738 0.15835592 -0.61162364 -0.4736688 0.10802675 0.641763 -0.074537255 -1.145276
CDC45 1.5691408 0.17745166 0.06384363 0.10912284 -1.2838273 0.057875216 0.07939603 0.107326806 0.6372092 -0.32146168 1.1123015 -0.8538136 0.5687948 1.2308584 -0.005426703 -0.037939303
LAGE3 -0.06553467 -0.03003069 0.38093358 0.45483324 -0.087110355 -0.1588185 0.056085523 1.7177755 0.511791 0.59507066 0.26333883 0.3202443 0.19748458 0.03032458 -0.04441931 0.028294893
BHMT -0.3278021 0.89732105 0.27741164 -0.6668675 0.015106033 -0.26534662 0.18818304 0.020979425 -0.1371536 0.34449023 0.25386634 -0.52377754 0.20290187 0.39375207 -0.020672897 0.068836994
HEY1 0.098293096 0.31227574 0.046338085 -0.0519307 -0.39784583 0.09282046 -0.26105177 0.0020321873 0.6689314 -0.033034142 -0.08924159 -1.0905678 0.38789028 0.22304301 -0.03559865 -0.027478624
RAD54B 0.3675858 -0.9849339 -0.44460177 1.0327414 -0.022260489 0.56993866 -0.18442915 -0.012275819 0.37022594 0.07450588 0.27930415 0.719412 1.4101596 -0.42394838 0.0657428 0.45446026
LRRC4C -0.079499 0.54616046 -0.15060005 1.4920995 0.051726643 0.029779078 -1.1633142 0.25098825 1.2543807 0.097978145 -0.03716358 0.68399537 0.4062512 0.2330559 -0.012460104 0.43087292
NSF 0.42620277 0.776675 0.017616376 0.4294732 0.20805912 0.6602795 0.5647005 0.14262353 0.12335607 0.3696986 0.33615777 0.19325508 -0.387348 0.1268445 0.052403193 0.3819272
ZSWIM6 0.4090458 0.24802577 0.34923628 1.2254121 0.60007 0.24944334 0.38779715 0.559304 1.1639023 0.8719956 0.38404793 0.38356498 -1.8112773 0.45312914 0.0836221 0.51315385
RABIF 0.13999127 0.2577067 0.08518491 -0.04093802 -0.65617347 -0.11010829 -0.41913247 0.3781087 1.0187206 0.48074332 0.34017873 0.16049233 -0.060744464 0.730167 -0.024297988 0.059237238
CDCA5 0.50856555 0.4737674 -0.21920079 0.12831827 -0.10295806 -1.5764368 0.06979322 0.514231 -0.7547093 0.46537408 0.35834667 -0.00858341 0.14483526 0.90181935 0.03514832 0.036797155
FPR1 -0.004209099 1.4361218 -0.039421294 1.2578158 1.1337497 0.116490364 0.135029 -0.07570891 0.731266 -0.21108459 -0.12090213 0.0735699 -0.13112676 0.31131843 -1.5294652 1.7941065
ZNF746 -0.53896576 0.0795508 0.061897136 -0.36056435 0.046093997 0.45811653 0.55781937 -0.019744651 0.33483377 -1.8446548 -0.2015224 -0.11358712 0.5659844 -0.35181266 0.51367867 -1.1542189
SMARCC2 0.110115 0.18329607 -0.059016075 0.23310205 -0.059113003 0.23156866 0.38802254 0.025722733 -0.020765021 -0.50760436 -0.13122675 0.21648563 -0.8174414 -0.3062748 0.02337202 -0.11196261
OAS2 0.23242867 0.1535749 -0.18026224 -1.2000498 0.34823394 0.15027228 0.11924208 -0.059064247 0.20811392 0.7134428 0.7817883 -0.06722551 -0.076512784 0.0894393 -0.061221138 2.0011477
NPM1 -0.31483567 0.60139924 0.040037446 0.41234893 1.5851061 0.051178403 0.08076493 1.2495557 0.25484598 0.5327047 -0.47979024 0.1108966 -0.07254861 0.5245193 0.11659401 1.5482296
NIPAL3 -0.09699568 0.5307716 0.72582054 0.5622974 0.09153101 -0.28333625 0.14336567 0.5512384 -0.14289725 0.38925904 1.1664515 0.7732387 0.23096503 0.28647777 -0.011216398 0.26410946
STK35 0.8869842 0.096292704 -0.20578168 -0.10777587 0.089535765 -0.15167837 1.4504545 0.22214256 -0.120835 0.33992288 -1.2445378 -0.09011027 0.26234075 1.1650614 0.1574384 -0.10665801
FIGNL1 0.4437033 1.5812336 0.063530795 -1.921094 -0.18126018 0.89828223 0.53128016 0.2179126 -0.6115609 -0.41800794 0.57153535 -0.5826485 -0.8928402 0.5270153 -6.733468e-05 -0.9428071
C15orf40 0.23440708 0.2948513 0.30532703 -0.9240865 0.7794466 0.20454115 0.2881835 0.008480227 0.13298193 -0.024305442 0.47870082 0.773298 0.25141954 0.79623926 0.1946303 0.22728111
AXIN2 -0.5989721 -1.0783621 0.47087273 0.021973694 0.5216156 0.19213052 0.5810913 0.47141355 0.7373833 0.6984705 0.32999703 -0.58534986 -0.067608334 1.6695001 0.57959914 -0.15717435
TCERG1 -0.16664994 0.02114626 -0.9042307 0.40461206 0.47798023 -0.114736624 0.21200167 0.5547833 -0.5148144 0.1814844 0.35600793 6.1033526e-05 0.21892986 -0.1884557 -0.19734593 -0.006698132
OLFML3 -0.04490537 0.27382866 -0.021482797 -0.3795683 0.25936544 0.8830824 1.7294483 0.03797533 0.27568445 -0.7213085 -0.04414987 0.19451718 0.5844893 1.3062849 0.053819165 0.017364314
RRAGC 0.071916394 0.13502553 0.31481937 1.7195987 0.04055983 0.736397 0.05865152 0.44394466 0.4597027 -0.5543009 -0.09451004 0.07884927 0.15520588 -1.1469077 -0.17447035 0.6566059
HMGA1 -0.57229036 0.44335175 -0.79599047 0.6264771 -0.3711169 0.30696276 0.30317232 0.27952242 0.41696852 0.7150016 0.21106395 -1.4053516 0.21866901 -0.120252445 0.068926185 -0.15024856
ALDH6A1 0.013367722 -0.099439606 0.47620773 -0.6563113 -0.06679132 0.35175946 0.60782325 0.011651937 -0.4566895 -0.11010211 0.87278306 0.11331035 -0.08104127 -0.14291252 -0.46504825 0.0829871
RPS6KB1 0.24040093 0.31055343 1.4393127 1.8199404 -0.28224888 -1.1261933 0.06953745 0.8472536 0.34505746 1.4902484 2.0329278 0.38884154 -0.43144864 -1.250475 -0.028187072 -0.30445525
VIPR1 0.18841153 -0.1555674 -0.43193516 0.6599626 0.8130841 0.42961064 0.02722419 0.7557813 0.2266417 -0.04323064 1.1063621 0.39428738 -0.46305847 -0.36932218 0.011549254 0.7145732
SUCLG2 -1.7669789 -0.59555894 0.981653 -0.035902344 -0.3045209 1.1791025 1.3156927 0.49037203 -0.65016085 0.119073145 -1.1786966 -0.5997891 0.39358035 0.30978638 0.06468399 -0.17205381
CBX1 -0.14098635 0.44951302 -0.064288996 -0.16362867 -0.0041066413 0.49676812 -0.40490252 0.23113689 -0.32224894 0.77038145 0.32847956 1.3644441 0.22341624 0.0127659235 -0.20083246 0.3219641
MRPL51 -0.068907894 1.2797236 0.54173326 0.104297444 0.0062035867 -0.14150165 1.4668355 0.058106694 0.41554055 0.50367165 -0.38897547 0.02865321 0.09165027 -0.62841654 -0.14155897 -0.20126848
MYO10 0.92022425 0.7475389 0.71501374 -0.32313338 0.21042062 0.42045617 -0.07452004 -0.085269496 -0.55104077 1.4276935 0.30630812 0.27757826 -0.11684587 0.10289871 0.4262736 0.06640625
EEF1G -0.11015191 0.63526225 -0.8076122 0.009822631 -0.040746808 0.19979896 0.009725791 -0.06744465 0.7387052 0.6609964 -0.86790603 1.1400692 -0.25748566 0.25698504 -0.019966343 0.3537578
MDM4 -0.8015474 0.09942372 0.6237036 0.056984898 0.16961427 -0.38484588 0.25666603 -0.44757554 -0.14603007 -0.066685475 0.65444446 0.8465456 -0.36112761 -0.06965289 -0.8650529 0.9233538
TSG101 -1.6198909 0.40690133 0.17585465 0.45327884 0.2125131 0.14342149 0.17259923 -0.3451122 -0.2776603 -0.9403683 0.47527605 0.02819654 0.87714094 0.53944194 -0.122508764 0.32394564
CDC20 0.5383812 -0.018783446 -0.044178035 -0.36145517 -0.70842004 -0.4588662 -1.1878906 -0.0034392497 -0.3249548 -0.25145653 0.29860407 0.110343255 0.8952531 -0.5671033 -0.027344469 -0.3324203
DNAJC5 -0.23183109 0.15312645 0.62199783 0.124086015 0.043451604 1.4514285 0.49994087 -0.053069808 -0.045115735 -0.10082367 0.5072313 0.46329156 1.0993826 0.29166162 0.23141982 0.34720397
TPPP2 -0.19041596 0.45442793 0.6151124 0.23393841 1.360727 -0.18045858 -0.30434895 -0.39494085 1.4793557 1.2220109 -0.14313948 0.35225374 0.60777223 -0.44984567 0.52121997 -0.16878131
PSPH 0.42545602 0.26295742 -0.01627342 0.80295616 0.093638934 -0.10834825 0.10438901 0.30801257 -0.8542444 0.6397424 0.49524683 0.31719264 0.42293355 -0.1302148 1.3602778 -0.034506932
RCC2 -0.27342358 0.30810335 -1.6055855 0.657751 -0.03852515 0.051044296 -0.060335916 0.13979287 0.6961955 -0.8382363 1.7265643 0.47284383 0.54126024 0.9188343 -2.1264255 0.106550135
THOC2 0.40556312 0.26318097 -0.42048824 1.033236 -0.1371262 0.8839562 0.0495499 0.9843624 -0.15352444 0.14465277 0.32343054 0.092732035 0.2784206 0.3432806 -0.102097854 0.06544297
UBAP2L -0.30384338 1.5480433 -0.80391675 -0.02221759 -0.043451235 0.14697686 0.17273116 0.017183835 -0.3596375 0.37522236 0.03808985 -0.59903127 1.0648427 0.26314285 0.3119662 -0.08880902
PBXIP1 0.33632722 0.36671793 -0.33066574 -0.51931465 0.005223129 0.7090976 0.066006824 0.06921909 0.19695882 0.30063376 0.09479619 -0.087752976 -0.03854882 0.24043038 -0.18682934 -0.31437227
GALNT11 0.77150214 -0.67166954 0.002550527 0.838893 0.2719497 0.6844961 0.24047382 0.14008038 -0.6967783 0.49441007 0.5741534 1.4962264 -0.48137695 0.5301001 0.37951306 1.5126042
