RBM22 1.471005 0.77971095 0.341692 -1.2158076 0.13076165 -0.38544044 0.1203549 -0.7144998 -0.08031679 1.0888828 0.04907412 -0.55949515 -0.066076264 0.08936776 -0.048734747 0.15418336
CDC20 0.9596204 0.20728327 -0.0262754 0.57951367 -0.11286823 0.5586672 0.30491066 1.0935076 0.8673372 0.8628661 0.2020747 0.7330073 0.21387593 0.39284074 0.06948863 0.059739232
EZH2 -0.62614465 -0.32164818 0.27624908 0.91745555 0.09734092 -0.12301849 0.2171181 0.002671588 -0.734474 0.35191903 -0.17036957 -0.16291162 -0.5728436 1.7338487 -0.53633237 -0.07377261
TRAPPC2L -0.23636566 -0.04509823 0.2965397 0.031888824 0.027045999 0.6634498 -0.1532713 -0.13908584 -0.63176084 0.5946524 -0.051227435 0.37187794 0.13478532 1.4088007 -0.48241827 0.7404213
TCF7 1.0221965 0.36256608 1.6194456 0.4717973 0.16243984 0.13828422 -0.29289985 0.79364413 0.026444612 0.3089071 0.33883962 -0.0519178 0.11678347 -0.067674585 -1.3403718 0.01984053
CENPM 0.14408223 0.23112059 -0.50240266 -0.031599138 0.50117564 0.2158911 0.6858329 0.2731079 0.37980038 0.29258043 -0.24439333 0.08034724 -0.8308787 -0.16575602 0.7014198 0.093136266
DEPDC7 -1.5875456 0.2255751 0.41420305 -0.024779744 0.34527838 0.30641297 0.56145984 0.08736391 0.33037648 0.39169163 0.15973653 0.20004497 0.09411912 0.756606 0.6061837 0.48951772
SOCS2 -0.5636978 0.37691423 -0.0067658545 -0.027456228 0.4839035 0.3665707 0.15486042 0.3583286 0.53072774 0.22646709 0.16889787 0.47866148 0.5432125 0.009408833 0.12576827 0.20985496
AQP3 1.3667083 0.40202102 -0.5953941 -0.37415048 0.1935632 1.188526 0.51911986 0.16358168 0.7185604 0.45260873 -0.88545966 0.33368945 0.21246263 0.77664965 -0.041605905 0.043239865
ZNF747 -0.2952343 0.44243115 1.0847118 1.0073867 0.32352987 0.18760289 -0.19007693 0.3239423 0.53006154 0.6025454 0.11127237 0.8875701 -1.6314214 -0.06750683 -0.47682124 0.53477687
RPA1 -1.0684168 0.3468366 0.4894835 0.3350246 0.7549702 -0.090453215 0.42402264 -0.32910776 -0.7113097 0.96303505 0.6098353 -0.09254 -0.7955849 0.31198126 0.3504288 1.3705904
SNAPIN 0.24561645 0.08002048 -0.18247873 -0.01074764 -0.25802162 -0.71593994 -0.38123593 -0.014233685 0.010916209 -0.63513124 -1.0604271 0.15062295 0.5322411 -0.078594096 0.05959361 0.37378737
BRD7 1.390328 -0.24589263 0.580632 -0.016010731 -0.33530676 0.11822049 0.6203656 0.637979 -0.056852847 1.5693957 0.075050905 -0.26136658 -0.100549005 1.0344052 0.5639562 0.08308661
FZD4 -0.17867985 -0.37570032 0.18451977 0.10602949 0.73267096 0.5438975 0.24179009 -1.4194283 0.1887354 0.5916052 -0.959447 0.85512984 0.9075747 0.07397794 0.41678503 0.949157
SERPINE1 -0.0900896 1.0109488 -0.10657933 -0.35937652 -0.066800445 -0.06820248 0.27135545 1.3390323 0.23731557 -0.2030316 -1.1716166 -0.38061458 0.41719761 0.65146846 0.060208924 -0.07647273
MUC6 -0.15187812 0.2546715 0.034549993 -0.01918846 -0.17959051 0.0024868576 0.23310605 0.87276655 0.7509115 -0.055381678 0.38935828 0.23995134 0.10183265 0.20815139 -0.05500969 -0.017566115
NCOA6 -0.104599364 0.2518279 -0.6617754 -0.76452893 -0.6517312 0.12398029 0.28754517 0.26953664 -0.7409291 0.23619053 0.23236687 -0.029881336 0.68406576 0.50294787 -1.08584 -0.02126108
PLAG1 -0.5238038 0.29374993 -1.6847701 0.009155611 -0.060413867 -0.14884846 1.1187863 0.40346366 0.8457936 1.3814416 0.23040804 0.42978135 -0.0063797254 0.7376742 0.54618853 0.05347501
RPS2 0.5547882 -0.27545708 0.053556837 -0.019498609 0.28448302 0.25607178 0.07620252 0.19440295 1.4266875 0.59816647 0.41960406 0.13811274 0.3583998 0.59727025 0.6703426 -0.0018296171
PSMD3 0.19139531 0.016952619 0.4664759 -0.3502535 0.4883804 0.64809 -1.489528 -0.51215327 0.4187907 -1.2480521 0.21295238 -0.3145632 0.008277071 0.22459729 0.44637468 -0.31271437
HDAC2 0.42342305 -0.23667836 0.48870403 -0.72366273 0.5303826 0.21273762 0.2913258 0.34360996 0.22736818 0.3422854 -0.87255776 -0.16834494 0.041076466 0.25773528 -0.00062755356 0.40518394
BANF1 0.59593886 0.31479177 0.26921037 0.554047 0.17074306 -0.15775897 -0.029907437 0.43704152 0.37722006 1.1110073 0.23699278 0.37237808 0.4819025 -0.09501635 0.037181452 0.00016143662
UBAP2L -0.25425622 0.01494624 -0.068610795 -0.36964184 0.38993886 -0.14654079 0.041871704 1.3393239 1.3909391 1.238108 0.2469151 -0.20763911 -0.940292 0.0048904493 -0.08916763 1.1561106
UBE2A 0.39288637 0.29260463 1.6025859 1.0402904 0.15407941 0.36631897 0.36144325 0.44359043 0.11168148 -0.35291585 -0.49458775 0.17452963 -0.08437969 0.2518 -0.052875727 0.22415379
MAP3K4 0.2213717 0.22237393 0.14362119 -0.013310124 0.800298 -0.19280793 -0.11957378 0.22691867 -0.19693969 -1.5638506 -0.0029835424 0.552783 0.54061425 0.060720142 -0.07902006 0.17859693
BCO2 0.016582746 -0.30063012 -0.12165712 0.0045355447 0.5384141 0.37095302 0.20248698 0.4526066 0.6115985 -0.7132314 0.40929955 0.5109627 0.311202 0.16113816 -0.022424972 0.03873884
KDM1A 0.3947503 -0.5683675 0.16420352 0.015751665 0.07968077 -0.03606554 0.2780285 -0.8080372 0.028865702 -0.075585365 0.04152683 -0.0015275327 0.5578793 -0.09052348 -0.0033814097 0.02191577
PTGS2 0.11496187 0.72829574 0.034708366 0.5690486 0.3056148 -0.12560718 0.7253953 0.48094988 0.38233218 -0.50222933 0.19431837 -0.47735968 0.2772133 0.75378644 0.4632161 -0.13302983
FANCG -0.5315144 -0.0006712563 -0.3447376 0.69996053 0.14699964 -0.16558437 -0.024319388 0.36007676 1.0214354 0.104152486 0.12903373 0.10516008 0.5155739 -0.27160648 -0.49809042 0.32604477
NAT2 0.78053665 -0.0637036 0.6253413 -0.071918406 0.4813735 0.7632542 -0.5211202 -0.6525619 -0.33719096 0.6695081 0.6055624 0.10220893 2.192148 1.3790351 1.491731 -0.3742128
ANAPC5 1.1449324 0.36075407 0.16547413 -0.07318109 0.09942004 -0.070716746 -0.85497564 -0.25200987 0.058773156 0.48245722 -0.06665293 -0.3799611 0.12710263 0.16168429 -0.01886823 0.00775618
NKIRAS2 0.7327318 0.12497334 0.28991786 0.10950514 -0.12253562 -0.04433 -0.4801556 1.2897471 -0.18229182 -1.6259198 0.3047162 0.24377361 0.18064967 0.20627053 -0.06432675 -0.017423501
PPP2CB -0.5240517 0.19239356 -0.09557278 -0.060775537 0.96931785 0.26002458 -0.16825834 -0.3031926 0.39520487 0.005351036 0.01866108 0.053609174 -0.9348487 0.061951205 -1.0206457 0.2802559
EGR3 1.0539625 -0.51349586 0.59876496 0.0067643006 0.7800554 -1.9136302 -0.94774616 -0.36719874 -0.13014282 0.21253583 0.63558215 -0.12127248 0.5742642 0.3017123 0.51268053 -0.22566888
SMAD3 -0.8301366 -0.0059425044 -0.46880364 0.50848424 0.01994006 -0.17023762 -0.043548863 1.1499676 1.5170258 -0.34729657 0.6965271 1.0951632 -1.1202546 -0.16977637 -0.27554554 0.015260804
TOMM20 1.3064972 1.9130918 0.10852503 0.5025734 0.034707658 0.118724294 0.20334074 0.12102918 0.2285354 0.55507964 0.6671706 -0.063511916 0.21365882 -0.023223467 0.19326653 -0.02150071
OTUD7B -0.18905151 -0.28662288 -0.08119915 -0.19213969 -0.9794038 -0.072563 0.07266245 1.4926273 -0.11442822 -0.45384938 0.2296064 -0.066385284 0.19274224 0.50954676 -0.41494504 -0.344728
STK35 -0.024828384 0.35823473 0.5436685 0.0031393534 -0.15590875 0.34350783 0.7136685 -0.3339985 0.23790424 -0.35225147 0.6112915 0.022472579 0.29942477 0.31146482 1.1036755 -0.060901497
CYP2C9 -1.001693 1.6538653 -0.23650993 0.1570415 0.047511943 -1.445565 0.74999684 0.08959079 -0.20861723 1.2698934 0.98165923 -0.07332722 -0.051240206 -0.10223178 0.5604198 0.54300463
RGL1 -0.15025845 0.17884788 -0.21515256 0.0020009722 0.18727612 0.9082692 0.12693012 0.07568617 -0.30898103 0.0141993 0.21941358 0.9344551 0.46799937 0.9674073 0.2463832 -0.04209587
KBTBD11 -0.46793306 0.04789464 1.2838752 0.27183363 0.33487478 0.016821705 -0.50427955 0.5032483 0.45106483 -0.026840357 -0.599528 1.1612121 0.36820832 0.33688805 -0.13408434 -0.00038305833
MYO10 0.091702595 -0.054403864 -0.03409257 -1.3323702 0.27891022 0.61725736 0.1517411 0.15766731 -0.2591229 0.14964624 -0.29786628 0.16923533 0.10118095 0.7589868 0.2854905 -0.9071876
HMGCS2 1.720056 -0.7317247 0.4396167 -0.37554523 -0.04463375 0.47631145 0.55656415 -0.07140922 -1.8989855 -0.13945489 0.16144656 -0.8627621 0.30258325 0.19266053 -0.03205646 0.1316609
FANCD2 0.80071366 0.34265047 0.8065331 1.8471256 0.29418036 0.07762941 0.5772142 1.0266939 0.21310359 0.34873486 0.92948186 0.3418779 -0.46553633 2.4717374 0.7354819 0.46228507
FCGR3B 0.124116555 0.27399886 1.0825951 0.7006042 0.5188333 0.8748593 0.05204442 -0.24288817 -0.5231611 0.6196203 0.04918914 0.004011226 0.1034386 -0.059384238 0.37432152 0.75323814
SUPT4H1 0.90817726 0.43894497 0.6049248 1.4510857 0.29959172 0.45662314 0.2538771 0.27617347 0.07223499 1.2643754 -0.3948011 0.22484598 0.14417648 -0.7082766 -0.69742423 0.7985101
PLAAT3 0.18728478 0.2911934 0.62189424 0.57377803 0.36363354 0.97575915 -0.26141313 -0.5595581 0.40311265 0.17335446 -0.5752594 1.3256274 1.2823931 -0.32048327 -0.40633985 -1.4142948
MCM2 -0.1484247 -0.24807738 -0.79267275 0.1646897 0.74133146 -0.04965659 -0.03602035 2.2114422 0.38062274 0.6266265 1.2433338 0.22966334 -0.089726694 -0.7826682 -0.034891736 -0.0640755
DTX1 0.22747391 -2.1828907 -0.57592046 -0.59913087 -0.04924084 0.08558756 -0.051773194 0.055906158 0.60394377 -0.108411126 0.052018423 0.07542195 0.35894367 0.21603628 -0.105919875 -0.2764644
PCBP2 0.45864454 0.18798113 0.31908298 0.5345025 0.1720752 -1.5486772 0.16992074 1.337327 -0.08481413 0.30703545 -0.6848577 0.13766435 0.17727059 0.97332346 0.068802506 0.35947743
EPHA3 0.54264766 0.24974549 0.33084974 -0.59836984 -0.012391915 0.22090095 0.42059323 -0.4202171 0.13888073 0.9620925 0.077732444 -0.19857092 -0.077911675 0.12170919 -0.48866624 0.4499935
RPL7 -0.31463185 -1.0857999 -0.0335666 -0.01745808 -0.08479272 -0.26319858 -0.12117278 -0.070665576 1.2319736 0.09762411 -0.18293281 1.0964454 -0.83789957 1.6738902 -0.055027958 0.5558109
RMST 0.6129567 0.37976333 0.42672428 0.7724403 0.13644436 0.093953855 -0.40691915 0.0921981 0.08886132 0.6446084 0.13652357 0.2005997 0.13338503 0.43721405 -0.05377508 0.42479217
WNT6 0.28333783 -0.22257091 1.0339897 0.24579914 0.6315141 0.5129805 0.53793496 -0.006258373 -0.53496 -1.4358575 -0.09197211 -0.057180274 0.15668555 0.72087985 -0.07398173 0.9659914
CNPY2 -0.119703814 -1.2950447 -0.737481 0.035132777 0.26693073 0.034121733 0.33686972 -1.5158157 -0.020135121 0.15334716 0.61717135 0.49986982 -0.44547167 0.34803003 -0.3228329 0.73292047
POLA1 1.0525602 -0.53963923 -0.56658006 -0.41151172 -0.748851 -1.6388943 0.8628036 0.035805818 0.45498425 -0.15148997 -0.014089978 0.46546948 0.467577 0.03779951 -0.6923798 -0.29664648
GSTZ1 -0.13256732 0.15215021 0.6025669 -0.124400124 -1.4739733 0.6011882 1.4142225 0.5024084 -0.08930277 -0.085024476 0.43907547 0.12953953 0.08316399 1.1940074 0.8924029 -0.052911457
TTC21A 1.4249583 -0.3296215 0.5940494 -0.09297698 0.5334329 -0.15806396 -0.06942235 0.46919122 0.7379805 -0.39905608 1.9970908 -0.0019344847 -0.0013322834 0.80030006 0.2972502 -0.27737972
SLC7A6 0.23299967 0.2318695 -1.3295465 8.685663e-05 0.32923007 0.1476275 0.23989034 0.15267183 0.53145903 -0.2476354 -0.48969334 0.30696857 0.09444341 0.25377712 0.1947672 0.04889694
SERPING1 0.32838818 0.32777816 0.587096 -0.037357394 0.05545943 -0.09768943 0.22918804 -0.16702762 0.28027606 -0.5251819 -0.06460788 0.05982198 0.20950215 1.0237472 0.04068117 -0.015852224
PRPF6 0.30212104 -0.07519084 0.114729084 -0.062082283 -0.16821301 -0.21639682 0.7497088 -0.2612563 0.27799082 0.305659 -0.03793555 -0.1477983 -0.091374576 1.6533422 0.012033296 0.3489451
IGF2BP3 0.5268205 -0.8566184 0.65656763 -1.9883761 -0.007564195 -0.05282001 -0.7808325 0.0877715 0.3189754 0.4876603 1.2144582 -1.064575 -0.5622513 0.6681198 0.05482355 -1.4198229
TRIM16 0.25174174 0.3151129 0.6169961 0.0119873 0.100885935 0.15125445 0.10813229 0.30902615 -0.29171848 0.59134936 1.5596026 -0.0022009916 0.46270004 0.71049106 0.5494507 -0.060612418
FANCI 0.505815 0.08956314 0.47508052 0.15512936 0.3322466 0.19806598 0.83017445 0.37398264 0.8390452 -0.11919972 -0.57058555 -0.02601372 0.6578784 0.66773593 -0.060647078 0.7432419
ST3GAL6 -0.43171275 0.4828886 -0.69897866 0.008514515 0.3332623 0.069482826 -0.823948 -0.121755816 0.6998203 0.28760257 0.28960317 0.19644761 -0.49405232 0.14328703 0.005803533 0.14136568
THRSP 0.28966546 0.1465925 0.6753918 -0.440612 0.2185614 0.45411485 0.64753675 -0.67837065 0.15562677 1.4813292 0.23031488 0.0089585455 0.21160482 0.5251554 0.8378457 0.5045253
FUS 0.18853629 0.20314488 0.42852497 0.15134843 -0.027111001 0.8053941 0.95833063 0.6084398 0.4886316 -0.19315347 0.47795215 -0.04037909 0.030942585 -0.41134235 -0.9504477 -1.7219046
PDE2A 0.627035 -0.059626803 0.8002312 0.69976646 -0.22389208 0.25573355 0.31083623 0.43171683 0.601051 0.98441935 0.5061531 0.18305226 -0.09927864 -0.36426055 0.13229664 -0.17163813
KDM6A -0.035946835 0.4395435 0.14287713 0.32295483 0.67212254 0.4140951 0.8741963 0.6319437 0.3111816 0.50902694 -0.60775226 -0.69837976 0.27583933 -0.61341345 1.2674377 0.042356614
MMS19 0.19358708 0.81581914 -0.299664 -0.10383077 0.2427457 0.61252713 0.2727824 0.12055539 0.5286566 -0.3615981 0.42538452 -0.39156333 0.46902892 -0.34269676 -0.13625051 -0.009578806
MDM4 0.05245265 0.36318246 0.9119464 0.24447238 -0.9677184 0.44993606 1.108128 -0.3967965 -0.13866542 0.4381563 -0.12871571 -0.10727769 0.47646528 0.31968123 -0.13055815 2.7419965
SMARCD1 -0.32055876 0.102576494 0.4353597 0.14593992 0.24357899 -0.19243886 0.7576887 0.27453446 0.29686314 1.9378003 0.60136265 0.014179153 -0.52577996 -0.060206044 0.26382142 0.2880378
SMARCC1 -0.46966937 0.35051316 0.41779914 0.29573023 1.555309 1.1432748 0.08565242 -1.5683501 0.058346387 -0.625818 0.108972095 -0.030903019 1.3270828 -0.11450701 0.64487624 0.094464056
MMP9 0.13408907 0.2423748 0.41579455 -0.31889197 -0.3343689 -0.19820337 2.2954805 0.81467944 0.000992581 -0.19147384 -0.09884491 -0.0075261015 0.2697377 -0.09407962 0.5690204 0.20969562
CH25H 0.6461568 0.23128104 0.53982764 0.14162469 0.4878456 -0.08756567 -0.2701242 -0.6948699 -0.14774218 0.5386983 0.12154995 -0.032237448 0.71717036 1.2579174 0.06568626 0.82532066
VPS37C 0.05364572 0.4954334 0.64316255 1.3488418 0.38271794 0.5866294 0.43707034 0.72711074 0.13835253 -0.04717727 0.14645909 1.6811658 -0.069161 -0.09234873 0.8885505 -0.016193198
SPINT2 0.34635782 0.5277925 0.9862027 0.14971195 0.10944668 0.69895333 0.3191061 0.013129712 -1.2146535 0.33194774 -0.032668456 0.18823938 0.15573658 0.7991763 -0.70229006 0.39776134
TIMELESS 0.10232482 -0.70849955 -0.85111594 -0.0069768373 0.1545198 -0.5218306 0.7631373 -1.1699243 0.9493451 0.31794798 -0.34575605 0.024026765 -0.12786162 0.03345709 0.010967289 0.35048932
MZT1 -0.10917942 0.3438114 -0.05018458 0.5307847 0.0997693 0.39633924 0.6804704 0.5156918 0.5850755 -0.29033345 -0.1457968 -0.020888243 -0.14122504 0.092999384 0.00035156077 1.4802424
KHDRBS1 -0.8494938 -0.26620364 0.44833544 0.2390969 0.5686777 0.056969028 -0.2653993 -0.07673024 1.933731 -1.0585307 0.59983975 -0.6903602 0.3374847 -0.05098223 -0.029896714 -0.5008195
IL17RC 0.27069962 0.10981525 0.56080496 0.0045994082 0.093176834 -0.23701365 0.6371338 0.4710671 -0.020586409 -0.24726354 0.19889896 -0.05850195 0.035457186 1.1870568 -0.7457784 0.30437896
JTB 0.11505134 0.26694423 0.2761411 0.40255868 -0.12864113 -0.4377454 -0.016826432 0.88788146 0.4103716 -0.033440813 -0.41183478 0.87661904 0.40721738 0.11788793 -0.30216387 -0.03864209
GON4L 0.46271232 -0.26186445 -1.4326382 -0.10225651 0.37058878 0.7081491 0.33373234 0.5981235 0.703313 0.28991076 -0.09446589 0.14001551 0.12097117 0.44625473 -0.022539876 -0.11689665
TMEM68 -0.009116902 -0.74382466 0.31564876 -0.009777302 -1.0318724 0.5718474 0.021131203 -0.45910347 0.03515196 0.25158376 0.027486602 0.64288455 1.0907526 1.5252503 0.08502219 -0.4963714
PRIM1 -0.03742473 0.06450772 0.20551616 -0.73525375 0.38278812 0.24526244 -0.38342386 -0.009956081 -0.4283004 0.27760476 -0.12168386 0.13708116 0.29539785 -0.20483494 -0.000119224016 0.20965505
DNAJC7 0.4416124 0.6938092 0.37444174 0.74195373 -0.11409672 0.37254852 0.15814716 0.28647187 0.17262097 0.012460239 0.3687351 0.16756132 0.8737495 -0.0845625 -0.06178187 0.036592916
SNX30 2.4489582 -0.4034312 1.4234099 -0.45147187 -0.70761746 0.030240744 -0.3978765 -0.009086482 -0.33355266 0.7272737 0.6798265 -0.54501337 0.7202774 0.51275665 1.1810458 -0.08473536
DMGDH -0.2929439 0.411612 0.32062882 -0.3974906 0.2289219 0.067208834 0.124354266 0.15863597 1.2089722 0.3170913 1.1668392 0.2759665 0.45813495 0.70775247 0.5226772 0.009583468
ZNF706 0.24687298 -0.3720569 -0.28893545 0.006010363 -0.19252165 -0.0019005707 -0.20118232 0.33828506 0.36037356 0.17265324 0.27552614 -0.56749594 -0.13189007 -0.009247986 -0.060472697 0.101943165
MGLL -0.3087763 0.29883713 0.52586204 -0.19973703 0.23034279 0.46563426 1.4202222 -0.13851286 -0.39505923 0.2310319 0.39768878 -0.06083433 -0.13209073 -0.11112167 1.1789006 -0.78593326
CAMK1 0.32227316 0.23122145 -0.22500433 0.009155864 0.36603603 0.07505484 -0.58779943 0.58426344 0.4472586 0.67035246 0.15234837 0.11570232 0.013822702 0.2488674 -0.14107507 0.4879418
AATF 0.324981 -0.052387394 1.1951706 -0.16705103 0.3236652 0.9666838 -0.57450366 -0.14534116 0.9558359 0.86476946 -0.4627892 0.13684577 0.30228367 -0.15968907 0.048579305 0.16590483
BMX -0.31925458 0.08230722 0.40019852 0.046931066 -0.25925112 -0.024137605 0.06659884 0.42585704 0.5579541 -1.0023156 0.15536366 0.8101746 0.13169196 1.020013 -0.3375306 -0.10448596
ANAPC11 0.53686863 -0.9941254 0.42115125 0.07894444 0.29592547 0.009102893 -0.043540042 0.35339537 0.23191737 -1.0385224 -0.16120692 0.001062128 0.17917219 0.08100449 0.005876681 0.20356181
CFI 0.15007693 0.20086062 -0.6458981 0.0596994 0.4389935 0.16063309 0.46766713 -1.0310439 -0.7086691 0.22003748 -0.046671446 -0.4116989 -0.46367404 -0.645707 -0.073168986 0.6125912
SARDH -0.7089342 -0.19725306 0.90842545 0.15870595 0.7176251 -0.121934935 -0.38828787 0.14689475 -0.18863878 0.50652295 -0.35071555 -1.8623201 0.6361486 0.012559067 -0.029760772 0.841885
WNT11 -0.19366352 -0.024798365 0.3926741 -0.20214483 0.40389368 0.403891 -0.49026287 -2.2210987 -0.2477795 -0.054610413 -0.032062296 0.031252045 0.3653935 2.0869179 0.5124001 0.2806212
PRKAA2 -0.24223046 -0.069945246 1.4144307 -0.21761204 -0.3045433 -0.01221197 -0.051887117 0.08099195 -0.511239 -0.63695705 -0.229185 0.30436003 0.5630684 0.24478036 -0.00050195516 -0.08089206
RHOD 0.2045291 0.1606777 -0.48547968 -0.5283196 0.19082291 -0.0069625285 0.7281813 -0.1723298 0.74629587 -0.3557962 0.0864569 0.10336901 0.40240097 0.2799206 0.13130523 -0.16153319
CTSA -0.17680615 0.3460888 -0.01646979 -0.13779022 -0.28130972 0.15870698 0.21957241 0.87507766 -0.1254916 1.0596874 -0.3679362 1.079922 0.47136933 1.486157 0.26667935 -0.43489194
FSD1L 0.2422222 0.17750116 0.37024274 -0.012796234 0.35264048 0.62380075 0.47431055 0.35226783 0.26658672 -0.7547021 -0.018905198 -0.25159448 0.47766665 1.1189924 0.06660524 0.38458785
CCND1 0.37599754 -0.25727078 0.018500332 0.4225753 0.07043697 0.16571672 0.41940123 0.5318379 -0.18286476 0.4227809 -2.111383 0.11392166 -0.21489303 -0.16650064 -0.67151356 1.1026533
SLCO1B3 -0.17886324 -0.08733991 0.2502507 0.010400464 0.17397147 0.34345692 1.0740566 0.51551104 0.38705203 -0.42917848 -0.069358155 0.017070236 -0.09752112 0.81335825 -0.16448332 0.38640395
CENPE 0.4998054 0.25282863 0.20135689 0.38502192 -0.668345 -0.12003013 0.3855043 0.24010698 -0.41464287 0.24955249 -0.32942465 0.12671547 0.2085419 0.18807848 -0.8246218 0.008849394
RPLP1 0.17694144 0.3445408 0.55274224 0.36208016 -0.24165227 0.4106472 0.7883754 -0.21006756 0.5131058 -0.45490032 -0.057327464 -1.0499234 -0.24106367 0.11263147 -0.06384114 0.564691
SEMA3F 0.34804568 -0.007602912 0.59447956 0.014929122 0.51825076 1.1121119 0.30644885 0.22136877 0.7459412 -0.24556562 1.0078727 1.0837415 -0.2639846 0.7260932 0.5590515 0.35380822
LTF 0.077042095 -0.038624972 0.36149332 -0.114681765 -0.0828901 0.5594229 0.55285335 0.28086615 -0.49981844 -0.68770206 0.033639994 -0.095830984 0.2019255 -0.31645572 -1.8804888 0.14484338
ZNF532 -0.17586367 0.19461584 1.3107653 0.047442403 0.30240616 0.3206778 0.43846917 0.20712858 0.31271344 -0.6152739 0.11360984 0.054888766 0.73504305 -0.15751263 -0.7739772 0.30520952
PDIA5 -0.2378654 0.2875679 0.5841886 0.2718446 -0.67491114 0.092060246 0.37452772 0.15836385 -0.19130786 0.6629068 0.82764924 -1.2013041 0.01490863 -0.20758593 0.6085198 -0.6320959
SKP2 -0.038566753 1.0401543 -0.07208017 -1.9580624 0.57737637 0.5320112 0.6932205 2.2762554 1.4618084 -0.019861717 -0.52454144 0.47317082 -0.014414436 1.042417 -1.4861227 -0.034174256
NSFL1C 0.20530301 0.18820542 0.34158045 0.00250549 0.3739051 -0.20518416 0.890224 -1.0456529 -0.06700271 -0.1465634 0.39083022 0.19516887 0.1757402 0.20150581 0.07767237 0.035587095
IGF2BP2 -0.18902129 0.058858097 0.21207716 -0.047759198 1.5232224 0.30237845 0.081305236 0.6893538 0.21162315 0.21050283 -0.101064354 0.1853382 0.26396272 0.30189812 0.50495005 0.31133974
DDX39A 0.24719179 1.1505085 0.3016318 -0.13640289 -0.17394875 0.41511595 0.45976913 -0.14010145 0.15338002 1.2838811 -0.35696584 0.4117524 0.36761546 0.7913401 1.4493301 -0.10951675
UBE2T -0.8383296 0.21419235 0.34354043 -0.030214882 0.063440055 -0.024067288 -0.14773285 -0.8587848 0.7225517 0.17126839 0.6804075 -0.054176632 0.2934015 -1.4783442 -0.18746318 -1.4141687
GABARAPL1 -0.47207937 0.11379964 0.2129923 0.09184876 -0.18807118 -0.6602373 0.5302523 0.17952983 0.725625 0.49508968 -0.830373 -0.0478311 0.31551188 -0.53824556 -0.36589932 0.5652174
NOL7 0.5199799 0.8907503 -0.013000787 0.57536274 0.19482191 0.41860664 -0.31499732 0.6359671 -0.1421558 0.72084695 -0.8944586 0.30234334 0.3519421 -0.22764784 -0.5588115 -0.041414518
PCDHGA4 0.31093675 0.18378301 0.13762121 -0.8645319 0.7944914 0.15852043 0.042423613 1.3557142 0.15199555 0.16140504 0.40354845 -0.025060154 0.016844476 0.3154893 -0.70243543 -0.7146237
ELAVL1 0.47764596 0.34205714 0.4708016 -0.021288184 0.1608194 -0.0814659 -0.41841084 -0.15500914 0.7409147 0.80730855 -0.0304188 -0.4899959 0.051370457 0.66636854 0.10665378 0.33140522
MTPAP -0.039319918 -0.20443246 1.1074429 0.41110033 0.4236838 0.76956075 0.31897265 -0.045207664 -1.0119648 0.17080568 -0.1813776 1.049433 0.32084173 0.28338742 0.6380869 -0.05612036
WRAP73 0.67444867 1.0189332 0.18935607 -0.35625783 -0.087008856 -0.21187505 0.40957773 0.09129489 -0.89829004 0.5753655 0.3575745 -0.08226493 0.2310173 0.25586787 0.025715098 0.1505744
ANTXR2 0.1319148 0.17020528 0.42628643 -0.020279102 1.0246501 0.32363176 0.63664997 0.12939344 0.30643997 0.15955278 0.013344683 -0.015230078 0.38887662 -0.23533769 0.5513178 0.274809
MRPL55 -2.8634877 0.2664959 1.379278 0.19097148 1.4963958 0.48047382 0.69123006 -0.44889224 -0.28773305 0.06676868 0.5068187 0.622078 0.05159789 0.17961492 1.27086 0.7312441
DDX55 -0.12920918 -0.22825985 0.42879033 -0.3932978 0.7042127 0.29190975 0.544863 0.75416577 0.20771848 0.34040168 0.3558953 0.3117356 0.20206897 0.8953371 1.1138124 -0.029080454
WNT10A 0.648105 -0.6226309 -0.21570447 0.11558323 -0.097897 0.094160676 0.34138435 0.27776626 0.2619433 0.35551578 -0.9096106 -0.0389527 0.056649096 0.094980925 -0.10169239 -0.7789162
RUFY1 0.436945 0.13630721 0.5001163 0.17155841 0.2592225 0.35594267 0.36863515 -0.6615842 -0.44665167 0.52158076 0.29720545 0.21069461 0.6007614 -0.38316172 0.5315353 -0.011063562
TPMT -0.17297149 0.26648405 -0.18444881 -0.019299777 0.54275674 0.03770142 -0.29516914 0.72809434 0.43485296 0.31355232 -0.49292767 0.43988478 0.5625854 0.30145553 0.04751226 -0.0050499784
CYP2A7 -0.2704004 -0.13706942 0.32111073 0.2540012 -0.30803394 -0.16941775 0.71303463 0.46978718 -1.126156 0.09003924 0.023724794 0.49492514 -0.24168442 0.025000265 -0.68512213 -0.035777915
GDF5 -0.124339595 0.1749328 0.37239492 0.007416624 -0.03878551 0.0005017151 -0.46709043 1.3029042 0.16188598 0.40765685 0.5888854 0.1484186 -0.14804962 0.5479245 -0.1902004 -0.018865142
UBA2 -0.025201255 0.43205458 0.68944764 0.87812805 -0.67177826 0.20032133 0.26840347 -0.093887016 -0.6654006 -0.47986606 0.42629427 0.30518937 0.08933355 -0.20453674 -0.09229787 0.22773764
CENPF 1.5252545 0.42849693 -1.0751816 -0.0067594857 0.11519262 -0.4459016 0.28163812 0.33814391 0.067320645 -0.09562411 0.13432804 0.021291519 -0.62452596 0.08248887 -0.05021691 -0.7671447
GGCT 0.2318347 0.10165461 -0.14110333 -0.21724555 -0.20724142 1.0140334 0.42777032 -0.080736816 0.01611165 1.3319933 -0.27324384 -0.10801183 -0.34665552 -0.5688122 0.16695443 -0.057573162
PLSCR4 -0.5066741 0.30485025 -0.33938742 -0.0019811855 -1.3159635 -0.28316444 0.35350958 -0.15816432 0.61442494 -0.39682025 0.44794035 -0.0036401255 0.17713776 0.06859629 -0.25452977 0.0059736725
USP14 -0.020359002 -0.5562239 1.4008921 0.7830372 -0.19544913 -0.9452796 0.859638 0.6152845 -0.20456792 0.17676502 -0.33266708 0.032856785 -0.88573045 -0.09343361 -0.088622406 0.5429907
CIAO1 0.7184572 1.0119078 -0.9055795 0.03276284 -0.050946098 0.57968926 0.15354583 0.43889964 -1.0384083 0.34839207 0.016814679 0.39045882 0.11822356 1.2851602 -0.16822745 -0.44429204
SPP2 -0.4848964 0.23069139 0.73028326 0.30855256 0.7951932 0.35437024 0.38683555 0.3118405 0.67785996 2.192114 0.57566464 -0.0123904515 -0.63873196 -0.30050722 0.84521425 0.446861
PFDN6 0.057944972 0.21114264 -0.39333618 -0.12278554 1.5508746 0.6626328 0.1093972 0.35374308 -0.017559126 -0.13987112 -0.85481226 0.5784912 0.4345105 0.71013665 0.32243896 0.33359975
TPM3 -0.5749595 -0.20495214 0.5658885 0.00885223 0.49920088 0.6492136 0.4827549 0.24124639 -0.14776997 -0.40080515 0.2773224 -0.8636413 0.26847842 0.29350063 0.19473001 -6.1184866e-05
ZMAT2 0.16733539 0.09890133 0.7654504 0.3045 0.25639194 -0.08263201 -0.5766302 2.0902061 -0.22193925 0.5973773 0.6769099 0.32747853 0.7486611 -0.30186182 0.10756242 -1.0971746
EPM2A 0.30166703 0.42512974 -0.25955093 -0.013359944 0.24638349 -0.65606856 0.056129195 -0.7395804 0.9452398 0.45154873 0.2468763 -0.53341323 -0.16507542 -0.69243526 -0.017562564 0.22379893
SLC27A2 -0.108952954 0.46074593 -0.121944934 0.76710093 1.2473018 0.9664762 0.32190272 0.44318146 0.1705454 0.36077556 -0.1854386 1.2963991 0.25003985 -0.08663826 0.5210197 0.5061107
SLC36A1 0.2460015 -0.26761907 0.8804042 -0.0014871327 0.1503121 0.16660057 -0.16194119 0.06522626 -0.43878907 0.20301327 0.10348129 0.02055424 1.007211 0.04327171 0.2104861 -0.044970352
ZHX1 0.32463977 0.21089311 -0.1215815 -0.02050455 0.67029196 0.5478975 -1.4926573 0.22179231 -0.31401688 0.4262394 0.6307642 0.6359777 0.042284284 0.024334854 -0.0015056407 -0.0540003
MFAP1 1.2035195 0.13903233 1.0391618 0.4260247 -0.058786765 0.2921678 0.27015188 0.2684096 0.906202 1.1116652 0.37544745 -0.027058048 0.15645118 0.55253065 -0.4524652 0.2486623
ZNF322 0.14985763 0.25303152 1.7272846 0.5461851 0.21241081 -0.1052502 0.18048958 0.8057727 -0.19810429 1.5608242 0.5848196 -0.016192984 0.09597433 0.39640343 0.7205665 0.47679847
C9 -0.172811 0.26244757 0.20463309 -0.047820497 0.53067553 0.6955313 -0.69646305 0.5013473 -0.19854343 0.15846923 0.14984572 0.41267458 0.2835078 1.4991403 0.025147213 0.05105388
KIFC1 0.23454437 0.25938717 -1.5598557 -0.71859545 1.1569331 0.16452149 0.20027918 0.5249478 0.5527557 0.44959944 1.1742047 0.6894039 0.20800857 -0.37899917 0.06643666 0.49584648
EBF1 -0.17251064 -0.03223623 -0.25698036 -0.30708614 -0.19499111 -0.15592611 0.06885246 -0.19665204 -0.53567797 -0.23458481 -0.1302634 0.31823626 1.5852659 0.5909312 0.15608996 0.005476416
SDK2 -0.55782557 1.2100492 -0.23860167 -0.26374295 1.147104 1.000414 -0.36465192 0.7382179 0.28219995 0.43045977 0.110961676 0.28759378 -0.039473943 0.049706034 0.009340426 0.15342396
ADH1C 0.3527914 -1.1030405 0.14534585 -0.08679442 0.014117457 -0.08430571 0.43678105 0.4162607 0.3685897 -0.3951723 1.5774477 0.11848046 -0.05922345 0.24013741 0.1356514 0.31848818
DYM -0.06289831 1.0373374 1.8051313 0.6801016 0.83861786 0.11677156 0.20281452 0.14539447 0.8261067 0.45350608 0.6163923 -0.08585704 -0.25626493 -0.037147503 0.8026133 0.52118033
AQP1 0.06883008 0.05800412 0.49399853 -0.32862473 0.8277744 0.30502558 0.7373411 0.16674379 0.27359185 0.14814742 0.4756589 -0.5840601 -0.04765037 0.57115227 1.0047683 -0.11471271
PHF10 0.1604188 1.4455936 -0.08922217 -0.7076851 0.1650861 0.08378881 -0.49170128 0.80384856 0.25998855 -0.36639228 0.44792777 0.043762848 0.32805973 -0.028894022 -0.013062674 -0.028002225
ASXL2 0.26517332 -0.7605842 0.50429493 1.2323599 -0.051749066 0.021577386 -1.355014 0.61316687 0.49757978 -0.2561809 -0.07577166 0.2641781 -0.36531428 0.8731481 -0.28080454 0.059019286
GTF2H4 0.5967887 0.34878504 0.30159336 1.0391495 0.7730721 -0.39867243 0.020729017 0.67014927 -0.036455553 -0.24938597 -0.3274806 0.83108616 -0.31470475 -0.15143207 -0.030691352 0.21264467
RAD51 -0.03360542 0.117792234 1.0704453 0.93644506 0.7220419 0.12127483 -0.18481034 0.46100354 0.8285528 -0.2617343 1.5588251 0.062300976 -0.56791425 0.075126484 0.25564465 0.40235704
WNT16 0.33225107 -0.20813137 0.027023857 0.19536692 -0.13449764 0.18939395 0.30759567 -0.7289719 -0.1822265 0.19524139 1.1332392 0.014159672 -0.012758981 0.050178114 0.08365028 0.016245326
ZNHIT3 1.1129769 0.1292811 1.2864134 -0.35339049 -1.3258647 -0.12838796 0.3436262 0.28255498 0.33660936 0.8808999 0.71999824 -0.14634661 0.20900908 0.8879897 0.11817876 -0.105310515
GEMIN5 0.592442 0.73584217 0.5789394 0.21100597 -0.28932187 1.0726097 -1.9014293 0.06943734 -0.22713472 0.74254316 1.1990623 0.18071339 0.28095827 0.1301135 -0.08123201 0.37635988
DBF4 -1.219367 0.4677188 -0.19170837 0.013617268 1.0316005 0.31083548 0.584908 0.28242153 -0.85543483 -1.3485262 -0.40344363 0.6063051 0.20396206 -0.054997984 1.1278377 -0.31601113
KALRN 0.9257867 0.068718515 0.15386647 0.3902545 0.11173579 -0.032201853 0.044125795 -0.25640273 0.15376334 0.57534844 0.31946194 0.16978909 0.23705587 -0.8395725 -1.0700837 0.30681515
DDX20 -0.17012776 -1.0253453 -0.9904373 0.11393683 -0.060544845 0.62578213 0.5283135 1.1615775 0.0871842 0.08237589 -0.07192826 -0.5492116 0.091672756 0.0698891 -0.41584757 0.9136137
RAPGEF5 -0.07730257 0.328409 0.2788483 -0.4574925 1.0664177 0.38523963 0.6961136 -0.13415734 0.67917794 0.6642058 0.47812715 0.2806635 0.26754016 0.7873299 2.0618691 -0.071353644
ERGIC3 1.4201435 0.41620705 -0.13005412 0.12048868 -0.03826799 0.9567571 -1.0138097 -0.36754957 0.51724607 0.94871825 -0.7294856 -0.3631375 1.563467 -0.31567228 -0.121178254 0.14921167
LSM14B 0.5779194 0.19475757 -1.2653937 0.40221485 -0.9509619 0.25616536 0.43109033 -0.35248426 -0.10637234 -0.27996448 -0.63355595 0.24872647 0.29374394 0.10210874 -0.016451 -0.05482395
DEK -0.051631458 1.7904197 0.1107266 0.28989652 0.985525 0.12641878 -0.7476382 0.38013795 -0.041922957 0.1999878 0.34728798 0.7859556 -0.33828893 0.26643154 0.5312627 -0.056830376
AKT3 0.21133684 -0.14803642 0.6026591 -0.7145866 -0.055608954 0.1973038 0.09139883 0.56004494 -0.22309583 0.60562515 1.2909633 0.004319352 -0.08690813 1.0561298 0.24930723 -0.031971887
PCGF6 -0.5525814 0.19599374 0.6671679 0.0398268 -0.039376855 0.070218414 0.11135278 0.2508418 0.38675654 0.40264153 0.49863774 -0.040278442 0.17362955 0.47994208 0.21355863 0.09513528
GGT5 0.070149116 0.41114724 0.13749558 -0.20958444 0.47722226 0.40243056 0.69861645 0.0005396919 0.27236113 0.4678536 0.2961375 -0.001115002 0.6170966 0.23138542 1.0300705 -0.023468664
ZNF445 0.64438385 0.6285785 0.5393323 1.4545615 0.6275564 0.09024725 1.2384514 -0.32911938 -0.022086134 1.1885985 1.7149352 0.719549 -0.06310712 -0.22329456 1.6901314 0.12351162
YEATS2 -0.13637197 0.6526091 0.89002943 0.017064108 0.29181656 0.20309018 -0.3242322 0.2892574 0.12153608 0.29884595 0.037812024 -0.051647123 -0.3278914 0.49353132 -0.28567463 0.11633051
PTGES3 0.16316383 -0.75632256 -0.20925452 -0.019956227 0.29142982 0.18547364 0.08286856 0.3246302 -0.37529993 1.2514937 -1.2076988 -0.03454923 0.54844254 -0.15976876 -0.5763993 0.3412069
BOP1 -0.059733383 -0.19083168 1.2525773 0.17259888 0.027931267 0.37286094 0.3027877 -0.19480926 -2.7118907 -1.2931349 0.16664866 -0.075007424 0.8727545 -0.030729191 0.09090923 -0.6769878
MECOM 1.8916029 1.008195 0.9066988 0.17835143 0.77432966 0.9797848 0.8206764 -0.11293827 -1.7748483 -0.14318079 0.58341104 -0.12234256 1.6765584 0.61091095 1.3506724 -0.25588953
LIPG 0.39320126 0.2465992 0.4872856 0.50286925 0.42537323 0.15828408 0.26405457 0.34071156 0.44539735 -0.14025994 0.111567475 0.103690505 0.09786532 0.29503283 -0.33702216 0.5043741
LSM4 -0.019025167 0.8787487 0.092564404 -1.2410461 0.3272611 0.26924995 0.24718468 0.06516736 0.6761164 0.19809408 0.11154757 -0.014928447 0.47339264 -0.16010831 0.22618322 -0.13523054
CHCHD2 1.1286979 -1.4404166 -1.2694473 0.008995621 0.38042518 0.24633817 0.35480472 0.20660385 -0.101976395 -0.36354572 0.1382689 -0.011029919 0.2138923 0.20061925 0.39831927 0.1176997
PCLAF 1.3530962 -0.0046278345 0.044730347 -1.1370785 1.0623238 0.15074186 0.23263447 0.052655272 0.416036 0.32596543 -0.08874525 -0.05583488 0.087119155 0.40562093 -0.61567736 0.925673
C1orf216 0.26556385 -0.9344483 0.32263893 -0.021723215 -0.33503672 0.15702611 0.26562393 0.27454716 0.35897088 0.39123386 -0.119626 -0.32689074 -0.45508698 0.73876774 0.15806472 -0.6991377
NME1 -0.29130027 0.83381224 0.20756805 -0.6215017 -0.20356342 0.64466214 0.8098838 -0.62447315 -0.2085191 0.6851593 0.21538888 -0.0055554733 0.1506273 0.5072957 0.5747841 -0.0640441
RHOB 0.28992474 0.21510999 -0.4658751 -0.09846261 -0.100095056 0.030839454 -0.48679528 -1.5892392 -0.041305035 -0.7891411 0.45366234 -0.040105574 -0.65452564 0.021367474 0.14189105 -0.4588861
RBM8A 0.3804569 0.05678423 0.23936617 -0.009980498 0.17587003 -1.098772 -0.42794216 0.36245918 0.6704368 0.1455693 0.15872869 0.0019424949 0.12684457 1.4711988 -0.008969346 0.008739786
OAF -0.82960063 -0.30490175 1.3483697 -0.035486843 -0.12731218 0.675606 0.2704302 -0.26892748 0.44116098 0.9620034 0.80779326 -0.33554274 -0.12580617 0.039272822 0.5474021 -0.47006825
TGFB3 0.32507524 0.38901684 0.3992267 -0.068742596 0.15321602 0.06835341 -0.49799734 0.31405658 -0.28091487 -0.11140699 -0.19177026 -0.90048945 0.14288245 1.4419185 0.14853273 -0.7082777
CYP4F3 1.2050033 -0.6425933 0.34208545 0.13076575 0.21924938 0.97280246 0.3531877 0.38300616 -0.18832827 -0.5022644 0.34747154 0.22250468 0.25094202 -0.25601095 -0.010830585 -0.0454866
POLR1D 0.51906174 0.2908448 0.38697207 -0.008513289 0.36874154 0.20216915 -1.3245388 -0.07570626 -1.148559 -0.48747888 0.23404403 -1.161026 0.9669059 1.9956944 0.025617301 -0.0034953086
DDB2 0.44538146 0.2768075 0.49992406 1.9709716 -0.21349068 0.6638684 0.5046045 0.61905307 0.09715948 0.43525615 -0.78100264 1.8445082 0.14808385 -0.12826145 0.021979447 0.27235913
ZMYND11 0.027051471 0.15499528 0.38280645 0.000646697 -0.89687294 0.93439305 0.53274643 -0.85504085 0.655852 -0.28704482 -1.0861367 0.8437479 0.3108294 0.66834056 0.13840899 0.12939537
MCM3 0.91057324 0.16995259 -0.1534828 0.0004624928 -0.101618245 -0.2821926 -0.009877742 0.42669538 -0.16427572 -0.16881882 -0.47643852 0.75681126 0.033809472 1.1378208 -0.106718935 -0.2130742
TBL2 -0.07429339 0.14502189 0.11612839 -0.30412945 0.3816771 0.6849794 0.40652663 0.48220897 -0.08164518 0.22627747 -0.019966135 -0.596213 0.16598877 2.503288 -0.41274965 0.40853545
RALA -0.06954803 0.4492866 0.7868514 -0.3515254 0.4962214 -0.047241736 -0.3019046 -0.09314105 -0.58532643 0.8451089 -0.22282335 0.091963984 0.405158 0.09306028 1.4948845 0.4731686
SUV39H1 -0.09117545 0.59608185 0.321428 0.5507349 0.20315161 -0.9057148 -0.45403314 0.84419316 0.36610624 0.19511306 -0.06466936 -0.035006057 0.1420061 -0.11208715 -1.3761206 0.6582805
MED24 0.06528647 0.11664286 0.5309375 0.8659227 0.5260819 0.22701912 0.29668432 0.42942005 0.6915067 0.455238 0.3298723 0.22023803 -0.3273684 -1.5135183 0.17129426 -0.7328289
BDP1 -0.15512986 -0.31921762 0.02770723 -0.03788965 0.24409354 -0.6110988 -0.012710477 0.3673599 0.5055752 -0.08477099 0.2417538 0.10167664 0.43430123 0.3506683 -0.24188617 0.20829189
HMGB2 0.4463016 0.30353138 1.0518076 0.44358623 -0.15555188 -0.31194413 1.3493422 -0.1334796 0.3009873 -0.6553852 0.22515042 -0.03659349 0.11525741 -0.70787007 0.58324236 0.42098072
CHRDL1 -0.51561797 0.20064671 0.042702787 -0.6740835 0.572729 0.33464384 -0.20306064 0.56689304 0.64322996 -1.1815451 0.28286317 1.2238147 0.47981364 0.123195685 0.020169424 0.00673778
DVL2 -0.24245405 0.48620617 -0.5987714 0.17232293 0.97448915 0.16138813 -0.23613656 0.1521426 0.013655925 -0.09926822 0.05957358 -0.092505336 -0.38098803 0.4656777 -0.02072964 0.42252246
ALDH2 -0.15221094 -0.28790647 0.6182821 0.38989913 -0.118754536 0.19442284 0.38293287 0.34141782 -0.45450714 0.2718799 -0.29128972 0.1782197 0.12819882 -0.080415845 -0.062295683 0.1534478
ANXA3 -0.07258698 0.45262963 0.6879557 0.03403568 0.8035451 1.2315089 1.0526114 -0.04606939 0.024242658 -1.4385203 0.381328 -1.396825 0.48651624 0.35728303 1.5103995 0.037056845
RAB25 -0.6608465 0.26897615 0.041108623 -1.0795612 0.22952458 0.44557405 0.114331864 -0.00019220018 -0.55971843 0.114231385 -1.3226699 0.2666278 1.8242391 -0.04203828 -0.3273281 0.155896
C8B 0.3973108 0.2774578 -0.083639294 -0.039237767 0.50320673 0.12609467 0.16911569 -0.9516554 1.32437 -0.50176394 0.6735121 -0.22206515 0.08118261 0.3904434 0.08857835 0.1446168
ALDH6A1 0.55738395 0.032253854 0.79810864 1.506883 -0.115628295 -1.3425697 1.0483601 2.0074239 -0.116884746 1.0003928 -0.4202956 0.10863389 -0.07543247 0.5615216 -0.6350692 -1.0385195
EP400 -0.7736039 1.1006005 0.4105807 0.44009364 0.38115525 0.18693237 -0.41484874 0.17226258 0.36272573 0.72310203 0.48847827 0.35864875 0.53937966 -0.79625607 0.3871738 0.070821024
ZCCHC17 0.503412 -0.7824826 -0.19829525 -0.91225594 1.162312 0.09231834 0.052888498 0.31773946 0.36428577 0.7533966 0.18018432 -0.47515193 0.050592005 -1.0088565 0.023310138 0.1286702
GSTM3 0.42422965 0.1967567 0.27773553 0.02278241 -0.2697524 -0.10660079 0.24080542 1.2682239 -1.1363839 0.87827885 0.809988 0.040701702 -0.0587037 0.8901115 0.08091873 -0.026479902
CYP2A6 -0.025982277 0.04638665 0.7454185 0.5067961 0.29733205 0.15432876 0.08787907 0.28143793 0.3358737 0.29951748 0.40804538 0.31671306 0.39950877 -1.3214686 0.23091753 -0.67969596
MCM5 0.017949212 0.20249815 -0.16265163 -0.57497615 0.2327263 0.12819816 -0.492496 0.2551398 -0.15169653 -0.13364653 0.822883 1.1349223 -0.1765853 -0.8637004 0.14482647 -0.96386665
ACTL6B 0.1953452 -0.8546506 0.4291126 -0.0023286769 -0.13188982 0.25096583 0.4334252 0.32295892 0.429424 0.3906654 0.55022186 0.009711929 0.067505375 0.047900017 -0.2567154 0.099973045
KLHL12 0.35806176 -0.3389429 0.41511542 -0.035002492 -0.25559855 0.20380563 0.57059985 0.24222781 -0.8624648 0.1950315 0.18346338 0.22219755 0.45808655 0.8605197 0.4166018 -0.029154355
SLCO2B1 0.5514287 0.30516723 0.46441746 0.30138493 -0.23053858 -0.03751646 0.09269412 0.007884615 -2.1015265 0.47104844 1.9703592 -0.02542841 -0.027621029 -0.07756589 -0.115595855 0.5007387
SAP130 0.043765094 -0.59932566 0.38836172 0.13233869 -0.06717841 0.047573302 2.315214 0.23043224 -0.13307194 -0.053524278 0.09001539 -0.080289416 -0.050682884 0.30552006 -1.0881413 0.68406993
ASPA 0.8102827 0.06841333 -0.12252112 0.052631233 -0.06811647 0.41817775 -0.08463632 0.1580713 -0.0052658436 0.052256316 -0.6671126 0.7516151 0.11529291 1.2546558 -0.42257896 -0.0556103
ITGB3BP 0.41428873 0.3463059 -0.8554059 -0.09237727 0.91577035 0.08295511 -0.6262888 -1.1053015 0.2421252 1.9475485 0.07488572 0.04856871 0.31869456 0.36550617 0.3809162 0.5592979
FRAT1 0.18737602 0.16997688 0.3178703 0.50852054 0.3036323 0.012154029 -0.5260358 0.07241441 0.85141826 0.9098088 -0.49094766 0.2226276 -0.43815202 -0.35707864 -0.12809895 1.3039273
CENPT -0.23841988 0.18985265 -0.06918229 -1.1683911 0.20286712 0.36080408 -0.029787006 -0.4236115 -0.25823113 0.019572917 -0.11063717 0.97633344 0.2958512 0.27055168 -0.1549022 -0.0843144
UBE2C 0.13692316 0.09506014 0.92455256 0.19373286 0.6870642 0.2855647 0.6173673 0.13954674 -1.079728 0.46102455 -0.010183745 2.9983057e-05 -0.99864435 0.3037608 0.91849864 0.052127883
ATF2 0.51091766 0.16579136 0.041459095 -0.06401295 -0.57103205 1.4556234 0.9899804 -0.4320446 0.6577848 0.28457496 0.19959448 0.61977386 0.2899346 1.387127 1.4368126 -0.18850642
KIF14 0.5947817 0.38389003 0.57066613 -0.40594783 -0.31027076 0.4128102 0.8967608 -0.5601348 -0.024199333 0.3745837 0.5604152 -0.032364044 0.05859239 -0.32555947 0.42763665 -0.65295184
HLA-B 0.6267407 0.17395106 0.34962067 0.67073226 0.10633812 0.44880074 0.2539319 0.1339686 0.062273443 0.62844723 -0.87498945 0.3786384 0.3923318 -0.44497207 0.035896514 0.10675084
CCNK -0.0843364 0.116304345 0.2936224 -0.017308813 1.5012795 -0.20174459 0.38979056 0.3543627 -0.13822348 0.2216931 0.028698256 -0.004230539 0.24867995 0.093956225 0.6180109 0.34268218
MYOZ3 0.12168415 0.5101841 0.6768389 0.099732555 0.97218 1.5475445 0.21684678 -0.28399166 0.15379256 -0.19721587 -0.244461 0.17725627 0.59769446 0.39317188 0.5697438 0.34251893
SNRNP200 -0.08953523 -0.40486762 0.24873623 0.20444582 -0.08907601 0.60867167 1.3341888 -0.43963575 0.5102988 0.89737487 0.0914826 -0.023169497 0.008343725 -0.09907865 -1.4390088 0.44845316
PTPN3 -0.12570892 0.24945152 -1.7290611 0.03831107 -0.46763068 -0.13934496 0.21548137 -0.3682892 0.72639704 0.27620304 -0.37325922 -0.03404771 0.019123403 -0.10443416 -1.6780252 0.6687585
PAPOLA 0.5391605 0.50122386 0.6933523 0.5143391 -0.045553997 0.18924172 0.36620545 0.2893303 -0.015129185 0.1888474 0.10686557 0.26655138 0.13832271 0.7567698 0.1595315 0.17937681
BTF3 1.267731 -0.5899138 0.33131722 0.13703746 -1.8621103 0.22520122 0.49347082 0.87577814 0.26028064 1.1987374 0.12336121 0.0376316 0.44784328 0.71205634 -0.0034598403 -0.00837206
CYP2C19 -0.060566563 0.2781243 0.09021591 -0.033487804 0.55501753 1.1944193 0.7960693 0.07341236 0.17163879 -0.31650183 -0.007637587 0.33670813 0.94959766 0.03172253 0.41633487 0.017638428
WNT5A -1.1031371 -0.020704644 -0.062411305 -0.014308377 0.3627903 0.031211184 -0.8881701 0.41116214 0.1669279 0.57194805 1.1036142 0.53880847 0.49266735 -0.0854382 0.55549306 -0.7874763
SRD5A1 0.35433063 -0.1959439 0.18067813 0.4872393 0.22061338 0.4532147 0.107854374 0.5444192 -0.25286973 -0.1527782 -0.055579502 0.69077593 0.3796421 -0.55668616 -0.68899286 0.1952794
SUCLG2 -0.24593909 -0.021497557 1.4215993 -0.091913156 -1.1684846 -0.017126415 -0.05427462 -0.10503438 -0.47580323 -0.12538539 0.77844876 -0.06910104 0.5782849 -1.0249878 0.9632689 -1.0783278
EIF4B -1.0475185 0.85608494 1.0272385 -0.25404793 0.5717885 0.64435863 1.2979151 -0.17504932 0.28448567 0.37105057 0.19701022 -0.038018223 -0.5148299 0.45301887 1.1345985 0.36681598
DYNC1I2 0.5256767 0.2166889 -0.23860708 -0.015310679 -0.71652734 0.23655672 0.1773025 0.23942314 0.06975704 0.8689631 -0.06491907 0.12946628 -0.23982082 1.3693697 -0.020424778 -0.0066430997
SORL1 0.0061406167 0.32809165 -0.21257798 -0.34417415 0.6385527 0.51623225 -1.2174389 1.4699093 0.390018 0.37540033 -0.29185957 -0.71905106 0.094645746 0.5191351 -0.03992237 0.043392763
GFOD2 0.27977628 0.24603578 0.23802887 -0.041068498 0.3197867 0.056740355 -0.9878005 0.4406449 0.35959092 0.39193147 -0.19106095 0.25319988 0.13139063 1.6246547 -0.18506218 0.14727741
EXOC2 0.4027681 0.24630435 1.5431584 0.29161936 -0.4036094 0.61230093 -0.46147072 0.22647676 -0.21161237 0.8231765 0.18370105 -0.36605105 0.2271751 -0.09837425 0.10927202 -0.79701674
TPR 0.21532413 -1.3810493 1.047872 0.03282278 0.26614362 0.3169077 0.10756656 0.77815455 -0.048834864 0.52545726 -1.2633419 0.27715063 0.105130136 0.6817712 -0.0059484644 0.23882186
C5orf22 0.60475415 0.09107144 0.38922426 -0.13518438 0.26953873 0.8978723 -0.37809706 0.42357954 0.37137142 0.6263293 0.13498746 -0.36448112 0.6002307 0.7758902 -0.562517 0.38822016
ACTG2 0.55171543 0.47910878 0.7904137 0.4166772 -0.7541804 0.52994955 0.7966081 -0.016954683 0.10114778 0.5909256 0.63558143 -0.4697808 0.7873548 -0.36325073 0.8712938 -0.039390422
PSMA1 0.95514894 -0.08792652 0.4240093 -0.021639649 0.28680965 0.8742857 -0.26598468 0.10868627 -1.5548857 0.86817586 1.5759993 0.019714665 0.14607167 0.18867797 -0.6938455 -0.13001013
SMC2 0.55172133 0.26417518 0.3805212 0.54333097 0.7340113 0.09959409 0.7909493 0.5289078 -0.24655525 0.7561732 -0.020993168 -0.07787013 -1.6793202 0.4705069 0.09113512 1.2224545
GGPS1 -0.25406268 -0.7097687 0.92211807 -1.2643394 0.23695527 -0.19237965 -0.15800276 -0.69228905 -1.1516191 -0.36121336 0.76705694 0.0005876048 0.28269002 0.4768992 0.03463395 -0.0050082933
XPO5 0.04038016 -0.9204184 0.36435416 0.06610088 0.34439337 0.5750199 -0.5832305 -0.91525084 0.14545107 -0.57950187 -0.11088672 0.64251566 1.413658 -0.69302815 -0.53049433 -0.017406626
CDCA8 0.38616526 0.28676987 0.2679209 0.5903425 -0.4811202 0.21509217 0.38989192 -0.17620654 0.25799727 0.9547203 -0.9020677 0.06234991 0.028725274 -0.6425586 0.021824976 0.024236398
BOLA1 -0.31023553 -0.03767299 -0.49786085 -0.44986954 0.5117669 -0.6118207 0.8689216 0.8215452 0.47031206 0.49596697 -0.10992759 -0.068427205 0.27378002 0.43772137 0.036982458 1.2029847
DENR 0.5175086 1.3382934 -0.09021985 0.2860965 0.64361036 -0.9069892 0.36513847 0.37414688 0.31661648 0.6350021 0.122067876 0.075972475 0.069624394 1.1044663 0.9592298 -0.08038694
WNT5B 1.5716242 0.18977727 0.3680771 0.042701144 0.066699214 0.6308979 -0.8266979 0.3544684 0.27665752 0.5629764 0.5370356 -0.06044465 -0.51672494 0.6258116 0.012180625 -0.03414743
EXOSC4 -0.03199616 -0.025633076 0.27483818 -0.04015591 0.31742707 1.3067307 0.9528026 -0.2552753 0.075733036 0.45321065 -0.050741937 0.6796775 -0.32250074 0.4759506 0.95926154 -0.30365977
RCC2 -0.0070711593 0.26247382 -1.4617038 0.62780064 0.016652388 0.26815578 -0.06212033 0.08435816 0.24567513 0.73665583 -0.070323855 0.051806785 2.389928 -0.29289424 0.0049561793 -0.43682858
SMARCA2 0.78668636 -0.09616852 -0.2676167 0.12379775 -0.14605734 -0.56568515 0.38422486 0.24479464 -0.20859347 -0.008862905 -0.4046561 0.07487619 0.005002821 1.7433622 -1.1666926 0.38742116
ARHGAP11A -0.08902778 0.41181841 -2.1479487 -0.5402741 0.20306078 0.6648302 -0.11140879 0.33507267 -0.21938421 0.20768858 -0.0149306785 0.40973887 0.50389826 0.038414724 -0.19778588 -0.15369865
PRKCG -0.062467463 0.33306012 0.31955206 -0.02315646 0.32950497 -0.033209227 0.18995744 -0.3166767 -0.14901765 -0.5715218 -0.6576275 -0.8382303 0.27383718 -0.18528977 0.037267797 -0.8559635
SASS6 0.24347077 -0.44429657 -0.14560314 0.11948607 -0.05301011 -0.06245792 0.4464471 -0.002259621 0.15503208 0.5468037 -0.41999188 -0.08429673 0.044850457 0.5523305 -0.08049553 1.0817869
NUP37 -1.5731549 0.70388746 -0.13375944 -0.11000588 -0.1381412 0.30374527 0.44806066 -0.100302346 -1.4015248 0.17463505 0.07083038 -0.3834934 0.13027218 0.5922561 -0.95273036 -0.2655233
AOC1 1.050731 0.21039617 -0.35761166 -0.2882024 0.058176782 -0.183945 0.20840976 -0.39866683 0.23123862 0.16649716 -0.6561875 -0.06486381 0.8719338 -1.1277561 0.01970668 -0.30128467
ATP6V1H -0.6695131 0.44058335 -0.11432311 0.01848698 0.7025005 0.08755002 -0.78803116 0.3653958 -0.78530145 0.116900876 0.57503194 -0.42508057 -0.3721912 -0.38722384 0.77647203 -0.070656456
MAD2L1 0.12267108 0.6138825 -0.5203124 -0.5248588 0.15522534 0.78037316 0.32112974 -0.5785795 -0.1320903 0.5379086 0.07980369 -0.7126142 0.16042726 -0.031188736 0.004170429 -0.32622993
PPFIBP2 0.15773843 0.20436992 0.23614618 -0.049549486 -0.10471967 1.0025146 0.5346562 0.11931766 1.1849697 0.5226272 -1.0232785 0.9083004 -0.6953371 0.44461077 0.573464 -1.1326767
FPR1 0.24404249 0.3336265 0.9703991 0.22477722 -0.46098274 0.2759755 0.24190268 -0.101314925 1.036382 0.55990416 0.33061433 -0.08371713 2.0371752 -0.1347503 0.37979266 0.09110515
EIF3B 0.2399265 1.2410611 1.3543277 1.432381 -0.18582198 -0.22634302 0.117731236 1.0503682 0.3428331 0.9230063 0.78543836 0.1900254 -0.061871774 1.0705175 0.48905656 0.11901731
SOS1 0.628607 -0.648345 0.32753277 -0.1993433 -0.4812594 0.64132434 -0.50874084 -0.1878005 0.12388554 0.57251966 0.43339446 -0.5883704 0.17181446 0.86667556 -0.04647512 0.0121438205
PLK1 0.28186068 -0.14048082 -0.15761827 -0.11154015 0.09423215 2.0985668 0.7341538 -0.1575926 0.6351419 0.5471899 -0.10485541 0.30140752 -0.4439373 0.57228106 0.32837346 0.074637525
EIF2B1 0.44549602 0.047135327 -0.70404947 -0.7770331 0.11184279 0.1850743 -0.4799919 0.53127325 0.57552123 0.41724327 0.06290394 0.5821056 0.1440359 0.65212744 -0.6392463 -0.15628594
ABCB4 1.5720073 0.43664223 -0.5471977 -0.017053535 1.148468 0.6996461 0.5373658 -0.020678978 -0.4669203 0.61902475 0.116344415 0.009590486 0.15918009 2.1725438 0.8940895 0.012390967
SPNS2 0.48327112 0.17108993 0.56347865 1.1417718 -0.49192107 -0.22186401 1.5674393 0.40839007 0.4843973 -0.67816067 0.03605967 0.40148368 -0.1259376 1.5641178 0.113746904 0.34624952
USP43 0.014683597 -0.4231616 -0.33479285 0.49983042 0.046008024 -0.21623555 0.17414767 0.7281122 1.4948027 -0.27092496 -0.096358635 1.5976985 0.31583 -0.07481779 0.074066855 -0.07500806
ETV4 0.45559183 0.4032328 0.30123183 -0.026643287 0.83311105 1.3998706 -0.11526529 -0.7179567 0.10744016 0.541317 -0.064120404 0.18431088 -0.0054516178 1.3436711 -1.6463044 0.27223957
CHKA 0.42426667 0.08101203 -1.1023327 -0.005247928 -0.1836279 0.47847867 1.3234605 0.15972859 -0.082116805 0.35935837 0.17001058 -0.44937274 0.18327737 0.21049307 -0.5414796 0.13922209
XDH 1.1160855 0.085120276 0.5263595 -0.4797463 -0.529783 0.029660095 -1.60735 0.2845675 -0.19902696 0.53004485 0.24786058 -0.68246484 0.39044467 0.14900693 -0.015836954 0.15058677
AKT1 0.029075947 0.25902036 0.5169516 -1.7717012 0.26119798 0.2660854 0.29412317 -0.16772588 1.1899202 -0.91552347 0.1935301 0.037774287 0.5560507 -0.1520976 0.026454331 -1.0160117
NAMPT 0.00416164 0.052652173 -0.11618647 0.07072021 0.79711246 -0.032369282 -0.6712614 1.3807514 -0.20675729 0.13808224 0.52645963 0.066080846 -1.5913955 -0.07422938 -0.016117519 -0.009523518
SCARB2 -0.58681273 0.30616793 0.41271323 0.10754049 0.36727732 -0.1804186 -0.5418854 0.16356793 0.26275727 -0.6880789 0.22380365 1.2499176 -0.4407488 0.3661567 0.021943567 -0.06264602
NIF3L1 -0.056983154 0.27771905 0.44606897 0.05286243 0.21828379 0.05819082 0.25707662 0.33466116 0.5159799 -1.291339 0.01682322 0.16881464 1.0439054 0.16125846 -0.16675644 0.10790753
PRKAG2 -0.21305844 0.780618 -0.66594976 0.8698055 0.25945386 1.8291887 0.11232142 0.013388953 -0.47811472 0.70560884 -1.150493 0.8876689 0.49805105 -0.1314919 0.2681692 0.4602506
SET 0.034980264 0.4611532 0.7229925 0.076031595 0.8946984 1.5904976 0.29371786 -0.3018447 -0.060316823 -0.060777154 0.5576856 -0.59228545 1.0187957 -0.95880085 1.1879241 -0.2360213
PRCP 0.6325624 0.37386322 -0.43206057 0.0102987485 -0.708082 -0.4469172 0.27197495 0.034777023 0.58413625 1.1285214 0.15379006 -0.007791168 0.117257014 0.8309656 -0.06793828 0.019418688
TLCD1 0.61395204 0.32913965 0.3569541 0.40629178 0.17877336 -0.35976434 0.30007163 0.40705976 -0.06120289 0.47691363 0.35513714 0.036134016 0.36123732 -0.08368998 0.3159241 -0.6103145
WNT9B 0.58976287 0.35374504 0.112494335 -0.040011935 0.5890549 1.180296 -0.18977974 0.10628061 -0.49835694 0.51225555 0.44767722 -0.09582711 0.26897877 0.20119964 0.23358864 -0.026095528
SCAMP1 -0.18622984 0.41915873 0.42921558 0.031639993 0.42264038 -0.23516324 0.21423991 0.4272696 0.6341025 0.07330316 -0.042350184 0.32344007 -0.07527052 -0.18083464 -0.8696934 1.1304197
FAM172A -0.52122784 0.25408348 -0.08256121 0.27508292 0.19537248 0.094811015 0.15829456 0.5130355 -0.3253458 0.26232278 0.32889825 0.47112417 0.20772152 0.19834371 0.23840661 -1.0215647
DVL1 0.44869667 -0.062402163 -0.017705714 -0.41052648 -0.12029511 -0.12632518 1.0696627 0.6184262 0.5197009 -0.2973546 0.06774594 0.05150931 -0.23700774 0.3942017 -0.2855112 -1.3664758
LY6E 0.35580724 0.30151558 0.6044811 0.63589275 0.10606093 0.41316047 0.18082872 0.50379765 0.21611445 0.4250179 0.08035468 0.08618358 0.23932958 -0.12349411 0.10142104 0.11902663
RNF220 -0.07293842 0.56839174 0.05038907 -0.006092641 0.89065844 0.94146824 -0.1717813 -0.107356966 0.24559268 0.75266504 0.06851293 0.8389221 1.8853582 0.082901075 1.3227607 -0.056246467
XPO1 0.5181612 0.2345138 -1.1795064 -0.3271675 0.10008866 -0.29221934 0.4069477 0.14701326 0.26717523 0.12537801 0.027548611 -0.8994474 0.06600712 -0.15118569 -0.7464253 0.16853946
ADSS1 0.09989942 0.27990317 0.26848245 -0.8886316 0.44497874 0.028002067 -0.57997984 -0.26597044 0.5761677 0.47046548 0.8352865 -0.113960624 0.3720164 -0.29156807 0.6953838 0.026688097
TCF19 0.63123924 0.3199325 0.31397706 -0.0144525105 -0.04464123 0.24832034 -0.21658397 -0.35281527 0.46985874 1.1437963 0.44464615 0.057263155 0.2597423 0.7841818 0.64198285 -1.000114
CNOT4 0.38585794 0.42309377 0.45788583 -0.1334794 0.2346196 1.6495574 -1.0715823 -0.543309 -0.3358543 0.91978323 0.79953593 -1.8264133 -0.30253094 -0.18246469 0.11881664 0.2514959
PRDM15 -0.42062554 0.40812206 -1.1879746 -0.012978055 0.2074133 0.36201397 0.6432369 0.00089159596 1.0894353 -0.13014442 -0.74318004 -0.006505524 0.4008056 0.70590734 0.7771373 0.033975367
CD1D 0.5758683 0.3990251 0.47543088 0.20680165 -0.072604336 -0.14207979 0.3382066 0.45205805 -0.00411502 0.91858363 -0.29729512 0.102606334 -1.5492285 0.844094 -0.58323276 0.3475273
TOPBP1 0.68012106 0.13700897 0.14598386 -0.08585137 -0.21523324 -0.1913042 1.3193916 0.07776722 0.17809941 0.517439 0.29335254 -0.08920788 0.05820025 -0.24856722 0.16929801 -0.26872647
FUT4 0.058049474 0.3856392 -0.24509494 0.012701155 0.51058114 -1.1545521 0.65400183 -0.16085102 0.25705042 0.5524031 0.07451753 0.000679908 0.90605134 -0.31868476 0.6232065 0.20015408
RRAGC 0.60547954 0.23035945 -0.20834133 -0.058407385 0.19876777 0.8122257 0.41180217 -0.23076287 0.6334284 0.40621176 0.46189624 0.041797236 0.023278117 1.0615398 -1.60239 -0.0585682
RNASEH2A 0.17990617 0.029223157 1.0994387 0.28858534 0.39914638 0.17762771 0.5194297 0.78165674 0.39843518 1.6017805 0.65443134 -0.35788932 0.11535623 -0.15091951 0.95387614 -0.92958015
SENP1 0.39710125 0.8883458 -0.9578642 0.500804 0.34388998 -0.19506805 0.007835614 1.4021069 -0.105995476 -0.16185667 0.15577886 0.4928393 0.8715513 -0.5798674 0.06743887 -0.8128154
ANKH -1.1246935 0.4381514 0.32712215 -0.018216487 -0.2258891 0.21816947 0.10867281 0.24382377 -0.2047837 0.37907624 -0.077697664 -0.67198974 1.6416174 0.5810504 0.42222285 -0.1545151
NUP155 -0.027036525 -0.61410636 0.3857747 -0.52342385 -1.8647125 -0.027047098 0.23246875 0.9458712 1.277701 0.53072864 0.4737825 0.07920859 -0.009098172 1.0482321 -0.08817199 -0.0026386988
PCDH9 0.3090434 0.11622917 -0.1344201 -0.2402352 0.29035845 -0.3437594 0.024718963 -0.02271136 0.43941107 0.7984409 0.16061553 -0.05430966 -0.49899623 0.26275262 -0.5327318 -0.09022797
C12orf75 1.1351008 0.05299739 0.8749971 1.0397216 -0.009382645 0.31601578 -0.7852897 0.9281031 0.49439943 -0.29906285 0.23614293 2.4329405 0.051950544 -0.10721066 0.45261773 -0.20756616
ZNF623 0.5533469 0.2886095 0.44116604 0.95158803 -0.44331944 0.77893627 0.6098677 -0.04228472 -2.4584844 1.5386318 0.0958451 -0.07874106 0.37088308 -0.84502465 0.17918748 0.4855608
SQLE 0.058709368 0.54555887 0.8236957 0.020846462 0.0923943 0.38323608 -0.32009146 -0.03040267 1.3820801 0.2287932 0.43219104 0.46608406 2.2513072 -0.1143573 0.21482043 0.019797921
VIPR1 -0.23299176 0.2658066 -1.8070686 -0.013381611 0.097794615 -0.9593021 0.1287405 0.24837315 0.20344514 0.90531504 -0.025109425 0.004661627 -0.06717526 0.95401204 0.08959334 0.25681376
DIRAS3 -0.22063577 -0.5117017 0.3705 -0.017261395 0.36468402 1.081279 0.20112512 0.26674432 -0.2736012 -0.22907762 0.06088314 0.22654898 0.1697714 0.2640283 -1.1186066 0.37536162
SLC2A2 -0.15367517 0.43817234 -0.4081321 -0.23736003 -0.23199095 0.65110093 0.7000542 0.10974502 0.34516573 0.23725255 0.07709956 0.18699878 1.1767132 0.051138587 0.2948914 -0.28232297
SDC1 0.16948359 0.6457675 0.44215524 0.62365973 -0.22527736 -0.4890639 0.009747257 -1.280614 0.32485476 -0.47059292 0.14906493 0.045260396 1.1598635 -0.056352172 -0.7008655 0.092526086
PRSS53 -0.16151938 -0.15964691 0.0949587 0.0719891 -0.0073740636 1.0066198 0.13795958 0.7186711 1.5671018 0.09976974 -0.0698672 1.7620354 0.22132517 1.2900305 -1.8088754 -1.0323709
LIFR 0.34108344 0.025442675 2.2100422 1.2914007 -1.0786681 -0.67030203 -0.119435385 0.08536265 0.030118601 0.69085866 0.22125319 0.25866628 -0.3562484 -1.150434 0.052187707 -0.027136538
TOP2A 0.45554656 0.14516804 -0.33220565 -0.11021092 -0.23815425 -0.10618533 -0.2817824 -0.91927737 0.4342128 0.36519784 0.31029025 -1.1196655 0.7569357 -0.86306655 -0.36982706 -0.9278781
METTL23 -0.17572713 -0.4524227 0.9490053 0.5052712 0.5678625 0.9562223 -0.7097146 -0.41031143 -1.159088 0.760487 0.79250014 -0.024819892 0.19928466 -0.26899946 -0.11515273 1.1974268
DNAJC6 0.43527454 0.3684249 -0.36693418 0.11633314 0.117216036 -0.12914534 0.23508143 -0.23714426 -0.7815075 0.3860875 0.37445018 -0.023319779 0.13371913 0.09949929 -0.22021048 0.37476292
PUF60 0.4051243 -1.3151901 0.7441364 0.061577726 0.016606592 0.23309632 -0.040253006 0.7245767 -0.8493497 0.19541341 -0.28375864 0.51324666 0.07322204 0.25183716 -0.1595602 -0.05033148
MATR3 -0.488868 0.60942274 -0.09506977 -0.054578263 -0.04376193 0.08395783 0.15213738 0.3729821 0.39909473 0.11573335 0.40359476 0.19963786 0.13655141 0.14434014 -1.0888915 -0.0036179242
FZD1 -0.034992035 0.1675574 0.70914865 0.43102828 0.15993476 1.1055666 0.3542312 0.14301576 -1.3107032 0.19849414 -0.1026895 0.28312546 0.4993108 -0.540014 0.19876514 -0.06710517
SHB -0.8637872 0.45261532 -0.52381057 -0.039508138 0.9011297 0.22294158 0.12583007 0.024616778 0.4967947 0.42280328 0.8174222 -0.10734843 0.14803958 -0.16434719 0.7449853 0.814224
R3HDM1 -0.39202252 0.32417676 0.6319693 1.1150559 -0.049302433 0.060305748 0.22092134 1.8812352 0.1690251 0.769968 0.62535334 0.51474386 -0.66989994 -0.1260874 -0.073279426 -0.18395981
EXOC6B 1.1590843 0.462015 0.45956203 0.8086291 0.09535916 0.50487316 0.42956522 0.6689468 0.11710499 0.3200678 0.17585175 0.29483736 0.041845936 1.0254135 0.02171739 0.27941924
HHIP 0.7433066 0.5154469 -0.023004543 -1.3716471 0.16331166 -0.7230872 0.12694058 0.71894324 -0.61649257 0.95223147 -0.5174415 0.84899664 0.09891745 0.67950153 -0.21689357 -0.055842
CSE1L 0.23439352 0.25150865 -0.9411529 -0.14077792 0.84775466 0.69123083 0.46803206 -1.1103437 -0.16111691 0.23638332 -1.0376309 0.1403985 0.44707778 -0.65692943 0.40898985 -0.10667825
EIF3F 0.8737164 0.3088741 0.94899195 0.89820206 0.6062464 0.2614799 0.42065132 -0.06504185 -0.1983059 1.5175959 0.09818437 -0.27796993 0.15946308 -0.29783183 0.09806032 1.5420777
ARID1A 0.4251869 -0.75247437 -0.20363277 -0.2669339 0.85216 -0.5499744 0.95336187 0.87534565 0.10539506 1.5365137 0.262109 -1.053081 -0.04317136 2.2182972 0.638704 0.5299399
ITGB8 -0.07582365 -0.31832874 0.06309849 0.052408837 0.42659432 -0.5542695 -0.017914195 2.4229884 0.2689293 0.010844088 -0.23800892 0.52985257 -0.011962059 0.61947054 -0.06304414 -0.019057197
ASS1 -0.40352035 0.3214701 0.4789577 -0.22897896 -1.0776778 0.5187786 1.1083019 0.30384582 -0.20540543 0.85254264 0.5537447 0.05223821 -0.105132274 1.5008804 0.58906275 -0.18503541
SNRPD2 -0.012007077 0.22322018 0.9162024 -0.0006322794 -0.10421245 -0.59446687 -0.13237773 0.5069099 1.043037 0.12991826 -0.4348437 0.39149714 1.4927142 -0.19935492 0.1330367 -1.7281468
SLBP 0.5892961 -0.72303146 0.119645655 -0.7043327 -0.028986257 0.6526819 0.65417504 -0.9252426 -1.3206302 0.4172547 -0.4228046 0.00030275673 -0.33520216 -0.14618492 0.36388275 -0.28664574
TUFT1 0.54049087 0.26832026 0.28827712 0.360876 -1.0885037 0.57782036 0.8919022 0.44009206 0.37183693 0.44328427 0.27532816 0.15336248 -0.008924788 0.04844423 0.039113756 -0.95605373
CUL4B 0.016340444 -0.18994008 1.4218624 -1.648204 0.42545846 0.12767902 1.8416864 0.38672224 0.9732332 1.2369999 0.039817005 -1.2596651 -0.41391784 0.43698585 0.21096656 0.45140663
IDO2 -0.65254986 0.54413235 -0.41222638 0.65298676 0.4697317 0.960537 1.208152 0.25530383 0.8836666 0.32161057 -0.111753374 1.7481124 -0.5773184 0.22410797 0.62208277 0.36399475
COLEC12 2.020802 -0.13099414 0.5024887 2.2069263 -0.19016977 0.14037581 0.31226143 0.5651165 -0.32370043 0.4699034 -1.4994339 0.65920347 0.06720986 -0.14407308 -0.75917715 0.9952823
EXOC4 -0.3113943 0.25084 0.44968006 -0.52475363 0.47909585 0.08863401 0.5044266 0.32181036 0.3368649 -0.10093433 0.5109449 -0.31435207 -0.43346688 -0.66459256 0.5345589 -0.18968351
USP21 0.332917 -0.5622008 0.70892 -0.35574436 0.889027 0.2360579 0.03324246 0.4036306 0.2110185 0.5329116 -0.9071493 0.013402896 0.2031151 0.46273097 -0.068791874 0.44340453
CDC25B 0.52658725 0.25768977 0.15710405 -0.11019734 1.3673136 0.25419506 1.7800151 0.17941749 2.201099 -0.20970505 0.14982179 0.123827286 0.11964716 0.76540506 0.95636743 0.09529529
FGF13 0.5127397 0.20773914 0.17587654 -0.3700536 0.9775059 0.9159544 0.29064682 -0.20658374 0.27193275 0.363025 0.1710597 0.3878598 0.22320555 0.8817079 0.50530237 0.16677858
BCL2L1 -0.3970546 -0.6986964 0.70441556 0.52402085 1.4259442 0.7233308 0.3773387 1.2782815 0.27984065 0.27186602 1.1701993 0.87734354 0.082927115 0.730173 1.403291 -0.037241098
FARS2 0.45931545 0.13559638 0.30432406 0.01210019 -0.31881672 0.5126924 0.393566 -0.24699391 0.26752314 0.80076784 -0.6045933 0.2822337 0.26651573 0.2853385 -0.28873715 -0.6864347
SFXN4 -0.07782005 0.4384575 0.7665913 -0.31008056 0.08703974 -0.17507319 1.127365 -0.38907406 0.4676112 -0.9133645 1.7622422 -0.42060965 0.036238924 -0.08204403 0.9047515 -0.87967217
DNASE1L3 -0.14545062 0.2773276 0.10059775 0.07808455 -0.36348736 -0.11857864 -0.051974352 0.113882236 -0.7011225 -1.0464386 0.1411974 -0.09390488 0.3021847 -0.09950027 -0.10223674 0.051010244
NUP133 0.6110923 0.53038496 -0.02430607 0.023513542 0.27840856 0.040820546 -0.20130455 0.8274323 -0.07951046 0.5043807 0.80908555 -0.06134913 0.251759 0.17540376 -0.04526891 -0.03565115
KIF4A 0.6558558 0.26747814 0.3297222 -0.037128396 1.7794207 0.14770749 0.5417302 0.06206708 0.28247112 -0.059418574 -0.45890826 0.38748387 0.8119149 0.25958347 1.0479112 0.027052209
MRPL51 0.50096905 -0.011201901 2.0262854 0.044172876 -1.1811069 0.3365755 0.82679695 0.008424623 0.6264773 -1.0462061 -1.8006606 -0.23202057 -0.12206521 1.3697264 0.009024667 0.36551115
UCHL1 -0.12301774 -0.28571424 1.3741876 0.21318708 0.4684283 1.3325977 0.5120176 0.20593983 0.4829604 -0.14015491 -0.08754024 0.075790145 -0.64145005 -0.44734368 0.25802487 0.16723064
PSMD4 -0.08849492 -0.30589905 0.15346737 0.021918895 -0.5058079 -0.45046258 0.38078335 0.2594652 0.23238361 0.028507335 -0.4132237 -0.43472308 -0.98173314 -1.2116957 -0.03212985 -0.18140315
ILF3 -0.28504226 0.11814379 0.7697404 -0.19908807 0.99236417 0.15732068 -0.39610946 -0.17197418 0.6062407 0.21001408 -0.68205607 0.08878643 0.78156817 0.41919324 1.0994438 0.14152369
TGFBR1 -0.1143864 1.6572859 0.6534924 -0.07109192 1.003998 0.12297418 -1.5562507 0.36407608 0.4469422 0.2100408 0.3662892 -0.021403482 -0.24392664 0.6938771 -0.855689 0.5562497
EIF3G -0.070007645 -0.06703297 0.02551266 -0.012386457 0.19556046 0.53422534 0.9979247 1.0109869 0.28518057 0.3055807 0.097552344 0.12714547 -0.15390207 0.30691108 0.1819228 0.0893476
ZNF398 0.23810872 0.48059908 -0.31093878 0.1428159 0.45701683 0.048705477 -0.15824687 0.27385798 0.3558742 0.27791417 0.21262409 0.03899806 -0.7011577 -0.41889706 -0.010789925 0.11781553
GSTO2 0.36537638 0.52163684 0.51856077 -0.06976056 -0.10152969 0.24048266 0.3374721 1.0045533 0.110906966 0.5402065 1.5507346 0.077183336 0.19566911 0.39467725 0.45849156 -0.9296442
PLCG2 -0.49614847 -0.6277882 0.13379596 0.0076014823 0.54625446 -0.21217984 0.47936037 -0.86953646 -0.3947609 0.18039238 -0.19785836 -0.021858405 0.49233612 -0.389228 -0.022452306 0.5865722
FOXP1 0.10308747 1.3963139 0.50532556 0.71243215 0.2364003 1.015908 -0.5107937 -0.17925096 -0.17662959 0.35128072 0.15384749 0.40314114 0.4872784 -0.120614916 -0.03913662 0.29694745
STAU2 0.05980761 0.36646307 0.24389093 -0.45652452 0.40386644 0.029053045 0.2541457 -0.085297085 0.7175012 -0.008366263 -0.108165085 0.31589717 1.2631588 -0.17637073 0.3784693 -0.47614753
SPSB2 -0.35492957 -0.056143686 0.27149498 0.3464334 -0.23986918 0.7228483 0.67665327 0.12326361 0.6470757 0.26524556 0.32108852 0.16108163 -0.02234477 -1.1436889 -0.0020448824 -0.24573074
FNDC4 0.01587588 0.15730762 -0.46762094 0.22346799 0.7045167 0.8796333 0.48199195 -0.49534774 0.209147 -1.6049916 -1.6305562 0.5723636 0.0048822486 1.5828364 -0.17083637 0.57946193
VRK1 0.079059385 -0.21145223 0.5383061 0.027588014 0.1560679 0.20412986 0.6045782 1.1521605 -0.11600732 -0.2267513 0.26405367 0.30074054 -0.03943775 -0.051170602 0.08763883 0.022352124
NELFCD -0.28246137 -0.22954738 -0.416603 0.3708865 0.4686922 1.5223131 0.4100298 -0.022080675 -0.012303198 0.09448279 -1.264681 1.1226948 1.6310208 -0.08894751 0.58327883 -1.6025715
SUN5 0.09502159 0.281576 0.15659249 0.024517257 0.38786817 -0.05696235 -0.40234765 0.22883007 -0.8578628 0.020615216 0.40735513 0.27876058 1.1676782 -0.102523796 -1.2546738 -0.030724762
ADH1A -1.3108155 0.49906653 0.38037655 -1.1298827 0.66168416 -0.7380918 -0.55689883 0.12779927 0.26484835 0.34871823 0.5723065 -0.14131527 -0.21272309 -0.13249634 0.53920263 -0.031579558
KRAS 0.27116293 1.5518017 -0.3463084 0.0012775679 0.097924866 -0.25404096 -2.5023093 0.32903007 0.2687972 0.45386252 -0.9095834 -0.22406779 -0.087140396 0.11654109 -0.09841237 0.17445488
ARSJ 0.99088955 0.25080615 0.16295668 1.39397 -0.10604562 0.42695478 0.25861254 0.40198082 0.4786557 0.7042273 0.09382814 0.616966 0.21845815 -0.9452066 -0.11778395 -0.2578065
GMPS -0.08228329 0.5085344 0.11995686 0.8150038 0.9074374 1.6252437 -0.26626986 1.4105341 -0.15113524 0.16204299 -0.096234605 0.6791244 0.53420055 0.09198611 -0.1417146 1.0962814
ZFP64 0.13256902 -0.32896984 -1.546872 -0.019131623 0.40209648 0.34819958 0.37733108 0.12185041 0.6774527 -0.3874433 -0.048840273 0.3345588 -0.89490193 0.576344 0.08466896 -0.2908385
CKS1B 0.049721822 -0.0018308912 0.13795497 -0.028889656 0.2985113 1.071982 0.61133784 0.7167767 -0.33381343 0.2792133 0.14660847 0.7670918 0.1947892 0.52497274 0.4795359 -0.2179674
MRC2 0.58514434 -0.85489804 1.0672672 -0.1628239 0.6628884 1.4620104 -0.45152062 2.00622 0.11876808 -0.4604717 0.59853464 0.33163506 0.08933546 0.8728147 -0.026870908 -0.051104225
PCNA 0.43188718 0.6575792 -0.34493273 -0.30824137 -0.14939663 -0.83012 1.0825233 1.2172114 -0.1547123 0.14513497 1.7487714 -0.024395745 0.19685632 0.45404294 -0.5275385 0.52590406
NMRK1 -0.12472952 0.28584912 -0.2628605 0.06522635 0.22524576 -0.1579282 0.29706594 -1.4898187 0.9522833 -0.114602126 0.34083205 0.079079896 0.09833457 0.41787332 0.26782706 0.021148995
ACADS -0.17423227 -0.37895346 -0.17503695 -0.027795129 -0.101550005 -0.26337647 -0.5386895 0.16362345 0.86434513 0.49845147 0.10119845 0.35656056 0.87701195 0.77694046 -1.0536243 -0.43049195
ELK4 -0.28238675 0.08587878 0.6751377 0.71161646 0.4147454 0.17860001 0.2833467 -0.007931386 -0.92343795 0.045325156 -0.8918068 0.49601552 0.25730225 -0.9792193 -0.0929099 0.04985372
COPZ1 -0.2936126 0.3372064 -1.3321829 -0.010053541 0.3713773 0.22313684 0.59180146 0.15308683 0.41120347 0.9890294 -0.56619614 0.53134304 0.35264155 0.33086705 0.61365175 0.038896125
COL4A4 0.23131569 0.7056914 0.23601022 -0.047376085 1.3054303 0.31172916 -0.3008116 0.30379093 0.29124588 -0.16387135 0.15536375 0.19002098 0.34840268 0.19670995 -0.29792342 -0.044426613
PGM1 0.80719566 -0.6271351 0.5759145 0.003871629 0.5646935 0.4506642 -0.694598 0.11038922 -0.40780243 -0.11937557 -1.8349932 0.57361174 0.45648256 0.39776698 0.6718398 -0.05099248
ORC6 1.0513058 -1.4015505 0.29352757 0.02805082 0.35211584 0.29689413 -0.7277638 0.26083443 -0.16073132 0.30390766 0.5557916 0.25453955 0.50193346 -0.103569806 0.0018950698 -0.034368146
UCKL1 0.57836276 0.32143483 0.55701315 0.48201135 0.088755354 0.44734737 0.5738305 0.09222034 0.15911347 0.6875676 -0.014952006 -0.27888817 0.318263 -0.16276947 0.2663824 0.29604125
GTF3C3 0.91347194 0.4140583 -0.3152435 1.190922 -0.09799965 0.107546724 0.25088197 0.5302789 0.18646821 0.7955658 0.41788584 0.52601296 -0.078080684 0.11536781 -0.084893145 -0.1331745
LOXL2 1.2043895 -0.3048576 0.7610642 1.2826555 0.9341219 0.6087192 0.85673505 0.34332874 -0.15316536 -0.054467496 0.08590706 0.033535343 -0.2448735 -0.91812825 -0.4846343 0.5465806
HGS -0.08013822 0.48692265 0.6018836 0.8246734 0.27383563 0.26861167 -0.17555128 0.50995314 0.27164906 0.3666843 -0.11344035 -0.35985667 -0.3161684 -0.3003466 -0.06816504 0.5060271
TMEM53 -0.57795864 0.215189 0.020297717 0.010989971 0.6218801 0.25388268 -0.61021423 0.31812602 -0.560729 -0.09488574 0.0037929027 1.0020463 0.8903336 -0.044463288 -0.39681605 0.0248652
PRR14L 0.09231295 -0.23787469 -0.29658502 -0.055919748 1.0290781 0.36898267 0.37586793 -0.13270667 2.2459013 -0.01886855 -0.023774017 -0.5708052 0.9941303 -0.21591316 0.093461 0.35491112
PPIH 0.4997244 0.5707597 0.5450696 1.0831202 -0.060875487 0.44833586 -0.7109084 0.3749972 0.5958254 0.79774094 0.023141066 0.48588535 0.20354225 0.055854104 -0.098247774 0.8977488
SYT13 1.2498783 1.1838487 0.7070506 0.008053615 -0.02468696 0.1348281 0.18265975 0.30712327 0.23380612 0.1897613 1.298934 -0.0091668 0.05578104 1.0168289 0.6393097 -1.1290861
BIRC5 1.4438827 -0.8901025 0.313547 0.03062273 0.02685472 1.1734564 0.33958942 0.5351244 -0.24709846 0.495791 -0.32987446 0.26305646 0.056771345 1.8135338 -0.12725595 0.015140174
PCYT1A 0.2763174 -0.41785726 0.14052995 -0.019045288 0.15944135 0.2503457 0.49817362 0.3122218 0.725152 0.96134496 0.6022959 0.029481202 0.93860716 0.1593685 0.32698238 0.045687575
BCHE -0.08505835 0.49902958 0.67701286 0.012557784 0.20565212 0.38601142 1.4681047 -0.11804844 0.3777126 -0.25762188 1.7781322 -0.01857845 0.10371622 0.11129924 1.1935072 0.097916834
CSNK1A1 -0.34874982 0.9244034 -0.12361374 -0.6019118 0.5575273 0.28813815 -0.66998553 0.26721203 0.25144634 -0.021078335 0.28387022 0.7248301 0.75910056 -0.111804985 0.05598086 -0.046869285
NGFR 0.38171664 -0.9202994 0.12348456 0.0054980996 -0.37673125 -0.104600124 0.6705139 0.0056906426 0.59362435 0.38485813 -0.42917857 -0.017686492 0.15511568 0.39589685 0.2960938 -0.004281713
RRM1 0.4753997 0.16271855 0.5532115 0.06905537 1.1104925 0.42765352 0.31996635 1.6157959 -0.12038418 -0.4905236 -0.3982209 -0.6021595 -0.10159295 0.25157535 0.01279012 0.10971736
HOMER1 -0.13696179 0.50698113 1.8870453 0.8366428 0.3761089 0.3042632 0.3544797 1.0697913 0.039215017 1.341034 0.16060936 -0.07514088 0.14706941 0.41250822 -0.7915915 1.3917787
XRCC6 1.2908387 -0.17014535 -0.09072068 0.291256 0.053066473 -0.15250687 -0.018345982 0.17420864 -0.49688867 0.055924736 0.3314825 -0.089024395 0.2684344 0.8105799 -0.19850041 -0.029245153
CPSF3 0.2529783 -1.560423 -0.4336619 -0.0023020208 0.32743424 -0.13111605 0.780876 0.52600574 -0.89077646 0.33331156 -0.14407362 -0.022743309 0.39428803 0.0034201844 0.08757381 -0.283749
EIF2AK1 0.9330289 0.23689109 -0.5655052 -0.06949345 -0.046964128 0.20402703 -0.05690316 -0.3511462 0.46076033 0.5265312 0.04273047 0.10500194 0.25504845 1.7979748 -0.30946755 -0.0420939
FCGR2C 0.35950342 0.09523549 0.5403932 -0.009803109 1.0646663 0.27783623 0.25103635 -0.25796 0.36971352 0.88912034 0.090113945 0.014033576 -0.46379742 0.3586389 0.6264722 0.4381954
PIK3R2 0.33643025 0.7173654 0.6379217 1.4109119 0.05586196 0.30210838 0.47939786 -0.35935053 0.10475496 0.28815907 0.14873354 0.07080625 0.26219314 -0.40714976 -0.5739964 0.18941513
PSPH -0.3993958 -0.015687302 0.7294988 0.6662821 -1.1598797 -0.2587968 0.58792555 0.5864891 0.26477775 -0.08300694 0.479073 -0.046428125 -0.016560392 -0.4382095 -0.06467193 0.05589254
ADRA1A 0.23851341 0.17219615 1.2539405 0.8823088 0.34289575 0.20725179 0.1784025 0.5672555 0.111702 -0.60433316 0.16371727 0.30958956 0.17107299 0.6697715 0.4742122 0.28660148
FAM50A -0.019116567 0.38869235 0.19841827 -0.2805282 0.4494107 0.35768545 2.0490649 -0.7348322 0.026320545 0.14904243 0.2716052 -0.04510018 0.17766887 0.1698778 1.6242678 0.00059372606
TEX10 0.30443743 0.14294691 0.38042715 0.1314394 0.30468896 0.23282515 0.36592877 0.2228142 0.15000775 -0.011899077 0.29293784 0.020353207 0.24955536 -0.11592179 0.09787789 0.07729988
ADH4 0.9275239 0.08673366 -0.2448477 -0.22733684 0.23638573 0.36957368 0.57166743 1.1201371 0.67892504 0.46678168 0.2248396 0.067177214 -0.013766335 0.7125895 -0.1680737 0.02271637
BAP1 -0.12856787 0.5892448 0.24711916 0.06477352 0.20676658 0.11877712 0.26161134 0.26355845 0.12885274 0.74346215 0.26340446 -0.035625268 -0.007937569 1.444027 -0.44549173 1.0043583
C1orf43 0.49938026 -0.16980101 -0.07913387 -0.3005301 -0.09627379 0.2873367 0.6636393 -0.29442552 -0.4728697 0.26294193 0.71367055 0.020423999 0.03748823 -0.017828744 -0.24474582 0.016815338
NDUFA2 0.35304782 -1.0330633 0.12420596 -0.015579197 -0.27759877 0.053665977 0.48094043 -0.13526379 0.3449831 0.4456864 -1.2356143 -0.9681401 -0.10480825 -0.54277307 -0.30982378 0.31769478
RUSC1 -0.8627826 -0.30009267 0.55380434 0.11238344 0.22407761 0.042422187 -0.4035695 -0.3509848 -0.19919366 0.2740181 0.23812146 0.15297942 0.1292289 0.20213056 -0.20175426 1.6457405
CENPX -0.11949074 0.08814677 -0.20672145 -0.4841155 0.5527979 2.0392678 0.265402 1.8476057 -0.4102605 -0.21188666 0.15457708 0.94897914 0.33714724 0.90779036 0.06716576 -0.089819625
SCRIB -0.2896365 0.2553443 0.045947436 0.2707844 0.12089308 0.43101326 0.9030316 0.47875687 0.57889295 0.3793562 -0.48657346 0.6031614 0.30270684 0.09283462 0.23451807 -0.00017944654
EMG1 0.20117356 -0.10798495 1.2561585 0.22062303 1.0322046 -0.042843822 -0.68824595 0.42250398 -0.4756114 -0.30127713 0.29610112 1.5035379 0.43188238 0.74593586 0.33832303 0.526882
EPB41L4A 0.43239096 0.2628564 1.0158956 0.5393312 0.024970151 -0.023071695 0.46072194 -0.1041897 0.14751905 0.40777263 0.25264332 -0.023198351 0.4659382 -0.40668982 0.21406284 0.25809997
SRPK2 0.94859546 -0.41330275 0.36898148 0.21054555 0.2989526 0.26082602 0.64859104 0.11615635 0.756008 0.64499474 -0.015202203 -0.055535816 -0.18203065 0.347738 -0.04101561 0.67043656
TAF4 1.6366318 0.07832612 -0.10834635 -0.8884263 0.15668991 0.005225451 -0.28459877 0.31732315 -0.23578617 0.5117872 0.6283548 -0.0887794 0.99231464 0.7336462 0.043548618 -0.2104148
PIK3CB 0.032231197 0.02513876 -0.91591257 -0.00037892707 0.5537316 0.16066335 -0.903907 0.40136373 0.88582885 0.33881193 0.3853122 0.20847186 -0.44993672 0.7197421 -0.12523656 0.10272724
TACC3 0.44270992 0.21063247 0.0405187 -0.78900105 0.29329258 0.22337434 0.5227527 0.33620843 -0.048821468 -0.19181207 -0.037796102 -0.0069591305 0.22995189 0.8324655 0.01488345 0.010895279
LPCAT1 0.31328455 0.8227983 -0.123775 -0.94529474 -1.6946522 -0.13471967 0.48335963 0.18059887 -0.26478142 0.12163691 0.67558557 -0.50556797 1.5087721 0.24686284 -0.17524835 0.072245985
SLC41A3 0.5109111 0.5445019 -0.069646925 -0.07650843 1.0942161 0.32114226 -0.64911675 -0.16803478 0.23110901 0.17045835 0.0925813 0.8169523 -0.21987139 0.44845617 -0.035637725 -0.100700185
HSPA14 0.14417633 0.3624381 0.2581218 -0.11723706 0.71488774 -0.30147913 -1.43536 0.42835984 1.2572747 -0.45990425 -0.8756443 0.21471368 -0.034785334 0.4613475 -0.17898236 1.4348338
NDRG1 -0.10405168 1.9759542 1.0877137 0.770453 0.7621911 0.649844 -0.3200328 0.60507506 -0.34231335 -0.6193868 0.05988527 -0.040883426 0.95998394 -0.62716645 0.25399837 -0.053077657
BLM 1.4667274 0.29652664 0.95822406 0.36459595 0.057265025 -1.137963 -0.2856671 0.480602 0.19635819 0.21915042 0.30926213 -0.26424396 0.2862489 0.83456516 -0.022175329 0.031033257
MED20 -0.029302448 0.083398305 1.1994158 -0.055655364 0.15350614 -0.0013965827 -0.12122703 -0.9289546 0.5082688 -0.043508768 0.38191685 -0.06445013 0.5062338 -0.85938436 0.065088056 0.022337887
TCFL5 1.0896978 0.36542368 0.36062625 0.5589748 0.5047596 0.025051415 -0.44886616 0.13547048 -0.8015849 -0.32815358 0.8467528 -0.035751622 -0.22024971 -0.3045594 -0.11935724 0.85268486
MAP2 0.22384243 0.47543702 0.13860051 -0.3688495 0.25015745 0.03727841 0.03308628 0.9309344 0.041156135 0.34567723 0.247527 -0.16983166 0.121871024 0.52549404 -0.05184194 0.1571311
LSM2 -0.11000034 -0.532736 -1.0055758 0.048931785 0.07020174 0.23639761 -0.17284136 2.3840594 0.51125866 0.43994233 1.1542554 0.4412765 1.3177423 -0.39540052 -1.3365823 -0.123618945
KIF18A -0.07340985 -1.3225813 0.42542154 -0.013118784 0.23749666 1.0270777 0.8580888 -0.21681206 -0.94753206 0.25251818 0.046811685 0.18807173 0.10874653 0.4251096 0.5992218 -0.5505986
JRKL 2.1197596 0.28171027 0.15365553 0.2342223 0.10565101 0.56192714 0.45362267 0.15853295 -0.06768049 0.8194074 1.9973047 0.17000462 0.20767948 0.48730278 1.1468935 -0.0071786167
TCEA2 -0.1223452 0.9505207 0.44260257 -0.62956935 0.4465976 -0.46265218 0.62202734 -0.955838 -0.0803112 -0.87303114 -0.4702473 -0.21483274 0.39920267 -0.22399622 0.5174516 -0.47080013
LRRC58 0.5290001 -1.2063445 0.18732795 -0.019870246 0.9461177 -0.7650763 0.12542872 -0.60195947 -0.11248267 -0.12922226 0.028074065 0.00530252 0.09629657 0.5142154 -0.15623635 0.1593303
RDH16 0.2067034 -0.17968728 0.45200086 -0.19820869 0.00041008717 0.004749567 -0.11375597 0.29692093 0.52177775 0.3861103 0.25385147 -0.48483485 0.16530918 0.4617156 -0.065545745 0.11460967
RNPS1 -1.3344321 -0.5953152 1.0531596 -0.12832324 1.222756 0.837297 0.15834779 -1.1713656 0.495758 -0.33325493 -0.20972127 0.37258482 0.012208959 0.11365642 0.7250931 -1.0138344
MSTO1 -0.12213427 0.2584412 0.2673384 -0.686652 1.0004559 1.0637887 0.6355336 -0.10458011 -0.18289071 0.45505044 0.14856324 -1.5453568 -0.4465005 0.8623217 0.5982029 0.34887066
PTEN -0.075919226 -0.1364896 0.1542441 -0.25492886 0.48315978 -1.0512096 0.22858062 -0.3654468 0.46504107 0.28412762 -0.14886561 -0.026952246 0.24972938 -0.006820715 -0.86389 0.53851104
RPL38 0.22570384 0.07531453 1.2996501 -0.64032924 0.09099228 -0.6560234 0.34458506 -0.3128268 0.51875997 0.67978126 0.1956937 -0.697124 0.00413608 0.77519655 -0.522058 0.6047084
TRPV4 -0.68538713 -0.1351302 0.6777652 -0.36985776 0.2925089 -0.06583641 0.7755175 0.22063787 0.72373694 0.01948015 -0.07630075 -0.21968359 0.4915088 0.5321323 0.07885814 0.07354388
TLR4 0.34926552 0.22380546 -0.9496837 -0.0022879145 -1.3164879 -0.12698743 0.6797581 0.7019904 -1.1538551 0.670107 0.2916496 -0.07405204 -1.2789345 0.68877846 0.11182674 0.77575135
GCHFR 0.13687737 -0.60229987 0.35790372 -0.15556455 0.9826529 -0.06471209 -1.3647846 -0.2825529 1.051772 -0.031023538 0.10801547 -0.01734329 0.2770885 -0.022926677 0.10116878 0.03635803
RBMX 0.9635639 0.093811594 0.301334 -0.027697386 -0.010366826 0.37926468 0.491217 -0.18562917 0.3368677 -0.19311418 0.06633834 -0.17484514 -0.14673302 0.36572158 -0.3323362 0.0045028203
PNP 0.0026288605 0.31988388 0.18431321 -0.3547986 0.38069612 1.081631 0.37096828 0.857581 0.519838 0.75486976 0.44214445 0.080898106 -0.6550815 0.48267132 0.3667458 -0.057962924
C1orf131 -0.2369754 0.4178887 -0.011036841 -0.25970334 -0.06472719 -0.07446298 -0.4364337 -0.22929892 0.42334396 0.8715407 -0.18686903 -0.21479245 -0.55249876 0.5062122 -0.02011322 2.4499648
CLEC4M 0.251383 0.23721644 0.21775909 -0.66176814 -0.05952268 0.5623847 0.37158036 0.15518783 -1.0200076 0.37541658 0.37488535 0.44790575 -0.041155454 0.072818086 0.17683068 -0.03545613
ZFP62 0.26947278 -0.102222584 0.005450774 -0.03683586 0.38142192 0.37379327 0.96701425 0.44412687 0.07974143 -0.33134866 -0.29070488 -1.3772547 0.19613528 0.19447944 0.07312747 0.08462484
CHST4 0.17070287 2.078573 0.27469817 0.6155879 0.1267573 0.112070836 -0.74546444 0.02630895 0.48032007 0.30933928 0.8494754 -0.007840848 -0.04488346 -0.06499084 -0.5815428 0.10525581
HSPB1 -0.5300002 0.20186189 0.47897542 -0.012777252 0.31628114 0.4991757 0.6055715 0.431233 -0.25066784 -0.52063775 -0.014246316 0.020054644 0.14651634 0.14530015 -0.43698487 0.037895285
SPRY2 0.34281474 -0.29926205 0.2662132 -0.050488777 0.051033325 0.5267877 1.3193308 -0.12862097 0.6416419 0.23981008 0.15605675 0.022774622 0.15423572 0.37705648 0.5137682 -0.15625726
CYP8B1 -0.9344707 0.33742833 -0.70759547 0.73342955 0.26861194 0.84396875 0.27492487 0.31348303 0.7904954 -0.020191243 -0.11324603 2.3398538 0.4608135 -0.13937666 -0.61849284 -0.84591335
HIF1AN -0.14744523 1.6092333 1.3939897 -1.3190234 0.48864308 -0.17097233 0.052298766 1.1658319 0.3876505 0.12125988 0.33557305 0.09815849 -0.2728683 0.78635114 0.6028471 -0.11027063
DHX30 -0.6511607 0.2797715 -0.3212468 -1.0083764 0.71902686 -0.21046105 -1.4058052 -0.9825042 1.2428497 0.06581402 0.29177693 -0.024160687 -0.14456454 0.42286435 0.010670648 0.8470202
IFFO1 0.6218686 1.3878567 0.014584153 -0.027880305 0.608731 0.41965628 0.23950732 0.16108984 0.254951 0.16367833 0.10708584 0.008745132 0.16374256 0.2296778 -0.102127 -0.42747885
TAF2 -0.0694583 -0.43947968 0.332343 -0.033886686 1.2026659 0.6087454 -0.07483754 0.23243572 0.5463195 -0.037275672 -0.5880111 0.8358716 -0.8263939 0.3625059 1.0874715 -0.06769404
DESI2 -0.08293786 0.21014023 0.546067 0.19194461 0.18726906 0.1727483 0.39188075 -0.5597693 0.40087244 0.46667543 0.19824524 -0.014537714 -0.58240813 -0.23636006 0.034624882 0.5163875
HNRNPM -0.4291585 -1.1680099 -0.9863457 1.5199035 0.4385078 0.18091092 0.056070738 -0.43189618 1.2452224 0.37805825 -0.03995704 0.44556317 0.28177738 -0.083988026 -0.7243153 0.8900897
RFX5 1.0630816 -0.84960926 0.5897517 0.015550361 0.2121026 0.56367356 0.5275856 -1.017949 -0.14846413 -0.9321822 0.12627774 -0.24762489 0.08351232 0.2761742 -0.009693468 0.029796075
CENPW 0.5899764 0.24843301 0.3588136 0.21722758 0.22159119 -0.17793122 0.22492157 0.4398928 -0.6191141 0.5466732 0.04336498 0.015890026 0.20081481 0.03714181 0.028388154 0.044708107
PLCG1 0.8057626 0.32877395 0.22268578 -0.0027705058 0.8065298 0.027057314 -0.666372 0.10215165 -0.2874469 0.8656386 -0.012374653 0.0590449 0.49225527 0.6393082 0.98785603 0.1588225
ZDHHC16 -0.76109016 -0.096431114 -0.08829018 -0.03807711 -0.1426103 0.2748065 0.5087475 0.27340773 0.24200268 0.3977252 -0.23982762 0.38875845 0.11921 1.3308979 0.23783563 0.19173038
U2SURP 0.8104713 -0.57410973 1.4592327 0.5473352 -0.17586757 0.24692562 0.30850586 -0.56166255 -0.25191233 0.26663852 1.0913923 0.044272773 -0.17382786 -0.14936529 0.09571665 -0.038796596
CHD7 -0.095993675 0.5586881 0.59590954 0.32904166 0.07554088 0.20025057 0.34476912 -0.21531194 0.5040995 -0.14011273 0.9012526 0.09051911 -0.0002984444 -0.014249192 0.2536931 0.12461592
S100P 0.942736 -0.6301278 0.53152347 0.59058136 1.3953116 1.0608463 -0.24276015 1.1656754 0.14637017 -0.34492218 -0.14472236 0.39542112 0.32894132 0.3776342 -0.47165984 0.3078488
PRRC2C -0.061691172 0.21673608 -0.26729372 -0.02288876 0.72821516 0.303244 0.1055744 0.5254542 0.51048464 -0.17825025 -0.07822225 0.032895174 0.20670877 0.2332181 0.06985033 0.002270721
MASTL 1.5268781 0.2081775 0.050408766 0.0009561295 0.15610139 0.3811897 0.7058069 0.42731345 0.5555176 0.52954483 0.9796155 -0.01596913 -0.18247157 -0.38379252 0.12467722 0.1392365
IGF1 -0.3406701 0.8607681 -0.08446472 -0.6511486 -1.1484517 1.8760669 0.75280875 0.09446041 -1.5596852 -0.46297467 -0.10423878 0.2611244 0.33678317 -0.061851326 0.023638459 -0.22817066
HLA-A 0.4998946 0.28967562 0.3240074 0.016612155 -0.11660318 -0.16443938 0.29409805 -0.2522095 0.2680152 0.78041565 0.34982863 -0.8482456 0.13029572 0.56702536 0.16129367 -0.0888609
PHF6 0.2916128 -0.23596245 -0.19549495 -0.025055481 0.38962284 0.3630785 0.2661958 0.0596351 -0.16009852 0.41644734 0.05818792 -0.07054599 0.45450753 -0.35280362 0.003194056 0.010182244
CDCA5 0.67318904 -0.37269136 0.5068444 0.764027 -0.21890566 0.64957505 0.30204287 -0.49889854 0.1694671 -0.3001074 0.111656286 0.6376377 0.24611872 0.263023 0.015676223 -0.05045355
DYNC1H1 0.30855837 0.32001814 0.5073669 -0.002680048 0.47287285 0.30107695 0.3454091 0.024453275 -0.101114064 -0.49114385 0.3982573 0.073843986 0.3543909 0.2786532 0.6934396 -0.010448191
KLHDC3 0.10556031 -0.7402855 -0.22828133 -0.08265608 0.608481 0.23722705 0.19264276 0.30513567 0.7375218 0.28717858 0.090205036 -0.60954016 -0.44163987 0.44551116 -0.99036473 0.4557782
MTBP 1.2786373 -0.07351417 -0.19693781 -0.08843987 0.03028756 -0.37148127 1.3049701 0.7747437 -0.3604656 -0.70179445 0.006355077 0.054109834 -0.0318962 0.4598821 -0.24428003 -0.0699833
BMP8A 0.24573751 0.40959224 0.42310426 -0.020738717 0.032213125 0.083456926 0.51563203 -0.13642456 -0.23374888 -1.1429106 1.633405 0.13211858 0.3795935 0.10835528 0.08413773 -0.6281241
FZD10 -0.17453036 0.1748087 -0.36464307 0.085579604 0.22680585 -0.0772214 0.32566607 -0.054841027 -1.6172256 0.14922701 -0.07667362 -0.04313545 -0.9988306 -0.44456992 -0.066265695 0.9209829
PXMP2 0.78581536 0.35270447 0.010905849 -0.10576461 0.7112061 -0.05777829 -0.4903862 0.0028638486 -0.65247875 -0.11113041 -1.1368932 -0.25381207 -1.729282 0.1706388 0.8372163 -0.07532651
EIF4A3 -0.11163982 0.635904 0.005632986 0.15163577 0.41530275 -0.07686148 0.28449264 -0.013165013 0.6872211 0.6571745 0.7180288 -0.04150488 -0.19837931 0.62645024 0.007898392 1.3033025
ADAMTSL3 -0.11437159 0.37276128 0.36678207 0.4403125 0.5415619 0.1637216 0.32653776 0.12972759 0.6381476 0.32116517 -0.032590352 0.56586105 -0.9963051 0.22473827 -0.08172068 1.0918626
GSTO1 -0.17069761 1.9071066 0.4657495 -0.006852658 0.6918503 0.30567667 -0.86137223 0.067607 0.33498475 1.0217036 0.80611473 0.30654287 0.8884294 0.41119897 1.2107838 -0.040135227
TCERG1 0.1264741 0.22347154 0.16970938 -0.063466445 0.6825685 -1.1944717 0.5146312 0.09163567 0.055543363 0.5749762 0.28850004 -0.81777096 -0.5983518 0.98167765 0.8112663 -0.24248281
CHRAC1 -1.3879989 -0.15926358 1.4896984 0.5003023 -0.27518994 0.49245572 -0.12413812 0.5999809 0.5882041 0.12686169 0.03732881 0.9948242 0.6364666 -0.10953289 -0.16567416 0.06871729
NUP153 -0.09838618 0.30928105 -0.28692004 0.029073723 -0.0055508884 0.5254924 1.3504766 -0.70920897 0.27921948 0.31043726 -1.6246394 0.79456806 1.5262567 -0.09802213 1.3045048 -0.8073133
GJB2 0.50980085 0.6378619 -0.19362943 -0.20156239 0.03371513 -0.4185873 0.48451033 0.95965195 0.31415576 0.25535023 -0.28001606 -0.3903986 0.15943095 -0.19581915 -0.06020891 0.041640166
DKC1 1.3742462 -0.7013289 0.41410828 0.17184405 -0.109341115 -0.31319845 0.43007618 0.3513251 0.26060617 0.593029 0.49303135 0.28934717 0.36371914 0.4993276 -0.85254514 -0.14160739
MT2A -0.55196935 1.1560061 0.27025834 -0.024971431 0.47822642 0.017182704 -0.20770976 -0.19950536 1.1697553 -0.24830319 -0.67323345 -0.34557167 -0.23608924 0.10783618 -0.15724753 0.68851614
MTIF2 -0.18557702 0.22079602 -0.10896493 -1.1305509 0.6061818 0.103138626 -0.8302243 -0.77354693 0.8359321 -0.87764627 0.056900512 -0.040078636 0.44522464 0.5581492 -0.10041686 0.5702838
SHC2 -0.43978646 -0.028085656 0.6759173 -0.4678975 0.8286328 1.6004674 0.66759986 0.2103059 0.2591554 0.9678629 0.6189654 0.55349237 -1.9945961 0.7522842 1.7596159 -0.26400676
GREM2 1.2217308 0.388458 -0.2619866 0.04559435 0.380772 1.1580299 0.20464782 -0.5127979 0.121258855 0.33646023 -0.041481562 0.37272942 1.4073924 -0.27287364 -0.049698804 -0.0035535828
TGFBR2 0.35354975 0.15545657 -1.0450984 -0.22490636 0.6158167 0.93775856 0.19512431 -0.8431033 0.5039999 -0.36252037 -0.21708265 0.09520667 0.29602316 0.08616734 -0.8540001 -0.084601805
CENPJ 0.44437534 0.21478388 0.280397 0.3920167 -0.030664882 1.0462791 0.7000566 0.32067752 0.8905843 0.43872237 -0.03341445 -0.03422793 0.3998088 -0.7672698 0.3674599 -0.47185445
ZNF605 0.43239003 0.3647701 -0.38363814 0.8209842 -0.9878496 0.6484388 0.3035354 0.54252076 0.16473028 -0.34098572 -0.7291503 -0.5986524 -0.82351065 -0.9781328 -0.075042896 0.10123686
MCM6 -0.1308366 -0.47356358 -0.10884399 -0.21819043 0.19426979 0.12854208 -1.4970207 0.41416112 0.78068507 -0.0902939 0.32860655 1.4566109 -0.101234026 0.44523263 -0.842538 -0.024166843
CYP2B6 -0.038890693 -0.41547194 1.2075152 0.00278433 1.1082665 0.3723321 0.7098103 0.0039161206 0.28918135 -0.23102388 0.20272559 -0.11520576 0.24948627 0.22548209 0.920443 0.58224094
SLC9A9 0.19104753 0.57155377 0.14378539 -0.008555475 0.32146668 1.2983226 -0.39660132 0.08225763 0.49411577 0.5286624 0.15616894 0.38348788 0.43269503 0.9749795 0.37070477 0.035586145
CTNNBL1 -1.1075251 0.49440718 0.113255545 -0.0044036997 -0.3659628 -0.3124552 1.1335281 0.2626284 0.4932157 0.7070003 0.30940488 -0.05593873 0.21145415 0.14480855 0.20947072 0.2814006
IL10 1.6263018 0.358116 0.9204372 1.9365008 0.13085747 0.30851024 0.23978975 -0.14095567 0.14172946 1.0727459 0.58689684 0.3048706 -0.064100824 -0.18239687 -0.1911869 1.2437595
YWHAZ 0.65148556 0.277873 0.30039564 -0.93869627 0.11733337 0.2535688 0.48757592 0.24001975 -1.4874622 1.2825421 -0.9077063 -0.04428456 0.020147381 0.95803034 0.51364005 -0.17857073
ZNF740 0.102285184 0.46115267 -0.28139105 -0.0025620838 -0.39666814 0.11476863 0.526086 -0.49976987 0.8285685 -1.3216227 -0.3898834 -0.7355838 0.30028614 -0.747003 -0.010629659 -0.23940405
UBXN1 0.36167598 0.21771058 -0.21047506 -0.014707869 0.6450157 -0.3146614 0.66999495 0.2527799 -1.021127 0.46513307 0.2618207 -0.008495327 0.09409374 -0.13004568 0.5152268 -0.16778345
APH1A 0.38656345 0.15221846 0.48638135 -1.2797642 -0.43211696 1.3726476 0.5467516 -1.1243653 0.57377803 0.3081958 0.36838743 0.0019965526 -0.33779955 0.5261461 0.30528218 -0.55444485
CYP2R1 1.3990773 0.32175937 0.27890852 0.7561328 -1.1004844 -0.12515004 -0.22479163 0.3998557 -1.0426556 0.18731332 0.6316446 0.16200021 0.5969491 0.10436638 -0.6925793 -0.025443448
PDGFRA -0.8569175 0.25052696 -0.8904555 0.13511129 0.18080986 0.12849773 -0.11505419 -0.6033668 -0.11789649 0.11977858 -1.0824056 0.37170345 0.12462569 0.98689246 -0.070078686 1.6867578
MEFV 0.20218138 0.21203248 1.2828368 0.21861146 0.40258014 0.40541127 0.095174275 -0.49306923 0.27613044 0.8656063 -0.0641895 0.008268323 0.98935485 -0.08775943 0.5657522 0.43715465
RRAGD 0.16938172 0.017887078 0.87190515 0.070658855 -0.43781185 0.06357383 0.30968803 0.14281213 0.44805506 -0.2828273 0.5956431 -0.08199625 -0.22140937 0.22936633 0.10403873 0.11578867
ASPM 0.4374368 1.0647558 0.19308744 0.06044057 -0.038300537 0.06486418 0.1035061 0.2821707 -0.28982267 -1.3159846 0.24902102 -0.0031055317 0.14000697 0.09751233 -0.1856047 -0.014126524
MRPL34 -0.055714007 0.28393456 0.27958235 0.2081453 0.3528981 -0.17136551 0.19770905 0.27162033 0.19966772 0.26307145 -0.07030588 0.14255606 0.84073114 -0.28639972 0.10918116 0.14708444
APOH -0.18891625 -0.29837835 0.36071098 -0.021210413 0.4466862 0.3158089 0.25889713 0.9242915 0.297553 0.186189 0.28028667 0.2975229 0.2924901 0.37759787 0.18583037 0.03142225
CUL4A 0.06558824 1.0513918 0.42539564 0.37328312 0.7068562 0.060402066 -0.85134435 0.8883541 0.13956437 0.70539826 1.5910071 -0.0467216 0.1755984 0.28165165 -1.0854799 0.33817023
KIF2A -0.5293957 0.62407625 -0.32185495 -0.2183688 0.17239496 0.2210472 0.21815042 0.33095148 0.34491143 0.32193446 0.2630806 0.42251313 0.0074164737 0.20938602 0.28643897 -1.1656984
SPON2 -0.27747053 0.16028702 -0.17010765 -0.7588113 -0.4278873 0.7197262 0.4182357 0.06308621 0.28905368 -1.189929 -0.1123165 0.5890074 0.54702693 -0.04014375 -0.0020152838 -0.17243633
ACTR3C 0.003930492 0.2269103 1.2826909 -1.5910885 -0.12213347 0.3230709 0.4547358 0.2160326 0.49143544 0.22380425 0.3688449 -0.053385653 -0.10892971 0.99781895 0.16481091 -0.92501754
S100A8 0.56618416 0.7176537 -0.14151418 -0.102771774 -0.77145505 -0.14890024 0.16799559 -0.062303916 -0.5322523 0.43262926 0.2871358 -0.095642544 0.291714 -0.77978355 0.0125111975 -0.021652978
AGAP1 0.43781495 0.10999398 0.22045976 0.015170558 0.33212793 -1.1287365 -0.058066536 0.4622679 -0.5773556 0.14566772 -0.0025412363 0.10581532 0.09646946 0.13957392 -0.15447807 -1.373409
PLK4 0.29442066 0.42363158 -0.55277693 0.3638841 0.2766691 0.0989709 0.26423216 0.26613125 0.73472875 2.093455 0.2953782 0.88659704 0.30578092 -0.5582667 0.71395415 0.0065290737
IL1RAP 1.2553002 0.34641564 -0.35829556 0.04038188 -0.1412802 0.050966695 0.10811211 -0.062548555 -0.54670334 0.40700015 0.08511252 0.5127156 0.23978195 0.38375303 0.13696364 -0.10124071
PLCB1 -0.37686798 0.5099382 -0.44343832 1.2588743 -0.16631809 -0.32852575 -0.13023727 0.6327775 0.31153637 0.55166674 -0.4213059 -0.5852262 -0.16577715 0.21350335 0.3862845 -1.075313
QSER1 1.5620495 0.27929607 0.42404187 -0.031451978 -1.226194 -0.051269308 0.3036112 0.17560966 0.6430404 -0.25256592 1.069588 -0.8015499 0.4121685 1.3786682 -0.004139896 -0.03468254
CENPV -0.029604131 -0.025863422 0.21836653 0.30180418 -0.1808015 -0.17930101 0.30286857 1.7569495 0.21143474 0.42701462 0.26801026 0.27576748 0.15573747 -0.10733569 -0.058967225 -0.037977908
PGP -0.40753385 0.9620256 0.18602654 -0.8564009 0.13931474 -0.113631114 0.18666178 0.13109176 -0.25292632 0.2849285 0.18010296 -0.5511717 0.13146326 0.14518723 0.026172485 0.01650908
GSTP1 0.1494339 0.3240188 0.121601045 -0.01428943 -0.46432605 -0.024553075 -0.2581758 0.14795947 0.59692955 -0.14292045 -0.080923885 -1.1702636 0.16986097 0.17075163 -0.07376583 0.113233164
AKT2 -0.021662846 -1.0049249 -0.36389503 0.58651805 0.34270558 0.59922326 -0.24555582 0.42077002 0.26122472 0.13882059 -0.12444205 0.6284944 1.3893428 -0.43497047 0.021996686 0.29568836
ALDH18A1 0.19129668 0.4677926 0.052734815 1.0832772 0.3400277 0.0699415 -1.1025587 0.40107447 1.2795267 0.23337619 0.06688276 0.501341 0.09347125 -0.15229781 -0.09344397 0.4028797
CDKN2A 0.24011841 0.80800694 0.07653427 0.08253738 0.4502272 0.80161977 0.31897897 0.100631 -0.037008416 0.42974174 0.077534676 0.042513035 -0.3307626 0.12861973 0.35403913 0.05722131
ABCF1 0.48936266 0.09190113 0.5943283 0.7641244 0.6101094 0.20828143 0.36840847 0.41790664 1.131278 1.0703067 0.8241219 0.31130528 -1.8067957 0.020757068 0.22984582 0.68221706
TP53 -0.13599591 0.20447536 -0.12213589 -0.35271698 -0.87243485 -0.19985515 -0.5670265 0.371777 1.2601659 0.7764622 0.3893715 0.16661948 -0.13339075 1.007095 0.1379463 0.28353652
MYO1B 0.53603166 0.43232965 -0.33695427 -0.004502261 -0.15608157 -1.5951647 0.31536478 0.5469563 -0.7994717 0.38085473 0.40384784 0.00093086844 0.06322156 0.9469665 0.048662532 -0.013403701
ELK1 -0.19403826 1.5640752 0.24053016 0.6804071 1.3095927 -0.053081013 0.35430056 0.56127673 0.91110337 -0.31022996 -0.30429912 -0.5769842 -0.5091271 0.16377947 -1.62365 1.8450793
NCBP2 -0.51209867 0.14997686 0.49530822 -0.54198503 0.73593664 0.457035 0.67858315 -0.029241085 0.0039422107 -1.8657798 -0.11888703 -0.15648246 0.36229384 -0.46879977 0.77724314 -1.2454609
SHISA9 0.2764002 0.18840761 -0.09583223 -0.022848655 0.3086697 0.10042255 0.39383385 0.32284623 0.1565328 -0.5519586 -0.12533538 -0.009911283 -0.73657364 -0.18304045 -0.01938282 -0.2122833
LOX 0.3096793 0.35136348 -0.14183903 -1.1839762 0.50434095 -0.010848228 0.4776998 -0.043848164 0.6773495 0.7367942 0.68723214 -0.1582716 -0.065255225 0.6344055 -0.15209626 1.8470749
FKBP1A -0.29607382 0.4585765 0.39281628 0.21676691 1.8382553 0.07304779 0.29430103 1.1533989 0.4952565 0.45941272 -0.43066883 0.094679974 0.09247266 0.35158944 0.08212345 1.3060664
RRM2 -0.120972246 0.48525986 0.69152683 0.27047947 -0.031728134 -0.30651787 0.115986384 0.5744233 -0.19802977 0.19685552 1.1592282 0.44964442 0.038888253 0.25354448 0.05638792 0.12780577
PDCD2L 1.1186155 -0.12570202 -0.22387233 -0.045398172 -0.04864416 -0.23920308 1.3438002 0.27837542 -0.036879685 0.27173164 -1.2191541 0.10355924 0.017760785 1.3189709 0.29775733 -0.15326476
LIX1L 0.5490835 1.6394821 -0.005492356 -2.0261405 -0.21660507 0.9726979 0.5963357 0.24993096 -0.7515555 -0.39534956 0.29634547 -0.7916476 -0.8327295 0.3620653 0.06151228 -1.0563357
MEP1B -0.04188717 0.23676239 0.3021036 -0.8781772 0.9103421 0.12803096 0.17079449 0.3826742 0.3481269 0.13821442 0.46694273 0.45086345 0.25085676 0.81309026 0.6122791 -0.0056132507
NFE2L2 -0.73607635 -1.0763667 0.3786333 -0.039465692 0.66555524 0.12266322 0.52923447 1.1566405 0.53136057 0.842744 0.29381436 -0.49098134 -0.07873067 1.8874754 1.1574001 -0.26581398
HRAS 0.1457787 0.37312737 -0.9323011 -0.01900319 0.17395937 -0.20286305 0.3431936 0.6412142 -0.5550296 0.41318402 -0.06509076 0.05532028 0.24553744 -0.014044825 -0.28303868 -0.13041739
KLF13 0.08338373 0.2296036 -0.011456732 -0.31252074 0.15428245 1.0256101 1.6318382 0.021757714 0.24561864 -0.7521082 -0.04711908 0.03506741 0.45458764 1.3427185 0.62502044 0.02079948
CCNA2 0.175283 0.280289 0.7648108 1.4269483 0.43584332 0.8396634 0.6060111 0.6302903 0.33025065 -0.4736368 -0.0390656 0.3430984 0.04915508 -1.1560231 -0.0913798 0.46116638
SLC25A39 -0.5813274 0.43846777 -0.89805627 -0.0039039166 -0.4616938 -0.020071285 0.34650353 0.49210405 0.4820539 0.6129836 0.1943076 -1.4413909 0.2330989 -0.15666054 0.121184364 -0.22764736
TIGD1 -0.116530165 0.00061541423 0.53358716 -0.7078347 -0.09200397 0.23769015 0.51624113 0.37313098 -0.5215272 0.050476003 0.8078655 0.03266258 -0.11739268 -0.15146318 -0.4595525 -0.0046887984
ADAR 0.80598825 0.4316215 1.2922794 1.606633 -0.23405029 -1.018586 -0.030163862 0.5849156 0.24253315 1.2263931 2.1499915 0.21778968 -0.35384333 -1.1280973 -0.25422952 -0.1945077
RCL1 -0.056317292 -0.10379797 -0.4718748 -0.016708069 0.9745945 0.32746089 0.018493656 0.7476649 0.38586834 0.1474011 1.0560418 0.053398274 -0.4836759 -0.40790918 0.06398793 -0.015191788
RAD54B -1.7899331 -0.6169891 0.8233901 -0.030707506 -0.44976044 1.1879228 1.1549174 0.37282243 -0.6450346 0.30380523 -1.1027921 -0.7119917 0.09949131 -0.011355744 0.3672289 0.0060183574
KCNN2 -0.22364962 0.07129412 -0.20616288 0.043251876 0.21666531 0.38843226 -0.516129 0.4847292 -0.36668354 0.6127827 -0.08113709 1.1831248 0.16333663 0.90391606 -0.13196968 -0.08581531
MTHFD1 0.17304769 1.226663 0.1449238 0.24276629 -0.08430181 -0.1861152 1.3115119 0.2541647 0.069104 0.3211655 -0.44451857 -0.02182476 0.14134794 -0.5631817 -0.24886355 -0.4275435
TBXA2R 0.47925267 0.7023449 0.6399576 -0.39910683 0.44544348 0.18377073 -0.28515372 -0.11829397 -0.6057808 1.4765011 0.5403388 0.091129795 -0.17248403 0.5514536 0.75373787 0.026966542
SNRPA -0.13073786 0.63989073 -0.78037226 0.025302026 -0.028218888 0.37072298 0.05688167 0.17916349 0.6376942 0.68189937 -0.8107393 0.9924166 -0.16489682 0.45288202 -0.009120838 0.13117824
ACTB -0.84186727 0.08170713 -0.11178713 -0.12191759 -0.078259945 -0.52266216 0.49726573 -0.4820503 -0.30939332 -0.035815246 0.5071843 0.48041546 -0.3255495 0.09405553 -0.9596444 0.00526216
LSM7 -1.6170467 0.26180595 0.39212954 0.032470595 0.39098847 0.12702644 0.102292575 -0.45861652 -0.13547882 -0.92019856 0.31712708 0.040589716 0.72599775 -0.057865176 -0.065168716 0.3147603
CEP70 0.5627094 0.031184973 0.009325905 -0.42830148 -0.69230616 -0.34679794 -1.1482961 0.1232693 -0.35155568 -0.21147966 0.26703528 0.045369446 0.23489842 -0.70499647 -0.014852017 -0.42466652
AIDA -0.2935897 0.27103642 0.6438478 -0.057198215 0.5911762 1.5503197 0.2722848 -0.057390224 0.21378422 -0.15723808 0.40318757 0.5738459 1.0468854 0.20583273 0.6501186 0.40124324
VPS54 -0.029815104 0.3800946 0.23059955 -0.089225374 1.5127633 -0.12873162 -0.39061978 -0.27357307 1.4145348 1.2170517 -0.01205503 0.08579994 0.79421353 -0.37544736 0.8497348 -0.057735067
PITPNM3 -0.094053194 0.35504872 0.010295951 0.004484021 0.4758327 -0.13688302 0.28033453 0.46047777 -0.8043559 0.6725605 0.45726812 0.027152594 0.24346624 -0.08780725 1.6180177 -0.07975842
DHODH -0.34345537 0.2510841 -1.5823607 0.48899838 -0.045392945 0.19807397 -0.10303546 0.5454635 0.71531254 -0.7756669 1.7730557 0.33884057 0.3834367 1.0794805 -2.1020436 -0.04212462
PSMB4 0.6071498 0.39638954 -0.42203927 0.67919964 -0.19289026 0.8535947 0.55380714 0.8787644 -0.1358631 0.18478937 0.12539788 0.34091786 0.08504225 -0.025391709 -0.086846516 0.053587385
MAT1A -0.30373862 1.5765634 -0.79245764 -0.011927418 -0.13835172 0.32926473 0.5154816 -0.061951794 -0.43563437 0.65180165 0.07473637 -0.7235092 1.0198914 0.24389817 0.539146 -0.20032318
TOP1MT 0.65635896 0.3239478 -0.29397565 -0.51775867 0.1428641 0.81830144 0.50269103 0.057127137 0.20814933 0.4905854 0.053403303 -0.07215056 0.17519428 0.1925526 0.013633516 -0.3294245
CYP26A1 0.63791704 -0.7561916 0.22817416 0.6652191 0.7938962 0.15237977 0.4772417 0.59733856 -0.6761322 0.3002672 -0.03864601 1.1673439 -0.4066854 0.5501495 0.11245293 1.1204166
