PEAK1 1.4013458 0.9322558 0.26299724 -1.1894319 0.006612449 -0.47488144 0.33649707 -0.7262202 -0.16400157 1.0185645 0.037512477 -0.5783119 -0.25812122 -0.11658916 -0.06349034 0.51166457
C15orf40 1.1111597 0.016544856 0.10129714 -0.045227546 -0.19551359 0.43865678 0.59596026 1.0210263 0.8220068 0.69837826 0.37384492 0.88232726 0.03780614 0.36205807 0.2752361 0.45205477
TAF4 -0.51279086 -0.10102297 0.4409942 1.1655923 -0.039363906 -0.00018999854 0.4654048 -0.1415394 -0.7182034 0.19354558 -0.20507222 0.06640791 -0.45399803 1.6808978 -0.4064284 0.2396635
TRIM16 -0.25613484 -0.09367377 0.26130763 0.38579106 0.121007055 0.6287128 -0.14448059 -0.23218301 -0.55851644 -0.06620917 -0.037221193 0.40783527 0.026228257 1.2673252 -0.4275123 0.9630615
ZWILCH 0.9136835 0.48417714 1.5957686 0.5255293 -0.019143049 0.10132341 -0.22205631 0.7638709 0.17035966 0.1816233 0.24447718 0.15751456 0.5419815 -0.06551738 -1.2948413 -0.0932088
MRPL34 -0.11504611 -0.003635785 -0.5258931 -0.040463608 0.17876153 0.44507346 0.8612066 -0.20270523 0.478116 0.19473232 -0.3492991 0.33440325 -0.8348794 -0.12806696 0.57434505 0.47773618
IGFBP3 -1.5832796 0.22426654 0.16759335 0.15869232 0.0919415 0.059080612 0.86847174 0.2100566 0.22644915 0.10416514 -0.01210274 0.1683206 0.31934848 0.86309326 0.4409286 0.23594996
CAMSAP2 -0.6054222 0.42065564 0.0031050448 0.15007687 0.21110886 -0.012462826 0.09684796 0.18363096 0.43073547 -0.0056626387 -0.015588619 0.4322377 0.6038975 0.41842112 0.32729816 0.28660336
ACTL6A 1.4094917 0.3899307 -0.63592315 -0.37176007 0.10010369 1.0360001 0.5790243 0.3649229 0.47762865 0.01360036 -0.9827385 0.6134061 -0.009044705 0.70352846 -0.10175826 0.5354552
ST3GAL6 -0.20362593 0.43824503 0.9489762 1.1788682 0.008961384 0.066089995 -0.11406637 0.3006324 0.2615903 0.7084611 0.11205549 1.1855061 -1.5266303 0.14268076 -0.4150445 0.5803932
ACTG2 -1.0084054 0.15695891 0.4128325 0.142839 -0.016783899 -0.19875823 0.58073837 -0.33207354 -0.7197426 0.7080254 0.49297926 -0.07753891 -0.7164214 0.40996182 0.4457534 1.5769327
TALDO1 0.20842795 0.26133478 -0.18946333 0.0734104 -0.3218429 -0.77981144 -0.39749056 -0.04542382 -0.018497221 -0.7677533 -1.0298532 0.11160608 0.63892037 -0.074604586 0.09312182 0.17092235
NEK9 1.3226342 -0.17165309 0.48867628 -0.016203508 -0.35713196 -0.07954937 0.43022272 0.6674423 0.31422752 1.488174 0.5058416 -0.21708997 -0.12007566 0.76117575 0.80715287 0.5188303
FEZ1 -0.1794787 -0.29164648 0.033107355 -0.016937977 -0.0036279352 0.24108864 0.23938294 -1.447457 0.036918446 0.34357837 -0.9471739 0.9884977 0.059471894 -0.08752308 0.7096126 1.2260137
PRKDC -0.010646662 1.1552825 -0.02988196 -0.22614738 -0.104702175 0.49908754 0.71934944 1.3996633 0.0018090722 -0.14826383 -1.1871973 -0.25205335 0.54418826 0.0596093 -0.08211418 0.4131732
N4BP2L1 -0.2013254 -0.049620766 -0.041094933 0.48887074 -0.24098541 -0.07835782 0.2896077 0.86322486 0.76310736 -0.025782634 0.519021 0.31829527 0.11797425 0.1800746 -0.1260922 -0.15348394
KPNB1 -0.12850402 0.3352891 -0.7044517 -0.7859483 -0.72892004 -0.00461023 0.26768583 0.5464394 -0.698544 -0.02218537 0.07324544 -0.023048323 0.71066004 0.43024838 -1.0888559 0.05666291
POU2F1 -0.7565984 0.3157946 -1.7877702 -0.05724757 0.12309383 -0.16060716 1.4463587 0.35158247 0.9511649 1.1457438 0.11404195 0.5825332 -0.016608955 0.73718256 0.3134942 0.29403195
PABPN1 0.58323216 -0.234707 0.014317486 0.06013444 0.18105206 -0.007847848 -0.15827233 0.30506888 1.4508269 0.36256966 0.27381682 0.48772597 0.2222573 0.05834125 0.7099544 0.067674406
PRR14L 0.37511128 -0.19958769 0.38336387 -0.22427982 0.7844277 0.6708816 -1.4403123 -0.44785467 -0.07145194 -1.242779 0.07537655 -0.28541538 -0.12422013 0.29419604 0.54677534 -0.35813704
DYNC1H1 0.29671243 -0.12782139 0.38230723 -0.63528574 -0.027438916 0.007703857 0.2744626 0.31236887 0.4193176 0.17322277 -0.89642173 -0.15112446 0.09031587 0.3212062 0.005847346 0.37711796
TRIM28 0.74570435 0.2893661 0.50252223 0.29498258 -0.07820507 -0.1607467 -0.049973924 0.5188243 0.49193907 0.886603 0.18294907 0.5336469 0.25229886 -0.11001218 0.113459304 0.41085204
IVD -0.15214784 -0.03463077 0.06290548 -0.5057893 0.3015709 -0.272982 0.030309968 1.3321387 1.3542848 1.2630037 0.038390808 -0.14315453 -0.92878956 -0.07905923 -0.119986504 1.1846545
ANKH 0.2847094 0.12661617 1.5563055 1.264826 0.0021627683 0.3007116 0.04683656 0.20526443 0.0027031659 -0.50557685 -0.4850012 0.5815357 0.046373326 0.5195987 -0.067357525 0.18643646
LRP6 0.20856218 0.010002622 0.19188553 0.41690394 0.7754253 -0.20900238 -0.17572825 0.22273007 -0.24202846 -1.578892 0.0320367 0.40756088 0.7600049 0.12677126 -0.1388039 0.82430524
PRKAA2 0.17577529 -0.3048915 -0.033092417 0.0005952325 0.48826247 0.22094728 0.020071635 0.4561694 0.533019 -0.78107613 0.32426447 0.5876913 0.07509933 0.06173223 0.21967344 0.37150368
PLCG2 0.33416826 -0.5743414 -0.1114625 0.05539041 -0.028792413 0.053461954 0.24332567 -0.8451046 -0.01717059 -0.22415864 -0.011542758 0.24315429 0.46959907 -0.17052029 -0.087817274 0.37054455
TGFA 0.020048384 0.5889889 0.078449 0.912901 0.27018696 0.06570014 0.2321051 0.51415354 0.5581673 -0.59666586 -0.004544914 -0.3345135 0.20630264 0.8494455 0.23914953 -0.111153126
PABPC1 -0.564705 0.20755278 -0.2985514 0.27986896 -0.00760495 -0.23139593 -0.095776945 0.3912888 1.0213081 0.21431696 -0.01784932 0.13148357 0.034359872 -0.15258305 -0.4688486 0.77895284
SAP30L 0.78292805 -0.054492228 0.6660393 -0.046840668 0.22446433 0.6099545 -0.49239123 -0.6686162 -0.30595422 -0.09764955 -0.0049701305 -0.16269255 2.3512762 1.3957783 1.5132095 -0.24836138
KPNA2 1.152803 0.2629565 -0.0077449754 -0.0070117787 -0.063085034 0.089604184 -0.8155438 -0.31396648 0.04779552 0.3482134 -0.01100369 -0.32595032 0.14526886 0.25011858 -0.02451211 0.14807902
BMPR1A 0.7214772 -0.042375956 0.25384992 -0.009894395 -0.026475083 -0.183739 -0.4549509 1.3356845 -0.2640642 -1.790992 0.79262465 0.21111739 0.96600014 0.67511135 -0.17139591 -0.047102004
CDC20 -0.5003394 0.39789435 -0.0522015 0.6320545 0.6801784 0.10774515 -0.08883594 -0.32599726 0.3264608 -0.038521584 -0.014497863 0.09539432 -0.9577298 0.11270654 -1.0391922 -0.173344
GSTM4 0.82271177 -0.49658513 0.36331752 -0.006849053 0.026662406 -1.731303 -0.6176347 -0.2342494 0.32750094 0.25551182 0.382372 -0.019797867 1.00847 0.37825367 0.6095559 -0.071935385
ZIC2 -0.8413802 -0.044576593 -0.62943846 0.7676991 0.103110574 -0.22243062 0.38589528 1.0228399 1.4429352 -0.58488244 0.36102086 1.2416931 -1.1826657 -0.109609425 -0.40332034 -0.14954044
GSTO1 1.2312385 1.9562143 0.30830213 0.60983217 0.005912755 0.12143355 0.49973288 0.2588509 0.17699666 0.3420648 0.31721562 -0.053470135 0.4647916 -0.03800991 0.23107708 0.39674485
NCAPD2 -0.19208135 -0.38064384 0.012853047 -0.13913094 -0.9455195 0.058564868 -0.0011397655 1.580126 0.073083386 -0.64144987 0.27881035 0.29972443 0.15704265 0.1307516 -0.4392382 -0.2050792
UBE2J2 0.4045274 0.018915633 0.24818681 0.2470527 -0.2859635 0.39829537 1.2019689 -0.33253703 0.0946149 -0.34147254 -0.021983074 0.31011885 0.55404186 0.22874233 1.1194359 0.15877262
PTMA -0.9540166 1.9228022 -0.13123186 0.34245142 -0.06568436 -1.5092798 0.9129014 0.7607946 -0.17256781 1.0521165 1.1246494 -0.03307609 -0.11440615 0.5431602 0.390728 0.7559798
USP39 0.11878355 0.10841532 -0.10505287 0.15157618 0.14075893 0.3981292 0.5606962 0.046148993 -0.27426904 -0.0008645412 0.095630094 0.9739496 0.22470431 0.9652628 0.5066926 0.1886624
TUFT1 -0.4270714 0.03409949 1.3101674 0.78510004 -0.03345869 -0.07054773 -0.42425722 0.38737583 0.1492576 0.29467753 -0.6203079 1.3478028 0.32876396 0.16023616 -0.2348135 -0.14352137
ZNF7 0.26088753 -0.12506378 -0.0049533076 -1.298985 0.012043509 0.5071165 0.31460726 0.35818174 -0.2067529 -0.00963555 -0.39136207 0.25185058 -0.025566705 0.46700963 0.43516612 -0.82568556
SLC3A1 1.6205624 -0.74361646 0.65945846 -0.32290077 -0.002585477 0.49908447 0.5397815 -0.13230577 -1.871854 -0.0635742 0.075508974 -0.87070376 0.38650516 0.22680375 0.47501928 0.47998264
ALB 0.27223206 0.45822036 0.34484702 2.1578877 0.5266038 0.04150907 0.23299843 1.0106869 0.022253197 0.2816595 0.685455 0.0019153792 -0.45124158 2.5419774 0.6866476 0.6696287
PPP2R5A 0.57054955 0.31034145 0.9913567 0.81195515 0.21234381 0.78107655 0.02079542 -0.3132728 -0.52149075 0.116929784 -0.0056986604 -0.034674678 0.20043196 0.20295976 0.49436805 0.9881113
ACBD4 0.41359487 0.3847288 0.57361996 1.4824642 0.057627942 -0.16171496 0.22592546 0.120293975 0.518512 1.0150971 -0.4395246 0.31222743 -0.09665194 -0.57001734 -0.6269229 0.43740293
HNRNPA1 0.46675807 0.13019334 0.71592695 0.766542 0.0050092684 0.4872801 -0.12654552 -0.48930746 0.25781712 -0.03953548 -0.63573354 1.4199288 1.2667518 -0.24052529 -0.48152867 -1.3775032
ARHGAP11A 0.54685223 -0.12498054 -0.7979379 -0.0067767734 0.58467174 0.21591775 -0.120543376 2.242553 0.5907503 0.18736477 1.2947652 0.40471953 -0.061197933 -0.69696903 0.0032873638 0.4409511
C6orf62 0.29740217 -2.2129014 -0.6328715 -0.61456597 -0.05923255 -0.024017882 -0.1609587 0.1559829 0.5858529 -0.3192399 -0.06417937 0.36661905 0.032287378 0.4382667 -0.2587816 -0.19470167
PSMD3 0.13978986 0.15399843 0.3956211 0.8086095 0.009096527 -1.5960265 0.38698363 1.3059436 -0.11961179 0.38891464 -0.631291 0.27051827 0.5858923 1.0921555 0.047500603 0.47352484
RMST 0.60175204 0.108092844 0.30278304 -0.59263355 -0.093002066 -0.066311575 0.28112027 -0.42836583 0.1289862 0.74459714 0.018671257 -0.21611665 -0.14569443 -0.072499394 -0.48299906 0.748624
FCGR3B -0.2997461 -1.1030374 0.014491328 0.5378305 0.0803904 -0.3155466 0.42336127 -0.14277105 0.9059399 0.0359058 -0.22278254 1.4414414 -0.86716324 1.7346562 -0.0535645 0.30217144
APC2 0.1781784 0.37796438 0.45172137 1.0256728 0.01525916 0.0415107 -0.3802638 0.062458172 0.29524887 0.03616869 -0.023566892 0.42039692 0.22725889 0.62071294 -0.12130292 0.31039724
CEP70 0.5357338 -0.29390162 0.84390783 0.6454348 0.38748038 0.72902584 0.6240061 -0.051609095 -0.5732684 -1.5167338 0.18459667 0.16788496 0.41982487 0.5579211 0.11153166 0.96628225
DDX56 0.091041334 -1.2784779 -0.8818652 -0.072941646 -0.025244605 0.08951874 0.21345028 -1.489961 -0.009826475 -0.0689096 0.4707896 0.7959149 -0.37094226 0.2551333 -0.47282046 1.0552506
PIGC 0.91615146 -0.48662347 -0.6543447 -0.4102622 -0.7520444 -1.6754475 0.80041903 -0.023756608 0.42338893 -0.31780976 -0.014720505 0.8840221 0.43087605 0.17024319 -0.7673162 -0.16708808
FGF23 -0.14911196 -0.04534676 0.30243775 -0.072204545 -1.5301704 0.091588825 1.6099554 0.4654137 -0.028022347 0.020492591 -0.014613615 0.4528921 0.5763876 1.2085804 1.0121915 -0.05969366
BHLHE40 1.3731862 -0.40939748 0.26881325 -0.16164581 0.48913926 -0.12191935 -0.22862329 0.5162972 0.73322254 -0.5071727 1.760806 0.5562183 0.4317818 0.7312741 0.34859437 -0.2786377
RRAGC 0.040178187 0.02369572 -1.3549234 0.079404004 0.18518312 0.14637907 0.2209509 0.026197616 0.71559954 -0.29723993 -0.53282285 0.4629519 0.037972696 0.41556647 0.38413116 0.41042495
SORL1 0.20686221 0.1899124 0.08157192 0.17487405 0.074799344 -0.09806161 0.74637634 -0.16419479 0.39638802 -0.52602655 -0.013163383 0.25351104 0.55414313 1.0936807 0.21131755 0.13666113
NUSAP1 0.14670886 -0.085556194 0.14790232 0.21632306 -0.03172058 -0.17629562 0.88001215 -0.27395982 0.374256 0.28227273 -0.022820929 -0.22968197 -0.15517083 1.7152568 0.13632376 0.49646598
TROAP 0.77197254 -0.80854017 0.5315706 -1.992917 0.0023965365 -0.11437192 -0.8319652 0.38272384 0.11872275 0.35524783 1.0644099 -0.9988693 -0.6133078 0.008360507 0.12281949 -1.3445799
RFC4 0.31066725 0.36023673 0.44461277 -0.013413782 0.2270021 0.18121478 0.043761455 0.17687073 -0.23872803 0.018845381 1.2521603 0.009167201 0.7131013 0.8380409 0.53425455 0.20085745
HDAC1 0.21155545 0.0515193 0.104130015 -0.012189147 0.22163104 0.048420064 0.6123312 0.24508785 0.8890391 -0.30525404 -0.69701993 -0.080830544 0.52428466 0.7647226 0.4063873 1.119691
MIEN1 -0.39277163 0.46451434 -0.7276764 0.31121615 0.3219382 -0.01622489 -0.79306126 -0.12719208 0.8333307 0.01584464 -0.020922752 0.40127948 -0.4409067 0.26588643 0.11087971 0.2795491
FKBP1A 0.29657984 0.5625864 0.7565814 -0.3847651 -0.12076045 -0.15871271 0.7310382 -0.6712475 0.176237 1.3309618 -0.0006776317 0.28785494 0.21361671 0.43958798 0.8894385 0.54244125
HSD17B6 0.5154687 0.27012256 -0.004468598 0.07593185 0.029994993 0.5688786 0.98168045 0.6018114 0.36862752 -0.2558079 0.37569118 0.22530559 -0.021174708 -0.39322138 -0.88495773 -1.6071088
LTA4H 0.6311789 -0.19065632 0.3042663 0.94565535 -0.2075718 -0.016875997 0.2032618 0.50877655 0.8111602 0.6860485 0.24380983 0.6255183 -0.09193413 -0.23881976 0.1414883 -0.1601951
MAD2L1 0.19270128 0.4701482 0.030808378 0.26335895 0.19671409 0.18751937 0.97768456 0.57712495 0.3646586 0.39484918 -0.58938456 -0.65830576 0.6291485 -0.57354647 1.2814578 0.5465046
RPS4X 0.20787436 0.8536415 -0.22048236 -0.16034618 0.0007566305 0.48477453 0.45888427 0.23023285 0.32136452 -0.3728714 0.23772165 -0.3109749 0.4390295 -0.308837 -0.17484492 0.4534381
AKT3 -0.07780181 -0.2500841 0.7808722 0.5569979 -1.0880951 0.21665256 1.1778518 -0.33805633 -0.25395158 0.24384695 -0.21650846 -0.17735085 0.5794493 0.364331 0.49700415 3.0060155
PPM1D -0.2989586 0.009622354 0.6463487 -0.022412173 -0.041183997 -0.15468495 0.8339829 0.561173 0.32813528 1.8355497 0.03976168 -0.0105328495 -0.47122407 -0.08114548 0.48532444 0.49145353
GCHFR -0.5774506 0.6142675 0.55372685 0.547004 1.3968408 1.2563571 -0.016505627 -1.5421263 0.05526571 -0.55213374 0.09206033 0.20473053 1.2914059 -0.13818944 1.313683 0.32489604
AVPR1A -0.12054021 -0.033038203 0.11721533 -0.2992128 -0.25362745 -0.2902056 2.3793082 0.8537264 -0.08450472 -0.13389458 -0.089913085 0.3501279 0.5017023 -0.19987763 0.5393707 0.44056776
RPLP1 0.5830121 0.19191568 0.41675672 0.35755602 0.03587853 0.08434425 -0.15688767 -0.67855334 -0.1689359 0.046582364 0.06735086 0.34994715 0.93476975 1.2869495 0.24242334 1.1040784
CDHR2 0.179705 0.24696878 0.46691358 1.5180721 0.6166666 0.68730134 0.43954515 0.5631447 -0.009097432 -0.20985378 0.23353638 1.7908684 -0.114264645 0.366565 0.8408503 0.22253014
SRXN1 0.37441257 0.56343275 0.93030655 0.55489653 -0.008337688 0.23316912 0.16433927 0.1119768 -1.1125791 0.02103652 -0.05447958 0.273949 0.4236648 0.8758993 -0.5947154 0.31641728
EPB41L4A 0.11399631 -0.60670257 -0.86299527 -0.022649497 0.0074324207 -0.54461765 0.8387975 -1.134423 0.8241052 0.011188414 -0.34751162 0.29656956 -0.17721829 0.11680965 0.47659242 0.39923385
EFTUD2 -0.0728132 0.13070849 -0.19955583 0.36875188 -0.059379343 0.3278973 1.0074877 0.44961944 0.07588128 -0.3354233 -0.0848487 -0.060199976 0.0012138891 -0.03455524 0.051093116 1.6018649
KIF14 -0.9045952 -0.27572235 0.10175998 0.5674697 0.48293912 -0.012044851 -0.2825148 -0.09875431 1.9126661 -1.1897405 -0.009089123 -0.6525754 0.03236086 0.11888356 0.0036207964 -0.5399657
MOGAT2 0.34870422 0.13570404 0.45697513 0.32855952 -0.006461679 -0.30827153 0.6158768 0.22574274 0.06438994 -0.29032356 -0.006566158 -0.094582334 0.2593815 1.2127109 -0.67553306 0.29277346
DPF2 0.14275992 0.14246619 0.18632385 0.5873489 -0.04344841 -0.5035659 -0.112350166 0.8571745 0.4928346 -0.003269789 -0.40119693 1.0037929 0.20929793 0.5610087 -0.277064 0.120448604
EZH1 0.38633385 -0.31886744 -1.4158126 -0.14744633 0.38999552 0.56858575 0.13133611 0.66845125 0.7342608 -0.050191753 -0.15865579 0.33942083 -0.043753482 0.574889 0.09145968 -0.12241279
KDM3B 0.55451995 -0.6572883 0.6739734 0.104938075 -1.1617501 -0.0799791 -0.068801016 -0.38262606 0.010159507 0.010756121 -0.011381141 0.6622645 1.2699023 1.5209348 0.33361757 -0.50174165
GGH 0.04122325 -0.08891897 0.024765702 -0.62853956 -0.020374363 0.19494614 -0.28231668 -0.04240426 -0.35947695 -0.042414274 -0.13078083 0.18223968 0.039249826 -0.19394496 -0.008524859 0.37739268
PA2G4 0.2991072 0.79870296 0.4165152 0.814833 -0.26565373 -0.05978372 0.17800388 0.15357137 0.15453885 -0.10256822 0.43575555 0.2466196 1.1405319 0.43692473 -0.010678554 -0.05633064
IGF2BP2 2.2478373 -0.46475562 1.3904566 -0.31012878 -0.79184604 0.29850242 -0.2319334 -0.053393375 -0.16514362 0.59229153 0.121646 -0.57549417 1.119307 0.56811035 1.40568 0.040101867
THEM4 -0.37380898 0.45742258 0.025657624 -0.48855057 0.6194241 -0.026680112 -0.05323407 0.18705198 1.2603263 0.031065928 0.92719847 0.25682044 0.56732833 0.85176975 0.35023788 0.32937407
SPRR1A 0.20227559 -0.39218235 -0.28822473 -0.0120454775 -0.20582364 0.06407929 -0.18458721 0.21629204 0.46037382 0.18434925 0.22389491 -0.48008835 -0.15965109 0.0493188 0.02336207 0.46960962
LIPG -0.28460065 0.19698405 0.3768827 -0.065808155 -0.036319233 0.3711205 1.6191499 -0.18548615 -0.44882527 0.16945393 0.0022113312 0.050862577 -0.13174604 -0.12540738 0.9634678 -0.75969076
SLC25A37 0.41545948 0.16854744 -0.25076687 0.08299197 -0.004349529 -0.056375854 -0.50076306 0.55853206 0.56786346 0.39254034 0.037903197 0.11970453 -0.09077675 0.26914185 -0.14119236 0.7156733
DNAJC14 0.40854466 0.43545482 1.1608827 -0.0132997185 -0.021572627 0.7890843 -0.3740951 -0.16155706 0.7146782 0.75327843 -0.47721788 0.48824114 0.011995445 -0.087004356 0.21049593 0.10690871
LHX2 -0.24814768 0.05364699 0.31514528 0.34720892 -0.22949778 -0.15893297 0.063247636 0.0910791 0.32836923 -1.1295578 -0.04408989 0.85726434 0.59445834 1.0403877 -0.3757393 -0.17975749
ARL6IP6 0.48430282 -1.0441555 0.28787524 0.17109223 0.18894106 0.13966742 -0.10554073 0.03759945 0.6286255 -1.2497165 -0.14624257 0.14924102 0.25918943 0.52376395 0.06433768 0.4429555
SHC2 -0.16794942 0.15262909 -0.7651851 0.1762824 0.13097319 0.23245299 0.30134547 -1.169973 -0.7667826 -0.017013397 -0.11813859 -0.43970048 -0.43359303 -0.64920074 -0.1700859 0.9467407
ITSN1 -0.7478478 -0.14732878 0.82222325 0.2698571 -0.04594589 -0.115882255 -0.24279991 0.10446236 -0.21861379 0.37831149 -0.30943677 -1.867737 0.644861 0.33058214 0.1939683 0.9870526
CD34 -0.22240897 -0.10616302 0.22994168 -0.095757574 0.08037275 0.23013362 -0.35294846 -2.1904688 -0.25843078 -0.059241585 -0.14958939 0.071761675 0.7753373 2.1697943 0.6467489 0.3393934
OIP5 -0.21386684 -0.09671243 1.3702894 -0.06210549 -0.22048534 0.10263852 -0.0777506 -0.03383072 -0.40631348 -0.7271314 -0.17658825 0.6531182 0.88477504 0.13677065 0.22658724 -0.11461943
GTF2H4 0.17873976 0.14893028 -0.48735565 -0.52677697 0.017764585 -0.007880573 0.8110897 -0.16910483 0.6631759 -0.3651423 -0.020464484 0.2911874 0.4838248 0.49132895 0.43666717 -0.11586301
GGPS1 -0.2557887 0.5332478 0.045403264 0.0026942596 -0.15898536 -0.043225467 0.545792 0.8545168 -0.15775916 0.6836621 -0.27785563 0.76955855 0.6649658 1.5384518 0.39293674 -0.29758036
FAM168B 0.23714001 0.64297205 0.12410752 0.07664901 0.12899384 0.4054148 0.6558196 0.39449146 0.15577668 -0.84780854 -0.0051333155 -0.27331516 0.6047452 1.0879545 0.23527062 0.6213749
SORT1 0.5062516 -0.23090608 0.066922285 0.3544484 -0.022776647 0.2848967 0.3815873 0.22030893 -0.103452675 0.03486635 -2.0797145 0.06514923 -0.026408404 -0.2755763 -0.70126694 1.0526254
AGAP3 -0.18659878 -0.06433297 -0.019321956 0.15545952 0.032391742 0.24365632 1.1492486 0.53221905 0.2987752 -0.43291694 0.0141187245 0.009617184 0.014023217 0.80624986 -0.18077166 0.4918899
TMEM53 0.20797768 0.10953139 0.039175615 0.37581247 -0.6034772 -0.049659416 0.74185634 -0.0058040703 -0.40684074 -0.019282078 -0.37211955 0.34617648 0.26924294 0.7837165 -0.7959461 0.11929582
LRRC42 0.29426274 0.3134743 0.2474594 0.26973957 -0.21899007 0.23812658 0.88417864 -0.18511166 0.42575908 -0.5026218 -0.0011318634 -1.0224601 -0.2010438 0.44154233 -0.038269103 0.9113982
SNX27 0.87484396 -0.07700277 0.5648138 -0.19537148 0.7628853 1.1310908 0.39486855 0.34140968 0.09446713 -0.23292804 0.81768155 1.3691556 -0.25164467 0.06402999 0.6659367 0.49425367
COMMD5 0.28446206 0.1274247 0.11565693 -0.27698267 -0.027736181 0.580562 0.75290465 0.46353978 -0.51288617 -0.7485206 -0.05322701 0.01964797 0.07006599 -0.4296853 -1.8658614 0.026339194
PIK3CB -0.1744292 0.4019188 1.2547007 0.77069813 -0.02048327 0.16235492 0.48473144 0.21864446 -0.124140315 -0.72442925 0.018757805 0.23250765 0.90831816 -0.2416488 -0.7984671 0.35211056
EXOC2 -0.25654444 0.085439205 0.04969962 0.45918593 -0.61130375 0.022244845 0.36544245 0.020071981 -0.20480052 0.29968968 0.08678869 -1.1213856 -0.09984049 -0.20834835 0.6402091 -0.55955017
RAC1 -0.041696317 1.1035829 -0.031248111 -1.9708315 0.44510385 0.27424467 0.93273485 2.3570538 1.3121276 0.0024909405 -0.5290235 0.658012 0.046608157 1.0571359 -1.5740442 0.4135392
CENPM 0.2789705 0.33977777 0.21756949 0.2063345 -0.036270358 -0.18066658 1.0708619 -1.0279372 -0.07572522 -0.05906891 0.0042002094 0.4491156 0.021778058 0.3740063 0.2608334 0.0037480723
TFPI2 -0.31774718 0.11184896 0.14133789 0.11165424 1.407406 0.4069379 -0.14955951 0.75145984 0.5768855 -0.15400615 -0.013465868 0.30641708 -0.086801186 0.51258683 0.58931255 0.88193095
TCF21 0.4790963 1.1709485 0.5404069 -0.117203236 -0.26313454 0.057799306 0.5069886 -0.22874397 0.10667419 0.95845836 -0.31870043 -0.1183603 0.5132207 0.06710838 1.4725387 -0.13473006
TTK -0.88202155 0.21965316 0.08407671 0.11618896 -0.005476197 -0.026814073 -0.13826273 -0.86866826 0.65317285 0.08806507 0.35890985 0.17018302 0.11257414 -1.4751685 -0.12906978 -1.3407829
ABCF1 -0.45644683 0.09471727 0.050984707 0.06328188 -0.1491993 -0.6238563 0.6006168 0.25693706 0.6443323 0.33334705 -0.8049878 -0.008880422 -0.0100338645 -0.5297046 -0.26716837 0.72455263
MTIF2 0.38018414 0.9661765 0.18108329 0.2083535 -0.028691074 0.38522777 -0.19926046 0.54450387 -0.2111955 0.3234807 -0.94184035 0.39654908 0.24326298 -0.17877805 -0.58775556 -0.13519599
SMARCC1 0.33334696 0.23536849 0.015896372 -0.9081665 0.60128224 -0.02285362 0.0248813 1.4073272 0.48284486 0.06777546 0.28966588 -0.0020529134 -0.004589888 0.21770477 -0.7453529 -0.7115346
SENP1 0.48617098 0.3662994 0.36022365 0.08351798 -0.007842733 -0.22232173 -0.37257951 -0.18997984 0.8648867 0.6610006 -0.027792957 -0.50164723 -0.050793298 0.7964342 0.23972028 0.58677804
DTYMK 0.17517865 -0.15223408 1.1614381 0.5698293 0.02571439 0.5090243 0.35254487 -0.14709413 -0.95274675 -0.06962898 -0.09279623 1.4755343 0.43419522 0.42133006 0.45680708 0.2404213
ENAH 0.63638467 1.0382154 0.2348376 -0.32975686 -0.13271184 -0.37885928 0.14444059 0.2778656 -0.87335205 0.4775557 -0.011902127 -0.10144823 0.43663257 0.42448688 0.21032646 0.5346268
TSPYL1 0.0898885 0.25215825 0.33888853 -0.04528913 0.7970506 0.34912688 0.80258566 0.407164 0.12935533 -0.15797941 0.08901939 0.32299414 0.4353638 -0.3423933 0.8882162 0.5729442
PRPF3 -2.8720615 0.2754873 1.3435309 0.8013767 1.5060263 0.34359577 0.5186971 -0.4849415 -0.20583065 -0.07324195 0.04772283 1.0916998 0.36899543 0.38383484 1.1172084 0.89070994
MICB -0.18155852 -0.18285216 0.02591821 -0.39637884 0.42473903 0.24352388 0.6746827 0.7627877 0.1919459 0.07867085 0.0011175366 0.6140586 0.27329588 0.6913811 1.0995452 0.34039468
SDHD 0.56963575 -0.57859063 -0.104697995 0.26204735 -0.03815841 -0.040185392 0.36349708 0.32390997 0.48705944 0.11946464 -0.9718634 -0.009623153 -0.13637345 0.21385135 -0.12514302 -0.64368945
TACC3 0.35261485 0.031114615 0.67591864 0.17953177 -0.00055329525 0.32927793 0.4002224 -0.66553247 -0.47385067 0.38285753 -0.0030392916 0.43878797 0.46478772 -0.4535626 0.64397603 0.15144326
SPNS1 -0.23279205 0.16043922 -0.16612875 -0.041709177 0.34253883 0.13873656 -0.16070656 0.6653015 0.53550494 0.020431777 -0.5117233 0.28195894 0.5386116 0.43093097 0.29405218 0.22189645
SLC2A3 -0.20846257 -0.15131935 0.18464789 0.064107604 -0.25540805 -0.15128064 0.8205317 0.4084102 -1.1032137 0.05152636 0.010125526 0.7184493 -0.26673445 -0.17715295 -0.6446513 -0.07536081
RRM1 -0.044101175 0.24581252 0.2401034 0.12770362 0.0108929025 -0.04104053 -0.39982206 1.3468455 0.4277884 0.39337197 0.17000858 0.20228446 -0.13778108 0.13623679 -0.14969973 0.11578168
C17orf58 -0.023814999 0.15544142 0.5605453 1.1203299 -0.6909997 0.12883024 0.12177397 -0.13869333 -0.6612331 -0.6752462 0.18244202 0.3358488 0.123133145 0.27284953 -0.086802356 0.5593044
MLLT6 1.5462477 0.38407794 -1.1169688 0.031523585 0.009710258 -0.5901463 0.26257512 0.15300617 0.44501325 -0.0707575 0.06199758 0.023038654 -0.71060836 0.3434351 -0.22253144 -0.64267635
EXOSC10 0.29078904 0.4240691 0.14201069 -0.1779242 -0.22271618 0.87482387 0.4681685 0.1828691 -0.098173566 1.0265651 -0.16474244 0.122612394 -0.3110198 -0.61008674 0.542795 0.35063845
FGFR4 -0.5307536 0.3683074 -0.33109146 0.4409279 -1.3660535 -0.2740041 0.5459849 -0.16541512 0.60029644 -0.5818208 0.00020735306 -0.010048266 0.16977845 0.26541677 -0.30301955 0.26369584
NOL7 -0.101086564 -0.54516953 1.1775776 0.9599277 -0.11541467 -1.0336866 0.80975586 0.59241694 -0.22531009 0.25669524 -0.18989426 0.21417351 -0.8694742 0.58296925 -0.086748526 0.6303569
PCYT1A 0.5647447 1.0397483 -0.94277406 0.036670882 -0.019900462 0.43906656 0.27884763 0.4555359 -1.0869203 -0.01477575 0.0040318924 0.62690675 -0.06715506 1.3451161 -0.09898439 -0.5280453
IL1B -0.45904717 0.5216264 0.784459 0.23581819 0.547057 -0.07082615 0.20084079 0.6025305 0.8246989 2.0331264 0.06651343 0.06564197 -0.64343745 -0.25134516 0.83006567 1.1908436
GAS5 0.12314418 0.29696137 -0.41809013 -0.1795797 1.5776337 0.61983675 -0.06380196 0.329487 -0.07498088 -0.14048606 -0.9881924 0.66165483 0.098349236 0.8672642 0.20012073 0.53446954
ARID2 -0.57582766 -0.20627429 0.1281588 0.18675625 0.5494153 0.4992669 0.23150212 0.16759372 -0.14852959 -0.31164506 0.14660154 -0.817419 0.18654485 0.20622514 0.30341935 0.61267966
SMC4 0.73930544 0.33354914 0.9200848 0.034871947 -0.011343767 -0.050152484 -0.5002201 2.1568816 -0.23109408 0.7958568 0.26271188 0.17814766 0.7519892 -0.2081383 0.058100294 -1.1051017
HNRNPA2B1 0.27311227 0.5304227 -0.2965827 0.061228637 0.0869048 -0.80189145 0.042376336 -0.746721 1.0569377 0.10010412 0.04847922 -0.5020377 -0.22963586 -0.64538944 0.072462775 0.14390993
PCNA -0.14176692 0.52911735 -0.07248707 0.9059614 1.1229553 0.66232103 0.13420983 0.3903923 0.65266585 -0.017024761 -0.0979649 1.31456 0.041281357 0.34273568 0.75754476 0.75846124
PIK3CA 0.29382256 -0.23769124 0.85982543 0.16111314 0.0028890958 0.015707256 -0.00019034208 -0.0026229033 -0.4234758 -0.07092371 -0.0054540476 0.37680632 1.1088634 0.69646376 0.2542845 -0.11527108
TPR 0.4363939 0.33959582 -0.14668527 -0.019001089 0.302487 0.5156779 -1.4748353 0.3612674 -0.28374204 0.038273167 0.31133828 0.682483 0.058972906 0.14538434 0.15678278 -0.118695386
CEP55 1.1589754 0.17313974 1.088004 0.4368296 -0.057649203 -0.114641234 0.45419127 0.4203924 0.8979482 0.98106104 0.25160497 0.06688793 -0.05605167 0.3981747 -0.4505463 0.4433528
GAS1 0.54793864 0.05659843 1.7276964 0.3053731 -0.044874936 -0.049444426 -0.07526893 0.82037884 -0.23162542 1.3803704 0.35124278 0.21985136 0.21636367 0.28969696 0.7264319 0.77519554
MYO10 -0.25007248 0.37966755 0.14019465 0.15035452 0.6571518 0.6020299 -0.6534045 0.47252253 -0.21257675 -0.058963206 -0.007471246 0.5730987 0.3946232 1.5287693 0.28534475 0.46380657
SNW1 0.28259492 0.5644043 -1.5931113 -0.75995386 1.0533577 0.10513827 0.2701422 1.0925874 0.87191725 0.07099584 1.1397371 1.0363107 -0.06575762 -0.43229592 0.011373979 1.0181032
PPOX 0.44861713 0.0066510523 -0.42297006 -0.29775605 -0.22845264 0.1672416 0.33156934 -0.16220246 -0.57643294 -0.18153144 -0.014390938 0.18454513 1.7009362 0.7312598 0.55617017 -0.019701824
PIPOX -0.5727524 1.3140312 -0.123684004 -0.26957583 1.1131642 0.87855154 -0.22945791 0.9064835 0.2610481 0.08309864 0.07896087 0.55077094 -0.056399345 0.12555543 0.015586775 0.15061407
SLC34A2 0.32827082 -1.0817002 -0.041528933 -0.115507394 0.2509348 -0.14261577 0.65545595 0.28675315 0.50959045 -0.50967354 1.3522506 0.30730334 0.0035290904 0.4269273 0.279154 0.64091
EIF3F 0.30040756 1.1299212 1.7630161 0.83964825 0.6312565 0.3242114 -0.018270012 0.25879365 0.5965294 0.58697987 0.12284842 0.3613343 -0.12092207 -0.109027535 0.49084598 0.9314349
POGK 0.11437822 0.06739857 -0.044604927 -0.3012143 0.7282527 0.35940534 0.74568385 0.27370083 0.32923448 0.11622743 0.11381598 -0.55168754 -0.03908319 0.5806429 1.0581232 -0.019791046
ARID4B 0.17360766 1.4971418 -0.13201797 -0.64491266 0.14448638 -0.016048174 -0.4637844 0.96070933 0.09432196 -0.46921232 0.19461803 0.20381382 0.41614652 0.14925085 -0.11516202 -0.09338413
SAP130 0.26888847 -0.7941029 0.3728368 1.4901499 0.08246788 -0.030382242 -1.3540353 0.13815744 0.42895553 -0.46386153 -0.11452057 0.65309566 -0.36269248 0.9329727 -0.30210108 -0.12689254
ABL2 0.5187941 0.21227771 -0.036302503 1.2420626 0.5684921 -0.63769066 0.15042126 0.17069753 -0.10182491 -0.28482556 -0.44495848 1.0512005 -0.3560444 0.5651109 -0.21165839 -0.15401822
SPP2 0.51604885 0.11915327 1.0033866 0.76153696 0.73850924 0.48387128 -0.26017258 0.41187257 0.69129413 -0.15715356 1.2568425 0.92122 -0.6096213 -0.14519727 0.23387751 0.36194688
EXO1 0.17402555 -0.17486009 -0.104325734 0.36375475 -0.1208785 0.110243626 0.15893604 -0.7093761 -0.1966249 -0.030846016 0.8006442 0.3593836 -0.07842218 0.2804295 0.24692813 0.43262732
DDB2 1.0537719 0.351937 1.3419156 -0.36945817 -1.3032274 -0.07113984 0.4011157 0.48945546 -0.065342866 0.8044969 0.37573746 -0.012638101 0.42417458 0.43582016 0.41382965 0.15085113
NCAPG2 1.0018332 0.76723176 0.74906296 0.49660712 -0.2792289 0.9937637 -1.9016939 0.22694758 -0.16177626 0.4523211 0.96783173 0.21772113 -0.13074389 -0.1239118 -0.11761492 0.52573025
INTS10 -1.196067 0.22548845 -0.040998895 0.008455204 0.5652966 1.0185086 1.0322428 0.3607902 -0.82641774 -1.3818967 -0.33560666 0.43814093 0.05039564 -0.1315752 1.1904972 -0.18946344
RALGAPB 0.9966073 0.055801496 -0.104750074 0.15918031 0.00661204 0.05669957 0.11513098 -0.3800243 0.18108003 0.19483232 0.015991379 0.45688114 -0.08201256 -0.8740876 -1.0923072 -0.0135509875
XPR1 0.017397434 -1.0297298 -0.99773276 -0.018025273 -0.14185245 0.5376194 0.3307513 1.1647671 0.04933118 -0.07664917 0.019172858 -0.43161532 -0.02670417 -0.11512888 -0.45888367 1.2860644
LRG1 0.042053856 0.062627055 -0.034985583 -0.438661 0.7996449 0.34473696 0.77459013 -0.084304124 0.7394917 0.13053831 -0.015579753 0.73726857 0.17012392 0.7386228 2.0968077 0.21916799
APIP 1.3100815 0.42348018 -0.27090564 0.116761826 -0.1246876 0.81824744 -0.99608743 -0.46156377 0.42234674 0.5006149 -0.7210436 -0.2935527 1.563016 -0.17932306 -0.17526492 -0.04877572
MMP9 0.6059469 0.09290664 -1.3426355 0.79134023 -0.95969135 0.5793993 0.7159529 -0.3858001 -0.12694287 -0.45067957 -0.7255444 0.39185068 0.32342982 0.340707 0.24533078 -0.063407995
JDP2 -0.09740888 1.8921945 0.08203603 0.27119535 0.8317286 0.13012953 -0.7138299 0.44216108 0.029172402 -0.016463969 0.056406926 0.92213094 -0.28410104 0.4048799 0.19656144 -0.11181609
EIF4EBP1 0.8998404 -0.1457703 0.33342054 -0.618916 0.058356587 0.023941485 0.25224692 0.84402037 -0.13552418 0.31191218 1.2834651 0.21038388 -0.1053093 0.67888963 0.16333024 -0.008995442
DUS4L -0.54412055 0.22217278 0.5447824 0.33860365 -0.017113805 -0.028954929 0.021143083 0.23617446 0.29766527 0.07325181 0.0032588865 -0.06985951 0.48182404 0.49420926 0.2511273 0.043843385
TAF5 0.2834354 0.42641687 0.19057645 -0.18579233 0.0924422 0.1583405 0.8130744 -0.039229736 0.22344668 0.11849028 -0.015907157 -0.09968343 0.72565186 0.3553357 1.0703522 0.3021717
PMF1 0.3813955 0.4286085 0.56021416 1.6183625 0.487259 -0.04932616 1.4475442 -0.3025265 0.31552264 0.7296404 1.3864247 0.9927045 -0.17393507 0.15587255 1.6722817 0.33055118
CDCA7 -0.07726479 0.61947215 0.83425415 0.40462917 0.22519587 0.45157716 -0.16861747 0.5034688 0.16925636 0.3179446 0.010429584 -0.04974916 -0.22186847 0.016982108 -0.29357123 0.19038725
PPWD1 0.1793504 -0.71215194 -0.26722163 -0.03896308 -0.1524895 -0.10180877 -0.032651555 0.2598427 -0.4112221 0.9250525 -1.2643465 -0.114116944 0.5822725 -0.21989247 -0.6318662 0.19210902
SPON2 -0.08247365 -0.18874452 1.2436354 0.41423965 -0.049740072 0.5695516 0.4150626 -0.029624142 -2.690962 -1.4126805 0.012559304 -0.03146248 1.207302 0.08489663 0.1960086 -0.69218177
STMN1 1.5940932 1.0543263 0.9019623 0.20032205 0.39340976 0.77494293 0.92216027 0.034990247 -1.756344 0.028383743 0.40605745 -0.10557663 1.7791237 0.77005994 0.6913898 -0.11558687
HIF1AN 0.14688365 0.094478026 0.2566948 0.7428353 0.065487735 0.250628 0.42947394 0.21559402 0.4418405 -0.24879092 0.054930627 0.45203766 0.21761881 0.5605741 -0.3313874 0.7178669
TKT 0.014152206 0.89173913 -0.0052042915 -1.2045245 0.09613477 0.08492069 0.47547442 0.023074947 0.49927205 0.01954852 -0.0111715095 0.06840644 0.5553158 -0.14263655 0.2967474 -0.12470024
HDAC4 1.1292232 -1.4549237 -1.3440634 -0.031464987 0.081031814 0.35063842 0.44595763 0.040942054 -0.2543173 -0.5974654 0.0001512603 0.8962698 0.6266849 0.2608016 0.78210974 0.58621305
DUSP9 1.2718965 -0.054443587 -0.0734701 -1.1510308 0.7821286 0.61572695 -0.098568074 0.47208813 0.8491918 -0.08772353 0.038752433 0.35752285 0.24851619 0.4868599 -0.6266381 1.3138831
TCP1 0.35129175 -0.99067104 0.0487909 -0.010432423 -0.27645874 -0.009509709 0.34198314 0.36311957 0.28556153 0.7488093 -0.11441663 -0.27359793 -0.5180143 0.11967167 0.32983696 -0.6205034
SNRPE -0.25541186 0.9368746 0.17204897 -0.5671145 -0.06271785 0.28456733 0.95024 -0.6496507 -0.16354272 0.47907442 0.008643833 0.1931718 0.16034903 0.24055581 0.61985403 -0.033493333
NPY1R 0.05725814 0.027943503 -0.43799284 -0.0042608846 -0.22713019 0.08592968 -0.47694907 -1.5463701 0.16351934 -0.8598971 0.20798409 0.04664439 -0.6383399 0.026916059 0.25638196 -0.3602348
FAF1 0.24512789 0.06791765 -0.013920455 0.08492195 0.03784104 -1.1526384 -0.47627544 0.20042256 0.5149836 -0.054973587 -0.024393858 0.40993372 0.65579253 1.4472266 -0.015622522 0.16469392
PBLD -0.8341542 -0.34090707 1.3368539 0.5646295 -0.07218883 0.3452882 0.22277631 -0.27807376 0.31092277 0.8776769 0.29861036 -0.38728613 -0.1467652 0.007927071 0.35873917 -0.4023691
LIG3 0.4240608 0.2416758 0.1891392 0.025687283 0.008119729 -0.00591246 -0.4651783 0.22619237 -0.26973945 -0.14075615 -0.042298663 -0.826707 0.65981114 1.4892619 0.2684723 -0.63374704
SIRT7 1.1611645 -0.73878944 0.25065622 0.1384332 0.03876388 0.956179 0.49589238 0.2662413 -0.3061751 -0.68118685 0.35205013 0.56164855 0.054984223 -0.282659 0.35402918 0.17252275
UCK2 0.60086375 0.36104617 0.5001771 0.040971704 0.21893866 0.20848608 -1.2735513 -0.076016165 -1.1078228 -0.49935898 0.17776029 -1.2333577 1.174418 2.0264342 0.16401869 0.46622965
TCF19 0.2677574 0.15831713 0.6998681 2.1517518 -0.16298285 0.44620526 0.5711351 0.07675832 0.3810289 0.07195106 -0.72639763 1.9552398 0.03318615 0.6496829 0.09814535 0.24368395
PDE2A 0.47653547 0.037568312 0.017082699 0.14030865 -1.0277146 0.5887296 1.0420326 -0.854912 0.49632296 -0.33415002 -1.1167068 1.1073544 0.29700541 0.7285124 0.59977406 0.24827805
TRMT12 0.6039343 0.17746241 -0.08416248 0.09063133 -0.05500096 -0.2822702 0.24365105 0.48441774 -0.18423212 -0.17466165 -0.46158037 0.21662682 0.2867696 1.2567446 -0.02382474 -0.1494496
RFXANK -0.09018308 0.35906425 0.0598326 -0.25723824 0.23110755 0.26860747 0.42823178 0.5355598 -0.047633026 -0.081795335 -0.0019049018 -0.65844905 0.35438016 2.5403314 -0.38415572 0.6122276
ANK3 0.38333243 0.117692955 0.82838583 -0.21989258 0.22073434 0.06644694 -0.19276388 0.03282086 -0.527953 0.5321514 -0.1634491 0.26362082 0.24888748 -0.07293138 1.4902867 0.77207935
WNT7A -0.063301146 0.62479573 0.25446343 0.7336866 -0.046794873 -0.9559334 -0.4299637 0.8158364 0.4262333 0.3420061 -0.038679454 -0.08523197 0.07822896 0.09418439 -1.3309022 0.4062756
WNT9B -0.16416435 0.07545697 0.16411366 0.95658475 0.23280852 0.009466288 0.29773945 0.08677713 0.7335611 0.043094803 0.2427961 0.5296353 -0.31482175 -1.463865 0.17970209 -0.7405317
ZNF532 -0.16829012 -0.2880564 -0.015688656 0.1311055 -0.005006331 -0.6342289 0.030566057 0.3283379 0.41899 -0.14175071 0.035771206 0.21604818 0.5127558 0.50243604 -0.23496392 0.1800441
F3 0.3150738 0.17471051 0.9178084 0.3710791 -0.13638332 -0.3109381 1.4570091 -0.08587573 0.42491058 -0.6636927 0.20263712 -0.1575812 0.35275784 -0.7550897 0.02717285 0.7348288
AARS2 -0.4983475 0.0155250365 0.04955968 -0.66524816 1.066741 0.5005721 -0.1469963 0.503647 0.3952269 -1.1846064 0.2647176 1.3414118 0.37246567 0.0954404 0.5624058 0.1514504
ZHX1 -0.2086808 0.7067156 -0.55182344 0.29910314 0.6549651 0.2060829 -0.22216886 0.61562973 0.026708921 -0.13410388 0.057767857 -0.08273134 -0.34239775 0.5368405 0.5666424 0.7025786
DCTN4 -0.30277443 -0.22780752 0.5537692 0.67988425 -0.08698109 0.07888687 0.007775853 -0.0025464897 -0.4139145 -0.0027634914 -0.23375238 0.53532046 0.2353667 0.14735463 0.114055574 -0.13971132
KIN 0.27691212 0.39645305 0.32303873 0.24846542 0.9392647 1.1220436 1.2570881 -0.040152214 0.08819758 -1.4802575 -0.0011215553 -1.4266781 1.1165692 0.12342409 1.5939587 0.72562337
CHRDL1 -0.62239456 0.46028635 -0.03389926 -1.0629898 -0.015989259 -0.10797162 0.04244599 -0.0444166 -0.58409923 -0.06269266 -1.3666939 -0.026068412 1.9637045 0.37152523 -0.4883895 0.35533333
FAM120AOS 0.23929216 0.08304107 -0.10559369 0.10541588 0.40704343 0.44522196 0.42897686 -0.9711914 1.2360613 -0.6136495 0.46230692 -0.32235074 0.05703778 0.4174892 0.03503675 0.38209057
TPMT 0.2414365 0.31139314 1.0941895 1.7168471 -0.028207844 -1.2003677 1.1890649 1.9611887 0.15227076 1.0483594 -0.41478425 0.032726027 -0.063068345 0.934694 -0.4784563 -0.8817534
ITPA -0.86184675 1.1964872 0.27250382 0.49022686 0.22757107 0.003058129 -0.315826 -0.044939518 0.3894268 0.40642563 -0.0015311972 0.16890515 0.43047544 -0.8060712 0.3713193 0.38262847
RPL29 0.60937774 -0.7613277 -0.14363745 -0.8874042 0.7887485 0.08029562 0.08679121 0.41668078 0.5778715 0.74169046 0.035495926 -0.4815269 -0.061877243 -1.0121982 0.48162493 0.50098413
DCN 0.61984324 0.22387235 0.17303343 -0.036475886 -0.20067893 -0.078809164 0.288048 1.4015049 -1.1214685 0.70953757 0.75804496 0.11419871 -0.13830853 0.83777165 0.4387328 -0.05338576
CLIC1 0.28783947 -0.07093045 1.0141261 0.47881067 0.095359065 0.05219821 0.029276414 0.24611369 0.32425535 0.45112124 0.0017470747 0.44230527 0.18543404 -1.3310363 0.23963349 -0.6452164
AMDHD1 0.10752092 -0.034528118 -0.13174187 -0.63094425 0.018763125 0.3470549 -0.5934088 0.1080807 -0.15237918 -0.36749294 0.6493925 1.1870202 -0.21576153 -0.878073 0.018317036 -0.8785953
PRC1 0.21932825 -0.83522946 0.005225407 -0.014468439 -0.067510344 0.061012443 0.52136683 0.6611472 0.2488438 0.11258734 0.440657 0.44771016 -0.02272917 -0.06560414 -0.32285064 0.2766914
MCRS1 0.42277348 -0.2683088 0.40173987 -0.023691164 -0.24040107 0.22838637 0.5770167 0.19516435 -0.8136402 -0.02911292 -0.0043279314 0.28962767 0.64472914 0.8668675 0.6346971 0.21953885
CCT6A 0.32071728 0.16772644 0.13169351 0.34285668 -0.18629979 0.073223636 0.2809331 -0.08949308 -2.1011915 0.29403687 1.6521945 -0.07439629 0.016833086 -0.12218354 -0.2216177 0.9553147
SFRP1 0.3104458 -0.5794255 0.33858877 0.26791206 -0.102328874 0.14673808 2.4578881 0.47274712 -0.1258725 -0.07969556 0.145818 -0.03968018 -0.023762539 0.6937932 -1.0457196 0.9184908
SMARCD3 0.7925887 0.098783 -0.16463995 -0.04013582 0.01253862 0.2868825 -0.1330183 0.17610101 -0.02726915 0.009411895 -0.7562843 0.9531159 0.20592183 1.1679099 -0.41118914 -0.11986243
FREM2 0.56361324 0.4402483 -0.8614689 -0.044098187 0.47421208 -0.16099237 -0.6423722 -1.1754396 0.56168014 1.6381341 0.046509195 -0.027992254 0.35128704 0.48981494 0.6653227 0.70527875
SKP2 0.37635148 0.32209805 0.14787626 0.42551184 -0.0072859507 -0.026934478 -0.49561882 0.04115243 0.8027547 0.60896397 -0.46996585 0.46900895 -0.31276456 -0.35394287 -0.08601615 1.3636125
MAP4K4 -0.23430243 0.07303452 0.047508284 -1.1884221 -0.022117758 0.08559267 -0.09051167 -0.39634308 -0.23439778 0.015598962 -0.010417459 1.2126131 0.16822878 0.098923266 -0.22791217 -0.026287189
UBE2D2 0.23451951 -0.049020227 0.82011837 0.23497602 0.27349466 0.7283375 0.43457222 -0.14074557 -1.0596023 0.25563782 -0.064659305 0.74965173 -1.0110669 0.1731126 0.97854656 0.14271414
PTGES3 0.87035275 0.17216516 0.043793608 0.18722132 -0.49486846 1.2189548 1.5431833 -0.2675079 0.32091317 0.07112213 -0.053783253 0.75232965 0.48381504 0.8562325 1.0920492 -0.15225776
RNF44 0.6467807 0.46528396 0.47188208 -0.29717952 -0.22706243 0.26804608 1.0716352 -0.55324155 0.05175769 0.054677766 0.021951672 0.030537969 0.4804636 -0.35937542 0.3697934 -0.5819194
DVL3 0.49891043 0.15935673 0.5782059 0.6713433 -0.07432231 -0.15792666 -0.03127822 -0.058616713 0.18587333 0.30109143 -0.92277884 0.4775321 0.103042334 -0.44048098 0.29521123 0.08183084
SLC46A3 -0.22280882 0.46497923 0.40708673 -0.05455126 1.2908986 -0.08117963 0.51549417 0.5250713 -0.12864459 -0.072752915 0.10569361 0.41324347 0.084223226 0.57420176 0.70877206 0.4501986
CDC25C 0.116133966 1.272485 0.88306814 0.6353039 0.8339781 1.4792975 0.027302014 -0.32241476 -0.016489007 -0.11682295 -0.32422516 0.46123677 0.56310445 0.53374535 1.125105 0.830544
CPSF1 -0.16988249 -0.34747678 0.058224868 0.25112054 -0.017568113 -0.0018120403 1.4029388 -0.5178528 0.410829 0.61244035 0.008815691 0.10044517 -0.0046895626 -0.16605328 -1.4452016 0.1112059
NCAPG -0.09041099 0.2243757 -1.8407822 0.19456567 -0.56784195 -0.03800445 0.25513932 -0.5355309 0.53762364 0.0040615583 -0.35160884 0.0063361526 0.020786673 -0.20942324 -1.7294909 0.9991439
SNF8 0.17319515 0.33355382 0.5926087 0.79959875 -0.02104426 0.26715124 0.6177204 0.17205308 0.110079244 0.012426304 0.10178526 0.3685508 -0.002551872 0.81702936 0.24712943 0.056718618
SLC39A14 1.1886361 -0.5085617 0.46705034 0.084888436 -1.8614701 -0.068002336 0.47493982 0.88164884 0.39884007 1.0088292 0.20588534 -0.052921362 0.37447456 0.61229753 0.06390883 0.39860362
MAPRE1 0.20826335 0.2954756 0.12731503 -0.010610706 0.33337912 0.9781287 0.8287189 0.04104432 0.13020724 -0.34764034 -0.016296955 0.41853788 0.97488964 0.29103264 0.7795944 0.4227234
SART1 -1.068267 0.003100395 -0.016889974 -0.0014808747 0.16524525 -0.01826596 -0.9441769 0.4152358 0.278902 0.04338283 0.8210741 0.3975247 0.52197313 -0.08401601 0.61186737 -0.7963168
DVL1 0.51339173 -0.22704928 0.013383186 0.5516691 -0.023390263 0.123638056 -0.0643078 0.6029707 -0.34945777 -0.3434431 0.38032874 0.79903954 -0.08593431 -0.6192176 -0.72141653 0.48577392
RALBP1 -0.24105194 -0.069991656 1.4674206 0.009656198 -1.2309806 0.14200918 -0.082106106 0.054920953 -0.39826208 -0.18727921 0.414058 0.4577271 0.79890394 -1.0826386 1.0174919 -1.032825
SF3A3 -0.9839207 0.93068665 0.9875175 -0.25274593 0.6379933 0.165897 1.4354867 -0.38984105 0.28167704 0.07621568 -0.009442531 0.38410202 -0.29569784 0.54034305 0.7027581 0.54313534
G6PD 0.5611725 0.22296074 -0.267962 -0.06716943 -0.77188456 -0.055007532 0.10971894 0.37410432 0.15197988 0.59044397 -0.016019654 0.24308084 -0.20253086 1.3534923 0.3509957 0.25024608
CAPRIN1 -0.13996798 0.29250777 -0.20374134 -0.3589001 0.4174724 0.5380563 -1.1462065 1.543203 0.27695045 0.26201084 -0.29210755 -0.61813563 0.10575182 0.1752287 -0.08813204 0.21412441
GRB2 0.23804878 0.2935556 0.44870126 -0.10627414 0.1606409 -0.00030564598 -0.99003154 0.5575476 0.16810799 0.12612021 -0.2206655 -0.062791646 0.30606395 1.5723732 -0.22048362 0.16209204
COLEC11 0.75199753 0.3114841 1.5340228 0.44423229 -0.33590543 0.403525 -0.29953963 0.35240018 -0.13489744 0.6588437 0.25345874 -0.2928384 0.2592991 0.08369499 0.34188202 -0.7624973
CALM1 0.46642613 -1.3459184 1.0838317 -0.030963108 -0.008214085 0.21043102 0.03016475 0.8252297 0.13007891 0.44320342 -1.3486531 0.1601996 0.20737612 0.5991068 0.08691859 0.5457732
AATF 0.71508515 0.23461892 0.21298279 -0.12929484 0.15743804 0.6570253 -0.30291247 0.26969266 0.45863616 0.39798957 0.0069288756 -0.3659354 0.5013765 1.0158712 -0.62021416 0.18083613
IRF3 0.4534762 0.3678493 0.53105664 0.49944147 -0.74100274 0.09454116 0.9291433 0.03803093 -0.034989964 0.28297326 0.33786836 -0.5213504 0.9453188 -0.34090146 1.0395092 0.08668855
SFRP5 0.8060503 -0.15055355 0.7364312 -0.013369657 0.13215125 0.7586897 -0.18381381 0.20340383 -1.5558287 0.38527545 1.2158945 0.18062384 0.0014558497 0.13881505 -0.6566641 0.0043175155
ARHGAP10 0.656276 0.14694403 -0.030031938 0.23540872 0.4005344 0.5546454 0.97876793 0.57057923 -0.28283423 0.704278 0.35456154 0.28138718 -1.6359286 0.6727498 0.36802876 1.429883
ADSL -0.15861198 -0.6392421 0.71590024 -1.087172 -0.027571153 -0.055058144 -0.16689266 -0.6145406 -1.1316627 -0.33923662 0.502637 -0.11499522 0.8418535 -0.006144315 0.09582578 0.29309848
C8A 0.6103073 -1.0052506 0.59628266 0.1826281 -0.012024594 -0.03393457 -0.49410537 -0.9116871 0.055203445 -0.6010723 -0.11364798 0.8788293 1.4668139 -0.78359634 -0.62592757 -0.020667719
HAX1 0.55187905 0.43922734 0.3938652 0.465881 -0.4375483 0.10400465 0.40700826 -0.16664112 0.38113686 0.77101564 -0.8763006 0.28468937 -0.14229283 -0.666337 0.29612553 0.17593145
MCM8 -0.24796401 0.041850902 -0.5447583 -0.4332169 0.100503154 -0.6948684 1.0690314 0.9004688 0.23611842 0.2570643 0.0061567896 -0.053630874 0.4162619 0.6836378 0.2996194 1.4984955
AXL 0.07046287 1.4420089 -0.03632105 0.4955575 0.52480227 -1.0392807 0.6910837 0.45489186 0.6138399 0.45044714 0.019357577 0.20202747 -0.040313892 1.1849377 0.8182941 0.19384532
KRTAP13-1 1.5331519 0.11139527 0.29996216 0.016270652 -0.04448826 0.54055226 -0.7689041 0.2752408 -0.019780887 0.6029142 0.3923529 0.47608432 -0.55845463 0.47412378 0.111258276 0.3615744
CHCHD7 0.16502495 -0.06553577 -0.021429678 0.10735993 0.20584942 1.195472 1.015471 -0.2412016 -0.06631258 -0.0005263102 -0.19082029 0.7437899 -0.26132995 0.101986356 0.9502184 -0.3094152
VPS35 0.01170283 0.45502234 -1.3867917 0.8746986 -0.015784834 -0.040072005 0.041337658 0.20883733 0.3909217 0.44950217 -0.012515293 0.15626483 2.4145448 -0.20795038 -0.05727952 -0.25877747
GSPT2 0.8019589 -0.041738752 -0.4166817 0.41405204 -0.016756898 -0.7304625 0.75692284 0.1635412 -0.20043698 -0.10474629 -0.31333888 0.055127848 0.19065629 1.7468979 -1.1693852 0.32224548
FUT4 -0.03660234 0.37802893 -2.154314 -0.56989956 0.016995478 0.62683046 -0.14767483 0.28252858 -0.22304171 -0.038878016 -0.023159219 0.5428965 0.46707532 0.1028833 -0.23071223 -0.05022424
ABAT 0.16787878 -0.0015633479 -0.0041584666 0.12474181 0.16482036 -0.0059644785 0.19432974 -0.212879 -0.016063191 -0.61636144 -0.6457519 -0.7513273 0.39415246 -0.15194453 0.004742506 -0.67759615
MAPK3 0.98318684 -0.57252824 -0.13161545 0.15105046 -0.062164046 0.12572359 0.08730734 -0.19673316 -0.11404968 0.614622 -0.51006716 0.34451526 0.023225917 0.28618798 0.312223 1.3476249
PRKAG1 -1.5282339 0.76181597 -0.016668541 0.37623718 -0.023191486 0.037371397 0.6573325 -0.17116962 -1.3931298 -0.013996248 -0.031235596 -0.43185744 -0.05717333 0.8006973 -0.8718505 -0.26040605
ACD 0.9963643 0.072879754 -0.40275177 -0.18217315 0.0038809516 0.021618638 0.19681533 -0.4531424 0.3682442 0.15917167 -0.7219845 -0.0732344 0.83347356 -1.1304951 0.040259417 -0.13023224
YBX1 -0.75080687 0.24942985 -0.1739926 0.1506058 0.27550766 0.18487504 -0.8488318 0.25539014 -0.8548452 -0.023069492 0.117486015 -0.41114745 -0.35525885 -0.31852496 0.97235066 0.11512223
TPD52L2 0.34827414 0.63609815 -0.49819374 -0.45175526 -0.023446003 0.55838627 0.39621645 -0.6018938 -0.0997577 0.17429966 0.003959894 -0.61066145 0.034769837 -0.042763196 -0.05106411 -0.1870434
ADH1A 0.6885497 0.23477393 0.09122991 -0.12502149 -0.08615351 0.9850038 0.43549865 -0.02577913 1.1534798 0.09569184 -1.0415334 0.41123232 -0.6466799 -0.10232302 0.6946608 -1.2129444
GTF3C2 0.4557771 0.24939677 1.156878 0.4369848 -0.54062384 -0.00050082186 0.4197336 -0.18433088 0.9605023 0.07404656 -0.02367155 -0.095962815 2.1228657 0.5032525 0.71694344 -0.04427222
CFI 0.35547435 1.3093461 1.258398 1.5846742 -0.03719119 -0.12419856 0.35858738 1.1054269 -0.009075897 0.68206924 0.5410971 0.42385253 -0.11929124 1.244163 -0.082178764 0.188207
UGP2 0.71979517 -0.5041274 -0.010836845 -0.108301446 -0.565575 0.51749814 -0.47669867 -0.26656255 0.09388641 -0.055700064 0.22537223 -0.6030999 0.21944824 0.9530671 -0.1338071 0.40364763
DCAF11 1.0148582 -0.18538772 -0.09356481 0.17320324 0.28691018 2.0651402 0.91232777 -0.14108105 0.0711371 -0.14994556 0.08648291 0.7876497 -0.4037879 0.48819035 0.51852405 0.055901393
ZFP36 0.36263856 0.21434714 -0.74613595 -0.7982964 -0.018693738 0.266392 -0.5564118 0.5364232 0.5355895 0.060446277 -0.004098837 0.58445776 0.042830307 0.610127 -0.7005997 -0.20246476
ANXA10 1.4384528 0.5201978 -0.50252867 -0.001058154 0.9665314 0.9006702 0.586238 0.11143691 -0.48297954 -0.16655126 0.1385467 0.71421504 0.41921023 2.1999552 0.93310046 -0.009598142
DYNC1I2 0.16752407 0.046528067 0.4501947 1.5218819 -0.48257935 -0.29274252 1.3817413 0.11249511 0.5561415 -0.8021441 -0.03277512 0.53116935 0.2881197 1.6657051 0.006521516 0.31918818
GPN2 0.16522947 -0.42750955 -0.31794375 0.80635613 -0.17602688 -0.3314409 0.61844426 -0.047449604 1.3904996 -0.47293374 -0.040930446 1.6664059 0.12134278 -0.06169068 0.24105817 -0.13301322
SF3B2 0.848624 0.35581914 0.10029407 0.1954593 0.29372174 1.1477273 -0.07566051 -0.6539329 0.029344205 0.35156894 -0.043927033 0.41783774 -0.03380619 1.1921498 -1.7065878 0.19022775
ALDOB 0.13650364 0.09606973 -1.1367216 0.24673273 -0.14044082 -0.15227714 1.415473 0.43345326 -0.056409296 0.01286371 -0.016517213 -0.42631966 0.23240982 0.5129245 -0.6103431 0.2209323
MRPL49 0.9769092 0.07565781 0.341537 -0.3905144 -0.50575626 0.018593438 -1.5188613 0.1347851 -0.008213148 0.24757376 0.44069356 -0.648675 0.13775781 0.22385073 0.031930543 0.38605648
UBQLN4 -0.10927227 0.17557982 0.3469895 -1.7550663 0.3919018 -0.054471698 0.31004316 0.04606922 1.1113565 -0.831158 0.3572481 0.09526023 0.84618837 -0.11718165 0.17108843 -0.9531344
CYP2J2 -0.058588732 0.1567564 -0.111568496 -0.030721664 0.57537013 -0.1456741 -0.6873897 1.4345958 -0.11353401 0.5270002 0.7072667 0.32349852 -1.5913794 0.5199 0.05183589 -0.070643604
GSTM3 -0.5263411 -0.043969087 0.24834943 0.49621263 0.4707593 -0.381034 -0.51907974 -0.011843225 0.55834126 -0.8840738 0.46882638 1.2540504 -0.5086295 0.22734863 -0.013060017 -0.06853843
PLXNC1 0.14671114 0.049135808 0.43013775 0.19819032 0.096839376 -0.027469728 0.13618827 0.29059693 0.11370541 -1.337352 0.124055035 0.22817545 1.1674074 0.3604109 -0.28491065 0.31726566
ACAA1 -0.1440237 0.8187571 -0.6268202 1.1001433 0.2859188 1.6991724 0.028747601 0.04492401 -0.47743124 -0.059252124 -1.2007911 0.6028391 0.107472576 -0.09277946 0.50139743 0.7423674
C6 0.6461697 0.47534275 0.2870611 0.03817494 0.5930778 1.4059973 0.16680405 -0.30604857 -0.11544874 -0.065310374 -0.037274357 -0.5295655 0.9886063 -0.9557628 1.3651756 -0.13560669
ZNF189 0.6573951 0.032983556 -0.44070613 -0.007528389 -0.742832 -0.45734075 0.55153054 0.042188264 0.66698444 0.924268 0.043738358 0.042869944 -0.105529755 0.90643036 0.044506624 0.22537857
UBE2S 0.39146307 0.40506664 0.26518047 0.1350227 -0.026532408 -0.37205148 0.47560188 0.37329528 -0.012519602 0.46831924 0.022229083 0.29106736 0.13277882 -0.19005686 0.14286485 -0.5780297
TDRKH 0.6759143 0.4296889 0.07046178 -0.005561058 0.3758154 1.1149528 -0.18935838 0.2234188 -0.43576217 -0.024226544 0.34977254 -0.14578697 0.061866976 0.18244553 0.5138734 0.12964289
LBR 0.10067956 0.3980283 0.11983091 -0.25030068 0.03201563 -0.29825768 0.16573548 0.5142794 0.54118216 0.1851803 0.0014500417 0.636195 0.032863487 -0.20688589 -0.82325715 1.3670021
LYVE1 -0.55096644 0.3343816 0.032647226 0.47215807 -0.011597716 -0.0033462984 0.4302119 0.5062716 -0.3513592 -0.012707028 0.006575328 0.35097533 0.112597495 0.31492338 0.1884082 -1.0054128
NELFCD 0.24374273 0.17171906 -0.0012431898 -0.47815624 -0.03935496 -0.039844185 1.0615963 0.37237933 0.48677593 -0.30412945 0.00018851762 0.07966966 -0.32427442 0.33253393 -0.20239924 -1.2031416
RBM28 0.20015566 0.41193682 0.37492692 0.7974658 0.031232348 0.1304635 0.21047238 0.2171233 0.3574742 0.08257498 0.00020056288 0.121121556 0.21328646 0.25483504 0.09912456 0.4517441
TOPBP1 -0.007254013 0.82755613 0.20779593 -0.04901004 0.5828736 0.72298574 -0.1328043 -0.10275511 0.20514748 0.40246466 -0.03424681 0.8701142 1.9685204 0.6287877 1.4102684 0.29098505
DHX57 0.562205 0.12691623 -1.1956096 -0.26509994 0.0032720296 -0.38417777 0.5795878 0.10580278 0.5722016 0.062936254 -0.0021952742 -0.78064215 0.24299489 -0.17079958 -0.85250825 0.11335258
ATP6AP1 0.09486201 0.35689244 0.04161888 -0.8448594 0.17578429 0.058992717 -0.62535 -0.1803553 0.59330523 0.0588486 0.28132066 -0.10883777 0.58296204 -0.23191899 0.83203024 0.16891794
MYO1B 0.7266011 0.24878316 0.42699322 0.12955508 -0.0843499 -0.06969843 -0.16516611 -0.2709666 0.4814105 0.91522425 0.002512449 0.18259466 -0.17216133 0.18260984 0.64949435 -0.94966996
RHEB 0.80455565 0.5115727 0.3451708 -0.08076766 0.08168828 1.4477853 -1.0071615 -0.6234242 -0.2940329 0.6345427 0.3936439 -1.834066 -0.30524647 -0.1168743 0.40818408 0.71341276
CAT -0.4056409 0.28803438 -1.1973565 0.13351735 -0.05544914 0.04588242 0.85899085 -0.02653152 0.9613381 -0.13648848 -0.7077177 -0.012500589 0.28905496 0.76252127 0.7968334 0.29819334
TNFAIP2 0.4098992 0.45981202 0.20830414 0.585184 -0.03252831 -0.11529339 0.6739155 0.35252106 0.106067725 0.82267064 -0.27433893 0.34110296 -1.543825 0.85552716 -0.5289927 0.4717907
HMOX1 0.47574237 0.36568406 0.1408561 -0.10907933 -0.11319333 -0.09073448 1.410069 0.114217095 0.4212223 0.37354258 0.058430564 -0.047852162 -0.054995917 -0.323161 0.24057655 -0.12626767
CCT3 0.07530881 0.014337812 -0.3105129 -0.008142795 0.023114234 -1.1369609 0.81191117 -0.112340905 0.60139465 0.18408617 -0.0036904386 0.0068539255 1.2255569 -0.37405506 0.67990035 0.584381
GCH1 0.37907562 0.25966868 -0.2857 0.25691804 0.056730736 0.48446745 0.8284068 -0.26199156 0.47862226 -0.095512174 0.22757916 0.2465227 -0.021503963 1.0221562 -1.5971013 0.062656306
PFAS 0.24637485 0.09179708 1.0977788 0.10517472 -0.024458868 -0.06828142 0.17339146 0.87640387 0.39507788 1.436784 0.080463745 -0.288132 -0.14191708 -0.10355162 0.92978805 -0.9360913
CDKN1A 0.48406896 0.9032816 -0.9070327 -0.0035323352 -0.039872784 -0.14918497 -0.1318683 1.4848856 0.0047071488 -0.12156095 0.2652523 0.054585103 0.8765636 -0.5323975 0.009290952 -0.62996024
C11orf54 -1.1214386 0.6252607 0.3581867 0.007846827 -0.14518254 -0.020484813 0.35265273 0.34585145 -0.1837864 0.16347668 -0.0017704701 -0.6047672 1.7599686 0.6221212 0.44572404 -0.19200206
RILP -0.07279587 -0.543644 0.031046296 -0.5740464 -1.9751154 0.041454397 0.64780414 1.0538037 1.2864904 0.5057514 0.44634798 0.14286847 -0.009170653 1.020572 -0.1377682 0.12911405
FBP1 0.5214369 0.38830975 0.07019198 -0.2650739 0.12791646 -0.43916017 0.35215527 0.033053562 0.62868345 0.65175617 0.50482106 -0.06430253 -0.60331476 0.22956227 -0.5516672 0.093093984
PCGF6 1.2306253 -0.15585087 0.8112306 0.56903225 0.50477177 0.74445647 -0.658544 0.7789327 0.10669579 -0.39140368 0.63531166 2.56169 -0.1392999 -0.06432154 0.49458387 -0.16755788
CSNK1G1 0.8340937 0.46987543 0.7826898 0.29524168 -0.46514225 0.7118399 0.7540167 -0.012244339 -2.4383762 1.3423367 0.22323248 -0.09108969 -0.22323994 -0.93070483 0.667181 0.95778793
TRIM24 0.12692456 0.62273586 0.8679373 0.20636483 0.102904364 -0.0704934 -0.33934557 0.14804241 1.2783837 0.05377673 -0.023601199 0.20885658 2.422653 -0.017809069 0.2089585 -0.16415405
NUP37 -0.14520067 0.005071085 -1.8191793 0.104112454 -0.04044033 -1.0535047 0.1419225 0.29957366 0.46385238 0.65053743 0.0047025047 0.16978078 -0.14082795 0.9977113 0.37146544 0.60575837
MAZ -0.24239331 -0.5813172 0.10910649 0.012775794 0.017872117 0.997691 0.026685024 0.24649185 -0.3699103 -0.35368767 0.016344255 0.22603165 0.098482154 0.046918243 -1.1334616 0.29898775
PHYHIPL -0.102171615 0.4790322 -0.40116835 -0.24348143 -0.30706054 -0.015352976 0.69593304 0.11778591 0.13959832 -0.011748733 -0.016452378 0.3329238 1.2485796 0.37115043 0.52898663 -0.13195373
GORASP2 0.23478933 0.9362701 0.48193753 0.9104622 -0.25509387 -0.48974773 0.20680809 -1.2619491 0.33186802 -0.49030006 0.17511699 0.015026955 1.235535 0.52393305 -0.6350075 0.012531294
ADRA1B -0.23878533 -0.1928909 0.093009554 0.7111134 -0.034496207 0.2891679 0.6744766 0.43259338 1.7288932 -0.044080857 0.054955896 1.8876239 0.16232505 1.2241657 -1.8428302 -1.0022401
CCNE1 0.8460561 0.05853589 2.1763988 0.95039266 -1.0523922 -0.6948028 -0.071718305 0.015284501 -0.096996784 1.0428102 0.21243283 0.5964166 -0.34383178 -1.1638972 0.13185929 0.19741008
PIP4P2 0.41415575 0.14179529 -0.23624337 -0.033499844 -0.21464904 -0.0606972 -0.33333853 -1.0285233 0.38534185 0.013261585 -0.009443637 -1.0592471 0.8002281 -0.87415856 -0.37495404 -0.7408389
SLC31A1 -0.08337893 -0.5427535 0.82703876 0.6024204 0.06321098 0.98549193 -0.6584606 -0.39994827 -1.1531093 -0.08239209 0.68679667 0.49236038 -0.15253572 -0.34264237 0.31801885 1.48189
MET 0.00064756523 0.19572052 -0.49592063 0.1608823 -0.032335635 -0.017843869 0.39763987 -0.33003256 -0.8224992 0.03198541 0.14528823 -0.037027743 -0.020251868 0.35565472 -0.30762342 0.7964606
PTBP1 0.43235752 -1.2698097 0.60744196 0.07445624 -0.048261806 0.25785735 -0.09882566 0.7962327 -0.7904659 0.48389217 -0.1949544 0.6536247 0.04679879 0.43805608 -0.17973968 -0.032785878
NSFL1C -0.484645 0.6151403 -0.035512254 0.620266 0.0064716046 0.012576335 0.19719857 0.5483511 0.34913194 -0.004784285 0.16198772 0.27349713 0.05487174 -0.007292391 -1.0613327 0.04329801
NPM1 0.47824687 0.40368137 0.6282335 0.09305481 0.024079552 1.0249416 0.28220204 0.20444381 -1.2664039 0.01896605 0.36088216 0.49982283 0.14943442 -0.56472975 0.0959978 -0.1073282
PTK2 -0.82996917 1.0274546 -0.5073174 -0.20962703 0.9337215 0.35805902 -0.13756396 0.0826211 0.8524973 0.03047288 0.913558 -0.12437463 -0.11436987 -0.2656775 0.8089928 1.0586463
PCCA -0.44578326 0.2489998 0.36737514 1.3160068 -0.01271166 -0.043679036 0.11575445 1.8455709 0.37895936 0.5456354 0.6417976 0.4045193 -0.65012556 0.44712257 -0.061559815 -0.29178745
PRKCG 1.0773723 0.48837233 0.32229307 1.0890704 0.00012367562 0.56024134 0.442844 0.24621056 0.2145854 0.123461045 -0.0038400386 0.60964584 -0.03624064 1.1464556 0.20942602 0.2242775
DNMT3A 0.74629295 0.57159686 0.035839256 -1.3800232 -0.09893705 -0.77109474 0.15810893 0.8676502 -0.51645213 0.7756796 -0.45388773 1.1385032 -0.085788496 0.15990217 -0.2359178 0.030142112
CAMK1 0.3203253 0.29947844 -0.94706696 -0.1274465 0.56597775 0.5765258 0.3895486 -1.1447272 -0.18568012 -0.029784132 -1.1619532 0.34493127 0.19245552 -0.6672179 0.70098835 -0.12279917
SRPK2 0.89610916 0.4547262 1.1304141 0.7386718 0.09042868 -0.070628345 0.32495826 0.4091666 -0.25291097 1.3646239 0.08162075 -0.30237857 -0.17399618 -0.35175908 0.49237332 1.7733346
CSE1L 0.6846452 -0.66708523 0.026263064 -0.35460293 0.54495883 -0.5045884 1.1738533 1.0531265 0.3591883 1.4316138 0.17719549 -1.1125026 -0.23136035 2.170289 0.736981 0.94611186
AKT1 -0.19222382 -0.3394757 -0.19129023 0.08197231 0.3384914 -0.6651581 0.052612774 2.4275265 0.53068995 -0.06487165 -0.09209028 0.48024186 0.13381633 0.7301183 -0.18029232 0.4822354
RPS6KA3 -0.3183924 0.41430247 0.27176145 -0.22436668 -1.0769103 -0.06910168 1.1194161 0.38277876 -0.005841966 0.6188464 0.2772994 0.074093305 -0.098585345 1.5554154 0.5789463 -0.27054685
RPA1 0.36976692 0.19829655 0.85743374 0.10802812 -0.047296606 -0.657233 -0.03348087 0.43791813 0.8770207 0.03708773 -0.31204057 0.6213716 1.5080676 -0.082000434 0.10013451 -1.619277
GGNBP2 0.2798331 -0.7305831 -0.005029676 -0.5608755 0.007593482 0.63552696 0.64401144 -0.8734765 -1.2652102 -0.03760316 -0.5708285 0.31059167 -0.23855774 -0.15530615 0.5172998 -0.1576597
DDX55 0.3132821 0.21483758 0.07048605 0.49894083 -1.1241298 0.028012294 0.79796356 0.20921983 0.41243237 0.08809913 -0.004668623 0.38926253 0.143555 0.33979803 0.032333378 -0.8692968
CYGB 0.17596368 -0.16510016 1.2775244 -1.6203564 0.22281371 -0.11556936 1.9250112 0.59888643 0.8157788 1.3000668 0.031424053 -1.2760434 -0.3993154 0.3194362 0.27133802 0.8337327
ZNF143 -0.51199466 0.4847482 -0.39678004 0.5634628 0.58267534 0.9210494 1.2912676 0.060409687 0.5739084 0.059308264 -0.00956588 1.7993162 -0.48350856 0.013443085 0.41004875 0.751374
ATP6V1C2 1.9730774 -0.14227612 0.7431042 2.2309146 -0.19911255 0.25879133 0.39595887 -0.17257835 -0.40845186 0.048153955 -1.4966284 0.97703314 0.045501947 0.2747394 -0.7556652 1.1954572
SLC5A7 -0.28138638 0.25506565 -0.053102333 -0.37023434 0.04794533 0.23281424 0.5063836 0.31062427 0.3318858 -0.0033671414 -0.012491224 -0.22529462 -0.43624133 -0.6276924 0.53127575 -0.1917037
FXYD2 0.50997293 -0.49961832 0.6230056 -0.4196301 0.6034552 -0.0543912 -0.05222282 0.40912503 0.49462494 0.3138992 -0.9731079 0.16904168 0.029805036 0.20999327 -0.12776683 0.0446886
DNAJC9 0.43251276 0.30724543 -0.055507116 0.034101523 1.2690669 0.09063296 1.6621379 0.35011205 2.1652071 -0.2047512 0.07928892 0.5730764 -0.0622836 0.939014 1.032939 0.16209924
SLBP 0.43349135 0.3259268 0.07562616 -0.35564312 0.77621573 0.7304254 0.04627888 -0.11154068 0.3076155 -0.015859913 0.036900543 0.7849844 0.15244728 0.89121807 0.49748662 0.13964938
FEN1 -0.3191157 -0.6618031 0.29987955 0.8578697 1.4195448 0.6955575 0.17233424 1.3819957 0.41333503 -0.06367234 1.0521816 1.4689046 -0.11297962 0.74179643 1.3053257 0.63909006
SLC25A6 0.31271273 0.24716596 0.16050702 0.19162779 -0.2623652 -0.03192567 0.5729548 -0.23040774 0.5436412 0.55802983 -0.6146132 0.31572762 0.26720887 0.20828742 -0.32009208 -0.63473237
MGLL -0.06703292 0.32057327 0.6181287 -0.20851682 -0.0010248359 -0.27330264 1.3490648 -0.40135306 0.6025369 -0.84898835 1.4876723 -0.49823317 0.462259 -0.0017510355 0.7592925 -0.82558507
ADAMTS1 -0.10717208 0.053360544 0.0076267608 0.38194162 -0.3822604 -0.09731128 -0.18914983 0.03831924 -0.70720035 -1.1791121 0.0005613904 -0.10559083 0.20230542 -0.16669904 -0.16631067 0.3446411
RAF1 0.6116628 0.60782224 -0.08981524 0.035653543 0.049362898 0.23954561 -0.16588135 0.9862927 -0.10225113 0.16908336 0.6630242 -0.026730161 0.25467604 -0.1470862 0.089878425 0.07798329
ASL 0.51942194 0.4997072 0.16250436 -0.06531131 1.5426431 0.2833477 0.33191243 0.33688495 0.8256239 -0.18767866 -0.41788173 0.63152087 0.8868105 0.6096523 1.162059 0.1404705
ILF2 0.6095554 -0.12224045 1.9642918 0.69217676 -1.1747948 0.20598087 0.48683488 -0.033297583 0.48837087 -1.1475273 -1.7832884 -0.1557827 -0.017404431 1.3916887 0.014470494 0.43891317
STAG1 -0.12963398 -0.4760387 1.3635837 0.0926022 0.6913177 1.2661926 0.08531675 0.22852458 0.1785312 -0.19535492 -0.14096558 0.2839765 -0.59550434 -0.456882 0.23822899 0.45674172
GLS2 -0.057665378 -0.33695048 -0.04997721 -0.0027772733 -0.43944266 -0.43038353 0.2713208 0.081967644 0.25667426 0.13121319 -0.365001 -0.33975106 -1.0011663 -1.2421395 -0.086683065 -0.18741056
PTEN -0.30820215 0.040764168 0.6863963 -0.24090703 0.19537708 0.38565448 -0.29602996 -0.060947847 0.44703424 -7.2289025e-05 -0.5986885 0.4632911 0.7744668 0.6727471 1.1169924 0.29379833
WAS -0.03604135 1.7413794 0.5675251 0.17337574 0.92464614 0.21578854 -1.5297419 0.6340055 0.4811139 0.066067174 0.13488579 0.17930435 -0.12786312 0.7027014 -0.87556845 0.83820164
TCF7 0.08525477 -0.0787782 -0.12633406 0.027781188 0.037902363 0.41499835 1.2407284 0.9857692 0.18892021 0.11189763 0.015875619 0.5407616 -0.112206034 0.402602 0.22156273 0.5361012
RPS27 0.1351062 0.509587 -0.33081576 0.37964898 0.19461563 0.28923962 -0.13853079 0.2738239 0.3216465 0.28553388 0.09035808 0.32477552 -0.7101142 -0.36326227 0.15294261 0.50680345
DRG1 0.87003994 0.5930397 0.3572569 -0.048329767 0.03231345 0.44567525 0.070301406 1.1989428 0.026185542 0.0940432 1.3236343 0.5760687 0.32433808 0.27003676 0.38481766 -0.8774796
TRMT112 -0.4543838 -0.6058204 0.13910462 0.010358731 0.034365736 -0.15355784 0.58767563 -0.8661659 -0.38202205 -0.007911967 -0.17197323 0.065807104 0.39668375 -0.5302045 0.5016444 0.9173757
ACACB -0.08844883 1.4094164 0.024939125 0.8452915 0.26443154 0.87044406 -0.40309203 -0.20401476 -0.17495096 -0.04735383 0.40834272 0.3360747 0.15461715 -0.03037487 -0.09980646 0.36191124
EXOSC4 -0.040849667 0.44656584 0.20329714 -0.40469074 0.11614787 -0.044744015 0.38635972 -0.0764896 0.5770425 -0.038261387 -0.02392313 0.09222374 1.3051776 -0.14413467 0.27804276 -0.40125614
MEP1B -0.31672847 -0.07566067 0.05961013 0.17789385 -0.26801884 0.572772 0.8001216 0.011351633 0.5606377 -0.08306577 0.0011121621 0.4568336 -0.08180946 -1.179711 -0.06872553 -0.17641704
IL1RAP -0.030178126 0.25716406 -0.5133708 0.53143895 0.55041116 0.8420037 0.3559688 -0.55807537 0.12146214 -1.6391277 -1.6653153 0.3915548 -0.08790508 1.5775608 -0.30681852 0.9517108
DNAJC2 0.25715548 -0.2194138 0.37729228 0.19555648 0.12114469 0.32103512 0.7091726 1.1434953 -0.16112046 -0.340438 0.35966194 0.27161908 0.1545535 -0.08862457 -0.011873969 0.058326352
LPCAT1 -0.34141383 -0.25764778 -0.35951492 0.5481154 0.041010275 1.3338792 0.7241875 -0.09796834 -0.18025257 -0.15710306 -1.3359385 0.95635104 1.5961063 0.1897246 0.8875145 -1.5534506
CDK1 0.07549511 0.44446626 0.05099511 -0.00881858 0.11235515 -0.10637901 -0.4069126 0.10722114 -0.9191201 -0.08465934 0.16411015 0.5418268 1.2883623 -0.18476957 -1.279011 0.046438515
BUB3 -1.2634177 0.6280828 -0.0050964775 -1.114112 0.49842718 -0.8107954 -0.5571153 0.09013209 0.5438314 0.06321171 0.27030718 -0.18269235 -0.23127015 -0.053648602 0.52050835 0.047606334
CCNA2 0.39385518 1.5934727 -0.4399897 0.7198413 0.1843347 -0.3171338 -2.427747 0.27478644 0.102670476 0.11002004 -0.92271304 -0.25624648 -0.099266775 0.16012254 -0.13554615 -0.016961185
VWF 0.65243536 0.12219627 0.19730653 1.3736042 -0.08261117 -0.016012318 0.3388485 0.305843 0.6192798 0.2281125 0.55852306 0.45923465 -0.096500814 -0.8798811 -0.16741343 -0.14512275
SEMA3F 0.5092702 0.71384335 0.34681013 0.8817583 0.90332365 1.4435141 -0.12170981 1.3795191 -0.24581274 -0.07101496 0.12660803 0.64933103 0.21138369 0.65158576 0.05395651 1.2388014
SMARCA4 0.1437701 -0.33828717 -1.5382715 0.10041267 0.2770308 0.2617185 0.4986235 0.1406157 0.6051463 -0.54544604 0.00013311696 0.668927 -0.94887406 0.7820405 0.48374236 -0.2760727
SNRPA 0.49674776 -0.18981043 0.33134696 0.34215376 0.13356057 0.9467264 0.40906176 0.7997208 -0.33243215 -0.046474967 0.52470636 0.7076535 0.025270892 0.5703343 0.5731713 -0.2914624
C12orf75 0.7795627 -0.86660504 1.0198606 -0.1812534 0.66120803 1.3127478 -0.3757742 2.0194051 -0.1532945 -0.636524 0.8527711 0.4360443 0.39161542 0.40059814 0.050360117 0.1927871
RPS20 0.5605746 0.67717266 -0.3645525 -0.31686762 -0.0043262355 -0.95668757 1.1303077 1.2807692 -0.1673789 0.3762102 1.486911 -0.021152087 0.3021185 0.72790676 -0.41905484 1.0414568
PLCB2 -0.14324944 0.09558548 -0.08913887 0.2960334 -0.00070676993 -0.17304304 0.3495576 -1.4800221 1.0330335 -0.123181544 0.09703409 0.67790896 -0.05122845 0.5893381 0.25994352 -0.097535014
CENPQ -0.17594467 -0.28970993 -0.14670509 -0.049974766 -0.18501547 -0.23631746 -0.57222515 0.10832509 0.5545197 0.08015819 -0.012552444 0.40126014 0.96080726 0.85617125 -1.0566595 -0.33873713
PTPRG -0.2307219 0.035227016 0.59940636 0.05069675 -0.017717056 0.28089094 0.0959544 0.028982526 -0.90856564 0.054538958 -0.9029673 0.37706357 0.33226258 -1.0237402 -0.089308105 0.40971375
STRBP -0.29770052 0.22674409 -1.3143327 -0.008507457 -0.011661978 -0.059780758 0.5302948 0.14161396 0.42549613 0.6414497 -0.62285066 0.33919606 -0.10768222 0.31215417 0.7155237 0.22386225
SMARCC2 0.044539463 0.8601478 0.2880218 0.24166115 1.1620818 0.29989958 -0.19690274 0.42392203 0.4752238 -0.16474189 0.06779404 0.40536112 0.37558997 0.50100887 -0.35846165 -0.09706937
CDKL5 0.7841568 -0.6235061 0.6178776 -0.0077889757 0.08021713 0.6264011 -0.6481381 -0.016792525 -0.4306498 -0.21340482 -1.8817368 0.30538368 0.5587581 0.3222566 0.8510085 0.49328095
SLC7A6 1.0392345 -1.3772289 0.645616 0.05494819 -0.014776292 0.23485886 -0.7177865 0.37169963 -0.15400799 -0.028857013 0.3719883 0.54853606 0.42005858 0.32247406 0.06717463 0.09557723
TGFBR2 0.60519475 0.31492782 0.39975813 0.58731633 -0.06478668 0.29210806 0.5904973 0.10604719 0.2395316 0.44166163 -0.0049334597 -0.29847562 0.006074978 -0.16804837 0.3988273 0.45070708
HEY1 0.12808324 0.44843343 -0.3638699 1.4174484 -0.036194414 0.016641239 0.37894446 0.38260055 0.40923163 -0.0443543 0.18989632 0.48497495 -0.05876273 0.5223597 -0.094833106 -0.16783422
STEAP3 1.1470598 -0.3284759 0.6476857 1.319664 0.5880201 0.6265484 1.0705432 0.04112557 -0.22148313 -0.17783311 0.4038718 0.4396963 -0.16786341 -0.964646 -0.46969378 0.66674936
CUX2 -0.17829548 0.57127464 0.096153595 1.0328696 0.07166762 0.030526057 -0.14945339 0.20816652 0.26555043 0.021428196 -0.044080038 -0.41415957 -0.23158076 -0.20513487 0.0057826345 0.66870695
RDH16 -0.6031835 0.4570973 0.02893802 0.1948062 0.22036447 0.24173185 -0.57726693 0.2048688 -0.561344 -0.1398073 -0.0021609846 1.0902064 0.95676553 0.1164141 -0.3926534 0.18859866
MASTL 0.056119878 -0.21020839 -0.28368127 -0.008530813 0.7071327 0.0020976763 0.2799328 -0.17548944 2.18135 -0.16411616 0.032075733 -0.5559592 0.96743107 -0.17647725 -0.064850755 0.46166968
UBTF 0.34070122 0.5999326 0.45999667 1.2835642 -0.19852825 0.20690775 -0.6789772 0.26476684 0.5827103 0.6806671 -0.045098335 0.5966468 0.13717306 0.3268433 0.07269595 1.0481524
SUPT4H1 1.070293 1.2157525 0.7270644 0.22911784 -0.054756742 0.17300107 0.5950996 0.24998298 0.15979837 0.08721478 0.98189986 0.24208419 0.84348094 1.0570549 0.44834295 -1.0939137
MAVS 1.405779 -0.86535037 0.48696345 -0.0060266005 0.052208684 1.0818975 0.5063055 0.39491075 -0.21838115 -0.042212762 -0.42666984 0.625664 -0.024981432 1.6766618 0.019642781 0.064198464
TTF2 0.30231205 -0.30984735 0.325654 0.123212256 -0.001662723 -0.2101979 0.53856665 0.16313751 0.88995516 0.667309 0.3344408 0.2527712 0.9375697 0.4933319 0.66320664 0.2098993
CDK7 0.057399753 0.1152696 0.10097535 0.09772852 0.3800348 0.37535137 1.6011213 -0.0507256 0.5279107 -0.28581923 1.4374765 0.5471555 0.26492298 -0.06631449 1.0772593 0.14069715
KDM5B -0.412316 0.93060344 0.015042934 -0.59525865 1.0586405 0.08388666 -0.54679376 0.46683696 0.06025104 0.07708613 0.01649748 0.8203677 0.1469465 0.17341089 0.16584176 0.46411777
GNB1 0.36640024 -0.8154805 0.2957872 -0.008245933 -0.39157772 -0.13522099 0.6399219 0.031759053 0.8070858 0.24104965 -0.37134725 -0.03083987 0.25006905 0.44297865 0.54650533 0.09687762
ASH1L 0.16817334 0.28932878 0.3911984 0.11664326 0.9813383 0.45187268 0.325394 1.5542221 -0.04943701 -0.6275912 -0.38572076 -0.6058629 -0.017479917 0.5199569 0.25341168 0.77297974
CBLN2 0.097941406 0.5615657 1.8342034 0.90300554 -0.058185488 -0.0557781 0.097203426 1.0890496 -0.01766427 1.1873486 0.076389186 -0.010535856 -0.019638704 0.48917764 -0.70095694 1.6130396
DLEU2 1.2882174 -0.17430606 -0.2157391 0.2884001 -0.028699305 -0.15843059 0.22013007 0.18497042 -0.51089245 -0.08543233 0.74872905 0.042738494 0.20853327 0.8442195 -0.29249665 0.15594602
SMARCA2 0.09491772 -1.4887178 -0.48701587 -0.019716583 0.19097564 -0.09390778 0.8589495 0.36572093 -0.9202197 0.033037588 -0.18564926 0.0652337 0.39868104 0.034215055 0.10224481 -0.14830533
TCF7L2 0.701526 0.0535377 -0.6165027 -0.030076016 -0.12000473 0.33309078 -0.21615197 -0.35150233 0.34577167 0.18737628 -0.068774335 0.20917346 0.5012834 1.8551657 -0.33323583 -0.041848753
RBSN 0.3373153 0.12236236 0.44911593 -0.055268127 0.8190639 0.1317474 0.11147008 -0.22492398 0.91168815 0.7005138 0.046026338 0.32370755 -0.37282318 0.38684127 0.9962786 0.92239535
CDCA3 0.013761683 0.7802755 0.40559253 1.4424387 -0.012134981 0.0877225 0.5429312 -0.44951075 0.4723442 -0.013602186 0.053188115 0.26505348 0.09051398 -0.45230103 -0.49031144 0.33924767
COPZ1 -0.4406932 -0.10853146 0.47782698 0.9633946 -1.1320722 -0.17990978 0.69032407 0.061248995 0.24257076 -0.08644507 -0.0036574549 -0.06188885 0.23907226 -0.39830428 0.08010891 0.11298896
PGM1 0.42663622 0.0077975695 1.2349539 1.2072729 0.040430754 0.15682387 0.40398028 0.5014246 0.11328869 -0.7164853 0.004351466 0.61175436 0.7028392 0.83617043 0.11103081 0.22982587
GOLPH3L 0.1530642 -0.012610361 0.08979792 -0.2672576 -0.009693525 0.2282925 2.2372742 -0.7427533 0.04043939 0.15291362 0.006693017 -0.080620885 0.48310202 0.07227923 1.5943278 0.35139975
ARF1 0.29040596 0.25891736 0.29296982 0.35074133 -0.031681646 0.44267905 0.6296032 0.23175292 -0.004259147 -0.03167955 0.011803979 0.31777212 0.28595906 -0.13030082 0.09734772 0.24350964
TCF7L1 0.8603809 0.14903508 -0.26124138 -0.22645664 0.008417018 0.1777068 0.7337611 1.1177503 0.6121051 0.17678748 0.18270376 0.23675713 0.05754801 0.7063054 -0.28707078 0.4283991
HPX -0.13238263 0.69132805 0.16786447 0.36708462 -0.017831648 -0.045915645 0.49926743 0.43366864 0.20348978 0.49238276 0.14860134 -0.09637427 -0.08257049 1.4631077 -0.3587635 1.2028093
NME1 0.3899855 -0.17849392 -0.13610174 -0.2875146 -0.050353315 0.12524174 0.7590053 -0.26948932 -0.48625377 -0.056125104 0.44303778 0.18845408 -0.007342985 -0.1381243 -0.35139892 -0.020540597
MAP2K2 0.33578992 -0.9951596 -0.079420365 0.03725468 -0.15774953 0.004117327 0.16407749 -0.15918756 0.37547696 0.14888407 -1.2511463 -0.9560308 -0.13027667 -0.658653 -0.37237552 0.31154037
SLC7A8 -0.8200085 -0.2848982 0.086177066 0.2968011 0.06355524 0.0076216646 -0.38888323 -0.37797752 -0.20809302 0.008882071 0.15361801 0.23248148 0.085313655 -0.07667076 -0.18819086 1.8408289
PPFIBP2 0.3328312 0.22686872 -0.16480528 -0.49634 0.7962811 1.8517857 0.43185824 1.9134214 -0.51500005 -0.35317463 0.6017491 1.15108 0.04787448 0.43104145 -0.10106962 0.18130599
MED30 -0.25020882 0.207003 0.046370476 0.25387815 -0.016223093 0.04484008 0.9008622 0.3888475 0.51473314 0.12551597 -0.5336618 0.7283511 -0.0093831 0.050963253 0.3692464 0.100581415
ACYP1 0.24020699 -0.13213135 1.2059897 0.6060988 0.84972763 -0.04626546 -0.5063869 0.24152307 -0.51046085 -0.31891978 0.35975233 1.753299 0.8213662 0.8642669 0.26067615 0.8049672
NEK2 0.30798736 0.059320148 0.92207927 0.7052033 -0.013752433 0.10726913 0.5617702 -0.15662673 0.027485544 0.1491286 0.12141643 0.5634495 0.48752108 -0.4381018 0.39270526 0.37927228
WNT10B 0.9808605 -0.32503074 0.14981572 0.25786427 -0.016505998 0.07071976 0.7605661 0.3361911 0.6547978 0.40737668 0.0064716134 0.17047144 -0.1958598 0.5386818 0.08546816 0.77973914
MELK 1.5210565 0.07809626 -0.1420025 -0.8853632 -0.029156633 0.0055652717 -0.31999332 0.4569722 -0.22435091 0.03799495 0.62589836 -0.19582859 1.050213 0.8218177 0.26257265 -0.13853376
DCK 0.024708629 0.03189651 -0.9077006 0.13755868 0.44911048 0.03870795 -0.8135029 0.3692484 0.95557946 -0.0057425457 -0.013588143 0.5618111 -0.40838355 0.8127715 -0.25504512 0.46159035
PSMB4 0.4719055 0.02159571 0.004223253 -0.8055203 -0.017263873 0.16904134 0.9535663 0.19419035 -0.1892813 -0.21583404 -0.07413386 0.3745018 0.13935323 0.76149625 0.35201278 0.353074
IFFO1 0.5099658 0.8448982 0.012687504 -1.0542536 -1.7765292 0.014503726 0.6123111 0.22518751 -0.10378081 -0.009598713 0.32473174 -0.31601754 1.623189 0.43904564 -0.0007841359 -0.021934917
YEATS2 0.46611398 0.59760123 -0.009810794 0.034978133 0.9894424 0.50955075 -0.53435516 -0.05161686 0.61956286 -0.15696801 0.12921363 0.93301845 -0.32244354 0.23707029 -0.05206743 -0.080553636
CXCL14 0.14613952 0.3213237 -0.11655428 -0.17826611 0.6788715 -0.53240633 -1.4325715 0.50424224 1.0771817 -0.62912935 -0.80068386 0.14557542 0.1244689 0.27972507 -0.27073553 1.3112795
RNPS1 0.0801695 2.0690913 1.2181623 0.7092406 0.7008425 1.3568854 -0.2210389 0.4357701 -0.33254138 -0.6320051 -0.013149952 -0.044882275 0.9428645 -0.5811238 0.23706314 0.078718826
SNX30 1.3698033 0.32558784 0.8359724 0.60412246 0.045292217 -1.1889973 -0.3214638 0.4103436 0.13510503 0.023830451 -0.006055435 -0.2273253 1.3109931 0.9707623 -0.07612891 0.30864543
SMC3 0.19955352 0.20327386 1.1840082 0.012281598 -0.06421884 0.083060935 -0.0718091 -0.92683804 0.08163872 0.115438536 0.0046146926 0.1707467 0.7826212 -0.88406 -0.04658762 0.371222
UROC1 1.2373712 0.31572038 0.09554006 0.51112247 0.16178843 0.16859132 -0.3537687 0.49436176 -0.8414789 -0.31327757 0.70145255 0.13786745 -0.10760055 -0.3270325 -0.12505576 0.9952153
DUT 0.30609745 0.55993575 0.07391895 -0.33937812 0.023682373 0.095582694 0.12535815 0.92941177 0.1829318 0.2735596 0.016112357 -0.19111383 0.2579905 0.38154265 -0.03910953 0.48596922
GSTT1 -0.15106249 -0.49810824 -0.9764088 -0.035405673 -0.008163228 0.024612313 -0.06547634 2.4173853 0.6001733 0.12399098 1.104855 0.1217615 1.273415 -0.30362037 -1.3173249 -0.063088045
PTPN13 -0.060229454 -1.3001676 0.2602546 0.007193726 0.012409515 0.91335905 0.9122354 -0.12633494 -0.9458812 -0.0901924 -0.030533317 0.5885526 -0.06803813 0.41378477 0.7066739 -0.50627524
ACADM 2.0985515 0.25527403 0.3257121 0.026057879 0.059769496 0.7479896 0.5656342 0.5294034 -0.105594784 0.2507524 1.8427218 0.75111103 -0.107548416 -0.010018687 1.0810748 0.2699271
WNT6 -0.13117759 0.8908198 0.31179935 -0.4478714 0.20194414 -0.5687655 0.6867528 -0.976199 0.02600367 -0.80466753 -0.48656774 -0.18788856 0.8088418 -0.23720066 0.4510393 -0.38541552
ARIH2 0.5702827 -1.1373 -0.01788089 0.17980509 0.7230557 -0.8281535 0.25168476 -0.536558 -0.076471694 -0.14434576 -1.0949159e-05 0.037949562 -0.10011687 0.6016058 -0.2076997 0.09134839
MT2A 0.2962114 -0.20263022 0.12806286 -0.2238789 -0.071365036 0.16651662 -0.22493683 0.43063042 0.7277771 0.25236645 -0.0030029176 -0.47184777 0.07397519 0.1539786 -0.06431702 0.4339067
PRPF19 -1.3259499 -0.58984286 0.8999829 0.43600184 0.9507559 0.62611717 0.42340356 -1.0809155 0.08656398 -0.32922596 -0.30879053 0.3638485 -0.16597955 -0.033974066 0.47480336 -1.0081024
AP1S1 -0.2153322 0.5831029 0.07708782 -0.68376154 0.8680702 0.8976236 0.76524526 -0.032460667 -0.21117829 -0.20814288 0.06469249 -1.5352426 -0.443986 1.0473409 0.60437715 0.30377424
WNT16 -0.10045484 -0.051641904 0.030722708 -0.326221 0.20968837 -1.0669265 0.3905274 -0.3147425 0.47216102 -0.049546987 -0.14907464 0.24211589 0.099342264 -0.17431508 -0.8795472 0.7323177
USP43 0.5004027 0.077368096 1.1328632 -0.6534092 -0.01720912 -0.6896304 0.47609124 -0.3745582 0.51167285 0.55838245 0.012688884 -0.73155946 0.2601841 0.723548 -0.47127327 0.76031846
BEST1 -0.6992743 -0.20901024 0.50282735 -0.27081004 0.061149582 -0.085552394 0.79041946 0.23765048 0.63304836 0.10579493 -0.035121027 -0.17623612 0.18720523 0.6018561 0.398732 0.42264333
ELK1 -0.063575864 0.53988093 -1.2203839 0.57359356 -1.4617126 -0.27811387 0.6483314 0.9930266 -1.4316742 0.9675763 0.18716916 -0.36726356 -1.5903641 0.8194221 0.54762477 1.376197
SUPT16H -0.11803594 -0.7155538 0.021734603 -0.10480729 0.78506106 0.03089263 -1.359958 -0.27259156 1.1610343 -0.1628126 0.03655129 -0.07078912 0.10607757 0.13310772 0.16557373 0.031888455
TRPV4 0.8870977 0.15671812 0.0029727942 -0.042478453 -0.014066551 0.3208171 0.6577912 -0.21852443 0.14416446 -0.2457785 -0.015244873 -0.15413955 -0.12620296 0.2128179 -0.4054222 0.006221126
NR2C2 0.26237085 0.34471807 0.013352078 -0.35219476 0.47543615 0.8381349 0.26902398 0.96680856 0.49935418 0.4314112 0.19990532 0.45709696 -0.5734967 0.09848891 0.21531893 0.07033233
EIF3D -0.06854529 0.33561927 -0.1773882 -0.26684096 -0.14489996 -0.20528716 -0.28191933 0.14227074 -0.055623535 0.89286417 -0.10677009 -0.2557451 -0.39029127 -0.07925503 0.060988203 2.618428
TNF 0.38534397 0.23998602 0.046951428 -0.63176733 -0.024622902 0.5463865 0.44228274 0.24393688 -0.9780926 0.013563303 0.0984443 0.74776113 -0.00069921196 -0.051172953 0.19553143 0.02563385
BAX 0.21388255 -0.16295172 0.0001427813 -0.030050881 -0.0020358043 0.019468017 0.9645955 0.3908003 0.11838807 -0.41404787 -0.2736662 -1.3297448 0.5166397 0.6247917 0.39202482 0.085993096
SLC25A20 0.36174634 2.166503 0.13764082 0.74364525 0.20779553 0.09427639 -0.77650183 0.13843332 0.4728106 0.04724823 0.75897336 0.11951002 -0.0063316696 -0.14465316 -0.57190627 0.20793827
GADD45G -0.49759012 0.048619512 0.20736074 0.1602117 0.005013413 0.43766522 0.6967334 0.15075745 -0.23641439 -0.6948537 -0.06068906 0.26097694 0.09376961 0.56361765 -0.37938246 0.34780768
E2F8 0.3041119 -0.2705436 0.32876673 0.14846557 -0.005562949 0.14128423 1.4095061 -0.1776201 0.66474354 0.03499605 -0.009304069 0.08377068 0.13750382 0.34589761 0.5556191 -0.159961
RAN -0.9817292 -0.006208024 -0.6429307 1.0418926 0.21430095 -0.07217834 0.45547554 -0.15986437 0.73421854 0.019580953 -0.085224584 2.4118092 -0.019362967 -0.12814876 -0.68382823 -0.77830493
ANKZF1 0.0062901224 1.626772 1.2892835 -1.2174612 0.13179764 -0.23884852 0.17744938 1.3352981 0.13818781 0.814613 0.3740975 0.43451366 -0.2555731 0.23141997 0.012773406 -0.047690272
FAM83H -0.67912376 0.13500902 -0.31241858 -1.0570349 0.66075224 -0.29681656 -1.4646202 -1.0172149 1.2220019 0.022600727 0.017483173 0.15926704 -0.11898916 0.1969155 0.23956412 1.0719118
SFT2D2 0.40159845 1.4682364 0.009882548 0.1399538 0.42461944 0.2609046 0.40724632 0.19395466 0.25283876 0.008087166 -0.010643458 -0.0017863564 0.35495558 0.2768751 -0.15188047 -0.37294394
CIDEB -0.046777565 -0.46599787 -0.082764484 0.025755592 0.87597007 0.57672906 -0.21117267 -0.03623713 0.5596819 -0.23657212 -0.6341281 1.0636771 -0.8914051 0.41873935 1.2279303 0.077946596
METTL3 0.06880831 0.25375882 0.40588334 0.2344886 0.0054199393 0.31895456 0.49350145 -0.5853723 0.20424311 0.5931711 -0.0021923077 0.10773691 -0.5500595 -0.2796991 0.4047562 0.68311536
METTL13 -0.4605207 -1.1705642 -1.0706253 1.7917912 -0.000250283 -0.061090145 -0.053909514 -0.47000054 1.2637492 0.03361588 -0.0112867765 0.6943282 0.3355473 0.61636895 -0.81898457 1.1507401
NAT2 1.0097526 -0.87305063 0.39793253 0.13659503 -0.0054195398 0.62556386 0.45349365 -0.9908759 -0.14809762 -1.0378811 0.0027476938 -0.2403038 0.010366549 0.07849444 0.21170427 0.5628292
TPM3 0.26887375 0.2783467 0.28173715 0.20139393 -0.052008875 -0.24773964 0.2424075 0.42013168 -0.6138334 0.2962953 -0.00060392707 0.14264962 0.16619135 0.23364143 0.22121778 0.11295747
PCSK6 0.6867222 0.3457042 0.39637965 -0.030087013 0.46654564 0.025316237 -0.5796562 -0.10707718 -0.32071793 0.547251 0.21625292 0.018423233 0.6630772 0.5318046 0.79164815 0.3388832
SSRP1 -0.7778353 -0.1689725 -0.14737713 0.45869493 -0.113025695 -0.14047904 0.10198717 0.072006114 0.20359856 0.15438482 -0.22759506 0.22685024 0.16556394 1.304235 0.48096144 -0.049674977
STIL 0.8413075 -0.5119738 1.5012841 0.7730965 -0.25103372 0.19864215 -0.08225038 -0.44747856 -0.1894394 0.07663576 0.8696288 0.21435738 -0.14256236 -0.21942668 0.2222782 -0.120926835
TINAGL1 -0.17652439 0.56388676 0.21739665 0.675325 0.2747434 0.23525852 0.3828092 -0.2076789 0.27838528 -0.066397466 0.58738804 0.40934932 0.010461314 0.10868026 0.26327384 0.39177018
ACTR6 0.7529558 -0.651652 0.3200373 0.6960422 1.1781341 0.9218432 -0.28531143 1.1434822 0.57222027 -0.5962614 0.07650938 0.928694 0.14749344 0.9037872 -0.4797015 0.1315724
CUL4B -0.16170673 0.2973145 -0.21802202 0.15580824 0.5659307 0.14829905 -0.04551751 0.34044874 0.6216876 -0.16291338 -0.050508395 0.36259404 0.03918097 0.26397416 0.10989101 0.26554903
FAM91A1 1.5564417 0.1737255 0.080654204 0.057996616 -0.010581572 0.37125736 0.9308913 0.56630373 0.3359569 0.65303636 0.77923524 0.34475076 -0.22622307 -0.37408397 0.43797466 0.08098497
ARMC6 -0.19449657 0.89159805 -0.09265953 -0.5324169 -1.1476332 1.6523144 1.0445052 0.186693 -1.4860452 -0.5174658 0.03950855 0.051337153 -0.03659697 -0.1260795 0.65132177 -0.049719386
MAP3K4 0.6288757 0.41561082 0.46970817 0.1429995 -0.05380536 -0.14906232 0.485311 -0.28851926 0.4713871 0.57508105 -0.01194924 -0.85113066 -0.11229106 0.55133265 0.33131695 -0.11319711
NACA 0.32258645 -0.23658098 -0.23259808 -0.05638806 -0.022747312 0.24084672 0.28883588 -0.07042754 -0.21630962 0.046620786 -0.012207822 -0.12951301 0.37692574 -0.3737029 0.36269662 0.10219591
RCC2 0.42968872 -0.34981176 0.3486814 1.0140297 -0.20066004 0.10512685 0.8191691 -0.48826036 0.037229534 -0.47267842 -0.024906756 0.5355038 0.18497264 0.4660947 0.113840386 -0.15837765
SUZ12 0.30128384 0.098451756 0.24618354 0.005251636 0.32977632 0.5035258 0.36097884 0.0853574 -0.0798021 -0.54949045 0.0907546 0.30086443 0.5075461 0.3053795 0.76769364 0.27515525
PDGFD 0.27435362 -0.75782317 -0.17664666 -0.14597829 0.27245933 0.117554314 0.49534935 0.3540949 0.7908984 -0.013858905 -0.0065350854 -0.5962383 -0.48045874 0.47706908 -0.99373305 0.25951046
CYP1A2 1.325744 -0.079549655 -0.18524587 -0.123027064 -0.017818263 -0.4957561 1.1742232 0.84317386 -0.45012715 -0.85400605 -0.008338844 0.09525332 0.4554926 0.98567426 -0.31721008 -0.096026756
UGDH 0.3637943 0.7019318 0.25103778 0.040361952 0.06050186 0.50480014 0.4014325 0.11294469 -0.17879911 -1.1873932 1.3951359 0.1406475 0.21633805 -0.010845251 0.60693 -0.6034991
KLHDC3 -0.12357715 0.101568006 -0.486567 0.18603988 -0.011485663 -0.15841742 0.69838566 -0.09836594 -1.5912646 -0.021959009 0.111081444 -0.023273895 -0.96610796 -0.47145283 0.33377653 1.1359729
EXOC4 0.55745536 0.011902595 -0.109234035 -0.074265175 0.30300662 0.4556415 -0.28367084 -0.19341348 -0.58484304 -0.09360789 -1.2000538 -0.11582584 -1.7352084 0.46167493 0.9933518 -0.14878374
TMEM45A -0.07712463 0.69124585 -0.12758037 0.38794854 0.35588756 -0.16821502 0.3829132 0.1018076 0.435771 0.40803 0.5886965 -0.08785192 -0.15434745 0.6123482 0.17637862 1.5634837
EGR3 0.25278813 0.51129836 -0.024155352 0.56011003 0.09803126 0.65667915 -0.2108549 0.3535194 0.4118689 0.43067983 0.01695824 1.163022 -0.9340412 -0.0700112 -0.21179073 1.2597331
RAD51 -0.2805854 1.9685369 0.3532608 0.030610472 0.8120797 0.07577461 -0.87159896 0.12316093 0.4518434 0.59819984 0.3675146 0.4637855 1.0094112 0.4991834 1.1504421 0.3865622
RNASEH2A 0.12210351 -0.00986161 0.004086101 0.03139703 0.52016616 -1.2430937 0.630508 -0.04893905 0.3614825 0.7772954 -0.012521556 -0.82264173 -0.6744144 1.0604029 0.7189386 -0.2197377
FCER1A -1.3343489 -0.16924343 1.5608531 0.9057386 -0.18369977 0.1647383 -0.074827544 0.40470597 -0.056243375 0.03717021 0.01351736 1.1598722 0.8321626 0.0068363096 -0.24035726 0.13737611
OTUD7B -0.018537248 0.2964142 -0.24935608 -0.0385274 -0.027459417 0.10216008 1.3648455 -0.7103155 0.2569568 0.07307973 -1.6309133 0.7596379 1.5890784 0.052048013 1.2403469 -0.63561356
CSNK2A1 0.5166852 0.65614814 -0.28278154 -0.23363177 0.021498026 -0.52287185 -0.0010629632 1.0453837 0.57556033 0.4563284 -0.034563012 -0.2105193 -0.06641519 -0.10876564 -0.08622682 0.41605595
ADSS1 1.275163 -0.692973 0.4351426 0.16223705 -0.045699067 -0.25726527 0.45919064 0.5963051 0.46941122 0.24322665 0.28478763 0.59357363 0.22150369 0.43591315 -0.8134911 -0.07739566
CSPP1 -0.57922435 1.2124553 -0.020100426 0.45011693 0.4942225 0.2208935 -0.15913114 -0.23464653 1.0769355 -0.17212366 -0.5885986 -0.284903 -0.21532643 0.1719154 -0.25166067 0.42250723
TRIM22 -0.23724237 0.20773874 -0.12094056 -1.1413457 0.72758585 0.1157426 -0.8997078 -0.7430995 0.7316587 -0.8346381 0.071988374 0.14937508 0.44656652 0.5382751 -0.23415048 0.9435342
UBE2T -0.2468282 -0.09168891 0.04780269 -0.46439 0.69235194 1.4364525 1.0390695 0.41830847 0.043533474 0.559671 0.32906437 1.0719764 -1.9234766 0.13169484 1.7590905 -0.24660254
YWHAZ 1.2840254 0.50570893 -0.2842532 -0.26188472 0.116711095 1.1058671 0.3624711 -0.6897658 -0.2345535 0.094290085 -0.08813889 0.40076172 1.4584966 -0.37717593 -0.31959674 -0.1469815
MEFV 0.31696257 -0.021166904 -1.0967344 -0.2015872 0.35926813 0.85280514 0.20626599 -0.866777 0.5521563 -0.42787328 -0.39917848 0.4032269 -0.023769414 -0.0024019296 -0.999093 -0.020797037
FOSB 0.5870453 0.19421232 0.0129700545 0.36551687 0.057438202 0.8491182 0.8654627 0.3952766 0.999784 0.33082524 0.015068822 0.4305095 -0.053271726 -0.7716839 0.6426136 -0.31388253
PCDH9 -0.08047937 0.4125469 -0.3583718 0.9685044 -0.97024995 0.6054197 0.4623013 0.41005495 0.14512502 -0.38032627 -0.7187768 -0.4907867 -0.7750801 -0.9786224 -0.108608894 0.53466314
CDKN2C 0.3765962 -0.39883462 0.038309604 -0.3128006 0.11546286 -0.19490968 -1.5002775 0.32062295 0.6195254 0.04184206 0.037717137 1.584923 -0.10590964 0.67194676 -0.8725549 0.016051363
MKRN1 0.10467689 -0.45785818 1.0130488 0.09203246 0.80365515 0.5526328 0.28983238 -0.014214318 0.21988963 -0.16776513 0.027627654 -0.1619578 0.45462286 0.13482732 1.1658888 1.0929656
GON4L 0.651509 0.64632785 0.1958997 0.064516105 0.5182167 0.986756 -0.3487497 0.04153922 0.2882512 0.13151805 0.90107524 0.24846417 0.17932872 0.922125 0.5040866 0.061738357
ASS1 -1.0725721 0.5595764 0.26653102 0.28650177 -0.30797648 -0.31510463 1.2025026 0.35910472 0.38069552 0.4473915 0.08265337 -0.04154066 0.25779405 0.35374105 0.40221134 0.3254749
FYN 1.4941559 0.17533578 0.342044 2.1041296 -0.039800525 0.20441389 0.21301007 -0.2866826 0.19506548 0.8227175 0.26115203 0.69351447 -0.11139437 0.13447136 0.031791925 1.4025365
PLCB1 0.6557367 0.4165662 0.5422365 -0.86900795 -0.1317085 -0.26588544 0.4541825 0.08613695 -1.4025998 1.2131045 -0.92090493 -0.07996183 -0.054359213 0.84260416 0.6569331 -0.18493612
MUC6 0.18726632 0.35770044 -0.26735088 0.30444786 -0.3812034 0.13468057 0.6552576 -0.5437757 0.68114376 -1.3511107 -0.31803632 -0.59739107 0.27026552 -0.7487108 0.014057544 -0.13606986
SOS2 0.0359442 0.23391113 -0.08885236 0.011559161 0.3990877 -0.41204786 0.85231525 0.178226 -1.0367883 -0.0005007194 0.104917176 -0.056236524 0.3007829 -0.19192143 0.25115633 -0.1652344
HBB 0.51283187 0.08848238 0.110120445 -1.2479327 -0.47385645 1.0773851 0.6991075 -1.1233078 0.06628723 -0.10300606 -0.00599088 0.29381603 -0.34868956 -0.004710027 0.10223123 -0.44495967
NUDT3 1.423484 0.44277132 0.5110404 0.17435908 -1.0954943 -0.10343867 -0.25599504 0.5574562 -1.0159614 0.12876749 0.4451587 0.42887875 0.6286727 0.30952418 -0.6519682 -0.059417136
FTL -0.7913302 0.029790863 -0.9617213 0.22575955 0.07325755 0.18168852 -0.12650003 -0.7029813 -0.10600174 0.031289678 -1.0358273 0.4656595 -0.0056446125 0.9337216 0.31454328 1.7821164
TSPAN1 0.09861623 0.29754686 1.3138533 0.28421584 -0.074610524 -0.10026351 0.018130755 -0.4931619 0.09008954 0.7273781 0.024182964 0.27209502 1.1080105 -0.06098899 0.79184175 0.46366942
SMC2 0.16784446 -0.11612884 0.7437349 0.26162502 -0.5117905 0.4373603 0.47641596 -0.096267864 0.011423482 -0.32914567 0.32513937 -0.076045476 -0.1913581 0.39260796 0.2931911 0.45930377
ITGA9 0.51264423 1.0458825 -0.028122824 0.44749922 -0.0015116644 0.49227807 -0.014055665 0.21958017 -0.277449 -1.4113736 0.117650606 0.07395382 0.056921646 0.1250751 -0.29640904 -0.11819327
C3 -0.06542444 0.13382787 0.45652547 0.33419192 0.23707628 -0.1881127 0.22473598 0.24155547 0.25093883 0.08801735 -0.051133405 0.06600156 0.95153254 -0.2529327 0.05828535 0.11375228
COL4A4 -0.2571176 -0.31261665 0.2262557 0.05631031 0.0016132469 0.33598393 0.2064054 0.8857655 0.42242527 -0.0022237315 0.019652812 0.19876978 0.3158488 0.48310444 0.38599387 0.32138175
TCF3 0.28570318 1.3842124 0.064145826 0.0004918678 0.62945694 0.3013109 -0.9999151 1.5708683 -0.15290943 0.7514927 1.9316591 0.10356305 0.117219545 0.62208194 -1.0804586 0.615807
DUSP1 -0.48164648 0.64249796 -0.25533146 -0.18450192 -0.020400275 0.044280846 0.58530647 0.16876324 0.11786929 0.044549342 -0.026289543 0.1907073 -0.039458383 0.055539284 0.2542123 -1.081475
HDAC2 -0.26199865 0.004216245 -0.25605932 -0.7730354 -0.6033626 0.4614568 0.45872727 -0.2973237 0.1595186 -1.4893321 -0.19021495 0.96942234 -0.13480891 -0.12673846 -0.13942075 -0.1161754
AXIN2 0.06868057 0.186857 1.103607 -1.5147119 -0.020975536 0.0007204704 0.51874316 0.40404737 0.16304651 0.30861562 0.012484947 0.32746354 0.026899312 1.0376807 0.06403485 -0.94891816
DCTPP1 0.7345147 0.7807162 0.33806896 -0.21115813 -0.796766 0.4175086 0.21944663 0.28961706 -0.5252271 0.8072039 -0.0028164997 0.21011852 0.19571261 -0.79187864 0.1327027 0.35582283
LOXL2 0.39692765 0.19720371 0.13475741 0.08649318 0.16021219 -1.1235867 0.07212732 0.09233532 -0.63222295 0.06108867 -0.053375833 0.42945182 0.67220753 0.23500411 -0.15885235 -1.3267395
CDC25B 0.927278 0.4200912 -0.451648 0.11543946 -0.03517747 -0.21561617 0.4764202 0.48654395 0.7760262 1.854064 0.13348687 0.85525703 -0.28308392 -0.56762564 0.70872474 0.553129
ACAA2 1.2984498 0.40628794 -0.4963919 0.05315782 -0.20368896 0.06643456 0.1418755 -0.027765444 -0.5669213 0.07422326 -0.006480219 0.8231975 0.17750147 0.50069714 0.29032052 -0.10825387
DEPDC1B -0.50955516 0.4745629 -0.5008427 1.4784638 -0.154965 -0.19847423 -0.18202108 0.17534688 0.3940131 -0.0020724477 -0.38327864 -0.40279505 0.09721313 0.62106335 -0.0055222563 -0.982591
KCNN2 1.4029195 0.10359592 -0.08156741 0.055514984 -1.3588402 0.07949686 0.63965666 0.04399241 0.7025414 -0.24761711 0.8558325 -0.8541686 0.8529538 1.5218798 -0.034551002 -0.08327956
FZD5 0.04184943 -0.054887973 0.03323979 -0.00534841 -0.0760499 -0.16710198 0.37277386 1.7728449 0.43549228 0.40104005 0.34276685 0.22337666 0.076164044 -0.07502814 -0.03711613 0.26762158
PSMG3 -0.33071214 0.9501388 0.033440545 -0.7081442 -0.0033083935 -0.18172202 0.33032978 0.031246798 -0.20419203 0.14142352 -0.0040270416 -0.5076499 0.3332044 0.24887916 0.21469784 0.39336044
COPS7A 0.10120372 0.1999719 -0.07495551 0.004285253 -0.555018 0.055407412 -0.27775493 0.013861913 0.6075855 -0.118215375 -0.019340651 -1.0862255 0.45023584 0.18904746 -0.05433924 0.28318602
HMGA1 0.29214925 -1.0668344 -0.45411557 0.7233778 0.35621607 0.64022106 -0.26168922 0.06300773 0.22710232 -0.13544707 0.019545654 0.8356549 1.4393922 -0.41248137 0.26588506 0.763524
AGAP1 -0.070887804 0.4513001 -0.1009678 1.3338059 0.6005494 -0.06742546 -1.103384 0.3093159 1.3137937 -0.04360182 -0.022601625 0.50738287 -0.019394586 0.30291477 -0.0796706 0.5083324
TIPIN 0.35061833 0.85938483 0.07810712 0.41243026 0.27868605 0.6610847 0.40434858 0.2439786 0.037143603 0.23933761 0.13160887 0.53644824 -0.3390734 0.07529611 0.40625834 0.5401364
SPATA6L 0.3171356 0.28754133 0.26639432 1.0410687 0.41857123 0.4372261 0.28802377 0.6296917 1.1675218 0.86286443 0.034491066 0.60955137 -1.7950952 0.33176646 0.20588243 0.59589607
PURA 0.26534846 0.06826744 0.00033717434 -0.10745918 -0.8104967 -0.0871708 -0.47411868 0.49079955 1.1534207 0.3680457 -0.0111014545 0.22986823 0.07549463 0.75260186 0.08370931 0.27113697
ZFP64 0.28060922 0.098139 -0.26453444 0.008900325 -0.001961281 -1.6632481 0.4665787 0.4835539 -0.8074716 0.43183765 0.173699 0.13890763 0.09823929 0.9989448 0.26608557 0.09097504
SOCS2 -0.06383617 1.4929218 0.02974272 0.83017457 0.9840952 0.19323793 -0.101627834 0.5757452 0.7686569 -0.29478803 0.025431817 -0.040530115 -0.1421782 0.4326964 -1.4405488 1.8604946
SNX12 -0.46398422 0.07377365 -0.0011078252 -0.39137977 0.26475957 0.5178598 0.8099744 0.023195818 0.2125186 -1.8973626 -0.20510232 -0.08728481 0.6246131 -0.39683136 0.7158064 -1.1937262
NR3C2 0.19971904 0.35503328 0.08984413 0.17193983 -0.04915507 0.18551093 0.5493044 0.014758425 0.052810468 -0.67903674 -0.16911212 -0.049607594 -0.81015533 -0.17213205 -0.11845249 -0.14375937
CAMK2B 0.4661164 0.004505431 -0.2327226 -1.2672346 -0.0042388113 -0.07826936 0.57414484 0.29365158 0.43221533 0.59895957 0.61506736 -0.11370677 0.36210912 0.21264659 0.11802577 2.1914933
MCM5 -0.37834388 0.66680217 0.31491172 0.16732289 1.6970923 0.091461666 0.28372046 1.2369682 0.4880986 0.112457864 -0.3440333 0.13481964 0.02715277 0.5691815 0.709594 1.4407433
CSNK1A1 -0.18200932 0.532645 0.55339366 0.4720839 0.17214331 -0.35361993 0.29335436 0.50620466 -0.20010331 0.13645662 0.84472334 0.789532 0.3213996 0.48716986 -0.008822462 0.4831599
UNG 1.0687305 -0.076472156 -0.26699254 -0.043428034 -0.06182839 -0.14222242 1.3430982 0.17812201 -0.05845455 0.13702017 -1.2767192 0.038746912 0.5217165 1.2916156 0.51741874 -0.14501625
ALDH2 0.27289787 1.6767567 -0.13769935 -1.974277 -0.106992155 0.8491285 0.47350696 0.10169753 -0.7333416 -0.2818884 -0.07230413 -0.6438629 -0.9348374 0.056289803 0.19924782 -0.9320517
NRAS -0.0010909905 0.24496081 0.14556114 -0.8933126 0.79920024 0.14512707 0.22416955 0.514725 0.24140152 -0.043998197 0.20897938 0.6362878 0.23276761 0.8458505 0.6433944 0.46208686
PDE7A -0.61785555 -1.0330408 0.22131296 -0.022869075 0.448986 0.014859911 0.76585466 0.6044247 0.4867198 0.5203522 0.16576718 -0.47652373 -0.16865407 1.7438877 0.98874265 -0.25661916
GDI1 -0.020139715 0.26201484 -0.9690557 0.19450034 -0.04704755 -0.17226833 0.3366672 0.6684569 -0.49477476 0.06333423 0.017362323 0.03600704 0.29190108 -0.039499465 -0.19060312 -0.013114572
SNRPD1 0.103607446 0.013732249 -0.09053591 -0.31609845 0.28935653 0.9229124 1.6742911 -0.066878624 0.015244704 -0.7465715 -0.17769042 0.5871486 0.80931073 1.3063601 0.4158515 0.29352912
TCERG1 0.029664008 0.1773347 0.2871208 1.5785692 -0.06267318 0.9732532 0.65453094 0.77802956 0.6244298 -0.6998578 -0.15296598 0.118086286 0.067790754 -1.0907904 -0.2781011 0.5923799
BCL2L1 -0.53413033 0.47883788 -0.85833406 -0.015471396 -0.39988932 -0.02770297 0.40205336 0.49997646 0.4601379 0.37109408 0.013085869 -1.3647581 -0.05256827 -0.13550065 0.21038574 -0.19617277
SLCO1B3 0.050219506 -0.11798941 0.18269277 -0.67210436 -0.024773162 0.18275116 0.76935816 0.36106825 -0.46341813 -0.07274633 0.57375216 0.23634113 -0.08422405 -0.2049911 -0.52053285 0.18049474
C9 0.8146255 0.3756791 1.1148099 1.7200159 -0.21475378 -0.9351195 -0.04572985 0.7014556 0.14493185 1.1147141 1.7812961 0.2720972 -0.36868456 -1.0803713 -0.1244376 -0.23086162
LSM2 0.16057126 -0.100644186 -0.46480438 0.18035202 0.8834216 0.5122789 -0.13851537 0.93912363 0.47680256 -0.13334313 0.97265816 0.4533008 -0.47281772 -0.37835214 0.26724112 0.658361
PRKAR2B -1.7445843 -0.66601616 0.7206565 0.28892782 -0.30723244 0.88596934 1.0883348 0.3719331 -0.5685311 0.022734271 -1.1535151 -0.6238484 0.20299286 0.08162036 0.45649213 -0.027920116
TSC1 -0.13934089 0.13920423 -0.17380245 -0.14463072 -0.024096506 0.19810963 -0.37066194 0.39182144 -0.32010695 0.3734742 -0.03878692 1.3453304 -0.11814684 0.51918185 -0.2161123 0.1816173
NUP153 0.19930744 1.256401 0.051341202 0.21940172 -0.040378794 -0.028931586 1.4329885 0.33985692 0.36453074 0.5765662 -0.35519943 -0.03489719 0.10158686 -0.65774393 -0.21482763 -0.18603806
AKR1D1 0.7197528 0.77430457 0.5984259 -0.2692988 0.022194557 0.012566615 -0.16306025 -0.028932147 -0.54844093 1.2788597 0.057125807 0.1989295 -0.21618961 0.112988934 0.6905616 0.67480767
BMP5 0.10656962 0.6766126 -0.7561815 0.037376914 -0.113130115 0.27827525 -0.04937808 -0.07804426 0.46142104 0.40078583 -0.8646106 1.12723 -0.15334877 0.123230316 0.51815325 0.35399184
SNRNP40 -0.78535604 0.066279136 0.025295345 0.13602187 -0.019423762 -0.22671755 0.5487389 -0.45033297 -0.1407117 -0.00018855499 0.15279153 0.83571595 -0.20864782 -0.108858705 -0.899983 0.23827289
CTH -1.6164911 0.11611149 0.12168138 0.45861304 0.16586618 -0.025659442 0.29061803 -0.36998135 -0.19615132 -0.9420719 0.17506094 0.100552335 0.797054 0.3883221 -0.15458168 0.4648326
ACTG1 0.43448046 -0.119195655 -0.09689519 -0.3802293 -0.7829004 -0.35525045 -1.2053899 0.18457042 -0.3394771 -0.22412057 0.08396058 0.10018031 0.20273727 -0.6651173 -0.05543574 -0.21978413
PWWP2A -0.25512666 0.41247863 0.41289768 0.17607741 0.77103096 1.4538207 0.74482113 0.028833594 0.059813913 -0.07300204 0.22748765 0.8946474 1.2198552 0.3910978 0.8996803 0.6393068
TPD52L1 -0.21511549 0.5766589 0.33270574 -0.066951245 1.2726619 -0.04254489 -0.40944445 -0.30280298 1.4480518 0.9371836 0.11095547 0.5123324 0.64061505 -0.3539799 0.8950046 -0.033422746
LZIC 0.08931575 0.25275645 -0.040050995 -0.05675496 0.03269536 -0.1438089 0.20501553 0.50890905 -0.79425985 0.4082253 0.020622764 0.2541186 0.4027863 -0.12389961 1.5542531 0.10583068
ARID1B -0.33129606 0.22506365 -1.6333598 0.83398604 0.43522137 0.026973804 -0.13105656 0.6033387 0.43029273 -0.95411915 1.4837862 0.5782388 0.42729166 1.2002957 -2.137262 0.12414596
PLK1 0.45128465 0.33095223 -0.4186538 0.8405205 -0.14552486 0.71442354 0.4185068 0.83344305 -0.17860615 -0.067390785 0.108806975 0.49150512 -0.026700929 0.5393335 -0.094416216 0.24023302
CDK5 -0.33515155 1.7821014 -0.7771727 -0.023026712 -0.0040976726 0.0743908 0.5417096 -0.14788598 -0.43924624 0.1762234 -0.0013093906 -0.58139366 1.1366769 0.6190824 0.73096544 -0.09239319
