SMC4 1.0414298 0.9979666 0.5269643 -1.1947808 0.4729437 -0.35631722 0.51817465 -0.73200804 -0.13617894 1.1634132 0.40274864 -0.5677753 0.0029975562 -0.12536561 -0.020216532 0.33832908
NR2C2AP 0.82589924 -0.1014684 0.06270969 0.6537142 -0.0994631 0.24492544 0.44024086 1.1561917 0.55377334 0.9375931 0.5112777 0.8553249 0.05378115 0.45853373 0.029625423 0.42271766
DDB2 -0.5901479 -0.30097914 0.26967162 1.141529 0.04529131 -0.020059878 0.49167964 -0.0863935 -0.8048697 0.41024998 -0.13357522 -0.15044436 -0.3809193 1.5723689 -0.41740057 0.20208772
GSTO1 -0.21972488 -0.1052588 -0.058109213 0.46202803 0.03198125 0.65364647 -0.227727 -0.075834565 -0.68502593 0.28100547 0.081584826 0.9642404 -0.019501131 1.3071414 -0.4005937 0.86947
VRK1 0.8205876 0.37643406 1.6396732 0.8919695 -0.04780959 -0.0058153253 -0.31214938 0.8359663 0.13544475 0.46792763 0.5436539 0.11270308 0.23330046 -0.105125174 -1.2995182 -0.13969846
CDKL5 0.03162407 0.09308623 -0.5076151 -0.036735542 0.23033738 0.16882922 0.7402558 0.24974756 0.108862996 0.0052018343 -0.23111151 0.34871718 -0.89230585 -0.27267537 0.8027856 0.07013586
ZNF581 -1.6034698 0.36629352 0.42022672 0.075316265 0.48679 0.023243712 0.67612946 0.22370118 0.18350816 0.22615038 0.13185093 0.343302 0.16359924 0.6942133 0.3121067 0.4464141
MRC2 -0.58173776 0.14003043 -0.0772276 0.20058481 0.42433527 0.16906497 0.18861026 0.2517917 0.16945025 0.05679649 0.18163471 0.4332314 0.5389183 0.47819352 0.2801498 0.16556932
DUSP9 1.200681 0.19633508 -0.6248515 -0.30158192 0.49628806 1.0345843 0.32231268 1.0517875 0.49716032 0.87087786 -0.9319948 0.6101687 0.47670466 0.3950438 -0.12171298 0.73667204
MGLL -0.35676956 0.50504047 1.1513368 1.1482599 0.39022022 0.07240522 -0.080772154 0.45808882 0.16756779 0.6353978 0.018894956 1.0977956 -1.5749717 -0.004385809 -0.3148675 0.4129164
RMI2 -1.0288826 0.57342887 0.39003834 0.068718866 0.6616126 -0.07116647 0.56348246 -0.35478547 -0.7624917 0.89982814 0.84302384 0.31597275 -0.6630529 0.51943386 0.37889275 1.5225353
ACACB -0.008748056 0.15625322 -0.113372356 0.43856236 -0.25772575 -0.75264466 -0.48864213 0.08589574 -0.061476048 -0.6465754 -1.0619334 0.20676804 0.5534677 0.067462824 0.37395984 0.10008423
DNAJC14 1.0918071 -0.15192455 0.74900794 0.18766582 -0.37548247 0.009202913 0.754182 0.85501224 0.009916837 1.6897779 0.24319354 -0.24761732 0.14213763 0.57416195 0.96774924 0.37916648
A2MP1 -0.14266291 -0.1977787 0.11020945 0.06665369 0.45974576 0.410994 0.32024202 -1.4313956 -0.010636203 0.6410812 -0.8859444 0.89992017 0.21368101 -0.010375202 0.69351 1.1497247
ITGB3BP 0.015591154 1.1658075 0.51086336 -0.27275348 -0.04726269 0.007613212 0.47136188 1.3921899 0.12698478 -0.19577421 -1.1577458 -0.3317469 0.04253208 0.29318485 -0.067477114 -0.018756738
PRR14L -0.28354254 0.13621484 -0.04609063 0.15995264 -0.15084538 -0.0059946445 0.08175781 0.9497934 0.6941634 -0.023460817 0.4783866 0.4669891 0.02605399 0.32942376 -0.0689157 -0.030491894
FOSB -0.10434205 0.8167491 -0.81981903 -1.0953984 -0.9301008 0.16160548 0.28641462 0.11322689 -0.98484164 -0.027406845 0.60294676 0.101415135 1.0942235 -0.033478115 -1.2105427 -0.22378804
ZIC2 -0.73536706 0.7505583 -1.7199478 0.2752916 -0.16067727 -0.1153528 1.2620887 -0.15182258 1.375947 1.481311 0.38636538 0.3981649 0.3696533 0.8186172 0.15128757 0.2945585
F3 0.35645515 -0.27509108 -0.12805337 0.08099211 0.42588812 -0.020837916 -0.18415795 0.14684087 1.4836953 0.51649547 0.5828992 0.6479254 0.3615887 0.42492217 0.82123286 0.12190887
DUSP1 -0.00018331727 -0.15207928 0.31863624 -0.1944896 0.3285999 0.457523 -1.3902001 -0.46156943 -0.001799969 -1.2313486 0.32252285 -0.37043902 -0.07105605 0.13573357 0.6943558 -0.2511048
DUS4L 0.016781185 -0.0939424 0.5096562 -0.6212493 0.22760424 -0.0065515838 0.43344247 0.4354896 0.03405463 0.58818686 -0.84432614 -0.26060525 0.17566052 0.19543222 0.012157269 0.12995225
PBXIP1 0.29997143 0.20676878 0.37927407 0.40275386 0.10090607 -0.097020335 -0.05095372 0.3123566 0.2756478 1.1422733 0.39954504 0.57725054 0.45412624 -0.14366907 -0.11900347 0.10598248
TFPI2 -0.22580777 0.58261585 0.37565786 -0.40765703 0.42492965 -0.26450098 0.16922593 1.4306219 1.4280056 1.3831345 0.5286288 0.16597113 -0.93051827 -0.049103238 -0.13395704 1.339708
FARS2 -0.0029366321 0.18088596 1.6356194 1.3581762 0.35849088 0.010060531 0.3416891 0.40149128 -0.016056085 -0.41018406 -0.51231456 0.27611402 -0.048164733 0.45724982 -0.0163342 0.14191386
TCF3 0.22908568 0.34142905 -0.05275022 0.30585405 1.0115066 -0.33670202 -0.22349337 -0.08590008 -0.18268648 -1.6017091 0.0036281627 0.5195606 0.5282527 0.18354017 -0.11511087 0.17366675
WNT10A -0.0033870798 -0.26061505 -0.13732989 0.17933957 0.71045345 0.07604229 0.17995024 0.36020708 0.3492662 -0.69539446 0.5479806 0.62637746 0.09152563 0.16274087 -0.020507293 0.3467844
CAMSAP2 0.09772105 -0.47046012 0.018041218 0.33307287 -0.017145691 -0.01328546 0.20568372 -0.81751233 -0.062060833 -0.1360332 0.49865147 0.383029 0.5743528 -0.12881638 0.010530914 0.21616068
HGF -0.034655247 0.66277444 0.23922129 0.9700678 0.46292526 0.00016949594 0.5082864 0.54070914 0.046465103 -0.49230534 0.3319541 -0.38928494 0.10562084 0.7065967 0.3633571 -0.14733787
RPL23A -0.61848813 0.3728228 -0.24664603 0.24467851 0.21638244 -0.3074332 -0.05211497 0.4931912 1.0063958 0.6318879 -0.04515549 0.11362083 0.013717555 -0.24892965 -0.44608116 0.53985786
XPO5 0.35157984 -0.10263976 0.0341157 0.12729861 0.45724732 0.38273063 -0.5303361 -0.5881849 -0.36545253 0.1826098 0.50542504 -0.24264692 2.3494387 1.469517 1.5840584 -0.36940032
LIPG 0.8140818 0.4245006 0.16159084 0.070382714 -0.10571646 -0.036111224 -0.81245923 -0.2841777 -0.0224933 0.78207296 0.07917597 -0.3162416 0.14395136 0.09170084 0.28081918 0.07881966
MCM2 0.4049771 -0.01963523 0.03527804 0.2454853 -0.19601068 -0.12444253 -0.5484592 1.3075234 -0.3191355 -1.6227701 0.78743166 0.37421656 0.23927012 0.20265809 -0.026621254 -0.041004613
SATB2 -0.5176046 0.54661006 -0.04726909 0.12602194 1.009208 0.0063385116 -0.08414691 -0.2721016 0.54164255 -0.08798579 0.15614474 0.11841979 -0.94044805 0.24391311 -0.9735205 -0.09512506
ACTG1 0.65589875 -0.50235116 0.33913508 0.33449885 0.083343886 -1.7456894 -0.5839888 -0.2264336 0.24990307 0.47238865 0.85404474 0.15231615 0.61627716 0.28029782 0.8060368 -0.025913743
RFX5 -1.0451081 0.16039012 -0.5210261 0.69459933 0.023340913 -0.2991096 -0.12498006 1.1156335 1.493916 -0.41119456 0.6199714 1.2396994 -1.2464186 0.07303725 -0.26311398 0.011252112
SNRPA 0.9995524 2.014983 0.16533032 0.43678585 0.24546114 -0.034343403 0.3502658 0.09984188 -0.04011903 0.5367535 0.7480057 0.18849526 0.13821341 -0.090484045 0.14467688 0.34843606
E2F8 -0.07614056 -0.37493527 0.23384872 -0.120415956 -0.9380385 0.013960185 -0.0183634 1.5683916 0.01954524 -0.43572736 0.6040855 0.101755336 -0.014186709 0.12642142 -0.4718955 -0.21196982
UBE2T 0.12701146 0.1764343 0.3372384 0.45447835 -0.19398406 0.0008751232 0.6236968 -0.29953498 -0.009928687 -0.4128128 0.44309026 0.35212436 0.12098965 0.37686503 1.309882 0.096856795
EXO1 -1.0040164 1.74891 -0.19659823 0.36174074 -0.055238757 -1.3950305 0.78624874 0.14814933 -0.1644315 1.1416203 1.0882716 0.15704967 0.009612331 0.30883762 0.4419221 0.7520832
AQP3 0.19260207 0.20116872 0.03638976 0.050039563 0.08511888 0.021210188 0.34297574 -0.035965584 -0.34258893 -0.029016817 0.33144474 0.8861455 0.17988576 0.80749995 0.41651994 0.11649357
N4BP2L1 -0.50580496 0.23138672 1.3568653 0.35897383 0.3754128 -0.16674645 -0.40416396 0.45790946 0.22791232 0.52893865 -0.58637816 1.2900717 0.045626856 0.16265307 -0.17839485 -0.035925623
CNPY2 -0.012063718 -0.12995689 0.15444027 -1.27972 0.3997467 0.34859064 0.34383962 0.2849006 -0.22596689 0.3610507 -0.24889465 0.2772534 0.055015884 0.46908015 0.505654 -0.8090679
PSMG3 1.3742965 -0.7340599 0.64778787 -0.37628978 -0.12136282 0.22615701 0.5370448 -0.034532566 -1.9245226 0.02463088 0.7866813 -0.8843195 0.73833007 -0.11860393 0.61409307 0.4611509
AOC1 0.5257815 0.30651557 0.5831419 2.2021058 0.10808736 -0.004943582 0.5644641 1.0067525 0.1683925 -0.060264297 0.86154324 -0.10107781 -0.3852226 2.4621124 0.82826245 0.45287046
GDI1 0.1604118 0.09497947 1.0563624 0.89809144 0.6739579 0.61835575 0.104572594 -0.27065286 -0.57564706 0.5175442 0.07259399 0.12013714 0.23641536 0.03994486 0.5626982 0.7771475
STAMBP 0.4311543 0.47623798 0.7708497 1.5931437 0.23634012 0.19062923 0.37575564 0.27611622 0.29961294 1.1886519 -0.4042472 0.44389215 0.0065348065 -0.593138 -0.60266376 0.47189492
DMGDH 0.050197072 0.015688121 0.5053209 0.900167 0.29798213 0.20397237 -0.1742447 -0.67086947 0.03364275 0.33295205 -0.5341562 1.4224843 1.2728187 -0.23286241 -0.40179735 -1.3676269
BMPR1B 0.44870588 -0.1812893 -0.84500176 -0.069323935 0.7513956 0.6373072 0.026357755 2.2443328 0.43373832 0.35390204 1.3631592 0.32495818 0.17143427 -0.71147054 -0.09472317 0.2580771
ATP6V1F -0.01809371 -2.1989057 -0.61055523 -0.5673581 -0.09689826 0.2177435 -0.18007636 0.117463976 0.4317105 -0.08948409 -0.038659256 0.37203124 0.3386885 0.48785284 -0.23863454 -0.25320005
DACH1 0.06566156 0.31923985 0.45848975 0.94806355 -0.041702174 -1.5820372 0.6241031 1.3533082 0.002675546 0.13578133 -0.7074993 0.3473804 0.20953384 0.9422059 0.28255108 0.07879936
TCF7L2 0.16293526 0.6106029 0.16213216 -0.7088916 -0.15437283 0.043298498 0.56922275 -0.47067708 -0.13071106 1.0626429 0.3099773 -0.307082 -0.1114261 0.0643962 -0.4466356 0.66585827
YEATS2 -0.2984473 -1.1495557 -0.03643347 0.25810844 0.45807576 -0.3655391 0.2384369 -0.2639667 0.9503972 0.14882618 -0.28522503 1.4062219 -0.8655446 1.455936 -0.19062115 0.39416915
NFYC -0.093940586 0.09087273 0.26044244 1.26935 -0.1535237 0.06252514 -0.5743371 -0.1662772 0.23477724 -0.05912587 0.57786256 0.44958988 0.447767 1.0252254 -0.10300417 0.7256469
FZD4 0.036949575 -0.21052232 1.0310725 0.72724867 0.4892622 0.20165195 0.9511986 0.33117232 -0.6304136 -1.4464214 0.13059384 0.2768771 0.077958114 0.68533206 0.07226208 1.1636994
ACADS 0.0033910747 -1.2783839 -0.82282925 -0.08059995 0.44045496 0.04197386 0.46102798 -1.4626572 0.057842042 -0.053068522 0.7019521 0.7263729 -0.46476567 0.2192285 -0.28016958 1.0058798
ACYP1 0.65540785 -0.5120845 -0.50583637 -0.4347447 -0.7138505 -1.6067191 0.69282454 0.16018936 0.28138763 -0.11314243 0.4954479 0.83153695 0.5485939 0.20677169 -0.72765356 -0.11136867
LPCAT1 -0.21754284 0.15053378 0.51086384 -0.22578028 -1.4544718 -0.0074896864 1.3744731 0.5927011 -0.0075968895 -0.22268009 0.25209922 0.14261892 -0.033374507 1.2165416 1.1549424 -0.009960718
RANBP1 1.0776153 -0.33295 0.34448624 -0.15073788 0.6547561 -0.14125173 0.16554143 0.5364155 0.44441798 -0.2928477 2.0316615 0.28570908 0.40027097 0.7695285 0.5409577 -0.2765737
MTR 0.008306588 0.19839382 -1.3420911 0.09751669 0.50050426 -0.047973763 0.19524781 0.21727613 0.2319504 -0.21436486 -0.48365107 0.24069999 -0.012520511 0.5186829 0.3598899 0.001805119
LAMA4 -0.048400693 0.16619338 0.1923102 0.32292822 0.09618407 0.022421736 0.5885298 -0.16582412 0.014613479 -0.50084704 -0.017855491 0.35817182 0.0945962 0.9284865 0.11821085 0.10980224
CYP8B1 -0.0057917642 -0.17220035 0.33808458 0.05024212 -0.080834046 -0.07017976 0.8193022 -0.21669295 0.13477589 0.5242495 0.055011317 -0.25086144 -0.036332488 1.6202493 -0.10305055 0.28448308
PIK3R2 0.117873564 -0.85577375 0.6613331 -2.0039895 0.042274177 -0.014528688 -0.7559085 0.2658392 0.3775669 0.32992065 1.3333949 -1.0454968 -0.59411144 0.17287655 0.37787735 -1.3790429
HOMER2 0.14114079 0.2104481 0.22866952 -0.101637416 0.2788685 -0.011311916 0.092893384 0.22349538 -0.32319477 0.072945364 1.557117 -0.08371868 0.67824084 0.78424066 0.6034405 0.32186472
GEMIN5 0.01320687 -0.0465802 0.4242248 0.25251448 0.48947343 0.012273632 0.8726497 0.3462524 0.057164304 -0.08427521 -0.5241682 0.2822665 -0.00474423 0.708922 0.49707657 1.1049268
RBP5 -0.39915413 0.6557413 -0.69888955 0.31060606 0.45350617 0.1565726 -0.81601536 -0.16890931 0.69654167 0.3464014 0.2580956 0.25878856 -0.4555666 0.51424706 -0.058895778 0.015426174
TUBA1B 0.025185326 0.34713706 0.7248648 -0.41223028 0.2837253 6.9887086e-05 0.89329726 -0.65791565 0.012221456 1.6451744 0.31486925 0.35658234 0.08916224 0.30546352 0.55505276 0.49717814
RNF150 0.032693397 0.242137 0.5485544 0.44459817 -0.016486872 0.52288836 0.8868034 0.5969195 0.14859323 -0.1280015 0.49300706 0.06623209 0.035403807 -0.31042498 -0.8846334 -1.6119423
KPNB1 0.45249966 -0.09753453 0.40811622 1.0902175 -0.12647195 0.23770778 -0.026693208 0.4199483 0.5079515 0.9651954 0.44871125 0.30980933 0.18230449 -0.31073073 0.24553 -0.15592644
TIPIN 0.23200305 0.12591259 0.12960182 0.44568494 0.025566414 0.09865671 0.77263826 0.63168657 0.08530087 0.28938478 -0.5922368 -0.72605485 0.1628821 -0.5567117 1.3952851 0.03128309
AKT1 0.016294396 0.8631019 -0.21746057 -0.15221506 0.19776657 0.3668237 0.18986629 0.23990005 0.08255485 -0.407973 0.5944141 -0.42214674 0.37379712 -0.27167714 -0.07720905 0.07569281
LYVE1 0.30358452 0.21055295 0.8491868 0.9216664 -1.0200844 0.022728346 1.4096454 -0.35095507 -0.20754763 0.2891045 0.5467428 0.22270942 0.4710757 0.5567503 -0.07408344 2.9198992
HAX1 -0.4594271 0.115064636 0.6805388 0.2157904 -0.06924597 -0.2036581 0.7660156 -0.13325417 0.34414282 1.8996273 0.10316987 0.4115945 -0.58799225 -0.021823257 0.3325369 0.39399827
NAMPT -0.6268808 0.17050804 0.17316113 0.6613322 1.6546477 1.0049193 -0.118495226 -1.5162314 -0.03796308 -0.5346111 -0.12634574 -0.012575976 1.2128884 -0.26378238 0.65514815 -0.00012990506
REXO4 0.27128312 0.10466227 0.5276281 -0.30352184 -0.20854002 -0.18836538 2.3419979 0.85859865 -0.016194645 -0.24742624 -0.078425296 0.17456672 0.0016775194 -0.08132201 0.8188515 0.631675
E2F5 0.2967509 0.24866132 0.5955289 0.65980023 0.6405601 -0.24953403 -0.37688157 -0.9175637 -0.39980537 0.6817956 1.0106896 0.38162723 0.9048825 1.3227419 0.15721717 1.0866766
POLA1 0.3823695 0.13733287 0.5308494 1.5641493 0.24321479 0.2424097 0.35778442 0.4577343 0.012538452 -0.16062468 0.27236605 1.665482 -0.15052372 0.28874734 0.99689627 0.24502248
TKT -0.021049818 0.6297859 1.0011917 0.64030284 0.07006276 -0.0034917505 0.3323372 -0.039821103 -1.1769882 0.3376645 -0.1578909 0.0822424 0.03456011 0.84206796 -0.62752926 0.19959332
FZD2 -0.014433418 -0.66820157 -0.88633376 -0.11377699 0.40043885 -0.62708515 0.7062491 -1.1452733 0.89073676 0.42282778 -0.3464912 0.28015935 -0.21984977 0.006482458 0.28887036 0.35095972
IGF1R -0.15746692 0.47380593 -0.097348735 0.19229306 -0.18958144 0.2204964 0.47842425 0.5418332 0.016686417 -0.36308223 -0.16773291 0.3837728 -0.0842536 -0.009716239 0.24069126 1.6292778
DYNC1H1 -0.9756308 -0.21170287 0.11308654 0.6133987 0.78410167 -0.11132291 -0.23617487 -0.061375573 1.8110018 -1.0514567 0.383635 -0.55145776 -0.051880717 0.35059804 -0.13349718 -0.4772812
DDX20 0.017269842 0.08904509 0.6007418 0.37981054 0.10237991 -0.19013521 0.7229377 0.30480313 -0.06935063 -0.21100311 0.06460931 -0.19838017 0.18624109 1.1711748 -0.68254924 0.38527507
ZNF706 0.0042403773 0.34768105 0.20322074 0.6978199 -0.13298853 -0.53675926 -0.1753608 0.88937217 0.07086825 0.066006154 -0.48652598 0.9662372 0.15450068 0.22274159 -0.28769457 -0.004692275
WNT2 0.086159654 -0.19922131 -1.4298111 -0.13127366 0.62637067 0.5999131 0.046547953 0.7167476 0.65989757 0.3171862 -0.15507312 0.23196846 0.2681283 0.1903523 -0.13962731 0.002791399
STMN1 0.17708182 -0.6724532 0.071111396 0.12834686 -1.0633 0.0030571318 -0.08222042 -0.4214415 -0.0219391 0.12337666 0.27238247 0.61336046 1.2740407 1.5490375 0.14128818 -0.51826805
PDCD11 -0.009962439 -0.1519345 0.11235333 -0.593118 0.4061882 0.08050755 -0.33173028 -0.043729726 -0.40904987 0.15672746 -0.07626503 0.35196784 0.16750023 -0.19388793 0.010644531 0.18828367
NSFL1C 0.26619542 0.7804177 0.15191829 0.8901667 -0.16763018 -0.007685967 -0.019374382 0.2593961 -0.0101706805 -0.08359964 0.30119804 0.12144302 0.9338135 0.14077467 -0.10911684 -0.02618409
CBX1 2.3198805 -0.37906057 1.3665777 -0.3577673 -0.7328172 0.5244088 -0.31999153 0.14099257 -0.30908188 0.85628843 0.7497309 -0.57453525 0.9214434 -0.09719596 1.5831047 0.2266408
ST3GAL6 -0.31269205 0.38081163 0.09450323 -0.45041972 0.6056967 -0.019166384 -0.006034814 0.40568155 1.0904405 0.47150788 1.2415221 0.31021565 0.4401794 0.79461545 -0.09535471 0.381865
AGXT 0.38920084 -0.42056614 -0.2982738 -0.0044844523 -0.15487692 0.0065728235 -0.24982044 0.4032116 0.043105748 0.10941047 0.36976585 -0.51248455 -0.16368148 0.0580567 -0.020014988 0.30528036
ADAMTS1 -0.39637688 0.3074587 0.63367385 -0.18425387 0.09733609 -0.0026483268 1.5115676 -0.19049299 -0.38174713 0.22677504 0.17621829 -0.034534167 -0.13784942 -0.13908839 1.1712936 -0.7336217
SHMT1 0.09420929 -0.056176297 -0.24074265 0.37941375 0.47354344 0.36668134 -0.5663011 0.70957327 0.42710248 0.5906814 0.33474448 0.27985513 0.13408001 0.20147961 -0.17324781 0.58716446
STOML2 -0.04451346 -0.032948777 1.2183601 -0.017625002 0.55262 0.71429235 -0.3604325 -0.089395106 0.7604539 1.0961459 -0.37715346 0.30606717 0.16872501 -0.06608183 -0.006345312 0.15880938
TPPP2 -0.25100434 0.26902044 0.090665035 0.29492822 -0.15963745 -0.011454208 0.12256911 0.4337183 0.0074865636 -1.0139844 0.41156945 0.9314807 0.15635826 0.87816316 -0.3104889 -0.09695106
MAP2 0.37681514 -1.0053512 0.25337982 0.44300777 0.3098119 0.0071095075 0.014373328 0.41262528 -0.0016838026 -1.0659556 -0.24274859 0.1854926 0.24229446 0.10028843 0.09967361 -0.00853762
GSTA4 0.029312376 0.2830448 -0.7217867 0.34097594 0.46691892 0.0712647 0.3263718 -1.1032039 -0.6768786 0.2942425 -0.05559175 -0.46448386 -0.48374474 -0.7403504 -0.091025814 0.68295485
LRP6 -0.7703358 -0.2820958 0.8936152 0.39503852 0.5547861 -0.16928507 -0.36205384 0.022343477 -0.3464356 0.7745028 -0.32433376 -1.8796635 0.95478225 0.21663897 0.34202254 0.86081666
RPL7 -0.13078359 -0.21272808 0.027707273 -0.15808083 0.56933814 0.08398186 -0.4114873 -2.1473725 -0.37106735 -0.024257874 -0.16175051 -0.08061835 0.31468606 2.1169207 0.7910739 0.048653178
C1R -0.25240192 0.12709948 1.464919 -0.099177435 -0.23052174 0.005103034 0.036800627 0.05952336 -0.48232114 -0.6844886 -0.26391554 0.59400994 0.07855624 0.051509738 0.31984496 -0.035647035
CYP1A2 -0.12840347 -0.12069627 -0.48044196 -0.49249914 -0.11645045 -0.03291767 0.7820441 -0.15818022 0.40042078 -0.461183 0.37889346 0.46752387 0.37445685 0.6509838 0.10831712 -0.11675077
PUF60 -0.13602918 0.5162851 -0.088314064 0.2140979 -0.1396578 0.15004696 0.4019533 0.8532965 -0.07720339 1.0584582 -0.30511525 0.702653 0.6694276 1.5483055 0.4286887 -0.29047975
CD4 0.00859608 0.125119 0.16532844 0.07680576 0.48988116 0.3526541 0.6428019 0.51502085 0.00010794008 -0.7164111 0.34752908 -0.31208596 0.5953032 1.1265173 0.1839899 0.4821077
CFI 0.18784998 -0.24010634 0.19293495 0.7004373 0.11552377 0.5031527 0.6157994 0.34456706 -0.043590806 0.5614149 -2.0713267 0.32719177 0.043109912 -0.28383148 -0.73312753 1.0427103
COPA -0.30493692 -0.12014537 0.15267351 0.045609944 0.24003033 0.10228373 1.1471874 0.6061469 0.05584772 -0.39427048 0.18914957 0.364235 0.047109507 0.8941479 -0.10675575 0.6248474
YWHAB -0.03045971 0.1752674 0.22370507 0.3073076 -0.63465095 -0.030630158 0.67033076 0.22417724 -0.481352 -0.018560007 -0.3718541 0.35720143 0.27036005 0.523257 -0.8360372 0.055774063
SMARCD1 -0.022622185 0.24498641 0.49411473 0.4503464 -0.22169021 0.18731187 0.6347208 -0.18946685 0.03478137 -0.48917985 -0.045618106 -1.0067908 -0.31479222 0.34277615 -0.07722758 0.7171909
AATF 0.20578656 -0.1518091 0.74809104 -0.21525547 1.1487881 1.0782386 0.33698997 0.69031316 0.007012843 -0.15017451 0.9053164 1.4211092 -0.24881458 0.06568032 0.46804112 0.9503441
ENSA -0.006122389 0.27082032 0.3681175 -0.24243674 -0.19151062 0.33423874 0.6691683 0.5852599 -0.4537644 -0.69523764 -0.13359067 0.035484932 0.054849945 -0.36850053 -1.8837217 0.0061010015
IL10 -0.2853103 0.15575095 1.3517394 0.59573287 0.39353788 -0.005741449 0.6443217 0.5275677 -0.02141004 -0.6489463 0.5175502 0.21732305 0.6124986 -0.26090053 -0.7006473 0.25751147
DENND4B -0.2598645 0.38609412 0.5368569 0.6417261 -0.6678993 -0.0006545618 0.0050543714 0.04665912 -0.17847325 0.109171845 0.291504 -1.1296428 -0.038787946 -0.16619012 0.5926678 -0.5239466
CYP2B6 -0.04680162 1.0278792 -0.01833939 -1.977401 0.71614957 -0.03094271 0.63233244 2.3593655 1.4532772 0.14640437 -0.45552033 0.5531883 -0.027557252 0.9608319 -1.5079944 0.43306524
NOP2 -0.003221492 0.15622391 0.13722123 0.15925194 0.26111558 -0.09388608 0.7871746 -1.0994852 -0.026412217 -0.09748098 0.29752654 0.47286573 0.036165524 0.18538025 0.3332563 0.21059313
TSC2 -0.27717414 0.027967706 0.20912561 0.080870114 1.5702015 0.44360262 0.30773088 0.71200407 0.47158414 -0.014277737 -0.037917834 -0.017400537 0.14244154 0.37128428 0.14226457 0.5007636
RFXANK 0.005012628 1.1789021 0.17273541 -0.1464284 -0.16766784 0.006198448 0.25812665 -0.10362616 0.0067057097 1.2265705 -0.27448145 0.35316443 0.1761466 0.15344766 1.6595218 -0.031145832
FCER1A -0.9311743 0.22417656 0.16154173 0.2500421 0.28439996 -0.0050865216 -0.1275395 -0.88037336 0.5052667 0.31471363 0.71813416 0.32351997 0.057503954 -1.4464432 -0.11340426 -1.3475368
APIP -0.6273107 0.40988016 0.42073938 0.19262235 -0.13469623 -0.666661 0.59923434 0.2139575 0.8098475 0.539407 -0.8692032 0.05112963 0.034930445 -0.5824375 -0.2694936 0.55423766
ARL6IP6 0.03108538 1.0611167 0.5206056 0.529133 0.21436122 0.30709767 -0.20275995 0.65866685 -0.09626925 0.55297446 -0.8678174 0.4600197 0.17641845 -0.23182854 -0.5695009 -0.09308667
DKC1 0.087694645 0.4730428 0.23694141 -0.8790631 0.88428307 0.025687004 0.07621498 1.4211731 0.29458058 -0.04327074 0.34177557 0.034786448 0.06321 0.029895935 -0.7463816 -0.70908225
DTL 0.25010774 0.28775012 0.46770075 0.3561987 0.48004803 -0.108825855 -0.31430292 -0.123971455 0.8587408 0.80581254 0.3456661 -0.49408695 0.0070365025 0.6640184 0.3612826 0.4755958
SFRP1 0.098195955 -0.15827258 1.2232771 0.56343585 0.29034352 0.48885342 0.34590423 -0.120808326 -1.0073996 0.41970658 -0.23882599 1.1546968 0.105701596 0.15119478 0.9952595 0.11849029
HNRNPU 0.38261566 1.0151833 0.27115148 -0.3009412 -0.11800274 -0.2475781 0.63630056 0.38224578 -0.92974615 0.39828467 0.47299328 -0.0917311 0.07532095 0.433735 0.046968162 0.4438188
STAG1 0.1271794 0.41746768 0.5802373 0.0029463111 1.1064241 0.39625326 0.7948219 0.1725078 0.045718785 0.13882683 0.2837754 0.25359106 0.2389018 -0.31453696 0.45373735 0.6194226
CCNE2 -2.9406946 0.44321162 1.5579141 0.70545226 1.419353 0.19472185 0.8609992 -0.38743696 -0.0994439 -0.013343092 0.08718591 0.53117466 0.007284637 0.59644616 1.1944699 0.6613111
FLAD1 -0.19711736 -0.18867198 0.12747486 -0.44179213 0.4814694 0.42488942 0.3657156 0.77312344 0.013653662 0.0026681176 0.3264061 0.56615233 0.06093268 0.6788685 1.3227962 0.12962279
CAND1 0.22068706 -0.56846464 -0.18793845 0.5038024 -0.047430865 -0.0061569414 0.37498298 0.3759142 0.086829 0.2476991 -0.9114088 -0.022770312 0.03277662 0.25396279 -0.14911427 -0.6445294
TRMT6 0.23643176 0.13643529 0.6446919 0.33587772 0.09565869 0.0077994657 0.21753474 -0.7021878 -0.47564965 0.3314634 0.3824029 0.46997708 0.5579212 -0.4730016 0.79015577 0.022518495
FAM83H -0.18000877 0.10130347 -0.23746312 -0.03148369 0.3511135 0.7886033 -0.2768485 0.6643906 0.0052565737 0.2659041 -0.518511 0.30584294 0.6530595 0.40520474 0.5024903 0.40511978
PURA -0.233581 -0.21946386 0.6200382 0.16697398 -0.25940907 -0.14638369 0.6723398 0.59765774 -1.058696 0.15837568 0.19929704 0.7449515 -0.34564114 -0.17123552 -0.6874441 0.013081245
NR1H4 -0.09584152 0.58400416 0.20624627 0.20075613 -0.037490375 0.02352028 -0.46565056 1.3650054 -0.0149300005 0.69765663 0.5299026 0.19693883 -0.13382861 0.3189609 -0.14556813 -0.08193241
TOPBP1 -0.07144406 0.20411737 0.5528148 1.2478065 -0.6910916 -0.006072165 0.11280035 -0.30976135 -0.74672824 -0.54719156 0.63283426 0.50099343 0.120186135 0.34966615 -0.0939072 0.35481015
FGF13 1.2028769 0.56456375 -1.0608526 0.037090834 0.0778299 -0.4282661 0.15179296 0.4356482 -0.033405785 -0.05524223 0.101038195 0.19786794 -0.6518393 0.1728753 -0.118163735 -0.67015046
KBTBD4 0.16367492 0.14158757 0.033061918 -0.1824455 -0.21193491 1.0500742 0.34527254 0.28303397 0.011206828 1.4452968 -0.22855243 0.37077883 -0.21862064 -0.59298766 0.7743934 0.19143997
RPLP1 -0.516946 0.42586398 -0.2982444 0.33624077 -1.3279747 -0.23368694 0.51554984 -0.20076527 0.1600302 -0.4351572 0.3861176 0.1368338 0.6234114 0.49517637 -0.21487372 0.04008229
EIF4EBP1 -0.07933706 -0.60460687 1.399798 0.9747406 -0.08601948 -0.96299344 0.896591 0.7102271 -0.0598219 0.024068661 -0.27643675 -0.011583907 -0.9398293 0.4471855 -0.07025353 0.48721138
MAP3K4 -0.024924088 1.1873097 -0.939061 -0.03298065 0.08463595 0.1386468 0.35051334 0.3880557 -1.0713034 0.010878659 0.13973238 0.42276254 0.2574024 1.3030287 -0.19008031 -0.48328614
FRAT1 -0.6280065 0.5846713 0.9209753 -0.016834151 0.9865551 0.14025956 0.100054525 0.29954532 0.5573313 2.4114912 0.12804306 0.21879604 -0.5924414 -0.3037815 1.014237 0.28085956
CD1D 0.018702349 0.28650638 -0.3660386 -0.12563632 1.4428433 0.7330934 0.33645284 0.1594581 -0.033550654 -0.10107369 -0.8489663 0.6054369 -0.0037179259 0.6737363 0.18137944 0.7217565
CDC23 -0.621881 -0.19498026 0.6010288 0.24141179 0.4917514 0.35435343 0.3521842 0.25795823 -0.059993222 -0.3697415 0.3269357 -0.83370733 0.25621632 0.308486 0.40008757 0.30626318
GALE 0.46707872 0.29080373 0.7666366 0.19126093 -0.05717252 -0.033786062 -0.5891258 2.114759 -0.14662653 0.52608365 0.6778043 0.21652691 0.781237 -0.24286455 -0.068115644 -1.077824
C6 -0.026041612 0.4457334 -0.24102436 0.20060715 0.41489747 -0.66410005 0.065709144 -0.7884593 0.867642 0.6191783 0.41948193 -0.549786 -0.17028064 -0.69161975 -0.05100517 0.067655995
HMOX1 -0.12570274 0.525279 -0.09684428 1.0124732 1.2234118 0.54388136 0.265298 0.21209945 0.08983058 0.114730634 -0.15451114 1.0679417 0.0992748 0.2900217 0.66045266 0.52592367
UBE2Q1 0.3157522 -0.16647427 0.89856404 0.42560697 0.1770469 -0.011944701 -0.20322582 0.1036879 -0.4450339 0.299027 0.49246892 0.24357772 1.0443766 0.19584103 0.04092992 -0.07042974
STK3 0.5878366 0.4918357 -0.070954084 0.04428255 0.5043568 0.85762525 -1.4745878 0.6003784 -0.25722042 0.5825877 0.4448966 0.48115137 -0.004899762 0.43393916 0.08450356 -0.14940912
MYD88 0.9685113 -0.14585926 1.0142654 0.41274887 0.10398633 -0.10496315 0.34314248 0.67220044 0.85240567 1.4376032 0.7305628 -0.08231001 -0.06195579 0.14346172 -0.3897272 0.5493493
ENOPH1 0.61771005 0.3933773 1.7482846 0.67413044 0.040468547 -0.062972836 0.43574753 0.7117651 -0.13575397 1.5689964 0.3363644 0.19686268 -0.005250117 0.6174159 0.7557281 0.66727906
PPOX -0.19176176 0.122236125 0.022242548 0.09883961 0.15353373 0.4301771 -0.6942749 0.5207644 -0.22616906 -0.058040906 0.33959937 0.4665632 0.5139877 1.4876848 0.4116252 -0.003472405
ENAH 0.034536175 0.18203086 -1.5635829 -0.7112221 1.1823289 0.20908283 0.32035178 0.062995635 0.53738785 0.32465965 1.3412697 0.8766296 0.30038005 -0.39087546 -0.09810678 0.8734521
MASTL 0.053566568 -0.14531644 -0.34711683 -0.36023182 -0.14394984 -0.013596538 0.30024534 -0.18076211 -0.66927886 -0.124776706 0.43188086 0.5120287 1.6652578 0.73999065 0.34043163 -0.01313537
SDC1 -0.5151776 1.203293 -0.22495747 -0.1413656 1.3078232 0.8681884 -0.2674354 0.8387746 0.097914755 0.40713108 0.05547195 0.56700325 -0.028924938 -0.030179378 -0.04015377 0.15321173
UBE2Z 0.41232988 -1.0264341 -0.04485244 -0.1559744 0.12804127 -0.10983137 0.5010999 0.32323596 0.032711726 -0.39855048 1.6406423 0.30039552 0.42057553 0.6338177 0.30823562 0.698673
ATP6AP1 -0.047268085 1.0761921 1.8614875 0.5308301 1.0230612 -0.018350994 0.36541882 0.36299288 0.56172454 0.97920376 0.3919877 0.1769705 -0.12307852 -0.10206445 0.059997413 0.7156447
ADIPOR1 0.14253697 0.0044501773 0.5190154 -0.38789153 0.9094336 0.11047438 0.6800939 0.38108513 0.0034672054 0.03621078 0.42427874 -0.6327231 -0.020499742 0.56508064 1.1628411 -0.08279713
TCF21 -0.003028489 1.5402428 -0.10386699 -0.6374762 0.062045272 -0.00978183 -0.46083242 0.90776896 -0.009831987 -0.37812838 0.44705817 0.2922005 0.022913603 0.16818728 -0.04860212 -0.0127334
KCNN2 0.08907836 -0.83759725 0.27680027 1.5968163 -0.106318116 -0.022506293 -1.4282694 0.1764926 0.49403435 -0.22106694 -0.18971531 0.4120216 -0.346822 0.93385977 -0.32964236 -0.075733334
TSC1 0.19297238 0.79274386 0.1874248 1.2625709 0.87123114 -0.59530455 0.23301952 0.39820844 -0.032099083 -0.20146267 -0.32264146 0.9644603 -0.33244866 0.12853153 0.06896272 0.310661
APC2 -0.028133174 0.03779522 1.0790918 0.50707716 0.8755846 -0.008012708 -0.25213346 0.52769786 0.6561444 -0.15311994 1.4965633 0.29847193 -0.6498095 0.20259617 -0.061626665 0.46403435
DYNC1I2 0.060132273 -0.15655401 0.004177146 0.4172773 -0.14681117 -0.013666929 0.13138829 -0.70721066 -0.18128888 0.017919872 1.0850447 0.37657654 0.11654937 0.38091004 0.37526962 0.20444219
PRKAB1 0.90079963 0.17966759 1.3418828 -0.26938772 -1.2816943 -0.045625184 0.7336475 0.54052 -0.07904425 1.1389127 0.41835362 0.0003988453 0.07798349 0.21413654 0.7629823 0.13648443
MAPK3 -0.003699246 0.8257729 0.42617714 0.23070122 -0.2704453 0.8939462 -1.9444089 0.13229707 -0.121124305 0.58156335 1.1813627 0.19836211 0.049563266 0.034251843 -0.059118576 0.46032926
CCNB2 -1.3240536 0.3443669 0.002428941 0.42451695 0.7837663 0.56142926 0.51210576 0.33624515 -0.7119985 -1.3941283 -0.22214983 0.6680095 -0.13583331 -0.10124775 1.3777901 -0.14413315
CLEC4M 0.668748 -0.06897616 0.0475937 0.70021033 -0.040567134 0.07005485 0.08303909 -0.28078985 0.12303595 0.59997886 0.06211154 0.40800858 0.56220806 -0.8760268 -1.0728556 0.37590334
AKR1B10 0.056799818 -1.033949 -0.9760048 0.043580595 -0.16032259 0.70079774 0.3940232 1.2507238 0.06143133 0.07407188 0.028442156 -0.5125382 0.29005614 0.0268289 -0.47038442 1.2059298
PRPF3 0.003920272 0.11912908 0.022572082 -0.51566136 0.99519014 0.16961986 0.5709863 -0.11416875 0.40019435 0.08667615 0.28427523 0.57361686 0.02182117 0.6009838 2.256423 -0.026863575
MSH6 1.015896 -0.27046493 -0.16086173 0.5671788 -0.21089381 0.8446919 -0.95354915 -0.22885525 0.45546183 1.0294187 -0.7185195 -0.29878628 1.7014217 -0.2823487 -0.16928135 0.23900916
PCLAF 0.23805963 0.23011996 -1.2559433 0.7715348 -0.9557515 -0.0045350315 0.68662935 -0.384566 -0.12802312 -0.26519164 -0.641816 0.4422754 0.17705816 0.3716541 0.41392535 0.026333205
CD14 -0.0054861717 1.8888714 0.10823046 0.16135295 1.0003517 0.0022598496 -0.76341826 0.45700812 -0.019468093 0.11686731 0.4009934 0.9193767 -0.25798142 0.18264103 0.16742267 -0.102743745
TRMT12 0.5214199 -0.11129158 0.3318549 -0.6929196 0.18111606 -0.0035569773 0.33797452 0.4305248 -0.055317022 0.40959376 1.3788091 0.04770376 0.17663443 0.80060804 0.36125395 0.6089115
GGNBP2 -0.6161839 0.35112295 0.6871269 0.40423468 0.0014576562 -0.012777058 0.11326634 0.36565802 0.0024293202 0.23674208 0.6137675 -0.1547097 0.08121912 0.3376465 0.033334073 -0.027143292
SNX30 0.07068065 0.1986125 0.05855062 -0.23762754 0.36426976 -0.00622702 0.6431765 0.09906116 -0.006720007 0.44016185 0.26062807 -0.0053159855 0.61401045 0.40696618 1.1297117 0.28031504
HSPB1 0.7772475 0.39803594 0.4163797 1.671021 0.70616144 -0.07786978 1.2627935 -0.41231248 0.035736658 0.8792063 1.7269526 0.7097752 0.008529199 0.08505486 1.7565607 0.3997772
NIF3L1 -0.055503707 0.72367036 0.922331 0.4116288 0.46462187 0.052903492 -0.23113887 0.3033852 -0.0034332136 0.33659318 0.2437483 -0.053649906 -0.18659663 0.18634999 -0.2126097 0.07906325
IVD -0.045198843 -0.7115392 -0.3702534 -0.02898934 0.18640949 -0.004895148 -0.029169124 0.14406005 -0.40650046 1.3566521 -1.1962765 -0.18437073 0.7017609 -0.13729914 -0.67220163 0.18491106
PEX5 -0.10560249 -0.1872198 1.2664703 0.658611 0.05497929 0.066156656 0.39762843 -0.2223495 -2.7018807 -1.2989384 0.59440213 -0.15044296 0.9817006 0.071550906 0.032888077 -0.6196938
MCM10 1.4498081 1.0710604 0.79785925 0.59725475 0.7081683 0.1483837 0.92082864 -0.11799359 -1.7803993 0.055254567 0.7654638 -0.03627018 1.6861538 0.7392334 0.82036793 -0.19339591
CENPX 0.0013931949 0.19551894 0.29214245 0.8266744 0.43047032 0.0090748025 0.45941365 0.38194785 0.050902143 -0.11813684 0.47410205 0.3885527 0.08194082 0.40650195 -0.2518302 0.60489374
SKP2 -0.019470355 0.92905694 0.16030066 -1.1768415 0.68286777 -0.0134397065 0.22515137 0.12022684 0.3724819 0.68371284 0.20745236 0.2752679 -0.007247247 -0.15251061 0.1969257 -0.09293437
GMNN 1.0019329 -1.4230555 -1.2691123 0.17509148 0.21920696 0.6219135 0.45729014 -0.04691837 -0.050943796 -0.48043144 0.4217829 0.0033439524 0.78853804 0.5515693 0.7853778 0.43500814
EPHX2 0.9722201 -0.16148178 -0.029450184 -1.1227773 1.0600259 0.0454111 0.540692 0.37402537 0.36605105 0.17016561 0.11980889 0.2745364 0.1767373 0.3830134 -0.59149206 1.0148599
GSTT1 0.17610374 -0.9398607 0.3232421 -0.024860647 -0.24181412 0.00826862 0.3247215 0.351859 0.026378289 0.34328562 -0.0071533043 -0.28823408 -0.48102987 0.29162037 0.23707914 -0.64205295
RPLP0 -0.24793132 1.0227096 0.16746418 -0.5523987 -0.13954125 0.27653798 0.88150334 -0.68076974 -0.21188201 0.78693736 0.14484984 0.15989766 0.019996116 0.32822567 0.34083456 -0.0072999457
PRPF19 4.5923865e-05 0.25357237 -0.42510238 -0.049156044 -0.23408285 -0.0042527304 -0.4038368 -1.5512203 -0.022278054 -0.750176 0.5018548 0.14782874 -0.63967144 -0.051022235 0.5155651 -0.35363388
YWHAZ -0.00094617327 -0.00036413665 0.18162228 0.204075 0.14597563 -1.1052521 -0.5029408 0.0749374 0.72050154 0.043024592 0.416921 0.3473523 0.2739491 1.3738393 -0.022144865 0.029015923
HGS -0.93189305 -0.21027465 1.4743501 0.45310053 0.20662346 0.4540485 0.18598574 -0.21161383 0.16108035 1.0546405 0.52759594 -0.28978157 -0.12038599 0.23667763 0.3243778 -0.4511386
PSMA1 -0.011023059 0.24400136 0.11553007 0.215646 0.12628685 -0.001469096 -0.48683363 0.07831513 -0.34173375 -0.01780281 -0.12282786 -0.88217896 0.4884533 1.5016708 0.43055627 -0.6484369
EIF4B 1.0366801 -0.6560926 0.24893887 0.66792476 0.17796715 0.84488446 0.29329625 0.69074327 -0.25776616 -0.48659074 0.47261676 0.5929721 0.5747799 -0.31981137 0.68346983 0.25510854
HNRNPA2B1 0.055179093 0.06151707 0.19694822 0.08139098 0.38135377 0.0759072 -1.283762 -0.119605385 -1.2595669 -0.3725151 0.5190094 -1.2703081 1.1977727 2.0740857 0.1937896 0.026895262
SLBP 0.46291915 0.11100551 0.46938437 2.1918135 -0.20292321 0.03138849 0.7106734 0.14206485 0.0009718288 0.2253095 -0.6975824 1.8329455 0.20846109 0.28886697 0.63804007 0.22881043
UROC1 0.21174915 -0.059546426 -0.0065040546 0.31053382 -0.95086354 0.44979253 0.652715 -0.83826494 0.24102539 -0.3116541 -1.1266919 1.0555158 0.013998851 0.61225003 0.5559969 0.18948947
EGFR 0.35792527 0.21803398 -0.031175332 0.2530173 -0.23979746 -0.100664526 0.37470672 0.56197417 -0.29193622 -0.31097788 -0.5996541 0.5415425 0.17134775 1.3563029 -0.11483654 -0.18335244
DVL2 -0.03712365 0.42829442 0.20634812 -0.34997743 0.37691146 0.23894665 0.74682784 0.08131102 -0.16780262 -0.07462052 0.1174205 -0.7870405 0.54287255 2.5133414 -0.3193795 0.56283003
WNT8A 0.22240329 0.40620697 0.7132871 -0.23864776 0.15921342 -0.014807779 -0.3680744 -0.10473615 -0.5754396 0.7326991 -0.15366559 0.35584828 0.11907702 0.120097734 1.5337242 0.5915038
G6PD -0.106991656 0.871448 0.1333092 0.8420776 0.30460396 -0.9588334 -0.5566267 0.8917012 0.38350525 0.29701033 -0.18197547 -0.12803715 0.056011893 0.15053397 -1.3286822 0.032269336
AGBL5 -0.08834552 0.2049515 0.29710647 0.9865144 0.6261698 0.22880264 0.0030278382 -0.067803375 0.4383234 0.06754985 0.28786537 0.17648758 -0.3608158 -1.4513985 0.14607441 -0.7339026
WNT11 -0.2920571 -0.2913374 -0.20557967 0.29572138 0.024402497 -0.70121783 0.101116724 0.4092412 0.15305808 -0.13459243 0.46754804 0.34745002 0.6475921 0.45780146 -0.2263828 0.022146748
PTPN13 0.6324381 0.16703 1.0426035 0.6181601 -0.20255293 -0.18252674 1.5627918 -0.02088763 0.13039887 -0.6324329 0.5933749 -0.11821988 0.05137715 -0.7514064 0.20806599 0.77038586
THOC6 -0.5768855 0.28704527 -0.004897547 -0.63022375 0.6954385 0.027825017 -0.13670473 0.48382968 0.30857727 -1.1820747 0.534052 1.2302208 0.31126013 0.10884007 -0.048918456 0.54496276
SORL1 -0.2446758 0.706024 -0.5805352 0.39223075 0.9903884 0.09361175 -0.2097589 0.19911535 -0.05143184 -0.07180426 0.293335 -0.21602318 -0.27859133 0.30251357 0.20198098 0.42465875
PRIM2 -0.29488558 -0.18530858 0.68114626 0.7680292 -0.105945595 0.015103165 0.2931595 0.14619388 -0.3918256 0.07917249 -0.3056409 0.34226817 0.22294958 0.36091322 0.31755447 -0.037807647
DUT 0.07836816 0.1727592 0.43695366 0.4187562 0.34840003 0.8456519 0.88596827 0.15746027 -0.010744697 -1.4869664 0.33740053 -1.4122111 0.3585797 0.34115735 1.7176112 0.15994684
HSD17B6 -0.6530025 0.09944171 -0.113945395 -1.0537882 0.11207072 0.19678792 0.22685967 0.055466667 -0.6961671 0.22739385 -1.3191645 0.32164532 1.9489921 0.3878253 -0.46310192 0.25877526
GPC3 0.07121863 0.017107025 -0.111050904 0.0071143312 0.76102495 -0.12651311 0.024693836 -0.9347428 1.2175354 -0.42619243 0.7047787 -0.24602199 0.052185606 0.6687163 -0.13047267 0.20391703
HNRNPA1 0.21437435 0.4398092 1.0836102 1.8111582 -0.061748028 -1.2856276 1.1292163 1.9686488 0.24041785 1.0038487 -0.40404558 -0.09560543 0.04318681 0.743855 -0.4729029 -0.8949867
FTCD -0.89883155 1.2412628 0.45028555 0.674237 0.37504447 -0.035318006 -0.29873338 0.0035242282 0.16648614 0.66984254 0.23876412 -0.02798457 0.20918807 -0.8154579 0.4773947 0.04294487
CCNA2 0.18099569 -0.85919696 -0.20930113 -0.9062074 1.1566037 0.10038834 0.070877336 0.1649782 0.32700598 0.8972027 0.379555 -0.49388018 -0.14024876 -1.0570554 0.5504326 0.4015897
TSG101 0.04320797 0.6144723 0.17443635 -0.09949006 -0.2276644 -0.03378162 0.7529181 1.1700119 -1.15271 0.6773977 0.9453661 0.13634177 -0.039479055 0.88213325 -0.11198027 0.39685416
NSF 0.2653747 0.11490942 0.93872935 0.65029293 0.4121944 -0.030855028 0.1135187 0.27898106 0.13535996 0.16879705 0.3878114 0.5120005 0.055447172 -1.3342626 0.13950527 -0.6228009
PRSS53 -0.0038196887 0.4005541 -0.14426579 -0.5644957 0.033689022 0.45925274 -0.55251443 0.26148057 -0.070897676 -0.18251543 0.51928794 1.1887846 -0.13786168 -0.88955647 0.60315204 -0.9216417
WNT4 0.0717226 -0.81840223 0.22294563 -0.105158515 -0.06565255 -0.0023508333 0.43794352 0.30658486 0.07058035 0.12540372 0.53899026 0.32410705 0.22838166 0.09736726 -0.2566626 0.27341896
EXOSC4 0.17433722 -0.28011838 0.28061977 -0.13231128 -0.1864017 -0.0016086097 0.45675257 0.3327875 -0.8736942 0.031349692 0.37918025 0.37919313 0.62633115 0.8935672 0.71142775 0.08536014
PTPRB 0.40592578 0.5286868 0.36667335 0.179067 -0.17623423 -0.04710534 0.32898933 -0.14344282 -2.1224873 -0.033388942 1.993263 -0.024060855 0.48341984 0.026195673 -0.15277492 0.96651894
C3 0.01766504 -0.5684213 0.5428195 0.46865165 -0.10827976 -0.015719581 2.307698 0.3935438 -0.09747933 -0.06452757 0.34368014 -0.045556415 0.04088705 0.72795767 -1.0448202 1.082081
KPNA2 0.49615392 0.20289518 -0.07969275 -0.014829643 0.28017357 0.0077919126 -0.05700803 0.20995027 -0.07549348 -0.044226702 -0.6795805 0.93425786 0.46545333 1.2228024 -0.44534308 -0.10024065
NDC80 0.028682064 0.37907705 -0.8965597 -0.08685613 0.83947945 0.021343013 -0.52773833 -1.0796369 0.9544415 1.9378096 0.16662271 0.0740234 0.5159491 0.33881077 0.3691329 0.5841668
YWHAG 0.011606528 0.18579768 0.31821924 0.53868127 0.58070886 0.16716252 -0.5645036 -0.048308063 0.9383508 0.8296533 -0.44245756 0.50492 -0.4111314 -0.32750174 -0.19477768 1.2966139
TK1 -0.12808062 0.34670898 0.0055858865 -1.1439263 0.5453066 0.009616108 0.10547885 -0.47152725 -0.16891111 0.37354323 0.23268272 1.163666 0.11945139 0.15385236 -0.19817382 0.3166299
HMGCS2 -0.0036821023 0.07502485 0.94242966 0.37291574 0.74710083 0.11124927 0.4801685 0.29665974 -1.0888327 0.18691574 -0.15629968 0.34299383 -0.9965048 0.16016264 0.9895068 0.0020067687
ANKH 0.12306434 -0.063262984 -0.016249245 0.47836086 -0.3508556 1.1341827 0.53911686 -0.19090885 0.2042308 0.6100936 -0.10663301 0.6276325 0.347783 0.77050793 1.352987 -0.09562481
DENR 0.10753189 0.6603101 0.63976395 -0.24412969 -0.23567085 -0.008244703 1.0180932 -0.6246868 0.014159858 0.23101152 0.33186164 0.11170947 0.05711004 -0.39782983 0.26968345 -0.5663736
BMP8A 0.0015695231 0.29932275 0.33421186 0.8596773 0.286273 -0.0055323043 0.24903531 -0.05432555 0.05940237 0.52169067 -0.84246314 0.44041184 0.44086885 -0.42495415 0.1500232 -0.014551753
KDM5B -0.12737232 0.10906231 0.42454883 -0.0129244095 1.5860579 -0.10864069 0.4900553 -0.09555466 -0.12962449 -0.0013599612 0.21045274 0.07199721 0.0035597202 0.43140745 0.53074914 0.22183175
ARHGAP11A -0.014265303 0.5056387 0.7552494 0.3276967 1.3766788 1.3929341 0.16286321 -0.19817948 -0.032428794 -0.09813818 -0.2983031 0.72908825 0.43599185 0.24288176 0.85708165 0.93558
WASF2 -0.1434803 -0.33041415 0.67840123 0.24733618 -0.09172471 0.011798676 1.4263262 -0.44185573 0.5565979 0.9756542 0.051767364 0.21712308 -0.06293404 -0.0540412 -1.4198947 0.47295004
PRKCD 0.007105069 0.59399897 -1.7597879 0.025762808 -0.53988475 -0.16931012 0.27182537 -0.37475967 -0.036726613 0.12423208 -0.33100417 0.33147705 -0.032464925 -0.18039516 -1.6992983 0.79259753
NRF1 -0.03678008 0.29722282 0.44191182 0.817605 0.2776048 -0.09201758 0.49716708 0.24120854 -0.04398952 0.025509907 0.19957687 0.2518431 -0.022883141 0.7493781 0.37483257 -0.03618733
PSPH 1.0528102 -0.52913034 0.2656263 0.39092535 -1.8560274 0.008263659 0.38222933 1.0048903 0.036783855 1.2635927 -0.0069954414 0.04847496 0.5718756 0.26575676 -0.06755679 0.046906076
CSNK1A1 -0.0070873545 -0.0883407 -0.06267059 0.14049192 0.77089 0.907721 0.76180124 0.4346475 -0.024692351 -0.32540435 0.12194264 0.60676825 0.8566616 0.14585449 0.77215207 0.5691934
UNG -1.1047624 0.07575883 -0.12433264 -0.019565735 0.040667012 0.20779549 -0.9594999 0.37994012 0.01635158 -0.04992541 1.0171279 0.2248584 0.60682905 0.05732824 0.65354764 -0.80086553
PRKAA2 0.13802798 -0.23983781 -0.052400522 0.5609672 0.029840646 0.091212146 0.1418371 0.5810996 -0.1582481 -0.09518728 0.5917705 0.85036266 0.30670643 -0.57556766 -0.7233083 0.54897475
RPS10 -0.11751911 0.3612953 1.4530585 -0.08345015 -1.2021989 -0.0018289959 -0.0032767814 0.051377036 -0.37077865 -0.19387564 0.45491058 0.20709269 0.18247463 -1.0759667 1.130558 -1.020291
HSP90AA1 -1.1133097 0.8015741 1.1493994 -0.19669011 0.72089434 0.0047831526 1.5369649 -0.1974681 -0.007947236 0.4187747 0.11465421 0.23063308 -0.4023579 0.5586929 0.8491688 0.6454535
SLC39A14 0.005815688 0.30546808 -0.21635786 -0.048037898 -0.7188041 0.014304544 0.22276896 0.19113764 0.14552362 0.7425448 -0.10925902 0.3400873 -0.16257063 1.2220905 0.5593108 -0.00082224695
TAF12 -0.02993564 0.24640551 -0.29535168 -0.25201684 0.61354 0.50646067 -1.1071253 1.6476333 0.22596563 0.13208821 -0.28197017 -0.7073611 0.34156784 0.091974124 -0.019808237 0.07989472
PLK4 -0.016558858 0.34932923 0.01622484 0.23532319 0.2863988 -0.0014006591 -1.0027468 0.28690568 0.3642703 0.052125636 -0.22919899 0.4502578 0.32836965 1.576633 -0.22298107 -0.011866393
CAMK2B 0.34216577 0.23908985 1.4884759 0.5558872 -0.30824223 0.338185 -0.40877384 0.37318823 -0.14653412 0.91374314 0.14316607 -0.26626262 0.18637682 0.14403276 0.23343664 -0.7808894
PKN1 0.72973144 -1.3231404 1.0768683 0.068338804 0.028421069 0.7018971 0.10781602 0.8352588 0.004399073 0.2959051 -1.2390865 0.21049939 0.125488 0.362334 -0.12327853 -0.15387641
SHB 0.090441875 0.1750331 0.4012106 -0.14458054 0.21679266 0.61222655 -0.24861886 0.28366855 0.7865063 0.60412914 0.3279064 -0.45973796 0.7812288 0.84459424 -0.5237144 -0.044127855
EIF3B 0.70274115 0.10138959 0.3840159 0.65711045 -0.7108443 0.008424939 0.49544019 0.16767469 -0.006625045 0.42153707 0.6629703 -0.49456584 0.80139595 -0.33001345 1.0498434 0.030459963
TAF4 0.42566705 -0.20145127 0.6357563 -0.093722686 0.2616638 0.5420955 -0.21651179 0.116838425 -1.573945 0.70423794 1.5810428 0.03285099 0.6069718 0.03745918 -0.6879886 -0.057951156
PLCG2 0.63113856 0.4306256 0.36649102 0.54550004 0.6415506 0.26487136 0.96619606 0.46492243 -0.2570714 0.5527166 0.470336 0.22293396 -1.6227754 0.34905878 0.40541863 1.4721365
MZT1 -0.13642237 -0.6501947 0.89142287 -1.129017 0.6076274 -0.026312254 -0.106832124 -0.6846867 -1.2747394 -0.30839807 0.78759587 -0.08703299 0.4825529 0.15936066 0.15222687 0.19353485
MAPK10 0.0342929 -0.92979 -0.05325728 0.2853362 0.467755 0.19179586 -0.55209655 -0.9308272 -0.052703734 -0.6056208 -0.2841372 0.97256356 1.387361 -0.70948935 -0.5852784 -0.0428105
CENPF 0.324282 0.47541562 0.5074328 0.61478674 -0.43815273 0.03396059 0.33791256 -0.23200361 0.014820121 0.95106494 -0.86395085 0.36952725 -0.06836956 -0.6472554 0.21787377 0.02111027
ASH1L -0.31700084 -0.10901249 -0.536128 -0.49418363 0.28458765 -0.6323526 0.95235825 0.8884931 0.32835415 0.0904429 0.6015136 -0.051618334 0.42595127 0.68175924 0.2811809 1.4823742
GLUD2 -0.005596222 1.4280314 0.03310704 0.6328223 0.75431955 -0.88275325 0.51552004 0.13627326 0.091400996 0.23885103 0.1324507 0.15372446 -0.005632273 1.0799674 0.9709191 -0.08735863
CCT4 1.3471187 -0.19006622 0.37436223 0.18830986 -0.06099163 0.38755983 -0.79968446 0.7252925 -0.04462386 0.9358462 0.68317884 0.4441458 -0.5048177 0.12193088 0.6179287 0.27419657
ARID2 -0.0769872 0.0007475505 0.21456033 0.1665705 0.60157096 1.2541051 0.9525663 -0.2888328 -0.0013231114 -0.0020135741 -0.060417913 0.53492963 -0.30414835 0.59628385 1.114803 -0.2626561
COLEC12 0.07327214 0.24510512 -1.3937882 1.0172316 -0.025017124 0.06480048 -0.07907058 -0.04578731 0.077963516 0.80663824 0.23709558 -0.02462702 2.4597652 -0.1863128 -0.12371529 -0.36372307
RBM22 0.4449178 -0.19212404 -0.21864931 0.4145745 -0.13146079 -0.5608119 0.92406535 0.31457233 -0.2391163 -0.11086087 -0.43661198 0.16083667 0.38623157 1.6708983 -1.1903801 0.2526672
GTF2H4 -0.0038821646 0.35146415 -2.1519945 -0.54684615 0.027561057 0.3061674 -0.21241002 0.24592525 -0.12657334 0.07190631 0.4938758 0.4188935 0.7285369 -0.0033667223 -0.2455363 -0.044644397
PTH1R -0.005332766 0.44160157 0.20065677 0.23455085 0.50984496 0.007967185 0.32380423 -0.25372657 -0.014379276 -0.4913293 -0.57603914 -0.7512797 0.25565007 -0.1916637 0.19217835 -0.6722241
PGM1 0.24495895 -0.45325705 -0.17437145 0.17525923 -0.1473265 0.103914216 0.5804764 0.08588411 0.007257818 0.41488588 -0.37295872 0.28453064 0.048140872 0.52315974 0.33796012 1.322626
MCM3AP -1.5975895 0.9332496 0.118694 0.22722612 -0.012780454 -0.006749919 0.5837627 -0.21407291 -1.4487704 -0.0030690928 0.17223057 -0.5427987 0.07070933 0.7051749 -0.8862769 -0.2582932
LRP5 0.82700515 -0.13171685 -0.3015581 -0.17004958 -0.092691526 -0.08430465 0.2831827 -0.36277473 0.006541718 0.6662068 -0.6316376 0.058518153 0.7916971 -1.1372117 0.12730858 -0.099704176
LHX2 -0.7412781 0.5945675 -0.1919499 0.1693866 0.34780544 0.27575052 -0.7557225 0.20143571 -0.76611453 -0.086988196 0.33621538 -0.46035317 -0.31726596 -0.2933633 1.0362238 -0.08401201
SFT2D2 -0.008343045 0.68019634 -0.48436758 -0.4278596 0.15101907 0.4662775 0.33462155 -0.5859953 -0.061370146 0.50508004 0.22167203 -0.629687 0.18014348 0.19670509 -0.050416548 -0.25288707
CDK7 -0.05008426 -0.070329115 -0.07933346 0.04315202 -0.07861003 0.6060866 0.19265795 0.45677805 0.893608 0.5009862 -0.960236 0.5755828 -0.72182435 0.36326602 0.6128543 -1.039516
PTPRG 0.34822288 -0.011506377 0.8706121 0.64016485 -0.4621859 -0.044661023 0.4898477 -0.03989607 0.71539575 0.6192844 0.4472497 -0.122358166 1.9824737 0.47849146 0.5199832 -0.023633031
HCAR3 0.028260332 1.3574505 1.3580885 1.605669 -0.14453337 -0.10946151 0.49629015 0.9814929 -0.0018393318 0.654206 0.65284824 0.13844092 -0.023024222 1.0941981 0.06493387 0.29837698
AP5M1 0.20179215 -0.62762994 0.17421691 -0.2464605 -0.5311143 0.41083652 -0.49529114 -0.079228185 -0.03573666 0.15651688 0.6201279 -0.6632481 0.4065757 0.87138456 0.008763766 0.17906229
TALDO1 -0.09784253 -0.29250976 -0.21221185 0.55001485 0.6279143 1.9572052 0.2044637 0.2100805 0.039821543 0.58657324 -0.12615079 0.8467245 -0.37360024 0.01652534 0.5091246 0.27489015
STK35 0.16314252 0.055847563 -0.7449982 -0.80712366 0.4029814 0.014134176 -0.5167371 0.34731132 0.7465379 0.23887163 0.27931198 0.6595024 0.51495624 0.51740336 -0.71236604 -0.22312996
PLAG1 1.2426504 0.54755193 -0.55008996 0.036350485 1.1969888 0.025309222 0.6157911 0.16582789 -0.4869518 0.07941196 0.25429523 0.4197399 0.5271975 2.1362402 1.1079807 -0.11969382
USP1 0.12522888 0.24310844 0.58814526 1.5224322 -0.3695899 -0.088062406 1.4888979 0.3843168 0.2088522 -0.66715 0.14038745 0.5245041 0.050884794 1.5277891 0.2587649 0.43843096
TAF5 -0.0352726 -0.46573183 -0.28442812 0.8902718 -0.07717861 -0.33379552 0.14059561 0.459725 1.1880667 -0.39590046 0.50085855 1.6743561 0.08632364 -0.077880874 0.37366855 0.091717824
KIF4A 0.01839076 0.40504164 0.2375081 0.030906048 0.7593757 0.9932455 -0.11567737 -0.62144387 0.099814765 0.6153465 -0.0058035105 0.15375562 0.018955005 1.1771244 -1.7272108 0.04894418
EIF2AK1 0.016201543 0.11637058 -1.0757291 0.15787172 -0.12597552 -0.005626546 1.2153307 0.30168173 -0.023557803 0.28285146 0.12695205 -0.41648698 0.18292783 0.42001402 -0.5866454 0.19294748
RAB4A 0.9135782 -0.04268424 0.6737816 -0.33841038 -0.5645025 0.068666406 -1.5210209 0.38975596 -0.16715215 0.4046368 0.4761022 -0.67799395 0.47491536 0.101189405 0.66769433 0.094453864
RFC4 -0.069525324 0.28681472 0.44723484 -1.700711 0.5273159 -0.038541846 0.17680159 -0.04362967 1.031612 -0.82913387 0.45066193 0.015008572 0.40080804 -0.016430438 -0.105424725 -0.92286766
POLE2 0.052253235 0.5137535 -0.14373696 0.08791181 0.7246817 -0.14290309 -0.648441 1.4280553 -0.056672856 -0.11108572 0.55535334 0.40693393 -1.5736138 0.16075528 0.18870366 -0.097585164
SEC24C -0.5622784 0.3018952 0.38901463 0.20793344 0.44627813 -0.30382344 -0.5360594 0.03899063 0.013837186 -0.7602898 0.3871676 1.3452542 -0.44257972 0.28807756 0.28469416 -0.038429208
CA2 0.018158471 -0.09421659 0.45782048 0.1286444 0.12922578 -0.001826627 0.25629807 0.448663 0.12511463 -1.2857757 0.7405817 0.30693382 1.0460335 0.36859033 -0.20053896 0.29856902
ZNF623 -0.21704765 0.51420796 -0.5813761 1.2470813 0.15168129 1.7253574 0.07679583 0.39348555 -0.48369682 0.36716795 -1.1721683 0.91342187 0.14278023 -0.18230096 1.0003214 0.5246196
TMEM68 0.087147176 -0.13662569 0.18453641 0.3353634 0.95406777 1.4368582 0.07496148 -0.1691138 -0.036432732 -0.088959135 0.121615954 -0.52007014 0.6987504 -0.91031355 1.4389092 -0.10819722
DHX30 0.031640552 0.37553126 -0.43607092 -0.002614481 -0.6714268 -0.39737892 0.24997692 0.05294628 0.6149148 1.0949237 0.5304214 0.11228251 0.008010993 0.76731753 -0.17001614 0.0077335117
UGT2B15 -0.016843423 0.358119 0.49079955 0.33976004 0.11629042 -0.32157946 0.2524434 0.32395878 -0.0039103986 0.34875536 0.31749585 0.30858916 0.17305668 -0.11075953 0.16207898 -0.61181164
KAT7 0.3117375 -0.10986504 0.05427359 0.055491745 0.8149411 1.0022557 -0.17430945 0.3015236 -0.44779316 0.5100545 0.4108061 -0.035214726 0.14476186 -0.102043554 0.703528 0.11997753
MNAT1 -0.005622879 0.5490917 0.40971118 -0.21738815 0.32730836 -0.1854228 0.48247224 0.5856758 0.25057456 0.4152634 0.5118394 0.6446529 -0.0024666148 -0.24801286 -0.81632876 1.3143702
HDAC6 -0.5580784 0.37600118 0.10269843 0.5998865 0.047479454 0.008193977 0.24477164 0.5291519 -0.29958045 -0.020329434 0.24415953 0.47588328 0.27729025 0.35968745 0.1689569 -1.0071359
RPS27 0.016746731 0.3189443 0.20961621 -0.5174748 0.059023634 -0.0055348477 1.0195674 0.43789977 0.093915075 -0.1698592 0.11041448 0.13879979 -0.2560956 0.4275769 -0.19113299 -1.2023246
GON4L 0.005938729 0.31118557 0.49294856 0.9253001 0.23125803 0.0035485988 0.22335854 0.33618715 0.045878675 0.15951891 0.3283208 0.11321084 0.11339179 0.20174468 0.19751589 0.13739648
FBLN1 0.30709618 0.18643562 -0.07157479 -0.051380333 0.6651458 0.9063724 -0.16485196 -0.08489814 0.015136186 0.6688561 0.10924762 0.5661837 1.9136634 0.51911896 1.3542011 0.08155616
C8A 0.18936655 0.28216696 -1.1594156 -0.2609155 0.0337597 -0.26291993 0.42020565 0.3849794 0.4217053 0.26381952 0.36571643 -0.84949166 0.35892636 -0.15977189 -0.78319454 0.0777069
CCDC124 -0.0072141765 0.31450343 0.120640144 -0.83434004 0.38479856 -0.017916806 -0.54434454 -0.23058084 0.101330794 0.3322223 0.6171118 -0.0052672485 0.31296197 -0.26819137 1.0018268 0.012186123
SETD2 0.2568499 0.2505337 0.3926289 0.36833695 -0.05517835 0.011593507 -0.11892152 -0.2315305 0.28680322 1.1712565 0.19298406 0.30059183 0.17382035 0.15692121 0.36085764 -0.96636915
CDKN1A 0.25173393 0.5430526 0.40086174 -0.203832 -0.21806212 1.2914848 -1.0645434 -0.5656775 -0.31599024 0.9849635 0.78185076 -1.9188415 -0.2566731 -0.17682162 0.48287514 0.44384107
AIFM2 -0.5289457 0.3641179 -1.1744626 0.21409675 0.19354069 0.1090485 0.6577706 -0.02273897 0.79903704 -0.16172412 -0.752034 -0.108336344 0.19441 0.73973984 0.9520872 0.04579216
BHMT 0.0143076 0.7017269 0.5732282 0.5240363 -0.10434156 0.011428787 0.5666599 0.45406938 0.13105948 0.84857285 -0.22547625 0.26669168 -1.5124044 0.8329827 -0.5288098 0.14872266
GADD45G 0.3474313 0.10205433 0.45219672 -0.18139169 -0.08659563 -0.02359505 1.2537168 0.08290963 0.0019667258 0.60325265 0.37430254 -0.024612453 0.079401955 -0.29316533 0.11541931 -0.17718352
SORT1 0.15717487 0.20039271 -0.24558316 0.27367917 0.2828131 -1.1834894 0.57584506 -0.09979176 0.022478683 0.60288686 0.20249891 0.19684315 0.9288244 -0.40179083 0.7589693 0.6265763
FZD9 0.1495308 0.3355241 -0.26999575 0.36865565 0.2672673 0.3906831 0.3774969 -0.1155424 0.5565579 0.05869298 0.47509634 0.3132632 0.06547924 0.9813749 -1.5992962 -0.13884658
MYO10 0.103885986 0.00044023944 1.2906127 0.25574237 0.28161675 0.08673835 0.2457741 0.8439212 0.26618108 1.6234134 0.22607973 -0.3162863 -0.16050625 -0.11504519 0.94927967 -0.9210392
NIT2 0.09847416 0.9206463 -0.935373 0.2452347 0.028202895 -0.15006235 -0.100903384 1.4477181 -0.00043937028 -0.11164808 0.47290984 0.27709094 0.8853971 -0.51456916 -0.08181704 -0.70168823
GSPT2 -1.2101296 0.570807 0.17233922 -0.074056186 -0.17742062 0.04229041 0.2531725 0.14558218 -0.38140288 0.34533682 -0.027443906 -0.71324 1.7611942 0.59044904 0.25538912 -0.12812956
AGAP3 -0.058079578 -0.59759396 -0.011046064 -0.5850531 -1.8574867 -0.085094884 0.20092079 1.0358844 0.97466636 0.3317694 0.47149256 0.15928188 -0.08173882 0.97371775 -0.20357202 -0.013928732
ZMAT2 0.01616856 0.26932746 0.07823634 -0.19015162 0.3412895 -0.33643425 0.23713756 0.05999024 0.4677043 0.90803564 0.2729429 0.21722868 -0.5685295 0.07496142 -0.5297968 -0.051863723
PIP4P2 1.113459 -0.13620998 0.94199973 0.9930364 0.01664632 0.6960748 -0.725945 0.713636 -0.019116811 -0.29451063 0.53631115 2.5435228 -0.12225193 -0.18541093 1.0011374 -0.067043476
SLC25A20 0.56591237 0.44972667 0.62326545 0.47440207 -0.42613944 0.85774213 0.61703074 -0.11239993 -2.4631722 1.6171939 0.31744045 0.25923648 0.046406556 -0.8657183 0.3675507 0.8333658
MAPK1 0.00015181885 0.5260331 0.80804425 0.21903141 -0.014691694 0.026019901 -0.35475838 0.15065782 1.2642647 0.64461243 0.3451126 0.41325408 2.298759 0.0998902 -0.11354967 0.097354025
UPF2 -0.2503858 0.4361364 -1.8313807 0.06179619 -0.061773412 -0.98017156 0.045309983 -0.095603704 0.4335403 0.8505292 -0.20586659 0.72287965 0.04144352 0.7873295 0.7376501 0.39239365
C12orf75 -0.2624331 -0.5575069 0.17484179 -0.01284907 0.38378632 0.7690652 0.05683324 0.31685773 -0.3351856 -0.19075276 0.15713768 0.036160007 0.24451886 0.23936212 -1.1235226 0.40958628
KIAA1143 -0.031475678 0.41467205 -0.37219188 -0.18977502 -0.18936849 0.0145642385 0.6345969 0.13294733 0.17646955 -0.03787277 0.35861358 0.35842234 1.1971693 0.45563304 0.467535 -0.14877222
CTNNA1 0.034729518 0.7079617 0.5787036 1.0449339 -0.2604497 -0.43042615 0.35834464 -1.3163425 0.26760086 -0.47454694 0.1655165 0.052800193 1.0613716 0.4294488 -0.6169285 -0.062971935
DCAF8 -0.105503164 -0.14455162 0.17447783 0.5979434 0.08364362 0.19937971 0.10440866 0.26217577 1.6597811 0.6713248 0.09254034 1.824344 0.20886523 1.1871333 -1.8503683 -1.0637043
WNT1 0.65842634 0.07728181 2.2506807 1.0450296 -1.0283804 -0.68317753 -0.104524136 0.42971525 -0.0065618595 1.0933675 0.20483005 0.542677 -0.36856276 -1.1311744 0.14728959 -0.058472738
CIRBP-AS1 0.014738988 -0.029400023 -0.28960666 -0.0793463 -0.26475504 -0.11239777 -0.3121658 -0.9038097 0.17309989 0.31306776 0.36602792 -1.0926521 0.83332187 -0.8152543 -0.42974803 -0.77520686
SPRY2 -0.16913773 -0.47375694 0.8511771 0.54612356 0.32146102 0.7565597 -0.69416654 -0.49755484 -1.180891 0.28132704 0.85573614 0.6376996 0.19860059 -0.26592878 0.21616533 1.3819054
GADD45A -0.0017017946 0.3563067 -0.37548813 0.17585559 0.16448689 -0.030336674 0.5172712 -0.25720015 -0.85657424 0.27937526 0.5395495 0.06198708 0.19171563 0.4455989 -0.244598 0.6848564
SERPINE1 0.13575542 -1.3055677 0.767531 0.22378957 -0.09553251 0.26001573 -0.17686391 0.8266374 -0.8080439 0.46230254 -0.20623334 0.6518503 0.12713653 0.42107993 -0.22568102 -0.058515966
TRIM71 -0.4971126 0.6807944 -0.0039882152 0.2858975 0.027138943 -0.0050453274 0.26054975 0.37668476 0.3597743 0.09255796 0.2688372 0.2781845 0.0742785 0.32904965 -1.0353737 -0.019255603
HSF2 -0.0955414 0.25732434 0.7830328 0.1051227 0.23449773 0.9095231 0.03385273 0.6722821 -1.1649214 0.18653764 0.17805724 0.5816089 0.20154248 -0.6168893 0.10191885 0.014683116
RABIF -0.87318075 0.46774668 -0.53992695 -0.074570626 0.9828913 0.4206056 0.07775587 0.124115996 0.025437389 0.15500537 1.0334082 -0.15046087 0.041888297 -0.22841905 0.96158767 1.0259645
NKD2 -0.5564128 0.08542992 0.7003014 1.346507 0.009428851 0.13133395 0.27188134 1.8768938 0.1866274 0.5665014 0.47191 0.2608137 -0.69703436 0.33307028 -0.050351564 -0.29445377
CDCA7 0.9189747 0.35848472 0.22700006 1.168205 0.016120277 -0.00025894144 0.53029037 0.40801695 -0.00036874082 0.33337837 0.41541362 0.3169443 0.10913616 1.009184 0.6279203 0.23483148
MCRS1 0.23891717 0.6972542 0.13648526 -1.3491193 0.37405017 -0.77572393 0.22453971 0.752408 -0.58206844 0.9894165 -0.48773187 1.0788039 0.10772344 0.18917008 -0.23502804 0.32707822
RPS6KB1 -0.018365515 0.2376413 -0.94802195 -0.0094096 0.89949185 0.6696745 0.20163348 -1.1612009 -0.09130734 -0.010169853 -1.0492495 0.04472687 -0.1326237 -0.6388207 0.5366239 -0.1565508
PAFAH1B3 0.83660287 0.20285912 1.1769652 0.90631956 0.5411458 0.28200078 0.39512554 0.29985598 -0.3051742 1.6909934 0.39502308 -0.27624658 0.019269107 -0.3848858 0.14704894 1.8658909
MAF1 0.24784528 -0.68057513 -0.02061326 -0.43702787 0.72929704 -0.3435623 1.1376778 0.909983 0.47308034 1.5397149 0.51444757 -1.1564388 -0.108809404 2.161744 0.79213375 0.8331627
CXCL14 -0.0646652 -0.34332702 0.06170439 -0.037839122 -0.07253073 -0.72121567 0.06944886 2.4419522 0.23288888 -0.1306637 -0.29342312 0.4179843 -0.119790606 0.75575954 -0.15645711 -0.10756171
TAF2 -0.34132677 0.43977335 0.5840362 -0.2576705 -1.0221901 0.043509796 1.1676306 0.28934973 -0.035510633 0.7738586 0.54759926 0.2614004 -0.035197325 1.4763377 0.8378188 -0.19590837
PMF1 0.004067625 -0.068451434 0.8764777 0.1556683 0.008569931 -0.6774731 -0.20367976 0.5743803 0.90629375 0.66216004 -0.33467928 0.31935945 1.4023836 -0.12053791 -0.09424869 -1.5768998
NME1 -0.009750909 -0.64882326 0.064670935 -0.5346362 -0.0014315753 0.41124743 0.32729876 -0.8888409 -1.2871917 0.12122154 -0.4613635 0.2740808 -0.28745258 -0.1748326 0.72743326 -0.11586487
PSMD4 0.045525268 0.42302334 0.32245052 0.64857143 -1.0659488 0.03593864 0.73504937 0.28367665 0.0816406 0.27895764 0.26263592 0.22880992 0.16502647 0.4219209 -0.07323436 -0.85748774
DCTN2 -0.084348775 -0.22939332 1.5154418 -1.6405568 0.6654697 -0.02182319 1.9843401 0.56705916 0.95982957 1.5657802 0.15575665 -1.2291088 -0.50594014 0.49085996 -0.130799 0.86965615
ROBO1 -0.6432435 0.5685432 -0.30000022 0.35616162 0.5053512 0.69216114 1.374191 0.3343447 0.01704422 0.26736286 0.19734241 1.743216 -0.57782644 -0.010173218 0.594045 0.8110696
PGP 1.8723996 -0.25350815 0.91638905 2.38273 -0.21422793 0.3878739 0.8205514 0.5143714 -0.4471172 0.16263239 -1.5058482 0.8512498 0.030537853 -0.10359167 -0.7419361 1.1496478
PTTG1 -0.3200352 0.14713722 0.00012504935 -0.4415247 0.113351636 -0.011174164 0.29881242 0.46631646 -0.020615319 -0.10013097 0.47904643 -0.2993896 -0.42315906 -0.65175587 0.8235281 -0.0888489
PRKAR2A 0.034613658 -0.49610117 0.748714 -0.3395236 0.8520319 0.3828826 0.24168439 0.42736417 0.21236385 0.4680931 -0.87363887 0.36070272 0.13840795 0.25148773 -0.1710423 0.19314586
SMAD2 0.6190485 0.24481134 0.23179914 0.46883193 1.487997 0.1453524 1.7455211 -0.15150976 2.046374 -0.09337945 0.25001302 0.50032824 -0.010571694 1.031538 0.77918935 0.30732232
ZNF711 0.063824214 0.16801406 0.11585826 -0.37166086 0.9712169 0.534231 0.25915146 -0.1653406 0.12797278 0.30746517 0.20745578 0.46646485 0.18577217 0.92535245 0.4505561 -0.013236682
OGG1 -0.4256713 -0.57904625 0.27326223 0.80630267 1.4304601 1.2369221 0.41060254 1.2398939 0.17227256 -0.12856326 1.1597979 0.7342818 -0.08493796 0.827556 1.4165326 0.4695943
PRKAB2 0.038121805 0.33378866 0.41627014 0.4805354 -0.2577103 0.0556971 0.36597356 -0.30165416 0.12239361 0.92362434 -0.6829276 0.36050484 0.28027198 0.21195737 -0.322542 -0.65208936
WNT10B -0.021344582 0.47167608 0.76744175 -0.25479877 0.14737596 -0.102074586 1.2837651 -0.42857352 0.022442367 -0.8769508 1.8663589 -0.44502258 0.040619574 0.0706484 0.93235207 -0.75796944
LIG3 -0.14576356 0.23948786 0.047211457 0.4466792 -0.39120805 -0.09378125 -0.1602548 0.010303113 -0.7257306 -1.0476285 0.48690692 -0.06554419 0.15550776 -0.13451548 -0.09606614 0.18183033
PCYT1A 0.28227663 0.5809654 0.024284158 0.07166625 0.39268428 0.042118847 -0.16665128 0.99168926 0.13160709 0.13806336 0.8332357 -0.10827817 0.43117183 0.3291995 -0.3703591 0.016937096
NNMT 0.4169912 0.34393927 0.452263 -0.0076412633 1.7845078 0.30872515 0.46121258 -0.064364195 0.25917035 -0.1662764 -0.36513865 0.18454316 0.5799499 0.6270755 1.0402119 -0.09851694
DNAJC7 0.52841073 -0.07495313 2.0147085 0.7748542 -1.0994196 0.0633512 1.0947535 0.40194312 0.2940048 -0.98843354 -1.7888458 -0.036241595 -0.042124264 1.2778841 0.29210904 0.12782781
VIPR1 -0.27356353 -0.3710444 1.3723984 0.2003514 1.0469134 1.200706 0.14024436 0.6763887 0.23229624 -0.13094667 -0.17939231 0.47427502 -0.6453009 -0.4889142 0.55516577 0.24900904
ACAA2 -0.14266916 -0.29103804 0.2722002 0.092236735 -0.43560863 -0.4507853 0.31247687 0.34214705 0.0009026808 0.014625979 -0.29505402 -0.2790772 -1.0606899 -1.2358631 -0.07976133 -0.06366603
GLUL -0.26325062 0.08407418 0.6974857 -0.2217173 0.6956386 0.0064473725 -0.29898375 -0.06589724 -0.017758131 0.028888106 -0.61904657 0.48739582 0.15140177 0.58540845 1.285327 0.036637675
ITGA2 -0.017547311 1.6651574 0.5821674 0.060335904 1.1897365 -0.009093029 -1.5540795 0.66425425 0.54423296 0.689781 0.4385147 0.26344928 -0.14026287 0.5651919 -0.83513236 0.5045788
RNASEH2A -0.059098087 -0.090580225 0.14449474 -0.0050195404 0.41391212 0.45089522 1.151718 1.0683913 0.017572442 0.081743844 0.19992656 0.51598597 -0.11370458 0.1707199 0.31781608 0.15150735
ACTL6A 0.51667184 0.5653856 -0.35927144 0.10583636 0.14259961 0.33650777 0.01370053 0.30121365 0.5278618 0.097607315 0.15420571 0.344113 -0.74677503 -0.5199739 0.082474716 0.03965838
TP53 0.35127798 0.7490074 0.29603702 -0.1598368 -0.047021482 0.029470615 0.48341012 1.0099107 -0.25898218 0.17576465 1.6335492 -0.18771742 0.7258907 0.65553427 0.35333 -1.0559007
PDE7A -0.5564947 -0.58925056 0.20099916 0.2908857 0.4391782 -0.18690172 0.5484468 -0.86021626 -0.33103412 0.09199799 -0.20417306 0.1033977 0.26040024 -0.39741722 0.18395486 0.7791815
CUL4B -0.010451813 1.5191991 0.2526914 0.97858006 0.12919752 0.6712912 -0.49741548 -0.17547442 -0.16314033 0.002682004 0.17355254 0.41215345 0.038242355 0.051765464 -0.049715497 0.03210232
GSTP1 -0.015193272 0.28618902 0.11587661 -0.40189832 0.63643825 -0.04006229 0.23420657 -0.097270966 0.4653062 0.2670095 -0.047660414 0.24596758 1.2327623 0.0113151 -0.030130241 -0.38034707
SRM -0.48470268 -0.07231565 -0.20175642 0.15463325 -0.25660926 0.5703787 0.7321123 0.18037027 0.4220493 0.40542665 0.12574448 0.44036585 -0.16473225 -1.1867428 -0.080130026 -0.17040934
IDE -0.005810324 0.34831277 -0.43256155 0.5863515 0.7189822 0.5348301 0.66042686 -0.471007 0.014782851 -1.6037675 -1.6494399 0.41814473 0.036217116 1.4945866 -0.19534093 0.4264789
IL17RC 0.58248067 -0.16795133 0.65595084 0.44306934 0.038785085 0.23040187 0.69744927 1.1419837 -0.0016642977 -0.26425937 0.30633506 0.26474017 0.034915622 0.07510067 0.06752456 0.16653164
CDC37L1 -0.3726632 -0.20844842 -0.2756982 0.78523254 0.83546996 1.3946081 -0.040859576 0.51791155 -0.017564585 0.18420567 -1.223864 1.0904887 1.5990841 0.018395439 0.88510823 -1.5447866
PRRC2C 0.0505111 0.51027215 0.10720731 -0.070041426 0.4915892 -0.06369807 -0.45526475 0.231935 -0.91041857 0.01392343 0.5921512 0.44520563 1.3952179 -0.13374703 -1.2545334 0.13563846
TLCD1 -1.2989926 0.67058915 0.15728284 -1.0194077 0.627055 -0.7331032 -0.4985855 0.25070366 0.51947564 -0.00020845572 0.5863972 -0.24527444 -0.19556239 0.023829307 0.7133458 -0.044267222
RALGAPB -0.021631563 1.6104718 -0.4664646 0.15730248 -0.124338135 -0.32068917 -2.4789727 0.39892548 0.16998641 0.14703086 -0.87681824 -0.17889154 -0.22146021 0.07936678 -0.11631129 -0.041768644
ABCB4 0.5855794 -0.022654263 0.04300532 1.4834883 -0.06978766 -0.020044288 0.15504596 0.43465826 0.40097848 0.56707436 0.31467927 0.48288628 0.07075276 -0.87016875 -0.1638842 -0.12356938
ACTR6 0.045102496 0.5545918 0.15212364 0.8395288 1.5024841 1.6085713 -0.17514816 1.4679672 -0.16210385 -0.019271003 0.35426044 0.87980425 0.33893558 0.09076819 0.058640845 1.3542511
DEPDC1B 0.008425495 -0.3065457 -1.5622518 0.20887972 0.46157926 0.059223663 0.28383622 0.17710188 0.327911 -0.43310258 0.42224345 0.46736914 -0.87458503 0.6501277 0.42593923 -0.18874687
FANCC 0.18470573 -0.1390192 0.11524733 0.30423683 0.37491903 0.9269175 0.20878384 0.91339314 -0.27526277 0.2811084 0.09985424 0.8425403 0.17176336 0.2619754 0.81066936 -0.22043541
ASL 0.9652084 -0.9140643 0.99087703 -0.24078093 0.46282125 1.4321285 -0.44582298 2.0939324 -0.017719664 -0.49477926 0.59284365 0.7019596 0.024191061 0.31770286 0.04823522 0.30296355
PCGF6 0.20940167 0.58698237 -0.2550078 -0.37384817 0.055464704 -0.8274436 1.0037066 1.2772483 -0.17645214 -0.00548221 1.8555691 -0.07614439 0.16996527 0.41680405 -0.3470664 0.945489
CENPS -0.12877633 0.03455648 -0.1700142 0.40170237 0.5366456 -0.19482748 0.15050317 -1.4848158 0.96683663 0.077869155 0.42235488 0.3605559 0.022621527 0.5832363 0.14087093 0.015732773
PRKAR2B -0.0349246 -0.35403746 -0.16003166 -0.03746364 -0.12165724 -0.3149837 -0.65472096 0.050265595 0.75754017 0.46570376 0.28214124 0.3587488 1.0258743 0.79450804 -1.1030469 -0.46102083
SNRNP40 -0.38308644 0.47324947 0.74639493 0.4146048 0.3184159 0.096769355 0.44071037 -0.01429776 -0.9103306 0.24373542 -0.9289331 0.5025579 -0.018312644 -0.99404794 -0.11354852 0.241711
UTRN -0.37320292 0.553698 -1.3262634 0.087153405 0.19508696 0.5026217 0.36000854 0.056659173 0.19531228 0.90398586 -0.561227 0.38587317 0.14509463 0.35380697 0.8703956 0.20563607
HDAC2 -0.18455383 0.9904084 0.45743665 0.11716491 1.4629273 0.018124426 -0.14535382 0.16257674 0.07050421 -0.057584334 0.04957834 0.50837344 0.2544026 0.33810112 -0.283897 -0.2281266
NGFR 0.5533028 -0.5940324 0.5987407 0.24146304 0.36486483 0.17093359 -0.7386871 0.16375819 -0.451742 -0.25876528 -1.8135886 0.19299623 0.36202228 -0.059135545 1.1101519 0.016145103
AGTR1 0.77034986 -1.3986782 0.36703265 0.19005291 0.47094566 0.45655113 -0.76262414 0.3169719 -0.14454384 0.09379083 0.8524467 0.5306894 0.86133426 0.13535321 -0.047039755 0.25346917
SMC3 0.49107057 0.2393853 0.42720333 0.7508063 0.25429788 0.19013509 0.43498594 0.10098668 -0.006132024 0.76090467 -0.05267882 -0.28542665 0.22761098 -0.20552643 0.510329 0.35749483
HKDC1 0.025493175 0.30526283 -0.27395582 1.4969391 -0.059925888 0.047425855 0.42635092 0.29094502 0.046268806 -0.016835626 0.43612584 0.28194892 0.1878895 0.40409046 -0.078035794 -0.18924886
ASPA 0.9565204 -0.28309092 0.9300448 1.4904912 0.8338514 0.6015355 1.0455714 0.28009063 -0.14036952 -0.14580566 0.3581332 0.12411553 -0.19689202 -0.9252927 -0.37016937 0.96534276
NUP155 -0.19573723 0.5806681 0.22477758 1.1718522 0.47151813 -0.010254959 -0.13338982 0.31267884 -0.007400453 0.07685498 -0.06244026 -0.43418425 -0.28892583 -0.25146794 -0.034666292 -0.027753888
SUPT16H -0.63374954 0.20114428 0.00985921 0.3043654 0.95867246 0.39598665 -0.6240397 0.24303 -0.56537914 -0.01585907 0.08126307 0.8415008 0.97190326 0.09444167 -0.39396363 -0.06956613
OSTF1 0.07596264 -0.23830824 -0.3891853 -0.019992407 1.2175759 -0.11146618 0.36574256 -0.15495892 2.1114593 0.60953486 0.26561067 -0.5994423 0.9511547 -0.13377744 -0.11556788 0.48940355
RPS6KA3 0.1192518 0.55724823 0.19735834 1.2789586 -0.12734048 0.1786275 -0.7429505 0.5008957 0.44936138 0.7323937 0.3384432 0.7325023 0.15198906 0.36146337 0.12245694 0.9914041
WNT5A 0.93040174 1.308075 0.8003257 0.69554776 -0.06994274 -0.021863798 0.37381485 0.4818378 -0.037533227 0.185254 1.3629943 0.0091605885 0.08900773 0.9583476 0.65657336 -1.1038249
HERC2 1.0404011 -0.877006 0.1379448 0.09500205 0.7194815 1.0674922 0.2781789 0.7419383 -0.2718746 0.100720525 -0.36963698 0.6539835 0.035348862 1.7014246 -0.14733087 0.1935449
IRAK1 0.3017399 -0.2687731 0.17874667 0.07637584 0.06627311 -0.014197701 0.52640295 0.015424644 0.80383223 1.0097888 0.6795932 0.14905092 1.163748 0.37151724 0.32473353 0.49156803
RNF4 0.011405864 0.3252787 0.3542454 0.11484906 0.28720576 -0.004024824 1.5053953 -0.11564753 0.0044203866 -0.2646547 1.8247006 0.23552263 0.056424778 0.08107346 1.2786878 0.4957434
CDYL -0.38746223 1.0624787 0.010217498 -0.5623174 0.74872416 0.019661307 -0.5915662 0.46653584 0.40564275 0.5382438 0.4147704 0.8223947 0.3907837 0.17351197 0.3269124 0.22369523
RDH16 0.2771435 -0.8257267 0.18297829 0.32203707 -0.34078488 -0.08773544 0.5786798 0.15853363 0.3612561 0.55622035 -0.39242625 0.35202807 0.20068376 0.55901945 0.4724386 0.13773571
EGR3 0.69110054 0.24867618 1.0740439 0.31816384 1.1258043 0.81011486 0.55771583 1.7709553 -0.2813755 -0.7683504 -0.46973392 -0.84637475 -0.19749255 -0.23137398 0.84416354 0.16051708
PLCB2 0.061537173 0.8584643 1.866156 0.8082047 0.3436648 0.40234646 0.757867 1.0504038 0.008515649 1.3237307 0.11998593 -0.014095862 -0.045745507 0.5494436 -0.7200338 1.5743358
ADK 0.9988161 -0.24287628 -0.16719672 0.38777325 -0.07572855 -0.091866985 0.16690277 0.45739344 -0.5262066 0.058744058 0.8399569 0.253672 0.6597477 0.6598304 -0.1391844 0.27747065
SRPK2 0.22641955 -1.4877514 -0.46502006 -0.04344186 0.22380678 -0.041391753 0.76478976 0.12884581 -0.8708643 0.018653182 -0.1858759 0.089090966 0.61383194 0.2562161 -0.077120006 -0.22429971
MCM3 0.24654716 0.1710938 -0.56079286 0.02458457 -0.052169707 -0.03235802 -0.21230938 -0.24089842 0.44095102 0.48648867 -0.058609948 0.43684372 0.45482773 1.7517012 -0.32419756 -0.08504317
RETSAT -0.020163724 0.28815052 0.5861931 0.124217495 1.0255561 0.10618933 0.26842332 -0.25939184 0.1911267 0.86371 0.31619924 0.08487274 -0.4805467 0.3819758 0.2755141 0.4340393
SLC5A7 0.000637488 0.8671961 0.49292475 1.5638127 0.07330854 -0.017143145 0.5483936 -0.49261272 -0.0029151605 0.09878941 0.2797199 0.15970472 0.038194794 -0.4382118 -0.35186946 0.1342174
MTIF2 -0.6177436 0.010884807 0.3750889 0.9395736 -1.1524854 -0.24264935 0.55590475 0.1389917 0.009640486 -0.21404895 0.18783526 -0.073517546 -0.011826292 -0.41037205 -0.065507986 -0.04640374
TPD52L1 0.006079248 0.23592669 1.2544645 1.2488041 0.26937118 -0.015267954 0.61844784 0.5838531 0.015528196 -0.6245185 0.26834974 0.23732056 0.174465 0.77009064 0.2707006 0.0007611241
GINS1 0.34446436 0.45519534 0.20415905 -0.2837181 0.100094326 0.03190269 2.0988839 -0.7460994 -0.007714803 -0.14837483 0.22287586 -0.08741738 -0.0016573076 0.21194027 1.7314517 0.5131059
WNT9A 0.0038799758 0.16508293 0.3655029 0.49921834 0.39218426 -0.009781504 0.42094946 0.12840581 -0.009488023 -0.088039644 0.39625794 0.31901017 0.11067034 -0.10714634 0.2071635 0.10836755
RPL37 0.6248996 -0.17661071 -0.2642452 -0.22142991 0.2066421 0.13518508 0.50128496 1.2120038 0.54149735 0.45627147 0.6215739 0.22637616 0.21455167 0.4131868 -0.2240167 0.62116826
ELAVL1 -0.10992467 0.7748969 0.15050231 0.12648125 0.33023044 -0.03951356 0.4768915 0.17439048 0.022550037 0.9284528 0.43093887 0.039895654 0.011490901 1.4261719 -0.44056156 1.1049947
FREM2 0.013454563 -0.12137267 -0.068399906 -0.34051195 0.10568776 -0.004978867 0.66042495 -0.3091407 -0.47492003 0.11011062 0.78795046 0.22280656 0.3189988 0.041638322 -0.19552243 0.31291828
ITPA 0.036785286 -0.9789685 -0.022446401 0.2505688 -0.19978015 0.10113775 0.30572727 -0.13960265 0.16519852 0.449512 -1.2296305 -0.9656339 -0.15075012 -0.57354134 -0.4158699 0.11098405
XDH -0.83974993 -0.26940662 0.37366763 0.29739326 0.10660161 0.39933267 -0.37897342 -0.32335198 -0.26083314 -0.04034469 0.5785699 0.5340812 0.18933707 0.08250427 -0.084678724 1.7708621
FUBP1 -0.009893843 -0.16709876 -0.16266853 -0.45066783 1.2309148 1.9704922 0.026660116 1.9929099 -0.31787983 -0.21650079 0.31839356 1.0686839 0.24261594 -0.06121505 -0.03744779 0.41962883
CITED2 -0.37341422 0.51210314 0.11460632 0.32012895 0.078558505 0.2745403 0.89475083 0.4010604 0.3413845 0.47233897 -0.516543 0.6567679 -0.023250844 0.14425153 0.25211263 0.09554655
IGFBP3 0.15062372 -0.1559132 1.2810315 0.51669806 0.94789547 -0.20434277 -0.62015724 0.06515391 -0.5551443 -0.2790597 0.82701516 1.6160091 0.43739465 0.7561887 0.00076286565 0.6920428
SAP30L 0.20741399 0.27649447 1.0839336 0.7728439 0.16735774 -0.009494736 0.57633924 -0.18539278 -0.016279621 0.25557157 0.36888483 0.10768721 0.34759167 -0.39268613 0.17086954 0.30722997
BLM 0.72602576 -0.42296803 0.49404746 0.5754926 0.17106315 -0.03440024 0.6899243 0.4532297 0.57491535 0.80287784 0.639727 0.25318435 -0.22930834 0.30829147 -0.092474885 0.9206394
SNX12 1.2052388 -0.19308059 -0.13226688 -0.9386922 -0.109293945 -0.012368405 -0.3299483 0.5298694 -0.2903888 0.39083785 0.8790848 -0.22963049 1.245428 0.81976473 0.22667593 -0.19056846
CHCHD7 -0.008720828 -0.024568003 -0.91663486 0.18507689 0.5905551 0.098795936 -0.8921468 0.43002564 1.0844584 0.10843149 0.2518323 0.55031943 -0.39910096 0.72163916 -0.20261331 0.19797528
UBE2D2 0.097485594 0.32533595 0.03341005 -0.81931835 0.23570971 -0.0057235844 0.7432456 0.3009259 -0.05425445 -0.16797808 -0.077235796 0.2257694 0.16093513 0.7828559 0.25685522 0.18343197
RALBP1 0.036380008 0.8113018 -0.052953243 -1.0308428 -1.7014573 0.010828624 0.49068093 0.46624333 -0.28116307 0.09053148 0.75826097 -0.5533377 1.7320286 0.51023155 -0.047239915 -0.020966778
PLSCR4 0.36046088 0.66255474 0.041165397 0.05581184 1.085046 0.003178417 -0.57331246 -0.23980784 0.19631188 0.41103208 0.22088447 0.9724311 -0.18271069 0.15459375 -0.14531265 -0.19516192
CFTR -0.05256784 0.56274897 -0.014704355 -0.18202859 0.78391504 -0.4976116 -1.4178183 0.6815772 1.1858342 -0.4876089 -0.92421865 0.37427264 0.0058594714 0.517941 -0.2386699 1.3808419
CCND1 -0.050450336 2.1061473 1.1921607 0.4270519 1.0484155 0.38830414 -0.22558342 0.51659566 -0.24797975 -0.6105189 0.18856184 0.0810688 -0.07684878 -0.680179 -0.116295494 0.016534112
CTH 1.1570799 0.11595345 0.9060195 0.80480605 -0.074477926 -1.1716383 -0.38538215 0.55641377 0.39951202 0.15898655 0.5192108 -0.22656421 0.5522855 0.81667894 0.12987667 0.255981
TSPAN7 0.22087389 0.24195717 1.2314179 -0.052549165 0.12269079 -0.020052847 0.01639738 -0.94326776 0.03211995 0.12870291 0.40827024 -0.016487941 0.19914865 -0.86769867 -0.08804655 0.14972574
SFR1 1.0521863 0.051598363 0.27469847 0.6416118 0.208117 0.015779518 -0.35954678 0.556938 -0.8512864 -0.19136588 1.0364605 0.21302259 -0.1731887 -0.23130603 0.10187697 1.0211573
SCAMP1 0.19904856 0.6239959 0.43057394 -0.35655418 0.28850758 0.12798515 0.10651523 0.9798634 0.1053346 0.18748498 0.50772023 -0.25042173 0.05531944 0.16102311 -0.028551763 0.31637183
FPR1 -0.047126982 -0.4834806 -1.0240604 -0.07320023 -0.02250983 0.5808518 -0.10583344 2.455164 0.5025732 0.24276441 1.0659864 0.17206965 1.4129666 -0.34748426 -1.3649802 -0.14963399
LRRC4C 0.01001394 -1.2507075 0.27469927 0.021643115 0.24891591 1.133514 0.78800267 -0.120075926 -0.9486936 -0.050262008 -0.06596139 0.4817382 0.05200525 0.6081493 0.8067058 -0.48747888
DVL3 1.901703 -0.12574843 0.18376426 0.15809679 0.2617285 0.33609825 0.3678138 0.6142957 -0.0036358358 0.64466554 2.0705562 0.71094185 0.62596077 -0.11590139 1.4033959 0.75955665
SERPING1 -0.10866275 1.0217625 0.38918912 -0.41380724 0.65460986 -0.5075144 0.5618312 -1.0058908 -0.06325206 -0.85893977 -0.5089009 -0.19380903 0.07976091 -0.25041872 0.57964575 -0.36400393
UBE2I 0.2638792 -1.1601275 0.42456833 0.25570804 0.985705 -0.75626093 0.44983214 -0.5324916 0.068029456 -0.16650972 0.4263513 0.06741952 0.14285897 0.5709787 -0.15768044 0.19745994
CDCA8 -0.015885938 -0.20468567 0.17046262 -0.18237795 -0.07287117 -0.005426985 -0.19373041 0.2397383 0.3505059 0.42281395 0.4020948 -0.5025066 0.13972732 0.46608672 -0.08768399 0.17823595
ALDH6A1 -1.3952141 -0.53633827 1.0952023 -0.0021594553 1.2444428 0.48351482 0.17605647 -1.0076009 0.046815578 -0.2862086 -0.21176922 0.09671383 -0.12547871 0.19650187 0.1439968 -1.0235125
NDUFA4L2 -0.198778 0.20843051 0.31076726 -0.6986251 1.0803632 0.7229556 0.54544973 -0.021509128 -0.13932803 0.040252358 0.21853966 -1.5947726 -0.4347521 0.98089916 0.40082356 0.31537163
SERPINI1 -0.027757185 -0.20897666 0.22993104 -0.28391483 0.5715698 -1.0899713 0.37726462 -0.27019888 0.7988132 0.15073107 -0.22802456 0.18209374 0.17245542 -0.040754996 -0.8689513 0.562414
SNW1 0.005730409 0.054342844 1.2506344 -0.7138429 0.14461745 -0.5991369 0.74077487 -0.25789094 0.65498304 0.86861145 0.27800494 -0.7581199 0.07258951 0.72214645 -0.5359944 0.6672757
PPIA -0.78725106 -0.18430875 0.7024542 -0.28826058 0.45086914 -0.028965404 0.9125955 0.28930217 0.5556215 0.32589105 -0.14836246 -0.20640023 0.016048588 0.6013991 -0.09749031 0.5348132
PCSK6 0.00273077 0.7584559 -0.94026077 0.12600519 -1.2823199 -0.06669982 0.92568046 0.53828347 -1.1341501 0.5493455 0.611882 -0.1049753 -1.2567859 0.8908102 0.32242978 1.0295337
ZSCAN29 -0.040780008 -0.6689722 0.039290372 -0.06365817 1.0603772 0.40333474 -1.3127235 -0.25558028 1.0938737 0.04838234 0.17888772 0.003724667 0.11058554 0.37264815 0.12565464 -0.011490493
PDGFRA 0.61736965 -0.040846713 0.2845359 -0.07504605 0.12127232 -0.035972696 0.57091933 -0.16588502 0.29631823 -0.12217023 0.12207599 -0.16078329 -0.14967501 0.26778963 -0.3031596 -0.00087945117
MUC6 -0.013372153 0.15522718 0.096146986 -0.33832788 0.705381 0.85503685 0.110316694 1.0043952 0.33541223 0.7295753 0.3443049 0.6210109 -0.5745402 0.1407296 0.4084046 0.17159247
CDKN2A -0.06933089 0.5554253 -0.15379158 -0.29291528 -0.215364 -0.0055359765 -0.2796273 0.26249796 0.2608544 0.81331694 0.6459863 -0.22974262 -0.44209483 0.46727684 0.23126327 2.611301
RAD51 -0.019150356 0.25318596 0.060169075 -0.6074859 -0.002623439 0.5191052 0.43724597 0.16230275 -0.98870164 0.03910578 0.5022937 0.6486531 -0.016558917 -0.002936366 0.17028616 0.047362894
RGL1 -0.0029827603 -0.15460037 -0.027685925 0.005447291 0.2446689 0.041954778 0.87665784 0.46112552 0.015236539 -0.28187293 -0.27782145 -1.3500992 0.27748173 0.39885098 0.25575984 0.066670425
NUP153 -0.022655426 2.2524846 0.2073282 0.6160132 0.41797426 -0.028700229 -0.7794964 -0.027664294 0.29887068 0.31998277 0.76704973 0.24149556 -0.049997747 -0.08077563 -0.49971506 0.11920265
ADSL -0.61865026 0.36171305 0.052447163 0.43749356 0.015560879 0.28532964 0.5252897 0.3859095 -0.11866635 -0.59639835 -0.14602737 0.4057714 0.04453318 0.49687028 -0.2910443 0.05333225
AKT2 0.055505715 -0.16728725 0.2612161 0.094022445 0.1600622 -0.025110064 1.3543811 -0.14606687 0.32020378 0.32847965 0.13020045 0.2149399 0.07896413 0.6554799 0.7235439 -0.073808946
DIRAS3 -0.9473789 0.53421324 -0.56609064 1.0646145 0.5932157 0.28966218 0.34909916 0.0013140836 0.25963336 -0.009850113 0.041012622 2.3197565 0.12134202 -0.124020375 -0.48697808 -0.7449151
ERCC3 -0.023114692 1.6404778 1.4386487 -1.1692439 0.43183187 -0.15838102 0.23662104 1.2605407 -0.049429476 0.5136636 0.29438296 0.45224962 -0.2927471 0.058564212 -0.060566258 -0.12865151
HMGB2 -0.6490045 0.3800941 -0.34124497 -0.970887 0.7309047 -0.2568574 -1.3476942 -0.9790143 1.1590259 0.08442489 0.1807856 0.5463749 -0.11676491 0.38767114 0.29299766 0.8599835
CD180 -0.02534906 1.5901822 0.29250863 0.16244204 0.7493702 0.18720864 0.34434205 0.034785286 -0.004881636 0.13655561 0.31252837 0.058537118 -0.009361564 0.1359586 -0.17500716 -0.35670683
TERT -0.043210637 -0.48620883 0.005593253 0.20320575 1.2488266 0.5384867 -0.18880728 0.2650132 0.28020635 -0.12749864 -0.44773793 0.67260796 -0.858174 0.35539088 1.231252 0.061812494
COL4A1 -0.054455973 0.31930438 0.68067575 0.3392581 0.08938679 0.008426107 0.53660953 -0.6309448 0.4214511 0.11126477 0.44592705 0.12513503 -0.61314756 -0.38555554 0.49157917 0.42282674
SLCO4C1 -0.5558213 -1.158615 -1.0297378 1.9035765 0.36894485 0.054796763 -0.07073664 -0.3136514 1.320254 0.273298 0.49303204 0.54031014 0.4726139 0.5924558 -0.70725006 0.9516082
EZH1 0.7291002 -0.79365474 0.5956915 0.75196356 0.10960799 0.3292776 0.6796207 -0.9787424 -0.09240567 -0.9488091 0.28585938 -0.25249508 0.11468156 0.029415425 0.74344873 0.21918547
GSTM1 0.19841923 0.3833517 0.30203304 0.44525525 0.043665614 -0.18833375 0.34259805 0.4481692 -0.6044839 0.47405288 0.02257163 0.39528534 0.19781706 0.3467688 0.13825208 0.119432144
AVPR1A 0.47293967 0.105105646 0.39924693 0.108304255 0.6942047 0.24137928 -0.59241354 0.07183854 -0.32122377 0.8485653 0.40815723 0.039835233 0.655519 0.33922538 0.9919686 0.15108426
ZMYND11 -0.7479722 -0.10883971 -0.10115623 0.36307245 -0.28005224 0.5686312 0.32818434 0.27798083 -0.023534797 0.39396167 -0.36255503 0.33670503 0.0023093657 1.3933654 1.2289097 -0.029775763
KLF13 0.5517885 -0.40028152 1.4209052 0.879125 -0.17436542 0.020828111 0.38296688 -0.6045247 -0.24620816 0.20290413 1.0316877 0.10670961 -0.14847253 -0.19453621 0.3058283 -0.107566364
FXYD2 -0.21113312 0.72204274 0.14958338 0.73313934 0.2846551 0.044114523 0.19083788 -0.26085457 -0.0070645185 -0.098139524 0.9026107 0.36811948 -0.050488517 0.02657183 0.12657908 0.08949283
BIRC5 0.6832027 -0.70080924 0.30568707 0.9045687 1.442242 1.0466125 -0.24460153 1.2039057 0.05763864 -0.48076835 -0.2320822 0.7326466 0.43119824 0.6311882 -0.5317741 0.021469297
AXL -0.053643294 0.4400198 -0.24118726 0.11586123 0.9136142 -0.0077635963 0.1171064 0.42066175 0.3504069 -0.16854198 -0.10897193 0.07963938 0.22425663 0.49912962 -0.022604395 0.06145701
TSPAN1 1.3445243 -0.12887503 0.083846234 0.5699502 -0.11248368 0.014492501 0.8628197 0.51888716 0.18211919 0.58818275 1.1387677 0.21510644 -0.16526245 -0.38734517 0.78636664 0.48856667
THEM4 -0.25298938 0.8779889 -0.09287002 -0.41804552 -1.0963563 1.5110129 0.3916041 0.23127285 -1.5243949 -0.4586276 -0.051878482 0.5079528 0.20607539 -0.20895669 0.46944034 -0.024249997
ROCK2 0.11170786 0.3607291 0.4040629 0.33019748 -0.073348425 -0.09616803 0.42265847 -0.228643 0.15597008 0.84301764 0.17915298 -0.8545746 0.16520429 0.46022993 0.2067773 -0.11223989
SMARCC2 0.33539855 -0.19821775 -0.27267823 0.20006599 0.042200826 0.28037766 0.02212374 0.16546977 -0.17859064 0.34116516 0.02450773 -0.20681034 0.46442664 -0.3903729 0.59835994 0.034066204
PRCP 0.015243238 -0.2550893 0.09786683 1.1455841 -0.15916137 -0.00085436954 0.5710478 -0.50869095 0.008583603 -0.38340166 -0.08407503 0.49662408 0.19722965 0.49772584 0.53102875 -0.11271253
SCAMP3 0.03308401 0.24676795 0.21082188 0.25619286 0.50494796 0.00016532536 0.34625122 0.062435042 -0.012786065 -0.51195276 0.4259232 0.44625196 0.118460275 0.38588944 0.90592384 0.060148224
PPP2CB 0.0054105483 -0.7681972 -0.24123299 -0.103157766 0.7591902 0.0549307 0.013269095 0.44396314 0.81327146 0.07433709 0.37776178 -0.55263436 -0.44628704 0.5102207 -1.0321363 0.074176565
TCFL5 1.0714324 -0.14711459 -0.1616497 -0.09160885 0.03391818 -0.31975877 1.2182167 0.8722361 -0.45198348 -0.78718555 -0.051229477 0.35172704 0.50329393 0.40060124 -0.21057358 -0.07426732
ILF3 0.20226692 0.6291166 0.27410388 0.22071631 0.21315733 0.0033973637 0.39252126 -0.09647566 -0.1401586 -1.1595999 1.6486887 0.122218594 0.23194328 0.2396655 0.64878297 -0.53874844
UBAP2L -0.13037233 0.42794502 -0.41876587 0.11651151 0.21896574 -0.018710421 0.5402258 -0.17295358 -1.5818645 -0.018377375 0.27530688 0.197457 -1.0236319 -0.552854 0.12832329 0.9755554
UBE2J2 0.30707335 0.33260998 0.005646439 -0.072497316 0.5792262 0.15335806 -0.43647784 0.08595603 -0.6374201 -0.18422098 -1.0826029 -0.11849354 -1.7080044 0.35313335 1.1243122 -0.06568909
SIRT7 -0.026766777 0.660656 -0.098276295 0.46700683 0.9554074 -0.027184732 0.6058571 0.088604875 0.34075534 0.22546749 1.0153279 0.23170386 -0.15627599 0.5645864 -0.05931357 1.5044869
GCH1 0.022511741 0.41948754 0.46716282 0.48480558 0.4428975 0.06765168 0.4847543 0.4354712 0.12606166 0.19007593 0.16253233 0.9303714 -0.98539525 0.29316786 -0.07331189 1.2194723
ADH1C -0.21829341 2.0070612 0.11488434 0.06840619 0.6939694 -0.0022287637 -0.8848347 0.14378092 0.014638195 0.91864073 0.8117237 0.45438567 0.80219734 0.41498682 1.2989393 0.04599317
MYO5A -0.06886556 0.29559982 0.39770308 0.16245295 0.79467255 -1.1516538 0.57650965 0.068446375 0.45412284 0.77899015 0.03513772 -0.8802233 -0.5756536 0.9161795 0.8555584 -0.21800344
ANLN -1.4925313 -0.1943572 1.655926 0.870335 -0.2284792 0.24296224 0.06734295 0.53317463 0.0035710637 0.51425266 0.350006 1.1055872 0.5712719 -0.11181053 -0.09701361 0.155364
DPF2 -0.022069054 0.015533108 -0.15634686 0.39904332 -0.09639467 0.07298493 1.2394863 -0.7354323 -0.008251694 0.3457033 -1.6239728 0.745174 1.4514431 0.16595678 1.2454662 -0.6294784
GCHFR 0.20786017 0.67063314 -0.22937043 -0.15365636 0.05435817 -0.47055808 0.2190231 1.0318263 0.04440747 0.30971923 -0.22753114 -0.27812764 0.113212764 -0.2424224 -0.03360953 -0.03152506
NEDD1 1.0624241 -0.70971495 0.4514925 0.64037377 -0.08424972 -0.19275871 0.38621965 0.54273546 0.1559117 0.5969161 0.551903 0.5683442 0.6418445 0.0426083 -0.82239103 -0.07447252
RASSF4 -0.6208828 1.2452132 0.09247172 0.26310247 0.4126285 -0.036430202 -0.14274463 -0.1393956 1.0907793 -0.24201436 -0.6519523 -0.25671682 -0.27835748 0.49149346 -0.2238947 0.13370343
PCDH9 -0.1888674 0.17522871 -0.05901387 -1.1392524 1.1867952 -0.004302829 -0.84965855 -0.68161225 0.78431123 -0.82201755 0.26838845 0.47802177 0.39793372 0.74473405 -0.09841509 0.70340455
SDHD -0.41422057 -0.1766991 0.19797108 -0.56197315 1.1069459 1.4364977 0.20571794 0.4528355 0.05656347 0.7182464 0.38735572 1.0746181 -1.9548365 0.20372142 1.9421334 -0.2292678
ZNF189 0.9924903 -0.17530774 -0.21183649 0.118917994 0.15125488 0.9531636 -0.021384034 -0.47001338 -0.047874823 0.61408937 0.48118535 0.5790483 1.4996195 -0.4264986 -0.09521661 0.2464201
CASP2 0.002625304 0.10298834 -1.0624251 -0.14598766 0.7142182 0.6288311 0.086627394 -0.8350476 0.44652566 -0.35137886 -0.28507113 0.17654598 0.18202874 0.18761204 -0.878977 -0.12055004
AGXT2 0.48546094 0.04707042 0.09871924 0.4672493 0.34265718 0.89196235 0.82575953 0.4895248 0.5170174 0.5706969 -0.063477844 0.5478904 0.13563998 -0.7830151 0.54925996 -0.2982055
DLEU2 0.4181547 0.12902923 -0.40866154 1.1424623 -0.9950244 0.5453566 0.25031802 0.67935264 -0.013463487 -0.30117187 -0.6735951 -0.49047405 -0.84134203 -1.0164295 0.17368515 0.25025538
E2F4 -0.043826096 -0.6101933 -0.006807669 -0.3913702 0.1298621 0.35086966 -1.8822635 0.45706058 0.41912258 0.20541103 0.10632618 1.7933946 -0.32626683 0.49018463 -0.9723419 0.08773126
UGDH 0.24403809 -0.43653613 1.1443444 0.3028084 1.1486208 0.36264953 0.44567257 0.037003372 0.005483339 -0.1823388 0.4472229 -0.16176774 0.08842806 0.19811861 1.2357923 0.7099548
MOGAT2 -0.070713244 0.51100713 -0.07612901 -0.0009315285 0.66443443 0.99905604 -0.36102876 0.338677 0.13133872 0.40931636 0.0996836 0.48452866 0.26972246 0.9628925 0.6211018 0.1934369
NTN4 -1.171537 0.5219378 0.30170527 0.064716004 -0.32340124 -0.1772496 1.1539798 0.23394224 0.08368949 0.50438267 0.24585997 0.2546383 0.10726628 0.39416236 0.06397068 0.26542193
CSNK2A1 1.421519 0.012883061 0.57538515 2.1112924 0.36104366 -0.010213246 0.58890754 -0.2310865 -0.05879688 0.9653925 0.7999017 0.43582264 -0.14776735 0.15347481 0.19063383 1.3957605
DDX55 0.2566399 0.20260137 0.66763353 -0.8605478 -0.042010184 -0.014597273 0.63196474 0.0013038086 -1.4743648 1.2814771 -0.8038428 0.020546274 0.40203846 0.8131404 0.61946183 -0.09942993
ITGA9 0.072066166 0.5179818 -0.34512535 0.16602743 -0.3641227 -0.0041892463 0.6526472 -0.59173304 0.4140479 -1.332293 -0.34238005 -0.6083591 0.023397408 -0.8388166 0.104759604 -0.041349147
C8B 0.0031188633 0.5132982 -0.14016953 -0.006928105 0.6916004 -0.27114916 0.69306475 0.16373211 -1.0216907 -0.033685792 0.4385985 0.15203619 0.27987203 -0.16219787 0.40276274 -0.1646388
ARID1A 0.030534102 0.14966597 0.37201646 -1.2469786 -0.43534088 1.0517094 0.478654 -1.1125717 0.062229834 0.38003334 0.3815323 0.083361164 -0.26570305 0.288453 0.08433104 -0.57432
SOS2 1.1863312 0.21029851 0.3135977 0.31717458 -1.1111802 -0.080901906 -0.32662275 0.6378917 -1.0828032 0.32018077 0.87274003 0.38218537 0.8608173 -0.06759345 -0.6763813 0.14426081
APOH -0.8042671 0.12236883 -0.8772115 0.33144295 -0.07353541 0.0150943585 -7.654261e-05 -0.5650769 -0.07256357 -0.057308473 -1.0467294 0.6623995 0.11293588 0.89321023 0.42268887 1.7460661
EIF3G 0.068554856 0.28061348 1.3317984 0.42056674 0.67118627 0.066633925 0.29424694 -0.50240296 -0.020998454 1.0466998 -0.028870145 0.19982783 0.95559293 0.012319117 0.22949746 0.43742144
NR3C2 0.38714957 0.08844026 0.76516265 0.7837405 -0.441305 -0.006007983 0.5063149 0.016488835 0.011398032 -0.21843532 0.61849326 -0.11635324 -0.25244543 0.42730606 0.48334652 0.2817854
ZNF143 0.1951947 1.2502841 -0.1940886 0.5788168 -0.022922851 -0.06614845 -0.037791062 0.29539222 -0.38762853 -1.3099381 0.6100728 -0.22171868 -0.04478343 0.6643685 -0.12617373 -0.05998593
KNTC1 -0.03816425 0.2749156 0.027359765 0.6120548 0.12988386 -0.16271704 0.19534291 0.11140846 0.005139204 0.08164019 -0.0391561 0.11548864 0.8572713 -0.25055155 0.09895808 -0.033471752
DEK -0.31754804 -0.25152895 0.24459507 -0.031486947 0.5074789 0.3949741 0.13145745 0.9339703 0.009934097 -0.035209097 0.24094205 0.17942783 0.28494284 0.5001501 0.19191414 0.047245488
TINAGL1 0.020622186 1.1713115 0.3495908 0.05968167 0.796575 0.109344736 -0.8621668 0.96506 0.4316125 0.64111286 1.5414077 0.37995535 0.044001114 0.30565545 -0.9907381 0.57519466
MDM4 -0.57698685 0.6127106 -0.27414346 -0.12892736 0.056073762 -0.006673688 0.41571227 0.12016317 -0.00018060493 -0.0005352302 0.17580363 0.38317496 -0.04561694 0.27529418 0.14160489 -1.1121186
KRTAP13-1 -0.28840294 0.18355416 -0.12907813 -0.635307 -0.49182102 0.39734024 0.35751802 0.08559533 -0.0020491676 -1.2399232 -0.15003034 0.7582474 0.059750088 -0.096068546 0.09451935 -0.09080367
GSK3B -0.038428865 0.35771754 1.2658136 -1.5322237 -0.03069739 0.046056908 0.56517494 0.28408355 -0.023797149 0.26986578 0.19311202 0.16148348 -0.030493842 1.0636822 0.16498855 -0.93848896
PLCB1 0.6188738 0.8355565 0.1808854 -0.201981 -0.85140896 0.20697425 0.22439714 0.47426087 -0.57400244 0.5058853 0.23214558 0.23164408 0.031575374 -0.80531466 0.22304653 0.13496238
CKS1B -0.0026797794 0.2419405 0.24563774 0.29870683 0.43246472 -1.145594 0.14374469 0.2582925 -0.5825484 0.012573047 -0.0934822 0.4531282 0.4125285 0.22373901 -0.13164826 -1.341791
CHP1 0.06619019 0.66738504 -0.5006132 0.10348719 0.07480982 0.20420963 0.14682224 -0.1086414 0.6767932 2.1115167 0.36989748 0.9719519 -0.031318087 -0.5516318 0.0656224 0.26304454
RNPS1 0.94124097 0.4415329 -0.43161693 -0.022563651 -0.20786043 -0.03847313 0.05075102 -0.16583894 -0.71240026 0.20630758 -0.016478134 0.80377394 -0.063884266 0.088491626 0.34022456 -0.10856868
ANAPC5 -0.5292404 0.46694827 -0.5513448 1.6194582 -0.106779285 -0.2658358 -0.22024466 0.15963903 0.2178703 0.0077430326 -0.47022998 -0.4638949 0.08701332 0.49748504 -0.04447645 -1.0301048
SLCO1B3 1.3141571 -0.1434898 0.26761127 0.5601661 -1.2448153 0.009981483 0.70284766 0.32217285 0.2816182 -0.09274848 1.1194104 -0.848977 0.6683145 1.2590648 0.5263929 0.23488806
SNRPD2 0.0041468493 -0.08581561 0.57138294 0.06573586 -0.10927408 -0.21892262 0.36366498 1.7673159 0.09337952 0.27164942 0.21055454 0.08972358 0.08230931 0.0013758908 -0.12507664 -0.11335469
GGH -0.35851702 0.95470494 0.18668264 -0.70457095 0.29347166 -0.11363554 0.3056215 0.00036415062 -0.24097385 0.32701546 0.3485888 -0.53020304 0.06166731 0.197196 0.21640058 0.046690263
TOP2A 0.14573707 0.28572845 0.050540954 0.07296122 -0.46825334 -0.005253261 -0.38645586 0.09378096 0.23204076 -0.003514838 -0.03635383 -1.1107947 0.08481992 0.19283944 -0.027935328 -0.026912918
CTNNBL1 0.59743255 -0.98793495 -0.36124602 0.9186774 0.5086521 0.722061 -0.18626384 0.15584955 0.014842717 0.082758576 0.25704807 0.5368801 1.4995043 -0.43430632 -0.0033674748 0.50525665
HAT1 -0.04771799 0.3522756 -0.13534366 1.4300317 0.43699622 -0.09092195 -1.1490037 0.37390304 1.3189709 0.18278453 0.065722786 0.49699098 0.06728284 0.314622 -0.10064589 0.21172966
MID1 0.04455781 0.95726925 0.28448278 0.17530726 0.4782842 0.4600768 0.36074218 0.1610215 -0.01370284 0.123004645 0.29486197 0.31504372 -0.32887107 0.047101337 0.32768312 0.07031171
RRAGC 0.03637419 -0.0153061915 0.1712598 1.0380758 0.77778256 -0.012014659 -0.08116095 0.123375826 1.0147368 1.053433 0.1186948 0.40524212 -1.8209325 0.3531913 -0.08409194 0.33385497
AURKA -0.035233 0.10430268 -0.023415543 -0.014721413 -0.6590356 -0.12054099 -0.41180468 0.15740445 0.94155025 0.64003146 0.37551165 0.22258884 0.04094273 0.710144 -0.09227701 0.07967941
RBMX 0.026543042 0.42112353 -0.2451246 0.0821713 -0.025712056 -1.5745976 0.6279161 0.5282493 -0.7954969 -0.007246242 0.49073628 0.27931082 0.2669838 0.94095844 0.4093184 0.16645716
AHNAK -0.032385565 1.4381373 0.381211 0.81651855 1.290855 0.0010394471 0.5558992 0.329608 0.7450569 -0.2111793 -0.080828376 -0.04174414 -0.15383637 0.34671357 -1.3520815 1.6709504
LRG1 -0.62198144 0.19110082 0.07546729 -0.36124104 0.40747553 0.2556637 0.44109407 0.15504941 -0.016314548 -1.8805459 -0.21953091 -0.1522464 0.19238374 -0.39810097 0.916847 -1.1452836
COPS7A -0.012767435 0.36133978 -0.09184913 0.4490172 0.41752693 0.0029868342 0.41003847 0.33172637 0.012470855 -0.5781301 -0.13415 0.27910858 -0.7726812 -0.23996939 0.13432865 -0.13811666
SLC13A4 0.12790838 0.06815435 -0.16806157 -1.2289981 0.24279512 0.040537253 0.78117335 0.37012222 0.19003361 0.71943295 0.98095375 0.24845281 0.08579543 0.4786378 0.19483446 2.0880973
FUT4 -0.33370277 1.1139014 0.57164407 0.07911695 1.7346218 0.3503948 0.6113795 1.1613814 0.2238101 0.2724459 -0.34826228 0.20595846 -0.018267997 0.65901273 0.25184536 1.3405106
F9 -0.1229865 0.5759927 0.70713264 0.35707903 0.23688346 -0.3063708 0.25529224 0.54806006 -0.17531995 0.11716783 1.105176 0.71963996 0.09197379 0.26172566 -0.082578704 0.3989808
HDGF 0.75901544 -0.030553909 -0.23299465 -0.12653953 -0.024853133 -0.102728985 1.2361697 0.3162424 -0.032189146 0.15640734 -1.2739968 0.2394707 0.24777995 1.3050307 0.76116467 -0.10398345
NMRK1 0.034651674 1.6822591 0.047462974 -1.9109457 -0.15255636 0.61405593 0.33614254 0.75171894 -0.72719073 -0.32489526 0.45838234 -0.610086 -0.7844274 0.013850539 0.11103362 -0.9563764
SENP1 0.015532226 0.32411963 0.38434508 -0.91186804 0.89728475 0.07079722 0.45062098 0.24281973 0.4295513 -0.095134705 0.6021957 0.65098166 0.28164643 0.69169533 0.8012554 0.2861511
PABPN1 -0.679742 -1.056064 0.5900735 -0.0024448398 0.8741542 -0.00462499 0.64808315 0.50322616 0.08942271 0.7515611 0.40586677 -0.6545465 -0.007624645 1.6477357 1.1230499 -0.27123737
RHOB 0.016238822 0.14499186 -0.92587477 0.055031605 -0.03658385 -0.1426825 0.46194908 0.7228418 -0.46743706 0.1477626 0.38413385 0.24327567 0.27580896 -0.02918709 -0.16402751 -0.04160445
SHC4 -0.01771059 0.09495693 -0.015917819 -0.3693256 0.14121856 0.62141556 1.6878091 0.15273595 0.0022089982 -0.71680975 -0.12041319 0.24441883 0.55711156 1.2950783 0.45377302 0.53540474
PLK1 0.07579176 0.11851328 0.4991714 1.7168542 0.49318686 0.71446013 0.22638208 0.6023949 0.14841661 -0.5698884 -0.07166746 0.26930317 0.02490498 -1.0972264 -0.061262988 0.28764078
DNMT3A -0.6036279 0.48937947 -0.8309237 0.2649036 -0.40822607 -0.07637105 0.17880356 0.56789225 0.10913837 0.56796455 0.19607769 -1.3684102 0.013566456 -0.19100882 0.2020988 -0.1533536
WNT9B -0.02227414 -0.140717 0.4871494 -0.6961575 -0.12802424 0.0034461129 0.70303375 0.47260016 -0.47441795 -0.0028815 0.8698432 0.19947553 -0.061791446 -0.1987448 -0.501514 0.2022392
PRC1 0.5934802 0.4419231 1.4183091 1.7058322 -0.1693626 -1.021085 0.090917066 0.28756735 0.41793835 1.0052501 2.0863454 0.27476692 -0.41726804 -1.0896246 -0.034653977 -0.2568936
ZFP36 0.027494177 -0.17881292 -0.50956833 0.10056465 1.0233079 0.090097345 0.043438964 0.7766098 0.004663571 -0.014404779 1.0819213 0.07023165 -0.46769387 -0.397358 0.12819082 0.30706114
PDE7B -1.8972031 -0.6518608 0.87321144 0.2608936 -0.25475484 1.030981 1.1966782 0.7216209 -0.49366462 0.29733068 -1.162909 -0.6288863 0.044166543 -0.06057656 0.2730669 0.115034975
CBLN2 -0.021025997 0.5963679 -0.120005436 -0.10443454 0.50515455 0.4502422 -0.42679828 0.21814816 -0.35508248 0.65344906 0.22904037 1.282479 0.16817574 0.30562764 -0.16915762 0.2080811
ARID4B -0.007916585 1.3332654 0.3803426 0.33766344 0.07128087 -0.035471454 1.4677132 0.19849169 -0.0035856168 0.47750953 -0.3264373 0.2864907 -0.012313189 -0.6274875 -0.10425294 -0.1825042
MGST2 0.07609161 0.9280538 0.60373765 -0.2838016 0.5089751 0.0044588232 -0.15123323 -0.19845305 -0.5691482 1.451151 0.33278945 0.34866992 -0.12520705 0.10538335 0.81096894 0.27992937
SNF8 -0.033195704 0.79404104 -0.795505 -0.030017553 -0.11331652 0.08502396 0.14701305 0.09787124 0.27229157 0.68298 -0.77196765 0.9994369 -0.12620212 0.37416443 0.27750358 0.324249
FEZ1 -0.8662473 0.280843 0.23340957 0.18145555 0.12692429 -0.33632633 0.48163912 -0.40063807 0.026048027 -0.09294235 0.40820023 0.79173523 -0.26446247 -0.13266739 -0.8244358 0.08034192
WNT16 -1.6680071 0.13563225 0.13150932 0.41674235 0.63777405 0.0024438454 0.24679922 -0.4474831 -0.19646141 -0.87389237 0.572991 -0.032931075 0.752823 0.5336133 -0.08317991 0.3079774
PIP4K2B 0.26719305 -0.1361881 -0.054431107 -0.3096743 -0.7330522 -0.45482802 -1.2111579 0.38547075 -0.3746858 -0.15111426 0.34983328 0.20924848 0.42956632 -0.5857935 0.188479 -0.26887077
MLLT6 -0.41460374 -0.036330875 0.51498973 0.0038876035 1.1146398 1.3907843 0.4133209 0.46874565 -0.010949727 -0.058229636 0.38274986 0.7983882 1.0351928 0.25274062 0.8179737 0.5383642
CEP55 -0.15468861 0.5425046 0.30783236 0.08005461 1.6064193 -0.30629382 -0.35223857 -0.2578912 1.4017726 1.3327271 0.15592156 0.14680645 0.5565825 -0.31318697 0.6348475 -0.18577772
TUFT1 0.21794201 0.6717421 -0.008557379 0.15847552 0.016166825 -0.2038093 -0.014162417 0.47998273 -0.80857784 0.15667301 0.46346825 0.4078998 0.19134095 0.013655592 1.6556956 -0.0940538
TSPYL1 -0.33754137 0.3395432 -1.590273 0.7022832 0.040756922 -0.023649594 -0.12255977 0.40249535 0.78723747 -0.7428135 1.6539638 0.29262808 0.66609037 0.9894243 -2.0851908 0.13330172
OAS2 0.058116056 0.20213683 -0.49444908 0.9566586 -0.09329302 0.8221285 0.4337407 0.9054408 -0.16739264 -0.0872414 0.2810582 0.261397 0.5309775 0.26261002 0.012565655 0.12021157
BMPR1A -0.32811743 1.6664774 -0.82663804 -0.054136913 -0.057756126 -0.011643062 0.35632327 -0.027009392 -0.48736748 0.60326064 0.1527839 -0.70564747 1.1287079 0.31916124 0.6154414 -0.08233095
SNAPIN -0.0120460875 0.40384027 -0.3178577 -0.422631 0.19963607 0.5334617 0.29453275 0.1840754 0.0046414295 0.19002455 0.060890526 -0.14250341 0.16883685 0.18676099 -0.06802348 -0.27270484
