MYD88 1.389824 1.1637957 0.70811886 -1.1852092 0.007176954 -0.37914684 0.054731738 -0.7364603 -0.047591303 0.9586764 0.31227612 -0.53230786 -0.1965309 -0.014100799 -0.1564029 0.5462626
YEATS2 1.0746526 -0.021680977 -0.062579125 0.39313856 -0.15024525 0.63502854 0.30414665 0.96119684 0.76628083 0.82764304 0.5174659 0.5541484 0.08699996 0.35249734 0.3113513 0.5954025
ENSA -0.53140634 -0.23320493 0.37509286 1.021453 -0.027137302 -0.0042192633 0.39765763 -0.11947234 -0.651791 0.24411288 -0.19674245 0.022014108 -0.45989352 1.5456268 -0.41480234 0.1892136
AGAP1 -0.2735452 -0.110012576 0.4577218 0.14863208 0.021973278 0.8832323 -0.13301857 -0.088775136 -0.5331256 -0.022687256 -0.059606228 0.023560306 0.3545059 1.27285 -0.36294708 1.0342605
UBQLN4 1.0163023 0.41250184 1.5996284 0.24812698 -0.0093881525 0.052608937 -0.30097508 0.81772304 0.12405368 0.01918697 0.36365363 -0.008279617 0.4822357 -0.040256266 -1.3018994 -0.064153716
TMEM53 0.18607433 0.06897395 -0.47838697 0.03336615 0.59898543 0.35786104 0.6718514 0.12893763 0.43682468 -0.030353067 -0.28387877 0.5677326 -0.8291498 -0.17525308 0.8927763 0.27287826
DGKZ -1.5875305 0.5872575 0.42618635 0.16912808 0.35432768 0.17922057 0.67321897 0.19346416 0.3656594 0.09511538 0.15674713 -0.013723595 0.34688458 0.7964016 0.37981468 0.17977847
UCKL1 -0.5947136 0.35514942 0.014496414 0.2766632 0.46129027 0.25760585 0.11511713 0.14616105 0.4928989 0.026327822 0.32320556 0.054632165 0.6346619 0.09960786 0.2979277 0.43764704
FXYD2 1.3160071 0.50763816 -0.58607304 -0.40353903 -0.008092249 1.1713463 0.1691303 0.22835653 0.63065535 0.040848404 -0.8991262 0.2267849 0.20004174 0.72775465 -0.05220626 0.21719334
PDIA5 -0.22004287 0.5259502 1.2341868 0.97136235 0.51698655 -0.072123796 -0.17463954 0.48166543 0.1463722 0.4591672 0.035270672 0.7050407 -1.5955322 -0.03760207 -0.45533556 0.635856
TRRAP -0.99631923 0.4564222 0.47102305 0.2005659 0.2588422 -0.06852441 0.68759394 -0.3872397 -0.7123757 0.5255927 0.82935894 -0.00208564 -0.7159599 0.17091015 0.292729 1.6723378
NDC80 0.23083767 0.22173661 -0.1947385 0.078382045 -0.1536592 -0.73066026 -0.32482493 -0.011666554 0.012144655 -0.64938253 -1.0425012 -0.002158456 0.6330022 0.11243651 0.21048504 0.2930002
SATB2 1.2810798 -0.18380976 0.51682264 0.1481825 -0.3412173 0.16177225 0.21439141 0.8411632 0.6308122 1.6492742 0.10451131 -0.13633972 0.41283485 0.7513775 0.8970165 0.4090874
RBBP5 -0.17823566 -0.2786397 -0.17422748 0.03189403 0.41408375 0.3645956 0.027756529 -1.4073851 0.19886978 0.26404706 -0.9104762 0.7945669 0.094113 0.037759807 0.93547815 1.3348087
SAFB2 -0.04061856 1.2156785 0.051227108 -0.47298843 -0.012980867 0.3799853 0.13549428 1.3719105 0.032736257 -0.19641903 -1.1436995 -0.2869242 0.18989313 0.2400629 -0.07862249 -0.10442114
HDAC6 -0.17509118 -0.02541557 -0.032787852 0.21397378 -0.15550432 0.053465206 0.033422455 0.91699886 0.7128624 -0.10619336 0.388904 0.007204003 0.34466943 0.15821406 -0.06459973 -0.11088777
ADNP -0.013295638 0.27022025 -0.6688732 -0.86930853 -0.6880874 0.24183302 0.07699243 0.3824439 -0.7567701 -0.022358207 0.32529834 0.010611037 0.810142 0.21211824 -1.0628604 0.22324309
TSPAN1 -0.5182425 0.51068693 -1.6293671 0.11226124 -0.024907492 -0.17499591 1.168912 0.64426863 1.1498288 1.229352 0.5162679 0.37438872 0.11917516 0.74428636 0.9197072 0.8663
ERCC3 0.48987696 -0.19666879 -0.12998874 0.025324496 0.21639822 0.1711149 -0.16474143 0.24260704 1.5229843 0.8882972 0.41138113 0.18933496 0.38947672 0.141276 0.8038455 0.30735382
LSM2 0.42805097 -0.090536125 0.4286289 -0.17047238 0.5110193 0.8317968 -1.3901765 -0.45280167 -0.091369145 -1.218644 0.16019069 -0.2490324 -0.06366469 0.2589941 0.6011045 -0.2377019
PRKAR2B 0.1563272 -0.1291317 0.58430225 -0.66956 -0.021874303 0.36124954 0.19626541 0.16172189 0.33311054 0.07504646 -0.84302616 -0.06011314 0.2748513 0.37587893 -0.054870762 0.33496514
NRAS 0.50741464 0.5103897 0.4197759 0.35469198 -0.09175972 -0.065331794 -0.09931936 0.47100836 0.6507744 0.99041927 0.5297604 0.3348229 0.5520199 -0.12683895 -0.05919456 0.5081402
FBLN1 -0.08425904 0.12071632 -0.11553919 -0.52342075 0.23619603 -0.17427987 -0.14319737 1.3963313 1.339838 1.2323729 0.5319754 0.0854699 -0.8966976 -0.009418444 -0.07591521 1.3572538
SLMAP 0.16768764 0.008811944 1.6425576 1.1547595 0.14760146 0.22304283 0.41301146 0.33447087 0.1596554 -0.3721346 -0.44535017 0.004571767 -0.063062675 0.3407413 -0.025177488 0.16853312
TPD52L1 0.10166154 0.37592635 0.28292352 0.2401492 0.83672523 -0.2175401 -0.052763745 -0.0062240455 -0.171175 -1.5945714 0.081558734 0.15444386 0.49741676 0.029110402 -0.054794587 0.53326046
HLTF 0.1593662 -0.28660247 -0.13654658 0.18592933 0.5309807 0.36142838 0.23264922 0.23861958 0.7613779 -0.74926376 0.7389666 0.3382997 0.099959135 0.29601833 0.07342746 0.4773854
FAM20B 0.3083576 -0.49377388 0.10884341 0.057382025 -0.014038734 0.0022229291 0.031606335 -0.81889397 0.07272845 -0.056473427 0.22269148 0.01218314 0.57553744 -0.07827489 -0.001867136 0.38806832
ASL 0.020195404 0.8136725 -0.0016471762 0.7529658 0.4797297 0.15021445 0.6763544 0.5829039 0.43320224 -0.6001516 0.1539018 -0.5181873 0.36326438 0.6698847 0.26970965 -0.10097233
WBP11 -0.5032052 0.19920416 -0.22627646 0.15271667 0.20189057 -0.19196679 -0.025181925 0.41590095 1.2383537 0.27656913 -0.027921753 -0.00458349 0.5238076 -0.14726575 -0.40187052 0.7936465
PXDC1 0.9230787 -0.21574713 0.30140674 -0.014768508 -0.000968986 0.753695 -0.45582536 -0.5639361 -0.36779442 0.0015602158 0.1187063 -0.10834115 2.3116333 1.3725361 1.6724672 -0.25154957
FOXM1 1.0925448 0.43184212 0.050140314 -0.075600855 -0.027654024 -0.018509395 -0.7823123 -0.21892437 0.020148672 0.51142967 0.088867895 -0.31923646 0.2048743 0.44546887 0.16554439 -0.0074628857
ACADS 0.6560102 -0.071368 0.23927927 0.27650654 -0.17097601 -0.13104185 -0.43086612 1.393871 -0.18106832 -1.6688818 0.674463 0.17664558 0.26767048 0.27131405 -0.065190956 -0.03629295
IL1B -0.52653474 0.29481447 -0.018529596 0.14549647 0.98663807 0.39544797 -0.09246907 -0.3566785 0.44719705 -0.10561128 0.4744576 0.020691738 -0.90035427 0.14305747 -1.0157245 -0.069043286
TSC1 0.80909204 -0.46931297 0.6435618 0.13523935 0.011856243 -1.7468033 -0.6209066 -0.28264222 0.17757928 0.44512743 0.7714563 0.009509345 0.65693873 0.082642965 0.68276125 -0.076191
UNG -0.87800646 -0.12343613 -0.64352375 0.57885593 0.103879414 -0.13529891 0.2686535 1.0329235 1.5871849 -0.44770047 0.4659 0.9790073 -1.2001783 0.08244366 -0.20928161 0.21577013
PXMP2 1.2848618 2.0225928 0.40964964 -0.012209605 0.41236636 0.07882316 0.20821638 -0.036960226 -0.068675965 0.96869236 0.78448963 7.3793344e-06 0.7254626 -0.06757695 0.23332873 0.10452464
PLSCR4 -0.19113274 -0.35907173 -0.043052398 -0.28144103 -0.94838655 0.163378 0.0024199835 1.6047904 0.09584162 -0.4609845 0.5341243 0.006539574 0.18259627 0.13168721 -0.42712647 -0.24872702
GABARAPL1 0.446479 -0.07427329 0.6619213 0.2815209 -0.27229312 -0.02042662 0.5975949 -0.29515103 -0.093024865 -0.42055255 0.10575671 -0.009492952 0.6622115 0.49669343 1.1190599 0.18915516
GSTM3 -0.9694451 1.7736897 -0.27006277 0.07844034 0.04708634 -1.4002022 0.86021477 0.45044735 -0.17086206 1.1682755 1.1105736 0.014192209 0.5263447 0.1392674 0.42029372 1.0225888
RPS27 0.27365485 0.15777221 -0.16858505 -0.0035217186 0.10491016 0.532584 0.3318287 0.09531281 -0.29508626 -0.007898156 0.35689571 0.6475427 0.49574968 0.93784094 0.31404498 0.2103501
GPANK1 -0.4798979 0.31250858 1.3577843 0.5266576 -0.013867093 -0.08647023 -0.4080008 0.3680326 0.26040646 -0.0031948043 -0.5448511 0.9336733 0.3052162 0.13302055 -0.17214738 -0.108951844
PLCD3 0.0769652 -0.10637559 0.11696761 -1.338887 0.02115894 0.76340544 0.15585844 0.27361915 -0.2301012 -0.009900478 -0.2921825 0.014433633 0.091208585 0.49428293 0.26403257 -0.7910247
PRKCA 1.6103776 -0.6672682 0.40822327 -0.3320923 -0.07257642 1.0498148 0.06838983 -0.08908333 -1.8761542 -0.0411931 0.29864377 -0.810564 0.51596177 0.3598179 0.36835566 0.52410114
NDUFA4L2 0.33469185 0.30600834 0.899803 2.0210383 0.523106 0.38610741 0.69511557 1.0340995 0.2506161 0.30960461 0.72995806 -0.06666294 -0.43403348 2.4458268 0.8357163 0.4048905
CUL4B 0.26363704 0.13384932 1.165195 0.6602148 0.10025332 0.9444888 0.14495395 -0.22874638 -0.4909096 0.016608989 0.033572882 -0.030285217 0.14752677 0.1925849 0.47654468 0.9536515
CBLN2 0.6037557 0.27739933 0.7700739 1.4481597 0.03654917 -0.059416797 0.06007065 0.6170464 0.44331235 1.0329398 -0.40448883 0.004786413 -0.038337052 -0.6282056 -0.5900107 0.6617695
OAS2 0.22016901 0.21003412 0.69771475 0.60584754 -0.01025217 0.41616598 -0.019561872 -0.6613681 0.266477 0.014030497 -0.4628534 1.0928466 1.173348 -0.31806618 -0.45890924 -1.3852975
MAPK3 0.085512996 -0.057812203 -0.8316759 0.22765996 0.5726882 0.27622706 0.039287556 2.2269514 0.83160186 0.20463157 1.3756764 0.19292258 -0.067885846 -0.6856687 0.13572283 0.6412694
HNRNPK 0.34848762 -2.1949856 -0.619815 -0.71674955 -0.10095472 0.31163108 -0.10714106 0.33403677 0.3422193 -0.13837403 0.021785583 0.081496075 0.18471226 0.41491213 -0.15566558 -0.16085064
UBE2S 0.37490484 0.4024387 0.77695024 0.679544 -0.025108052 -1.526745 0.4867061 1.282406 -0.12679529 0.55575526 -0.65370023 0.0037121638 0.29527956 0.8718025 0.21585381 0.013885629
CDCA5 0.4374024 0.7040211 0.21038064 -0.6432719 -0.070845604 -0.015879922 -0.026407985 -0.4637906 0.24931873 0.8863463 0.54670864 -0.22615066 -0.12354237 0.038523953 -0.4844859 0.8789332
MCM5 -0.32688123 -1.1992015 0.22875471 0.2896445 0.05410403 -0.33647862 0.31038055 -0.14580455 1.0864208 -0.058679372 -0.38434264 1.366623 -0.86707205 1.534454 -0.072609365 0.57686937
WASF1 0.45895097 0.35934767 0.8951934 0.8888166 -0.024184404 0.016386088 -0.39419827 0.08828405 0.2522024 -0.016951894 0.01711064 0.03429972 0.18437532 0.53552777 -0.025574125 0.31472552
THEM4 0.28393126 -0.17301038 0.93960434 0.46939638 0.3286774 0.5684255 0.55302584 0.07986899 -0.549719 -1.439705 0.1414921 -0.014257985 0.28135833 0.62616026 0.02181803 1.2687135
ARIH2 0.14503606 -1.2822549 -0.7816138 -0.013605445 0.45385697 0.062552944 0.11088285 -1.511819 -0.020002142 -0.03532041 0.7526581 0.54238087 -0.43109238 0.0970822 -0.2266441 1.1345185
ADAMTS1 0.86828876 -0.52987945 -0.51086515 -0.571663 -0.80376047 -1.6174952 0.83492976 0.09032063 0.40527627 -0.11480277 0.18546999 0.5758184 0.63273096 0.020827968 -0.7161857 -0.114901036
GGCT -0.16431348 0.024118235 0.54359585 -0.22297542 -1.4999579 0.31709105 1.4814057 0.5773711 -0.092705116 -0.09538493 0.42422798 0.0006950336 0.17792545 1.3020664 1.0288205 -0.091362774
PDCD11 1.2063136 -0.27795374 0.325016 -0.17884225 0.5226323 -0.16777693 0.13963096 0.061645888 0.4443391 -0.40049115 1.9432583 0.02105409 0.4030248 0.6676668 0.5743521 -0.29566598
MYOZ3 0.15756743 0.07145398 -1.3329638 0.01930302 0.1519439 0.13858831 0.2661437 0.04885627 0.57560027 -0.32644543 -0.54053 0.07916975 0.39025572 0.19022563 0.44576925 0.41990596
MYO5A 0.20148644 0.24877109 0.36132795 0.09420845 0.033474937 -0.022997841 0.38582587 -0.16035303 0.33450186 -0.52473414 -0.03448107 -0.01052402 0.36701933 0.9464658 0.19174066 0.09200601
AKT3 0.06150593 -0.116687946 0.14723186 0.014819921 -0.091457576 -0.19208734 0.8328216 -0.28801692 -0.041792847 0.09998131 -0.1220085 -0.2401778 -0.12561661 1.6856606 0.053314585 0.4339979
PPP2R5A 0.498382 -0.82252043 0.9174933 -1.9866852 -0.004896265 -0.16422637 -0.7587679 0.33441222 0.16803484 0.12558514 1.4438941 -1.0687954 -0.5540223 0.21334805 0.13266546 -1.3601979
KIF2C 0.39263055 0.19964677 0.4373261 -0.06578862 0.1532245 0.27574217 0.056788076 0.30366012 -0.3085829 0.11417678 1.6177647 -0.034162898 0.6711531 0.755187 0.53240186 0.0039483374
ACAA2 -0.0074761095 -0.03707097 0.4289749 0.4421885 0.22173311 0.0811325 0.7861641 0.1814012 0.40594086 -0.1941391 -0.5677779 0.012830951 0.19517747 0.67223525 0.30676603 1.1426193
SETDB1 -0.3771671 0.55930877 -0.7319655 0.14489585 0.6429393 -0.0027574562 -0.8223466 -0.1905361 0.83758473 0.44819993 -0.05063011 0.36243716 -0.5074519 0.0972342 -0.043819822 0.039998997
CHP1 0.48547667 0.4167532 0.717401 -0.47824335 -0.17486659 -0.0600095 0.7160845 -0.6298188 0.42420378 1.3810791 0.6250185 0.000111947535 0.4095924 0.4047213 0.6014612 0.84461635
PSMD4 0.22872472 0.10959407 0.2170849 0.25774363 -0.008518656 0.8869192 0.83022684 0.53688866 0.4817865 -0.15402709 0.5522688 0.00075568695 0.016920555 -0.41612428 -0.8833326 -1.6514821
DUT 0.40668002 -0.11114602 0.84906626 0.91358405 -0.20323966 0.0629233 0.24571268 0.659974 0.95342195 0.76295304 0.46928617 0.005378603 0.10512437 -0.2827297 0.2900646 -0.17477557
CLEC4M 0.21273899 0.06823102 0.33889103 0.21892656 0.063145 0.02807802 0.8996349 0.582195 0.41461536 0.3573482 -0.61897224 -0.66019547 0.32767004 -0.5917539 1.3649524 -0.023368394
CNOT1 0.15341923 0.94643843 -0.246758 -0.103814475 0.058219887 0.6619931 0.15395202 0.29446313 0.45719448 -0.40079737 0.6121853 -0.39299762 0.6506166 -0.38580257 -0.08463552 0.15616705
TRMT12 -0.11557454 -0.0063526854 0.75784427 0.46572414 -1.0300604 0.06275328 1.2291021 -0.40454328 -0.1275647 0.39055422 -0.02559896 0.030630836 0.63020885 0.20337495 -0.009497804 2.9073598
POLA1 -0.2793541 0.2439865 0.5975392 0.36836046 -0.14531074 -0.18419196 0.64515287 0.7530018 0.7179702 1.7423356 0.4381436 -0.025001585 -0.48359677 0.050628353 0.86872876 0.5890033
SNAPIN -0.5473768 0.33826798 0.3272692 0.46195513 1.5767351 1.4096115 0.15525365 -1.5157694 0.44211072 -0.48823515 0.14971198 0.03690898 1.1913465 -0.18951584 0.63064265 0.022467121
PIK3CB 0.017638678 0.045809694 0.31100136 -0.41671953 -0.31540123 -0.2920095 2.3351789 0.87565047 -0.06912677 -0.33601454 -0.22374266 -0.10482963 -0.10165579 -0.04258473 0.8104893 0.7179818
SIRT7 0.57734925 0.25782382 0.4812158 0.18062924 0.018767715 0.02107012 -0.15737389 -0.70413697 -0.09954584 0.3035689 0.29778796 -0.0098461 0.89987314 1.1867332 0.45646802 0.98207664
DDX55 0.25897485 -0.10574119 0.29138625 1.409065 0.70381093 0.2701202 0.45130566 0.52231294 0.11954465 -0.15372746 0.07239835 1.4765612 -0.28908426 0.055202298 1.3111243 0.35021558
NKD2 0.39404073 0.6238762 1.0972722 0.57852286 0.122395165 0.4223557 0.0985378 -0.073599204 -1.1003704 0.09727306 -0.077238366 -0.015438749 0.070950314 0.7721736 -0.6273854 0.008216397
GTPBP4 0.040690437 -0.65264887 -0.8506614 -0.007976217 0.041448623 -0.5621587 0.74140185 -1.180829 1.0724671 -0.015726004 -0.40004313 0.41132802 -0.17854045 0.08282956 0.5132202 0.6833265
TBX15 -0.095457464 -0.051304355 -0.17989136 0.2820791 -0.062006027 0.51560783 0.6685637 0.4093803 -0.14100057 -0.41040117 -0.16543518 0.06873328 -0.0552284 0.087190196 0.15028882 1.6948181
ARHGAP10 -0.8990226 -0.1967629 0.78535753 0.45010024 0.7801752 -0.088158146 -0.2815017 -0.09837427 2.0336952 -1.0745453 0.34944287 -0.7153628 -0.02830207 0.05381966 -0.07091002 -0.49781442
UROC1 0.056607217 0.185779 0.5543588 0.4193913 0.012301978 -0.17702918 0.63236684 0.27523994 0.13648167 -0.18857998 0.27427214 -0.14458281 0.10579743 1.0800574 -0.66912544 0.28357902
NEDD1 0.31895983 0.13454448 0.43161154 0.5247478 -0.04344453 -0.44880792 -0.038159467 0.83807105 0.25675544 0.04875812 -0.39096537 0.5690178 0.20116486 0.2411902 -0.25156918 0.095358394
TAF5 0.21366476 -0.17077108 -1.4381812 -0.21887378 0.041703805 0.86604714 0.23469378 0.64075035 0.9159984 0.17816356 -0.043599572 0.06754862 0.19678174 0.6260023 -0.102037564 -0.05105277
ADH1A 0.5026922 -0.7009354 0.05586814 -0.118303634 -1.1072512 -0.22382067 -0.035745025 -0.5106617 0.10443186 -0.044337984 0.06859174 0.49799404 1.3418857 1.4796947 0.1864715 -0.44811085
GADD45A 0.009967504 -0.17022188 0.22713877 -0.6803625 -0.0048798868 0.3105851 -0.30842766 0.075844 -0.33714733 -0.028901147 -0.11136398 0.0335749 0.3568136 -0.16802135 0.021583918 0.40005705
SNRPD2 0.1913854 0.8008721 0.6260868 0.67487913 -0.06907017 0.005237432 0.2507353 0.13883755 0.1798681 -0.020719327 0.09688546 0.05799468 1.01375 0.11817668 -0.07288767 -0.013496066
DYNC1I2 2.2489614 -0.36580023 1.4186238 -0.45865247 -0.774478 0.49681604 -0.21256131 -0.1286602 -0.31036538 0.7304276 0.48368898 -0.5164747 0.8658752 0.46008173 1.3145894 -0.108990386
MASTL -0.33181643 0.5226861 0.18595941 -0.46251637 0.50904346 0.06445212 0.18213905 0.3131148 1.0825802 0.09535308 1.2133619 -0.006234986 0.69565165 0.7881346 0.36200038 -0.030722246
MCRS1 0.30040383 -0.3506635 -0.33489332 -0.014834561 -0.17336813 0.30515033 -0.22100736 0.35937536 0.37849864 0.14719819 0.3734418 -0.52213734 -0.18051612 0.040922903 -0.031655148 0.37564355
SH3GLB2 -0.29597148 0.4987932 0.47678828 -0.090792455 0.2765937 0.052612294 1.4587511 -0.09148937 -0.44221246 -0.013270335 0.5274039 -0.025550343 -0.16984054 -0.09585041 1.1580662 -0.72769827
MICAL2 0.36728102 0.1929893 -0.22482483 0.1259064 -0.001087382 0.08607906 -0.55830216 0.7152035 0.42465875 0.508968 0.60192883 0.11026406 0.177368 0.13505027 -0.0908922 0.9074115
RRAGC 0.2531843 0.28280845 1.1819286 0.08826805 -0.14425439 0.96884704 -0.36384055 -0.12251539 0.95462495 0.77202034 -0.34141606 -0.070766054 0.15904006 -0.046589527 0.039993886 0.05303037
INPP5A -0.271843 0.022849707 0.4026683 0.2691373 -0.15599588 -0.087638445 0.26247305 0.27300668 0.20213032 -1.0157217 0.044406675 0.5304168 0.4685322 0.8569933 -0.33310142 -0.06696303
RPS6KA3 0.44641107 -0.98150843 0.44138858 0.37495422 0.24934721 -0.09175273 0.057843965 0.17755175 0.25398603 -1.1008927 -0.21213673 -0.00033701624 0.076488964 0.18111153 0.21122476 0.13205972
CETP 0.35452145 0.36180875 -0.5912276 0.059808705 0.0507704 0.14381304 0.2016434 -1.0902803 -0.6481872 -0.007191993 -0.059357263 -0.40137577 -0.46325365 -0.6576259 -0.06618944 0.9181154
TSEN2 -0.7361799 -0.22258545 0.9998928 0.2985612 -0.021158751 -0.10077621 -0.26293817 0.23072734 -0.17361315 0.4760067 -0.2761132 -1.8939098 0.78594625 0.07103223 0.109159246 1.2002912
FOLH1 -0.22851889 -0.13437115 0.15098196 -0.12480751 0.16295198 0.8026446 -0.35161534 -2.1829307 -0.2097288 -0.046627384 -0.08088539 -0.0117323985 0.46705845 2.091458 0.71702576 0.18351619
KDM6A -0.2248278 0.3413514 1.4235588 -0.16761209 -0.20128635 0.09708238 -0.08496857 0.0487427 -0.4441089 -0.66320693 -0.16007864 0.37512916 0.5791447 0.26271805 0.1520522 -0.0816479
BUB3 0.1788408 0.11526427 -0.48528758 -0.595337 0.1636672 -0.03324331 0.6793555 -0.13204855 0.80650777 -0.45059526 0.1593131 0.08286995 0.3746714 0.4036975 0.41868153 -0.09875681
OTUD7B -0.039234847 0.6741374 -0.021269366 0.3612907 -0.19158505 0.07394597 0.08192929 0.9466185 -0.12316108 0.8352368 -0.31993315 0.41433007 0.5723823 1.4768016 0.9561247 -0.15050967
PKM 0.12992045 0.08332003 0.013227627 0.08677042 0.11546731 0.6888216 0.6115269 0.41245738 0.31302863 -0.7317576 0.1009966 -0.33220845 0.7147859 1.2065235 0.21387035 0.7304515
SUOX 0.31979483 -0.11724027 0.38117334 0.5386249 -0.008979709 0.28543618 0.16996549 0.18862043 -0.009301479 0.016426096 -2.050939 0.008958546 -0.01764242 -0.26703414 -0.65060776 1.1183287
LYVE1 -0.17542332 -0.056248747 0.16369058 0.33272114 0.21887922 0.39110848 1.1434493 0.56431496 0.22498764 -0.43762785 0.25827172 -0.022708138 0.10983497 0.8710529 -0.1761021 0.6552559
MATR3 0.62607956 0.15156715 0.5078789 0.16473405 -0.6246132 -0.051184352 0.36883903 0.37014383 -0.41818514 -0.0016296837 -0.33030754 0.08559901 0.31577697 0.3072786 -0.7762765 0.1659317
LAMA4 0.39105412 -0.08629978 0.39006886 0.18264043 -0.2775532 0.46163556 0.40558136 -0.21407142 0.08518427 -0.46793917 -0.025884388 -1.0310986 -0.20644863 0.28384107 -0.0790381 0.8967893
SORL1 0.3552973 -0.1260079 0.5419248 -0.14887957 1.1075475 1.139186 -0.08124002 0.20042327 0.41185087 -0.12722403 0.96920186 1.0555375 -0.2997288 0.21026345 0.90702134 0.7864012
GSTM4 0.046619505 0.2928575 0.31097737 -0.19968957 -0.10390813 0.6919446 0.60549426 0.28880516 -0.45241755 -0.6931601 0.012053936 -0.047037035 0.15951979 -0.34867802 -1.8353707 0.20601861
TINAGL1 -0.14805743 0.34489828 1.4292953 0.62630206 0.022915015 0.0049880445 0.433162 0.09558422 0.2010587 -0.60796314 0.4285922 -0.013647801 0.86423606 -0.16237852 -0.7067455 0.38910496
ACBD4 -0.29849946 0.1908385 0.72649324 0.41770142 -0.63456005 0.0043404554 0.18897755 0.18017432 -0.15509722 0.13654053 0.44849047 -1.1105013 -0.07276202 -0.28538615 0.6846504 -0.49277973
KLF13 -0.037319526 1.2855291 -0.025820002 -2.070443 0.36125678 0.500368 0.64499 2.3361266 1.566044 -0.022189805 -0.54206645 0.3296861 -0.077412054 1.0159578 -1.5011694 0.0025544001
TSPYL1 0.20691939 0.26990026 0.36738798 0.13517137 -0.0014860672 -0.15227236 0.9105283 -1.0551485 -0.005215265 -0.05064057 0.43377775 0.20402259 0.20353693 0.32281774 0.3652852 0.26357752
PITPNM3 -0.35762024 0.06376785 0.09607375 0.16049996 1.4657278 0.9008054 0.19729136 0.6641412 0.5858431 -0.07625127 0.052678656 0.06975549 -0.09509303 0.2944893 0.42614093 0.452038
SLC2A2 0.45841226 1.2249136 0.51210874 -0.0661645 -0.18889642 0.061885376 0.33655357 -0.01387706 0.41695514 0.81601363 -0.30418077 -0.06581216 0.48286137 0.54775774 1.6144669 0.12148887
WDR46 -0.864321 0.41773072 0.39269346 0.04202244 0.14267151 0.012173355 -0.10936594 -0.8683188 0.7920689 0.035729494 0.76487297 -0.009392018 0.6780566 -1.4702753 -0.19883236 -1.3904144
CYP39A1 -0.4449024 0.17722735 0.26306608 0.20749474 -0.16441748 -0.62255406 0.41755235 0.18402225 0.8191528 0.15941252 -0.8412071 -0.022392279 0.36028296 -0.49582934 -0.25358278 0.66858345
TRIM15 0.17202778 1.07742 0.37107816 0.22696972 -0.0032930826 0.44085857 -0.18100426 0.55449975 -0.14138599 0.35284472 -0.8604958 0.04768473 0.3219049 -0.21278794 -0.55894583 -0.12092494
DYNC1H1 0.13383457 0.45870313 0.09364017 -0.9334797 0.5982895 0.597082 -0.07232435 1.4370226 0.6003969 -0.058636203 0.5583027 0.002946712 -0.08151612 0.441677 -0.69842 -0.6698041
CUX2 0.5463921 0.23897614 0.18213679 0.046579666 -0.01821362 -0.17117323 -0.42992255 -0.15169825 0.89412165 0.998535 -0.003218213 -0.49188784 0.0054882304 0.7032426 0.12693043 0.48470202
DTL 0.099567 -0.10049752 1.1648246 0.43382624 -0.0070761275 0.6714593 0.28723463 -0.08925345 -0.98225534 -0.020080743 -0.09604714 0.87744486 0.14018945 0.28256014 0.63062876 0.3272067
ELK1 0.73805827 1.2986057 0.51634276 -0.4809011 -0.21910231 -0.53452134 0.26060066 0.150281 -0.8650227 0.10109816 0.04975743 -0.13938355 -0.025380848 0.27862278 0.05975552 0.3976552
RAN 0.049148545 0.6073519 0.49952427 0.033950973 1.0979866 0.086523525 0.81674945 -0.08903211 0.19294092 -0.06197073 0.6024848 0.007934677 0.34037986 -0.37027583 1.1031446 0.49144563
C12orf75 -2.8911896 0.60432655 1.4235752 0.56877506 1.6352565 0.32412782 0.8804012 -0.43350995 -0.19562955 -0.061402507 0.6258303 0.05406916 0.031003056 0.23890187 1.1874069 0.6518235
PSMD3 -0.13667467 -0.19868803 -0.060929764 -0.5742498 -0.00091953203 0.41158593 0.68972605 0.82083386 0.047651008 0.029362839 0.538091 0.3339655 0.04633453 0.6606412 1.2978507 0.2807416
PIK3CD 0.8076087 -0.6179021 -0.16565189 0.242183 0.017735347 -0.08161126 0.10148331 0.25625286 0.2125231 0.023420483 -0.9718973 0.013374787 -0.14968425 0.14380151 -0.107359156 -0.6232703
RFXANK 0.26133427 0.16000806 0.0688395 0.20717165 0.005100455 0.14908576 0.17400447 -0.6266038 -0.42505085 0.15814164 0.51060945 0.4311366 0.56892514 -0.4310688 0.82829124 0.8535699
ZSWIM6 -0.2631077 0.17762086 -0.20477332 -0.13475078 0.021162309 0.14618003 -0.15823677 0.71602726 0.45026627 0.08481828 -0.4982815 0.0801397 0.61426044 0.23313881 0.326244 0.05614537
FCGR3B -0.18555804 -0.15039206 0.30230287 0.019207025 -0.24579504 -0.14883587 0.69286674 0.004488256 -1.0855309 -0.022154434 0.21761407 0.39712578 -0.19649675 0.033795677 -0.59197193 -0.016247902
MGST3 -0.07834459 0.20835176 0.3671359 0.19262725 -0.08500391 0.046918225 -0.4097364 1.3169556 0.2611299 0.08083082 0.5968311 0.03975238 -0.10461772 0.2213093 -0.08066594 -0.010924319
CDCA8 0.03794928 0.32148162 0.8878196 0.9677083 -0.643392 -0.033792127 0.20487635 -0.19000831 -0.6137275 -0.55847734 0.5043541 0.030449554 0.26922062 -0.10896365 -0.041067377 0.6981364
GCHFR 1.4747919 0.49435002 -1.0574653 -0.050912086 0.01214754 -0.41613457 0.11387469 0.3173524 -0.07329928 -0.060274348 0.093940936 -0.0031872424 -0.66515714 0.2670697 -0.12725939 -0.6400891
PBK 0.81262016 0.24942057 -0.08763511 -0.20471287 -0.2811079 1.1078376 -0.08364923 0.4349411 0.1976614 1.1515396 -0.18002167 -0.050637238 -0.26558015 -0.58181316 0.51827204 0.5659633
CSPP1 -0.5017032 0.30819345 -0.36682928 0.08767932 -1.3741801 -0.2033581 0.14093843 -0.19764028 0.61721987 -0.5060002 0.07118579 0.002620663 0.7221677 0.104892336 -0.23283158 0.0060399137
ABL2 -0.07759528 -0.54285425 1.4472176 0.8005069 -0.098674625 -0.9241336 0.9658507 0.59902 -0.15667023 -0.0042823753 -0.24434602 0.015100713 -0.8403977 0.23208734 0.017355373 0.68093336
TPPP2 0.39554244 1.2090192 -0.8975248 -0.058287 -0.00636017 0.6615658 0.33141857 0.330088 -1.1104237 -0.0155565245 0.06381305 0.23577133 0.16308175 1.2163104 -0.17695785 -0.42056286
CCNE1 -0.44844815 0.46277335 0.87796384 0.28749254 0.8544608 0.08758548 0.5150321 0.3550523 1.3274816 2.1882055 0.5822176 0.19449233 -0.5285798 -0.3094799 0.9223449 0.95908505
PNP -0.093349114 0.105555594 -0.39369678 -0.2668376 1.3649765 0.7562946 0.17419632 0.14618152 -0.008989064 -0.2762799 -0.90921015 0.56503725 -0.0023083827 0.6697248 0.38190168 0.69250053
SF3B4 -0.58270335 -0.10843116 0.48510325 0.2935614 0.4245232 0.8094062 0.2896055 0.04501381 -0.14358245 -0.3216311 0.49176282 -0.82701427 0.031332325 0.32885635 0.47865844 0.54848087
SMPD1 0.34525943 0.45401683 0.89461225 0.09669856 -0.06996362 -0.01887953 -0.5686036 2.172179 -0.23140317 0.30992702 0.78095347 -0.032630038 0.8182076 -0.2645615 0.03502716 -1.0736226
PRKAA2 0.16643769 0.51086336 -0.21518758 0.026054798 0.054412324 -0.6643595 0.033311702 -0.8141827 1.0339006 0.006607253 0.44746056 -0.53403884 -0.20938459 -0.68777704 0.07308802 0.24412107
KIF14 -0.07799357 0.40851223 -0.16684859 0.871433 1.2741063 0.48392382 0.44437453 0.2545603 0.8508929 0.009231314 -0.19319822 1.0342159 -0.12291036 0.034549125 1.0889289 0.9778623
HMOX1 0.34859556 -0.20268191 1.021745 0.16565438 -0.010463015 0.24224344 -0.06476635 0.15148164 -0.40871674 -0.014602324 0.12839566 0.016449714 1.0600688 0.29989997 0.22383995 -0.066823736
SMARCC1 0.5167433 0.034310475 -0.1434744 -0.014216187 0.013833865 0.68236274 -1.4806858 0.46601376 -0.20877376 0.14532723 0.54969126 0.018066403 0.15042068 0.24720393 0.11696728 -0.09687564
ZNF706 1.0978988 0.29584274 1.1225321 0.58612496 -0.08301413 -0.0018584498 0.16292866 0.32131726 1.1319251 1.0349892 0.38415998 -0.064703025 0.13188763 0.55799437 -0.54445255 0.74028593
TCERG1 0.612093 0.107793465 1.726553 0.7137374 0.009405791 -0.16170156 0.068357855 0.9152799 -0.20654781 1.4696829 0.5826112 -0.04564139 0.116672955 0.076909184 0.95142466 0.9471468
METTL3 -0.3494462 0.14091228 0.21134031 0.017845415 0.016379056 0.82777864 -0.6765815 0.578853 -0.15203503 -0.02438051 0.1510085 -0.015431542 0.41388577 1.4434928 0.0629542 0.049058486
OIT3 0.16442557 0.35542476 -1.5169227 -0.8104193 1.3220499 0.040793855 0.17287278 0.30862173 0.8547218 0.59570014 1.2318865 0.97649837 -0.0918335 -0.31236768 0.059521317 0.95921296
FKBP1A 0.45448565 -0.014258882 -0.35332254 -0.38027772 -0.11568733 0.022191606 0.08211446 -0.110207036 -0.5964701 -0.1852052 0.15884365 -0.042555746 1.7125976 0.713273 0.29196346 0.008804682
NCSTN -0.6046461 1.4172921 -0.26309198 -0.27750182 1.2335618 1.0451865 -0.32522276 0.8336497 0.4949093 0.13953616 0.4764795 0.105785795 -0.119591884 0.09023156 -0.09171386 0.020892687
PKN1 0.210146 -1.0533565 -0.13175306 -0.19830897 0.43721512 -0.112008795 0.58354354 0.20484225 0.46344712 -0.4729823 1.6148622 0.16521074 0.14904116 0.22585264 0.48340023 0.70759404
PRRC2C -0.062402755 1.2215195 1.8283538 0.55752975 0.8647885 0.041122705 0.33566597 0.13557087 0.7335684 0.43238914 0.7036999 -0.016815476 -0.15952696 -0.13299106 0.644973 0.6574113
CKS2 0.13040017 0.14324388 0.46247134 -0.34274536 0.7825686 0.5967337 0.8308899 0.23053792 0.58146363 -0.030731492 0.7734309 -0.65409744 -0.10692581 0.6060846 1.1426274 -0.083607845
NR1H4 0.04882541 1.634236 -0.15715769 -0.81372505 0.041200195 0.034446254 -0.46526882 1.0153747 0.025739146 -0.47731748 0.38858426 0.10248214 0.15330857 0.122734204 -0.014823991 -0.044429135
RUVBL1 0.07212922 -0.78013295 0.6084707 1.3698447 -0.0008181613 0.05379996 -1.3604424 0.7008512 0.2515186 -0.2646439 -0.07890053 0.18799065 -0.43958238 0.7440819 -0.2447335 -0.054076385
C7 0.3756887 0.29909286 0.87852305 1.0334907 0.57394904 -0.46260527 0.23809186 0.3673494 -0.0526442 -0.21305878 -0.34726667 0.6168605 -0.33657253 0.003137765 0.104488984 0.29244795
STOML2 0.029843569 0.12144396 1.0103594 0.21035434 0.78529793 0.23082379 -0.18084182 0.57250756 0.7630941 -0.08917712 1.3834447 0.01585186 -0.626684 -0.0025614002 0.029269112 -0.081036374
BCHE 0.46689197 -0.099016584 -0.10713717 0.25710422 -0.14632277 0.017494118 0.36778483 -0.692039 -0.17953801 0.10328962 1.1430334 0.015274402 0.0036738578 0.06493386 0.43261054 0.39654535
IL17RC 1.0740824 0.26437122 1.3056968 -0.47895822 -1.3429153 -0.0033791675 0.28206226 0.38818637 0.2733935 0.9124666 0.5383277 -0.07918442 0.43190068 0.6266609 0.74318796 -0.061992943
FZD10 0.83686596 0.8165878 0.66262776 0.0958176 -0.24335521 1.1494014 -1.9313251 0.28378657 -0.103602976 0.5474778 1.3097584 -0.060975704 0.513561 -0.012128966 -0.00393143 0.7429225
RPL15 -1.2373334 0.25249195 -0.06220281 0.1907301 0.65793884 0.4742144 0.49437097 0.23573582 -0.77406824 -1.3258625 -0.33852214 0.06858009 0.044178374 -0.020511603 1.3329633 -0.15576704
COPS6 0.86964923 0.03312842 0.010274755 0.20803219 -0.0137474965 0.12669542 -0.0018598052 -0.328915 -0.0073552052 0.23935147 0.20151174 0.13092029 0.2726142 -0.8390071 -1.060546 0.42696896
GSTM2 -0.11871484 -0.9818114 -1.0206395 0.09914131 -0.19086106 0.91912025 0.06785346 1.1739011 0.20463274 -0.018150212 0.09465087 -0.53488004 0.035272505 0.12050483 -0.3186847 1.2524569
SLC2A3 -0.018460453 0.080897525 -0.08213917 -0.53908545 0.8939782 0.23972401 0.57686615 -0.07528842 0.723907 0.39691144 0.42482433 0.5604025 0.20026907 0.58081865 2.2158418 -0.038009208
EIF3B 1.2854664 0.31434238 -0.12026057 0.18961474 -0.11656477 1.0467649 -0.8662671 -0.3525465 0.7418989 0.692659 -0.5992913 -0.26862302 1.5470896 -0.284735 -0.13690576 0.4062776
RPS21 0.46371236 0.23254348 -1.30238 0.4369425 -0.9997581 0.12182845 0.31168264 -0.3763198 -0.049441334 -0.35605225 -0.56132096 0.030729838 0.37621957 0.13879225 -0.014352536 0.046831764
PIAS1 0.028500766 1.893685 -0.098301925 0.03449291 0.78685325 0.19589503 -0.7460224 0.35536095 -0.012364548 -0.0023238228 0.49163175 0.7070066 -0.3696197 -0.01370211 0.7428792 0.02204987
FBP1 0.39540428 -0.16995496 -0.011389041 -0.8557052 0.11451393 0.25029677 0.3615907 0.62383944 -0.11413078 0.5250804 1.461804 -0.029671216 0.13260807 0.7297764 0.40265056 0.023362674
HNRNPL -0.54957896 0.31186223 0.7356002 0.1857672 -0.021187112 0.15700385 0.11755913 0.24947001 0.29481104 0.0059455014 0.19326605 -0.07268253 0.32382074 0.38397405 0.05000664 -0.060476895
ITPA 0.37905693 0.27948096 0.023942826 -0.23681964 0.3577505 0.20756254 0.6346841 0.07171466 0.25078523 0.1655422 0.4459059 -0.028399253 0.73162425 0.40484345 1.0987674 0.15212323
IGFBP3 0.5451642 0.37307855 0.47368962 1.534529 0.7982459 -0.07569876 1.422674 -0.4229948 0.14246908 0.8242501 1.7324204 0.6656004 -0.13780364 0.112059966 2.0658448 0.3570444
MID1 -0.1293346 0.8233208 0.9563802 0.28126967 0.25311607 0.25247398 -0.20782691 0.25629118 0.1363879 -0.01008917 0.26089996 -0.054499004 -0.21912827 0.12544535 -0.29014033 0.28702775
PTGES3 0.024596898 -0.6948848 -0.20109554 -0.007308861 -0.0061601214 0.4686903 -0.023794089 0.16403677 -0.37808773 0.92670304 -1.1989487 -0.0131549 0.67075896 -0.09198899 -0.5910326 0.4271306
CDC25C -0.008343415 -0.09834558 1.4182589 0.29408574 -0.037401892 0.38550362 0.25762254 -0.12522744 -2.6942334 -1.2752296 0.1358535 -0.035611875 0.9864184 0.017429756 -0.0147906905 -0.663508
MIS18A 1.7076877 1.1826668 0.7560758 0.21893556 0.4301225 0.54560196 1.017903 -0.029275417 -1.778883 -0.03969353 0.8362347 -0.039495222 1.7429947 0.7951227 1.4190228 -0.06617559
MCM8 0.08612995 0.12542337 0.7050266 0.66639537 0.0810482 0.22233172 0.34844145 0.34121993 0.34949294 -0.12891482 0.24512626 0.04029257 0.19561636 0.3126084 -0.31058708 0.71955895
UTRN 0.12323427 0.9963526 0.21124217 -1.2045234 0.2999163 0.1913799 0.15281983 0.034982968 0.66620713 -0.0016344296 0.1417817 0.005085111 0.3587182 -0.1833759 0.123064846 -0.08527082
AGXT 0.9917108 -1.3783779 -1.2860396 0.035992213 0.10112289 0.32256383 0.24404871 0.19052775 -0.12134559 -0.5318479 0.27317315 0.50674933 0.32557467 0.26211825 0.8158279 0.52055126
TSG101 1.2778398 -0.116185196 -0.22125614 -1.1626338 1.0681039 0.55946654 -0.13148792 0.2021788 0.68371063 0.025995146 -0.04687931 0.031662088 0.22309181 0.25809357 -0.5813887 1.2064624
NTN4 0.35295773 -0.92889327 0.30969635 0.0060039232 -0.2965637 0.20869157 0.14585343 0.2966984 0.26416045 0.017265584 -0.051052663 -0.2751578 -0.48712477 0.44062287 0.101056695 -0.6063469
F3 -0.27301142 0.98969734 0.5575996 -0.5827472 -0.113565646 0.4773542 0.913862 -0.5781498 -0.15180713 0.4378746 0.20602062 -0.0062444257 0.27773532 0.23806329 0.32794258 -0.02164973
MMUT 0.43851417 -0.028380685 -0.45965618 -0.0042793774 -0.11967762 -0.035746373 -0.35664788 -1.5656861 -0.081182376 -0.7371102 0.50277525 0.04256 -0.6053398 0.10559203 0.30009538 -0.36126712
SUPT4H1 0.17546603 -0.05010833 0.21044552 0.024785928 -0.0072726454 -1.1030606 -0.4213794 0.26345506 0.6108291 -0.021645106 0.26916838 -0.021260412 0.27387112 1.3696221 0.058690887 -0.0064616483
APIP -0.8625107 -0.21970811 1.4054208 0.15863644 0.19617185 0.677319 0.10211799 -0.31222987 0.5115826 0.74900275 0.6174875 -0.373965 -0.14248356 0.08305681 0.5738965 -0.45691818
KIFC1 0.58255756 0.1932617 0.27209315 -0.0064155036 0.006155089 0.72380745 -0.4322714 0.27467617 -0.28288496 -0.009777601 -0.06901198 -0.86043674 0.38770384 1.4735137 0.4233345 -0.54812366
RNF4 1.0456493 -0.57532746 0.060634498 0.029495683 0.15010849 1.0664185 0.09650873 0.16140112 -0.19749388 -0.53137606 0.576868 0.16905674 0.15241432 -0.33176506 0.6140949 0.018150618
WRAP73 0.6182036 0.1618941 0.5714378 -0.014793684 -0.01076304 0.638202 -1.2380223 0.15220204 -1.0990299 -0.3902628 0.4983405 -1.2677605 1.1379203 2.026949 0.12897518 -0.006377814
PLAAT3 0.32380986 -0.13944615 0.52495164 2.0043323 0.015147202 0.044698 0.67367053 0.18094632 0.38174647 0.20782886 -0.7044578 1.5779493 -0.23574486 0.17459497 1.0958459 0.6528639
C5orf22 0.083682224 0.03135516 0.13667671 0.2010866 -0.9738355 0.72009546 0.740896 -0.8738378 0.63799214 -0.29215232 -1.0836451 0.66907847 0.421566 0.78626543 0.53891975 0.14306715
ETS2 0.49625134 0.34337652 -0.17520677 0.083009765 0.019082304 -0.17431055 0.16550203 0.49676764 -0.19870886 -0.1678793 -0.49651492 0.02110982 0.18663402 1.2360883 0.13339572 -0.117375895
DVL3 -0.050478008 0.34968668 0.24992873 -0.3679451 0.18054081 0.6778958 0.4542069 0.33987752 -0.08111255 -0.010402372 0.03798076 -0.7083095 0.49019966 2.5124044 -0.36149573 -0.0065595964
PPP1R3B 0.5063331 0.36314976 0.6860505 -0.35853532 0.202529 -0.08051933 -0.27241865 -0.07240222 -0.57515454 0.77972466 -0.20446636 0.10446927 0.65361965 0.08620236 1.6070566 0.67749524
NTPCR -0.094038874 0.65490156 0.5747008 0.62533003 -0.004381673 -0.8726482 -0.45913664 0.7552987 0.46918428 0.0164385 -0.12529738 -0.09999708 0.14150184 0.046033356 -1.308839 0.36822876
ROCK2 -0.085928775 -0.035047278 0.5890181 0.91827536 0.563236 0.1611852 0.30145842 0.3404808 0.8703677 -0.060243092 0.2721602 0.042328272 -0.35871333 -1.500477 0.3325296 -0.71288276
TGFB2 -0.20147641 -0.25378442 -0.057508115 0.061478734 -0.00021847273 -0.62484545 0.12194925 0.28329843 0.3795049 -0.03694054 0.37698102 -0.002081358 0.6217038 0.32780287 -0.20107223 0.27298447
CAMK2B 0.31938517 -0.07285315 1.008017 0.5835099 -0.27658483 -0.2137917 1.4638001 -0.11825663 0.18065706 -0.6564082 0.45213437 -0.09165644 0.29149443 -0.767616 0.12466068 0.6800007
GGT5 -0.502212 0.10718995 0.018551966 -0.75368905 1.0141865 0.5112618 -0.14710689 0.49793684 0.44179818 -1.1913924 0.82437617 1.0416632 0.32198897 -0.013275944 -0.039499894 0.36960417
IRF3 -0.26665854 0.59565616 -0.5540902 0.13289218 0.9446675 0.32779768 -0.26493067 0.27846512 -0.10037647 -0.078604385 0.33824754 -0.19603148 -0.38240215 0.30685493 -0.053166833 0.59166884
FBXO5 -0.3435775 -0.13897759 1.0312861 0.5200814 -0.025964774 0.133931 0.2414069 0.3734725 -0.379856 -0.026567662 -0.26084423 0.018852718 0.36476463 0.2661661 0.21061058 -0.10150076
SMARCD3 0.1937938 -0.047855638 0.8102183 0.09795368 1.0852803 1.236103 0.98817426 -0.048995685 0.017742628 -1.4884673 0.38382897 -1.4399831 0.65127265 0.33707452 1.6773106 0.5355187
DNMT1 -0.60322267 0.79526025 -0.0668305 -1.1871237 0.026418852 0.31729025 -0.052308373 -0.025580438 -0.5790014 0.00012759306 -1.3413091 0.023704873 1.9762493 0.008283669 -0.28814352 0.4533538
CYP2B6 0.44618803 0.18381679 -0.11185472 0.02089959 0.5625412 0.35719228 0.34972543 -0.96581644 1.4895148 -0.43241045 0.7971579 -0.32893053 0.031074598 0.55445844 0.15779799 0.12963672
PLCB1 0.3165937 0.2318292 1.1901547 1.7502214 -0.023148363 -1.216222 0.92131853 2.045554 0.025266584 1.0942177 -0.37407634 -0.023243263 -0.02721708 0.4915212 -0.434179 -0.9290865
LSM7 -0.80186415 1.2596197 0.7746971 0.46708113 0.41263142 -0.025456822 -0.29249054 0.20681114 0.5089275 0.4628653 0.4581542 -0.016723856 0.633468 -0.81772226 0.44846693 0.31770486
LIG3 0.40654784 -0.7419934 -0.0695792 -0.9075696 1.0084448 0.48213437 0.13963513 0.13499264 0.9678073 0.56988674 1.2884102 -0.5883024 -0.045334164 -0.9871134 0.77433956 0.693911
DDX20 0.62743646 0.15638056 0.09365828 -0.11925252 -0.27968344 -0.07365991 0.47131824 1.326334 -1.1543837 0.5958755 1.0331774 0.024447156 -0.01903385 0.8466973 0.49227664 0.26505813
RMI2 0.12991853 -0.038699903 0.98737925 0.4682031 0.27341446 0.067085996 0.19863874 0.24295804 0.5056102 -0.03429538 0.6520038 0.20246893 0.19177969 -1.3641894 0.3922773 -0.6510872
HDAC2 0.22424477 -0.082961425 -0.22129925 -0.7562698 0.06906691 -0.07867392 -0.6223126 0.11483511 -0.18837334 -0.30924785 0.58114666 0.9638026 -0.179607 -0.96145195 0.2028549 -0.962481
ZNF581 0.20463349 -0.8238797 0.09152351 -0.014247948 -0.09296713 0.1393668 0.40101805 0.29192233 0.46333006 -0.012691387 0.6264959 -0.00087391713 0.16620426 0.19769327 -0.2911188 0.44320953
BRD7 0.4911326 -0.24954148 0.43810487 -0.1772624 -0.16192652 0.1166039 0.4385 0.23248136 -0.8695049 -0.022984473 0.43477952 -0.011165975 0.6639363 0.7855686 0.7484646 0.047870316
GSK3B 0.45506558 0.23489603 0.28079808 -0.0066767223 -0.16820017 -0.050991055 0.34959412 -0.05649833 -2.0943758 -0.024349235 2.0696175 0.003604012 0.23500071 -0.081605025 -0.13528818 0.92634374
IMPDH2 0.0125576295 -0.52975595 0.5123177 0.52569616 -0.16612917 -0.059702314 2.3946009 0.29757038 -0.11804053 -0.10776111 0.45889634 -0.029250318 -0.07547315 0.673449 -1.0382434 1.179344
DCN 0.62150013 0.35494912 -0.10501231 -0.109574206 -0.019663647 0.6143045 0.0007251678 -0.09109472 -0.17072758 0.040481497 -0.6741328 0.6482345 0.11170013 1.2147228 -0.40125194 -0.03330413
PRCP 0.62197244 1.0021861 -0.82288736 -0.030630963 0.6916647 0.15192513 -0.5707084 -1.0916221 0.96198297 1.7488949 0.5229398 0.071632706 0.52741605 0.28598195 0.86698216 1.0833752
RNASEH2A 0.13369098 0.08911883 0.20240247 0.467853 0.23011808 0.07712691 -0.5710381 0.0700238 1.0926642 0.7242032 -0.5348917 0.33985463 -0.42950684 -0.373926 0.0604004 1.5619147
CLOCK -0.11188426 0.20747767 0.22196667 -1.2299309 0.11851636 0.36854526 -0.028754383 -0.39329052 -0.12880924 0.0014395928 0.3112176 0.9335506 0.069151774 0.09529199 -0.2358098 0.1095903
RAD50 0.26362506 0.051336285 0.9374577 0.3179074 0.37678477 0.62810874 0.44049096 0.17027153 -1.0336233 -0.005547233 -0.08671715 0.16753073 -1.0650561 0.37746406 1.0721558 0.1193595
CCDC149 0.66758865 -0.042716324 0.3235795 0.07120849 -0.47394305 1.4412872 0.74320596 -0.23385786 0.2864532 0.123469025 -0.007912632 0.1828572 0.6708706 0.91937757 1.0123131 -0.05627491
SNRPF 0.38614005 0.619474 0.64191514 -0.3393323 -0.2624922 0.030919326 0.9778797 -0.5485144 0.050759874 0.062232777 0.3498608 -0.005393279 0.29264325 -0.35009953 0.21196263 -0.55357754
ALDH6A1 0.14994007 0.18761191 0.85025275 0.74157214 -0.02348217 0.21689335 0.33507633 -0.09480618 0.092639014 0.2796579 -0.8375727 0.086843 0.34153235 -0.47660658 0.163953 -0.071865015
UBE2D2 -0.228914 0.27561772 0.36044183 0.073589414 1.4730881 -0.11459113 0.51015365 0.09412944 -0.15894826 -0.04809678 0.80741704 0.04415932 -0.0334158 0.0074294573 0.91737956 0.5769241
GPAA1 0.0059892703 0.7263686 0.6273929 0.10652674 0.97187257 1.596275 0.23471285 -0.24553059 0.28213924 -0.06714586 -0.20498638 -0.007608384 0.5629388 0.41637635 0.7655382 0.51063293
ERGIC3 -0.052417733 -0.39544764 0.25011092 0.3499648 -0.01904923 0.0961982 1.3351705 -0.5805763 0.33716935 0.6850531 0.18001519 0.0054714135 -0.037318867 -0.030864 -1.434153 0.5005764
PURA 0.055617537 0.18380494 -1.7557218 0.010374764 -0.52846587 -0.12524769 0.18407096 -0.44826597 0.34493664 -0.0077760094 -0.331441 -0.0086667305 0.38357317 -0.14990467 -1.6632655 0.887859
GSTA4 0.50529945 0.15358101 0.5446404 0.56604904 0.06390119 0.36656 0.6301556 0.23741595 -0.017169764 0.29601806 -0.03389536 0.038084723 0.2965675 0.694255 0.25471684 -0.08539073
SLBP 1.1469467 -0.5546781 0.364614 0.40004283 -1.8194115 -0.004526021 0.04670293 0.92094 0.7282648 1.1907566 0.05733884 -0.005877068 0.60763973 0.44878867 -0.05716544 0.37461203
PIK3CA 0.08005188 0.0008938393 -0.08395401 -0.109971575 0.35517368 1.0992739 0.838561 0.051632293 0.074021876 -0.49214065 0.59351116 0.037185922 1.0483063 0.3675661 0.7143927 0.25054517
WNT5B -1.0685372 -0.09880839 -0.16199239 0.0074412064 0.12928247 0.10615992 -0.9686415 0.5152232 0.10607543 0.0068049505 1.2106013 0.082584105 0.6564689 -0.08321056 0.64083296 -0.83905625
MED20 0.24139936 -0.13455942 0.052536886 0.37452948 0.16399637 0.3435615 0.11830125 0.3941032 -0.23478173 -0.1421778 0.30912012 0.43804872 0.15704459 -0.55456454 -0.6322849 0.5637798
NUDT3 -0.18011545 -0.009854816 1.4926379 -0.09557112 -1.2156374 0.107377656 -0.022594893 0.0031104742 -0.3979042 -0.10209627 0.660361 0.0160357 0.5744587 -1.0650436 1.0988052 -1.0706292
SPRY2 -1.0098009 0.95529366 1.0808743 -0.22471514 0.5369271 0.25217053 1.5333459 -0.26671278 0.57417345 -0.019084739 0.26056296 0.18605514 -0.3767446 0.65536875 1.3181851 0.5204988
ENAH 0.23865522 0.19577184 -0.23431952 -0.04859902 -0.71043354 0.27743214 0.18179484 0.5383295 -0.13418739 0.58722717 -0.12545288 0.11548155 -0.17694984 1.1949024 0.49025884 0.33594996
PHF6 -0.19577116 0.27769962 -0.2789924 -0.41255173 0.31065816 0.73246175 -1.1917398 1.5726584 0.7339821 0.114953734 -0.19460133 -0.7152165 0.21233699 0.27231348 -0.066442065 0.13015848
CDKN1A 0.19058613 0.28314677 -0.025035968 0.042035047 0.075848214 0.18262449 -0.99340725 0.3165885 0.54652065 0.0823111 -0.11669091 -0.0073110177 0.3459376 1.5287261 -0.16115701 -0.08957696
MDM4 0.5884272 0.7252494 1.5808601 0.33604392 -0.39629844 0.51285076 -0.36928108 0.57124287 -0.059321616 0.61862683 0.13970295 -0.31021783 0.22745802 -0.0083550885 0.27376744 -0.7339872
PGM1 0.24843813 -1.351425 1.024985 0.0075265076 -0.022942 0.61696684 -0.053054146 0.821216 -0.027696745 0.23032643 -1.2357948 -0.023370013 0.055758316 0.43388802 -0.04353096 0.109764926
PCGF6 0.55229944 0.0033436355 0.23108923 -0.15260532 0.008804014 0.8955458 -0.292186 0.49129316 0.8615373 0.56631565 0.23905797 -0.43735173 0.69713396 0.79631305 -0.5279614 0.46673396
WNT8A 0.5149336 -0.102974206 0.7597389 0.44715673 -0.7998016 0.15600464 0.766131 0.09672507 -0.069847025 0.5552574 0.72113514 -0.46550417 0.9404166 -0.4147668 1.0700958 0.09531463
B4GALT3 0.7746385 -0.17527804 0.19679284 -0.029322755 0.09179365 1.0343918 -0.16353068 0.2083303 -1.4932387 0.5308792 1.6882948 0.026229395 0.2779585 0.104911774 -0.6717442 -0.13379125
GLUL 0.6352647 0.021114634 0.23833099 0.63739157 0.93970376 0.46580514 0.8635095 0.5457686 -0.30447638 0.85950285 0.5074187 0.007225957 -1.6052673 0.20366533 0.11853433 1.4708999
PPM1D -0.12936953 -0.70008546 0.9332952 -1.1771255 -0.0013332708 -0.014906721 -0.064924106 -0.5906975 -1.1698383 -0.27665606 0.9809184 0.0054822033 0.4875397 0.01736882 0.15422572 0.12207572
ZNF711 0.10395053 -0.9798229 0.055911627 0.17161427 0.049774278 0.12402772 -0.44388175 -0.89347726 8.299446e-05 -0.53426147 -0.14795 0.66348594 1.2963365 -0.7369364 -0.58366644 0.12190933
APOC3 0.51431185 0.31589767 0.47834638 0.60746026 -0.41499257 0.13485019 0.103373766 -0.23697048 0.23787715 0.815328 -0.84206885 0.0072643794 -0.182552 -0.68400943 0.36411437 0.22796158
NIPBL -0.27790293 -0.06190226 -0.5253428 -0.5684404 0.10874048 -0.59753335 1.009164 0.868399 0.43759203 0.52423453 0.6414142 -0.02779228 0.515118 0.28147545 0.39743587 1.4859385
MLLT6 0.17730717 1.4310044 -0.1773455 0.35774118 0.55474913 -0.8662075 0.899007 0.2533126 0.3875352 0.2367864 0.2746751 0.03889417 0.017931508 1.0671862 0.99130017 -0.008842291
EPM2A 1.4587365 -0.050699618 0.38258135 -0.032939456 -0.06372593 0.72874665 -0.75557125 0.40287027 0.123149976 0.46296155 0.42866552 -0.013588137 -0.5173573 0.3645846 0.1934229 -0.0735643
SLC34A2 -0.018382471 -0.05108203 0.2321587 0.053891666 0.7117601 1.3432711 0.9316143 -0.25154254 0.38071686 -0.012038966 -0.1269347 0.025373027 -0.24071066 0.7943772 1.1349902 -0.31602043
KIAA1143 0.17019378 0.39598835 -1.3678375 0.68471104 -0.076410025 -0.02609856 -0.014629621 0.2451982 0.8192302 0.543674 0.28624487 -0.02092626 2.395488 -0.1305966 -0.01849668 -0.21869649
RFC4 0.6738339 -0.14963177 -0.28191346 0.09800459 -0.013364725 -0.5654137 0.4541017 0.2697902 -0.16401488 -0.033708602 -0.3611254 -0.022430437 0.3369152 1.6777096 -1.1271306 0.0845765
NEK9 0.04048207 0.23193388 -2.154959 -0.6694923 0.03124064 0.768377 -0.12574492 0.20876184 -0.14253779 -0.023192534 0.18196037 0.32752386 0.58033764 0.09189964 -0.12576789 -0.07448182
CENPK 0.1903243 0.416703 0.39091069 0.04517088 0.1814232 0.015925387 0.15440875 -0.2413846 0.011931099 -0.47704786 -0.5611754 -0.73357 0.3413162 -0.22639322 0.06567723 -0.63380754
ACTG2 0.037970282 -0.4395003 -0.15241054 0.053236704 -0.013941849 0.036336724 0.5707806 0.0010537528 0.04031802 0.16453595 -0.41890734 0.006435139 -0.083559886 0.16584654 0.2379108 1.4312006
HNRNPU -1.5506089 0.9027581 -0.04452424 -0.017959349 -0.0010762304 0.18895988 0.57288677 -0.088638 -1.3767073 -0.019470964 0.21333477 -0.42571637 0.2239528 0.68630046 -0.894026 -0.20874731
CA2 1.0120286 0.10157932 -0.33675256 -0.26815048 -0.023666333 -0.1898436 0.045653176 -0.31615707 0.14141037 0.009078503 -0.5798422 -0.00712573 0.99605346 -1.1121289 0.22416781 -0.13417539
ARID2 -0.70498985 0.28722718 -0.15291022 -0.025290074 0.35041142 0.14188008 -0.78774035 0.28007984 -0.74003756 0.056551673 0.56985897 -0.46221045 -0.33631566 -0.2839601 1.005332 -0.10395032
COIL 0.31065857 0.65003866 -0.51524067 -0.401002 -0.0077862698 0.7176906 0.04406984 -0.540448 0.024278853 0.15605235 0.14088477 -0.6471876 0.033731095 0.08623053 -0.1622768 -0.1695648
ELAVL1 0.726072 -0.04896814 0.013301664 0.23032992 -0.053770546 0.80874616 0.109765515 0.37482035 1.1333243 0.09677386 -0.9792068 0.34922153 -0.71219945 0.5224517 0.6337744 -1.063373
MAP2K2 0.19292389 0.32102168 1.0263683 0.44959608 -0.48681024 0.20937437 0.120489486 -0.08241658 0.9320189 0.4676518 0.19683881 -0.06205253 2.137773 0.11470617 0.52942455 0.24078737
RPA1 0.050207634 1.3152894 1.5043247 1.3722943 -0.06750008 -0.08303153 0.68610656 1.0935256 0.3342821 0.7842752 0.84400797 0.02095818 -0.030149112 1.0695157 0.09911544 0.25735328
EPHA2 0.63471514 -0.60371083 0.24657051 -0.2974486 -0.5026943 0.92619425 -0.44956794 -0.03613094 0.006031812 0.17080227 0.6012834 -0.62684536 0.31156433 0.8621524 -0.043543898 0.258979
TOPBP1 0.60906357 -0.09763779 -0.11263024 -0.010592742 0.24336721 2.2092197 0.45779762 -0.13346317 0.31261408 0.0069048246 -0.056786932 0.09669949 -0.42126164 0.80395544 0.2608487 0.01182329
SPRR1A 0.33089375 0.020132555 -0.7074255 -0.8994472 -0.008761192 0.72091347 -0.4887605 0.27594393 0.6399825 0.0791526 0.18240191 0.37993178 0.32394627 0.37633306 -0.6440474 -0.109502316
LTA4H 1.4791496 0.66876453 -0.5582477 -0.02320924 0.9927258 1.3342694 0.8048882 -0.016900277 -0.57626903 -0.0645505 0.4115338 0.18345027 0.2348829 2.1497726 1.3089638 0.06612839
TCP1 0.097787805 0.06320034 1.1678184 1.3199564 -0.46738133 -0.07705765 1.7114774 0.57882804 0.63547033 -0.7349567 0.16542043 0.21008205 -0.06872227 1.5337 0.19401424 0.14307797
CDKN2C 0.2751977 -0.5008793 -0.42046684 0.7028299 0.01294082 -0.2507039 0.14143872 0.38867837 1.6075718 -0.43763354 -0.010622148 1.4017079 -0.17564201 -0.13033056 0.6132033 0.026064951
C6 0.48095113 0.08285932 0.15166 -0.019757882 0.25268352 1.4171165 -0.0040229172 -0.67102337 0.19472452 0.41640446 -0.004476745 -0.0018151209 0.30454656 1.1106865 -1.6987892 0.119731575
SMC2 0.2795175 0.16038904 -1.091404 0.024057627 -0.14981854 0.24772514 1.3608031 0.27781194 -0.036203183 -0.038857915 0.38898152 -0.4303977 0.36252394 0.56171954 -0.5457514 0.58707595
TP53 1.0046496 -0.16061367 0.49519205 -0.3958531 -0.42436367 -0.15578595 -1.7132597 -0.17641692 -0.20317201 0.59220874 0.17227896 -1.0017295 -0.109561205 0.1007586 0.3773692 0.5435207
SMARCE1 0.014825402 0.5101979 0.37272188 -1.7107852 0.2519562 0.22218071 0.059967354 -0.023102129 1.305198 -0.8602238 0.37930727 0.009459766 0.6102737 -0.13998418 0.04575156 -0.9688257
NMRK1 0.05529436 0.53642 -0.16362138 0.091374256 0.5995918 -0.10888475 -0.65842193 1.4341476 -0.15623833 0.03889547 0.8701392 0.080461346 -1.5781587 0.047837783 0.09947549 -0.09004931
RBP5 -0.51742226 -0.021592833 0.31928372 0.4603414 0.42970964 -0.22541021 -0.532687 0.18052971 0.47624922 -0.7481005 0.27882746 1.0127319 -0.4221484 0.1064839 0.33438557 0.3655862
NUP37 0.09144664 0.053491678 0.4955707 0.043539863 0.007390616 0.16219363 0.15611108 0.38967687 0.2392606 -1.325821 0.23952904 0.010099141 1.1490397 0.4230954 -0.2124868 0.39189816
CKAP5 -0.22584154 0.64617527 -0.6030575 1.060307 0.30792475 1.8670822 0.16205013 0.3285527 -0.39290076 0.008696617 -1.1412228 0.04358636 0.30652073 -0.0071214945 0.38001522 0.80154836
NQO1 0.6408213 -0.0745571 0.28198382 0.27788496 1.1128634 1.5955931 0.16253659 -0.14334795 -0.09894018 -0.06458918 0.22689229 -0.56863856 1.0613828 -0.9262165 1.1867211 -0.17441782
CAPRIN1 0.50549126 0.34381947 -0.3538565 -0.024847828 -0.6742626 -0.42244408 0.15600592 0.06778087 0.74295807 1.0090306 0.32427374 -0.026933596 0.50204253 0.759424 -0.017176373 0.53828764
PABPC4 0.20348527 0.31522453 0.5996675 0.18914446 -0.0142381685 -0.29449406 0.26707274 0.22249812 -0.041789405 0.01890451 0.41289303 0.0038732293 0.32915315 -0.13325275 0.21127814 -0.59109885
APOH 0.5352162 0.0028883722 -0.057990536 -0.021113398 0.36101353 1.3069513 -0.16192935 0.24870345 -0.40872845 -0.007920331 0.6322507 -0.1306516 0.17791484 0.31353042 0.49949783 -0.006777397
HHIP -0.03812182 0.5469762 0.36944264 -0.2676561 0.023256745 -0.18000299 0.07513879 0.45651639 0.37393185 0.14049165 0.59021485 0.35445556 -0.0038985908 -0.15130623 -0.7787619 1.263136
PLOD3 -0.55789274 0.268658 0.042156935 0.3118794 -0.0060876873 0.23822321 0.12789729 0.5188392 -0.3296889 -0.006767837 0.36620265 0.03545724 0.3760148 0.28422305 0.2602409 -1.0032055
SOS2 0.074161775 0.3390942 0.2527559 -0.54322726 -0.008201929 0.0009091989 1.0873826 0.43322736 0.34608248 -0.23769303 0.55779564 -0.020743908 -0.2052047 0.64065397 -0.16981383 -1.2093866
ASPA 0.1327999 0.3298858 0.61018175 0.7155103 -0.00930094 0.0801557 0.33262357 0.4588936 0.1527844 -0.012410358 0.44323176 0.022425951 0.25442466 0.1056501 0.19453475 0.32679915
LRRC4C 0.12162674 0.2945033 -0.12612094 -0.043470394 0.32970506 0.8494207 -0.14012587 0.16111842 0.5779485 0.51723343 0.0742412 0.42449838 1.9236178 0.34374613 1.372316 0.35806155
STOM 0.44073093 0.29545212 -1.1354698 -0.30868775 -0.005036415 -0.2781923 0.4159309 0.19404279 0.20328142 -0.004525069 0.36705002 -0.8203692 0.26437292 -0.02883514 -0.7589015 0.53817344
HAT1 0.2558384 0.21829212 0.17812555 -0.8742809 0.47054827 0.08638117 -0.5815687 -0.11263113 0.43734118 0.5736917 0.6692386 -0.06359705 0.7042786 -0.22497837 0.86408204 0.30443725
MKI67 0.58521265 0.6216916 0.46517426 0.1527447 -0.11869614 0.05897985 -0.10803539 -0.30494925 0.5076496 0.87654823 0.23872775 -0.064865954 0.4051209 0.17180666 0.48257163 -0.91807294
MYC 0.12817314 0.77875775 0.7250329 -0.5143705 -0.08546897 1.6330624 -1.398379 -1.0278 -0.38927996 0.98244834 0.8604464 -2.2043457 -0.3337843 -0.39998218 0.5023294 0.5903278
EPB41L4A -0.39700833 0.40386453 -1.1969868 -0.033870168 0.19873269 0.21571365 0.7113239 0.067356214 1.0825168 -0.25494626 -0.72470486 0.07220414 0.7736084 0.7005366 0.86570024 -0.097408496
SNX30 0.2724022 0.61890566 0.6512742 0.24395962 -0.07540457 -0.07781379 0.30068707 0.6305449 0.16354494 0.667205 -0.29356983 0.009671485 -1.5273455 0.7471686 -0.5147579 0.4514809
LRG1 0.5165113 0.24066743 0.09605893 -0.09706121 -0.13940842 -0.081078164 1.3149672 0.023513658 0.1332599 0.20958377 0.4542438 -0.044730563 0.1353069 -0.29124573 0.095945805 -0.1406872
FGF13 0.080754995 0.31580067 -0.21460295 0.20325872 0.037965324 -1.1684905 0.62846917 -0.12762956 0.54991114 0.5665438 0.5095579 0.0013570688 1.0020224 -0.29876167 0.78728396 0.5733578
SNRPE 0.34398276 0.080505006 -0.19328089 -0.022951731 0.0023417864 0.7689674 0.3776614 -0.3291315 0.6147961 -0.037620675 0.523333 -0.012586276 0.0034238342 0.8928081 -1.5800664 -0.10743048
CYP2A7 0.24470353 0.0012830724 1.1426476 0.378913 -0.099649124 -0.05370544 -0.05397243 0.94228506 0.74190843 1.403615 0.8015948 -0.3403858 0.007427696 -0.07372097 1.1480252 -0.934535
TLR4 0.3809636 1.0445217 -0.92753756 0.019687125 -0.0023110267 -0.06446319 0.040336426 1.5112532 -0.046284337 -0.24078354 0.4525043 -0.0018988755 0.9448308 -0.48067847 -0.023923695 -0.66283953
PRC1 -1.1035331 0.7190665 0.5237671 -0.0037180297 -0.14381595 0.0692898 0.21990931 0.25779557 -0.23355636 0.13268046 0.061298013 -0.65834 1.7511185 0.4788853 0.33795607 -0.08063108
LIPG -0.005048164 -0.60942996 0.25510705 -0.691554 -1.9038719 0.2956801 0.4451415 0.98753166 1.0623761 0.55804217 0.59146357 0.020688295 0.035091676 0.8398081 -0.10697617 -0.052112445
C1orf35 0.22340743 0.293109 0.14518467 -0.22138117 0.15661556 -0.29450297 0.058829125 -0.018033685 0.24024604 0.61550844 0.2876888 -0.045533817 -0.52735305 0.1412193 -0.51254773 -0.051627763
HSPA14 1.2484646 -0.17978181 0.77967554 0.76705897 0.3694229 0.5549048 -0.6941482 0.85104406 0.17410019 -0.3014462 0.3736722 2.2149901 -0.24999768 -0.15405284 0.93515486 0.021469362
TAF2 0.5416326 0.39742726 0.6145033 0.2700709 -0.45543152 0.8245003 0.51310265 0.017487127 -2.4212105 1.3589252 0.22279474 -0.00096321886 -0.054162417 -0.87651294 0.6690747 1.1798997
CASP2 0.038224556 0.76875347 0.8805434 0.06710824 -0.010198359 -0.02966391 -0.2952561 0.026776135 1.2882388 0.09689753 0.2316024 -0.0147068985 2.3623445 -0.09486871 0.26009765 -0.048896786
MSH2 -0.25845307 0.28647777 -1.7829293 0.011352299 -0.06746846 -0.92903334 0.16664726 0.28383505 0.63064355 0.69970596 -0.09083833 0.38301092 -0.05396826 0.8763231 0.4422308 0.78811884
MEA1 -0.2915306 -0.5213876 0.21369211 0.06848329 0.005586781 1.2014424 0.003552567 0.2302077 -0.21320486 -0.1935461 0.08473451 0.0012059027 0.22121972 0.34440398 -1.1005794 0.43946707
SHB -0.07262049 0.53563493 -0.418311 -0.34183365 -0.29267883 0.09302792 0.6697842 0.13097537 0.3665569 -0.03515351 0.20943128 0.030955566 1.2341269 0.43187484 0.4591268 -0.13987903
COLEC11 0.26714233 0.76737714 0.93833756 0.78174996 -0.28952 -0.47621718 0.16348721 -1.2450567 0.2975685 -0.4993696 0.07993698 0.040626902 1.2355989 -0.012785835 -0.61291397 0.17506492
GDF5 -0.13340802 -0.15434954 0.27587208 0.33664703 0.009611135 0.57593304 0.23114559 0.56948775 1.7426443 -0.0066619944 0.0036126869 1.5178808 0.37798947 0.98861563 -1.8107151 -1.0281268
PLG 0.40743524 0.1746335 2.3328803 1.0189248 -1.030431 -0.6587478 -0.06001619 -0.00471071 -0.039245073 0.6985264 0.13339125 0.25458494 -0.40464097 -1.1908269 0.21646623 0.08649828
FAM50A 0.515569 -0.0015254411 -0.29901573 -0.089388475 -0.24678399 -0.1517182 -0.2602678 -0.90381074 0.25341484 0.021983761 0.16067477 -1.0551203 0.8852866 -0.8647643 -0.3827276 -0.8000573
ADSL -0.07612583 -0.47130996 0.7826998 0.40832964 0.41247243 1.1193485 -0.64075387 -0.51113635 -1.0975455 0.18947227 0.8354763 0.0063636024 0.18938076 -0.3042584 0.11072912 1.5644338
SNRNP200 0.47486314 0.16969304 -0.37472025 0.038234036 -0.0022654047 -0.060834527 0.15039098 -0.25244045 -0.79030144 0.03430276 0.49842164 -0.002379874 0.2987518 0.09720187 -0.16665041 0.76815146
ADRA1B 0.42296672 -1.2574811 0.75317454 0.16559581 -0.01919237 0.44960672 -0.09492719 0.8005372 -0.7997191 -0.0070517072 -0.18926917 0.24579655 0.11696731 0.30233902 -0.16235153 -0.114694394
AQP3 -0.5043837 0.75955176 -0.009431327 0.016431967 0.008106823 0.11576525 0.27905494 0.3872544 0.4234391 -0.007863578 0.29385477 0.0011804674 0.1280896 0.3637722 -1.0765251 -0.064842835
IL10 0.45857453 0.04897659 0.78475356 0.2439514 -0.0057586357 1.1259617 0.10120532 0.1408894 -1.1876456 -0.00918225 0.34153736 -0.0077845035 0.17125624 -0.5303097 0.020090284 -0.061039753
CYP2C19 -0.86197686 0.5399487 -0.5323935 -0.0902165 0.9618511 0.19663872 0.037691623 0.1987652 0.35089183 0.23018529 0.9127603 -0.18231429 0.34183085 -0.2051138 0.85066533 1.0913485
ACTB -0.5004371 -0.05007578 0.5378012 1.1419029 0.33927977 -0.08406025 0.2711882 1.7744552 1.0298393 0.9114357 0.2871593 0.059903003 -0.6777666 0.18415874 -0.16428675 -0.38040647
SDK2 0.9998345 0.5371475 0.8055135 0.9563248 0.010564557 0.3037102 0.54966986 0.3253345 0.107744336 0.42584643 0.16171487 0.08814762 0.10904057 1.0052775 0.49295494 -0.010487924
G6PD 0.52516854 0.61606133 0.17821345 -1.4858505 -0.03836093 -0.77121043 -0.017516851 0.7063597 -0.60212314 0.5311142 -0.52411056 0.86813873 0.12471288 0.117967784 -0.19624482 0.12784325
AP5M1 0.1923136 0.36675948 -0.90190864 -0.07810414 0.67422926 0.8632702 0.06533864 -1.1356597 -0.07737474 -0.08083631 -1.052682 0.12498809 0.2231318 -0.6393213 0.6666844 -0.055901695
CYP2J2 0.86052203 0.3823084 1.0387076 0.7117276 0.23226938 0.11746271 0.35373372 0.35281107 -0.22166216 1.5020138 0.61038685 -0.24558939 0.21983331 -0.2753825 0.6539009 1.9457482
NUDT19 0.6745508 -0.7464056 -0.037538443 -0.50813323 0.6186662 -0.31523728 1.0867859 1.1104184 0.3182387 1.5034103 0.9760858 -1.1729983 -0.04785874 2.1813776 0.99650246 1.1633059
MMP12 -0.06235737 -0.37138557 -0.059659097 0.16454008 0.08043175 -0.5817194 0.041596696 2.4277103 0.32999736 -0.10715491 -0.27305493 0.24728382 -0.07014624 0.41123855 -0.10389787 -0.06485605
SLC5A7 -0.38084307 0.43096903 0.7361886 -0.26676634 -1.0584033 0.33108518 1.3163241 0.34175107 -0.104957044 0.41936192 0.45828167 -0.0044870707 -0.15970151 1.4997028 0.6528127 -0.1562697
KCNN3 0.12742485 0.36224717 0.93357134 0.15109242 -0.07111807 -0.64721745 -0.090487644 0.5551177 1.11476 -0.013066692 -0.32551786 -0.014576723 1.475586 -0.22026716 0.28808674 -1.6181353
STK35 0.67262024 -0.69839966 0.058168765 -0.6341316 -0.07048483 0.828241 0.1998633 -0.86947966 -1.208377 -0.0072690337 -0.41180092 0.20736153 -0.29871222 -0.16362667 0.57292086 -0.16503723
NIF3L1 0.24045593 0.07465955 0.33708292 0.44960198 -1.0974259 0.17935082 0.86091185 0.24144915 0.37607312 0.046902176 0.06535726 0.021465776 0.25818053 0.35459533 -0.0032959934 -0.8244137
RABIF 0.13152424 -0.15540873 1.4101166 -1.7098541 0.353244 -0.06975817 1.8904648 0.5419993 1.3875909 1.2388177 0.38281426 -1.2984015 -0.39221308 0.31189322 0.12303081 1.547328
CEP70 -0.5287491 0.5490776 -0.45453757 0.2976199 0.8650127 0.5928305 1.2580835 0.42364585 0.31001472 0.040076494 0.1620299 1.6554834 -0.5190887 0.116133034 1.3347994 0.9147196
CDK16 1.9546993 -0.12359358 0.61372656 2.1123846 -0.13287725 0.33744827 0.29024583 0.3497183 -0.3251839 0.24696797 -1.4620405 0.5310753 -0.060972374 0.009172043 -0.67238677 1.2151651
ZMYND11 -0.3223429 0.0920825 0.23256162 -0.48625058 0.5780805 0.1751926 0.20371754 0.29007965 0.17196554 0.0069872495 0.3678615 -0.3103406 -0.42231256 -0.5616057 0.6011588 -0.13905858
IDE 0.14802238 -0.5473028 0.6978031 -0.5072015 0.627732 0.60657686 -0.062919185 0.2662606 0.5166793 0.24375078 -0.8862044 -0.043933146 0.11803448 0.5028023 -0.20259371 0.12612239
RAF1 0.478908 0.21055192 0.22005539 0.25155392 1.5277293 0.020346414 1.8532414 0.009268678 2.276081 -0.21342325 0.22573331 0.43652168 -0.024639739 0.83882993 1.3608972 -0.021442007
RNF150 0.26204088 0.5513826 0.27112848 -0.39159176 0.8603844 0.9963073 0.2434716 -0.20870645 0.3989753 0.10514957 0.39009374 0.10539326 0.21520957 0.8384545 0.42940545 0.1735643
SLC25A6 -0.43151793 -0.5370077 0.35588145 0.76544476 1.5692699 0.8724932 0.8342863 1.2136946 1.0282129 0.17759097 1.1479094 0.79796475 -0.052880578 0.62528044 1.5523794 0.40430325
UHRF1 0.26128972 0.3496028 0.55227435 0.10096797 -0.27260324 0.16379227 0.25921047 -0.30025202 0.22488482 0.5275852 -0.5797602 0.013246539 0.42120847 0.25652018 -0.29218647 -0.6499369
DMGDH 0.028268732 0.5204643 0.80615723 -0.29184052 0.8543458 -0.120994255 1.2233251 -0.3171559 0.33334225 -0.82839495 1.8599005 -0.42595425 0.26425484 0.12886621 0.96201825 -0.78466237
WRNIP1 -0.13887231 0.22497886 0.01988531 0.21487026 -0.37937635 -0.08912058 0.0037955814 0.09560815 -0.64592373 -1.0682381 0.13114084 -0.011435641 0.3927645 -0.121024214 -0.0769792 0.4496109
SCML2 0.48341212 0.6617669 -0.16200274 0.015896523 0.045385815 0.35742787 -0.16984989 0.8930715 -0.12487171 0.31825516 0.9912967 -0.056535125 0.4147254 0.16090335 0.02812423 0.03395525
ADH1C 0.51742375 0.37314612 0.49616256 0.26989797 1.6676395 0.11867773 0.5663517 -0.03217056 0.66038185 -0.16764723 -0.45199805 0.3256517 0.662306 0.32366428 1.4635675 0.186069
UBAP2L 0.20427544 -0.005801142 1.99121 0.7932743 -1.1518033 0.5004932 0.83434147 0.11449933 0.69809693 -1.0193845 -1.762909 -0.10369421 -0.03183486 1.3401557 0.30642784 -0.008284927
GALE -0.12366402 -0.28697252 1.3948436 0.3204454 0.63726795 1.3802843 0.03960701 0.2318463 0.4774718 -0.058848824 -0.14254873 -0.02606477 -0.5629586 -0.5328836 0.1607202 0.3775287
ETFDH -0.049230024 -0.29482344 0.20658675 0.07468944 -0.45673716 -0.41989428 0.16457126 0.17268635 0.18465227 -0.015542683 -0.29850617 -0.31467286 -0.9653057 -1.2339807 -0.067002624 -0.13433737
ACACA -0.2807657 0.045463696 0.76130444 -0.2843231 0.07442554 0.26195425 -0.2975818 -0.029539282 0.3518688 -0.008931909 -0.63700205 0.032452706 0.41711667 0.5545814 1.2503309 0.03596019
SMARCD1 -0.08714515 1.8943603 0.83852154 -0.029762974 0.75873023 0.43875378 -1.5489713 0.37393555 0.4168423 -0.06297576 0.49294522 -0.013574062 -0.15755722 0.56657505 -0.85559916 0.6369427
SMS 0.04797812 -0.10905692 0.057474297 0.34257227 0.5181812 0.53698635 1.0644815 0.9624569 0.3761053 0.15979442 0.63694966 0.0033714646 -0.056207474 0.4064979 0.35226217 0.6224497
ITGA2 0.1679021 0.5590106 -0.30333486 0.13613915 0.42385948 0.23472397 -0.10807971 0.48577192 0.2896935 0.4591819 0.22742367 0.110117555 -0.6991968 -0.38613948 -0.060700327 0.15021062
TARDBP 0.03988434 0.5371722 0.63325495 -0.0942292 -0.07830095 0.013175889 0.474615 1.1555501 -0.05446174 0.38941753 1.6682807 -0.014055806 0.3739574 0.5168405 0.014112637 -0.91879594
XRCC6 -0.45498863 -0.5227401 -0.23831391 0.06659196 0.12290233 -0.25675464 0.11422249 -0.9052171 -0.41080433 -0.05181142 -0.27283642 0.06549923 0.50048393 -0.6145975 0.16516171 0.91750145
SPNS1 0.14011757 1.5652295 0.59186244 0.7883565 0.37327963 1.000248 -0.40962103 -0.1605344 -0.08768386 -0.011464455 -0.0502541 0.026415313 0.5986625 0.0005966398 -0.112072796 0.36676824
ATOH8 0.12808652 0.6069087 0.36542842 -0.41817376 0.17496341 -0.10417506 0.30792257 -0.079313725 0.7898678 -0.043968193 -0.115335 -0.0029059118 1.3247616 -0.1400777 0.17115426 -0.37273076
NFYC -0.34647897 -0.061457485 -0.25826594 -0.022561226 -0.28732798 0.8201075 0.7473426 0.020094618 0.6848857 -0.11288593 0.43851256 0.20980841 -0.042676196 -1.2025707 -0.08511129 -0.2990893
ZSWIM5 -0.038595844 0.030092824 -0.48372564 0.29084462 0.44196713 1.0512041 0.7270281 -0.5347096 0.17130202 -1.5961369 -1.6232715 0.061752383 -0.036410294 1.5575839 -0.13885498 0.60035807
FAM168B 0.07640076 -0.14490578 0.59907806 0.40652856 -0.027729135 0.15940426 0.7198654 1.1547464 -0.10549733 -0.23656113 0.3891791 0.0052786404 -0.06369269 -0.006608817 0.13003495 0.18543169
RBM22 -0.47628608 -0.12772982 -0.3401808 0.42765206 0.102544 1.5292556 0.015970359 0.045701098 0.008034451 -0.03371086 -1.2532542 0.23384516 1.6029928 0.20178454 0.5827653 -1.5618767
SART3 0.16383626 0.34329528 0.039118156 -0.056569356 0.0936509 -0.0878735 -0.39128482 0.041325588 -0.8664448 -0.018346995 0.5644224 0.23520605 1.3404373 -0.055893626 -1.2302451 0.29362753
UBE2J2 -1.2546525 0.7382686 0.6241084 -1.0458002 0.5637558 -0.72380143 -0.5147731 0.20883115 0.40338746 0.01639415 0.87086374 -0.1839526 -0.30543107 0.030888967 0.5760814 -0.0807776
MAPK10 0.09104459 1.6857228 -0.43868968 -0.0060102628 0.1339436 -0.21050176 -2.4436898 0.35874066 -0.044327226 0.1839312 -0.8728055 -0.13935949 -0.1523748 -0.004623036 -0.11466354 -0.066116706
ALDH2 0.78293365 -0.048987053 0.21140328 1.2762512 -0.11574456 0.20437029 0.15373367 0.5780753 0.7532699 0.31543174 -0.102536626 0.025738833 0.13675809 -0.9673438 -0.13877383 -0.15794995
FREM2 0.0900844 0.64395934 0.027523112 0.77320874 0.6760384 1.6839122 -0.1694839 1.4394377 -0.15820123 0.10550616 0.19867742 0.20628409 0.392354 0.20248885 -0.08206081 1.3807809
RPL37 0.11717012 -0.32270783 -1.5480481 -0.018105568 0.48785955 0.33139342 0.51595503 0.030164849 0.62548155 -0.48486555 0.23973392 0.56215996 -0.87189573 0.6129051 0.49923757 -0.1874725
ASXL2 0.29755113 -0.05975224 0.0809423 0.039168928 0.045610517 1.1355854 0.46139276 0.79814667 -0.33496243 0.018269984 0.263784 0.16968983 0.21162945 0.59739935 0.6556912 -0.25931132
HOMER1 0.32849255 -0.82806045 1.059195 -0.36167887 -0.016062658 1.516298 -0.43494874 2.0321155 0.5030684 -0.42867813 0.8248324 -0.012987835 -0.07077922 0.7351508 -0.01994825 -0.03800745
ACAT1 0.2982633 0.7334007 -0.3532857 -0.51872665 0.0700828 -0.8043754 1.0600967 1.2795287 -0.14673132 0.39536974 1.9278698 -0.04969538 0.22113 0.40353885 -0.45200443 0.82839453
CLTA -0.11308083 0.07542603 -0.27016458 0.16772875 0.36086276 -0.13947858 0.3424291 -1.5092393 1.197455 -0.06142454 0.4149054 0.028256876 0.07664531 0.46019468 0.4027238 -0.061770428
GSTT1 -0.08697188 -0.36296666 -0.11761703 -0.09226705 -0.1302892 -0.29580027 -0.53629714 0.23446843 0.83015317 0.1938046 0.13001911 0.13893051 0.99419516 0.6519707 -1.0351986 -0.37275824
LRRC42 -0.2484274 0.21609588 0.7656793 0.38790116 -0.01576093 0.10913925 0.027710104 0.043176755 -0.8856189 -0.015112325 -0.86939025 0.110024005 0.30598617 -1.0138264 -0.087477416 0.50035644
STARD7 -0.3280319 0.3100346 -1.3215257 0.017536081 -0.023936972 0.036407992 0.28439772 0.12603292 0.4985024 0.8232217 -0.60105234 0.3740096 0.25589925 0.4421143 0.9383711 0.33882883
KCNMB2 -0.012100256 0.9731435 0.3691814 0.12699182 1.3201817 0.65130246 -0.1821137 0.02921005 0.7364471 -0.09386158 0.46665493 0.06952122 -0.059380498 0.3001672 -0.29789755 -0.067966595
ZC2HC1C 0.58915156 -0.5571159 0.6466809 0.19474185 0.061892446 0.733418 -0.6433938 -0.018221973 -0.36019403 -0.13670462 -1.7900482 -0.0027011514 0.52288735 0.34623027 1.0557971 0.16073781
SMG5 0.90742666 -1.385447 -0.02430467 -0.03251022 -0.013467881 0.52897537 -0.6811082 0.006133864 -0.20573245 0.012235091 0.7524426 0.37485287 0.5560414 0.7244208 -0.04871701 0.040895417
RPS6KB1 0.3629336 0.3006038 0.87598634 0.50949615 0.00017712281 0.37321812 0.3562027 0.051468443 0.114957705 0.23122403 -0.034976784 -0.25379008 0.47310162 -0.20309784 0.48858327 0.52139986
VPS45 0.8355489 0.20493564 -0.27816728 1.3173289 -0.015200173 0.024311867 0.6979948 0.64615273 0.20573923 0.010914557 0.5009887 0.20590736 0.08224102 0.3119404 -0.03769555 -0.10787529
TCEA2 1.0934483 -0.22554901 0.7819422 1.2523175 0.7396995 0.5867004 1.0140743 0.20973259 -0.1438007 -0.07978366 0.60645694 0.047534775 -0.14902747 -0.96722865 -0.41546482 0.99673647
SRPK2 -0.14853069 0.50326765 1.0103602 0.9625005 0.11494098 0.06451838 -0.19882703 0.65243685 0.11332028 -0.024680024 -0.07946337 -0.40092158 -0.294633 -0.21495914 -0.02558436 0.2987086
IFFO1 -0.6498143 0.25977147 0.009200198 0.07228913 0.1343905 0.20997179 -0.59442645 0.23272492 -0.5255137 -0.009250884 0.13771865 0.66665286 0.9243208 0.048481453 -0.34134144 0.1655701
NCAPD2 -0.05630248 -0.13635157 -0.24700594 0.06711379 1.0330187 0.35438675 0.3651877 -0.20061849 2.417383 -0.108325064 0.47169554 -0.60673493 0.9650475 -0.19885989 -0.03473652 0.69936454
TSPAN7 0.23769428 0.5185362 0.5370935 1.0959284 -0.022888549 0.37298626 -0.6831271 0.35678136 0.6682927 0.6981279 -0.089777835 0.27479583 0.5611961 0.26988706 0.14319289 1.2165192
PAPSS2 1.1223863 1.3415349 0.635142 0.02625305 -0.012848247 0.24976584 0.5250063 0.22803266 0.037527572 0.25728148 1.3422004 -0.022255631 0.7288374 0.9308488 0.7934852 -1.0893065
GTF2IRD1 1.2466291 -0.83418053 0.19105032 -0.116955474 -0.015720068 1.0583335 0.11072521 0.42401022 -0.21502255 0.03039385 -0.27227232 0.20317988 0.020213021 1.6636759 -0.12533349 -0.051444873
AGBL5 0.50462866 -0.30467433 0.13810153 0.34493756 -0.094780795 0.13817725 0.498496 0.4059003 1.0589651 0.7911553 0.69595426 -0.041445155 1.0942446 0.42617023 0.8445844 0.6051495
LCMT1 -0.013140302 0.2678682 0.5252647 0.22169082 1.0157006 0.09773524 1.5325803 -0.14827897 0.17275408 -0.24326049 1.7474133 -0.0031199923 0.1701196 0.14605811 1.1918621 0.55303633
NCL -0.37731487 0.9913282 -0.08375255 -0.66701996 0.63052255 0.26904842 -0.5857392 0.14671385 0.21055394 0.06710884 0.43084586 0.6701936 0.30705848 0.027657015 0.51855814 0.11428052
CLK2 0.3538698 -0.8102089 0.4978731 0.47329515 -0.33499157 -0.14408638 0.6527113 0.13019766 0.7131584 0.09942854 -0.43476224 -0.0015278383 0.39948082 0.42341048 0.5237353 0.43179855
PPFIBP2 0.26966703 0.33338913 0.6527841 0.30447668 0.89132035 0.6078653 0.5788481 1.6623054 -0.013502998 -0.5226336 -0.34689027 -0.6465079 -0.012874908 0.14322454 0.07330063 0.6153178
PRKCB -0.01612633 0.6731825 1.8643991 0.86461633 0.022153908 -0.18770461 0.099771634 1.1203529 0.15032876 1.23564 0.13182275 -0.039311346 0.048292913 0.28294566 -0.6824807 1.6949183
ARID4B 1.2130314 -0.1203279 -0.13789748 0.12469625 -0.010251253 -0.14155424 0.20014371 0.36202583 -0.50328904 -0.015799588 0.58269185 -0.012503442 0.46493062 0.6811073 -0.21279812 -0.0034646979
CUL4A 0.31663838 -1.5060734 -0.39361638 0.038932633 0.13874696 -0.17628402 0.76012635 0.19828755 -0.8696438 -0.0068601305 -0.18248993 -0.012322662 0.45872334 0.26016095 0.1412312 -0.15445414
TRIM71 0.5725858 0.12192235 -0.49119204 -0.01770543 -0.028537458 0.3814494 -0.039205175 -0.3807808 0.47307184 0.20040402 -0.07214081 -0.0183099 0.6068758 1.7453449 -0.23896009 -0.0116483625
SRPK1 0.26328674 0.19902958 0.62939763 0.2042716 1.0057473 0.43512723 0.17065316 -0.30122226 0.9149395 0.7468627 0.6383463 0.177544 -0.38645178 0.038418006 0.8846485 0.78733546
KCNN2 0.15237017 0.82345504 0.723068 1.2571456 0.012599292 -0.0445344 0.54846 -0.55643 0.09217218 0.017278269 0.26383874 0.093327075 0.23320223 -0.48455694 -0.53734136 0.23040628
BUB1B -0.41926184 -0.12056709 0.71816045 0.58800405 -1.1544403 -0.20513159 0.7492384 0.50717294 0.008761462 -0.118197024 0.11281442 0.007744761 0.38198486 -0.49162632 -0.069112495 0.1029297
DEPDC1B 0.057801142 0.0037340734 1.426028 1.0344675 0.13347805 0.055284582 0.5303055 0.553171 0.31653088 -0.66921103 0.18593341 0.010022725 0.35586348 0.7769056 0.3844209 0.1538676
PLK4 0.14129542 0.3436859 0.06426632 -0.28072527 0.58642155 0.06337441 2.1022968 -0.73806185 -0.04563677 -0.060435936 0.4164915 -0.049993273 0.15625036 0.2519124 1.7482567 0.3547874
RPL29 0.12073162 0.07448327 0.6161818 0.38533768 -0.0020185893 0.27749464 0.34803352 0.13932437 0.11964399 -0.026234856 0.3045905 0.004994131 0.27134797 -0.09383196 0.18091941 0.41171893
AXL 0.76366305 0.04667243 -0.26344445 -0.35550058 0.026956694 0.6197011 0.56668663 1.1413872 0.6480878 0.2919857 0.5862323 -0.033440094 0.067624874 0.63846904 -0.17004001 0.17751653
YWHAG -0.05979412 0.8555248 -0.14716026 -0.064927794 -0.004901429 -0.09638651 0.69006836 0.11765728 0.31680542 0.60817206 0.37711322 -0.08249414 0.1478373 1.3691291 -0.31630695 1.2382601
TUFT1 0.23094843 -0.15182701 -0.107702546 -0.399022 -0.016880054 0.11734361 0.683468 -0.2126004 -0.4370232 -0.03934171 0.8486114 0.09914181 0.17776273 -0.025887197 -0.2243882 0.56642824
C3 0.2311221 -0.96141994 0.18024863 0.124428675 -0.1278165 0.13517226 0.07473652 -0.17512877 0.2076823 0.051995147 -1.2092664 -0.95777285 -0.19110407 -0.5786598 -0.36593568 0.5479709
ABAT -0.7983491 -0.284679 0.15434292 0.17316124 0.09515712 -0.029523931 -0.3308183 -0.31060818 -0.15754353 0.17553495 0.40292135 0.14466228 0.48770356 0.103320785 -0.07787755 1.849053
FUT4 0.013884596 0.047210563 -0.10914042 -0.5921657 0.49313426 2.1122892 0.06708911 1.9547979 -0.42936623 -0.14799874 0.6530254 0.6445863 0.17378582 0.5544961 -0.08475415 0.09212101
FZD8 -0.21764484 0.046023622 0.17464969 0.35918397 -0.01914531 -0.045357246 0.9342679 0.3748712 0.6587471 0.0652384 -0.49308828 0.40849838 0.032005426 0.22332215 0.43084535 0.2101706
DACH1 0.22539215 -0.13346861 1.1646478 0.65778744 0.8721065 -0.15245613 -0.5501305 0.20962296 -0.4598082 -0.21868818 0.66809547 1.4217144 -0.15575811 0.5500289 0.5228336 0.9512723
SDHB 0.36803114 0.23919562 1.0340167 0.56664705 0.045831025 -0.08036834 0.4541991 -0.15790811 0.087450355 0.034938995 0.09715369 -0.0039078286 0.47680002 -0.44298494 0.22536884 0.18853137
PIP4P2 0.9013851 -0.36777988 0.24573803 0.40659434 -0.009091808 0.26384452 0.64995354 0.4515215 0.77294874 0.57551026 0.46237674 -0.013798061 -0.17098741 0.2696274 -0.0258198 0.8770325
OXNAD1 1.469459 0.07287188 -0.047694165 -1.0201057 -0.022868164 0.014335715 -0.28704852 0.3934737 -0.24530639 0.5718289 0.8792717 -0.05897386 1.1558498 0.79958 0.27810922 -0.054106686
DIRAS3 0.06246399 0.025990147 -0.9363444 -0.023011861 0.32869098 0.41541326 -0.8689265 0.45409507 1.018331 0.2755729 0.14217623 0.42514047 -0.42434105 0.5995512 -0.2167898 0.36251575
RBM8A 0.3612846 0.14506674 -0.006208055 -0.88443273 -0.018252691 0.25451353 0.50637203 0.2942734 -0.111056216 -0.16676518 -0.1651166 0.0016924972 0.18682767 0.8804914 0.35464782 0.041228466
SMC3 0.19753295 0.94740963 0.048200082 -1.1006745 -1.7714816 0.05071933 0.48821598 0.11011259 -0.08531977 0.053733118 0.6108743 -0.36033732 1.7509278 0.36752522 -0.046831544 0.3043541
MEPCE 0.46759263 0.74777323 0.16946948 -0.03885828 0.99139977 0.6692583 -0.4816042 -0.18732175 0.42947087 -0.09996029 0.5197628 0.62046725 -0.18797065 0.009130457 -0.062406916 -0.031401757
WNT5A -0.07515042 0.41069785 -0.1254233 -0.22792618 0.42451525 -0.36823836 -1.399471 0.48716062 1.3105586 -0.59351844 -0.9259888 0.13735218 -0.02025304 0.052678045 -0.31296226 1.4837127
PIK3R3 -0.025111737 2.1112132 1.2889999 0.5191042 0.59891284 0.7149563 -0.14947787 0.47894722 -0.29944617 -0.6284806 0.04138278 -0.001455945 0.3855304 -0.6542191 -0.008339138 0.13410048
GGH 1.2657385 0.22332858 0.8555746 0.45018262 0.048641246 -1.1318256 -0.3046028 0.36420536 0.018798018 0.18041368 0.12584464 -0.27697924 0.43698946 0.7722746 -0.11880915 -0.07402081
BCL2L1 0.14151996 0.39904228 1.2957693 0.098535724 -0.0123043535 0.06149157 -0.048077375 -0.93012637 0.23979352 0.002806641 0.32545295 -0.018890895 0.5814259 -0.9225153 -0.17180309 0.21341021
ILF3 1.1046774 0.050898902 0.07356114 0.25013226 0.15546425 0.28823546 -0.31451052 0.11458103 -0.83661526 -0.22339904 0.8723354 0.017705692 -0.1306748 -0.25697964 -0.07541321 0.9041382
HNRNPM 0.4290155 0.63881755 0.17962086 -0.48371315 0.3407439 0.25776827 0.012955373 1.0157359 0.056713074 0.6691583 0.4580092 -0.224936 0.4606026 0.0863809 -0.06884183 0.38015014
ETV4 -0.18215181 -0.48602068 -1.0447468 0.23227358 -0.055344325 0.03310586 -0.13137272 2.4235716 1.1441317 0.3347159 1.2331483 0.0798561 1.4288187 -0.39580786 -1.3121916 -0.12448911
TGFBR2 -0.19763148 -1.2366105 0.30416584 0.041971844 -0.003762362 1.0754913 0.745104 -0.106305055 -0.9287011 -0.051947903 0.18383186 0.04630151 0.0007206978 0.47831672 0.55609584 -0.52108365
LDOC1 1.9799396 -0.08531249 -0.07093426 -0.036001526 0.47631845 0.6201789 0.56481737 0.21693309 -0.106905565 0.7866474 2.0312731 0.35918638 0.33675453 0.27392656 1.3542769 0.13369204
FBXL18 -0.08431155 0.9628164 0.70306367 -0.46598926 0.331936 -0.47907928 0.4887906 -0.9330094 -0.012498265 -0.81652325 -0.5120797 -0.08353953 0.4284501 -0.22922048 0.5532306 -0.28049135
PCCA 0.48794857 -1.1567041 0.08294092 0.014699308 0.7104437 -0.7619361 0.12679638 -0.5617009 -0.052489482 -0.043760657 0.34892488 -0.00048310918 0.089995205 0.47632694 -0.19177178 0.24014159
UTP14A 0.4131715 -0.15419877 0.29192618 -0.26522386 0.02240956 0.09090359 -0.17329317 0.27185112 0.51632017 0.34092632 0.47396192 -0.52595156 0.21444346 0.08764666 -0.0614292 0.42134976
FZD7 -1.4577811 -0.6273562 1.0990111 0.021685787 1.1644603 1.0055845 0.11964967 -1.0815835 0.51675093 -0.24099079 -0.20710877 0.00508555 -0.19147499 0.22129573 0.6089305 -1.0404963
TRMT112 -0.23973705 0.53815866 0.47252086 -0.69224215 1.0169964 1.2315603 0.68483114 0.0024201416 -0.08065871 -0.04539608 0.433322 -1.6488595 -0.45043626 0.98520935 0.5178255 0.38889518
CIRBP-AS1 -0.04198031 -0.17820048 0.06290016 -0.36958084 0.25332555 -1.0285157 -0.0070315553 -0.27148798 0.5065074 -0.009360565 -0.17173617 -0.013413219 0.38793316 0.009928534 -0.8386769 0.6347831
PRKCG 0.1178156 0.56768155 1.34929 -0.6874861 -0.06670277 -0.6455042 0.41092488 -0.33343172 0.8367178 0.5220755 0.38904703 -0.6611489 0.20046496 0.55194366 -0.54125684 0.8912663
FYN -0.68516684 -0.15620077 0.6790372 -0.3203784 0.024371136 -0.13042037 0.8947365 0.18964127 0.79707515 -0.0060095293 -0.12668753 -0.21437345 0.2558523 0.60794467 0.51433736 0.36986628
OAF 0.4136731 0.18794219 -0.9465323 0.11510747 -1.2514035 -0.13334604 0.7864363 0.7038696 -1.1469288 0.80766046 0.3213409 0.10534774 -1.2954744 0.59223175 0.3040013 1.2469919
WNT6 -0.13503282 -0.6405841 0.25722167 -0.12955469 0.8022509 0.40166157 -1.287073 -0.18114354 1.366622 -0.12115889 0.11865741 0.02841055 0.16437027 -0.029201098 0.32824054 -0.08620219
CBX1 0.77505225 0.034343768 0.2594773 0.016876852 -0.017253442 0.30515993 0.5113736 -0.24967681 -0.0047896467 -0.056583386 0.27245 -0.12147823 -0.1223424 0.2205508 -0.32106695 0.07201747
PRPF6 0.13825725 0.3730149 0.21340702 -0.4469532 0.4106598 1.0688671 0.11363692 0.9497327 0.4634456 0.29172382 0.39627665 0.013490158 -0.5893738 0.12727417 -0.0033095665 -0.060312312
PLCG2 0.010049681 0.46234766 -0.15254217 -0.34369707 -0.16664691 -0.11783321 -0.3741757 0.02092966 -0.12619863 0.8594692 0.16617024 -0.08552853 -0.49832493 0.09253079 0.1904198 2.6904745
UBXN1 0.35878572 0.16584665 0.4059764 -0.68817383 -0.052275613 0.6563122 0.29296717 0.27236655 -0.95843196 0.044123784 0.50269204 0.45377162 -0.01937463 0.077963874 0.27023968 0.3130538
EXOC4 0.35912085 -0.097059384 -0.02789857 0.14376968 0.02375496 0.22953591 0.98208743 0.46631786 0.16075706 -0.30823028 -0.26503187 -1.3378824 0.37306395 0.40337822 0.15724021 0.32225057
MCM3 -0.15025005 2.2945058 0.42056543 0.37053907 -0.031876907 0.2961623 -0.8235484 -0.1613037 0.45234916 0.012449332 0.96988976 0.00815049 -0.22804031 -0.119490445 -0.6278805 0.5331372
MTHFD1L -0.55084085 0.061382473 0.23312247 0.08493554 -0.005358652 0.6040986 0.44861183 0.17183048 -0.1302707 -0.5655569 -0.107789695 -0.0006084659 0.13608487 0.50451773 -0.3111733 0.37713897
MAPKAPK5 0.27808708 -0.11419033 0.14256582 0.18336435 0.37952048 0.111266166 1.3694153 -0.17490087 0.7357326 -0.023861242 0.4965659 0.0010426152 0.14109817 0.44025642 1.0033069 -0.115335494
SUN5 -0.9748798 0.3670901 -0.5908211 0.7743454 0.22927116 0.09170115 0.35549122 0.0814915 0.45772883 -0.06830195 0.18812582 1.9877838 0.38030407 -0.12655896 -0.53502846 -0.81677485
PTTG1 0.08730525 1.8272866 1.5420743 -1.3052933 -0.009689413 -0.3036115 0.10774518 1.3034681 0.0010649816 0.01482631 0.20878913 0.28997612 -0.3195649 0.29745898 -0.06359796 -0.08478499
PHF10 -0.6102974 0.2375539 -0.42506397 -0.994105 0.6440616 -0.25473377 -1.3896493 -0.97683537 1.2228888 0.0060095354 0.58794713 0.31431 -0.18499689 0.04739023 0.21732672 1.1612035
STK3 0.009796385 1.6176096 0.43441546 0.25709993 1.0269312 0.41901353 0.26015124 0.07828577 -0.022668848 0.017125884 0.7084604 -0.038876817 0.43501863 0.23856898 -0.18430215 -0.37619102
LRP5 -0.0067988355 -0.35728163 0.19453135 0.16636267 0.9316055 1.0313696 -0.10525272 -0.034415368 0.58016527 -0.13632876 -0.56654066 1.0496446 -0.81675565 0.62168574 1.3722078 -0.01993875
RUSC1 0.027593663 0.09339456 0.5776679 0.15962568 0.08929178 0.033596534 0.42728958 -0.64338267 0.26939267 0.066499285 0.48716143 -0.0066774995 -0.59219205 -0.30466837 0.35008052 0.674767
MSH6 -0.48245385 -1.1439848 -0.99621874 1.7159685 0.034417722 -0.040784664 0.099611215 -0.42017636 1.4946986 0.19666614 -0.058814082 0.29061785 0.85947686 0.061466787 -0.74781334 1.4757836
BANF1 0.95691276 -0.7904851 0.594774 0.20158596 0.13465804 0.77694315 0.18346737 -0.9779677 -0.06704377 -0.9152887 0.3096809 -0.20225687 0.048761256 0.14727792 0.22729512 0.134563
POLD1 0.456529 0.409626 0.5499637 0.31447428 -0.023685109 -0.14717273 0.10010646 0.436423 -0.6239564 0.35554603 0.061142936 -0.003965436 0.3167213 0.20008343 0.3849775 0.5147884
PPIA 0.7553789 0.60667896 0.28560248 0.05022203 0.5601071 0.68016076 -0.5832497 0.115370035 -0.26136944 0.61690736 0.30848086 -0.017414363 0.6372265 0.34903386 1.0322807 0.31228036
RMST -0.78686404 -0.11806092 -0.19435193 -0.00659235 -0.07206036 0.405987 0.56965035 0.24721153 0.33199668 -0.0015590326 -0.28896993 0.06415592 0.45651275 1.3582654 0.53754133 -0.020168303
NRF1 0.77694726 -0.4202307 1.4036887 0.6908141 -0.26776844 0.16377681 -0.051070035 -0.6115558 -0.19243369 0.21863392 1.0700655 0.027020708 -0.23982495 -0.2681049 0.12993416 -0.13217561
AURKA -0.119374245 0.6824644 0.63049096 0.60299623 0.5577337 0.21231098 0.28569695 -0.23520859 0.13802294 -0.072087206 0.9372577 0.0066153207 -0.06811997 0.16086425 0.0039318744 0.26424554
ZMAT2 0.73484045 -0.5700812 0.48261672 0.66439056 1.1857965 1.4497477 -0.156109 1.1002535 0.9017789 -0.40496215 -0.10720896 0.22231154 0.19336683 0.52765286 -0.42100945 0.3043031
WNT2B -0.15113118 0.2269757 -0.23686418 0.12856434 0.7199091 0.48518714 0.24411914 0.17833863 0.69922674 -0.13251345 -0.09306017 0.025153061 0.14736776 0.14403546 0.19189863 0.2677357
AP1S1 1.4694014 -0.07621966 -0.07642358 0.2713644 0.28537163 0.30807447 0.83511996 0.27138987 0.4018236 0.7673981 1.0406823 0.14975363 -0.16114555 -0.36937746 0.6903507 -0.0904391
ZNF746 -0.2761518 0.86097014 -0.16732451 -0.5466653 -1.1617942 1.8970044 0.18759724 0.273982 -1.4690093 -0.5034728 0.03668464 0.034876004 0.29736328 -0.11337065 -0.018652232 -0.06645327
CDC20 0.18416102 -0.021677015 0.27320912 0.0032803803 -0.12877992 -0.1721551 0.16189985 -0.30036336 0.32778046 0.4947276 0.24112073 -0.80788815 0.15243214 0.4326478 0.08686006 -0.06517072
RPS20 0.2502212 -0.115452275 -0.20874152 0.058810394 -0.007013119 0.50465226 0.041861888 0.019990012 -0.113087 0.07437179 0.29490831 -0.07558867 0.5070844 -0.30017605 0.108427055 0.31835794
ZFP64 0.24114688 -0.24010806 0.84480697 0.9297811 -0.05322031 0.1349957 0.3620407 -0.5066776 0.36954376 -0.3820262 -0.018711835 0.12123765 0.3836961 0.36380905 0.38324553 -0.08140962
GMNN 0.2751436 0.047561854 0.37988222 0.29841268 0.5512463 0.31412172 0.4567251 0.03098763 -0.0499158 -0.49157998 0.45994246 0.07267549 0.52722144 0.16441083 0.85117835 0.036419842
EEF1G 0.10236905 -0.73353064 -0.13579658 -0.02781982 0.5832349 0.6748377 0.15759392 0.18576308 0.983214 -0.02518723 0.24574973 -0.7011004 -0.46952596 0.5814951 -0.976849 0.42084062
TTC21A 1.2152025 -0.0018981507 -0.14790602 -0.21868744 -0.0274329 -0.4097007 1.2731322 0.8178033 -0.46049827 -0.7461993 0.05881678 0.028958531 0.142635 0.5290554 -0.19870779 -0.048418768
LOXL2 0.30802897 0.44858584 0.28459468 0.020915119 0.3790873 0.09906196 0.49828348 -0.019067287 -0.18807064 -1.1000443 1.6866317 -0.009923265 0.35005602 0.24874532 0.38247073 -0.53656566
RPL7 -0.043292962 0.17207794 -0.40095302 -0.0038032187 -0.008202686 -0.15040754 0.6118719 -0.065912805 -1.5804225 -0.031270046 0.14253245 0.0064380276 -0.9727336 -0.3921891 0.08067195 1.2421355
MSH3 0.6826295 0.22438085 0.033690576 -0.07175637 0.33720684 0.29439732 -0.30508277 -0.00961057 -0.57183695 -0.07702627 -1.0850921 0.103045315 -1.716728 0.19607595 1.0652297 -0.1068212
NOL11 -0.09576069 0.7463944 -0.19424823 0.12910368 0.40649894 -0.05526316 0.7435982 0.02480921 0.2938834 0.26715565 0.9179121 0.018987566 -0.13454993 0.5988353 0.21926847 1.5908642
FTCD 0.062078778 0.38712168 0.37720096 0.4550767 0.4011167 0.3053758 0.384472 0.38587645 0.32326767 0.44082054 0.22382686 0.46920416 -0.9431518 0.32092035 0.0944221 1.3300152
SENP1 -0.214068 2.0202138 0.58999497 -0.025277074 0.58108276 0.04793921 -0.8832659 0.0910864 0.8191388 0.86068743 0.78471136 0.0076367287 0.91752017 0.4222374 1.2412547 0.255409
SNRPA 0.082478814 0.6900001 0.6041429 0.2537965 0.48222286 -1.1799225 0.79418147 0.17198369 0.6420687 0.56371474 0.2990371 -0.9474546 -0.6149024 1.0408281 0.80214643 -0.15578029
OSTF1 -1.3696061 -0.19201341 1.7218248 0.74687004 -0.11629855 0.089270845 0.07256354 0.40031663 0.5123512 0.05800797 0.25486058 0.76170444 0.8382975 -0.022513293 -0.15698715 0.1430702
PFDN6 -0.025697783 0.36414084 -0.21628742 0.19767433 -0.03281774 0.10287775 1.3565595 -0.7124727 0.4119231 -0.021995807 -1.6267279 0.5495884 1.5700978 0.2842174 1.3562989 -0.6585562
RPL38 0.35519102 0.72816753 -0.24790302 -0.277563 0.010194556 -0.45070758 0.1334744 1.0314624 0.29692775 0.26779225 -0.18967082 -0.24870338 0.17533933 -0.12900822 -0.07827754 0.099833645
HPX 1.2299544 -0.74614733 0.22680345 0.346321 -0.08766685 -0.24343336 0.34702715 0.48106673 0.18334696 0.3014259 0.6638819 0.3173684 0.52972037 0.17380632 -0.8403133 -0.047886066
RBSN -0.54420596 1.2558715 0.18787539 0.0937707 0.26884872 -0.072522454 -0.2379603 -0.2830348 1.3127944 -0.21007352 -0.5858082 -0.39962468 -0.30838618 0.11365094 -0.26786143 0.088978276
TRIM16 -0.20338187 0.19019914 -0.115979895 -1.1220825 0.56576705 0.10046463 -0.86534446 -0.67704874 0.9648212 -0.8732579 0.31267872 -0.019267539 0.6889651 0.48822197 -0.076244116 0.8403183
SAP130 -0.39884803 -0.034529485 0.37112996 -0.47568372 1.3654146 1.5710999 0.6784441 0.4129245 0.124847405 0.41516802 0.49742287 0.7840337 -1.9110374 0.47590503 1.8409295 -0.26630408
VPS37C 1.1851988 0.072214074 -0.16300718 -0.059508868 -0.039830863 1.2382694 -0.042725522 -0.48920193 -0.074493 0.16749234 -0.0015757713 0.24163449 1.4708256 -0.35887656 -0.23451883 0.04772184
TGFA 0.1255433 0.1535475 -1.0353049 -0.1352113 0.35811985 1.0429175 0.0009354193 -0.8211605 0.67447895 -0.34189928 -0.2324005 0.02556818 0.34524152 0.059771314 -0.8717883 -0.12983142
PPP2R1A 0.3511651 0.078466445 0.09291317 0.33683133 0.35836655 1.1668149 0.93716854 0.37270808 0.9939558 0.09860048 0.04933712 0.047231723 -0.036541507 -0.8804403 0.4087845 -0.37444028
PAPOLA 0.026660506 -0.03229115 -0.44295484 0.84306264 -1.0001092 0.76622105 0.37568092 0.570162 -0.12839398 -0.3936037 -0.6473773 -0.45188817 -0.81101006 -0.98526376 -0.10464477 0.35412076
ATP6AP1 0.1595819 -0.38585424 0.11394156 -0.35643908 -0.003548901 0.52688617 -1.518658 0.4129803 0.52578247 -0.005184549 0.13036177 1.1900861 -0.10900315 0.08017613 -0.81955427 0.15420283
BAZ1B -0.06924094 -0.41451076 1.0420842 0.28703862 1.1232578 0.62350845 0.6139169 -0.08690642 0.25832343 -0.08235419 0.6191445 -0.12225808 0.1706708 0.14172514 1.1979232 0.7491766
TGFB3 0.44071367 0.57618254 -0.050164238 -0.042275254 0.32961586 1.333193 -0.3590333 0.3116425 0.63017166 0.21220455 0.11021925 -0.012622385 0.5945767 0.9913596 0.4845765 -0.021150352
FZD4 -1.0702243 0.6790199 0.5478738 0.25632456 -0.2957863 -0.2772561 1.2092277 0.35208252 0.59172493 0.40514746 0.33564988 -0.031898387 0.34169194 0.361234 0.32109097 0.49615672
NAT2 1.5845131 -0.047665693 0.56699014 1.865952 0.10553373 -0.106693886 0.077659264 -0.35439926 -0.10686591 0.9367587 0.34561935 0.35693702 -0.012401207 -0.15735547 -0.081479594 1.4755244
ACD 0.6059094 0.6839034 0.42303374 -0.92036504 -0.18029572 0.48179296 0.100864395 0.27974752 -1.4094007 1.0796617 -0.8341709 -0.0679924 0.15729581 0.81705374 0.78066427 -0.017815305
USP39 0.22944376 0.41964397 -0.31061807 0.07422602 -0.48626783 -0.115518354 0.56731385 -0.5413792 0.8130962 -1.3547235 -0.2977938 -0.6238906 0.4403793 -0.7961708 -0.099797904 -0.11170812
PEAK1 0.2804 0.35073134 -0.21643996 0.08173856 0.46088475 -0.29315147 0.75154036 0.18662615 -1.0241916 -0.111544974 0.56205356 0.02049495 0.025146997 -0.08325326 0.499426 -0.10796011
CNOT3 0.3215789 -0.068996236 0.40955848 -1.1956233 -0.52559453 1.4097959 0.32205364 -1.1082022 0.12574027 -0.02567659 0.04292153 0.005236637 -0.25339076 0.38189575 -0.019583622 -0.45358348
MRC2 1.3856313 0.33438078 0.22649215 0.023900498 -1.0708733 -0.12375832 -0.18864864 0.2542074 -1.0383248 0.19820194 0.79959697 0.18011893 0.73804504 0.23835073 -0.63959694 -0.034436803
TDRKH -0.7906931 -0.055717297 -0.9592721 0.28265613 0.21399729 0.5528151 0.036942996 -0.65270144 -0.1310466 -0.04251068 -1.0369047 0.26174507 0.13700572 0.91238284 0.28048253 1.9293306
CSRNP1 0.2541713 0.8235785 1.3883132 0.24691017 0.04725808 -0.015001307 0.08943178 -0.5007272 0.4146742 0.9271714 0.0452397 -0.009941934 1.0812253 0.009568059 0.54560053 0.6088122
FAF1 0.046347342 -0.08081912 0.88369864 0.23475225 -0.48886496 0.13519198 0.47505462 -0.12941234 -0.07954993 -0.22809768 0.55097467 -0.02946841 -0.21982326 0.233537 0.17751673 0.21932271
FANCC 0.34763634 1.2240309 0.40785417 0.15435614 -0.01841189 0.062248703 0.13068233 0.18268676 -0.27579123 -1.3291677 0.37880027 -0.01364557 0.14832468 0.17149343 -0.21259193 -0.05539424
FAM83H 0.011998781 0.22633313 0.34898713 0.37390056 0.013428143 -0.15766771 0.16455086 0.21026549 0.3897174 -0.01308526 -0.09611666 0.010927513 0.8983535 -0.22979763 0.13640204 0.40172502
SHC4 -0.23931396 -0.25599208 0.3338969 0.054972377 0.1263159 0.37408462 0.29585502 0.9630246 0.67304766 0.16697289 0.5647103 0.009224404 0.43224573 0.45489705 0.36429954 0.031606376
LRRC58 0.2301298 1.2997018 0.32436284 -0.027336486 0.5391838 0.16383298 -0.90583915 1.0339425 0.03855375 0.53525424 1.7611903 -0.007954582 0.084123746 0.2742516 -1.0118884 0.8084982
TERT -0.5385352 0.768621 -0.33113378 -0.24200168 0.3577893 0.027020201 0.027602226 0.11876417 0.32151777 -0.0032597068 0.042760406 0.008112716 -0.022468822 0.018581446 -0.013384119 -1.0649736
GEMIN5 -0.28947654 0.004705482 -0.24472095 -0.7703027 -0.574128 0.7922486 0.03593344 0.08832312 -0.01650784 -1.2336065 -0.110530026 0.5001385 0.41380903 -0.0842992 0.00014160993 -0.12256919
BAD 0.09632862 0.68686914 1.2648234 -1.5761402 -0.026265115 0.08755354 0.2522225 0.030895798 0.50561404 0.035735793 0.14263186 -0.018034415 -0.04100866 1.0623738 -0.12840095 -0.9108623
AVPR1A 0.66948134 0.9070993 0.09722846 -0.2761554 -0.787944 0.24467869 0.03948673 0.13171193 -0.52154577 0.31655446 0.43140006 0.016750675 0.2972552 -0.7649341 0.09516262 0.17027898
ANAPC11 0.4889412 0.39682755 0.4863645 0.24784717 0.16010366 -1.080659 0.15680231 0.3923226 -0.60052377 -0.018063463 0.014474253 0.14136177 0.17487867 0.169207 -0.11112267 -1.3380483
ALDH1B1 0.57008135 0.52417874 -0.53580326 0.41595444 0.023592144 -0.09865497 0.02215731 0.27016574 1.1845459 1.9326825 0.5719686 0.771506 -0.10138202 -0.54075724 1.0757514 0.75892806
CDC25B 1.2344598 0.5221078 -0.33634648 -0.03455168 -0.17775787 -0.008964876 0.0755506 -0.049469296 -0.5928401 0.041228913 0.06452221 0.50767213 0.3892596 0.056766942 0.4841913 -0.06830704
ARHGAP11A -0.51156193 0.34060583 -0.47819406 1.3211031 -0.0577584 -0.19158748 -0.14574787 0.35252059 0.2584372 -0.020553412 -0.39350194 -0.48211625 0.29417154 0.44326866 0.060111403 -0.9577126
NNT 1.3574108 -0.097616754 0.23858637 -0.07819615 -1.2456224 0.041096523 0.54903036 0.005471538 0.4180803 -0.24079002 1.1807761 -0.8550608 0.7253252 1.3834738 -0.064215876 -0.20907266
CCT4 0.042149205 -0.11652971 0.21884407 0.31458777 -0.09036824 -0.14919531 0.18311965 1.7739356 0.62295145 0.3729794 0.2535108 0.009852138 0.22282076 -0.08121927 -0.070986085 0.19399376
ZNF532 -0.27823305 1.0206766 0.539185 -0.7163277 0.08050669 -0.12809151 0.32587373 0.030095667 -0.15590262 0.019260176 0.39960045 -0.4980375 0.23357865 0.18107584 0.11748152 0.30796453
STAMBP -0.009666687 0.3869197 0.09008959 -0.00861244 -0.41913566 0.09791682 -0.21460626 0.05046184 0.6869172 -0.084387206 -0.034770098 -1.1150026 0.31199223 0.25303096 -0.013430806 0.223792
PAFAH1B3 0.35701284 -1.0379573 -0.3695817 0.56253743 0.19402403 0.5763165 -0.09972957 0.0961583 0.25401023 0.17212948 0.14062335 0.44769642 1.3752986 -0.4383398 0.28536874 0.6326249
DRG1 -0.01860386 0.35338002 -0.1113421 1.2328565 0.22251084 -0.073162265 -1.0957247 0.37252828 1.4511416 0.2117292 -0.103963956 0.17334051 0.4167994 -0.015539209 -0.094907485 0.45456675
HSF2 0.42133018 1.1041937 0.057637185 0.095965356 0.62185127 0.61927134 -0.1900722 0.04301475 -0.17926452 -0.10618709 0.087404676 -0.01929343 -0.36922503 -0.23405199 0.18464738 0.0064411205
PPOX 0.39527473 0.38124287 0.5769598 1.1291155 0.6647749 0.088643566 0.4544178 0.6000411 1.3224251 0.93473274 0.6705283 0.5353653 -1.8024006 0.08958793 0.39068064 0.49465448
PQBP1 0.120721385 -0.04766986 0.06981476 -0.050762974 -0.69709116 -0.09531259 -0.46966335 0.4472029 1.0585123 0.5467641 0.14728521 0.014874854 0.093285665 0.6178467 0.046056908 0.29717898
TIMM9 0.5091043 0.14527956 -0.22342049 0.040359322 -0.028010124 -1.5699058 0.5180148 0.47873834 -0.7779999 0.074937105 0.5641165 -0.0037356114 0.3097464 0.89559364 0.40188584 0.122802496
GSTO2 -0.034209292 1.6060649 0.40196267 0.65454453 1.0407377 0.45012116 0.46124762 0.30864623 0.9707843 -0.20626561 -0.07889233 -0.055238083 -0.17877115 0.14839612 -1.4099244 1.897384
KAT7 -0.53981066 -0.07340607 0.4272311 -0.48117584 0.12659237 0.4506954 0.16669866 -0.0066626663 -0.054714333 -1.8881515 -0.20519227 -0.10566047 0.20201129 -0.5054325 0.9919302 -1.2051333
DHX9 0.04564829 0.17667723 -0.1249518 0.1772131 -0.0012196341 0.18848814 0.27407897 0.08960729 0.18224289 -0.5708085 -0.14821002 0.008884635 -0.7234677 -0.28351134 0.106993005 -0.15716022
RHOBTB1 0.2837526 0.21416491 -0.15760116 -1.3096077 0.0056849997 -0.04350537 0.49050596 0.16432938 0.29621097 0.6406558 0.81815267 -0.016211618 0.34449401 0.3431028 0.31866488 2.1613755
ARL6IP6 -0.32966742 0.79349697 0.3705342 0.5489294 1.7525226 0.34046522 0.66079116 1.1675293 0.58063126 -0.01169772 -0.3526746 0.28676963 -0.08171456 0.17738281 0.611731 1.5803926
AKR1D1 -0.15326686 0.6247831 0.8018341 0.30019122 0.13182649 -0.26602978 0.5069316 0.64293665 -0.17586665 0.067735754 1.2739894 0.4143643 0.30994797 0.14641957 -0.061540987 0.3745835
RALA 0.90778387 -0.011755232 -0.2932409 -0.13853192 -0.0018326321 -0.2810374 1.4371121 0.2583048 -0.08985654 0.020377073 -1.2800477 -0.030461125 0.13111567 1.4180424 0.89304036 -0.124094635
POLR3F 0.32174227 1.7290338 0.2663006 -1.948058 -0.18076074 0.68432266 0.26512218 0.3116954 -0.70279217 -0.2784097 0.1966409 -0.5729493 -0.8171118 0.42680925 0.11914665 -0.90252453
PCDHGA4 0.098214984 0.55785245 0.43625793 -0.99526846 0.81825745 0.17019813 0.47635522 0.17099221 0.110467464 -0.023604823 0.79697484 0.4192953 0.12152547 0.71722925 0.987138 0.17448889
RPS10 -0.6618151 -1.0534773 0.24421106 -0.0012014273 0.53378224 0.69619554 1.0932326 0.41599682 0.7425509 0.44724917 0.39163917 -0.6564554 -0.10574274 1.6969967 1.0790675 -0.229817
CSE1L 0.3638663 0.1381933 -0.888245 0.04484178 -0.018912077 -0.124166094 0.23749827 0.7015058 -0.45782366 0.052171253 0.42676505 0.0024460154 0.21717358 0.025530413 -0.13956322 -0.055990778
GALNT11 0.055356245 0.16725414 -0.11773179 -0.4436964 0.07005415 0.8689816 1.7020103 0.1605375 0.112067 -0.72316027 -0.07927926 -0.07010111 0.64438826 1.4431186 0.53837585 0.11299748
SMARCD2 0.2867683 -0.062526494 0.6205168 1.4978223 0.4104429 0.81551707 0.3257696 0.4985195 0.56976306 -0.5629943 -0.13483702 0.06231833 0.25328025 -1.1050489 -0.09674897 0.6024233
LBR -0.5354792 0.4875321 -0.8656007 0.016825281 -0.35764623 0.0913584 0.15702379 0.54666793 0.43654117 0.26805535 0.2702501 -1.3966947 0.33693787 -0.1819075 0.18085352 -0.17254984
UBE2C 0.045405038 -0.108642206 0.49537274 -0.75461954 -0.06500503 0.3372951 0.5836019 0.24356057 -0.44961622 -0.03149982 0.9733401 0.07520719 -0.07245008 -0.14300242 -0.4461563 0.24873947
ZIC2 0.32684284 0.2876164 1.3044326 1.5619164 -0.28040418 -1.0373636 0.23019667 0.43369776 0.6223487 1.1488414 2.1722903 0.055684153 -0.45207262 -1.0474796 -0.19987507 -0.2632578
KLHL12 0.002065305 -0.065963656 -0.49603784 0.06485535 0.8781069 0.6253193 0.08544099 0.74974173 0.39310926 -0.033302583 1.2271994 0.13225096 -0.37958542 -0.32595417 0.17827868 0.3950808
FGFR4 -1.7609651 -0.61002195 0.86263907 0.014934082 -0.27771738 1.1694294 1.1414785 0.35382724 -0.55245465 -0.024582418 -1.1171503 -0.6101937 0.06872216 0.4086877 0.44329858 -0.04586185
UGGT1 -0.13668773 0.3808464 -0.10838361 -0.16651466 -0.06750211 0.25133812 -0.42463195 0.4180148 -0.30595285 0.4152955 0.2373559 1.0064448 0.18910119 0.06773126 -0.13068853 0.5091204
NNMT 0.42692083 1.378991 0.3715117 0.47652936 7.569029e-05 -0.065523975 1.4158634 0.28004348 0.19610421 0.15778251 -0.3293838 -0.035326716 0.21685927 -0.6317053 -0.1607506 -0.2170124
FLAD1 0.58863384 0.9355811 0.6610765 -0.31751278 -0.079059 0.15109147 -0.19971688 0.16386104 -0.5099319 1.2201189 0.51506525 0.046171952 -0.19127354 0.12417041 0.8343023 0.19477813
C1R 0.13798165 0.6629519 -0.82794386 -0.1132121 -0.10885149 0.08832913 -0.04201482 0.05339086 0.52653086 0.47678733 -0.8048778 0.9444849 -0.20535494 0.289582 0.53673595 0.47687986
RFC3 -0.79414743 0.28487393 0.35507977 0.20433395 -0.010432832 -0.20640574 0.3680882 -0.4077891 -0.09600902 -0.011556643 0.4808412 0.48012984 -0.22719598 -0.0099450825 -0.82498676 0.34886047
FANCI -1.6254197 0.072439924 0.4311533 0.021126894 0.0048341015 0.28971457 0.21885644 -0.43061805 -0.1448673 -0.8641293 0.54563195 0.0073541976 0.90850943 0.11153954 -0.0361329 0.40435022
PDPK1 0.4763526 -0.07044958 -0.107840076 -0.48833695 -0.72399205 -0.400963 -1.1494184 0.20299405 -0.25821725 -0.06266041 0.50564176 0.011098924 0.2669459 -0.675874 -0.00804773 -0.2988697
IGF2BP2 -0.3166046 -0.03911411 0.62875074 -0.03815522 0.099015854 1.6468794 0.4994314 0.157104 0.4194777 -0.047358155 0.49111533 0.0038678395 1.2422497 0.4706543 0.6653655 0.5903165
NUAK1 -0.11856052 0.780564 0.3589875 0.12646216 1.4768192 -0.12256066 -0.29614568 -0.28017774 1.8887529 1.0513287 0.08902636 -0.0069227507 0.58197826 -0.3767456 1.1614816 -0.0085772285
KRTCAP2 0.5410495 0.26342687 -0.070942365 0.24419808 0.33820435 -0.1544056 0.06336583 0.49163285 -0.8155086 0.84151953 0.34437504 0.6099428 0.48164394 -0.080794804 1.6803339 -0.07194078
NUTF2 -0.33882296 0.07351581 -1.5996166 0.55285764 0.030584583 0.40830567 -0.116814375 0.5778661 0.6659711 -0.86352867 1.8902804 0.08298364 0.5274786 0.94433004 -2.0946815 0.1980669
RAD51C 0.2912413 0.14738572 -0.4324421 0.630883 -0.13818532 0.9441271 0.29077572 0.85598475 -0.11723342 -0.026078574 0.24671966 0.038479716 -0.036882497 0.30751234 -0.0911673 0.25682467
SNRPD1 -0.33095762 1.6968597 -0.81845444 -0.055493534 -0.11674578 0.15380383 0.40034753 0.048003502 -0.4102313 0.046169367 0.04586072 -0.6019311 1.1953716 0.28983265 0.5164991 -0.07952753
