ALDH18A1 1.2575935 0.922202 0.7828153 -1.2230563 0.34760755 -0.6088718 0.19599909 -0.81661844 -0.16311717 1.32778 0.14968623 -0.5967284 -0.07658673 -0.010628319 -0.16098551 0.46852773
GNB1 1.027639 -0.015400298 0.018772492 0.30653587 -0.12689452 0.2480155 0.3755872 0.8567711 0.82032907 1.091669 0.75885814 0.7742717 0.27171895 0.11914512 0.22390456 0.37524754
CAMSAP1 -0.57335645 -0.1048365 0.29118443 1.0176969 0.0573909 -0.0668011 0.40936753 -0.17921765 -0.72932345 0.5287263 -0.2158835 0.16418597 -0.44981745 1.572635 -0.4484171 0.30168104
COPA -0.29881763 -0.08577377 0.40241137 0.13896707 0.17795397 0.5135035 -0.23537163 -0.17329475 -0.645693 0.31542832 0.14062867 0.1767573 -0.07664366 1.2880253 -0.3769021 1.0298208
CALM1 0.8220902 0.3225027 1.6082277 0.47206822 0.12931861 0.011516282 -0.26924556 0.4602798 0.24751015 0.3716984 0.4363709 0.030613156 0.6229925 -0.06260871 -1.3021632 -0.14620538
GALNT11 0.028311715 0.0165301 -0.50950056 0.020953044 0.32684943 -0.00044931605 0.63808876 -0.00887319 0.5357994 -0.0068358933 -0.3118508 0.33779606 -0.907338 -0.22332655 0.97400033 0.11523458
USP21 -1.6181902 0.20079683 0.48838705 0.03291378 0.47703835 0.03936404 0.5688263 -0.014153195 0.22912382 0.34537733 0.09555932 0.20587161 0.04377468 0.7493065 0.3119038 0.37092903
PRKAA2 -0.66277164 0.35236716 -0.0441643 0.007924781 0.33796182 0.01143711 0.13903326 0.0056022783 0.5548982 0.29521054 0.12481136 0.38793713 0.72268844 0.33681107 0.2843233 0.11044989
MEFV 1.2463555 0.38877752 -0.59500927 -0.37314877 0.5345411 0.7820157 0.13310768 0.0034690239 0.6824205 0.5663414 -0.91948915 0.4035815 0.118928805 0.6098046 -0.14492865 0.40701154
NUP155 -0.33083785 0.36139894 1.0128797 0.99007374 0.5934343 0.009319532 -0.12368488 0.0014127272 0.4260144 0.6980294 0.10676429 1.0148742 -1.5429071 -0.050384562 -0.42637664 0.7172961
GSTP1 -1.0260317 0.2039581 0.3350786 0.08269229 0.41937658 -0.25505504 0.51156795 -0.45292103 -0.7820748 1.0124719 0.8840165 0.0916065 -0.7139641 0.41532543 0.4579743 1.5730922
PITPNM3 0.0017555731 0.32102686 -0.18745403 0.054667104 -0.21009918 -0.770629 -0.4312052 -0.08474601 -0.05069737 -0.6900841 -1.0571879 0.035181668 0.79443413 0.0072462144 0.262171 0.38834253
ATF5 1.2362236 -0.25029194 0.48454377 0.08063283 -0.38145372 0.047001906 0.583353 0.6299069 0.53955775 1.7942538 0.13981406 -0.26078779 0.3125058 0.59948707 0.916406 0.2613804
MUC6 -0.26759818 -0.27204052 -0.005136067 0.010192413 0.5372852 0.20714323 0.1952766 -1.4822829 0.09260326 0.68613154 -0.9558471 0.9526324 0.363453 0.062677525 0.73515344 1.2249043
XRCC6 -0.04097346 1.0972161 0.38186872 -0.34119204 -0.10165803 0.011985683 -0.015651217 1.0584512 0.37225854 -0.2249741 -1.1935381 -0.28620186 0.37355268 0.37639993 0.24757914 0.24127133
METTL15 -0.2200191 0.2104959 -0.041833684 0.20760411 -0.1770683 -0.0053870236 0.24340324 0.60925955 0.796585 -0.17513439 0.44568476 0.36905614 0.38710216 0.21664023 0.2590576 0.20434578
FXYD2 -0.113104135 0.19019431 -0.7030598 -0.7886979 -0.6786587 -0.023540296 0.17187817 0.06644932 -0.6678097 0.03849776 0.2700892 0.020252623 0.9203627 0.1639112 -1.1057693 0.16096981
SMAD4 -0.62972236 0.15652016 -1.6692473 0.018431026 -0.089808 -0.073696494 1.0737739 0.054051116 0.7666533 1.4830236 0.30088526 0.56846905 0.03932712 0.69835085 0.639494 -0.06817019
ZSCAN29 0.31277964 -0.28491572 0.042411115 -0.006995197 0.34089753 -0.0015531345 -0.066504836 -0.0039017526 1.5144278 0.75435525 0.42006707 0.41913822 0.5787028 0.3102481 0.7553713 0.34128878
ELK1 0.1512472 -0.43411928 0.24712408 -0.16223146 0.14778344 0.9605659 -1.4616842 -0.4803994 0.24624157 -1.4167367 0.037879165 -0.5386842 -0.2590895 0.30540743 0.870068 -0.4235259
NKIRAS2 0.19269514 -0.08614669 0.64117527 -0.6155762 0.22691862 -0.008031208 0.3303856 -0.00016972414 0.17363387 0.37341332 -0.81923217 -0.12412432 0.27213132 0.3963545 -0.03845273 0.4601007
LAMA4 0.38144228 0.13985243 0.41851506 0.20712426 0.23835012 -0.05703554 0.07170029 -0.0019418233 0.6361041 1.2226686 0.33824846 0.5493492 0.54175633 -0.0061980644 0.023189465 0.044867493
GTF2IRD1 -0.107117794 0.37983245 -0.09065315 -0.50441426 0.27415705 -0.22137576 -0.071844935 1.0611758 1.4711603 1.2733337 0.005960495 0.13492392 -0.912283 -0.117222495 0.01249211 1.288383
PRRC2C 0.02193457 0.31468335 1.5400198 1.1319939 0.08144306 0.0018699233 0.2277196 0.036733747 0.23000763 -0.39829993 -0.45479044 0.30867523 -0.05655563 0.3857167 -0.07394547 0.14870077
AKT2 0.01568072 0.29157677 0.090770096 0.25650826 0.98696965 -0.20857893 -0.19596182 0.0142798135 -0.2568739 -1.5885025 0.14651442 0.23593487 0.7694452 0.18615445 -0.124766454 0.4165442
TRIM16 0.06462074 -0.27472204 -0.1124107 0.123835355 0.61446947 -0.0008460556 0.32812968 -0.0027001353 0.60957766 -0.7223807 0.5668238 0.59355974 0.4350404 0.2307174 0.25842068 0.340633
ASL 0.47248274 -0.48635083 -0.024362082 0.023943782 -0.07207376 -0.08672419 0.18241358 -0.87735224 0.044999465 -0.13429953 0.44910043 0.040678073 0.8153484 -0.03646012 0.069501415 0.34886396
NOL7 0.09587917 0.560922 0.14072406 0.7830865 0.50659734 -0.005085115 0.36313146 0.3141956 0.43111655 -0.4676265 0.3171613 -0.38502473 0.24420355 0.63529754 0.34487057 -0.03463024
FANCI -0.6145544 0.42697117 -0.31948924 0.0859873 0.06779448 -0.2617214 -0.22592387 0.25696135 1.2263159 0.14880513 -0.0059342226 0.2342311 0.2181006 -0.2373605 -0.54669875 0.73471296
PDPK1 0.70652366 -0.07049 0.33340195 -0.06626722 -0.012324628 1.0150497 -0.3901885 -0.54470545 -0.2677356 -0.045960676 0.34722188 -0.20732261 2.2599797 1.4137384 1.5349143 -0.34004268
PCDHGA4 0.9101844 0.2406552 0.10528192 -0.03554163 0.023614235 0.054879148 -0.7547305 -0.2536655 0.1291883 0.59569633 -0.0072863917 -0.3249318 0.11803453 0.27371243 0.026239838 0.25287867
IGF2BP2 0.39981386 0.02784279 0.33431935 0.28864878 -0.13204198 -0.03675517 -0.49599764 1.0723927 -0.2156035 -1.658136 0.50033927 0.26379898 0.81635684 0.23335668 0.1051756 0.14433178
KLF13 -0.5406728 0.07011794 -0.13993414 -0.0041194633 0.97297263 0.0022830765 -0.17277743 -0.21244402 0.6165509 -0.04692451 0.058616024 0.2335209 -0.89492685 0.23522873 -1.0672196 -0.03598982
AATF 0.7091361 -0.47212473 0.4591946 0.04353931 0.09592389 -1.7844765 -0.63535535 -0.3530493 0.6035343 0.07512253 0.87377894 -0.008322124 1.3420221 0.4872461 0.646448 -0.055263143
CIAO1 -0.93435764 0.03599533 -0.518541 0.584155 -0.07224175 -0.04496803 0.38003555 0.76995033 1.5700876 -0.47640783 0.55722123 1.2499632 -1.1734235 -0.050509 -0.27244702 0.2313317
XPOT 1.1484826 1.9557776 0.7196503 0.521422 0.6057219 0.0138039375 0.1035722 0.037047017 0.50099206 0.67103493 0.75206655 -0.1101052 0.98428273 -0.08366066 0.21188341 0.68679726
PCSK6 -0.18611607 -0.30723685 0.27146593 -0.111105725 -0.9229297 -0.005059094 0.0594305 1.252461 0.059364155 -0.5139831 0.27675745 0.05567903 0.40078467 0.1857922 -0.4110489 -0.17122674
NTN4 0.01050718 0.053305097 0.4047884 0.17832151 -0.2324006 0.0014029954 0.6231352 -0.33193645 0.13085936 -0.37476894 0.37064543 0.16901396 0.5184723 0.46173552 1.2111748 0.23163706
NR3C2 -1.0088677 1.7303814 -0.22438574 0.17029889 0.15908594 -1.5149469 0.8970832 0.14589491 -0.14521903 1.2270534 1.1768044 -0.04693058 0.5697452 -0.040299702 1.0156122 1.0022084
BUB3 0.2669342 -0.00034293206 -0.15492466 0.14098655 0.3686476 0.20165448 0.42654222 -0.011877171 -0.26110002 0.030241087 0.42320326 0.8566192 0.2517058 0.9266523 0.45424092 0.20586455
MDC1 -0.54789996 0.34423754 1.3960238 0.39521235 0.28062257 -0.06322526 -0.39612308 0.16410942 0.5206893 0.63267535 -0.49795857 1.2969242 -0.034709733 0.071602054 -0.23127158 -0.17755483
ARID1B 0.065380394 0.032547742 0.13818677 -1.2889018 0.37961444 0.26520118 0.233545 -0.0005587494 -0.24053769 0.13315791 -0.22762175 -0.061447203 -0.086570464 0.30864593 0.5360454 -0.7715001
HTATSF1 1.462353 -0.66901845 0.30371583 -0.35413367 -0.072836965 0.8891439 0.33744475 0.010217983 -1.8602302 -0.08345954 0.5833812 -0.86526394 1.1316147 0.37023455 -0.00273545 0.43714738
SNRNP40 0.6272353 0.18125302 0.77471197 2.0419488 0.27010587 -0.010005701 0.41502938 0.7051219 0.040643677 -0.07741575 0.9502899 -0.10277372 -0.47627953 2.3966343 0.76657486 1.5521175
ANKH 0.40181848 0.1496639 0.9318531 0.75634915 0.38501042 0.74997586 0.13619299 -0.2441947 -0.5579062 0.4819137 0.236645 -0.13102755 0.09093388 0.2434907 0.58874726 0.957226
THOC6 0.4773577 0.3186326 0.97456634 1.4462801 0.38248098 0.002459198 0.41809046 0.014244001 0.4267913 1.2081398 -0.40803856 0.35723472 -0.060296785 -0.62197185 -0.6513741 0.39711675
DYNC1I2 0.3226815 0.21814239 0.54515284 0.5954925 0.26978734 0.20974757 -0.05646572 -0.6352195 0.9755092 0.4904141 -0.62454236 1.4034984 1.2278919 -0.22474045 -0.47265416 -1.406146
SCAMP3 0.16304289 -0.16183741 -0.78505856 0.37957093 0.7692383 0.010763522 0.17012711 1.9305562 0.3819882 0.5669111 1.3505104 0.35827962 0.36218292 -0.721966 0.060307328 0.38617492
POLR3F 0.11093806 -2.1522534 -0.60629654 -0.6002823 -0.023524238 -0.005261716 -0.057483982 0.005724458 0.2668599 -0.1944298 0.04662352 0.2330126 0.24177644 0.27413952 -0.116500646 -0.17076059
ENAH 0.056937568 0.33067596 0.787201 0.7443093 0.1642952 -1.5243756 0.45117843 1.0414091 -0.11422252 0.18247621 -0.6226606 0.03218907 0.28294188 0.92126626 0.23137996 0.37215525
HSPA14 0.36706433 0.019462384 0.4976469 -0.5824355 -0.014463093 0.003631339 0.1566993 -0.46526936 -0.004479563 0.9657942 0.08434044 -0.27820766 -0.08968062 0.11097073 -0.49027348 0.60538805
IL1B -0.36803928 -1.0372579 0.48116472 0.06902669 0.33313957 -0.22440171 0.13369936 -0.18443453 1.021278 0.0898081 -0.26317632 1.3568544 -0.7546237 1.5486215 -0.09753295 0.49147287
APIP 0.0128278565 0.29930773 0.73627293 0.9345413 0.110292144 0.08964841 -0.3906294 -0.070591554 0.2304324 0.13048941 0.16489281 0.26895595 0.23566473 0.38579857 -0.09002157 0.85844046
WNT11 0.23584522 -0.26591292 0.8505579 0.56331533 0.3445615 0.3154973 0.37880385 -0.060300313 -0.5875299 -1.4437648 0.42375255 0.025766835 0.18431558 0.73307997 0.14762054 1.1738962
TUBA1B -0.03408041 -1.2620903 -0.79664576 -0.054645635 0.48723766 0.016485622 0.6891752 -1.5426875 0.036872666 -0.1037096 0.83031064 0.67903614 -0.39646047 0.16275373 -0.24360083 1.0730101
DAP3 0.7451986 -0.40315267 -0.53677845 -0.5563643 -0.7388358 -1.6556458 0.81648684 -0.0037125195 0.4412086 -0.1755483 0.44247583 0.6703437 0.9536639 0.13235255 -0.6791917 -0.12983426
VIPR1 -0.15007694 -0.027917767 0.59135926 -0.10747358 -1.4531288 -0.024098918 1.4047128 0.30209753 -0.04799578 -0.18485576 0.36841866 0.030822545 0.3033781 1.1497434 1.1282885 0.07519885
PXMP2 1.2334791 -0.24689505 0.5916138 -0.21180919 0.5589264 -0.07380992 0.2891953 0.08570935 0.8102914 -0.3920607 2.0689776 0.06290941 0.51268095 0.7561883 0.5820276 -0.20476876
ZSWIM6 0.099674776 0.024903366 -1.3229256 -0.011027856 0.2271369 0.14036912 0.1445712 0.017243475 0.65004075 -0.30605948 -0.5628014 0.4238722 0.50661016 0.23585707 0.5104048 0.44422364
AVPR1A 0.111262724 0.06332808 0.40853283 0.04305254 0.32470065 -0.02558639 0.26152417 -0.088653386 0.23897503 -0.51985985 0.00615755 0.11603646 0.4291762 0.9759309 0.10983326 0.28614503
APOH 0.23265603 -0.059270464 0.28976533 0.019753335 -0.014137364 -0.18425755 0.82584506 -0.24266851 0.07028244 0.5519675 0.015325997 -0.2280222 -0.08832495 1.6742347 -0.060208835 0.69189674
MCM3 0.31894228 -0.8100939 0.7889922 -1.9513971 0.1713553 -0.10961518 -0.7366706 0.00505137 0.45060104 0.5688414 1.3110675 -1.0622525 -0.5858988 0.6145447 0.09772668 -1.3503441
DUSP1 0.37565592 0.07900495 0.4496769 -0.04962898 0.2631044 0.332759 0.14902876 0.038657412 -0.20077075 0.3232059 1.6307553 -0.04409047 0.7684384 0.78660125 0.64065343 0.12004828
MGLL 0.13017008 -0.01443557 0.42561886 0.61221063 0.27903885 -0.013165901 0.66158825 0.032057572 0.25346178 -0.102577314 -0.5575669 0.05414508 0.3173167 0.65189856 0.17920586 1.2449722
SNAPIN -0.47034976 0.49780723 -0.73027265 0.072592914 0.4921506 -0.0145798875 -0.82214576 -0.17397761 0.8125561 0.36447734 0.03628455 0.41137612 -0.47643688 0.12387867 0.174369 0.30817774
UBE2J2 0.36917436 0.28407422 0.81113356 -0.39522347 0.04863657 -0.0072714933 0.7644986 -0.6763797 0.14860289 1.590236 0.34667763 0.18542106 0.42478493 0.37239033 0.5032967 0.5001878
ZNF445 0.31100908 -0.010688975 0.2393104 0.16503844 0.1117473 0.49801993 0.91508687 0.31013855 0.3402019 -0.15162875 0.468689 0.15711634 0.032888297 -0.3231579 -0.86853504 -1.594235
ASXL2 0.37300816 -0.09556723 0.4228765 0.8691829 -0.16242197 -0.0019945628 0.38337103 0.0087214615 0.66108096 0.9048464 0.43734196 0.59535426 0.1999543 -0.26391923 0.27323112 -0.1461612
C6orf62 0.0948709 0.63246006 0.25907993 0.43284187 0.37005594 0.003858838 0.75036496 0.41414437 0.3101162 0.27417195 -0.63431317 -0.6782214 0.4768971 -0.62528 1.4818609 0.31386918
CBX1 -0.030340116 0.76183313 -0.26131162 -0.16846919 0.15286863 0.311411 -0.052983455 0.0076309126 0.59364325 -0.35908765 0.45871764 -0.37850237 0.8105184 -0.2957529 -0.12088183 0.15911819
FTL 0.1910336 0.10557094 0.7198352 0.62790924 -1.0475698 0.0028968116 1.080467 -0.3976231 -0.07209605 0.3070411 0.56359494 0.12888072 0.62815 0.619939 0.061067652 2.8763428
LHX2 -0.3560225 0.13374455 0.43820083 0.17191553 0.08525992 -0.265367 0.6641362 -0.007212051 0.34121433 1.9063213 0.20595694 0.41260445 -0.51411974 -0.016068589 0.42714754 0.42917234
DDX55 -0.6982907 0.15314029 0.26747283 0.5534686 1.5205464 1.1346254 -0.13045263 -1.5460612 -0.17022568 -0.5422757 0.12044176 0.098228306 1.3490679 -0.15509553 0.6882639 0.04859593
CDC25B 0.009503427 0.27799076 0.36344713 -0.35518673 -0.23438254 -0.2169582 2.3730946 0.58941233 -0.009298464 -0.21535291 -0.1124759 -0.003326309 0.0032404438 -0.052974403 0.8511628 0.47484818
AURKB 0.35570455 0.1188739 1.0524061 0.15838416 -0.034366798 -0.0036567848 -0.11587646 -0.7830139 -0.061697666 0.24662764 0.41746652 0.16070792 0.73594975 1.1815026 -0.14214405 1.109535
THOC2 0.042086646 0.14492571 0.7023538 1.4501706 0.43321416 0.2308293 0.59276015 0.32428452 0.11423356 -0.18734443 0.37211764 1.670874 -0.12451745 0.058660246 1.1309414 0.1958721
FBXW2 0.19460544 0.41058505 1.0179322 0.3647893 0.106828526 0.011568257 0.3213994 -0.004890865 -1.1485292 0.28409883 -0.09305088 0.021521993 0.123752765 0.794365 -0.621725 0.3695725
MGST1 0.13037941 -0.6364351 -0.8363304 0.03727796 0.44059825 -0.55494124 0.7286017 -1.1661205 1.1070309 0.1480486 -0.37009737 0.28213382 -0.19403318 0.161084 0.37374082 0.43496627
TLR4 -0.071164176 0.4219596 -0.17804769 0.6997706 -0.12692656 0.24650483 0.42389116 0.27053216 0.08102862 -0.32210708 -0.16333576 0.0596175 -0.122817814 0.062907405 0.35456565 1.7323194
CLOCK -0.99411756 -0.35899773 0.24178304 0.4227617 0.68784136 0.0140303075 -0.35973847 -0.16059442 1.9254651 -1.0871062 0.1810601 -0.5721 -0.10688004 0.3102669 -0.085213326 -0.41735694
PRKAB2 0.100800015 0.095892645 0.5677114 0.09825642 0.11448552 -0.1808585 0.64354426 -0.0017283007 0.1520128 -0.13916329 0.103807166 0.010368073 0.012203309 1.182924 -0.6724633 0.30195573
HERC2 0.014945745 0.22943276 0.4854279 0.4680768 -0.100496344 -0.41564435 0.009344616 0.5263252 0.29962146 0.03353067 -0.36075798 0.8085011 0.33260366 0.24179433 -0.26186898 0.08906473
PRKAB1 0.26834577 -0.14280882 -1.4308932 -0.11902323 0.44184983 0.3964096 0.14324772 0.36216176 0.8759465 0.27943715 -0.1413016 0.3340624 0.56296 0.17067234 -0.011614077 -0.079854086
EZH1 0.39143482 -0.63995504 0.38893273 -0.0143328365 -1.0623771 -0.015104847 0.18266083 -0.4794104 0.18697198 0.27685377 0.23455358 0.60158485 1.2401302 1.523426 0.12582834 -0.50764954
PDGFD -0.036130052 -0.030066252 0.19700262 -0.546315 0.31972274 0.053069036 -0.33217806 -0.030459609 -0.34693444 0.17163679 -0.10835361 0.11000069 0.33628005 -0.22115476 0.020565791 0.37684822
ZFP64 0.09918689 0.742192 0.22951244 0.7068426 -0.169911 0.00576028 0.14176641 0.01955494 0.08342408 -0.033359133 0.16390291 0.28368822 0.96473 -0.05061075 -0.07682082 0.16909684
IDO2 2.1498542 -0.4418674 1.4595275 -0.34275082 -0.7242995 0.5489707 -0.1003507 0.006354572 -0.21919762 0.67426246 0.70621413 -0.6025088 1.4813803 0.5037845 1.4349055 -0.07731696
GGPS1 -0.33788747 0.5598183 0.25862718 -0.5075443 0.665211 -0.021533418 0.116873056 -0.0035109047 1.3216702 0.18195364 1.232257 0.28772295 0.7500591 0.7473425 0.44603443 0.3946171
TPD52L2 0.0825551 -0.37919182 -0.24971433 0.012532395 -0.19539507 0.005795148 -0.25203437 0.087438144 0.30999216 0.23619819 0.079600416 -0.5161384 -0.15523401 0.022688253 0.10849872 0.45465183
TCF7 -0.30376512 -0.031177018 0.54599416 -0.20427112 0.41902313 -0.05903295 1.5091866 -0.12761088 -0.4059389 -0.006273116 0.37638956 0.08838724 -0.13630103 -0.1465002 1.1776958 -0.7435951
CSNK1G1 0.30439797 0.061191536 -0.23332313 -0.002983002 0.26669237 0.15133043 -0.5586333 0.30243018 0.41954377 0.6643405 0.26937976 0.21327914 0.30893826 0.30917004 -0.1359654 0.7055254
ADH4 0.1403239 0.11054008 1.3031514 0.010572209 0.26177529 0.6646142 -0.34855917 -0.06260411 0.86530286 0.8530497 -0.41900107 0.15131219 -0.011787826 0.009688355 -0.01581316 -0.04774027
EIF4EBP1 -0.40009612 -0.031489436 0.4485841 0.25946087 -0.27284953 0.016184585 0.21298161 -0.0033413512 0.3740074 -1.0591553 0.34617242 0.8777095 0.40866014 0.9298955 -0.38704145 -0.18094075
ASS1 0.30882728 -1.0068387 0.37311128 0.10771521 0.47949585 -0.024716085 0.03780907 0.015706914 0.110606804 -1.1003911 -0.21194382 0.08497096 0.010535354 0.4170145 0.19632071 0.16580167
CREB3L4 -0.062726386 0.117035106 -0.6793178 0.15055184 0.29392302 0.12647729 0.6449635 -1.1211373 -0.72750264 0.16964233 -0.15203466 -0.47929808 -0.5000912 -0.61963737 -0.024950026 0.9267662
RNF44 -0.759005 -0.14312829 0.691596 0.1887745 0.13074999 -0.098724395 -0.26226455 -0.027564606 -0.21757472 0.6605834 -0.3077885 -1.8738003 0.56272143 0.7045361 0.21214812 0.813396
PTEN -0.17595601 -0.1687761 0.17718685 -0.14897297 0.35709846 0.53225183 -0.269701 -2.208967 -0.2732809 -0.17450453 -0.18079214 -0.0037310184 0.4051823 2.1175675 0.71431834 0.33290696
DNAJC7 -0.27291828 -0.0007972603 1.3392305 0.013785617 -0.21357045 -0.00037281308 0.032925453 -0.019852819 -0.42132184 -0.68577725 -0.16003326 0.57867986 0.17098017 0.31993464 0.18970211 -0.127897
SMARCE1 0.0030735598 -0.018932201 -0.4604661 -0.5707823 0.4203636 -0.03551114 0.7839876 -0.1513619 0.7469661 -0.36417878 0.36829072 0.464231 0.5817195 0.3775272 0.38671756 -0.13867517
QSER1 -0.079257466 0.32935625 0.02261787 -0.028425219 -0.057127867 -0.019033704 0.17877214 0.5630785 -0.18620726 1.0772624 -0.3394267 0.63150203 0.7581516 1.4898124 0.66151917 -0.28965867
STK35 0.17750919 0.06548504 0.16132545 0.103019476 0.29426077 0.3374407 0.36009362 0.18537953 0.20603454 -0.7207691 0.20545825 -0.25679845 0.75603056 1.1303383 0.2593665 0.6967645
APC2 0.12579764 -0.17820023 0.17860167 0.48042962 0.039972566 0.02208736 0.37629455 -0.016298728 -0.050314542 0.40709397 -2.076711 0.21019101 -0.08365781 -0.26168698 -0.64320546 1.0133656
MRPL49 -0.22720058 -0.04790159 0.17010412 0.17191781 0.15350108 -0.0064088674 1.1488645 0.25090396 0.17114523 -0.40734512 0.29251722 0.103696026 0.0075701335 0.8443033 -0.084179424 0.66337425
RPLP1 0.39229527 0.024564713 0.2627459 0.31163037 -0.6071274 -0.02277801 0.47474712 -0.0038874953 -0.4096264 0.38176367 -0.33008432 0.17929848 0.36254737 0.16729647 -0.77784544 0.040079962
PTMA -0.032714143 -0.05715713 0.38652837 0.37313414 -0.17026198 0.24627154 0.38685173 -0.21743485 0.6760477 -0.46408787 -0.14956668 -1.0882523 -0.2566842 0.08739156 -0.07391356 0.81843364
SLC31A1 0.34503335 -0.10935623 0.646181 -0.1608974 0.59131676 0.76577723 0.20409608 -0.098604955 -0.01967798 -0.20230657 1.0369179 1.1857342 -0.28041977 0.4131846 0.66791165 0.48574117
MAP3K4 0.18440166 0.6169592 0.3530595 -0.20473315 -0.05683115 0.28150705 0.6173011 0.05683272 -0.42184323 -0.6472406 -0.048974305 -0.030142836 0.002803287 -0.37437978 -1.8489579 -0.08519684
DNAJC9 -0.36444885 0.39554065 1.3359966 0.7656603 0.3449432 -0.0032196594 0.37321636 -0.0062905694 0.19348913 -0.62857586 0.15323973 0.10768377 0.8855162 -0.24600822 -0.76560074 0.3500721
DVL2 -0.30619448 0.081016235 0.69497347 0.45108005 -0.67538357 -0.024315758 0.2464706 0.014031944 -0.16231456 0.33249468 0.32584578 -1.1607134 -0.16436402 -0.25103542 0.79966724 -0.49571985
FGF23 -0.078444585 1.2519063 -0.058176987 -2.0576031 0.6912826 -0.001279612 0.6328408 1.9988949 1.5888808 -0.1276969 -0.45486146 0.48808318 0.033638176 0.87371373 -1.5062156 0.33604756
EIF3B 0.1699301 -0.013978445 0.25666463 0.1624922 0.29354358 -0.20985673 0.79317635 -1.089329 -0.034519184 -0.10250499 0.35325474 0.43744427 0.3604076 0.28488764 0.46378627 0.12625098
RPL37 -0.2591223 -0.034800828 0.08977387 0.07747023 1.5192286 0.079783425 0.06848731 0.45269713 0.28792852 -0.020858794 -0.08743629 0.092794105 0.21821249 0.3400913 0.32864502 0.44560385
GAB1 -0.03567221 1.1778269 0.5767393 -0.1725982 -0.1670546 0.026832866 0.16053583 -0.22183706 0.5711467 1.2625335 -0.44311276 0.07460087 0.43668506 -0.03838309 1.4344752 -0.07847262
ARID1A -1.0352032 0.41343457 0.35059702 0.055158548 0.19924083 0.0070249424 -0.23384382 -0.88353103 0.7819544 0.37050885 0.6132232 0.5040013 0.4583488 -1.4915152 -0.27289137 -1.3225111
LIPG -0.5627673 0.43426242 0.25183773 0.16466923 -0.16220863 -0.6086209 0.49823323 -0.0048931567 0.6980517 0.54448724 -0.83368623 0.02610826 0.12846535 -0.51945585 -0.30253908 0.6192856
HSP90AB1 0.06463424 1.004977 0.5967886 0.08341444 0.18261501 0.12624706 -0.2057831 0.34921667 -0.15715675 0.74763596 -0.84744257 0.1891432 0.41710833 -0.2283259 -0.5783405 -0.17452261
WNT7B 0.06684217 0.34744158 0.20806979 -0.85147685 0.90079415 0.024333436 -0.006883189 1.1238432 0.030839572 0.09837781 0.15956911 -0.009229528 -0.05467005 0.31549218 -0.7374087 -0.63586533
SLC5A7 0.29078257 0.15827513 0.4485636 0.009517747 0.21325494 -0.26925907 -0.373945 -0.19375286 0.7024071 0.92103714 0.14987396 -0.55809253 -0.026049173 0.7644798 0.18359436 0.57343596
NCL 0.033291608 -0.16699888 1.1305641 0.4784246 0.33611545 0.62367195 0.24218915 -0.11727561 -0.99957055 0.6690306 -0.12506221 1.1491809 0.041797005 0.16079018 0.62882817 0.2655491
PLOD3 0.55579835 0.97854763 0.5497755 -0.39087042 0.04725536 -0.37322393 0.23440452 0.016790623 -0.90129876 0.53948 0.51179934 -0.11824994 0.29964128 0.43717027 0.052186586 0.45395964
C3 0.07580669 0.29810658 0.4173722 -0.04564355 1.0522512 -0.0033220914 0.7168189 -0.004363619 0.13957669 0.1517106 0.47440186 0.19058669 0.5489878 -0.28523338 0.47505677 0.20525423
PLCD3 -2.9228525 0.5271194 1.4140395 0.58761 1.6377226 0.0097305 0.7596915 -0.5175985 -0.19924435 -0.005585428 0.071102045 0.35242662 -0.073179945 0.41015807 0.95074546 0.6827948
KIAA1143 -0.18678947 -0.2543526 0.2995617 -0.42236504 0.253432 0.009644381 0.48139495 0.5235365 0.093312025 0.041339446 0.1840143 0.31286737 0.42778862 0.55905855 1.2493668 0.2586145
BAD 0.3282367 -0.55008084 -0.09427203 0.2261152 0.11252166 -0.009566173 0.1653962 0.011787183 0.3485441 0.541104 -0.93231416 -0.016176151 -0.12967551 0.38037515 -0.14133473 -0.5985031
PPP1CC 0.26396856 0.008129951 0.19390455 0.16337773 0.18190813 0.28793705 0.4382597 -0.65811586 -0.47278267 0.60298413 0.3497312 0.44432488 0.59658605 -0.37997213 0.6318893 0.2968471
WNT8A -0.29033908 0.37209195 -0.17944099 0.01116321 0.26811695 0.00237777 -0.16703938 0.44567493 0.37204477 0.36976123 -0.46090972 0.20359439 0.7795128 0.16095278 0.34827772 0.3344784
UGP2 -0.3227194 -0.110424526 0.3226002 0.16716006 -0.25672904 -0.13098423 0.7164777 -0.02084113 -1.0842342 0.40556854 0.38396248 0.6039612 -0.21550903 -0.14183503 -0.6195234 -0.074226655
B4GALT3 -0.004172951 0.23452532 0.51437473 0.09739022 0.017617423 -0.013924291 -0.44063446 1.037207 0.033189945 0.38860014 0.2312595 0.06621686 -0.116651915 0.33507782 -0.13134454 0.07020328
ETV4 -0.034305643 0.32994914 0.58195776 1.0879589 -0.72442466 0.18063232 0.16327305 -0.19203965 -0.69314635 -0.60205626 0.589262 -0.05702672 0.3968051 0.1393629 0.06825493 0.8118728
PIK3CA 1.3111668 0.4110399 -1.1237769 -0.07623811 -0.09383158 -0.4183414 0.35282913 0.10685177 0.43907428 0.055725046 -0.08411694 -0.07401444 -0.728632 0.06498829 -0.17470403 -0.7267839
DISP1 0.3589856 0.14098686 0.0042934744 -0.15010476 -0.13249326 0.69005805 0.13490885 -0.09558404 0.01802279 1.334913 -0.18275045 0.26358807 -0.23225284 -0.5618023 0.4407714 0.34768036
GORASP2 -0.6254332 0.0985003 -0.31786066 0.052078176 -1.3549416 -0.23289725 0.44733557 -0.27457052 0.54155624 -0.45764264 0.17491472 0.04786494 0.24842739 0.17490672 -0.2937013 0.1955829
MASTL -0.0037205932 -0.6083963 1.2764584 0.8462153 -0.15637597 -0.9700115 0.9757825 0.28449488 -0.16703112 0.06627644 -0.17343351 0.03633108 -0.8758515 0.42910257 -0.026288318 0.7194476
ACADM 0.08427215 1.0188447 -0.98079586 -0.004833335 0.3188328 0.49099377 0.22528222 0.033515185 -1.0690697 0.20630269 0.02302231 0.42900792 0.017899916 1.2497023 -0.22507997 -0.44649684
TDRKH -0.5183779 0.36753744 0.78467894 0.2929981 0.7812341 0.0014281117 0.039015304 -0.00023397687 0.79088014 2.1725829 0.02271389 0.3862988 -0.5306788 -0.27675435 0.726717 0.6103928
KRAS 0.09665716 0.24111798 -0.39051923 -0.1442095 1.5704551 0.40305665 0.23282793 -0.0016415705 0.0033120266 -0.20948882 -0.8431586 0.69423807 0.3533425 0.80010617 0.11693188 0.8819353
AP5M1 -0.63141286 -0.2235359 0.48895952 0.15677442 0.39920992 0.4366761 0.36561403 0.00027548985 -0.12405019 -0.37121502 0.4260074 -0.8574793 0.14410715 0.43674204 0.432801 0.47418484
AGTR1 0.45548704 0.27427062 0.92510515 -0.0038577183 0.27600622 -0.01203063 -0.53164166 1.8668982 -0.22015017 0.6584225 0.47792786 0.2930183 0.8700033 -0.2218135 0.39216292 -1.0692681
ACAT1 0.04495718 0.4621073 -0.2642106 0.019871907 0.4853094 -0.869263 -0.089449234 -0.83958006 1.0141355 0.39355707 0.26537928 -0.6196073 -0.2528123 -0.6976077 -0.013430707 0.11077152
RBP5 -0.13402274 0.4031477 -0.14917202 0.87052995 1.2798278 0.016580958 0.3640208 0.07183584 0.86636865 0.24679203 -0.2092237 1.1755768 0.13495398 -0.05556154 0.6653684 0.6522159
CDCA5 0.12072007 -0.22533214 1.0089276 -0.0012324076 0.20269316 0.097653866 -0.06471832 -0.0022055928 -0.39144072 0.29247388 0.5483293 0.31604317 0.9532879 0.42247462 0.36637238 -0.1385408
EFCAB7 0.06531295 0.14530171 -0.18546999 -0.0377584 0.24004433 0.7940485 -1.4767962 0.029371325 -0.22244678 0.4437253 0.42959204 0.5540222 0.13871257 0.09554635 0.070332356 -0.18308757
MYO10 0.9423239 0.07244799 1.1215372 0.28646713 0.26923957 0.02456323 0.26436418 -0.0059686047 0.91581863 1.2971034 0.29691708 0.22339673 0.17649508 0.5063166 -0.47007754 0.2676149
N4BP2L1 0.535056 0.20545565 1.6732186 0.5866466 0.14070544 -0.05671155 0.28011256 0.54452324 -0.19821332 1.5608763 0.22241473 0.06305892 0.19470128 0.49897715 0.8525021 0.6263816
CDKL5 -0.23944317 0.21594863 -0.03177652 0.028192401 0.47835422 0.7015716 -0.65472233 0.23045194 -0.18141995 -0.041267034 0.19527587 -0.0077416534 0.43082222 1.4946411 0.40704373 0.53822017
ASPA 0.18908396 0.009396446 -1.5751773 -0.77668303 1.2462069 -0.0037576938 0.510466 0.004479606 0.6387151 0.4032933 1.332518 0.85248846 0.31042397 -0.29211864 0.065057285 0.90462935
ACTG2 0.24495868 0.012171963 -0.33253628 -0.34087232 -0.15145028 -0.038584925 0.3411617 -0.14035591 -0.5480238 -0.18772706 0.33976853 0.07623904 1.6643912 0.64416534 0.46556255 0.066926084
PSMD3 -0.5581309 1.3628526 -0.252811 -0.19933137 1.2667696 0.66663724 -0.31192622 0.550608 0.506917 0.5081431 -0.009540447 0.28572083 0.052186597 -0.05229813 -0.15824394 0.09775385
CENPM 0.40477538 -1.0207678 -0.038283702 -0.21753797 0.28912058 -0.076764524 1.0656731 0.047941882 0.25516608 -0.43539724 1.7116078 0.24508911 0.644617 0.37495247 0.2489739 0.8074905
CDK5 -0.002277349 1.09529 1.8159671 0.6113733 0.858055 -0.011448768 -0.030207615 0.04040528 0.8271903 0.6245561 0.09911351 0.176651 -0.08341101 -0.17150311 0.22940402 0.5188028
OAS2 0.083052866 -0.0041824183 0.36145225 -0.3446 0.82219636 0.006533985 0.6493251 -0.008982703 0.26153716 0.119593926 0.38012633 -0.5740265 -0.13734326 0.43117148 1.1393485 0.0091490215
ACTL6A -0.108403 1.6039666 -0.112432815 -0.7386487 0.04619032 -0.039400533 -0.5211372 0.6858714 0.37960362 -0.35945156 -0.023795858 0.12032714 0.34632546 -0.03902404 0.11704686 -0.0062192767
YWHAB -0.036925126 -0.80746496 0.15833035 1.3590161 -0.033871878 0.46829772 -1.3349845 0.13401413 0.4361399 -0.39330846 -0.16607335 0.25621405 -0.3105442 0.7419421 -0.2168738 0.22896504
CDCA3 0.23800194 0.24387494 0.57205886 1.1414474 0.7908991 -0.5087387 0.8879224 0.09111692 -0.03063036 -0.1500041 -0.3237405 0.7604437 -0.42039534 -0.020567706 0.0050481237 0.23258905
VPS26A 0.08927444 0.097864725 1.1363349 0.5176221 0.794634 -0.005160391 -0.27381408 0.00056889834 0.7580639 -0.19757095 1.5534252 0.350973 -0.58072686 0.16376673 0.2578632 0.32371727
TRIM15 0.20277914 -0.089800194 -0.0984457 0.37656572 -0.20633736 0.20403512 0.34141982 -0.7983797 -0.19755307 0.15745063 1.2044257 0.23494335 -0.115373746 0.14899302 0.27699414 0.50778466
FBP1 0.9683593 0.05235714 1.2869282 -0.4385463 -1.2931966 0.012099237 0.24923125 0.12408219 0.018848648 1.2008678 0.35459659 -0.06059622 0.42622742 0.5556346 0.36649185 -0.08217922
PIK3R1 0.5067204 0.69676125 0.42521292 0.08911205 -0.27895352 1.1262063 -1.8861274 -0.045036793 -0.15170136 0.73725975 1.206542 0.25418612 0.44779912 0.14519721 -0.040061925 0.80130905
WNT2 -1.2526402 0.1146723 -0.17864406 0.0034464868 0.67914546 -0.026682746 0.45643735 0.09351323 -0.78569084 -1.3385832 -0.37172905 0.2920983 0.024083761 -0.0858268 1.3516622 -0.15024503
EXOSC4 0.70578897 0.080387354 -0.00041267835 0.22905736 0.2896209 -0.037964497 -0.028137472 -0.26238957 0.07936773 0.6842582 0.2929915 0.2599738 0.3375417 -0.80650824 -1.0598243 0.23932669
RBM22 -0.12986635 -1.023899 -0.9382764 0.039372668 -0.13113637 0.45906758 0.21221909 0.87790644 0.07055055 0.0023894045 0.09810586 -0.49299702 0.30188942 0.010580038 -0.37169486 1.2064867
SF3B4 0.14975059 0.023409579 0.1122914 -0.46208602 0.87109375 0.28788313 0.27927268 -0.003277677 0.849553 0.46609408 0.2128411 0.6601832 0.042765025 0.55275387 2.1700025 0.39148283
DIRAS3 1.0585 0.2508496 -0.16706134 0.1407685 -0.14259104 0.9274849 -0.8994837 -0.30062008 0.39132202 1.1149687 -0.6011242 -0.31465864 1.5952418 -0.16667223 -0.12709971 0.26289394
SLC13A4 0.20611814 0.06945708 -1.25443 0.6273363 -0.9181453 0.0068136337 0.73333365 -0.46974656 -0.14188632 -0.2729006 -0.6376473 0.26552626 0.22993194 0.031149562 0.34405681 0.11605334
FOLH1 -0.13851887 1.8634633 0.15383169 0.026145715 1.0271237 -0.009950236 -0.77934563 0.1461622 0.028940672 0.18785527 0.15698682 0.8114351 -0.3071738 -0.020767711 0.5279497 -0.12781905
STAG1 0.37677917 -0.09227318 0.3750517 -0.6248165 0.17179948 -0.0054401113 0.38140136 0.07187691 -0.11718312 0.5075889 1.4191202 0.08013289 0.14142703 0.81381917 0.20034698 0.51637644
RPL29 -0.5441143 0.34262714 0.6518256 0.27397737 -0.07105051 -0.006090353 0.079590715 -0.0020069557 0.15598133 0.32130495 0.24071817 -0.03036809 0.24848026 0.42166495 0.36183795 0.011823494
TRMT6 0.07197198 0.10469259 0.09358933 -0.18812883 0.12523638 -0.019668464 0.6603565 -0.00037066487 0.12801906 0.36331096 0.62854034 0.055443585 0.82580936 0.20281725 1.2066625 0.29964668
COPS7A 0.36236653 0.1917322 0.46716416 1.6049184 0.67546684 -0.066261075 1.4940526 -0.4249805 0.029274257 0.9574696 1.7817389 1.0546583 -0.019271964 -0.09010696 1.8478117 0.28002495
AGXT -0.065674566 0.621718 0.9277599 0.13945028 0.63610953 0.09747084 -0.1895213 0.0013067604 0.18984342 0.36176893 0.01528275 -0.05412794 -0.14368781 0.3591843 -0.32175148 0.28851777
CDYL -0.010017811 -0.6796585 -0.20008676 -0.017277816 0.0041000396 -0.012835587 0.019495096 0.0026056012 -0.3735781 1.2681576 -1.1860285 0.018753005 0.6272633 -0.1436348 -0.6428141 0.44082686
ZSWIM5 -0.16687644 -0.16155171 1.3558764 0.4082369 -0.06289857 0.35077888 0.33748809 -0.0753324 -2.6758444 -1.315966 0.47365236 -0.014954911 0.9297802 0.045010686 0.1179379 -0.68991035
SLCO1B3 1.701132 0.984515 0.9382116 0.5138046 0.6844002 0.5368472 1.1233417 0.047897343 -1.7334695 -0.072060965 1.2201602 -0.07798806 1.7488087 0.7101851 0.5443044 -0.21435148
PHF10 0.09203789 0.096465826 0.5910543 0.7074511 0.4410372 0.016338313 0.43336526 0.030459449 0.13161087 -0.15205461 0.21674527 0.23938262 -0.049450755 0.4232212 -0.23759715 0.872445
MSH2 -0.013738746 0.9840886 0.2866145 -1.2173214 0.4587028 -0.024809765 0.13092497 0.018025853 0.73901623 0.47093368 -0.024876444 0.12199073 0.4743536 -0.12418791 0.22991395 -0.04208666
E2F8 0.8568154 -1.4023328 -1.2611946 -0.030076012 0.38631213 0.636183 0.57976526 0.023948045 -0.12669435 -0.42995468 0.3562092 0.101809345 0.9097233 0.31877983 0.7002188 0.5109292
SOS1 1.1605552 -0.052530605 -0.07625036 -1.1977081 1.0603403 0.08495364 0.29828134 -0.004113223 0.35112444 0.07875495 0.13273367 -0.038260657 0.33909476 0.440001 -0.60111314 1.081288
NCOA2 0.34107924 -0.9330166 0.3154369 -0.009997831 -0.2682108 0.002143235 0.1841723 0.001283151 0.2514019 0.555581 -0.045237646 -0.29503 -0.46112326 0.39313132 0.142227 -0.64241964
SLC25A39 -0.3392469 0.83415765 0.3888185 -0.48098144 -0.16583051 0.2138908 0.90549856 -0.6737456 -0.13155502 0.7844662 -0.035725255 0.2005573 0.19801798 0.062568456 0.4959123 -0.07282984
PECAM1 -0.07502774 0.066749886 -0.4828607 -0.1250467 -0.26232105 -0.0028787174 -0.4677561 -1.6602879 -0.015773911 -0.7509142 0.4461701 0.19769013 -0.66674095 -0.037140045 0.28933415 -0.2999957
C5orf22 0.2101755 -0.04576434 0.19125007 -0.0086538745 0.23359618 -1.1302981 -0.43002033 -0.006115394 0.46298897 0.013029651 0.35153595 -0.013805423 0.4189857 1.387316 -0.09721347 0.2441869
NAF1 -0.8789222 -0.31513456 1.5056596 0.037986558 0.2733047 0.3621085 0.22481129 -0.18740608 0.22326516 0.99853694 0.51921284 -0.3931308 -0.06589924 0.18984996 0.28452235 -0.4948796
EPHA2 0.18775828 -0.016413946 0.34104666 -0.019588517 0.2971713 0.41587558 -0.42208293 0.005292403 -0.29760662 -0.05342369 -0.101766765 -0.81476176 0.6010859 1.4694259 0.38933828 -0.6023282
SMS 1.025167 -0.63624036 0.11417367 0.4422021 0.29043144 0.8163797 0.008479074 0.06555724 -0.29646066 -0.53674495 0.8244676 0.40415332 0.7549768 -0.21378314 0.2402271 0.031484246
CETP 0.34363157 0.20381974 0.76926136 -0.06398498 0.084492214 0.8197003 -1.1997406 0.041018758 -1.0794835 -0.4414209 0.47807118 -1.1869806 1.0340893 2.0459929 0.015526424 0.6042415
KIN 0.17764859 0.1478798 0.80437815 2.0045328 -0.22787587 0.6976495 0.71467525 0.02667242 0.54879856 0.41434276 -0.727978 1.8957326 0.08960432 -0.031270757 0.48318192 0.7315963
XPO5 0.017375393 -0.017756911 0.11088823 0.15847078 -0.949836 0.24785283 0.65878373 -0.9431193 0.6397274 -0.26515174 -1.1208409 1.0577338 0.3380488 0.55042267 0.9168716 0.27047753
CCNE1 0.40816152 0.21311337 -0.18713772 -0.08957055 -0.010191752 -0.22209144 0.4645501 0.24661194 -0.14563115 -0.17355166 -0.4950016 0.049798146 0.09882694 1.2665378 0.10771511 -0.20368515
VPS45 0.08537496 0.028274525 0.58184034 -0.30057192 0.44464478 0.21534699 0.29552928 0.0032560916 -0.06313206 0.053731065 0.01538869 -0.6312522 0.42000932 2.4982932 -0.30200902 0.5956406
DPF2 -0.060114678 0.4312581 0.6281842 -0.25582898 0.115635656 -0.030340748 -0.24134888 -0.0061546746 -0.5566422 0.81967753 -0.22870299 0.29701573 0.34143263 0.062346086 1.6357119 0.63461494
CAND1 -0.15938547 0.68508804 0.36855048 0.6073773 0.1483481 -0.87200594 -0.4797142 0.44986734 0.68016076 0.16130155 -0.09668579 -0.09177533 0.19337472 -0.05355161 -1.359202 0.39014956
IRF3 -0.069368206 0.054647617 0.5143253 0.91706353 0.5523994 -0.00585913 0.31961578 -0.001394734 0.65731907 0.3839248 0.22439262 0.6809078 -0.3266885 -1.4811221 0.343127 -0.69755185
ANAPC5 -0.25842914 -0.23152418 -0.070380725 -0.03652028 0.29919204 -0.5512599 0.1413446 0.0486339 0.43423748 -0.091285735 0.27313364 0.11351714 0.69984025 0.4235796 -0.2356477 0.26715398
DCN 0.10433911 0.10259346 1.1041001 0.18831934 -0.24969971 -0.29368246 1.3918383 -0.06600639 0.25559703 -0.597227 0.6792087 -0.27218822 0.12586147 -0.76694876 0.035744354 0.71121484
NTF3 -0.5359265 0.21207325 -0.00010625133 -0.6584452 0.8279213 0.041098103 -0.16511348 0.18581785 0.5579446 -1.2115697 0.46351302 1.2724639 0.24163733 0.08493078 0.38731512 0.29363275
ZHX1 -0.1906161 0.36835337 -0.638488 0.24932672 0.98785603 0.31948537 -0.24339847 0.033444185 -0.10642094 -0.08614136 0.29715207 -0.13200113 -0.3812779 0.34332445 0.017921224 0.77087426
CHST4 -0.37151515 -0.2222267 0.65770894 0.5355116 -0.13341989 0.019320907 0.40998936 0.0073393276 -0.41166654 0.07332411 -0.2637544 0.20900214 0.19193654 0.19391367 0.12742776 -0.05272998
FGF13 0.3163189 0.24384265 0.37718365 0.5259069 0.926815 1.083013 0.6725376 -0.084359914 -0.12359245 -1.4405363 0.32767943 -1.4593052 0.6279016 0.11215512 1.7573059 0.51715326
ENOPH1 -0.7515426 0.47266984 -0.10769632 -1.0245646 0.094212785 0.0016478319 0.048499864 -0.010724156 -0.509375 0.16927327 -1.2824689 0.049964298 2.0429614 0.22097653 -0.4081325 0.45198968
LRRC4C 0.2771266 0.00013885577 -0.11758914 0.123529285 0.69947946 -0.00507282 0.4688949 -0.9392016 1.2373202 -0.47102302 0.71076465 -0.21208176 0.15326254 0.42250282 0.19324385 0.18825081
LCMT1 0.42010683 0.32518676 1.4255253 1.6225479 -0.051101353 -1.2449142 1.0780994 1.6288369 0.051950432 1.0424405 -0.36567655 0.14002483 -0.06369399 0.7031457 -0.4775726 -0.8928572
GDI1 -0.96014977 1.1691887 0.5596807 0.48579118 0.42595434 -0.0046098568 -0.29852897 -0.004299638 0.5880986 0.7267239 0.106572166 0.36688536 0.58422786 -0.84108824 0.5062947 0.3748252
SERPINE1 0.37154734 -0.805331 -0.12021414 -0.8811745 1.2111027 0.16111068 0.37770388 0.006232353 0.46498373 0.8363996 0.29457602 -0.53440917 -0.099282704 -1.0003467 0.3462156 0.38951188
HDAC6 0.38023424 -0.007379576 0.13722816 0.012471816 -0.16178411 -0.06017998 0.5632209 0.98475677 -1.1370797 0.78014654 0.90740126 0.024129469 -0.07558163 0.8858912 0.14675982 0.5347222
CPSF3 0.18214814 0.06441901 0.9797899 0.44380945 0.40943515 0.005506663 0.23271058 -0.004990442 0.37152642 0.40610397 0.34171286 0.40496624 0.25039658 -1.3287699 0.23202877 -0.640656
DCTN2 -0.0068845116 0.02054607 -0.13489935 -0.53937006 0.2742684 0.03381317 -0.60777915 0.0044628093 -0.028929811 -0.21885793 0.61533326 1.1342695 -0.21889892 -0.8881077 0.35304233 -0.89192486
FSD1L 0.16173832 -0.8376939 0.19476168 0.015055314 -0.13800433 -0.013024382 0.5212346 0.0030440884 0.20116614 0.292882 0.55942225 0.23523761 0.28479454 0.19945279 -0.2669784 0.33754325
GSTO2 0.45254093 -0.2761503 0.38067356 0.10497009 -0.25590837 0.15304789 0.3948132 0.0069143795 -0.8437864 -0.034655586 -0.0048746993 -0.025286648 0.8324399 0.89776385 0.63829654 -0.034064867
GPAA1 0.35024422 0.079789735 0.18650065 -0.017087625 -0.2575611 0.062167607 0.64867014 -0.0576782 -2.0614722 -0.073567435 2.0706308 -0.009473775 0.6734051 -0.040050212 -0.14358467 0.9299145
SMARCC2 0.36278427 -0.6813956 0.15925229 0.43909517 -0.10372686 -0.11970964 2.3534386 -0.07433744 -0.07373781 -0.107680075 0.7221106 0.031151459 0.16531916 0.5860078 -0.9776703 1.010529
RAN 0.56245613 -0.08305618 -0.15313196 -0.018711356 0.19961935 0.04931268 0.064961396 0.017356979 0.025573561 0.17348586 -0.6390533 0.83611155 0.7071737 1.207153 -0.35903305 -0.02779237
NDC80 0.35008043 0.4008495 -0.87034124 -0.11114615 0.8821004 0.38879234 -0.5875924 -1.1636443 0.8339286 1.9971945 0.08571503 0.2603641 0.571085 0.31575876 0.6623818 0.6705454
RHEB 0.03274233 0.3675673 0.10650947 0.38868752 0.49380922 0.03275153 -0.60927165 -0.030436255 0.87162346 0.90518516 -0.5230735 0.39338714 -0.34026572 -0.34956476 -0.095749274 1.4179137
TNF -0.25763267 0.0051940223 0.07030396 -1.1008848 0.46095118 0.052519284 0.14606279 -0.47031823 -0.1688624 0.29721653 0.25781867 1.0850484 0.06560834 0.23972945 -0.20631883 0.17005847
TK1 0.027878009 0.008030078 0.8273854 0.05969663 0.59225625 0.549201 0.32622316 -0.020478372 -1.0917047 0.3286057 -0.019112974 0.3595003 -0.9900548 0.28829414 1.0009576 0.08999779
ANGPTL6 0.46356922 -0.07068023 0.12574595 0.2373845 -0.36153027 1.0609888 0.68961316 -0.24784492 0.45193368 0.6907006 0.3015107 0.5159322 0.48781255 0.7879575 1.1656954 -0.10576041
PHF6 0.3441998 0.4276162 0.46751678 -0.40858343 -0.2871392 0.11746458 0.92094165 -0.590212 -0.0073264805 0.6852766 0.22815932 -0.011458871 0.5199903 -0.30755275 0.3040993 -0.64618015
SUOX 0.0845768 0.112179466 0.8273662 0.65135616 0.393601 0.27406955 0.060926672 -0.027364578 -0.01960002 0.5130236 -0.8804356 0.5274961 0.16295658 -0.43132815 0.3410563 -0.012269487
HRAS -0.15926178 8.355314e-05 0.3216227 0.0062943087 1.5286809 -0.18796277 0.47208902 0.054231532 -0.1450956 0.39106745 0.13211286 0.2586448 0.14305398 0.042134862 0.34050316 0.3339551
DCAF11 0.18848807 0.45896628 0.59755456 0.3490945 1.1625234 1.2385186 -0.23410574 -0.27970287 -0.16710065 -0.04209108 -0.25178692 0.22148365 0.68047506 0.23890938 0.9804449 0.6118824
PCDH9 -0.17362799 -0.32554317 0.28486943 0.13123879 -0.05062231 -0.030473897 1.3246245 -0.45293397 0.35513553 0.8975348 0.2316381 0.34956717 -0.036936957 0.048029006 -1.4329131 0.3191988
CYP2J2 -0.103797376 0.16121261 -1.7867869 0.0029614675 -0.55642277 -0.17882065 0.15720339 -0.52500534 0.46112373 0.3679446 -0.3489239 0.045698285 0.34057847 -0.14726716 -1.6742854 0.94348097
EXOC3L1 0.28757086 0.20793512 0.6267076 0.64656276 0.36911654 0.44917673 0.31311095 0.013769753 0.06136852 0.026025554 0.2403024 0.2871348 0.2479224 0.71354496 0.21868141 0.21360557
CCT4 1.1450056 -0.50803924 0.04295653 0.09830048 -1.8374988 0.010651408 0.53791356 0.6674041 0.29368535 1.2461301 0.09457963 -0.008186492 0.73853236 0.39198166 -0.01235429 -0.01492478
EHHADH 0.117828555 0.020997623 -0.041104518 0.17330393 0.45253164 0.7917393 0.7694812 -0.033181183 0.14387695 -0.30249 0.3386742 0.4413071 1.0396249 0.26385963 0.7015556 0.2976907
ARL6IP6 -1.1523913 -0.048158076 -0.104804635 0.0066714603 0.06902836 0.0064549553 -1.0094234 0.2762749 0.11981234 0.17928354 1.1695528 0.688232 0.67682016 -0.12417768 0.86105907 -0.74065
PCCA 0.28343084 -0.17566419 0.14412466 0.49493948 0.21795435 -0.0045726146 0.39062825 0.2092557 -0.26998764 -0.13625905 0.5264311 0.629497 0.30639872 -0.5389623 -0.654523 0.40811616
NPY1R -0.2632892 -0.043184377 1.5450648 -0.08772602 -1.1622788 -0.012812964 0.06090971 -0.029586706 -0.42694896 -0.23914541 0.52027893 0.06401421 0.5604672 -1.1017525 1.1011064 -1.0314101
TCF3 -0.9948495 1.0393989 1.0327467 -0.3145358 0.6772958 0.018550163 1.538375 -0.34723473 0.12468443 0.46137834 0.0094387885 -0.06171521 -0.36389053 0.28626186 1.1134067 0.3406357
ORC1 0.13149215 -0.008155009 -0.26047957 0.0055864453 -0.67760825 0.0032846527 0.33954307 0.0003987721 0.041434012 0.8211586 -0.13113889 0.13598529 -0.17732283 1.3260118 0.19912474 0.6573963
TAF5 -0.08561079 0.5310853 -0.27769053 -0.2978699 0.5554456 0.32075483 -1.1664231 1.2574066 0.26108432 0.27252847 -0.1476081 -0.5842324 0.46001166 0.18535726 -0.08930927 0.18915325
NUDT1 0.16970557 0.22318035 0.19819044 -0.029421058 0.29259026 0.13136744 -0.9246556 0.0112563055 0.55757767 0.23668684 -0.1935955 -0.006922801 0.40364137 1.561255 -0.20167239 0.1257488
ATP6V1C2 0.3259175 0.06677643 1.6191926 0.24718903 -0.32456937 0.636358 -0.3585226 0.05433155 -0.16137001 1.0152541 0.13216683 -0.347749 0.30591857 0.033057045 0.3927293 -0.81416225
MSH6 0.15014923 -1.3580675 1.1912593 0.044482395 0.25215814 0.14069442 0.01660577 0.5268874 0.098984845 0.6656132 -1.2446059 0.3651021 0.10310094 0.37697512 0.021501608 0.36076838
STK24 0.6991864 -0.045698997 0.20130937 -0.13764785 0.5113187 0.70693225 -0.32668626 -0.07515165 0.34240603 0.8366911 0.3982214 -0.34750807 0.7686035 0.8888574 -0.5258758 0.14517261
ARHGAP10 0.41372722 0.12413732 0.49556106 0.5541351 -0.74726 0.022307314 0.81692415 -0.00033753854 -0.008363398 0.2679751 0.7589347 -0.6139292 0.9349371 -0.39185962 1.1403373 0.31913462
EEF1G 0.83736515 -0.10306516 0.39388743 0.0044574086 0.34834933 0.9690841 -0.17665142 0.00069349963 -1.4992573 0.85314524 1.6650546 0.10036772 0.6992805 0.18985683 -0.630379 -0.13348772
NIF3L1 0.4990518 0.005012188 0.044612616 0.5993162 0.61844426 0.5538733 0.8854604 0.30394593 -0.26858968 0.78864187 0.54883707 0.05771546 -1.6469687 0.2162126 0.12802263 1.2667284
SND1 -0.10887029 -0.6752537 1.0029796 -1.0835088 0.39556342 -0.024798978 0.023914753 -0.63577014 -1.1433632 -0.3951769 0.8069479 -0.005948866 0.3619933 0.5320136 0.23076254 0.13548796
COLEC12 0.26905066 -0.92462105 0.14956342 0.13767593 0.4177793 0.2848006 -0.59629923 -0.92144156 0.23528726 -0.6340297 -0.16729094 0.8669244 1.3404969 -0.7430772 -0.577338 0.104014575
IRAK1 0.10748669 0.09983576 0.63521385 0.5037938 -0.3946889 0.024407782 0.30545765 -0.17813617 0.27413058 0.93682706 -0.8672499 0.42947686 -0.13038725 -0.6467909 0.27416798 0.07910858
HNRNPM -0.3174707 -0.03457239 -0.49986836 -0.4737142 0.19352919 -0.6313106 0.9198759 0.5703626 0.15193482 0.0767527 0.3402909 -0.07613602 0.5887392 0.27527475 0.29464442 1.4669938
TCF19 -0.056710154 1.3453507 -0.13142098 0.4356656 0.7938371 -0.99325025 0.41428888 0.03671294 0.38484177 0.14392681 0.13891813 0.0042686346 -0.10948568 1.0109621 0.8243615 0.15284593
AXIN1 1.3824825 0.06877217 0.4554849 0.07606039 -0.036799517 0.78854126 -0.7438634 0.17114015 -0.047589295 0.97068316 0.56329083 0.098165 -0.5072267 0.44829586 0.03548384 0.262055
IL10 0.16021465 -0.0055275476 0.1512311 0.3861326 0.3460122 0.8996797 0.8739182 -0.19564588 0.31182173 0.43078727 -0.14962289 0.37512308 -0.25918657 0.329332 1.0870166 -0.30311304
CD34 -0.13816369 0.19790824 -1.3914839 0.70191574 0.035854515 0.042159595 0.21583763 0.023989638 0.48303255 0.82731134 0.05268175 0.25051233 2.4518366 -0.1314863 -0.19553079 -0.26129028
UGT2B15 0.61759555 -0.13058989 -0.32310903 0.16924919 -0.04913034 -0.6137901 0.55904883 0.01358608 -0.1855743 0.11975367 -0.3962856 -0.06806291 0.31143612 1.7586089 -1.0961654 0.5940185
DTYMK -0.026119288 0.20008506 -2.194182 -0.52987576 0.12788329 0.39237434 -0.24419111 -0.029532325 -0.11339546 0.2952253 0.16207129 0.45247334 0.71672827 0.0946397 -0.31551537 -0.12889354
ST3GAL3 -0.0006171104 0.18964225 0.40092936 0.021700522 0.50717306 0.005613344 0.1806667 -0.24601172 -0.037777342 -0.50361025 -0.58623576 -0.74383056 0.19787659 -0.19334024 0.16983196 -0.63651574
CUL4B 0.07569878 -0.4601897 -0.18349057 0.08954826 -0.15203774 -0.044149302 0.3864236 -0.059418593 -0.017731212 0.7004474 -0.41388288 0.14475434 -0.10926433 0.4430304 0.2837728 1.3749444
SPRY2 -1.5650922 0.7658388 -0.073952585 0.082114734 0.19550912 -0.0017974532 0.4116134 -0.18423134 -1.3935498 0.0504373 -0.012728112 -0.368892 0.3762209 0.55974746 -0.93303716 -0.2170605
FZD2 0.86054546 0.18520899 -0.29040694 -0.22318852 0.0006303373 -0.13030693 0.22074299 -0.37402448 0.092763275 0.63253313 -0.6188638 -0.01494253 1.0291361 -1.1135257 0.051775716 -0.13464852
SMARCD3 -0.7605226 0.37015265 -0.18445058 0.02326544 0.30789974 0.16639055 -0.8400936 0.14559478 -0.8601176 -0.114230596 0.025252713 -0.41437998 -0.44389585 -0.46581596 1.0145937 -0.15415344
PEAK1 0.21603952 0.54304695 -0.49966145 -0.39615926 0.37162843 0.83125 0.22106007 -0.58227 -0.091094606 0.52980304 0.013649077 -0.60848224 0.18865317 0.024501704 -0.1466841 -0.18101591
ARID4B -0.0055792555 0.031155616 0.0501165 0.034107946 -0.06366764 0.5687322 0.25022462 -0.010633248 1.2045819 0.33529094 -0.9984884 0.63888186 -0.748767 0.2904005 0.6865852 -1.0411628
GSTO1 0.61381334 0.33321083 1.0475302 0.5063679 -0.50522006 -0.01696913 0.11116771 -0.018522568 1.1484195 0.07128058 0.019759364 -0.2081883 2.1832242 0.4158699 0.53748256 0.21548498
CYP2A7 0.07884293 1.1922216 1.4581989 1.4414402 -0.06676342 -0.061216857 0.22812371 0.7392024 0.18737325 0.6572841 0.7899964 0.11636724 -0.03234607 1.0454929 0.07390097 0.35099018
NR2C2AP 0.5958839 -0.56774485 0.28028905 -0.20130756 -0.54212165 0.73206073 -0.4377805 -0.08685604 -0.09361493 0.56131446 0.49600178 -0.60176194 0.4124815 0.908654 0.022293119 0.46576044
PLK4 0.6912655 -0.14937413 -0.18432559 0.37692425 0.8260528 1.9052907 -0.090915844 -0.20040983 -0.03652945 0.78276783 0.528412 0.4575381 -0.44151947 0.4375517 0.69289595 0.2616992
SLC7A8 0.2515948 -0.056567118 -0.7744901 -0.8409556 0.23429942 0.0074918875 -0.49425033 0.024285085 0.6468231 0.50682455 0.27112988 0.59097815 0.4089908 0.4661767 -0.6666517 -0.12941444
PRKAR2A 1.4780769 0.40272126 -0.6228719 -0.08315156 1.156109 0.81713843 0.808003 0.06604635 -0.5414671 0.3225814 0.99235696 -0.013785567 0.43955734 2.1399736 0.66772246 -0.058757365
IGFBP3 0.2511851 0.027900694 0.9711329 1.3375877 -0.45300967 -0.09198463 1.6480938 0.026636163 0.49714202 -0.6569769 0.46337515 0.38119775 -0.08251614 1.5455778 0.05437239 0.31922004
RNF4 0.01648937 -0.44758344 -0.207548 0.6301341 -0.042262394 -0.2613612 0.5378002 0.006576963 1.5131582 -0.4144951 0.36574388 1.6158772 0.4145603 -0.057635393 0.5474655 -0.017497405
PRKAG1 0.7474563 -0.07149103 0.41239136 0.14633651 0.67374426 1.1926441 -0.09408071 -0.5812976 -0.07789766 0.7918593 0.20074806 0.24487661 0.2805686 1.1477308 -1.7047149 0.1795301
ZNF143 0.25989464 0.0989085 -1.0862908 0.22252375 -0.16467136 -0.028531043 1.2196373 0.008360584 0.047131732 0.44496414 0.09585905 -0.48561308 0.46291384 0.2546789 -0.5174642 0.12154544
WNT8B 0.803419 0.07736327 0.4982235 -0.33600935 -0.49122003 0.52498263 -1.5133795 0.015390578 -0.07330366 0.6557404 0.34747452 -0.6699748 0.605405 0.3297645 0.027567172 0.36116657
EP400 -0.066197254 0.42452294 0.5891755 -1.7544918 0.2847975 0.00087429624 0.22995205 0.023894655 1.2968261 -0.8079092 0.05115057 0.2056063 0.6864406 0.037364226 0.047948085 -0.8543922
RPP40 -0.17664945 0.15688664 -0.18694441 -0.08536575 0.72707397 -0.17067462 -0.66232735 1.1303012 -0.16755158 0.22387086 0.23624514 0.04899988 -1.6040251 0.035591945 -0.094885655 -0.15787257
MTOR -0.66118 0.006525276 0.6417151 0.45389903 0.7783807 -0.2163578 -0.552754 -0.047003333 0.3427531 -0.7959252 0.17989288 1.265291 -0.44121566 0.053561103 0.3835095 0.13495313
ROCK2 -0.03722645 0.06547788 0.4697562 -0.09614489 0.1853496 0.033637937 0.0626467 0.039393872 0.37356496 -1.3365868 0.16966888 0.23236442 1.2091671 0.22097974 -0.22984552 0.47192952
COPS6 -0.30207637 0.46945912 -0.6156824 1.1289359 0.4371689 1.6064873 -0.26663846 -0.10957751 -0.5665832 0.2973264 -1.1718425 0.57489413 0.049158845 -0.07889636 0.6369461 0.8430136
POLA1 0.42185432 0.18869323 0.1999435 0.2545402 0.8264811 1.3519119 -0.27482182 -0.2597486 -0.21699107 -0.11646934 0.31302616 -0.6500896 0.9633783 -0.93537754 1.4683772 -0.11226951
BRCA2 0.22922203 -0.15372232 -0.4416126 -0.052826125 -0.58678824 -0.48476967 0.2866811 -0.08959663 0.68389934 1.0999043 0.2490015 0.23819761 0.48128337 0.71564436 -0.16964199 0.2439099
IVD 0.11337848 0.17520247 0.47797042 0.18226373 0.27245197 -0.3216953 0.29877332 -0.0007307366 -0.10544212 0.33978504 0.35820863 0.1280365 0.21045306 -0.13501962 0.18953592 -0.60342455
ACBD4 0.54068005 0.04908244 0.010912852 0.018922793 0.63289857 1.3071717 -0.17251275 0.003568091 -0.43548894 0.36005238 0.5351801 -0.10767334 0.18081495 0.30027422 0.25489196 0.027824814
YARS2 -0.057934973 0.4421094 0.2418266 -0.24254993 0.19945219 -0.22765858 0.017671064 0.206401 0.20099889 0.22897168 -0.050490934 0.43103984 0.035574198 -0.2567134 -0.8258958 1.2060205
G6PD -0.60197276 0.119050086 0.039017227 0.32734177 0.17483614 -0.003917011 0.27261347 0.20938863 -0.35382387 0.24690394 0.20947586 0.23150454 0.16911706 0.14168128 0.22520518 -0.9964576
DNAJC5 0.11641047 0.0057940404 0.062040884 -0.53026164 0.10019429 -0.035903938 1.1287647 0.14845558 0.3444664 -0.21148409 0.40453815 0.13431694 -0.311866 0.16422197 -0.20791392 -1.1774601
DUS4L 0.23809667 0.21134108 0.55623466 0.7731952 0.3643702 -0.0048422706 0.49332967 0.00051726296 0.24426584 0.19601248 0.41479853 0.06391058 0.31853077 0.050087143 0.24857557 0.6291169
LYVE1 0.14662613 0.16956101 -0.09395681 0.061658327 0.49231106 0.59717727 -0.19228917 -0.068484075 0.18509807 0.82975703 0.3032417 0.71757203 1.9819775 0.16117415 1.3504924 0.20829034
SNRPD2 0.6681857 0.03172665 -1.154355 -0.41675127 0.09317674 -0.40190074 0.5154475 0.0017484691 0.22553876 0.0642033 0.1318399 -0.84266174 0.65883625 -0.042964745 -0.772884 0.06004883
FIGNL1 0.0851407 0.40977487 0.12895356 -0.8365799 0.43140662 -0.041382156 -0.5834043 -0.1791847 0.48320144 0.48640558 0.5377226 -0.040262714 0.5123738 -0.29782918 0.8744057 0.1685286
PTH1R 0.35290372 0.03306181 0.36384818 -0.0014549936 0.017869992 0.003405639 -0.13674736 -0.27019423 0.60079163 1.2475648 0.12596549 0.40489897 0.23328882 0.12345273 0.304254 -0.9717759
GADD45B 0.6965821 0.25452662 0.29293188 0.033206515 -0.0034861849 1.5403559 -1.011778 -0.61836654 -0.30762568 1.1174213 0.77092314 -1.8763939 -0.2104664 -0.11905632 0.52173114 0.4883509
UTRN -0.47908157 0.341154 -1.1633542 0.011439382 0.14589868 -0.037635125 0.45789728 0.0029594423 0.9855081 -0.18455282 -0.7852333 0.040022332 0.5455221 0.5680279 0.8941064 0.3526824
SFR1 0.0044322186 0.35818398 0.87309283 0.4793653 0.047986105 -0.08282948 0.37649822 0.03899839 0.061814293 0.9131017 -0.27729535 0.086997464 -1.540314 0.86913013 -0.5168935 0.6926777
ST3GAL6 0.7455562 0.014245396 -0.054551918 -0.17771581 -0.11350855 -0.115984455 1.3234589 -0.011764096 0.19218309 0.46662426 0.5983835 -0.038942978 0.52029854 -0.27601346 0.05898103 -0.1707397
MDM4 0.23179018 -0.0022052217 -0.27662313 0.13887975 0.13108538 -1.1816913 0.5256139 -0.12666428 0.4506892 0.5062396 0.64064157 0.06076098 0.9596329 -0.2933343 0.8054964 0.54012626
LRP6 0.26817888 -0.0002066684 -0.34838724 0.48960125 0.34990373 0.33931616 0.30704954 -0.16126773 0.79952055 0.6105116 0.50508136 0.11178849 -0.079181224 0.94780314 -1.6280985 -0.18552306
TALDO1 0.20467325 0.058012635 1.2942182 0.013287809 0.16443503 -0.01393575 0.27282837 0.5935449 0.3493001 1.6670121 0.17122854 -0.3847805 -0.13112877 -0.15472709 0.98717254 -0.9562359
DGKQ 0.15737797 0.9436986 -0.92413825 -0.024474723 0.21247369 -0.114987776 -0.063217014 1.1731813 0.07958928 -0.09314838 0.11606421 0.042274356 1.062 -0.5396534 0.26186085 -0.6738146
TSG101 -1.1164485 0.6228711 0.22510913 -0.015792398 -0.12556437 -0.020583319 0.23396131 0.046007715 -0.21082541 0.50091016 -0.0035541696 -0.67493963 1.8180357 0.26678222 0.39236513 -0.08652377
SFT2D2 0.107587986 -0.5186271 0.2902697 -0.5882351 -1.8826325 -0.024443094 0.281134 0.632921 1.2477665 0.62050605 0.49568728 0.15220313 0.15946509 0.86623514 -0.09753246 0.15329121
CXCL14 0.100649685 0.083569415 -0.029930927 -0.17621751 0.48155177 -0.46721688 0.2038668 -0.048122082 0.3746928 0.97058606 0.19633806 0.104756586 -0.5780229 0.25313786 -0.572162 -0.02420326
CCNA2 1.122729 -0.056639004 0.93141603 0.9200289 0.17123656 0.5350139 -0.6138303 0.57358533 0.010668933 -0.26417875 0.6361892 2.468678 -0.18687133 -0.13448904 0.84893626 -0.14956746
AXL 0.654239 0.0617104 0.44556722 0.48086682 -0.4194284 0.8331245 0.51093364 0.04755633 -2.4559035 1.5526898 0.6043783 0.08044893 0.049500458 -0.82289344 0.39197043 0.9071914
STAMBP 0.14924377 0.71099424 0.87646496 0.05236215 -0.034731414 -0.027178261 -0.34192604 -0.013280977 1.4694934 0.2976125 0.17457512 -0.004240929 2.4116216 0.06808811 0.39503834 -0.029265912
ATP6V1H -0.23512666 0.017362596 -1.8226056 -0.018413614 0.13834292 -1.0433766 0.031431146 -0.060907293 0.18402177 0.94138044 -0.12511615 0.06557683 -0.16108255 0.8922807 0.45996124 0.6374388
GLUD2 -0.29294994 -0.53908324 -0.17108235 0.18411005 0.6934707 0.83448756 -0.20390208 -0.19841436 -0.37418556 -0.29223967 0.18688941 0.13073207 0.10637023 0.120502844 -1.1270375 0.7386301
ADK -0.05801145 0.25443473 -0.36326104 -0.20419464 -0.20134422 -0.02361668 0.6854681 0.004119845 0.3211533 0.07171667 0.1891204 0.4860592 1.3554813 0.05006167 0.4650618 -0.14272751
NRF1 -0.008561431 0.59131825 0.6196865 0.7954434 -0.3635904 -0.47645628 0.46090862 -1.3889474 0.2079917 -0.49375892 0.16839428 0.17592663 1.2349675 -0.0927101 -0.6085072 0.14866154
SUZ12 -0.29676187 -0.113291726 0.29177102 0.29211798 0.03597779 0.22277726 0.23197295 0.0007791482 1.7317828 0.4801461 0.39175197 1.851672 0.11056317 1.1141891 -1.8457555 -0.9850385
FTCD 0.2544599 0.30440626 2.2155027 0.8326372 -1.0276009 -0.6759553 -0.10737883 0.10159887 -0.10243538 0.9122122 0.03626846 0.3799002 -0.3519183 -1.2009958 0.11550324 0.13497438
FLAD1 0.15965809 0.151809 -0.2416694 -0.039033804 -0.2792048 -0.16825564 -0.3191288 -1.015063 0.44426364 0.4107121 0.12580684 -1.0557152 0.74375093 -0.8347313 -0.3747113 -0.75258434
SHBG -0.21985681 -0.5204895 0.7508408 0.48620188 0.2231377 1.0346763 -0.7016358 -0.42651019 -1.131695 0.09185622 0.9815281 0.21252514 0.09159685 -0.371966 0.1266367 1.4934345
EXO1 0.10917632 0.09803223 -0.3774472 -0.07512731 -0.020735737 -0.07652195 0.7655825 -0.21898346 -0.79627645 0.24422194 0.45312694 0.04087814 0.42045122 0.32384545 -0.19292521 0.76488984
CH25H 0.2233438 -1.2633768 0.73902285 0.074237145 0.054009162 0.12630293 -0.08180771 0.45957884 -0.7959801 0.44286898 -0.20601882 0.3240752 0.050415725 0.5695708 -0.19416542 -0.118896365
CFI -0.5751428 0.65566057 -0.012322418 -0.02635863 0.09630522 0.0041771205 0.03288229 0.006809471 0.5277057 0.46548587 0.07851659 -0.0015308703 0.25553373 0.106560454 -1.0994811 0.122580424
PLCG2 0.3628547 0.013226009 0.7517355 0.2271635 0.28217125 0.88126135 -0.18064936 -0.026858991 -1.2166948 0.51724315 0.25805336 -0.12603371 0.24251299 -0.50657195 -0.06291541 -0.17790304
YEATS2 -0.8958573 0.50581104 -0.5174365 -0.112515375 0.8416399 0.43738014 -0.0441973 0.041686483 0.3331586 0.10390718 0.9337062 -0.21170114 0.34003955 -0.25749344 0.8855859 1.2026447
PRKCA -0.3860932 0.15338352 0.87657416 1.2209119 0.19262846 -0.03594644 0.27842286 1.598948 0.116332404 0.52750534 0.48106614 0.38828474 -0.65955096 0.22826383 0.052750103 -0.24962704
NEK9 0.96100736 0.33156854 0.77884483 1.002066 0.21977638 0.08940905 0.64878047 0.018229635 0.2512403 0.43572116 0.52463907 0.4140946 0.054087386 1.014204 0.39208987 0.21321788
SERPINI1 0.35824853 0.62516344 0.15211935 -1.3965353 0.2515107 -0.8151438 0.0911162 0.38033786 -0.6109889 0.8755359 -0.47709206 0.9826934 0.40467185 0.13592584 -0.20408696 0.13592899
DHX30 0.103150725 0.053146154 -0.926738 -0.01680491 0.9222143 0.35077432 -0.047198392 -1.1369939 -0.23289634 0.27556553 -1.061296 0.14979489 0.31448492 -0.65379333 0.6929534 -0.07492727
RPIA 0.8380626 0.361832 0.85142726 0.8378595 0.47913373 0.7295228 0.4713724 -0.0048334217 -0.29606378 1.6056204 0.41737905 -0.33382773 0.19430666 -0.30052257 0.21807514 1.6338621
FAF1 0.39740136 -0.7108839 -0.08762614 -0.37176606 0.85200256 -0.50866807 0.9810075 0.6492425 0.16864912 1.6133882 0.4281415 -1.1206391 -0.08701268 2.1674125 0.7676367 1.0197299
UCK2 -0.06287966 -0.33403963 -0.04423481 0.075965405 0.1935937 -0.5632472 0.14309603 2.127211 0.12814485 -0.20101492 -0.23330547 0.4334412 -0.042584267 0.4148177 0.2637429 0.3096468
MYD88 -0.41745517 0.15704088 0.68814 -0.1306474 -1.0444798 0.018747116 1.2120695 0.044516657 -0.05709844 0.7010508 0.19109593 0.43946415 -0.09968962 1.460857 0.5524675 -0.26288444
XDH 0.18034063 0.5014192 1.0786835 0.0044745007 -0.059817754 -0.6076966 -0.06317581 0.3149785 1.0283641 0.4414855 -0.36527646 0.27095804 1.5195624 -0.122580774 0.37352207 -1.6028826
CIRBP-AS1 0.09155896 -0.71621346 0.14779887 -0.51644886 0.0019225765 0.30620956 0.2499605 -0.8839488 -1.281203 0.5422992 -0.48391044 0.26938832 -0.22065364 -0.11600019 0.6688392 -0.16528621
CA2 0.840655 0.0075541786 0.46451622 0.39394838 -1.1127175 0.021356175 0.85994405 0.004823714 0.3153872 0.21969189 0.5154083 0.32039854 0.32281834 0.05355627 -0.00064267125 -0.8874524
MAZ 0.15902883 -0.19430658 1.479843 -1.6534317 0.4953899 -0.052751947 1.9185176 0.17379875 0.9865085 1.3647811 0.14502884 -1.2792581 -0.38088074 0.5123755 -0.030316234 0.6279342
MAPRE1 -0.579419 0.5060344 -0.333456 0.56314796 0.38129827 0.30594888 1.2204968 0.008803375 0.41637048 0.7937762 0.42269668 1.7725239 -0.46335644 0.12814985 0.7606365 0.67049575
ZIC2 1.7829247 -0.08499912 0.8323685 2.2295904 -0.1998641 0.25102156 1.0096768 0.06104552 -0.4176521 0.18190016 -1.4644141 0.8535002 0.042410202 0.027545167 -0.6156049 1.1595173
EHD3 -0.2883253 0.28042662 0.22471477 -0.39650998 0.44955528 -0.0033679726 0.38561836 0.15345488 0.14582731 -0.1205729 0.09461251 -0.25640708 -0.46776474 -0.66058075 0.7129339 -0.11270341
SEMA3F 0.13385968 -0.5083116 0.79886645 -0.35283673 0.9620627 -0.0045162393 0.031146469 0.08295108 0.4289426 0.61033213 -0.8681096 0.21796785 0.24873845 0.46305212 -0.15991229 0.13593587
RFC4 0.44770405 -0.031906947 -0.005477304 0.37488416 1.411796 0.016156593 1.816032 -0.040975064 2.1434698 -0.17730439 0.19780998 0.59732616 -0.04314228 0.676813 1.0121903 0.14766404
SNX27 0.4098983 -0.00618277 0.16097146 -0.4540874 0.9957359 0.4842896 0.13704662 -0.063990496 0.23456971 0.41275275 0.92261106 0.43851617 0.4301597 0.8901085 0.2412926 0.05575218
ITSN1 -0.35085443 -0.69382304 0.27145454 0.7745454 1.4177088 0.462141 0.51647294 0.99828374 0.37860218 -0.05119725 1.2771211 0.9061889 0.1287886 0.56016314 1.4881252 0.7663019
KLHDC3 0.08084984 0.1340494 0.46229422 0.07935654 -0.22665095 -0.0070058387 0.3103531 -0.23840567 0.387138 0.93602854 -0.60922694 0.23070914 0.4220855 0.24198993 -0.2919835 -0.66903704
SENP1 0.04661193 0.10439804 0.7732931 -0.3127897 0.46278274 -0.11630618 1.1667019 -0.34700853 0.30222684 -0.821118 1.8350779 -0.477522 0.30998695 0.25517893 0.96441495 -0.72470915
INTS4 -0.2661626 0.11731422 0.053588424 0.35789275 -0.380119 -0.06664371 -0.2004255 -0.044118136 -0.71827537 -1.0951682 0.12320904 0.060813263 0.40218624 -0.19350502 -0.11513732 0.4868327
MID1 0.49859115 0.48388228 -0.14881738 -0.026490357 0.4972919 0.04468722 -0.1977939 0.5563874 -0.10856204 0.33040798 1.017604 -0.09967052 0.9217555 0.10060505 0.013766544 0.44058293
FRAT1 0.50180095 0.057079416 0.30289328 0.08985281 1.7548759 0.13267294 0.58804727 0.01870369 0.46475714 -0.08292571 -0.46412632 0.27533844 0.8786351 0.22464375 1.112376 0.022829298
PPOX 0.06727611 -0.033786315 1.884655 0.59446007 -1.1500744 0.03556203 0.71586937 -0.00032799266 0.6111594 -1.0027368 -1.7733738 -0.19212887 -0.078270294 1.3093475 0.1642436 0.5068033
GPR158 -0.11245192 -0.38481373 1.4130596 0.38242447 1.1152078 1.2066149 -0.3106547 -0.03875121 0.26764667 -0.22048254 -0.05423552 0.08342697 -0.5646475 -0.48457232 0.17575064 0.4986813
GADD45G -0.019482577 -0.31008595 0.2768922 0.021554176 -0.46293068 -0.5367949 0.2941571 -0.002998821 0.022708407 -0.018377356 -0.28519264 -0.35935685 -0.98109585 -1.2718188 -0.055509973 -0.11577754
CPSF1 -0.33986855 -0.0031481013 0.7146073 -0.20370717 0.36732498 -0.00120399 -0.27196482 -0.16734794 0.19636242 -0.016550016 -0.63892305 0.19619364 0.35410503 0.46149266 1.1981814 0.24649988
METTL3 -0.032533605 1.8029232 1.0007238 -0.044699866 1.0416502 0.055861533 -1.5791533 0.029840905 0.5196905 0.46492898 0.16944496 -0.07867149 -0.099889435 0.5474945 -0.88091856 0.7410498
CSNK1D 0.16023065 -0.04469593 0.021392535 0.15028591 0.20453404 0.23703429 1.0512626 0.7475002 0.2804865 0.3298604 0.14496405 0.121239945 -0.13598904 0.34715766 0.34258732 0.41522452
HSPB1 -0.027369129 0.5236571 -0.36009297 0.00863061 0.512912 0.1061455 -0.17587578 0.00553555 0.24839635 0.4015354 0.08085218 0.26752174 -0.7454822 -0.36532882 0.06114327 0.5380605
FBXO4 0.3662122 0.37945595 0.48586366 -0.006531911 0.08272036 -0.0131748235 0.43466434 0.75175273 -0.015099847 0.32992595 1.5469159 0.3069558 0.5530931 0.3065328 0.42734692 -0.850178
ALDH2 -0.54643774 -0.5623174 0.17156127 0.18534005 0.3344493 -0.20416282 0.2866957 -0.9046572 -0.45084688 0.1563315 -0.33266342 -0.13803451 0.8500834 -0.35256958 0.19417238 0.96263367
RDH16 -0.024700392 1.4404708 0.46775848 0.8755182 0.41164532 0.76879686 -0.5156696 -0.18268047 -0.1716392 0.21407428 0.22613509 0.10186952 0.36448368 -0.067846425 -0.14505865 0.49696457
DPCD -0.003928518 0.5128641 0.32238168 -0.47354332 0.40555006 -0.024262274 0.33791465 -0.009919263 0.79362345 0.037383523 -0.099342585 0.20413934 1.4028829 -0.11363784 0.17896372 -0.33333796
ILF3 -0.4653143 -0.036487583 0.058595024 0.23862122 -0.26321477 0.4977218 0.68474996 -0.000108070206 0.67678535 0.5752591 0.1739327 0.40672854 -0.099429674 -1.1293638 -0.076055855 -0.20212178
SOS2 0.013545641 -0.041489504 -0.57487476 0.38319656 0.67837274 0.5317966 0.1703926 -0.5722179 -0.027605241 -1.6147486 -1.659585 0.037252437 -0.14293748 1.5547847 -0.15407994 0.79421127
KIF2C 0.17779538 -0.20636456 0.548869 0.3865915 0.18186638 0.0015017533 0.6559123 0.89176667 -0.123818204 -0.24143443 0.4637104 0.27414536 0.16576493 -0.08700563 0.21320851 0.05165477
PRKCD -0.5267262 -0.28334597 -0.29674357 0.5406348 0.67432815 1.3127406 -0.1911092 -0.13232039 -0.24592501 0.07813658 -1.2603383 0.5583283 1.6877778 0.13888717 1.0630214 -1.5670663
FOSB -0.023921099 0.06557303 0.085937805 -0.07420202 0.35394502 -0.12888975 -0.57157034 -0.0075975163 -0.8537126 -0.14453648 0.6503106 0.50410104 1.3262475 -0.22506994 -1.3120952 0.07228701
CNOT4 -1.2249749 0.7038242 0.32831097 -1.0609231 0.57013166 -0.8577404 -0.55299586 -9.2448e-05 0.4720788 0.12810355 0.50582784 -0.1573841 -0.2572076 -0.13478777 0.6638158 -0.10253565
HSF2 -0.041751128 1.7238508 -0.63453454 0.21401657 -0.21486482 -0.4007734 -2.493491 0.33249772 0.19892594 0.45878902 -1.0113668 -0.31349945 -0.2499344 -0.12979269 -0.098400354 -0.058975007
IGF1 0.66037846 0.14304914 0.27112794 1.3691648 -0.058704223 0.014399196 0.3981898 0.10852704 0.5274952 0.57915676 0.30433786 0.63439834 0.58334327 -0.9725447 -0.17120212 -0.15523243
GPANK1 0.44548452 0.4987379 -0.08607111 0.9105763 0.86369294 1.4223597 -0.3681374 1.14201 -0.31259963 -0.031801563 0.7360857 0.5531389 0.311191 0.25199255 0.11582291 1.3496296
RPL15 -0.006208018 -0.32576996 -1.5606632 0.02609277 0.4387673 0.0051576016 0.40379387 0.008673259 0.72369397 -0.49592733 0.17010505 0.5196104 -0.9014875 0.5838151 0.60648596 -0.22075795
ZNF398 0.594067 -0.10412073 0.0356912 0.35708734 0.4495973 0.8140047 -0.07208515 0.491601 -0.38042942 0.4170148 0.61033857 0.43970764 0.18992367 0.2539747 0.7373081 -0.2199516
FZD9 0.37856537 -0.8508043 1.1343739 -0.1946198 0.23391354 1.15529 -0.47565722 1.7373627 -0.06204472 -0.5066382 0.3482067 0.17465192 0.26852065 0.5461416 0.20694745 0.046425078
FANCG 0.48564205 0.37664232 -0.33143932 -0.46221632 0.20576066 -0.8711606 0.8073072 0.96201795 -0.1109882 0.32357523 1.9489492 -0.07932511 0.80713344 0.5150037 -0.3980785 0.85093534
WNT4 -0.13297772 0.0771042 -0.18689688 0.23577352 0.61225116 -0.235352 0.24719109 -1.5500054 0.9248722 -0.09754938 0.31824443 0.36852968 -0.03501231 0.425947 0.48439902 -0.015714746
TAF2 -0.1817477 -0.34845072 -0.14909346 -0.022799272 -0.15141338 -0.2271586 -0.5692538 -0.00787408 0.705011 0.4492673 0.072415136 0.3798884 1.0523349 0.7194604 -1.0521377 -0.360566
HKDC1 -0.41813895 0.17744882 0.5287091 0.35404438 0.30231884 0.0092264395 0.25104868 -0.012378615 -0.9177362 0.27319002 -0.9017454 0.29687297 -0.003652797 -1.0043542 -0.14254187 0.4505064
WASF1 -0.3585727 0.10690061 -1.3220248 -0.005753289 0.25670198 0.003363942 0.3256888 -0.0010769262 0.4836442 0.9077595 -0.61662215 0.3438101 0.29549307 0.2626753 0.7442191 0.26036775
F3 0.115584984 0.78332293 0.7292653 -0.022810448 1.481748 0.0005833189 -0.17887726 -2.9230083e-05 0.48169678 -0.052042045 0.34718537 0.34020376 0.24675454 0.3576563 -0.32152885 -0.19468103
MCM5 0.44171068 -0.6536152 0.511607 0.020988401 0.3030937 0.5083566 -0.67815435 0.0017985043 -0.42919222 -0.21267422 -1.8163397 0.18696468 0.3456796 0.5508969 1.0013045 0.16028683
LYRM4 0.7856087 -1.3570923 0.21751627 0.00027990417 0.15340121 0.6502721 -0.6860236 0.02149036 -0.11463667 0.3710011 0.7283261 0.3800747 0.8940799 0.29666662 0.046080794 0.19798009
CNOT1 0.3223073 0.46919256 0.58447504 0.5830586 -0.005863189 0.28795388 0.4817804 -0.010737805 -0.054222584 0.7638724 0.091305986 -0.30712128 0.24858126 -0.1847263 0.4543246 0.5026213
DDB2 0.3487695 0.12858327 -0.29451296 1.3394207 0.022198182 0.0041917316 0.49476573 0.0850684 0.40785015 0.11938031 0.49024412 0.5688149 0.024405628 0.21985088 -0.09173046 -0.15293421
WRAP73 1.0348791 -0.27384624 0.77535826 1.2777894 0.9130042 0.6436338 1.0800111 0.02749546 -0.13458435 -0.10800034 0.51953834 0.2532227 -0.15771498 -0.8996658 -0.40619588 0.9389018
MRC2 -0.08913827 0.44792816 0.6615905 0.99678254 0.4954947 -0.018635763 -0.14769709 0.001157183 0.22708257 -0.069815174 -0.082571775 -0.39923948 -0.26044855 -0.19588906 0.12366248 0.5422801
NAE1 -0.7859955 0.31923935 -0.08985063 0.08717028 0.4961672 0.11840595 -0.64816785 -0.030152421 -0.5487263 -0.05424078 0.103570506 0.95184565 1.0372094 -0.025247155 -0.42590672 0.20883776
SLC38A6 0.15202953 -0.13986759 -0.26492986 0.010997465 0.9663025 -0.011685391 0.38870847 -0.054718904 2.283419 0.36547187 0.22279485 -0.5567398 1.0549328 -0.07515857 -0.07691179 -0.012529035
LBR 0.18113944 0.41687524 0.80439407 1.1089877 -0.13112883 0.3584019 -0.68563884 -0.0134175895 0.5757128 0.74624264 0.2895326 0.511522 0.31164604 0.24093515 0.31438345 1.1878386
SASS6 1.0467672 1.1398456 0.8563082 0.14429429 0.13069817 -0.0030517832 0.3575521 0.025603037 0.20964396 0.27252522 1.3718941 0.07576508 0.8574918 0.9008454 0.67441124 -1.1072661
WNT6 1.2517034 -0.83616185 0.39906368 0.11206962 0.3566398 1.0065906 -0.1122657 -0.0240744 -0.25923127 0.75152045 -0.27116424 0.32379282 0.032310758 1.6861215 -0.1547945 0.33205017
USP43 0.48584494 -0.35169017 0.12570763 0.046854142 0.24380928 -0.010114273 0.5449536 -0.0051768445 0.6829366 1.0067803 0.699848 0.3557206 1.1870985 0.23436259 0.53395367 0.2916045
BAX -0.008254337 -0.003952417 0.38931707 0.12505573 0.585147 -0.004609873 1.4467876 -0.05788596 0.16496766 -0.21308899 1.9140362 0.6397011 0.28885907 0.22136533 1.3391808 0.34662077
SLC2A3 -0.38823825 1.0652711 -0.06448301 -0.6704794 0.7116112 0.029315997 -0.63718754 0.0023444917 0.4885949 0.18086393 0.10317794 0.7040063 0.43466374 -0.011042771 0.1681643 0.21453321
SAFB2 0.1172861 -0.8342564 0.26865292 0.0732425 -0.35212055 -0.04861571 0.60857797 0.00096689886 0.61786956 0.5773451 -0.43514377 0.41105846 0.28189895 0.26621234 0.5737546 0.21883957
FYN 0.32370752 0.24974002 0.5304378 0.37382376 1.124412 0.17745672 0.4604596 1.3398695 -0.10516489 -0.48526287 -0.38851485 -0.55066353 -0.06803092 0.23690341 0.06248971 0.6962969
MRPL55 -0.019866228 0.55181885 1.8296951 0.73273647 0.1337677 -0.026311493 0.19628404 0.7560457 0.05951964 1.3244314 -0.02102476 0.05050969 0.16368105 0.57993567 -0.7382576 1.415621
CDKN1A 1.1568358 -0.07469262 -0.20119235 0.109023705 -0.011950641 -0.02800764 0.6023332 0.13717 -0.501973 -0.05142576 0.65862125 0.08739432 0.43388623 0.7792213 -0.21464942 0.3993099
UPF2 0.30367598 -1.4701244 -0.41047412 -0.030084483 0.31056044 -0.035879377 0.8308729 0.06900895 -0.89336133 0.35011777 -0.1852695 0.05780518 0.41881755 0.17056859 0.05709021 -0.1812529
PIP4P2 0.4364242 0.030494446 -0.61921483 -0.04579242 -0.075417146 0.08862146 -0.07342807 -0.27879438 0.55972296 0.6178853 -0.10224125 -0.033476997 0.6046275 1.8141162 -0.32066083 0.050267164
LRG1 0.22005348 0.036738154 0.514159 0.017988054 1.0259194 0.0729055 0.20708646 -0.1955349 0.4511103 0.9626832 0.15357147 0.22926131 -0.33760944 0.44749424 0.40271145 0.45566663
USP1 -0.02066417 0.70719403 0.9011852 1.4122771 0.2716499 -0.018270362 0.53918415 -0.43357712 0.3654776 0.12951009 0.55015653 0.13935228 0.14735702 -0.42685217 -0.46823776 0.1998703
NPM1 -0.6236279 -0.12813467 0.37792116 0.78375375 -1.1903738 -0.20389114 0.76548034 0.04612597 -0.030549591 -0.29732057 0.31849137 -0.053256817 -0.082846284 -0.40369347 0.027523661 0.003212036
PPP2R5A 0.16715139 0.08099651 1.2402511 1.0489023 0.36871254 -0.0046800743 0.3718914 0.28159237 0.25420508 -0.5889813 0.42960757 0.3073813 0.34491998 0.7016914 0.1058282 0.29404163
LIG3 0.09529883 -0.032307327 0.05619517 -0.2771088 0.15372999 -0.014798392 2.0748556 -0.72604275 -0.022340622 0.10276881 0.2833721 -0.05675831 0.380109 0.22073938 1.7843626 0.3767228
LOXL2 0.1495039 0.13191904 0.38890785 0.3538903 0.29217112 0.00018040164 0.40460524 -0.0074216467 0.109265454 -0.06966005 0.34697405 0.18105167 0.43807524 -0.063289456 0.44898677 0.3754777
HSP90AA1 0.77222216 0.027736127 -0.24815199 -0.2530914 0.2260545 0.09419424 0.58204687 0.84238833 0.74499995 0.7436505 0.43838596 0.14350283 0.44196016 0.4980727 -0.17073043 0.4398865
POGK -0.08156871 0.6289399 0.06600306 0.10021814 0.40483695 -0.014758357 0.2219778 0.015273532 0.1161374 0.6865347 0.3259055 -0.06292352 0.07505996 1.3997896 -0.29543722 1.1662875
DCTPP1 0.35361123 -0.08625059 -0.13467033 -0.2902536 0.21424226 -0.0034098413 0.65230554 -0.14416292 -0.42531747 0.3031162 0.8328862 0.15165761 0.47112817 0.17459537 -0.17761156 0.4693914
POLE2 0.053442944 -0.9607316 0.020129643 0.024669373 -0.112881996 0.01440174 0.12192322 -0.10239204 0.20758395 0.5805844 -1.2282085 -0.99422026 -0.15931241 -0.5260246 -0.32296497 0.23945309
WNT1 -0.9660119 -0.3340036 -0.05036055 0.13629778 0.07046578 0.05508221 -0.52164817 -0.40872577 -0.15734112 -0.08594897 0.40861535 0.36655745 0.3415049 0.039175693 -0.11137348 1.854253
SPNS1 0.0704806 0.033214808 -0.14812633 -0.44424883 0.31250253 1.658957 0.3929355 1.6284133 -0.40284196 -0.25226328 0.33954695 0.9281466 0.30279815 0.10241618 -0.04996271 0.1407781
UPF3B -0.3337715 0.047525268 0.2297873 0.29395398 0.13243529 0.02470729 0.9466628 0.080085896 0.58730865 0.53155756 -0.54472595 0.5864016 0.11542135 0.16966288 0.34058312 0.061858676
ANAPC7 0.04574341 -0.13650207 1.1600451 0.39046288 0.8971683 0.03910094 -0.5250139 0.07957855 -0.49989977 -0.23002379 0.57160026 1.6226901 0.32254222 0.61771613 0.16928938 0.5381552
MCAM 0.21725377 0.23264529 1.1137962 0.62141794 0.011546546 -0.00876583 0.5690849 -0.06452458 0.030755462 0.3562405 0.34626132 0.17258307 0.5564106 -0.41190064 0.3917171 0.46588957
TMEM68 0.80289805 -0.4123117 0.32104984 0.3736708 0.23414563 0.009534076 0.70461637 0.0061409925 0.6965976 0.8967007 0.6177922 0.26543742 -0.12662917 0.39674413 -0.011769816 0.796469
TIMELESS 1.363061 -0.028923813 -0.13479644 -0.92218274 0.036774352 0.13567983 -0.23533407 0.1568899 -0.1477222 0.51205754 0.8876807 -0.07559828 1.2746731 0.8456396 -0.001670612 -0.10391948
PTGS2 -0.019052554 -0.034443874 -0.91673523 0.07117402 0.48529327 0.24482709 -0.84862244 0.07858705 1.1070001 0.3447316 0.027038496 0.50754035 -0.36869973 0.6545903 -0.20828591 0.5496298
DACH1 0.24231686 0.005378211 -0.012371325 -0.8323064 0.33508316 0.016196039 0.5185781 0.09229334 -0.10100056 -0.16435586 -0.11974701 0.06601025 0.0994808 0.7734706 0.24445954 0.385518
TERT 0.21736903 0.79829085 0.04486726 -1.1013577 -1.7704926 -0.029814951 0.46205097 0.006910835 -0.18071717 0.07157892 0.67990166 -0.45619863 1.8223082 -0.038425796 -0.11481269 0.33855978
FBXL18 0.4664198 0.6006931 0.4362964 -0.024526017 1.1799821 0.2621554 -0.5427073 -0.08798821 0.3516552 0.44751742 0.38121858 0.82640165 -0.14382696 0.0941295 -0.17591107 -0.16791806
KLHL12 -0.017972212 0.6929298 -0.026959904 -0.26584357 0.5516275 -0.43381026 -1.4427164 0.26387957 1.3186724 -0.5668681 -0.84450704 0.09557822 0.034925725 0.47341168 -0.25688758 1.5057076
GSTT1 -0.08891422 1.9998872 1.1409098 0.4608498 0.7252565 0.28776553 -0.20337692 0.27186328 -0.28769282 -0.54226357 -0.097045936 -0.09012523 0.40247682 -0.661983 0.21309987 0.26120624
FGFR4 1.2661983 0.32762724 1.2101481 0.47770655 0.12138398 -1.1632103 -0.428714 0.12401378 0.5185264 0.18498923 0.309642 -0.24082932 0.948331 0.86950344 -0.13367976 0.21434999
ALDOB 0.06960368 0.2303681 1.2631286 0.017557845 0.11950298 -0.042217355 0.040382117 -0.94084316 0.18868712 0.12241794 0.028585149 -0.009483783 0.4835964 -0.8586874 -0.08204174 0.23023365
UBE2S 1.0571934 0.009154619 0.06518698 0.5465316 0.21808086 0.08277623 -0.4114546 0.045310736 -0.8476871 -0.242062 1.130488 0.06921394 -0.22064607 -0.2690785 -0.013603239 0.8785178
ADRA1B 0.026933122 0.56110996 0.5781526 -0.34107044 0.16478784 0.00045857008 -0.030018318 0.6627985 0.046489537 0.55926937 0.070742935 -0.27418953 0.40928805 0.15771015 -0.09158118 0.5688215
SRXN1 -0.23514377 -0.5104997 -0.9561376 -0.031237239 0.033178 0.0020930716 -0.07744756 2.1234763 0.5647374 0.22535284 1.2228312 0.17396984 1.4862554 -0.3652525 -1.3516523 0.003345801
NME1 -0.112319104 -1.3052733 0.003707479 0.15598063 0.30163974 0.76090235 0.62689996 -0.17181858 -0.9678082 0.019321391 0.061783362 0.4070764 -0.1055845 0.2926536 0.53994983 -0.51639366
PEX5 1.9259579 -0.033894077 0.056055058 0.42177454 0.33679342 0.9313504 0.8760796 0.036361944 -0.053129215 0.94336885 2.1644135 0.37909105 0.9972455 0.3951656 1.0320107 0.17251666
PTPN13 -0.029774182 0.9113881 0.5618604 -0.52560467 0.5814568 -0.5263703 0.42250058 -0.94084036 0.05263936 -0.7702329 -0.50565904 -0.089612946 0.4154701 -0.2411991 0.55550927 -0.28760043
OTUD7B 0.28943467 -1.1224602 0.09029007 -0.007311296 1.0285518 -0.89385796 0.42264584 -0.5564679 -0.06742925 -0.06491969 0.45265397 0.06601942 -0.11162597 0.575331 -0.16823721 0.28211293
ORC6 0.13188305 -0.18914482 0.2069757 -0.20209843 -0.08257018 0.0032082442 -0.20530827 -0.0059084096 0.531686 0.6019625 0.12984806 -0.49116868 0.19044335 0.608985 -0.11987317 0.4255801
PRKAR2B -1.4232899 -0.62988794 1.0740836 0.0021055404 1.08082 0.55969226 0.050779194 -1.0944588 0.3904595 -0.27681538 -0.22892673 0.39777517 -0.08074435 0.2272353 0.3858445 -1.0152855
ARHGEF11 -0.118234366 0.14841643 0.44336662 -0.66312003 1.0054739 0.6776667 0.51912487 -0.024441183 -0.10360987 0.10674734 0.18695809 -1.5562539 -0.40714508 0.95174676 0.27652636 0.36465263
RRM2 0.030121662 -0.02949006 0.1599957 -0.38224792 0.48951346 -1.1302146 0.28101635 -0.33531195 0.36528823 0.23921564 -0.10330858 0.00032345197 0.33098936 0.015470478 -0.88197535 0.6380375
ERCC3 0.3516268 0.59943044 1.2544512 -0.7744525 0.0955322 -0.6728077 0.39518008 -0.27169776 0.6594938 0.826105 0.060573556 -0.75130975 0.027819106 1.0764738 -0.5234365 0.56880367
DUSP9 -0.6522942 -0.19696334 0.684492 -0.36472464 0.24255484 -0.07705385 0.8501072 -0.0010007692 0.66597396 0.17336078 -0.06637632 -0.17574924 0.046186473 0.56011355 0.17852424 0.54153925
CCDC124 -0.00927472 0.085955076 -0.96992034 0.0719886 -1.2288569 -0.19687437 0.84835714 0.37341943 -1.2144636 0.7884664 0.20877197 -0.14800648 -1.3103416 0.6798489 0.36484113 1.1951216
RBBP5 0.012771632 -0.7306656 0.038846932 -0.10526389 0.94504476 0.76180583 -1.3349961 -0.22146092 1.2015067 -0.11916968 0.11223375 -0.0074453396 0.12364003 0.16283436 0.28393182 -0.033744305
LAMB4 0.7560659 -0.03236063 0.34431824 0.027885783 0.079902716 0.040417742 0.5686126 -0.0882684 0.23728776 -0.08222461 0.17837149 -0.20264162 -0.1311505 0.55748665 -0.2652186 0.05445769
ACAA1 0.13804594 0.30456087 0.30486974 -0.35452783 0.4233549 0.6281954 0.24899228 0.62318885 0.5104426 0.7275037 0.2871934 0.31916046 -0.57792807 0.12373636 0.24974751 0.06285204
CAMK2B -0.1910529 0.53757554 -0.20763513 -0.44997615 -0.25192827 -0.1553574 -0.41413784 0.06580509 0.34035876 0.72429794 -0.043201946 -0.20836152 -0.535542 0.49193946 0.20886706 2.6906335
PPP2CB 0.26601997 -0.03306442 0.22839051 -0.61657584 0.15514465 0.22960106 0.36528084 -0.023826554 -0.9813299 0.40297356 0.38043708 0.5801299 -0.14732884 0.24608777 0.13470232 0.37056178
PDE7A 0.17150435 -0.079714745 0.07070481 0.014046891 0.16560122 -0.00060581055 0.94591814 0.18242422 0.092277616 -0.25859067 -0.28008088 -1.3168722 0.38300443 0.46724153 0.14687651 0.38860035
TRRAP -0.027530503 2.2445917 0.33587548 0.3325585 0.22077279 -0.032242652 -0.84331477 -0.058068093 0.9105962 0.106019825 0.8128044 0.06933921 -0.080997474 -0.11819108 -0.6410682 0.22313479
NSF -0.6476437 0.0014323761 0.31551167 0.09262575 0.14415152 0.273793 0.5637885 -0.0022532847 -0.14193656 -0.5839089 -0.14460593 0.1565029 0.06967613 0.28134394 -0.3765893 0.46851152
NUP37 0.26337427 -0.23396379 0.006510209 0.18673813 0.34947497 0.13262899 1.3445199 -0.028294262 0.5942269 0.3403967 0.40275085 0.088607445 0.21056482 0.17993927 0.54330343 -0.1562071
PCYT1A -1.0626148 0.07155036 -0.62818474 0.87673235 0.5723638 0.027266685 0.5104617 -0.05758098 0.9718072 0.49378207 0.21165495 2.3536706 0.1930438 -0.086822964 -0.6381758 -0.77307695
AP1S1 -0.05145367 1.7570482 1.4012235 -1.3207557 0.3189475 -0.2763594 0.2845761 0.99550915 0.250441 0.5123306 0.12619092 0.31916794 -0.2508565 0.26856127 0.044170577 -0.09477379
CAMK1 -0.65217024 0.6247134 -0.4136028 -1.0567018 0.7520049 -0.45521134 -1.4442872 -1.0832974 1.2791822 -0.019904692 0.062693104 0.0882837 -0.21321067 0.41213712 0.44215617 1.1540169
HNRNPA2B1 -0.01603192 1.4666231 0.4791496 -0.014218835 0.7364582 0.069999054 0.2615929 0.0053185755 0.6054616 0.27676025 -0.07220269 0.005303823 0.5249246 0.15456377 -0.17134939 -0.3488109
KPNB1 -0.068845935 -0.42473912 0.25401762 0.13183223 0.9859321 0.8993458 -0.010016965 0.017447336 0.51987815 -0.20687453 -0.55811703 0.46855113 -0.84802747 0.20278905 1.3986009 0.06538902
ADAMTS13 -0.031134807 0.112235695 0.49203208 0.31655926 0.08297232 -0.012289124 0.44739804 -0.61386734 0.30589563 0.5961771 0.10234943 0.04962181 -0.5576132 -0.24871932 0.19139001 0.6212115
MTCH1 -0.70421356 -1.1420823 -0.98695695 1.6784676 0.12978917 0.016418291 -0.108575895 -0.47718588 1.4687907 0.11801817 0.017723707 0.7404759 0.43881747 0.12804896 -0.77778244 1.1931353
DDX20 0.8659032 -0.9181868 0.5734767 0.3604442 0.81857044 0.6686336 0.34599522 -0.9609436 -0.10818597 -0.97316533 0.3666053 -0.32430893 -0.044066496 0.170163 0.187746 0.45787045
GSK3B 0.05514984 0.07662082 0.4896781 0.083917275 0.02652682 -0.17191498 0.18742986 0.11980839 -0.6780555 0.62484145 0.0251941 0.41346705 0.37489557 0.08641681 0.22525723 0.48623565
BRCA1 0.542788 0.088477805 0.23525332 -0.06022284 0.8859506 0.64734656 -0.56488454 0.04565464 -0.34685874 0.906617 -0.10202984 0.089520216 0.6059194 0.50891304 0.9408784 -0.048659775
GDF5 -0.8076405 -0.108325146 -0.1971947 -0.014388327 -0.15335304 0.0048380406 0.3543875 0.009765672 0.22753492 0.42981875 -0.32509977 0.3086228 0.18503793 1.3360895 0.4263543 0.32862988
MMP9 0.54952174 -0.49651703 1.4686716 0.7845371 -0.23884362 0.19736618 0.44830126 -0.5782641 -0.17769927 0.19578902 1.2209697 0.12980512 -0.14716929 -0.18086906 0.18792583 -0.13071302
DDX56 -0.21388136 0.4926443 0.7052093 0.6463716 0.4505436 0.047961153 0.40461048 -0.16142087 0.26699287 -0.15680483 0.96264166 0.31244057 -0.06424207 0.07126595 0.34562817 0.5528516
SLC34A2 0.7834355 -0.6199379 0.4350566 0.67599916 1.4773139 0.85386056 -0.24429429 0.8785495 -0.0185245 -0.34629402 0.04472239 0.49746376 0.5208916 0.48953438 -0.47760713 0.1423693
WBP11 -0.060662314 -0.02637002 -0.24408516 0.2336297 0.85206413 0.22926416 0.5226193 -0.007674533 0.70143425 -0.0948132 -0.14445919 0.30128968 0.26697883 0.041860636 -0.01903855 0.122409895
NKD2 1.4313135 -0.026433738 0.063677564 0.60284567 0.34072408 0.017431509 0.916851 0.17826623 0.42326158 0.56545955 1.1780789 0.3450917 -0.18040484 -0.3711303 0.47798672 0.43501613
IDE -0.3086668 0.59579253 -0.118756875 -0.31842712 -1.0752214 1.4710864 0.46825248 -0.03515271 -1.5081123 -0.44602236 0.23430817 0.15951602 0.2089861 -0.09252811 0.5178736 -0.1462363
MTMR7 0.39450887 0.16282213 0.42773527 0.1248412 -0.06985238 -0.18156229 0.24861856 -0.3221056 0.55358565 0.8808012 0.09776386 -0.8780874 0.25036648 0.5079031 0.18618013 -0.13342273
EXOSC10 0.4200435 -0.16835824 -0.19009458 0.04034162 0.27058885 0.21715178 0.10319709 -0.025782343 -0.12893511 0.5121297 0.2551624 -0.15597664 0.5214059 -0.30857617 0.18926619 0.3247169
RPS6KB2 0.2889599 -0.2833837 0.58495486 0.92965245 -0.18986244 -0.0036060018 0.46882558 -0.538641 0.22486147 -0.40117553 0.035962485 0.41002303 0.5143101 0.3264519 0.3726566 -0.12474024
AP3B1 0.18601064 0.10502921 0.3800122 0.25351125 0.4267517 0.0033035213 0.3958071 -0.010551647 -0.07701678 -0.497342 0.5852424 0.19972518 0.60963804 0.20715103 0.86721313 0.28660354
ALDH6A1 -0.15314369 -0.74218506 -0.18492568 -0.068648234 0.5577441 0.0734338 0.23603779 0.0557552 1.0804772 0.11954154 -0.07972528 -0.65570575 -0.40590248 0.51472247 -0.94631726 -0.11470491
CTNNA1 1.2179364 -0.054531615 -0.26108468 -0.14199075 0.099157 -0.35255253 1.2731005 0.5528182 -0.40699652 -0.7085795 0.09101834 0.12733288 0.6332795 0.4397297 -0.1910463 -0.18568137
IER2 0.24609211 0.20006317 0.34988266 0.20529287 0.38268095 0.023505324 0.47183016 -0.05879981 -0.15026455 -1.1120943 1.726239 0.027970763 0.43419576 0.13001323 0.32721895 -0.52675945
ADAMTS1 -0.081272565 0.030093107 -0.46624833 0.15743579 0.11100559 -0.21742304 0.82473505 -0.10274989 -1.6221877 0.031361192 0.013269439 -0.04792047 -1.018094 -0.3894187 0.10401194 1.1240162
RASSF4 0.36461627 0.06887531 -0.20605227 -0.11650484 0.4764434 0.24367818 -0.34285104 -0.0002824408 -0.6533834 -0.2189458 -1.147325 -0.12874603 -1.751897 0.24925996 1.1359102 0.0089922175
RETSAT -0.0027974658 0.60087025 -0.2105957 0.27778623 0.5532067 -0.16824816 0.42490673 -0.015910404 0.19343309 0.3131526 0.8855866 0.020005427 -0.15233852 0.5805102 0.22594722 1.5356876
SDHB -0.04171422 0.2858061 0.57513475 0.6318698 0.5928867 0.016293762 0.29851145 0.0035373394 0.41119725 0.30025584 0.16986881 0.69370157 -0.91272056 0.3192352 0.025922446 1.076059
ABAT -0.2810996 2.0032215 0.48825133 -0.06575889 0.8197023 0.37946695 -0.85194385 0.03329563 0.7709488 0.95299083 0.6169102 0.12953542 1.1394594 0.24388257 1.4661051 0.3854803
SATB2 -0.0059099607 0.33599502 0.45528543 -0.017903602 0.8139523 -1.2710733 0.42035958 -0.011725555 0.45127347 0.89818984 0.051608518 -0.9141633 -0.6467606 1.0572988 0.7486578 -0.19413596
ANKZF1 -1.5105948 -0.06005834 1.6769134 0.7302181 -0.20843938 0.11530368 0.28906667 0.19184081 0.2079403 0.522121 0.14004774 1.0914172 0.8246168 -0.11977005 -0.24351974 0.025433639
PTBP1 -0.09554407 0.11546753 -0.12470699 0.034355126 -0.094329014 -0.012438793 1.3888034 -0.78415835 0.3333629 0.35789546 -1.6574352 0.8633441 1.6103876 0.07996221 1.4164737 -0.71836007
SHC2 0.24955265 0.6935568 -0.21112697 -0.26517817 0.19759525 -0.47593635 0.10251952 0.70464736 0.32531133 0.25558648 -0.1582132 -0.33363667 0.034116257 -0.20547706 0.045894273 0.47981793
FNDC4 1.1173106 -0.7010778 0.20419055 0.16436219 -0.041143168 -0.22870293 0.4907364 0.0023941428 0.40071592 0.709231 0.7393878 0.46084273 0.8931897 0.2483419 -0.78439593 -0.12746048
SNRPB2 -0.6236144 1.2541138 0.12028128 0.050980877 0.7109187 -0.011096741 -0.14663535 -0.19780809 1.2736819 -0.2074409 -0.6313871 -0.2699538 -0.19945242 0.056422498 -0.2830925 0.38800365
ACTG1 -0.21753113 0.28695464 -0.12828793 -1.1564217 0.6459678 0.027843276 -0.9114817 -0.793156 0.8381435 -0.88537765 0.24879049 -0.02718745 0.6534026 0.6885299 -0.21368825 0.9565707
NCAPD2 -0.29246238 -0.16375037 0.15521863 -0.43891573 0.88151973 1.5166425 -0.10953455 0.11626735 -0.16357988 1.1085473 0.2925446 1.2158059 -1.901637 0.13076252 1.9742877 -0.24440692
TRPV4 1.1158068 0.026545785 -0.24405572 0.06612533 0.41815943 0.8711531 -0.20335503 -0.4759782 0.22178136 0.64765984 0.7719537 0.48072514 1.5173596 -0.22302443 -0.13511144 0.031064987
ERGIC3 0.35561186 -0.03088479 -1.0764151 -0.14846794 0.7509741 0.69633985 -0.15186118 -0.827102 0.52211356 -0.3441585 -0.27861246 0.11796013 0.36951762 0.16428371 -0.88105255 0.027360085
DYNLL1 0.33442238 0.102180056 0.13110471 0.31763396 0.2926426 0.74757564 0.94117314 0.1811024 0.72189665 0.5289811 0.026727976 0.5272966 0.20725791 -0.7653156 0.3869658 -0.308618
PSMA1 0.005735467 0.25831336 -0.34926334 0.9497486 -0.9811284 0.4117371 0.5584459 0.26532957 0.12851457 -0.32048506 -0.7156272 -0.55375606 -0.82807934 -0.96577907 0.027195277 0.6342865
UBQLN4 0.044488568 -0.32276827 0.050911006 -0.18674402 0.46686926 0.26566473 -1.5197713 0.0023884475 0.62947226 0.30409223 0.17945278 1.4564582 -0.08493088 0.30069295 -0.83001447 0.20834509
MRPL24 0.3128643 -0.52602834 1.0215254 0.499861 0.95087594 0.25820765 0.22855523 -0.028720222 -0.06727459 -0.15198414 0.34763235 -0.15238175 0.14665958 0.11716535 1.2804918 0.7510708
CYP2C8 0.5105244 0.3924297 -0.042999305 0.07823545 0.6778423 1.0747259 -0.4448325 -0.08173475 0.15643743 0.5615187 0.45372579 0.27024248 0.49901187 0.9423291 0.70630294 0.48355263
RNF150 -1.1412379 0.44731134 0.33178836 0.17144975 -0.32038474 -0.19514474 1.1157846 0.021041779 0.11255448 0.6121903 0.24768211 0.09332187 0.5031655 0.13561672 0.10711034 0.3677208
TRIM24 1.4542863 0.032110546 1.1947768 1.9968394 0.054830365 0.28041148 0.7389018 -0.16788024 0.076210454 1.0566052 0.8618121 0.6323049 -0.12648779 -0.012889426 -0.051429484 1.4302886
ACTL6B 0.39151528 0.16619329 0.33442444 -0.81012404 -0.011311956 0.3687323 0.17111614 -0.0053546852 -1.4668485 1.469674 -0.8790303 0.10854775 0.19372396 0.8845812 0.43221882 -0.15985204
ZMYND11 0.033986576 0.9286923 -0.23247038 0.48325464 -0.3268723 0.02891219 0.5999219 -0.5258603 0.6744501 -1.2821312 -0.3167056 -0.6238398 0.09701468 -0.7463912 0.019636542 -0.059229907
PYGO2 0.1377505 0.07049152 -0.21388417 -0.050014526 0.65113413 -0.36275855 0.7282946 0.048810743 -1.0143361 0.0005860862 0.58620894 0.089008555 0.4239317 -0.15305908 0.35795158 -0.15960014
EMG1 0.10485611 0.031893257 0.5542882 -1.1960368 -0.46209174 0.9611424 0.4941208 -1.1053936 0.10757304 0.3631154 0.111118436 0.18144754 -0.30023006 0.2251753 0.17919779 -0.49452132
C9 1.2860222 0.29184252 0.31610042 0.04685331 -1.0801204 -0.024653286 -0.2616706 0.053629372 -0.97935927 0.5806859 0.87756157 0.3140577 1.3673303 0.17468159 -0.65119207 -0.0046430593
RPL23A -0.9183791 0.014286904 -0.99693257 0.12711003 -0.0047936565 0.045067724 -0.17868033 -0.7829479 -0.182722 -0.103368886 -1.1116129 0.38496056 0.1344297 0.9445478 0.39636272 1.8645501
NCBP2 0.18453759 0.3487019 1.2755706 0.27490607 0.24543644 -0.0094233835 0.1719976 -0.47358692 0.35390934 1.0208197 -0.03170672 0.026891463 1.1546602 -0.027305052 0.6186523 0.30234262
MCM3AP 0.09712532 0.0056277923 0.91209364 0.38369513 -0.48460326 -0.0134174405 0.40326712 -0.0021948908 0.040346865 -0.2303279 0.71799195 -0.13700433 -0.17935401 0.31139392 0.44391418 0.43284807
SMC2 0.25035626 1.0829849 0.51060593 0.3194894 0.042646855 -0.00079035753 -0.11196335 0.022757888 -0.28096884 -1.287137 0.33839682 -0.0028927068 0.11504248 0.18560445 -0.23031412 0.34608093
ENSA -0.10108714 0.5417417 0.156213 0.48115188 0.1441234 -0.11487506 0.41167542 -0.005709663 0.13064279 0.16600862 -0.029610045 0.13357642 0.9513736 -0.2681946 0.4049905 0.3589886
CYP2C9 -0.3053012 -0.30863664 0.37565058 0.04696324 0.3589127 0.090350024 0.23313253 0.63751256 0.23892756 0.0055490355 0.103131756 0.25944194 0.48761544 0.3911628 0.3508806 0.31261218
SYT13 0.23841469 1.1576953 0.28514802 -0.025961777 0.83179086 0.24284458 -0.9649015 0.64893854 0.23823918 0.6443116 1.6353737 0.008672671 0.45770028 0.21798429 -1.0524037 0.68710005
FAM91A1 -0.50531477 0.5585598 -0.2985276 -0.15279359 0.39770538 -0.0027689354 0.07340991 0.023118185 0.45240915 0.41335106 0.061717935 0.10351096 -0.1593225 0.078217134 0.3145241 -1.0696266
PRKCG -0.36974463 0.029365392 -0.18947679 -0.66416293 -0.41015583 0.36288247 0.42529577 0.0013741567 0.3628193 -1.244039 -0.11585422 0.7037397 0.111078165 -0.028867224 0.044745073 -0.11331445
BZW2 0.037928816 0.2154987 1.4077761 -1.5207034 -0.0153730735 -0.034795586 0.31537062 5.3863507e-05 0.14721085 0.45007393 0.055198245 -0.04629213 -0.08192152 0.98734546 -0.08321185 -0.9605136
CENPT 0.57117355 0.70639944 0.4557613 -0.21615276 -0.7545507 0.00094766635 -0.0066661458 0.0030451636 -0.51547706 0.81542313 0.29064795 0.115874544 0.42282784 -0.7629524 0.124293685 0.33435765
HPX 0.049603086 0.15600842 0.39352736 0.07357305 0.37229818 -1.0964073 0.17314807 -0.0022065483 -0.6116282 0.05918972 0.025727004 0.32643723 0.50161105 0.10566968 -0.19136861 -1.3440592
MLLT6 0.20478362 0.35417205 -0.5090055 0.14400484 0.3796643 0.02390133 0.1831969 0.007496849 0.98646456 2.067308 0.28707618 0.9584983 0.20271417 -0.53227854 0.7470541 0.2816435
MAP2 1.1623904 0.4059288 -0.42803395 -0.026528578 -0.11966503 -0.024000552 0.3530603 -0.12390875 -0.60235393 0.513849 0.075777195 0.70768183 0.6925468 0.14557564 0.31481084 -0.12843132
ACTR6 -0.5338071 0.18550484 -0.50455105 1.3558234 -0.1416421 -0.17338943 -0.15648139 0.039430633 0.50151557 0.14173932 -0.4419935 -0.4335672 0.34799138 0.46550366 0.024931729 -0.92918956
MT2A 1.3127874 -0.049160857 0.49715477 0.13353421 -1.2808684 0.021111947 0.36800244 -0.0016197948 0.57697845 -0.23792425 1.2595073 -0.8551791 0.9527784 1.4164951 -0.05268801 0.3005885
ATF2 0.12982613 -0.26035187 0.17656898 0.018804077 -0.088118024 -0.26569864 0.2812817 1.4468842 0.7550949 0.92153716 0.112330206 0.32019997 0.22086914 -0.32094166 0.3343022 0.2991229
GNPAT -0.30425218 0.9521608 0.50980544 -0.6874074 0.36301905 -0.21627212 0.17259753 -0.0031368064 -0.15899551 0.24225771 0.0035356656 -0.5205427 0.20857765 0.331787 0.2559278 0.3904007
MYO5A 0.20251511 0.28963992 0.083370216 0.0319105 -0.44808164 -0.0026345223 -0.19952428 0.0047972105 0.77313095 -0.086282864 -0.030210644 -1.0997665 0.66755855 0.26221246 0.018242957 0.25049382
GGNBP2 0.25761652 -0.9901222 -0.36806902 0.7275666 0.4797011 0.6904745 -0.23404585 0.02485493 0.5824165 -0.03900221 0.31660834 0.6634578 1.3757915 -0.43272367 0.23114176 0.7307409
POLE3 -0.031645376 0.6691951 -0.09267736 1.1599728 0.4095605 0.026018132 -1.0963992 0.12825975 1.3385445 -0.034172904 0.020789929 0.47991535 0.35344398 -0.023626804 0.13799632 0.7376249
FCGR2C 0.19877352 0.8343259 0.3184838 0.3684252 0.56426895 0.44143403 -0.11278643 -0.05846571 0.025434831 0.65961 0.2656619 0.20758237 -0.35065097 0.09580463 0.27619335 0.519346
GRB2 0.30881208 0.11635286 0.37499395 0.96609294 0.8588812 -0.007574101 0.67816335 -0.0021620253 1.011809 1.0935831 0.57403374 1.0034909 -1.8607676 -0.13220508 0.21477227 0.29973772
MAPK3 0.15591533 1.2003651e-05 -0.023719074 -0.05595034 -0.7202638 -0.04000793 -0.3507155 0.08606014 1.180381 1.1234156 0.07813807 0.10068885 -0.10867325 0.7345181 0.3605524 0.2587259
CLIC1 0.047279336 0.0035179572 -0.2831552 0.007141737 -0.07977514 -1.602149 0.4455564 0.19346789 -0.8255978 0.18770397 0.551766 -0.011013179 0.10739983 0.95937586 0.32446137 0.49286976
NGFR -0.06893757 1.4170822 0.55719495 0.8278532 1.1624799 -0.026757898 -0.023763718 -0.03148156 0.85210824 -0.16499941 -0.08570286 -0.083127126 -0.060110316 0.22097856 -1.4581513 1.6629472
CUX2 -0.55896485 0.046446778 0.22835176 -0.35201752 0.45420307 0.2402 0.321538 0.0046735164 0.25531113 -1.8746736 -0.18677536 -0.0060846014 0.24882528 -0.42061478 0.8811758 -1.1405448
GOLPH3L -0.005358839 0.0010029915 -0.15599917 0.1631576 0.29713693 0.0029012763 0.37624097 0.004463834 0.11279836 -0.52640986 -0.17957118 0.17263721 -0.7949962 -0.18179648 0.11261872 -0.16527927
CDC6 0.22223102 0.24546261 -0.17231062 -1.2942911 0.115692735 -0.02725231 0.57225925 0.01112514 -0.08800914 0.7241809 0.8970774 -0.037525322 0.35127398 0.5221622 0.31034282 2.0983553
ILF2 -0.29609814 0.5908114 0.47019458 0.4469534 1.8645083 0.019775685 0.10853317 0.9034373 0.48321468 0.37386698 -0.37891716 0.50487685 0.17326365 0.24093807 0.4179562 1.2618388
TGFBR2 -0.15535764 0.42232648 0.65530056 0.48434177 0.14324449 -0.26413622 0.25751704 0.22646257 -0.13976444 0.19489151 1.2133778 0.6371634 0.34123737 0.269314 -0.03410663 0.45389956
RCAN1 0.9042205 -0.050323237 -0.24041764 -0.009664509 -0.002803093 -0.16399702 1.4251368 0.037297517 -0.13489243 0.31837827 -1.2633202 0.02405203 0.6532762 1.2883161 0.5585489 -0.044853058
GEMIN5 0.06703704 1.6635109 0.5672164 -1.891598 -0.16021763 0.56669426 0.34471962 0.2804828 -0.6468572 -0.28619504 0.016645428 -0.6013729 -0.85017395 -0.026150778 0.29661936 -0.90860844
DVL1 0.22458288 0.12634215 0.5237275 -1.003166 1.0427657 0.023375606 0.02445681 0.0013204403 0.24115464 0.09084926 1.0082686 0.54972446 0.0027978928 0.85567427 0.5122181 -0.051804308
FZD5 -0.6392447 -1.057666 0.52717465 -0.025443418 0.7359989 -0.051104568 0.4424892 0.21581553 0.3784738 0.6839171 0.33256605 -0.5544251 -0.07979637 1.6679466 1.0201943 -0.25875512
TMEM106C 0.31062672 0.05083746 -0.9107262 -0.009639811 0.067950316 -0.06828271 0.3224981 0.4224483 -0.4337203 0.3754184 0.35453597 0.11297782 0.4925316 0.015683597 -0.16365664 -0.09096732
FOS -0.028110225 0.43898988 -0.11014973 -0.5047921 0.17004456 1.0113096 1.7763424 -0.11435977 -0.30182588 -0.7074849 -0.2273747 -0.13757716 0.7136422 1.4088559 0.42645693 0.02593213
GCHFR 0.09516742 0.17136797 0.658822 1.5847276 0.58597153 0.5631607 0.40068623 0.26994812 0.33166546 -0.530978 0.059592832 0.18245225 0.065835975 -1.1395304 -0.10533285 0.7774864
PARD3 -0.6291009 0.3632597 -0.8214147 0.052223388 -0.4423606 -0.010953519 0.32267705 0.31318387 0.2814742 0.8684519 0.2092311 -1.4362969 0.21904306 -0.21179307 0.153346 -0.19345894
GMPS 0.0006791542 -0.09826939 0.4819699 -0.64943135 -0.016948937 0.008797819 0.56139517 0.0053412737 -0.41703552 -0.0579898 0.8659595 0.08889639 -0.12998515 -0.16925853 -0.44379905 0.18883602
ADRA1A 0.49546677 0.19377762 1.3323832 1.6242148 -0.18086775 -1.0454289 0.2950865 0.39918524 0.33349302 1.1288 2.2285569 0.32415155 -0.51613474 -1.0922982 -0.14832841 -0.17740148
CHKA 0.12023567 -0.13775493 -0.49923864 -0.017685562 0.9869798 0.36712304 0.012844079 0.5020428 0.2219039 -0.13667616 1.2322478 0.14397243 -0.4265946 -0.40341583 0.18729779 0.72371
NEK2 -1.8503827 -0.6370676 0.9204643 -0.029612837 -0.36289975 0.90017426 1.1755527 0.2389876 -0.5626052 0.27433082 -1.0994487 -0.6210649 0.2772823 0.047405288 0.3023303 -0.076079085
MTHFD1 -0.088959 0.059068162 -0.15465198 0.01644793 0.30338648 0.3197805 -0.45437324 0.00086118234 -0.33566183 0.7914199 0.23359509 1.2605035 0.003529925 0.17570615 -0.20907137 0.20004658
CDC23 -0.21346459 1.2864788 0.66654205 0.24293995 -0.11013777 0.005835781 1.41048 0.041866556 0.090598404 0.525481 -0.44543406 0.1388078 0.08562304 -0.6504546 -0.18467832 -0.29865894
PUF60 0.09524708 0.76330096 0.5497203 -0.2986526 0.44707608 0.21844335 -0.17548513 -0.06578138 -0.54507536 1.5838249 0.2513649 0.25234583 -0.13769223 -8.312863e-05 0.749197 0.3938669
ACAA2 -0.04756619 0.63234437 -0.8056384 -0.011958197 0.008591484 0.013873088 0.01610199 -0.050225165 0.6241124 0.95489097 -0.81584525 0.9895741 -0.13263434 0.08754367 0.426449 0.45404187
RALGAPB -0.91264457 -0.00275406 0.22991277 0.22574273 0.28403628 -0.2671253 0.3713911 -0.48844132 -0.09750087 0.095061764 0.24927683 0.7177972 -0.2540046 0.049246266 -0.86790645 0.26205006
BDP1 -1.7260091 0.4111787 0.15144691 0.2797759 0.46317515 -0.012377867 0.368902 -0.4512684 -0.1414603 -0.9509193 0.41466245 0.092990816 0.88872844 0.6478001 -0.12551385 0.55669004
WNT5A 0.23079406 -0.021388108 -0.14052318 -0.3486008 -0.71210724 -0.43612698 -1.1818604 -0.011055573 -0.28638074 -0.17553763 0.3503991 -0.024005735 0.69417375 -0.6615711 0.2304045 -0.21144049
SMC3 -0.4145948 0.22816193 0.5892127 0.124703705 0.33649486 1.2050313 0.27779958 -0.031190867 0.18556933 -0.12447431 0.4725038 0.6420004 1.2894909 0.30115634 0.7958498 0.49928087
BIRC5 -0.17340481 0.6543408 0.28042912 -0.038497817 1.5377686 -0.17701463 -0.35603675 -0.282998 1.3188218 1.3196783 -0.07467749 0.4228232 0.80087787 -0.3350226 0.77335024 -0.09624324
HHIP 0.13253108 0.15952599 -0.13318121 -0.025994975 0.2054281 -0.15985203 0.13143174 0.29825005 -0.84002274 0.51662046 0.23535623 0.23902315 0.6448496 -0.099043585 1.735312 0.0855539
PLCB1 -0.5059609 -0.04733629 -1.6146188 0.641473 0.38944083 -0.020585649 -0.22384647 0.007878152 0.86206347 -0.8611868 1.8177536 0.41726756 0.76181585 0.9807551 -2.100001 0.3053971
ECHS1 0.47456393 0.017131228 -0.38971946 0.7977328 -0.120093904 0.68534344 0.22347037 0.57398605 -0.15390037 0.30010977 0.23410212 0.27173343 0.2682087 0.08409543 -0.13105132 0.07245099
NUDT3 -0.35067004 1.5857021 -0.77566427 -0.049864113 -0.08724931 -0.032249816 0.07726211 0.000401736 -0.42086184 0.4718533 -0.113577195 -0.6347312 1.300912 -0.06927295 0.6184322 0.043580066
