HNRNPC 1.1962285 0.8603096 0.5291268 -1.1900605 0.058383223 -0.4007531 0.54807526 -0.70956254 -0.13814655 1.5140727 0.45101452 -0.5780279 0.0031413012 -0.031253554 -0.07278853 0.2780734
UNG 1.005735 -0.04503617 0.048075534 0.5881588 -0.1654135 0.4115742 0.4049026 1.2330736 0.71051925 1.0440729 0.7650197 0.8306831 0.22453359 0.4773704 0.13365217 0.85589796
SERPINE1 -0.55741686 -0.23463994 0.37490833 1.2271311 -0.047668673 0.108520135 0.5347693 -0.10637555 -0.7465856 0.45112845 -0.15408729 -0.13082722 -0.43457955 1.5452766 -0.4665217 0.05330535
GAB1 -0.18710032 -0.16683356 0.2901596 0.57786745 0.02358868 0.6719118 -0.26358274 -0.1268225 -0.72490317 -0.030058641 0.32569647 0.5723193 0.3333672 1.369533 -0.47033468 0.82586384
GSK3B 0.8232446 0.50676125 1.6568034 0.6489104 -0.068665184 -0.021074846 -0.3253107 0.8194539 -0.051651835 0.5747964 0.6877838 0.08818885 0.25904208 -0.089636914 -1.2896705 -0.1831485
AATF 0.086596474 -0.15012686 -0.55095184 -0.10263519 0.10354808 0.02185583 0.6175026 0.24039273 0.11846682 -0.103610106 -0.27079907 0.46127477 -0.9112631 -0.29976964 0.7837384 0.077783294
POLD1 -1.6319138 0.4146886 0.44479018 0.4168046 0.2583803 0.05572437 0.6825265 0.26575664 0.49176717 0.24469465 0.09792658 0.3744185 0.031831756 0.72887635 0.17077792 0.32798943
EXOC4 -0.58086956 0.38007563 -0.08389103 0.22870113 0.38336477 0.16842513 0.10690151 0.22217007 0.16933772 0.053292926 0.2587429 0.4325483 0.52170867 0.3012043 0.43986258 -0.033067632
ELK1 1.4403846 0.67371464 -0.68916976 -0.42287043 0.4659454 1.2081045 0.61899674 0.51175493 0.5200247 0.18248923 -1.2053603 0.7116431 -0.32952982 1.2199663 -0.20244317 0.51819956
UGDH -0.29743508 0.47518498 1.1862227 1.0886179 0.45992517 0.0077038733 -0.12538539 0.4904016 0.25469744 0.9232825 -0.04395032 1.1341422 -1.5640706 -0.08167218 -0.28837034 0.5045595
VRK1 -1.0483105 0.59966916 0.57985157 0.06794229 0.415342 -0.12913378 0.80207527 -0.31114104 -0.73229706 1.0272601 0.8185536 0.18365015 -0.681929 0.5561283 0.47144243 1.5504334
PCNA -0.040231258 0.32252634 -0.15588863 0.39989585 -0.32421786 -0.74918425 -0.47100684 -0.013912402 -0.09248389 -0.7145212 -1.0875199 0.3052184 0.48476794 0.012349716 0.45633993 0.055999484
ANLN 1.0805097 -0.1376023 0.48706165 0.12296576 -0.3414971 -0.0036385127 0.7497564 0.8647557 -0.027610803 1.7027472 0.24582233 -0.25719124 -0.012057356 0.6144788 0.93606234 0.5462103
TAF2 -0.1849918 -0.22286189 0.05364253 -0.06579514 0.52829397 0.016130628 0.42623627 -1.4181998 -0.009720293 0.99009514 -0.8993976 0.8120434 0.124428615 -0.038393043 0.6247875 1.1908691
CENPF 0.0044362997 1.1517974 0.19164845 -0.30262896 -0.05135161 -0.0029768315 0.5294119 1.3428453 -0.016607117 -0.16465993 -1.1662894 -0.30995584 0.024291847 0.16481194 -0.058892693 -0.023293667
ADSL -0.26206434 0.10872362 -0.006506188 0.305574 -0.16233474 0.040886708 0.13115552 0.9589753 0.7281723 -0.06366923 0.58532983 0.28595278 0.054588042 0.37690377 -0.022020457 0.03893037
TUFT1 0.003044049 0.454334 -0.6888012 -0.8419664 -0.69036496 0.0042348006 0.15372849 0.45905012 -0.8334063 -0.06876939 0.31163388 0.27052283 0.83533496 0.113919035 -1.1593089 -0.04385896
CYP39A1 -0.540582 0.42087215 -1.6540227 -0.01613244 -0.057258792 -0.12586243 0.9554049 0.24494854 0.52227664 1.4001343 0.24254121 0.5133116 -0.040383592 0.70564246 0.71665794 0.6405961
KDM5B 0.2647644 -0.23058417 -0.05059453 0.030984761 0.47643292 -0.036569342 -0.16872135 0.27379674 1.2899187 0.46347058 0.5598265 0.45607612 0.32769644 0.7606595 0.8376965 0.22137362
EIF2AK1 -0.05412799 -0.07131843 0.2823318 -0.18233731 0.7209674 0.6569982 -1.4307245 -0.521225 -0.04687124 -1.2389197 0.41255334 -0.24056144 -0.07261539 0.30038482 0.92325795 -0.21063107
NUP153 0.021014823 -0.12250001 0.551065 -0.6247823 0.53906524 -0.009443658 0.5491401 0.3718771 0.16395377 0.38418442 -0.85664403 -0.2220413 0.04948476 0.13661587 -0.028905954 0.40440214
ATOH8 0.38451213 0.2711016 0.34108946 0.4842139 0.17534487 -0.073033266 -0.09747046 0.36231577 0.19697227 1.1129912 0.35571942 0.59739965 0.432234 -0.15269323 -0.03283909 0.15743762
HPX -0.24422374 0.5260565 0.38506788 -0.4112001 0.3558768 -0.24828689 0.15887128 1.4510506 1.4023423 1.4670737 0.4874089 0.22721782 -0.9122059 -0.06664256 -0.102441035 1.3783082
SMG5 0.003598663 0.3277306 1.629093 1.3414402 0.3755172 0.024785504 0.3037524 0.4247737 -0.004543336 -0.41376185 -0.5222547 0.26095766 -0.04869416 0.43929726 -0.085909694 0.14833067
PRKAR2B 0.009219068 0.3892246 0.19244345 0.21629204 0.92509353 -0.18676491 -0.067537904 0.27888817 -0.20149879 -1.5784383 0.09945937 0.54159737 0.49796405 0.28337 -0.0580835 0.21527413
XPO5 -0.0071992874 -0.26099595 -0.14630908 0.17625631 0.63090295 0.13869366 0.21219344 0.37032682 0.30351824 -0.69247484 0.54282886 0.641082 0.110985346 0.14485921 0.08346761 0.2724974
AKR1D1 0.116301894 -0.4681073 0.033458423 0.36224255 -0.032871094 -0.008624362 0.20346929 -0.8220359 -0.059897713 -0.119559534 0.46722096 0.36764112 0.57997805 -0.12938003 -0.035102233 0.19576895
AGTR1 -0.04071147 0.67473227 0.044870112 0.9179719 0.3670532 -0.015232063 0.53518015 0.5859793 0.06274959 -0.5680664 0.4872025 -0.39157286 0.17141762 0.69950175 0.444246 -0.12117521
PLCD3 -0.60121953 0.20697689 -0.24240619 0.35650444 0.090176255 -0.33670408 0.011244001 0.43558532 1.1636325 0.52390283 -0.07274965 0.06885862 0.06740386 -0.23315603 -0.4244825 0.52580374
NOSIP 0.45718113 -0.022664394 0.05388392 0.326835 0.44229445 0.75304127 -0.5423826 -0.59097964 -0.35831663 0.0005397366 0.44399518 -0.22375579 2.3694065 1.4802883 1.6073397 -0.37563562
VIPR1 0.8410725 0.41321826 0.15106986 0.08381667 -0.10539169 -0.056379166 -0.8086106 -0.27705118 -0.07079021 0.86900514 0.19771864 -0.3198884 0.16506433 0.13546571 0.20762673 0.045869716
DCTN2 0.4966543 -0.087305255 0.13273734 0.3789806 -0.1879454 -0.099363334 -0.45719695 1.3413897 -0.2676794 -1.6133895 0.9534371 0.364649 0.48845896 0.044843614 -0.023162559 0.014671965
TRMT6 -0.48003373 0.5015959 -0.0008500675 0.09149975 0.9359857 0.009133094 -0.088397175 -0.20920373 0.18997796 -0.05424586 0.05931819 0.20082106 -0.9428142 0.2599957 -1.036163 -0.075938106
KDM6A 0.7940051 -0.453028 0.33803895 0.35996872 0.4907771 -1.7437056 -0.6735912 -0.1893499 0.17533688 0.4612807 0.92639506 0.11684062 0.7241497 0.08583649 0.8102761 -0.02877646
CDC20 -1.0739157 0.14793815 -0.52387667 0.73797673 -0.07257932 -0.2678579 -0.21129791 1.1418251 1.448298 -0.41790727 0.6474418 1.2614869 -1.2463968 0.07164359 -0.20131941 0.13256572
GSPT2 1.1123726 2.010223 0.15844317 0.4063129 -0.053310852 -0.057281896 0.48389035 0.05484523 -0.08808062 0.6656926 0.87568694 0.015318883 0.30775195 -0.09213054 0.1403158 0.2253505
NRF1 -0.25862288 -0.41694918 0.2632217 -0.24980214 -0.9694462 0.035774358 0.20582236 1.5949059 0.08124329 -0.432959 0.43579903 0.4399682 -0.00055234495 0.41126257 -0.43299803 -0.1448367
GSTP1 0.0263017 0.142515 0.2840789 0.3853226 -0.18731643 0.008563884 0.61375076 -0.31291494 -0.011474013 -0.40213907 0.47820807 0.36074728 0.14936927 0.43202716 1.2926993 0.07335004
SMC3 -1.0241901 1.7486392 -0.2765686 0.32782802 -0.040433776 -1.4111004 0.83160913 0.1326777 -0.14253554 1.1336486 1.0475934 0.13229427 -0.037547622 0.42717734 0.5602203 0.70536405
IMPDH2 0.009689104 0.29012883 -0.13821217 -0.007266922 0.39061707 0.1959729 0.38950074 0.07340708 -0.33110768 -0.07671245 0.3715043 0.7954099 0.0780028 0.7674883 0.17652723 0.19789174
CYP2A6 -0.514904 0.23958501 1.3452057 0.38633472 0.467402 -0.18825613 -0.40785438 0.46307805 0.115248375 0.42236632 -0.57366765 1.2606553 0.005493456 0.018390127 -0.14012927 0.0025699742
HNRNPK -0.04027771 -0.16477896 -0.08345525 -1.2822517 0.43583438 0.3757441 0.4820429 0.33632493 -0.26222107 0.34535724 -0.24180472 0.34946623 0.04064632 0.50045073 0.57654214 -0.8068836
CKS1B 1.4252375 -0.71008676 0.54462725 -0.39107826 -0.09970344 0.22128092 0.55173093 -0.038972646 -1.9275653 0.029870283 1.0339689 -0.8740929 0.62412286 -0.024619691 0.35956097 0.43329158
FARS2 0.33898777 0.37288243 0.33988696 2.1749089 0.04463122 0.52656704 0.5668275 0.9991503 0.078557216 0.08687746 0.74489635 -0.1489524 -0.36657685 2.428413 0.8533835 0.48079312
MED24 0.05403461 0.24037066 1.0640229 0.8887193 0.5787265 0.6287359 0.07842948 -0.28414553 -0.5747264 0.48565727 0.13786393 0.05759321 0.20979309 0.30952367 0.5667638 0.78984064
LRP5 0.39082655 0.18753015 0.7837557 1.6796114 0.24384788 -0.014834261 0.16183753 0.23607747 0.16540657 1.1532359 -0.46430737 0.26537776 0.16942947 -0.6622647 -0.6237077 0.41692188
CDKL5 0.03233397 0.08889467 0.4769331 0.9350614 0.43056312 0.20227374 -0.19028023 -0.6807349 -0.009038264 0.19344991 -0.5435189 1.4126428 1.3325155 -0.23966962 -0.41523868 -1.360164
MMP9 0.81274396 -0.19363801 -0.8549349 0.21937652 0.72398454 0.8228146 -0.060740616 2.2302577 0.35773203 0.34602326 1.2828431 0.32697028 0.20427704 -0.7554996 -0.10313446 0.18048264
ABAT 0.024807254 -2.1921988 -0.6273159 -0.5571273 -0.03692099 0.120279305 -0.13165289 0.1442678 0.05609173 -0.10459581 -0.075422436 0.44843853 0.22249146 0.5325014 -0.16516304 -0.24263453
LOXL2 0.09470546 0.33517703 0.3308397 0.97717804 -0.033390652 -1.5928262 0.65384096 1.3576839 -0.05637352 0.20322357 -0.7164728 0.26854125 0.119547196 0.9452601 0.28159466 -0.024347015
MAP3K1 0.16083309 0.48887888 0.3574739 -0.60810757 -0.061551534 -0.0062913597 0.41830438 -0.41881484 0.04904456 1.0856335 0.3007229 -0.25021666 -0.03393987 0.16614105 -0.47725698 0.642451
GJB2 -0.32135624 -1.1490003 -0.029417984 0.22649132 0.20194766 -0.37887064 0.27275625 -0.2865273 0.93910074 0.12946981 -0.30266652 1.3638986 -0.8598386 1.4148002 -0.18026415 0.22802138
PHACTR3 0.13041836 0.41951045 0.15252747 1.0967228 0.06214366 -0.0036384878 -0.4733248 -0.00948929 0.07245442 0.05856597 0.39937922 0.34761536 0.26325145 0.5154152 -0.02663596 0.05170472
WRAP73 0.040819682 -0.22872393 0.98854655 0.6662783 0.4947105 0.40752503 0.85587573 0.35597572 -0.64323795 -1.4483489 0.14032373 0.3302634 0.17630221 0.7271459 -0.019717976 1.1437414
CSNK1D 0.048919067 -1.2644098 -0.80370265 -0.031130182 0.6109694 0.03470135 0.5055745 -1.4729205 0.037744157 -0.06740813 0.9009324 0.7677382 -0.46976197 0.21378481 -0.27811998 0.9858419
FZD3 0.7201147 -0.50140643 -0.5196926 -0.44749337 -0.7260339 -1.6084067 0.70669687 0.20338121 0.16574647 -0.10521399 0.67100435 0.8129542 0.53297335 0.13611977 -0.7286048 -0.09873454
ACD -0.20588577 0.05319938 0.42083666 -0.2491509 -1.4458743 0.25282 1.3311797 0.66352695 -4.3305678e-05 -0.15697415 0.24212171 0.10435784 0.07036773 1.1901985 1.191926 0.01743878
C6orf62 1.1913667 -0.28205535 0.37907377 -0.16265574 0.56888837 -0.18062755 0.30456755 0.41896984 0.31333607 -0.29561839 2.0981793 -0.122062184 0.49220806 0.66826755 0.54294074 -0.27793354
AOC1 -0.018741306 0.19281735 -1.3449622 0.25029132 0.0769889 -0.031404816 0.25919393 0.2417293 0.40072316 -0.23273215 -0.53111994 0.48638052 0.008021412 0.23337552 0.6016654 0.084794976
DDX55 -0.021791289 0.27826345 0.041802786 0.2551962 0.20589724 0.00018430801 0.65257996 -0.08833262 0.010107097 -0.5153839 -0.036154736 0.31466395 0.04321359 0.957716 0.10137795 0.073827
SORL1 0.012221025 -0.14874025 0.13555731 0.13100205 -0.049850073 -0.032617677 0.8307373 -0.23243278 0.10526468 0.4790922 0.027286673 -0.23936911 -0.03392804 1.5913547 -0.14564118 0.38458985
SCAMP1 0.20246932 -0.84816676 0.54266816 -1.9821773 0.027042637 -0.09906949 -0.7339473 0.19137754 -0.024736736 0.4657412 1.3633786 -1.0368804 -0.4999495 0.20838152 0.3880285 -1.3928006
LPP 0.4724185 0.27091208 0.13665526 -0.113883555 0.15593727 0.2133815 0.045058966 0.1885742 -0.31946725 0.012483323 1.5429077 -0.08290532 0.63327783 0.7915276 0.58345693 0.006934182
GFOD2 -0.0029620077 -0.029595742 0.18316613 0.33698663 0.5054707 0.09396038 0.8493602 0.3080436 0.038875975 -0.17483985 -0.51243365 0.10008647 0.095319815 0.774743 0.20554127 1.0435678
HSF2 -0.5930618 0.38248178 -0.813679 0.34619445 0.0010169148 -0.1606419 -0.8024604 -0.1263872 0.6089968 0.3726189 -0.20035903 0.2335418 -0.5414053 0.44555327 0.021598546 0.27485308
RNF220 0.12327932 0.407899 0.69841 -0.44212753 0.3371633 0.018624818 0.7930177 -0.67868346 0.12963282 1.5597574 0.08043761 0.29771286 0.1975249 0.36935318 0.5888153 0.6205096
ATP6AP1 0.20766282 0.37841618 0.4051432 0.39557278 -0.028920172 0.56046474 0.9011379 0.5810423 0.17365813 -0.14420746 0.5093994 0.08428014 0.2211732 -0.27669486 -0.9091082 -1.6157022
SNX12 0.33327997 -0.14214452 0.37843084 0.98821235 -0.13814682 -0.029258704 0.08569018 0.3416049 0.5717168 0.9743854 0.3851221 0.33798128 0.028303083 -0.23870756 0.07573567 -0.2039437
LAMA2 0.23917966 0.20384079 0.2488518 0.4835277 0.022169318 -0.0006098489 0.79920614 0.6693463 0.037675355 0.3734656 -0.5965596 -0.68553954 0.14538178 -0.5754883 1.3865647 0.0144198015
CASP2 -0.0018277247 0.85841763 -0.20720662 -0.14996766 0.17262124 0.34177643 0.25965738 0.27115875 0.06262171 -0.36630592 0.606813 -0.3605272 0.40139866 -0.30141187 -0.067089215 -0.00487258
SDS 0.27813327 0.17143704 0.80104434 0.6366784 -1.0216601 0.06775436 1.409825 -0.39183614 -0.16873911 0.32229707 0.58375347 0.06429842 0.49093744 0.5039395 -0.05542229 2.9261389
CDYL -0.4814535 0.12221319 0.45266253 0.1581633 0.12150511 -0.1630548 0.76023525 0.124672174 0.17376244 1.8788131 0.090098366 0.25248903 -0.5648681 -0.09628086 0.5683837 0.2124946
RPS4X -0.58919936 -0.03514195 0.15868108 0.7980458 1.6108803 1.0407622 -0.124455005 -1.536019 -0.11417055 -0.5664128 0.1050234 0.09304371 1.2981886 -0.056395646 0.7153847 -0.013870595
PRSS53 0.29915422 0.25334945 0.47102377 -0.30664 -0.2137893 -0.20370565 2.3398309 0.83838487 -0.010864756 -0.24576233 -0.032715548 0.3167766 0.013393968 -0.14927484 0.8156981 0.59850234
SPRR1A 0.4029975 0.28645757 0.43947056 0.5936646 0.5519836 0.058257498 -0.24550349 -0.71306854 -0.28765276 0.3246269 0.642836 0.16931307 0.78797907 1.1297207 0.24623069 0.87241167
AGBL5 0.08710553 0.1796621 0.4837625 1.5380751 0.43774334 0.42091373 0.31315815 0.55757505 0.03431209 -0.18790407 0.16196054 1.6801674 -0.14558825 0.1284599 0.916312 0.121843316
CYP2C9 -0.012711924 0.65616226 0.9754395 0.6251771 0.11180379 0.004662331 0.275424 -0.020541208 -1.1739601 0.2767152 -0.12591565 0.17674634 0.13980496 0.80882484 -0.6160842 0.2013819
TCF19 -0.0607863 -0.6527597 -0.88774836 -0.013675659 0.22369128 -0.5852292 0.6976209 -1.142171 0.84579706 0.6061254 -0.3259327 0.25194535 -0.21597739 0.0051890053 0.26159823 0.3443519
ITSN1 -0.14354219 0.07162024 -0.102165624 0.49311352 -0.17127278 0.32423517 0.5983549 0.61385834 0.048042502 -0.38020766 -0.1625664 0.45146024 -0.07492075 0.13317676 0.17833163 1.7114841
MECOM -0.9021879 -0.21239282 0.13831006 0.63935107 0.5908571 -0.049993686 -0.27381504 0.007964576 1.8044914 -1.0625263 0.50391006 -0.55051005 0.02364747 0.37926573 -0.11896857 -0.47566628
PTPRB 0.015909068 0.17069355 0.5986788 0.3940982 0.35720807 -0.20209403 0.7580848 0.40364465 0.06961041 -0.22496438 0.05748161 -0.091090225 0.09049996 1.1433893 -0.7068437 0.3442874
UBQLN4 -0.0017066445 0.300209 0.19004612 0.66855276 -0.11862223 -0.5458888 -0.2087474 0.84973127 0.005283626 0.08324417 -0.4605046 0.9665014 0.14480767 0.21425845 -0.27880466 -0.033588484
FCGR2C 0.19547223 -0.19549736 -1.4285108 -0.13474622 0.36188057 0.6193748 0.11496826 0.72734046 0.71830314 0.21828088 -0.09415106 0.24237998 0.3335439 0.42832676 -0.025593959 0.006561457
ACSL1 0.088820875 -0.6504549 -0.0030575546 0.054631203 -1.0511646 0.2757292 -0.09005353 -0.46713814 -0.031987507 0.022360243 0.26815134 0.5953856 1.3415635 1.4939833 0.097257055 -0.5276658
SMARCE1 -0.015167167 -0.16421208 0.12722027 -0.5772114 0.4166166 0.08533791 -0.3178817 -0.05248145 -0.43846253 0.12554799 -0.12496012 0.38446063 0.16635987 -0.15124738 0.00073613535 0.11194806
C11orf54 0.1138167 0.75140816 0.18348742 0.99553394 -0.13100718 -0.0048785554 0.0652625 0.18777157 0.0016803106 -0.08279671 0.32869563 0.32724077 0.95663726 0.30813938 -0.06185634 -0.083143026
SATB2 2.1878345 -0.39720216 1.3596817 -0.34640265 -0.7654654 -0.036769424 -0.3162518 0.19319333 -0.3357906 0.796979 1.2074282 -0.5630254 0.84331673 -0.13810419 1.5815165 -0.040871404
EGR3 -0.558151 0.35862413 0.13833669 -0.6939896 0.18302034 0.08131716 -0.05624394 -0.3091494 1.0237162 0.18692465 1.331876 0.21374357 0.4886565 0.7939211 0.35710874 0.14250658
MELK 0.2332507 -0.3871795 -0.30762523 0.09497279 -0.17420325 -0.0010831048 -0.19690152 0.40202788 0.15069224 0.3389154 0.52187264 -0.5188091 -0.15425603 -0.007220695 -0.06033692 0.26800513
ESR1 -0.4099957 0.63503224 0.48423648 -0.28474027 0.19934288 0.013002223 1.5082302 -0.21548082 -0.5229873 0.0814679 0.02996586 -0.103707075 -0.22112401 0.0012442406 1.2780378 -0.7179892
ACTG2 0.06374273 0.026433785 -0.33451706 0.17619006 0.2314014 0.70942587 -0.52088374 0.72573054 0.43322733 0.74654853 0.342685 0.3769324 0.16869977 0.28712773 -0.17895551 0.68381804
CUL4A -0.081679456 0.15201537 1.1970971 -0.05635124 0.42925042 0.7169076 -0.34140447 -0.13765863 0.6751685 1.0768558 -0.34305096 0.3544598 0.26896572 0.09784136 0.069443434 0.106855065
ACBD4 -0.237947 0.21366338 0.039527733 0.4466084 -0.16726737 -0.012130653 0.13782142 0.30276376 0.054267224 -1.0065943 0.37102082 0.847926 0.23142189 0.87410456 -0.33269572 -0.08478404
BANF1 0.20329694 -0.9968237 0.109615974 0.32897878 0.38848737 -0.025202777 0.042210147 0.1831083 0.00058051804 -1.0791172 -0.29856512 0.2345489 0.19098225 0.22387928 0.016232677 -0.03624264
STK3 -0.0077196546 0.56371546 -0.73008585 0.19715919 0.6128289 0.018984543 0.38273022 -1.133607 -0.6889114 0.28097695 -0.08512241 -0.45141482 -0.49553606 -0.8008689 -0.14263467 0.71352255
LBR -0.7831685 -0.31069538 0.9598956 0.49807227 0.57972544 -0.08523306 -0.37617353 0.020132963 -0.36606956 0.4767071 -0.35817406 -1.8699574 0.6911214 0.1068433 0.41244456 0.69057137
BRD7 -0.20521979 -0.20599447 0.0038103838 -0.17971039 0.892081 0.27816394 -0.38275108 -2.1695364 -0.38357845 -0.024824098 -0.1964965 -0.044436216 0.08742616 2.143794 0.9484433 0.35143965
OAS2 -0.2078807 0.4069806 1.4073678 -0.037105665 -0.18563446 -0.007035529 0.044890545 0.11987513 -0.47282273 -0.65553355 -0.2031126 0.6562805 0.099209204 0.39399192 0.3458584 -0.0049729683
RNPS1 -0.098892875 -0.067227185 -0.44327903 -0.54106075 0.0722872 -0.025315292 0.7719109 -0.22787312 0.3938072 -0.38503882 -0.049728904 0.54391253 0.33637497 0.6552119 0.56585705 -0.069880046
DYNLL1 -0.06173297 0.5836321 0.0016818121 0.44185305 -0.12931629 0.44380105 0.46285307 0.8103025 -0.0864952 0.9766251 -0.35511902 0.66997033 0.6652537 1.5410144 0.33262584 -0.32089454
USP1 -0.005957698 0.056018014 0.08593815 0.17219405 0.5866008 0.47546414 0.62299854 0.5499595 -0.03968733 -0.74247706 0.31861386 -0.2815371 0.5772661 1.1869705 0.38960272 0.5913427
GLS2 0.14931625 -0.21841839 0.13986471 0.61967087 0.06380586 -0.010998173 0.6616941 0.36047804 -0.049008355 0.5826618 -2.0715833 0.1774697 -0.02920421 -0.32432136 -0.75046605 1.0176628
IVD -0.20363492 -0.10844076 0.011612205 -0.025911469 0.3148897 0.00476211 0.9983258 0.6232428 0.005318423 -0.37065655 0.32423368 0.13204584 0.23015626 0.83049756 -0.12472629 0.66451806
EFCAB7 -0.003516019 0.30956325 0.0823604 0.274712 -0.6582381 -0.025449278 0.5101292 0.1892188 -0.4675138 0.22787543 -0.40532288 0.38765666 0.048780076 0.40282944 -0.826792 0.04729585
PGM1 -0.029215537 0.33608732 0.23208004 0.43336847 -0.15607987 0.19637282 0.604498 -0.24266745 0.0064770947 -0.44647023 -0.036308788 -1.0007159 -0.23444459 0.5620655 -0.10114178 0.68707573
FRMD6 0.111490406 -0.08877725 0.726323 -0.1888732 1.0336672 0.93624896 0.277782 0.72255886 -0.06856792 -0.17041029 1.0971177 1.3958242 -0.27253872 0.17779692 0.5293925 0.88512355
TGFBR2 -0.014696453 0.30342042 0.36467513 -0.276826 -0.13782457 0.31479707 0.6699972 0.50467557 -0.4558272 -0.6975491 -0.114070974 0.0763591 0.075124085 -0.3489093 -1.8721865 0.09288868
HNRNPA1 -0.27217367 0.2710185 1.3683425 0.72842336 0.39987433 -0.007939802 0.57910824 0.37837863 -0.01001805 -0.65643734 0.540899 0.088492885 0.684994 -0.1934778 -0.6829875 0.41269
TRIM16 -0.3311237 0.43528017 0.44271225 0.6683625 -0.6587487 0.017666114 0.19962177 0.0057487967 -0.124806754 0.1279149 0.08435843 -1.1117597 -0.10778022 -0.26039383 0.7451491 -0.53794754
PCCA -0.080376565 1.0915325 -0.02989675 -1.9801103 0.5296452 -0.033888582 0.56434566 2.3342128 1.3919169 0.10572814 -0.46153733 0.58393 0.0006463075 0.9956788 -1.5205556 0.39654374
GSTA3 -0.010609484 0.35344306 0.1336332 0.3451596 0.28569803 -0.11383499 0.8572069 -1.0698541 -0.025998231 -0.1301085 0.3354911 0.5159298 0.038037788 0.19342181 0.31744003 0.15511526
SNRPD2 -0.2778768 0.0061517074 0.24604675 0.13991033 1.563046 0.30399257 0.26915136 0.70212823 0.3539279 0.10498215 -0.048539966 0.019843942 0.093508616 0.441618 0.09148623 0.5486498
SIRT7 -0.0030722707 1.2686709 0.12922725 -0.15487912 -0.14847441 0.0028392957 0.40382153 -0.116223 -0.0018393553 1.2677729 -0.265213 0.31317815 -0.027950807 0.31606862 1.6135821 -0.050044756
CSE1L -0.8868411 0.4224705 0.23109241 0.18163137 0.2283768 -0.004834169 -0.2006808 -0.84073377 0.42271975 0.29953572 0.7121225 0.18929417 0.20638292 -1.4529511 -0.13954642 -1.3516451
SNAPIN -0.644393 0.41256988 0.22981352 0.12939051 -0.17185542 -0.6421889 0.5323937 0.18141347 0.70245457 0.6862897 -0.87926763 0.036144637 0.034823794 -0.5495501 -0.29401785 0.5843131
MYO1B 0.08128593 1.0330625 0.33335754 0.3576104 0.19083412 0.15263975 -0.20039399 0.5516461 -0.09668586 0.5361046 -0.8930097 0.4132466 -0.065021455 -0.21830083 -0.5993869 -0.18267216
NOP2 0.23437722 0.6417274 0.20808671 -0.8740445 0.8099008 0.005901462 -0.010751253 1.4258472 0.014208075 0.13489865 0.43552467 0.11106957 -0.0043425937 0.19994786 -0.7561443 -0.69090545
MGST1 0.18739821 0.17396195 0.2030546 0.34529862 0.30994985 -0.114847 -0.31070918 -0.10317168 0.7535662 0.9690193 0.3741233 -0.50860786 0.09451649 0.7385934 0.26141775 0.4196038
HAO1 0.012758939 -0.15859087 1.2130524 0.53196716 0.44641992 0.5383777 0.2307483 -0.15055633 -1.0090922 0.38760677 -0.22066909 1.1968936 0.15121359 0.23224574 0.9210523 0.27165797
ARL6IP6 0.584553 1.073072 0.3258953 -0.3020723 -0.17108788 -0.2280198 0.64045805 0.50787425 -0.9343463 0.5701179 0.5588812 -0.0875406 0.17111304 0.2431793 0.06438585 0.46363524
METTL3 0.14147738 0.39650068 0.5567997 -0.101536 1.0782056 -0.0022286316 0.77490884 0.12779702 0.0012011365 0.18942727 0.24242285 0.29995674 0.2997743 -0.32790107 0.41342306 0.6387122
USP43 -2.9330354 0.5956589 1.5749941 0.6795286 1.4125787 0.37243214 0.80282295 -0.37566233 -0.05257959 0.013513625 -0.022303222 0.40463182 -0.010535383 0.5201348 1.1754632 0.64087313
NFYC -0.25455824 -0.2542305 -0.030572161 -0.7099489 -0.008920802 0.79929703 0.23210615 0.9021032 -0.055548742 -0.21059741 0.27781346 0.8853208 0.6811149 0.66758364 1.3775764 -0.026129402
SNRPF 0.16051587 -0.5699387 -0.13043529 0.4744931 -0.0015445624 -0.026281254 0.45315477 0.28270525 1.06709485e-05 0.21957931 -0.9017514 0.0031252757 -0.017795954 0.35824114 -0.16293707 -0.6415099
RPS27 0.09966306 0.1751478 0.33262327 0.46193203 0.23545344 0.000583434 0.32404795 -0.66016734 -0.49735478 0.56520456 0.3172417 0.54690754 0.5122889 -0.43203 0.5415607 0.060213316
GPR158 -0.23101887 0.101373926 -0.26695094 0.09164602 0.24024846 0.35808736 -0.24568288 0.7956242 0.25890705 0.20466435 -0.47315845 0.68452907 0.49519902 0.32203993 0.32941893 -0.062484775
KCNN2 -0.19272451 -0.1921055 0.37520716 0.083995976 -0.19443841 -0.2110142 0.6584823 0.3183159 -1.1018826 0.23466806 0.29895726 0.73503244 -0.28129226 -0.04584562 -0.6538532 0.04809411
DDX20 -0.086326726 0.37698594 0.32695135 -0.0054575675 -0.118036084 -0.026098108 -0.3952218 1.3464361 0.29765418 0.22234735 0.5968224 0.3124054 -0.13532643 0.46167308 -0.16339175 -0.008426737
ASH1L -0.033680264 0.11016558 0.48592588 1.168452 -0.6777992 -0.002646445 0.07509716 -0.29540208 -0.7324929 -0.5163105 0.78243935 0.25600046 0.3559349 0.028952671 -0.083169214 0.35303062
FAF1 1.225035 0.43526897 -1.0548131 0.1488652 -0.041364904 -0.4482735 0.25885373 0.45281935 -0.16436039 0.04589344 0.1805842 0.27464825 -0.6358087 0.15455654 -0.102838404 -0.6565876
SRXN1 0.16955243 0.32549784 0.04373325 -0.18112212 -0.21092576 0.71181333 0.33380443 0.1339494 0.012268247 1.409603 -0.2225434 0.40845227 -0.19705439 -0.5951915 0.61647296 0.2516728
PTH1R -0.56721133 0.20495029 -0.26480782 0.23029155 -1.3520379 -0.23211987 0.56015587 -0.12305708 0.35906157 -0.4178003 0.30992338 0.21595846 0.13255246 0.56065834 -0.20488156 0.064674966
CLOCK -0.050059315 -0.6506418 1.3982389 1.0080545 -0.114786044 -0.96144605 0.8652143 0.6926069 -0.06425082 -0.002144316 -0.28400153 -0.08990891 -0.97313136 0.4074292 -0.045682147 0.47751617
SHC2 0.027974816 1.1032145 -0.957716 -0.07494436 0.036447152 0.32685503 0.46109197 0.5230023 -1.1421589 0.08731857 0.08825155 0.44868937 0.14706665 1.3206333 -0.1932614 -0.57506794
GOLPH3L -0.6108919 0.32392797 0.92617047 0.22600016 0.8541468 0.07687703 0.08415492 -0.045197107 0.6583786 2.2938933 0.013627781 0.19520456 -0.60162103 -0.2888529 0.7426946 0.7773618
NQO1 0.021821527 0.17889816 -0.37417677 -0.14465827 1.5709493 0.4067357 0.37900415 0.15042213 -0.01803247 -0.1841469 -0.8683582 0.6118771 0.015731204 0.7081584 0.19213913 0.44112143
MTMR7 -0.6664236 -0.2096183 0.30053985 0.26183707 0.48812285 0.4264404 0.22856016 0.29322517 -0.14777486 -0.33931732 0.41544142 -0.865162 0.024553409 0.53160423 0.49841887 0.15473382
FBXO5 0.49730235 0.30763534 0.736364 0.17528886 0.030879006 -0.032957762 -0.5578506 2.134662 -0.14043866 0.54175943 0.53840435 0.46324077 0.84958124 -0.23593 -0.046945896 -1.0757977
ENOPH1 0.0045927456 0.40367994 -0.28618562 0.081114694 0.27869192 -0.69101626 -0.039290544 -0.76101863 0.7918199 0.7596345 0.41607577 -0.54249465 -0.17136683 -0.6943104 -0.020215953 0.11729198
ZNF532 -0.16414319 0.39137718 -0.05899705 0.97011656 1.2505827 0.6645771 0.24248591 0.22157742 0.07534768 0.16492154 -0.16152146 1.1184837 0.32203284 0.11257825 0.66738766 0.46082836
COLEC12 0.22924119 -0.19498438 0.8899719 0.46992102 0.13915773 -0.01712809 -0.19510223 0.07999832 -0.47296497 0.02250879 0.43693402 0.23342879 1.0963179 -0.02788105 0.08222461 -0.10559927
ACAT1 0.060780197 0.18841535 -0.09091904 0.010221157 0.44271478 0.5645131 -1.4861358 0.43159047 -0.29682377 0.25827086 0.59368473 0.24557018 0.2998011 0.32819045 0.4486259 -0.12306942
YWHAG 0.95020795 0.110838056 1.1635001 0.12755701 -0.043240648 -0.13216303 0.24116665 0.28144926 0.8439577 1.4157419 0.90894544 -0.16109611 0.3118598 0.36391783 -0.5098669 0.9696597
CPSF1 0.35064793 0.20615476 1.6551356 0.65189725 0.30100515 -0.08691923 0.4056135 0.7538245 -0.100400046 1.5942961 0.52752984 0.2959937 -0.008235116 0.026656376 0.80123013 0.7813933
PMF1 -0.24647179 0.24933852 0.055369683 0.3656522 0.1785924 0.8632026 -0.67406327 0.5603121 -0.14730439 -0.18448138 0.101537555 0.64262325 0.40669283 1.5385989 0.47618482 -0.028199919
CLTA 0.36384442 0.28073427 -1.569598 -0.7731826 1.2185012 0.23193713 0.33715862 0.2454949 0.45413738 0.4757407 1.2772769 0.8909634 0.0747772 -0.42820507 -0.018040461 0.9148305
GCHFR 0.28368086 -0.0339754 -0.31930944 -0.37239015 -0.15153569 0.18888639 0.28802386 -0.24336149 -0.63830185 -0.13243614 0.30378258 0.36700335 1.6838131 0.6974013 0.29249996 -0.06855473
TARDBP -0.51951885 1.2869087 -0.23712413 -0.1608648 1.2733732 0.7482144 -0.28872293 0.8523496 -0.016732853 0.3429795 0.26642722 0.76724434 -0.0015052308 0.09998774 0.007348656 0.0660046
UBAP2L 0.6795898 -1.0067348 0.005690289 -0.13587779 0.10989991 -0.10370795 0.5472238 0.26238072 0.23579866 -0.41339117 1.608731 0.2639416 0.12326993 0.6233311 -0.052332725 0.6369702
ITGA6 0.15212142 1.1127995 1.8942887 0.49274695 0.9646394 -0.012953255 0.12562811 0.21612546 0.62002665 1.0545264 0.4024344 0.28517836 -0.11226895 -0.18409246 0.06389841 0.7726644
BAZ1B -0.005207995 -0.025978437 0.19328023 -0.36526656 0.89338255 0.0077251545 0.61731744 0.12077549 0.007472098 -0.061328623 0.6291817 -0.51605815 -0.02070493 0.41037786 1.4312189 -0.0011046076
WASF2 -0.0006918879 1.5243433 -0.13431461 -0.65080476 0.03867172 -0.0019030159 -0.47480226 0.9456628 -0.0022077675 -0.3756656 0.63925886 0.3056246 8.433088e-05 0.21589233 -0.023161348 -0.023400297
UBE2Q1 -0.020209394 -0.848387 0.12592188 1.578567 -0.07592315 0.17342874 -1.4204079 0.29340506 0.5600993 -0.2642201 -0.221991 0.3750985 -0.3792795 0.8789669 -0.3020464 -0.025275607
ADH4 0.15849514 0.48330075 0.2614146 1.2947919 0.8949093 -0.5410249 0.33324033 0.36035228 -0.0404623 -0.1781172 -0.341645 1.0054619 -0.34285572 0.24436973 -0.071589775 0.20296723
NR1H4 0.016920578 0.043052346 1.0965539 0.45459718 0.82458776 0.049891464 -0.13673376 0.45611057 0.56511563 -0.10483993 1.4733205 0.012598857 -0.66604507 0.43550724 0.045983337 0.10654465
MGST2 0.27075955 -0.14531259 -0.016241979 0.416874 -0.14918874 0.0027941002 0.16685472 -0.70874965 -0.18614638 0.077820145 1.0582556 0.35277498 0.061487816 0.3867983 0.33912548 0.25801706
SRM 0.93707407 0.23034441 1.3041233 -0.32975566 -1.2964244 -0.019686008 0.69883555 0.5412427 -0.028964797 1.1487868 0.6311732 -0.0013170964 0.11516493 0.1625373 0.3700655 0.2526491
ADH1C 0.1545146 0.80018824 0.41641477 0.40348014 -0.27012122 1.0089607 -1.9048257 0.18804279 -0.22595854 0.58285224 1.151236 0.47936523 0.2464439 0.30714026 0.13665354 0.47270927
NR2C2 -1.3518217 0.49801973 -0.13638943 0.11413835 0.64675957 0.35448444 0.2721893 0.36846447 -0.7260105 -1.3407315 -0.29005498 0.5168444 -0.07460866 -0.06778825 1.4222306 -0.1620161
MRC2 0.70799303 -0.0050527854 0.03790999 0.44704667 -0.03445808 -0.034840096 0.0585613 -0.21964416 0.019237047 0.7150897 0.24607955 0.43647286 0.24993905 -0.86908865 -1.0739502 0.13999516
NCAPG 0.0030874924 -1.0394853 -0.98384464 0.21218687 -0.12674795 0.607687 0.45670748 1.2603155 0.068944 0.0424127 0.013173744 -0.49858138 0.09747185 0.105068035 -0.45063445 1.2159058
MTCH1 0.061344203 0.24575913 0.12025003 -0.49856457 0.8891824 0.48063415 0.47308758 -0.08222053 0.43683717 0.4958219 0.09580718 0.5489623 0.029179176 0.7254365 2.2483585 -0.072118245
DNMT3A 1.059581 -0.07894694 -0.15797155 0.6970703 -0.22622427 0.694516 -0.9721034 -0.21586947 0.4472437 0.93971074 -0.64602375 -0.3931113 1.6934733 -0.21339843 -0.15982449 0.067308195
IRAK1 0.22091645 0.21570528 -1.2757357 0.76172656 -0.9340477 -0.01643768 0.53626174 -0.3622506 -0.11414793 -0.24144605 -0.6073668 0.36645645 0.4695348 0.1721101 0.3730639 0.032686215
UPF2 -0.07170871 1.933014 0.087934755 0.06268268 1.0134102 -0.005334129 -0.7442878 0.3981805 -0.059477285 0.24364407 0.415528 0.90657717 -0.308178 0.16269127 0.33463374 -0.0907192
PLAAT3 0.5443095 -0.13163161 0.2724242 -0.70184153 0.06491863 0.061433565 0.3783557 0.37558728 -0.06637024 0.45049933 1.3742409 0.03497019 0.0053350274 0.8495163 0.2395667 0.3734075
MRTO4 -0.6017304 0.3939756 0.6929046 0.42778668 -0.11938289 -0.009847211 0.2043369 0.30382016 0.12130139 0.17834678 0.35686177 -0.10898633 0.19473012 0.4271766 0.09481074 -0.040503252
ACAA1 0.13346663 0.19085948 0.107481346 -0.22493622 0.18133481 0.0039019252 0.5663372 0.058838196 0.014259198 0.19629711 0.28226492 -0.06877271 0.558971 0.38736576 1.1579014 -0.008924951
FXYD2 1.0589435 0.17654853 0.5234335 1.6644554 0.6890546 -0.032755204 1.2774483 -0.42768154 0.07307556 0.8016398 1.6996357 0.6607277 -0.076159224 0.049961083 1.8052571 0.35711166
ZC3HC1 -0.057593934 0.7709041 0.90828145 0.30021265 0.5672468 0.0431038 -0.23857757 0.32190073 0.030813701 0.47231477 0.2627126 -0.039085664 -0.19852194 0.055488247 -0.20915598 0.2466272
SMARCA4 -0.05706551 -0.8011023 -0.29285318 -0.07201795 0.14300796 -0.014502629 -0.04545512 0.50032794 -0.4566132 1.3299606 -1.2271187 -0.19274347 0.71500456 -0.15898012 -0.73561704 0.47360054
VPS37C -0.06788885 -0.14910068 1.265587 0.63245124 0.016141638 0.098791964 0.5060891 -0.2311976 -2.7078638 -1.3006704 0.4001753 -0.11897295 1.0628458 0.035588622 -0.0007137393 -0.6085034
ILF3 1.6689254 1.165397 0.90716255 0.62867844 0.6745927 0.24645405 1.0574585 -0.060345758 -1.7855672 -0.110176906 0.8318708 -0.11367963 1.767734 0.6540498 0.49424908 -0.23589702
RPS10 0.011720534 0.13517416 0.21825704 0.8150653 0.368675 0.086335346 0.4741275 0.4289402 0.037054207 -0.12407502 0.4206045 0.35494664 0.19859338 0.5369661 -0.26602742 0.5783528
SFRP1 -0.04513461 0.89158624 0.0865125 -1.1668842 0.422595 -0.009149004 0.221748 0.13345876 0.3374433 0.2901455 0.4262877 0.26708257 0.12476964 -0.17469043 0.16252926 -0.0897249
ETS2 0.84411514 -1.4086716 -1.2936752 0.29375353 0.1314757 0.6658163 0.45161328 0.20035739 -0.04643277 -0.36037457 0.6243056 0.35928735 0.6972923 0.073155485 0.78632116 0.19986285
SOS1 1.0305536 -0.16089585 0.029287297 -1.1097608 1.0681735 -0.007911203 0.656059 0.37141076 0.08891557 0.38752624 0.16136415 0.22111805 0.1353369 0.44442374 -0.5686644 1.092589
COPA -0.0033090906 -0.9522533 0.2755578 0.023584351 -0.25614285 0.0034037796 0.40995935 0.30514488 0.039066687 0.7735573 -0.059522882 -0.31608844 -0.47849348 0.14306064 0.17704305 -0.64519733
NSF -0.22722054 1.0285634 0.08682412 -0.55226713 -0.17745559 0.26628715 0.8282358 -0.6828623 -0.22368895 0.7663695 0.1823462 0.09625124 0.014466816 0.22740287 0.5423069 0.07269069
PLK4 0.006348426 0.17163594 -0.42376125 -0.067680486 -0.17665705 -0.00583503 -0.39815962 -1.5625687 -0.023663163 -0.74214274 0.59870845 0.18462332 -0.63235706 -0.052591667 0.49590382 -0.36670497
SUV39H1 -0.019406363 -0.048584204 0.026196398 0.19679433 0.028069023 -1.1198409 -0.4797384 0.1328338 0.60416317 0.31652102 0.398279 0.31296366 0.060934894 1.3787289 -0.06310889 0.003401712
SYT13 -0.93814784 -0.24997514 1.456457 0.40557474 0.40116546 0.39889383 0.008936447 -0.18616313 0.24164546 1.0744613 0.49616224 -0.29392147 -0.14833468 0.15592074 0.31078866 -0.4648548
PRPF6 -0.029359575 0.1704226 0.10358923 0.25268146 0.19584328 0.02717558 -0.46993563 0.2825458 -0.35264355 -0.06768646 -0.12991707 -0.87848204 0.43289235 1.5131853 0.40880913 -0.6388627
WNT5B 1.011679 -0.62295574 0.104958974 0.5604664 0.19624981 0.80363595 0.37541813 0.8230567 -0.29633388 -0.4914553 0.89739126 0.7057264 0.6236629 -0.24497758 0.6123414 0.18907717
PPOX 0.34969136 0.16675514 0.16937113 0.22226493 0.2006184 0.34212786 -1.2744955 -0.10959135 -1.2210445 -0.40086877 0.5474141 -1.2704753 1.160858 2.0775998 0.14464805 -0.0065403897
ADRA1A 0.17428769 0.15809299 0.3518524 2.1786857 -0.20064895 0.38306168 0.66510403 0.18919179 0.013058454 0.3638386 -0.72201407 1.833898 0.26403913 0.32484815 0.63842946 0.23887874
AKT2 -0.0048042405 0.066580944 -0.010088844 0.19762373 -0.96073556 0.40348345 0.70815027 -0.8602967 0.22494678 -0.28535426 -1.1181701 0.99123836 0.1464048 0.52266264 0.75455993 0.021657992
BCL2L1 0.2703667 0.3864984 -0.09361188 0.275715 -0.111092165 -0.17996751 0.300814 0.52956134 -0.16754407 -0.11531628 -0.4686581 0.28786772 0.1972714 1.2437654 0.14471203 -0.1661151
COIL -0.019913862 0.4930839 0.16498555 -0.3681174 0.5021099 0.43187353 0.58938736 0.39001885 -0.12645257 -0.07388273 0.08824815 -0.72215337 0.36850107 2.5150583 -0.30329362 0.59811825
CDKN2C 0.16240498 0.26255453 0.78973234 -0.26187113 0.14667906 0.059268948 -0.38458723 -0.13231507 -0.5621366 0.9093713 -0.28364182 0.45828262 0.106669195 -0.09240255 1.5198673 0.6260416
SH3GLB2 -0.18175915 0.82010996 0.26060215 0.819863 0.062597886 -0.9692072 -0.5187916 0.8654169 0.93654794 0.16144767 -0.17594776 -0.07733205 0.09275473 -0.039849125 -1.3171712 0.19402638
TRAF5 -0.17160572 -0.014612488 0.3834943 1.0935738 0.54540044 -0.0031585412 0.03471261 0.22490159 0.4230958 0.16136208 0.2546283 0.3355955 -0.3591712 -1.4854616 0.18848993 -0.70647335
GMPS -0.24374184 -0.265827 -0.10117615 0.27829516 0.26060066 -0.63699496 -0.07299552 0.38011563 0.3507772 -0.103988506 0.3666474 0.49093696 0.5487068 0.4237982 -0.23807672 -0.050536264
RPP40 0.48718682 0.0067056725 0.97401255 0.76729095 -0.17420939 -0.22002435 1.5278721 -0.06434227 0.11321766 -0.63728887 0.7662356 -0.10209914 0.083643675 -0.7520756 0.17676619 0.7821924
E2F5 -0.6833931 0.13463591 0.39780724 -0.94912905 0.73703057 0.296611 -0.49809963 0.7097433 0.56985706 -1.2201884 0.65550524 1.2758257 0.14160775 -0.050179914 0.13846214 0.2758344
CNOT4 -0.20796098 0.58958673 -0.55807734 0.36247078 1.0152614 0.1747464 -0.17316088 0.24363662 -0.08173808 -0.10896326 0.45433545 -0.13638026 -0.32047877 0.44273704 0.20617057 0.4564721
RRM1 -0.29426244 -0.20383385 0.63853806 0.7584155 -0.1061895 0.02116794 0.2659497 0.16047111 -0.39696178 0.13160455 -0.3107653 0.32311243 0.27112976 0.24213997 0.3551381 -0.03442357
CDC25B 0.05990191 -0.034782786 0.3005107 0.60324174 0.50050706 1.0402724 0.88241756 0.20944755 -0.06202598 -1.4902457 0.41181526 -1.3679101 0.43520528 0.4351324 1.8144823 0.22786963
CTNNA1 -0.6458462 0.13339525 -0.099770784 -1.0418891 0.09155103 0.39135778 0.29117677 0.022364035 -0.6724818 0.1357583 -1.3141751 0.3291543 1.919712 0.2482139 -0.44507483 0.19886157
ALDH6A1 0.02896631 0.04217279 -0.09966734 0.16529936 0.60803896 -0.056214787 -0.009030366 -0.9407135 1.1787808 -0.42939085 0.7308044 -0.20259176 0.062197145 0.8026053 -0.11286958 0.30410057
AVPR1A 0.31393823 0.44513166 0.8513255 1.7731017 -0.048595335 -1.2706432 1.1224408 1.9646757 0.28144854 0.98237216 -0.39563382 -0.08817193 0.02371466 0.751848 -0.46320045 -0.90556467
CENPS -0.9103304 1.2258911 0.5333305 0.6336762 0.25364107 -0.013158825 -0.2769519 0.032997992 0.24349168 0.6940856 0.28964671 0.1374901 0.25945282 -0.8062128 0.49458468 0.015462661
HLTF 0.36908776 -0.8362655 -0.22698133 -0.8575746 1.1650892 -0.022153543 0.2760552 0.1316063 0.33275712 0.95825535 0.40689224 -0.49501494 -0.14054002 -1.0478796 0.06756043 0.5489551
SLC16A2 0.5965837 0.56014055 0.12893662 -0.12735231 -0.19002633 0.08917469 0.49808818 1.2003444 -1.1211377 0.7803461 0.86212355 0.09404776 -0.059216715 0.794222 -0.02411425 0.103459254
STK35 0.24935898 0.093431205 0.93580496 0.6324306 0.45128646 -0.007815567 0.08445109 0.27093664 0.074292235 0.13550456 0.42027658 0.5110081 0.39668489 -1.3496898 0.14714654 -0.61884344
FOSB 0.51920575 0.086417064 -0.26362342 -0.7226025 -0.22514075 0.12553513 -0.71826524 0.19772756 -0.1880093 -0.38707095 0.7189152 1.1812807 -0.24131441 -1.0128615 0.34016457 -1.0499624
PRPF3 0.21115063 -0.8423151 0.29817823 -0.048273943 -0.05528483 0.42592606 0.4915541 0.14345555 0.8721888 0.373306 0.48669907 0.2208894 0.10994741 0.26822022 -0.30012605 0.14056483
ALDH2 0.4290364 -0.29427585 0.2664462 -0.13296558 -0.16093864 0.45441324 0.38655683 0.3534031 -0.8913824 -0.035062272 0.28254834 0.30885506 0.65280527 0.9029581 0.6084545 -0.05239223
AKT1 0.749716 0.5286596 0.35247958 0.19569333 -0.20734495 0.010350328 0.3845111 -0.14068662 -2.1516428 0.0047301394 1.9393446 -0.032380134 0.25471827 -0.022089953 -0.11714933 0.9245829
HKDC1 0.1058987 -0.5824091 0.21602394 0.24275017 -0.055980362 -0.018904697 2.3303707 0.3241668 -0.09911134 -0.10347316 0.13020787 -0.0014898507 0.13768245 0.82166034 -1.0306606 1.1016871
HNRNPA2B1 0.47537014 0.20521107 -0.09549911 -0.03163489 0.3189951 0.2931473 -0.07264551 0.25221148 -0.031699456 0.058275864 -0.65600044 0.8926113 0.5517743 1.252984 -0.44625255 -0.09971834
CENPX 0.12205352 0.4372906 -0.90477455 -0.0934151 0.8541492 0.0025659308 -0.53153956 -1.0704707 0.8697251 1.9368818 0.18455103 0.035116322 0.38342264 0.37940967 0.40182182 0.63955134
KRTAP13-1 -0.033850327 0.27770793 0.24244322 0.46459958 0.93620086 0.007907894 -0.53961575 0.12941009 0.8855531 1.1454002 -0.50521487 0.575542 -0.37088102 -0.35624698 -0.08456005 1.3764055
PNP -0.15009712 0.4132741 -0.030197427 -1.1338006 0.53812116 0.08074391 0.06315698 -0.5150503 -0.17503306 0.13278754 0.3480322 1.1305221 -0.028081877 0.18828245 -0.1769912 0.16259032
MRPL34 -0.012570811 0.13507235 0.9303766 0.28982836 0.5815819 -0.0030348012 0.40748563 0.14405614 -1.0870503 0.2169525 -0.09130001 0.3100198 -1.0017376 0.19475366 0.93440706 0.16155788
HMGB2 -0.041261457 0.04488308 -0.055893194 0.43569317 -0.35698077 1.1952678 0.54792756 -0.20463361 0.08457932 0.061489955 0.3838644 0.65770364 0.36991182 1.0100408 1.465831 -0.11636475
POU2F1 0.1829824 0.79116666 0.49584243 -0.39475128 -0.30215383 -0.0011273482 0.8298399 -0.6676476 -0.087075666 0.3042471 0.63830435 0.17783722 -0.004122079 -0.35182336 0.08314018 -0.57989377
SFR1 -0.0027988679 0.30114868 0.291113 0.8496921 0.182817 -0.006884329 0.29251805 -0.060832582 0.003175397 0.5019528 -0.86100703 0.48097187 0.13949855 -0.42345196 0.24730179 -0.006235991
AP1S1 -0.1739525 0.0061159125 0.40273097 -0.021205034 1.5809662 -0.21324137 0.5249641 0.18284139 -0.13108008 0.17690347 0.4743671 0.19015037 0.032455154 0.04383482 0.9070832 0.39543775
ACTL6A 0.03223455 0.66232204 0.71137154 0.2841829 1.303778 1.3316542 0.10738201 -0.22267057 -0.11036488 -0.07633842 -0.2567649 0.7982049 0.5175418 0.9462934 0.8956383 0.8434563
MDM4 -0.13395855 -0.30467722 0.593877 0.058300946 -0.016183704 -0.022249725 1.437021 -0.40832108 0.46570817 0.96522206 -0.018733604 0.29689097 -0.05515179 -0.04590801 -1.4292321 0.25720116
ZMAT2 -0.03267104 0.52506495 -1.7843856 0.2630081 -0.56199956 -0.10696773 0.26604244 -0.3943579 0.5586066 0.225637 -0.4518999 0.21577139 0.069401346 -0.29188746 -1.6829863 0.7662822
RMST -0.011847135 0.24233536 0.30062366 0.85619783 0.011538588 0.0018042347 0.4619806 0.282186 -0.00010279898 0.05396158 0.1899491 0.28605783 0.08019844 0.7237258 0.42268187 0.023031617
EIF3G 1.08067 -0.52387846 0.15269731 0.6124276 -1.8538635 -0.009973868 0.38503146 1.0341852 0.0524743 1.2806144 0.08922367 0.021030733 0.5678781 0.36861864 -0.08647849 0.11255125
WDR46 0.0037947805 -0.03762776 -0.09824581 0.17436437 0.41637516 1.0463107 0.6638661 0.5345478 -0.04109114 -0.3537167 0.21268861 0.6717121 0.9335304 0.40714547 0.838628 0.24543782
SND1 -1.0709448 -0.049905255 -0.13714334 0.20423935 0.03159212 -0.016083647 -0.9529978 0.4536367 0.32028803 -0.0365355 0.98883694 0.5049953 0.5406773 -0.1005424 0.70899564 -0.7925171
TGFB1 0.29122686 -0.19529212 0.09734752 0.52870184 -0.008726703 -0.007604065 0.5645691 0.5573521 -0.23391809 -0.120531596 0.47596294 0.78250474 0.16194673 -0.61639684 -0.703189 0.49127176
EXO1 -0.22902174 0.101777084 1.4660997 -0.10009792 -1.179059 0.020139435 0.060827788 -0.0073763123 -0.28437093 -0.23216578 0.4164524 0.30148607 0.167627 -1.0674435 1.1424798 -1.0197375
TSPAN1 -1.0971768 0.8841162 1.1575991 -0.19553831 0.7485993 -0.012643162 1.5172869 -0.16254063 -0.03535214 0.4856586 0.06012789 0.23364638 -0.4027546 0.42983106 0.8901618 0.6839888
SMC4 0.021262525 0.29614764 -0.22880273 -0.06997909 -0.72754204 0.029524382 0.16576229 0.23923013 0.045746677 0.82869536 -0.15440708 0.33152306 -0.17753589 1.3046166 0.29064783 0.09886708
TTF2 -0.07732588 0.32324693 -0.3127646 -0.2950588 0.5946329 0.45696434 -1.1432896 1.5631704 0.26004001 0.12404405 -0.29448402 -0.6909431 0.44029924 0.23149681 -0.058485486 0.06773295
TLR4 -0.011615724 0.35651767 0.009959946 0.3001837 0.2637201 0.29149243 -0.99992913 0.2692651 0.47694325 0.028348126 -0.20875803 0.37384254 0.3481031 1.5724047 -0.23325497 -0.025183165
TGFA 0.15926747 0.5190015 1.4568428 0.33100015 -0.31316456 0.31266066 -0.39186278 0.344078 -0.12784597 0.92504156 0.1692904 -0.2495028 0.12427552 0.09967022 0.24000736 -0.804508
ZNF711 0.0121598635 -1.3577474 0.9845885 0.096964754 0.16645359 0.17110097 0.030956386 0.8945582 -0.051554266 0.8018001 -1.2579194 0.5578372 0.122268096 0.17493127 -0.03119922 0.1669948
TTK 0.16086909 -0.024066614 0.097298615 -0.12667325 0.22471264 0.6213075 -0.2898635 0.55459225 0.3549547 0.6727887 0.39239264 -0.4086765 0.70991766 0.8613855 -0.53760445 -0.0137562305
CKS2 0.7431967 0.07451697 0.28203508 0.62217724 -0.72698003 0.0075762854 0.54827565 0.17401604 0.012933762 0.31749266 0.749102 -0.50210935 0.794289 -0.34564996 1.051558 -0.02651775
RPL7 0.74108714 -0.19484428 0.5661189 -0.12089974 0.3576548 0.74031955 -0.2691477 0.15954013 -1.5941496 0.7104051 1.5875357 0.15707736 0.52176386 0.18553011 -0.680182 -0.03878971
BMPR1A 0.35753685 0.5050103 0.27232024 0.13382556 0.91481364 0.011326552 0.92640454 0.5631918 -0.25765017 0.65930104 0.7184154 0.027136626 -1.6671809 0.23202923 0.49628657 1.4844041
EIF3B -0.13797076 -0.6342298 0.9142349 -1.1323715 0.49792206 -0.009154265 -0.07724813 -0.6887238 -1.2585571 -0.31023288 0.7727977 -0.10725445 0.34668133 0.08641322 0.2347012 0.08500396
MAF1 0.025162749 -0.9249956 0.059775032 0.17039989 0.46402797 0.36720863 -0.57919985 -0.9198069 -0.044860497 -0.5826208 -0.21763435 0.91987735 1.3805066 -0.7184674 -0.59878975 -0.07576934
TCF3 -0.04689176 0.3846769 0.38336655 0.64156437 -0.48687154 0.07726823 0.14289877 -0.13210401 0.0068108602 1.1799889 -0.9258684 0.2844775 -0.18179278 -0.677135 0.31060135 -0.01670286
CFI -0.32810044 -0.050754588 -0.5251222 -0.5094034 0.3160043 -0.64839447 1.1285758 0.8601937 0.5317928 0.20227538 0.24782644 -0.10152572 0.2855066 0.5442375 0.14480503 1.4277668
SF3A3 -0.027127117 1.431279 0.035022736 0.59875816 0.7180301 -0.8824956 0.4969866 0.15473098 0.02360867 0.2925798 0.16180137 0.18354046 0.025476072 1.0650312 0.9968097 -0.050249916
PIK3CB 1.3928074 -0.1681714 0.41432288 0.19363908 -0.120400086 0.34241563 -0.8419984 0.69332486 -0.122808136 1.43354 0.87555593 0.24883284 -0.52127916 0.19814137 0.003783755 0.2725185
PSMD4 -0.12714085 -0.11716723 0.04091906 0.24763462 0.5526436 1.0547445 0.88770103 -0.16390657 -0.07271326 0.09766671 -0.09950727 0.7646193 -0.23198101 0.8474453 1.3221282 -0.27684233
MAP4K4 0.1769262 0.14691308 -1.4051274 1.1017257 0.055078615 0.10951904 -0.017444566 0.027928323 0.27120122 0.7030444 0.009617561 0.0407882 2.4470272 -0.17235808 -0.12850294 -0.33618155
TAPT1 0.47679806 -0.16347359 -0.24241225 0.44785142 -0.07442482 -0.5798809 0.9405078 0.35614997 -0.28838784 -0.0363068 -0.38478544 0.17585556 0.444377 1.6604964 -1.1997541 0.39753923
CDK7 0.040802203 0.25365728 -2.1462376 -0.5479565 0.020980721 0.51463443 -0.17204507 0.37079805 -0.17658964 -0.00618352 0.37036327 0.51812315 0.67974305 0.32790425 -0.21674636 -0.06752746
MGLL -0.0029841329 0.42086533 0.19079804 0.22987248 0.49338242 0.0002667528 0.33036137 -0.25385568 -0.013501447 -0.48987788 -0.57632554 -0.75326514 0.33940876 -0.19103514 0.23004198 -0.6752945
GSTM4 0.035151932 -0.4733422 -0.1872728 0.12459896 -0.11690442 0.031631153 0.61619973 0.08992658 0.044313155 0.709663 -0.40779108 0.27810636 0.0044547007 0.48304537 0.43769827 1.3297453
HSPB1 -1.6002281 0.76085234 0.03428072 0.14950918 -0.014453596 0.0028824164 0.4453867 -0.2115663 -1.4561228 0.0042371787 0.011918233 -0.5344549 -0.010092877 0.76736164 -0.90244055 -0.25861248
NCOA2 0.78774804 -0.062024895 -0.33832937 -0.19470601 -0.026516397 -0.1156472 0.24975538 -0.3491539 -0.062135093 0.5065658 -0.6089491 0.21725096 0.84663755 -1.1251503 0.3150415 -0.10979253
PLCB1 -0.70121396 0.23333953 -0.1850427 0.21890365 0.36514053 0.27723208 -0.77694565 0.44209194 -0.7611392 -0.044915136 0.7092563 -0.4554546 -0.3368743 -0.41754535 1.0482603 -0.056425553
MRC1 -6.022153e-05 0.6438419 -0.492237 -0.40527856 0.11779605 0.46591002 0.38075984 -0.5860669 -0.05642383 0.4678341 0.31776705 -0.6768435 0.032252163 0.12704866 -0.07537737 -0.24924551
ADRA1B -0.007187384 0.0803493 -0.027370881 0.043319046 -0.101649605 0.57385427 0.16843095 0.43710017 0.87886995 0.5505807 -0.9585293 0.52846986 -0.71161443 0.5555985 0.6067225 -1.0431114
STAM 0.621507 -0.08402688 0.8490708 0.8027587 -0.45636436 -0.038864363 0.25798804 -0.12514158 0.7652319 0.2321231 0.38428622 -0.12175673 2.1232882 0.37485692 0.5161059 -0.056821022
HNRNPU -0.022379557 1.3531277 1.2802368 1.6006429 -0.05585383 -0.12307122 0.36502898 1.0616258 -0.0063941004 0.8730206 0.7160492 0.26252377 -0.02922389 1.1139168 -0.023060555 0.3996721
SMARCD1 0.2145376 -0.6623539 0.069171295 -0.26563245 -0.50827146 0.49277064 -0.50862527 -0.032891545 -0.06332189 0.16990954 0.5830365 -0.69591856 0.3438529 0.95080346 0.13085984 0.23623282
DDB2 -0.15265398 -0.23902798 -0.19874634 0.16811925 0.5474606 1.9443234 0.077505566 0.118595384 -0.07468525 0.23430765 0.16970819 0.7494943 -0.37012607 0.87598675 0.46957812 0.24319941
XPO1 0.12914626 -0.029816108 -0.77589005 -0.78982854 0.20155294 0.08957184 -0.5041992 0.36084893 0.40280026 0.28845686 0.35195124 0.62162995 0.30215907 0.5111416 -0.70649564 -0.23475608
BIRC5 1.4119003 0.48954365 -0.5566177 0.1423261 1.2128513 0.52358437 0.81331176 -0.043700434 -0.51766115 0.1457636 0.61132014 0.09088873 0.0032677134 2.1399102 1.0853337 -0.029382953
NELFCD 0.16022907 0.32706344 0.47586566 1.4973063 -0.40201244 -0.056860972 1.4569794 0.45152387 0.18969421 -0.6692562 0.22132711 0.49304202 0.088047154 1.5729963 0.25551933 0.56762975
PRKAR2A -0.065373465 -0.44611302 -0.28304708 0.81334496 -0.08284529 -0.38027233 -0.08340888 0.36841315 1.3355174 -0.3355016 0.44909954 1.6600074 0.36989817 -0.08891505 0.15876456 0.098454215
PTK2 0.009632525 0.057961177 0.010396785 0.1420646 0.64668024 0.9948215 -0.06542853 -0.59056985 0.17422484 0.607706 -0.14687566 0.027425056 -0.010565426 1.2635527 -1.7104566 -0.064999446
C9 0.089392796 -0.019989304 -1.107112 0.2664794 -0.10041964 0.0008230946 1.2091198 0.2948991 -0.07702176 -0.06561746 0.15404293 -0.5009792 0.42603028 0.51942414 -0.59600884 0.18871458
CFTR 0.80049837 -0.126968 0.3697822 -0.32124487 -0.5674068 -0.011272178 -1.5223786 0.51062876 -0.17263919 0.6173672 0.61358345 -0.66824716 0.09534971 -0.0370731 0.30308473 0.12611209
APC2 -0.10322151 0.34285447 0.43880284 -1.6971208 0.48893955 -0.04633208 0.29451007 -0.0074382033 0.90286195 -0.8227315 0.4777148 0.25095013 0.47407818 -0.016262164 0.080398574 -0.9347426
ZNF7 0.10079818 0.48550785 -0.19020344 0.06803902 0.76059794 -0.13878341 -0.65221405 1.4488146 -0.12084874 0.042980503 0.61383575 0.39145017 -1.5871294 0.058638968 -0.014193725 -0.14974648
MAPK1 -0.43632868 0.10650996 0.3704927 0.03817429 0.53516394 -0.4322641 -0.57226956 -0.008144105 -0.04313184 -0.8024632 0.37236655 1.3587501 -0.45021883 0.017398626 0.12649491 0.20221364
UBE2A 0.021607406 -0.057057265 0.4197382 0.12695831 0.055875234 0.18709195 0.29727858 0.44075924 0.04733096 -1.2752064 0.69424945 0.29541945 1.0819525 0.16173537 -0.19493684 0.28006005
ELAVL1 -0.29036784 0.665853 -0.66285145 1.3402256 0.028422087 1.9090061 -0.03365196 0.20877537 -0.4673948 0.21749794 -1.1354104 0.6104432 0.41904643 0.10201201 0.79173386 0.46248975
KIAA1143 0.22305046 -0.02462104 0.285714 0.32459426 0.8069856 1.23783 0.030755583 -0.21806955 -0.10671844 -0.13449675 0.28431153 -0.51208085 0.8687957 -0.88105357 1.4243944 -0.09532961
KCNMB2 0.17433146 0.2541717 -0.4116628 -0.032727927 -0.69033766 -0.35823217 0.40658423 0.19095622 0.5750116 1.1852894 0.2520318 0.20548715 0.020445341 0.79569805 -0.10809054 0.27804244
FTL 0.11808782 0.40042788 0.38458323 0.37714738 0.14331107 -0.3124723 0.21800281 0.2985179 0.0019573714 0.30574536 0.3604221 0.30376726 0.23615299 -0.14599012 0.19631147 -0.60895735
CAD 0.32415178 0.005513637 -0.046481367 -0.046657324 0.65584904 1.0522157 -0.2639239 0.29893157 -0.48576728 0.24481155 0.7611901 -0.03428672 0.4203326 0.3220668 0.5808426 0.104772285
AXL -0.0036826695 0.73162144 0.42396027 -0.16719313 0.32390326 -0.2507411 0.4645259 0.6091862 0.036860656 0.4720623 0.4276458 0.63017297 -0.020071786 -0.2724985 -0.8186809 1.3119891
CUL4B -0.5897955 0.31903633 -0.022829251 0.6355221 0.047680996 0.0015009522 0.36412877 0.5433955 -0.3306069 0.0077135973 0.29358238 0.46774763 0.39340323 0.1925059 0.29310572 -0.99767596
NEK2 0.007082519 0.30666316 0.15407942 -0.4881279 0.034562573 -0.011590773 1.0445466 0.49045998 0.054562762 -0.1926699 0.24056946 0.2361747 -0.27135584 0.3441742 -0.17711535 -1.2012098
RPL37 0.09223526 0.33459744 0.43390313 0.91277117 0.2549443 0.0007413435 0.18220514 0.3242516 0.035461016 0.18854819 0.32131934 0.11127453 0.17056774 0.21675922 0.18395089 0.115643665
DPF2 0.31690738 0.0023426763 -0.06662406 0.10551551 0.6609032 0.81549305 -0.19085208 -0.0264079 -0.008596582 0.63595706 0.13804734 0.69206566 1.93014 0.3584585 1.4128981 -0.11284705
RANBP1 0.28263447 0.25360313 -1.1619645 -0.2931738 0.00035869726 -0.258924 0.40928292 0.38986593 0.13313152 0.20635712 0.47903845 -0.834813 0.37577006 -0.101614006 -0.7804617 0.1423057
DISP1 0.015344053 0.23802331 0.09628608 -0.8366319 0.41502422 -0.006024213 -0.53099495 -0.14487287 0.23846744 0.3431185 0.62357205 0.020694569 0.14308012 -0.28165105 0.9628151 0.0075830664
PLCB2 0.37434176 0.3070927 0.19501387 0.3164126 -0.06799063 0.020707462 -0.14359547 -0.27737337 0.49846077 1.1482241 0.2511514 0.28989473 0.052711554 0.29144672 0.60586846 -0.96708393
ADAMTS1 0.20855376 0.49784702 0.49160632 -0.090177216 0.07866016 1.315015 -1.0106212 -0.5978925 -0.30640152 0.9560443 0.7875817 -1.8390405 -0.2236238 -0.04322761 0.38801956 0.37727237
HSP90AB1 -0.48786473 0.33931932 -1.1074083 0.1590463 0.05167665 0.072432645 0.48026642 0.17665316 0.92738247 -0.15216005 -0.81634855 -0.12062072 0.28031802 0.8463668 0.9069385 0.12703617
VPS45 0.012150447 0.628173 0.42849606 0.5057203 -0.03047897 -0.017542353 0.47557384 0.4872153 0.01156498 0.9472076 -0.27011082 0.2438889 -1.5073963 0.85132056 -0.55738616 0.3691868
MSH6 0.6427975 0.31818867 0.3153224 -0.1864346 -0.17288928 -0.040446986 1.2526639 0.1638786 0.042434826 0.44080514 0.30967385 0.08393865 0.24581826 -0.30349424 0.1218376 -0.22873357
PSMA1 0.18439887 0.21920851 -0.29659185 0.13801056 0.16689749 -1.1669687 0.589943 -0.10857401 0.067835756 0.46687537 0.15254514 0.3765227 0.81331325 -0.3659156 0.76647115 0.27239034
SMARCD2 0.13200602 0.18336193 -0.25514168 0.23258603 0.22167018 0.36947078 0.32202595 -0.113701716 0.47413275 -0.062230825 0.42742097 0.19060935 0.10301117 0.95881474 -1.6096915 -0.10520101
TOPBP1 0.2466601 0.17966197 1.2485483 0.25344956 0.14343078 0.007616642 0.13662319 0.88089 0.19341786 1.6177471 -0.07469813 -0.34167013 -0.085608765 -0.083898194 1.0044831 -0.9211928
SNX27 0.25250903 0.9566289 -0.93560266 0.39023137 0.07384605 -0.11209745 -0.096794814 1.4522604 0.022570448 -0.08827655 0.5144522 0.5041624 0.926058 -0.5326836 -0.041243143 -0.67636174
CYP2C19 -1.1369283 0.40888718 0.2852387 0.1271147 -0.13942844 0.11917227 0.2788899 0.2102245 -0.37012497 0.3687477 0.025065335 -0.7248738 1.6673783 0.5418975 0.38294163 -0.12844078
ITPA -0.12280976 -0.569514 -0.009199588 -0.5723523 -1.8686417 -0.03048595 0.1553161 1.0569534 1.0703641 0.41955784 0.38826954 0.19501476 -0.034832608 0.9700252 -0.13695417 0.029781612
ASL 0.58004 0.24550064 0.023834584 -0.26396924 0.34454414 -0.38333318 0.6461809 -0.00074218493 0.5590215 0.82110953 0.24270843 0.30797908 -0.56601036 0.09088347 -0.5160514 -0.084822476
ZMYND11 0.9642087 -0.09521595 0.8670985 0.6672674 0.30136907 0.20699231 -0.73772854 0.84127265 -0.017065398 -0.40820488 0.34435833 2.5951934 -0.16419017 -0.09207027 0.8043775 -0.062207833
RBM28 0.9103438 0.53016394 0.5637047 0.4380377 -0.45042908 0.5612016 0.48665166 -0.13587554 -2.4759307 1.596323 0.22499791 0.22125036 0.09180109 -0.8685999 0.3453518 0.88085866
ECHS1 0.15870519 0.47580004 0.7142972 0.2880406 0.023165867 -0.041935813 -0.377721 0.2541152 1.2578281 0.40770003 0.5331849 0.20191921 2.2932348 0.05243288 -0.06872464 -0.09098509
PAPOLA -0.239307 0.38673055 -1.8561912 0.18023528 0.07782306 -0.98653835 -0.030902373 -0.096105695 0.44802022 0.9049063 -0.09751923 0.2873524 -0.00236917 0.79478186 0.5634999 0.2571781
PEX5 -0.26197085 -0.561607 0.13578269 -0.02279961 0.5633312 0.9309806 -0.1070934 0.41318187 -0.4260024 -0.2592435 0.2122354 0.31864342 0.40734044 0.655107 -1.127 0.34255737
DNAJC9 0.04312099 0.41590673 -0.3566841 -0.20817664 -0.23265114 0.057737585 0.5212603 0.16358082 0.066561565 -0.052755345 0.1942395 0.26076254 1.1949505 0.5566362 0.29298174 -0.17921884
ARID2 0.15950432 0.8296519 0.2902788 0.9564664 -0.23712577 -0.44727314 0.15029193 -1.3109528 0.60031044 -0.475203 0.056427754 0.2730946 1.2054902 0.3546702 -0.6158051 -0.05637101
ADSS1 -0.14456484 -0.13658318 0.13987158 0.645171 0.066535905 0.30044496 0.0722003 0.39126852 1.7259063 0.10317209 0.22097483 1.8588845 0.22549301 1.2370678 -1.825252 -1.0608152
DUT 0.57074064 0.20720296 2.2396817 0.84476274 -1.0297396 -0.6750718 -0.104906306 0.42443094 -0.0043402794 1.1786859 0.23123014 0.5451475 -0.37693977 -1.1176027 0.1510303 -0.008490611
DHX9 0.0038167404 0.19192088 -0.34654337 -0.016475579 -0.28771758 -0.07459687 -0.26053965 -0.98168844 0.0486441 0.2479148 0.21054675 -1.0967994 1.0833123 -0.9000964 -0.36260995 -0.7616512
ILF2 -0.06348134 -0.4793565 0.78401524 0.4329359 0.4109846 0.9277682 -0.69385654 -0.54817057 -1.2244011 0.035887327 0.8227125 0.5774971 -0.060265724 -0.10220843 0.8053452 1.4340786
LIG3 0.10680412 0.43212694 -0.37882248 0.09169346 0.105845705 -0.04698944 0.50970715 -0.27579057 -0.8548308 0.3618353 0.49518976 0.07317102 0.043642838 0.41757515 -0.24239302 0.7227822
MTHFD1 0.13308159 -1.3044914 0.69885033 0.17949153 -0.06390195 0.28860292 -0.21474408 0.72609764 -0.82962203 0.12266605 -0.28085726 0.536759 0.16082786 0.32799327 -0.24222085 -0.03315826
CYP1A2 -0.4759942 0.7512859 -0.040111486 0.15496206 0.024410311 0.022469843 0.20060411 0.35822904 0.32276794 0.092523396 0.34014735 0.045727506 0.06921205 0.17450036 -1.0470659 -0.060699474
ANKZF1 0.26372072 0.21241353 0.7694702 0.5444504 0.22508281 0.8073786 0.025077568 0.4836514 -1.2116797 0.058593664 0.44048774 0.59711057 0.26798153 -0.4724927 0.21586898 -0.015562691
ZNF189 -0.89307636 0.4746682 -0.55592227 -0.068563655 0.89321125 0.2771678 0.10490012 -0.0006262372 0.17829208 0.19653097 1.043303 -0.20494165 0.067933306 -0.25902763 0.97313803 1.0079417
HSPA14 -0.5520735 0.2636869 0.51585853 1.2993797 0.0031945524 0.09924653 0.20220007 1.859392 0.14322186 0.54560196 0.33693156 0.28380182 -0.66346556 0.57233036 -0.08684937 -0.29240444
WNT10B 0.88430744 0.49784452 0.14592882 1.1070901 0.103481695 -0.012969884 0.5879979 0.5118454 -0.030120324 0.50121003 0.46795583 0.36714622 0.27584088 1.0356504 0.33355364 0.14857945
APIP 0.20006107 0.67717403 0.07431614 -1.3587067 0.4014974 -0.77431494 0.20367 0.7173727 -0.60932994 0.90410405 -0.5415571 1.1346979 0.029559111 0.22907858 -0.2548142 0.16939493
MTOR -0.015839424 0.17610069 -1.0289243 -0.1106441 0.8966765 0.27981988 0.14028478 -1.1053392 -0.17732379 -0.0016569351 -1.0566742 0.31720036 0.3047083 -0.6864814 1.1506022 -0.12396179
ETV4 0.95608044 0.43211934 1.0635587 0.8052262 0.667504 0.07001925 0.3325719 0.38117015 -0.30231744 1.6422902 0.5950639 -0.27462134 0.08839704 -0.27750185 0.037374362 1.7540467
OGG1 0.86755776 -0.7705326 0.018917134 -0.513958 0.82285655 -0.2483688 1.1825324 0.9616619 0.3502493 1.5954494 0.39229852 -1.1878836 -0.16215983 2.0995805 0.6827854 0.98845565
PIP4P2 -0.07051144 -0.37632227 -0.020389806 0.07383374 0.05593084 -0.7100837 0.09620505 2.4592063 0.23395993 -0.0796349 -0.30751103 0.48321941 -0.1263096 0.027248915 -0.13164413 -0.07369493
GSTM2 -0.42375833 0.5226029 0.443555 -0.21115775 -1.0176518 0.042233367 1.1148264 0.23256312 0.029405702 0.6772445 0.34285325 0.14630659 -0.12952037 1.4443634 0.7338871 -0.25268304
LAMB4 0.026372906 0.02116046 0.8568138 0.36593845 -0.003544582 -0.7146372 -0.27907464 0.60926694 0.86245584 0.34413415 -0.3706375 0.28176543 1.4375883 -0.1265741 -0.103558496 -1.5756092
CDK1 -0.022846112 -0.6737981 0.07426992 -0.5353823 -0.06899992 0.35846642 0.34748265 -0.9199291 -1.2932016 0.17773855 -0.486102 0.27646503 -0.27237958 -0.16331638 0.7544176 -0.112240754
MAPKAPK5 0.10346215 0.41864523 0.21879676 0.62192106 -1.0642687 0.04045605 0.72976714 0.29088393 0.09156961 0.08329538 0.29644507 0.16562745 0.28670764 0.37326273 -0.09747326 -0.857555
LSM2 -0.010563475 -0.2064795 1.4108075 -1.6787298 0.5808518 -0.016210888 2.018866 0.50246006 0.96348697 1.5526066 -0.029807491 -1.2616295 -0.45127156 0.5979759 -0.026892848 0.7856352
PRKCB -0.58448654 0.5652759 -0.29201427 0.08525803 0.61025316 0.57434845 1.2595049 0.20209365 -0.027794853 0.5238472 0.17956126 1.7938268 -0.56469387 -0.025378756 0.81652755 0.904132
RAD51 1.9234107 -0.23487587 0.6728864 2.422357 -0.18418102 0.3839973 0.9581043 0.65763086 -0.47096714 0.14521156 -1.4615139 0.86143965 0.036934063 0.13109681 -0.77274776 1.0461136
AXIN1 -0.39853665 0.3116209 0.19922137 -0.38225138 0.34228984 0.0055004186 0.13985367 0.35761482 -0.0021042959 -0.1611638 0.46899405 -0.28489393 -0.4999997 -0.63370436 0.69624186 -0.112605266
ARID1A 0.1326753 -0.51038074 0.7469168 -0.33051184 0.9144179 0.012100834 -0.008057028 0.4007384 0.019805774 0.4771496 -0.95054924 0.43851194 0.10801079 0.16079241 -0.16240057 0.123439275
AGAP1 0.23784657 -0.042346623 -0.05846724 0.118713 1.4882976 -0.092274465 1.7299392 0.21269222 1.90712 -0.09270316 0.15103504 0.34950155 0.109287575 0.99029624 0.91214794 0.30421993
ADH1A 0.0038952362 0.042852767 -0.058384538 -0.46547395 1.0785394 0.7164925 0.29501975 -0.0551865 -0.03468203 0.2828389 0.25175264 0.931523 0.093814574 0.97947174 0.23029569 0.0048433812
MSH3 -0.37606442 -0.57652175 0.3682519 0.7451757 1.4549133 1.2831529 0.37297246 1.2494403 0.24256872 -0.151417 1.0606989 0.82812953 -0.14515056 0.72921026 1.4215918 0.4313053
NGFR 0.090275474 0.25540796 0.30330494 0.33591703 -0.23442937 0.10499451 0.24373995 -0.22093299 0.44705084 0.81242794 -0.5716862 0.1759343 0.26640975 0.1963598 -0.30075377 -0.6553141
NUTF2 0.012689563 0.511629 0.70816463 -0.26186872 0.1603259 -0.08671985 1.2321695 -0.3934487 0.064012945 -0.887135 1.8353654 -0.36733493 -0.022438325 0.0031411613 0.94993544 -0.75647885
DVL1 -0.15161239 0.11003809 -0.07572641 0.45729783 -0.42470774 -0.096327595 -0.22240995 0.059293497 -0.7502536 -1.0495752 0.505566 0.038348645 0.08769929 -0.14045955 -0.15784577 0.17257659
FGFR4 0.42647633 0.5812746 -0.10688025 0.35685578 0.16030268 -2.4726207e-05 -0.22086965 0.8893818 -0.023533886 0.21444234 0.92329913 -0.081551015 0.4071233 0.2614834 0.058343384 -0.013054889
SHB 0.3863348 0.25424755 0.16199303 0.12173552 1.7714899 0.14672193 0.45342052 -0.05106076 0.09045974 -0.07528957 -0.39072534 0.32354432 0.7351292 0.33058944 1.1686534 -0.014057451
FOLH1 0.26378775 -0.07628976 2.0062325 0.3235133 -1.129942 0.048143912 1.0198246 0.34949714 0.30245295 -1.0024384 -1.7919401 -0.24465387 -0.06054811 1.3348439 0.42851734 0.09532867
TGFB2 -0.28885347 -0.31016654 1.3781024 0.2701007 0.6617105 1.030004 0.13551079 0.3966512 0.22122808 -0.15874182 -0.04903419 0.46140867 -0.629904 -0.43539184 0.34447512 0.3143168
BDP1 -0.13940799 -0.29976 0.2900733 0.11887674 -0.452705 -0.4443652 0.35099596 0.3327353 -0.0030251893 0.085536264 -0.28639323 -0.3184611 -1.0524391 -1.2364378 -0.0691574 -0.052790828
AKR1B10 -0.29603338 0.17993936 0.6793739 -0.20383143 0.6985056 0.18935438 -0.33446074 -0.13872628 0.004994235 0.028670926 -0.6185289 0.4378983 0.0916879 0.5286923 1.3002853 -0.048815537
KPNB1 -0.022691825 1.7883811 0.63682234 0.094109684 1.1992761 -0.012754474 -1.5499691 0.31275865 0.41749126 0.16299139 0.46162245 0.4291263 -0.09001664 0.7484762 -0.806285 0.5737813
IGF1R 0.02260019 -0.07032751 -0.0068516396 0.12195245 0.07659331 0.6531311 1.1084336 0.9926331 0.079886355 0.06771286 0.009057733 0.33072746 -0.18710239 0.25707126 0.19309713 0.04022829
LPCAT1 -0.006824931 0.5606393 -0.32872552 0.39047638 0.33489072 -0.0014586736 -0.07378666 0.30907872 0.02622689 0.32765055 0.33230048 0.34279156 -0.70683926 -0.37772638 0.06131158 0.132666
RPL23A 0.37627476 0.6040604 0.2955317 -0.15459776 0.028195245 -0.008592858 0.35251123 1.024818 0.026692333 -0.007417234 1.5890943 0.25371608 0.2444197 0.40965128 0.09008239 -0.876341
DVL3 -0.57253546 -0.60842294 0.26758143 0.33599684 0.3390964 -0.17422085 0.41815132 -0.8477645 -0.2983687 0.17893127 -0.17951657 0.16399488 0.13148953 -0.45607576 0.312846 0.77118206
PRRC2C -0.051060364 1.5647506 0.20710693 0.96329945 0.20544584 0.70247036 -0.458727 -0.2694965 -0.14272265 0.22561106 0.14282292 0.23757118 0.21088824 0.045432504 -0.056208942 0.21617392
PCDH9 -0.024836294 0.3641224 0.18534347 -0.39039052 0.52306515 -0.034804463 0.4151444 -0.08498133 0.40677583 0.33459592 -0.09792518 0.25702286 1.2179929 -0.059944972 0.049904227 -0.3779762
HDAC2 -0.4985168 -0.193725 0.04216736 -0.0060079116 -0.41852254 0.571496 0.74542 -0.11315062 0.43044105 0.22065163 0.12895729 0.4581097 -0.1551806 -1.1981524 -0.106325716 -0.1836521
MAP2 -0.04740386 0.15038507 -0.45375663 0.59184283 0.7746057 0.68011427 0.4511888 -0.47367653 -0.042693805 -1.6111094 -1.6404396 0.5207799 0.068875596 1.5289061 -0.18787478 0.4272899
MYD88 0.25674856 -0.19303499 0.542666 0.48285744 0.048113283 -0.034804963 0.65738475 1.177212 -0.039391633 -0.25183722 0.4586262 0.48371014 0.1579134 -0.04168781 -0.018165799 -0.050534368
PIP4K2B -0.41591322 -0.22142254 -0.31562465 0.8258527 0.77230734 1.3726315 0.07676116 0.57185423 -0.11891894 0.010089924 -1.2100687 1.1509378 1.6985813 0.36501426 1.044998 -1.5256073
LZIC 0.09898064 0.40440863 0.11244495 -0.09039061 0.7244254 0.05870791 -0.4872992 0.17707233 -0.92992586 -0.029304914 0.43298423 0.49482372 1.3210416 -0.13249955 -1.27053 -0.048872482
PAFAH1B3 -1.2754105 0.60573256 0.12687418 -1.0298305 0.53635514 -0.76544565 -0.53939945 0.053162955 -0.0043977993 0.0486119 0.5007562 -0.14092791 -0.19177933 -0.038156703 0.7478923 -0.024189392
SLC7A8 -0.028635724 1.6151788 -0.49628493 0.14990953 -0.07509388 -0.41938382 -2.4744391 0.36439592 0.055460393 0.21114305 -0.9204026 -0.17096356 -0.14378497 0.004863617 -0.19103573 -0.016568588
ENAH 0.649612 0.08568793 0.10305072 1.4548885 -0.05478373 -0.022093378 0.2843663 0.4164344 0.22412951 0.51103264 0.46683598 0.3273093 0.31071427 -0.8756991 -0.122546524 -0.17218095
PTEN 0.20639637 0.53551334 0.086074695 0.92254674 1.1254073 1.5964397 -0.22675039 1.4864143 -0.20542508 -0.0664048 0.48806542 1.0270663 0.42885074 0.78007925 0.12558088 1.2894413
NCAPD2 -0.012156926 -0.32095253 -1.5557398 0.29130793 0.35469884 0.2540692 0.28457224 1.9312836e-05 0.26135948 -0.39992952 0.2580973 0.533866 -0.9030475 0.58596706 0.49674764 -0.192542
IL17RC 0.10991575 -0.13828516 0.059129473 0.27909932 0.26400644 0.9812277 0.133783 0.88686645 -0.3175657 0.17947543 0.27979353 0.8489617 0.2606307 0.53067267 0.77863973 -0.22508116
CD4 0.40460688 -0.9109963 1.0047736 -0.20550354 0.43337426 1.4497378 -0.41037685 2.089916 -0.10083329 -0.4533212 0.89302135 0.8169058 0.4086146 0.38574103 0.16279794 0.26616803
PIK3R1 0.49870962 0.49630177 -0.3671202 -0.4613225 0.042650107 -0.8215785 1.1711687 1.325239 -0.23874922 0.18959317 1.8320577 -0.0468407 0.056611385 0.4092841 -0.35191828 0.8887773
SLCO4C1 -0.1265832 0.06759793 -0.15427455 0.40420714 0.37234607 -0.15481353 0.068588786 -1.4756156 0.95543545 0.07500408 0.42626038 0.29633477 0.08617173 0.68377084 0.17278078 0.03678883
ADK 0.04154354 -0.30655777 -0.16077074 -0.05535965 -0.15021273 -0.2579629 -0.61895645 0.22968853 1.0368463 0.35403028 0.030829897 0.3765454 1.0052791 0.8472011 -1.1182882 -0.4277989
ASXL2 -0.2899993 0.3577926 0.7438386 0.45695078 0.24967895 -0.0056543043 0.23539566 0.018421497 -0.9170876 0.30448303 -0.8909985 0.433317 0.10702087 -0.9957572 -0.12169105 0.27325028
POLE3 -0.36081094 0.2986458 -1.32757 0.21852027 -0.019977156 0.28935716 0.4831364 0.124556884 0.3649944 0.9410492 -0.5872432 0.4769832 0.0024329238 0.45268396 0.8515001 0.091379635
MCM3 -0.02223541 0.9392852 0.42297757 0.14566539 1.4321023 0.023564402 -0.16727602 0.12036175 0.09981543 -0.004730907 0.25137904 0.34198278 0.02795133 0.35112366 -0.2632268 -0.23058656
RUSC1 0.5259326 -0.62407863 0.56841475 0.35935283 0.3965811 0.57989293 -0.74915236 0.19667894 -0.5004214 -0.16375986 -1.8030039 0.21050452 0.36105564 0.21221617 1.1484762 -0.006903675
COL4A4 0.8395777 -1.3758417 0.28303063 0.11674133 0.45262182 0.534561 -0.74779296 0.40012848 -0.1676089 0.30175638 0.951088 0.4281224 0.8981403 0.0060978984 -0.0692503 0.21091591
DNAJC2 0.49234006 0.23488098 0.4332944 0.6861315 0.10362975 0.11201788 0.64470357 0.12055805 0.011023467 0.5401069 0.09414612 -0.31154588 0.19926047 -0.21814038 0.30716643 0.14376462
MYO5A 0.10789887 0.51699203 -0.31861588 1.460202 -0.03987578 0.00028503058 0.3294318 0.3886889 0.12164417 0.013081814 0.39561194 0.2270312 0.25594667 0.38969406 -0.05938302 -0.17121278
RABIF 0.9695044 -0.2766707 0.96278596 1.4760674 0.9973238 0.22451855 1.0695972 0.3673509 -0.21193685 -0.08203598 0.65972185 0.28557807 -0.14797643 -0.90740484 -0.44891506 0.78764033
WNT6 -0.19026193 0.51499695 0.48603794 1.1763692 0.2633232 0.003988251 -0.1527699 0.26943314 0.005243911 0.05517422 -0.07520529 -0.37500113 -0.2882365 -0.22611555 0.00048016952 -0.017827773
MSH2 -0.5958202 0.34652966 0.101597436 0.30429342 0.95683736 0.5549585 -0.6355807 0.17330846 -0.5578136 -0.027959138 -0.03901841 0.9571721 1.0126617 0.041408617 -0.40169206 -0.03226186
CXCL14 -0.10839234 -0.2222341 -0.3200679 0.02875494 1.1439233 -0.08641682 0.31270623 -0.10600695 2.1341324 0.7817042 0.37459832 -0.54448134 0.9002966 -0.12948526 -0.081538655 0.70699555
TSPAN7 0.18622135 0.53584504 0.24176337 1.2538564 -0.23688357 0.3510597 -0.71085113 0.37303287 0.5888137 0.7660433 0.30535367 0.52257806 0.1949814 0.5090182 -0.045935817 0.9755504
CCDC149 0.98625064 1.3415627 0.7048483 0.5789208 -0.06466771 -0.042545855 0.5166201 0.5691133 -0.07542318 0.25292954 1.4337063 0.06413501 0.3384024 0.9399076 0.56613314 -1.1150858
RPL29 1.1329267 -0.92292684 0.19657719 -0.0006368039 0.5195281 0.96934444 0.2981394 0.6058866 -0.31248316 0.59502417 -0.28321803 0.5816155 0.108161435 1.6941391 -0.1128849 0.45906213
SAP130 0.6158829 -0.27747908 0.04114309 0.2903714 0.057826433 -0.009842477 0.44137803 0.17972167 0.56668484 1.0395573 0.6368842 0.24819417 0.9833962 0.5166811 0.32940674 0.4577262
PCYT1A 0.10927964 0.18003076 0.39371416 -0.012676294 0.22341447 -0.009457459 1.5021195 -0.15113263 0.08522963 -0.26026148 1.7867278 0.3447905 0.071696326 0.06737378 1.3085476 0.5245811
DYNC1I2 -0.40740886 0.98740375 -0.040111143 -0.5749972 0.734523 0.061960336 -0.57143563 0.19112168 0.16742317 0.42115793 0.2754404 0.7698512 -0.019600686 0.16916545 0.36673397 0.29227597
COPS6 0.27743706 -0.8382673 0.12425613 0.18368585 -0.36819926 -0.07972196 0.67787063 0.17132574 0.4359066 0.5624847 -0.44459262 0.18324165 0.22323632 0.44548035 0.4856152 0.22366475
SNF8 0.4702735 -0.00792845 0.6259481 0.5128307 1.147012 0.29701582 0.26755637 1.6521934 -0.098770104 -0.4747154 -0.38810793 -0.57889163 0.033981204 0.37591562 0.14971212 0.2229253
RBP5 0.0049322555 0.808292 1.8297993 0.82180136 0.2549988 0.41989028 0.61923665 1.1160023 0.18513931 1.4588486 0.051089562 -0.0340548 0.009954875 0.4578386 -0.726668 1.618374
CCDC124 1.1199979 -0.22922763 -0.12159649 0.41201726 -0.06303169 -0.1312968 0.23257734 0.46059278 -0.5253492 0.16286594 0.9319834 0.021658126 0.66036636 0.69739544 -0.19755681 0.187307
YWHAZ 0.22436704 -1.5010865 -0.4776321 0.07260322 0.26119298 -0.17315587 0.8808664 0.21428388 -0.8596401 0.123352535 -0.22132994 0.14055413 0.33472475 0.06501155 -0.0560002 -0.19771473
DKC1 0.2549174 0.15548104 -0.5899764 0.31255198 -0.06869882 0.09029876 -0.21266077 -0.25173286 0.52745044 0.44269815 -0.14633353 0.2940477 0.44094196 1.7844163 -0.30845287 -0.104490675
MCM2 0.059858147 0.14501747 0.57331574 0.06772777 1.131893 0.027625423 0.028211622 -0.279108 0.6038685 0.9028185 0.16717248 0.33013836 -0.41715696 0.26611525 0.36821526 0.46808568
MASTL 0.0474063 0.84743696 0.5832328 1.5693434 0.07750429 -0.008596321 0.55985105 -0.46155655 0.13026805 0.13292685 0.2825069 0.14395007 0.04546838 -0.44059333 -0.36798248 0.06206211
MEP1B -0.57627964 -0.03467079 0.41925892 0.9766774 -1.1583757 -0.22842015 0.5919977 0.23343126 0.0071010003 -0.23264983 0.13747315 -0.07033995 0.07270671 -0.46579748 0.017273426 0.013822467
APBB3 0.32411197 0.21208988 1.2267421 1.260357 0.27153268 0.14513783 0.68849874 0.5721109 0.012333331 -0.6286295 0.25115338 0.28523257 0.23183233 0.75861037 0.17713311 0.21315627
DUSP1 0.0073943962 0.25422627 0.11024673 -0.2616657 0.07385682 -0.0024502666 2.0326965 -0.8003084 -0.009987521 -0.119894154 0.27412203 -0.029816383 0.118577264 0.047539063 1.7561169 0.3706019
MAPRE1 0.10296295 0.18557538 0.35499722 0.46196303 0.41797915 -0.0038996458 0.4034835 0.24600583 -0.002928314 -0.06970004 0.40094885 0.3850261 0.16447562 -0.06768637 0.3543798 0.17283703
ATAD2 0.5982731 -0.114668265 -0.2745349 -0.22942334 0.028893527 0.08035708 0.5000635 1.1910214 0.43805024 0.40972257 0.7104281 0.21019736 0.27102146 0.5113143 -0.24975635 0.5084444
CDKN1A -0.032341603 0.84716845 0.13105957 0.3846632 0.22139382 0.13660322 0.43990147 0.10189218 0.1705968 0.7525885 0.53266484 -0.16847587 0.052054275 1.2967385 -0.35514116 1.1309394
SSRP1 0.2575972 -0.19340965 -0.08913522 -0.3275126 0.0078160865 -0.029789755 0.6138995 -0.27699253 -0.40470752 -0.077370554 0.86227864 0.2849049 0.090663984 -0.014789604 -0.21003807 0.16715167
RBM22 -0.017022109 -0.96412593 -0.0744272 0.22645454 -0.1460286 -0.0070964866 0.26767948 -0.14181267 0.14832428 0.4663074 -1.2244939 -0.9993226 -0.1615308 -0.59748954 -0.4011414 0.11545938
FAM20B -0.83483464 -0.27448127 0.38611645 0.23964295 0.17064764 0.50021607 -0.3607502 -0.33656147 -0.2622862 0.04977426 0.54218054 0.497767 0.10098006 0.18961252 -0.08575329 1.765406
RAN -0.03966261 -0.09594863 -0.1990195 -0.49567494 0.9046401 1.9757893 -0.051683925 2.0187883 -0.3688858 -0.25509927 0.3235094 1.1638683 0.26719856 0.50192744 0.15120244 0.3384286
TRPM8 -0.38957435 0.23622541 0.191249 0.31137094 0.06613272 -0.026575044 0.90137386 0.43342167 0.39431667 0.38891476 -0.52527267 0.59622246 0.011456244 0.07302281 0.29408136 0.23780808
ZC2HC1C 0.25463402 -0.15193306 1.315641 0.5406634 0.9512582 -0.07289133 -0.59778035 0.023661198 -0.51502335 -0.2390385 0.71571225 1.6087893 0.39434087 0.5044919 -0.13826813 0.65426457
BUB3 0.12293531 0.42086777 0.9967291 0.7850247 0.1190269 -0.006361959 0.5690213 -0.2026828 0.0038604345 0.41390213 0.38313302 0.074666366 0.3654995 -0.415577 0.40611407 0.23565704
RPL15 0.73565733 -0.41757628 0.33036807 0.49032813 0.053608473 -0.029328477 0.69309014 0.48474318 0.5332641 0.90271264 0.6684159 0.19106895 -0.2115928 0.52283794 -0.1048 0.9336076
GEMIN5 1.3042902 -0.13315837 -0.12770548 -0.94313747 -0.05082444 -0.006182149 -0.35074008 0.5515994 -0.29205668 0.4078314 1.0330163 -0.2377782 1.2655225 0.8123671 0.1683365 -0.21383741
EXOSC10 0.027295588 -0.11213718 -0.91657096 0.3119129 0.4556286 0.38442096 -0.8660791 0.5258798 1.1521126 0.6636313 0.30743107 0.563991 -0.42994633 0.7258759 -0.24179931 0.32099825
MDC1 0.12600616 0.31208205 0.04212036 -0.8291163 0.07781983 0.059364922 0.5482623 0.28873926 -0.080805615 -0.16145985 -0.08552197 0.31451648 0.018808285 0.8377062 0.32637182 -0.010426649
ACADS 0.39660513 0.78866404 -0.06792705 -1.0292873 -1.7258359 0.0048032487 0.76005006 0.26657203 -0.2506434 0.0457636 0.6640581 -0.38242942 1.6390462 0.23683415 -0.11884524 -0.018993592
LRP6 0.30672598 0.771467 0.008523701 0.051444974 1.2736917 -0.008284315 -0.5220478 -0.22451647 0.2270958 -0.02370831 0.13782072 0.99267095 -0.17380616 -0.009742563 -0.1371545 -0.099560834
TPPP2 -0.04536285 0.5646853 0.104384996 -0.22393627 0.6315938 -0.4754991 -1.4573554 0.6056818 1.2801734 -0.528304 -0.9036597 0.4235065 -0.017402776 0.70775974 -0.19729875 1.3701702
GDI1 -0.03823344 2.0982883 1.2261553 0.44493625 0.8053303 0.32434672 -0.20336547 0.6196638 -0.2692899 -0.6174656 0.14204524 0.2680617 0.069054976 -0.60569435 -0.04199342 0.019695142
FZD2 1.1694479 0.11673446 0.8489997 0.83237743 -0.018332172 -1.1794753 -0.38493365 0.6156791 -0.007908344 0.3296316 0.6596482 -0.2896135 0.5336836 0.78772956 0.025083361 0.050487615
SMARCD3 0.12431387 0.44272915 1.2450463 -0.1207221 0.12172574 0.044311523 0.012854078 -0.95178556 0.0435128 0.34904072 0.5134811 -0.14228353 0.19995134 -0.79738 -0.046442714 -0.11579974
EIF4EBP1 1.0555109 0.0004338848 0.3364546 0.50748485 0.28228354 0.05916103 -0.35359737 0.570765 -0.8398405 -0.20811738 1.2518098 0.22328314 -0.14128241 -0.2565466 0.044879157 1.0002549
HSD17B6 0.07930018 0.53682196 0.38761404 -0.35670444 0.22058967 0.0121483905 0.11389164 0.96682847 0.06374304 0.31782842 0.5762979 -0.24339594 0.029401695 0.30716142 -0.04164829 0.3622413
RAD51C 0.022465592 -0.48710796 -1.0407966 0.26622206 0.040688954 0.39871457 -0.13472804 2.448195 0.6355128 0.160025 0.95341855 0.30678973 1.3907523 -0.36210185 -1.3600808 -0.10646895
NDC80 -0.16617624 -1.266918 0.076641224 -0.026204325 0.48935783 0.921395 0.7103565 -0.08483642 -0.94408107 -0.06443394 -0.09609496 0.68509996 0.04094729 0.7317416 0.94670635 -0.48590523
AIFM2 1.9025923 -0.08354356 0.14316687 0.24042581 -0.012891076 0.29444617 0.72752005 0.4680372 -0.09762023 0.6985228 2.190524 0.41264263 0.52849525 0.046192974 1.4409267 0.8438234
PXMP2 -0.12498905 1.0526856 0.36704567 -0.44660285 0.43876022 -0.47381493 0.59466285 -0.97677505 -0.028991383 -0.8435504 -0.4732331 -0.1813336 0.045322716 -0.2789022 0.58360326 -0.33290455
WNT2 0.23345162 -1.1741818 0.3111925 0.03168508 1.0665251 -0.7749636 0.37648913 -0.5160831 -0.08439663 -0.09496255 0.4815063 0.15897322 0.01273978 0.5519789 -0.17101637 0.21033227
CD14 0.0009850261 -0.19766079 0.12087899 -0.20939548 -0.08208386 0.0013100319 -0.17069341 0.19326971 0.38458705 0.41867316 0.36000645 -0.5207946 0.111136675 0.47183952 -0.08436321 0.22996679
ACACB -1.3868667 -0.5414091 1.0761124 0.13912407 1.2898482 0.5156555 0.073543176 -1.0437359 0.038736835 -0.24529749 -0.1969207 0.066896975 -0.12193343 0.26022896 0.10942645 -1.0164143
MNAT1 -0.20076416 0.24735439 0.31354427 -0.69518936 1.1075684 0.7433424 0.57995474 0.0077449153 -0.1500618 0.05796908 0.24998759 -1.6110133 -0.39872268 0.9942017 0.3119164 0.24841094
TPM3 -0.024493018 -0.20800321 0.20400162 -0.28393143 0.61756444 -1.0804223 0.39884502 -0.26858747 0.56194156 0.29355285 -0.22912814 0.215015 0.07891119 -0.040301207 -0.8686977 0.5677232
GADD45G -0.0043636956 0.35994455 1.2493228 -0.67860913 0.16606024 -0.65023345 0.52828753 -0.30154958 0.6023562 0.8697032 0.44023648 -0.74012464 0.0053769797 0.6375859 -0.51148254 0.72131556
CYP2B6 -0.7423812 -0.22631441 0.6590678 -0.2933926 0.41514114 -0.02396228 0.868844 0.27155814 0.5630253 0.29401004 -0.10719462 -0.19746488 0.031195827 0.51996154 0.1697826 0.564833
GDF5 0.48534796 0.43595996 -0.92716795 0.23512378 -1.2668383 -0.09203022 0.936664 0.6971839 -1.1473508 0.81394655 0.54034215 -0.14897172 -1.2359948 0.7174045 0.39051414 1.0726511
LIPG -0.06682907 -0.63849944 0.10407237 -0.07835781 0.99544734 -0.027978132 -1.2794732 -0.21245609 1.0636216 0.08823289 0.20645817 0.037472468 0.21875772 0.29760563 0.22783013 -0.0074967262
PFDN6 0.6873416 -0.08512563 0.16176392 -0.04044212 0.11174724 -0.036835264 0.5514114 -0.21584769 -0.055740997 -0.057808883 0.47599852 -0.14426495 -0.103355415 0.15288673 -0.34858322 0.25244993
SET -0.013952088 0.3554736 0.072810866 -0.34596223 0.28708792 0.72511786 -0.008210287 0.9502153 0.22327621 0.62313026 0.50024563 0.6573772 -0.56421584 0.43861368 0.46511814 0.1973875
RBBP5 -0.027767187 0.6704358 -0.16968223 -0.29551643 -0.2156041 0.09785398 -0.29376715 0.12756693 0.47694492 1.0053962 0.52244616 -0.20159456 -0.43695626 0.6024008 0.25607485 2.6135397
CIDEB 0.052933674 0.20635052 0.37631717 -0.6087203 -0.14334203 0.6262188 0.27745903 0.23594584 -1.0004566 0.49551165 0.43541342 0.55027664 -0.05636333 0.055912193 0.1572352 0.25994945
E2F4 0.031055933 -0.23206614 -0.29588953 0.5923612 0.3700337 -0.0938278 1.1316131 0.6640196 -0.09584672 -0.47087267 -0.74586457 -1.7966444 0.72260344 0.054726556 -0.17152615 -0.18211316
USP21 -0.03098899 2.206831 0.3169155 0.5862488 0.45747665 -0.034619227 -0.7437373 -0.016332343 0.41953716 0.32466835 0.8265245 0.26533124 -0.08073886 -0.1784135 -0.46517372 0.051246274
CAT -0.59118384 0.37055606 0.13325907 0.35966563 0.0015188052 0.2855083 0.5369385 0.41764116 -0.12816513 -0.6041655 -0.13291404 0.38861296 0.04749518 0.37590125 -0.28058326 0.10697966
OTUD7B 0.0781417 -0.18452652 0.07488294 0.1293616 0.10353905 -0.025354128 1.3529229 -0.14695777 0.318912 0.14758521 0.19769488 0.29694483 0.083358206 0.50851536 0.8230071 -0.122756325
UROC1 -1.0038563 0.583862 -0.56541705 1.0375671 0.4094381 0.29515526 0.34866 0.13789867 0.45622203 0.058515947 -0.040668122 2.2660017 0.38348648 -0.07238486 -0.4750516 -0.747232
ACTB -0.030318841 1.7012637 1.3900687 -1.2393098 0.33179122 -0.31841424 -0.046385698 1.3247148 -0.05699383 0.3740176 0.2647701 0.6461082 -0.2636679 0.116281115 0.051681187 -0.21096928
TCP1 -0.6305244 0.2685932 -0.35452345 -0.9905769 0.82258576 -0.21271081 -1.3677739 -0.963884 1.264153 0.13397473 0.59328043 0.44695455 -0.08248415 0.4251115 0.3004215 0.8760117
AGAP3 -0.028895978 1.5337207 0.19923985 0.11602211 0.6659271 0.19032374 0.3237197 0.0848935 -0.014638441 -0.0013024241 0.10901247 0.24713986 0.08971784 0.37119043 -0.10597732 -0.42267296
ATF5 -0.21085173 -0.5138099 -0.081072554 0.0073726713 1.3353053 0.6145301 -0.26653695 0.115637526 0.4044617 -0.17780665 -0.70371926 0.71748346 -0.80808896 0.70977277 1.29256 -0.19115748
REXO4 -0.072230235 0.40839615 0.54195964 0.29311597 0.15132542 -0.010136533 0.51952744 -0.6096024 -0.005149679 0.57151514 0.43234146 0.10016441 -0.61570233 -0.33163777 0.17206712 0.5256452
WAS -0.5594949 -1.1615618 -1.0408591 1.9009285 0.27262035 0.055228446 -0.044128284 -0.32546338 1.3536963 0.32641345 0.41481665 0.46638742 0.42192873 0.62092966 -0.71366394 0.9700534
PTPN13 0.6916249 -0.8272299 0.5005152 0.41117588 0.22509733 0.27677327 0.41238013 -1.0162141 -0.17733327 -0.94884646 0.2867434 -0.25838232 0.18218477 0.19177131 0.38731757 0.33126473
NIPBL 0.27127227 0.4361866 0.49648735 0.41467756 0.19138676 -0.12514457 0.501569 0.29628184 -0.61706173 0.46300292 -0.099535726 0.0811618 0.17239797 0.17214821 0.1305377 0.13644691
RNASEH2A 0.59722334 0.44957545 0.38884065 0.20313506 0.7788804 0.6913706 -0.550591 -0.1769951 -0.43040627 0.7249054 0.29114038 -0.06273881 0.5271444 0.25438488 0.9815503 -0.03173431
RPS6KA3 -0.806702 -0.14602593 -0.09679649 0.22050795 -0.14709194 0.4152233 0.58613956 0.1521697 0.1773189 0.089798324 -0.276942 0.29653004 -0.094824165 1.3400866 0.5969417 0.12196442
ZFP64 0.5876886 -0.41078767 1.4062772 0.8242294 -0.19019842 0.018357363 0.34607407 -0.6099344 -0.247758 0.18495995 1.0529172 0.025165807 -0.16872595 -0.17815743 0.23645802 -0.10780453
EIF4B -0.17126724 0.7462844 0.25192395 0.71301734 0.14258394 0.040733017 0.20077391 -0.2527201 -0.007894485 -0.111438535 0.8787323 0.2993324 -0.056525663 -0.009839798 0.1058335 0.2917535
HK3 0.69341034 -0.69845414 0.3566705 0.8795878 1.4070793 0.9471131 -0.22898783 1.2131156 -0.039221544 -0.4113617 -0.17306688 0.7810098 1.0208068 0.60379833 -0.551491 0.107465774
PIK3CA -0.07611205 0.59997106 -0.17201275 0.056517016 0.9519477 0.07080061 0.040338006 0.26347226 0.31741396 -0.11875229 -0.14757206 0.17473872 0.18559872 0.488822 -0.12730666 -0.11283477
PLG 1.3568797 -0.10908263 0.044471264 0.56224775 -0.07183239 -0.028745128 0.8740314 0.58236945 0.17020188 0.610433 1.240084 0.1540402 -0.16416855 -0.35181817 0.6129324 0.41974005
PRC1 -0.25193608 0.8758539 -0.1113731 -0.4616324 -1.1237476 1.5729828 0.14274473 0.25425223 -1.5554451 -0.43987203 0.0014050419 0.35434023 0.40117636 0.0053628245 0.5688278 -0.0032220935
SLC34A2 0.20520957 0.44253564 0.3444298 0.30380043 -0.059093896 -0.0703099 0.34799126 -0.23554273 0.22695193 0.79417366 0.18844266 -0.8451726 0.05400686 0.489212 0.29393736 -0.16185819
WNT7A 0.2699727 -0.16351654 -0.24868777 0.09085955 0.08769257 0.12666152 0.14159586 0.083887324 -0.12751062 0.3178657 0.3406872 -0.16827145 0.4793293 -0.3162993 0.11939675 -0.030409837
ARF1 0.016825756 -0.27675632 0.1210362 1.1180269 -0.15201724 -0.0021773044 0.548486 -0.50815886 0.009262204 -0.39636344 -0.078540355 0.49634936 0.39585164 0.503189 0.6936986 -0.12531836
UTP14A 0.0134897465 0.25219896 0.1621358 0.22346112 0.42749205 0.19842857 0.347753 0.07730999 -0.01994187 -0.50457245 0.46434933 0.44265902 0.19788907 0.36505568 0.92370874 0.03477375
PABPC1 -0.034835108 -0.79154724 -0.23852876 -0.07584619 0.65859926 0.023009675 -0.002914345 0.14056474 0.69176567 0.19322307 0.13954872 -0.59191084 -0.5342215 0.5686224 -1.0338955 0.2241111
NEDD1 1.0514925 -0.1161971 -0.13777475 -0.15084237 -0.0066658985 -0.3219992 1.2394649 0.8818695 -0.44059864 -0.7370805 0.162839 0.29903692 0.5283765 0.43553203 -0.23695043 -0.017588759
RPA1 0.14300935 0.5255508 0.27445716 0.28451365 0.12608601 -0.019056814 0.43457136 -0.11128956 -0.16042832 -1.0849545 1.6046135 0.065423034 0.4745336 0.28835738 0.51944757 -0.5786322
F9 -0.16512738 0.19974467 -0.41301176 0.22276388 0.23111095 0.0019334878 0.54792243 -0.15353157 -1.6050532 -0.003244964 0.16083929 0.060682036 -0.9798215 -0.47056082 0.1989975 1.0602844
PTPN3 0.3579072 0.30733654 -0.08618419 -0.02794407 0.44634175 0.5628244 -0.3904504 -0.063519284 -0.68678284 -0.1888434 -1.1134384 -0.24094991 -1.7347004 0.36538178 1.1164553 -0.14312322
WNT16 0.021576943 0.69697666 -0.0762121 0.2373026 0.6291589 -0.0044800453 0.4194079 0.041864403 0.3452566 0.36787274 0.9210295 0.24048236 -0.15173678 0.5826728 0.017134653 1.51523
EXOSC4 -0.013121836 0.38700768 0.29581863 0.49365088 0.7659352 0.17505904 0.55714107 0.36879426 0.061038118 0.3052095 0.26543015 0.81634146 -0.95475006 0.47192067 0.06154594 1.2005867
LOX -0.21838851 2.0193803 0.21212348 0.07935278 0.6399268 0.21208079 -0.87936354 0.094354406 0.18596531 0.92394936 0.81194514 0.3461591 0.7914148 0.42503598 1.2905912 0.045982853
MCM8 -0.053888295 0.3349573 0.36015978 0.13180313 0.7725124 -1.134917 0.53178537 -0.003029096 0.31730297 0.81586814 0.068770364 -0.8922714 -0.5595456 0.9529428 0.8452232 -0.22651255
SDHD -1.4897718 -0.25093994 1.6611155 0.83290803 -0.22166625 0.18775702 -0.098353885 0.579502 0.22317104 0.2777734 0.25057694 1.1536324 0.55439377 -0.16648935 -0.08526387 0.08624972
CTNNBL1 -0.008631584 0.030373573 -0.12917812 0.4810821 -0.08583142 -0.0004457655 1.2407849 -0.73001266 0.0025234334 0.12938668 -1.6246183 0.7597777 1.491455 0.16312644 1.3243059 -0.6348747
TSC1 0.19781457 0.6576597 -0.24576488 -0.20409434 -0.024832316 -0.4603924 0.30125397 1.0112934 0.046846762 0.371433 -0.18164127 -0.33707827 0.076681316 -0.21518244 -0.028027818 0.0078479415
PPM1D 1.1223727 -0.6956904 0.30174792 0.6160144 -0.078600205 -0.18559757 0.44203195 0.6279429 -0.05158211 0.4719177 0.7307512 0.5671608 0.56110704 0.015183426 -0.8115676 -0.11648272
RNF44 -0.6322358 1.1974959 0.033885937 0.25151974 0.48056263 -0.050868392 -0.21318883 -0.20923564 1.0845661 -0.22640231 -0.6191391 -0.2908951 -0.27787915 0.60500956 -0.25107056 0.099566564
NAT2 -0.20600751 0.07351184 -0.06638352 -1.1184895 0.5981081 0.10193967 -0.8334581 -0.67134356 0.6153107 -0.82195616 0.48850164 0.2864353 0.28409138 0.5435194 -0.08969954 0.6671832
LHX2 -0.3543414 -0.11660336 -0.05509196 -0.51000446 0.721166 1.4656438 0.10254686 0.56967485 -0.040573526 0.74668556 0.4756135 1.0201497 -1.924255 0.83451784 1.9886996 -0.19532938
TRIM71 1.0211403 -0.079699315 -0.21589524 0.13737157 0.063033916 0.9004376 -0.06983074 -0.4817954 -0.15248226 0.4321787 0.8153755 0.5545956 1.5346553 -0.2970785 -0.15951666 0.041556176
CHCHD7 0.00782307 0.0983471 -1.0596864 -0.24184951 0.69404197 0.5954121 0.09085102 -0.8065288 0.43275812 -0.33284578 -0.2936137 0.15336138 0.46762764 0.16620758 -0.88407636 -0.10253686
RHOBTB1 0.25878584 0.112804346 0.34730026 0.4790984 0.17926073 0.7581794 0.8939351 0.4148948 0.55770266 0.5222615 0.15729168 0.272631 0.115978226 -0.76121235 0.45516023 -0.30422467
MCM10 0.09336492 0.14485376 -0.5224502 1.1590593 -0.98725134 0.40139228 0.2737241 0.751779 0.008495665 -0.33242983 -0.6770662 -0.56542146 -0.8272348 -1.0510864 0.09126736 0.16480644
C7 -0.0003641145 -0.4461367 0.13260384 -0.18042798 0.48218146 0.4725386 -1.5064243 0.5548504 0.6985539 0.08246871 0.12050195 1.5331653 -0.14530377 0.23044778 -0.8991128 -0.039517872
ACAA2 0.029348372 -0.44055524 1.1097326 0.30169636 1.1831905 0.321075 0.5216811 0.13795322 -0.026459474 -0.19987044 0.3649931 -0.15175338 0.15014958 0.29493904 1.2507488 0.7385802
TCF21 -0.020149693 0.4826624 -0.10304246 0.020845328 0.5826465 1.1368985 -0.3890224 0.3245951 0.14903487 0.3720774 0.34428364 0.53274596 0.31537303 1.1095443 0.65580577 0.34453878
DEPDC1B -1.1899447 0.6968707 0.11469403 0.16475245 -0.3241993 -0.18541309 1.2005649 0.2586582 0.4276409 0.5243671 0.18757099 0.20281261 0.090006806 0.6253281 0.12675284 0.38051066
PPP2CB 1.4441963 -0.17281877 0.56832355 2.0812457 -0.05903186 -0.018597623 0.45868775 -0.25864133 0.05762018 1.1526909 0.8995318 0.45328686 -0.06074011 0.08872216 0.10085628 1.4032782
C6 0.18029279 0.25760314 0.36388406 -0.84150934 0.114830725 0.02728404 0.43129626 0.057447504 -1.441563 1.2920282 -0.8441568 0.06650773 0.042320613 0.79416645 0.567263 -0.1631126
XRCC6 0.0060647316 0.9867985 -0.32583192 0.55973184 -0.41893274 -0.026931927 0.73891896 -0.5611974 0.3444824 -1.3020515 -0.3251673 -0.6602252 0.19177231 -0.77576685 0.013883417 -0.06350565
UTRN 0.22300784 0.5080593 -0.11569607 -0.018203568 0.70251083 -0.2709108 0.68843484 0.27400073 -1.026573 -0.06374415 0.4226854 0.19166166 0.18869945 -0.15825349 0.4060581 -0.15784222
FSD1L 0.0017210225 0.21969151 0.34955508 -1.218189 -0.4178777 1.0099319 0.4922328 -1.1116992 -0.008969337 0.43244687 0.40272 0.097471 -0.27538913 0.21717061 0.100596756 -0.50160545
SMARCB1 1.3355472 0.28899157 0.016961053 0.16436781 -1.1461383 -0.18772537 -0.4256056 0.9279056 -1.0961608 0.70523065 0.89077914 0.40836552 1.0161201 -0.027176403 -0.7290442 0.008122103
MLLT6 -0.82141614 0.32156667 -0.88280094 0.30913904 -0.058890887 0.35271674 0.078835204 -0.5750364 0.029283646 -0.091190666 -1.0382491 0.55313754 0.06297811 0.9496548 0.16916445 1.7324473
PRKAB1 0.06428458 0.30816993 1.4192767 0.3402485 0.8359808 0.019651689 0.19872731 -0.5629285 0.089615285 0.9982202 0.02836913 -0.0836923 0.9633819 -0.04413561 0.2673546 0.5948967
A2MP1 0.31691346 0.13861515 0.8179569 0.5067506 -0.46367994 -0.0073416405 0.4704521 0.0645983 -0.0176046 -0.23391017 0.67605627 -0.11981649 -0.2206111 0.23855145 0.46044758 0.20617683
ZNF746 0.17358789 1.1870441 0.13569055 0.41058195 -0.08174217 -0.008232635 -0.018929884 0.46236905 -0.32683608 -1.308789 0.6173632 0.30632484 0.06636722 0.21023 -0.17594087 -0.03157647
RPS20 0.08310618 0.39256778 0.2476509 0.5742669 0.28468817 -0.13072479 0.24476653 0.26938534 0.11725043 -0.10859697 -0.17080994 0.2807398 0.8594746 -0.23291188 0.12512878 -0.07782815
PCDHGA4 -0.37069425 -0.27653754 0.29488263 0.23342377 0.40958318 0.55390227 0.20226555 0.93934375 0.047334764 0.0042353757 0.35664323 0.14984956 0.54754174 0.328979 0.26073238 0.08656992
NUP37 0.5385333 1.0942681 0.48475364 0.035179645 0.8656917 0.08714666 -0.86617076 0.97010726 0.24669537 0.5828636 1.6521748 0.40509555 0.14776649 0.31194413 -1.0047724 0.5727824
GRB2 -0.5909455 0.6117355 -0.2947573 -0.14749847 0.13491055 -0.02918871 0.082052246 0.23097758 -0.041792773 -0.025717486 0.18439497 0.43998805 -0.114822656 0.27913827 0.24953905 -1.1045854
NMRK1 -0.24510464 0.06887569 -0.14436987 -0.68116844 -0.48147112 0.43115816 0.31058255 0.20290314 -0.025193464 -1.2240757 -0.1592745 0.79460424 0.31617656 0.01466881 0.053134747 -0.01514977
APOC3 -0.01475945 0.30020368 1.2281874 -1.5300151 0.16820934 -0.0021952004 0.5336797 0.4471712 -0.004129741 0.34485495 0.52221483 0.1934771 -0.011328272 1.0600474 -0.10487277 -0.9455745
PDCD11 0.5965774 0.832749 0.28819886 -0.24292852 -0.82157975 -0.010292582 0.23241109 0.44310042 -0.61566126 0.61472464 0.42175588 0.27260035 0.033026986 -0.7855381 0.08943706 0.060297213
FUBP1 -0.000565405 0.24088897 0.18802942 0.25192752 0.451917 -1.1490511 0.15694098 0.2976194 -0.58595777 0.0054118456 -0.0823261 0.46931347 0.34442118 0.22453365 -0.14102611 -1.347114
COL4A1 0.4318455 0.62242573 -0.52285314 -0.03539375 0.4310093 -0.0047914553 0.11295041 0.045402717 0.46304408 2.1250243 0.24231035 1.002932 -0.059098605 -0.575053 0.5860667 0.55155987
UPF3B 1.0604295 0.4695547 -0.3829062 0.052980933 -0.21267694 -0.043571927 0.13679446 -0.091429114 -0.63186806 0.6065885 0.26934043 0.7808902 0.43240562 -0.0017477361 0.7343502 -0.006610498
HSP90AA1 -0.49524626 0.5351466 -0.49418443 1.6187946 -0.12012395 -0.22177613 -0.25171074 0.28485185 0.35726148 -0.03369324 -0.49804184 -0.40321186 0.039848715 0.4997351 -0.023371112 -1.0353245
BBOX1 1.305217 -0.10351129 0.16291948 0.8244948 -1.2456727 -0.026336139 0.5749446 0.2682693 0.2879601 -0.05306038 1.2674516 -0.8444922 0.7005272 1.3229135 0.36249915 0.08575871
FANCF -0.002663889 -0.16376184 0.34099084 0.23385726 -0.08178335 -0.1894016 0.27076748 1.8061503 0.12261844 0.29304332 0.062586956 0.52165705 0.063130826 -0.08673393 -0.048536323 -0.05503203
RILP -0.3445018 0.97753245 0.17639011 -0.7646322 0.18058884 -0.15765189 0.26724344 0.06596146 -0.2269787 0.4461375 0.22570845 -0.5691868 -0.034128867 0.2593279 0.19544017 -0.022340404
BUB1B -0.040055208 0.49796835 -0.02342753 0.1359448 -0.45769635 -0.0018724527 -0.36789846 0.21496904 0.49194884 -0.049769398 -0.0604383 -1.0832022 0.27890915 0.40073875 -0.108544394 -0.03911236
PSMD3 0.4850079 -1.0108345 -0.36496747 0.9057973 0.56372935 0.5232875 -0.2024003 0.19373722 0.07086263 -0.0025129025 0.17928483 0.72710186 1.5644487 -0.42885074 0.17729183 0.47154456
FUS -0.08902343 0.41939124 -0.157264 1.4222034 0.3512849 -0.16809674 -1.185613 0.40183 1.2191247 0.33941346 0.04970568 0.4501524 0.11033131 0.470019 -0.10738773 0.20567231
OSTF1 0.030759854 1.0073215 0.18992774 0.27670023 0.43292195 0.43886343 0.3360315 0.065168045 -0.007818069 0.26928434 0.4684569 0.3617783 -0.32914254 0.09340177 0.23583055 0.21277775
SUPT4H1 0.037545297 0.11683464 0.49376866 1.1312416 0.68423414 -0.0073742997 -0.030378673 0.43722072 1.0125959 1.182656 0.3014014 0.42627767 -1.8082373 0.39712206 -0.06248086 0.60493475
RNF4 0.10538633 0.36354497 0.05866 0.052432448 -0.6268639 -0.10534538 -0.38455832 0.11769479 1.1004226 0.9208104 0.22352378 0.47597083 -0.017429207 0.7793943 -0.02132181 0.087240756
ZNF623 0.309894 0.32967827 -0.25078654 0.13380653 -0.037935108 -1.5735347 0.6177238 0.5827028 -0.80331796 0.15034363 0.48473272 0.2522205 0.09633264 0.95561594 0.38685843 0.09739825
ARID3B -0.049452607 1.3945311 0.38539717 0.7579959 1.2911187 -0.010001351 0.604341 0.3920817 0.7498337 -0.23518382 -0.08965291 -0.08697745 -0.099800095 0.3661234 -1.3943065 1.7230182
CBX1 -0.5285912 0.37828842 0.029148854 -0.4142102 0.51452273 0.18305014 0.42075258 0.2983788 -0.0016689581 -1.8565161 -0.12810504 -0.16851324 0.3139604 -0.34325996 0.94751644 -1.1592144
SNX30 -0.021577615 0.25645122 -0.11594097 0.2490179 0.26000184 -0.0014210185 0.5092722 0.40281442 0.012163295 -0.5734458 -0.14820972 0.24322975 -0.7685004 -0.24331757 0.021142831 -0.11897336
AMDHD1 0.3961666 0.18580085 -0.19135314 -1.2019649 0.26807743 0.059347924 0.79338074 0.26309127 0.18427773 0.76276106 0.9928452 0.076086126 -0.006813083 0.3709179 0.19420853 2.0902262
SUCLG2 -0.31516805 0.6888162 0.4066551 0.009706184 1.8294898 -0.006883339 0.68457973 1.1900326 0.43440238 0.20230682 -0.35534972 0.35571852 -0.018263001 0.49807084 0.43374544 1.4772326
MGST3 0.0003640796 0.7108145 0.683856 0.24101986 0.23466368 -0.3489913 0.27734137 0.47635645 -0.1633611 -0.061397962 1.1050365 0.5776545 0.03671703 0.28614455 -0.073025145 0.35046816
CYP4F3 0.71230185 -0.034866795 -0.24918969 -0.16280168 -0.014964277 -0.10742636 1.267409 0.21059209 -0.044316746 0.14312102 -1.2354261 0.28426564 0.13728777 1.321028 0.80463266 -0.09866591
C12orf75 0.030882575 1.7091088 0.23123686 -1.9080532 -0.091066614 0.6076797 0.37731457 0.39804447 -0.7201128 -0.29776698 0.35177875 -0.6422906 -0.77792305 0.19703455 0.015876679 -0.9702435
PRKAG2 0.029267488 0.437645 0.23244709 -0.90016586 0.973477 0.17127323 0.36168244 0.091865286 0.075530976 0.15668522 0.5486112 0.5660858 0.045332797 0.7440703 0.7267346 0.29499066
TSG101 -0.71110916 -1.0842068 0.27306294 -0.11745176 0.77733666 0.15137415 0.62124425 0.45870224 0.6228683 0.6363157 0.15459356 -0.71308947 -0.19441403 1.7020984 1.0940319 -0.28737837
CNOT1 0.3215549 0.14133811 -0.93008894 0.21802405 -0.038317572 -0.15498616 0.39671868 0.6915467 -0.43647364 0.29376623 0.28866422 0.36435586 0.11481766 -0.092977256 -0.18142453 -0.05364721
NKIRAS2 -0.043687716 -0.03596232 -0.02828756 -0.36769262 0.11762812 0.89398324 1.6933643 0.14784871 -0.0021095788 -0.7218024 -0.12937245 0.3228739 0.548543 1.3682297 0.44160387 0.32467732
TP53 -0.37472993 0.13599823 0.39810935 1.8293203 0.24410307 0.6873037 0.45969164 0.5894711 0.23215471 -0.73363763 -0.19545308 -0.39546955 0.10518174 -1.3360984 -0.07130956 0.46629715
EP400 -0.59578615 0.49434903 -0.8663272 0.20524235 -0.44192916 -0.028642038 0.22623867 0.5151137 0.20300268 0.5552752 0.28574455 -1.3974533 0.10422258 -0.18574879 0.25759897 -0.12687387
HMOX1 0.05966989 -0.11798824 0.4570612 -0.70785326 -0.07420834 -0.0016444575 0.6692226 0.40854433 -0.4383595 -0.115932435 0.7891181 0.2559717 -0.075557984 -0.20746394 -0.48794168 0.11211507
CCNB1 0.98720217 0.6810721 1.1954923 1.6148983 -0.18155019 -1.0329369 -0.07407004 0.5875819 0.06608746 1.1607549 2.0240495 0.25972116 -0.369934 -1.0709759 -0.112982504 -0.3087832
DCTPP1 0.23748408 -0.21146253 -0.5072295 -0.06064939 1.0796171 0.1705635 -0.032571547 0.78800225 0.061895072 -0.029351616 1.1177108 0.2948807 -0.51386905 -0.33881208 0.21343851 0.43391702
GTF2H4 -1.8887547 -0.60809845 0.8642118 0.25160012 -0.2835763 0.9884451 1.0479779 0.6617016 -0.4980988 -0.0006373627 -1.1387593 -0.5718064 0.15696238 0.5318093 0.3445576 0.15663205
DENR -0.015026423 0.5589229 -0.108475976 -0.10006292 0.6217281 0.33615977 -0.4422715 0.18841045 -0.341534 0.7359656 0.15429252 1.3031708 0.14501932 0.07463398 -0.18108079 0.2802434
COPZ1 -0.005145788 1.2955114 0.39936024 0.3807579 -0.0468392 -0.031238342 1.3593707 0.2022414 -0.006221037 0.49021327 -0.37996712 0.09457265 0.021075463 -0.63797235 -0.11948831 -0.22756347
NTN4 0.4044764 0.97383136 0.61131996 -0.28301948 0.49898127 0.06371908 -0.16274394 -0.15737641 -0.5419135 1.4835013 0.27430186 0.40559492 -0.102890424 0.43677405 0.72461903 0.34327614
ACACA -0.01459844 0.77003413 -0.82860494 -0.11459325 -0.13676235 -0.0033033337 0.1523149 0.21970756 0.3169375 0.88873345 -0.8166496 1.0317916 0.027810004 0.4434327 0.39933026 0.38230556
DGKZ -0.84783113 0.17422386 0.22215931 0.04001312 0.20196709 -0.31727186 0.5077135 -0.38139337 0.059462737 -0.03607903 0.3504782 0.7929948 -0.27079973 -0.14184193 -0.8642808 0.21529293
GON4L -1.6581461 0.26016998 0.16825324 0.33612514 0.39581022 0.042636015 0.3501857 -0.40989137 -0.1858841 -0.90429145 0.3831497 0.0873204 0.7553677 0.38689175 -0.09909294 0.31369904
GSTM3 0.3903005 -0.1394851 -0.030426165 -0.3179409 -0.7504887 -0.42551744 -1.1901728 0.4469402 -0.36166123 -0.11649164 0.46884912 0.22982012 0.38369378 -0.61554193 0.13923362 -0.25484568
AURKA -0.37301287 -0.07631834 0.54845065 0.13278154 1.0473542 1.4495693 0.3595417 0.3919526 -0.057370525 -0.08513702 0.45778292 0.79223096 1.1077244 0.663115 0.87924486 0.7052435
GADD45A -0.18023877 0.2102891 0.31717744 0.1599847 1.590104 -0.2657281 -0.40116325 -0.20752972 1.3451866 1.3433203 -0.0091614565 0.37593287 0.6025482 -0.33793733 0.74754024 -0.14774574
KIN 0.46960735 0.4373852 -0.036525127 0.10346229 -0.0145752765 -0.2397347 0.0056834025 0.46228528 -0.7899822 0.37921786 0.45520154 0.24983883 0.01180846 -0.16780044 1.6125817 -0.10601
FAS -0.31554985 0.35331047 -1.5987386 0.6500041 -0.001986293 -0.017566174 -0.1595507 0.39919537 0.78083545 -0.7316504 1.6460274 0.33902472 0.6973664 0.9957979 -2.096001 0.27377263
HCAR3 0.13230725 0.220553 -0.44629943 0.8887061 -0.06925346 0.66787314 0.1739423 0.9307713 -0.14186221 0.05662723 0.39547834 0.45255092 0.41126704 0.41126308 -0.026199292 0.23525503
CENPM -0.32761285 1.6081032 -0.7985334 -0.021862982 -0.08354525 0.012929231 0.47764418 -0.09328832 -0.5196854 0.27342898 0.06645773 -0.6784625 1.1636924 0.2770473 0.6115807 -0.10530514
IL1RAP -0.031258646 0.38595125 -0.31792307 -0.4143074 0.06134884 0.5482803 0.29054952 0.1787839 -0.005228916 0.19981931 0.079883024 -0.12147803 0.14427999 0.26266834 -0.043734025 -0.26435444
