FYN 1.5359225 1.0094274 0.7049629 -1.1675289 0.32748812 -0.6043598 0.010902023 -0.8547795 -0.17054711 1.1308193 0.08732932 -0.5163505 -0.102139115 -0.04672322 -0.087824695 0.42288828
ITPA 1.1081065 0.12773642 -0.093431 0.5705102 -0.08452839 0.48686063 0.21731482 1.0263718 0.6928323 0.7903557 0.42846322 0.87531614 -0.01892938 0.52694356 -0.041105576 0.31124616
HMGB2 -0.4892369 -0.29993594 -0.030207563 1.2350932 0.018951802 0.17088503 -0.073654085 -0.1611336 -0.6838769 0.40408644 -0.3953633 -0.10736071 -0.56970376 1.4852574 -0.35451972 0.054392356
SMARCA4 -0.20476216 -0.14938234 0.22138786 0.74028945 -0.04488291 0.50175196 -0.13745718 -0.08911402 -0.5706044 0.17306864 0.24336459 0.15970485 0.22608522 1.3282737 -0.43489063 0.82891387
FNDC4 0.9837635 0.44597748 1.7274592 0.610252 -0.015076749 0.023730993 -0.280598 0.60709256 0.08602038 0.72590226 0.38598272 -0.018750912 0.35052344 -0.022616794 -1.3350954 -0.06661612
XDH -0.13174301 0.124253124 -0.47595394 -0.13655654 0.4976415 0.4491248 0.9335275 -0.027473656 0.3238059 0.19480653 -0.35440987 0.27859837 -0.8602903 -0.14218523 0.6293674 0.27166304
MCRS1 -1.5735304 0.36828583 0.52006114 0.3156404 0.12821832 0.20992273 0.6641053 0.158529 0.36117026 0.27185497 0.23997247 0.083488025 0.26913434 0.6563476 0.4479782 0.33605498
TCTN2 -0.6140553 0.36083615 -0.12176856 0.44068444 0.124562204 0.27103055 0.16398232 0.005019391 0.4047469 0.12161404 0.2342086 0.40872973 0.59881663 0.4047511 0.092672646 0.19774759
SNAPIN 1.3837147 0.4467522 -0.6169218 -0.3737597 0.23804204 1.0269942 0.09982702 0.026592115 0.5944346 0.28754956 -0.915708 0.5078909 0.18824865 0.6249909 -0.15866849 0.15310934
FUT4 -0.1938105 0.5445695 1.1155748 1.0788515 0.389369 0.04870015 -0.24818045 0.5175468 0.50915885 0.638297 -0.019211337 1.1062179 -1.6447475 -0.059949465 -0.46128967 0.58947474
HNRNPU -0.9773913 0.18545231 0.43893537 0.28016138 0.36265075 -0.10854761 0.29717806 -0.37988657 -0.7256279 0.8392403 0.6165514 0.3154529 -0.7017734 0.23081581 0.2545244 1.4847574
PTPN13 0.07813144 0.2938198 -0.12951533 0.18538986 -0.26764417 -0.78225344 -0.36483607 -0.030840512 0.0060089626 -0.6100378 -1.109782 -0.00916302 0.925438 0.057500646 0.08375463 0.22696559
ZNF711 1.2288598 -0.20043142 0.62567466 0.21329927 -0.32452634 0.12800339 0.0020920131 0.8041688 0.28625727 1.5195987 0.18494788 -0.22071919 0.102518335 0.7275098 0.45359296 0.043295465
CBLN2 -0.20062175 -0.25079846 0.029942533 -0.115305275 0.554279 0.5405601 0.2523247 -1.4440455 0.156184 0.62086713 -0.9602838 1.0880253 0.24453661 0.03858387 0.48974335 1.0267907
SLC26A2 0.018337663 1.0299479 0.04419756 -0.26337487 -0.07595638 0.1308858 0.25052747 1.3106668 0.1565083 -0.1815349 -1.1581231 -0.29642725 0.21654089 0.7777587 -0.0513155 -0.07310751
TMEM30B -0.1850141 0.22517823 -0.06778128 0.89436907 -0.15193877 0.14914307 0.27996537 0.88831955 0.7662701 -0.026020272 0.44532317 0.00283035 0.10882479 0.68956804 -0.048567217 0.066644795
PRKDC -0.17256007 0.37137723 -0.6417237 -0.7697911 -0.6591548 0.19522253 0.011595966 0.29254487 -0.7272229 0.1341605 0.4481253 0.16085298 0.76690125 0.08897523 -1.1956861 0.24314138
ST3GAL3 -0.57511544 0.49773923 -1.6585286 0.2065158 0.011981072 -0.08546058 1.1626617 0.6736227 1.0143926 1.3778929 0.4469579 0.55715394 0.09750046 0.603568 0.068071514 0.54314715
NPY1R 0.53129107 -0.26316646 -0.05797551 0.074044906 0.05050637 0.24127844 -0.08923993 0.004184167 1.5230798 0.50328803 0.41447958 0.76661336 0.29383284 0.32311174 0.50598395 0.14897382
PCYT1A 0.374469 -0.18888061 0.352906 -0.16782106 0.20732303 0.76613706 -1.438316 -0.4526973 0.097157255 -1.2628263 0.37329158 -0.29473847 -0.22967133 0.34854338 0.4517329 -0.28315204
POLE2 0.40774912 -0.09873467 0.6510721 -0.58315235 0.008477247 0.22044721 0.13148525 0.0069922893 0.45317638 0.25309595 -0.8623876 -0.12595984 0.33262467 0.3238776 -0.07398132 0.10468367
GON4L 0.6314815 0.3067422 0.51112914 0.34707358 0.095018946 -0.13384484 0.010771573 0.06697194 0.6182519 1.0456642 0.30479404 0.66735756 0.4276069 -0.11193988 -0.0017459104 0.12597325
ARHGEF26 -0.18493688 0.19192685 -0.061537676 -0.37347502 0.043551866 -0.20737694 -0.14232482 1.4162011 1.2977312 1.1580778 0.3793326 0.1426875 -0.964041 -0.060179185 -0.11024423 1.27979
THRSP 0.21267311 0.19875443 1.6672226 1.1526078 0.3037374 0.29496688 0.37096813 0.18662786 0.17864737 -0.44120544 -0.4319248 0.04823189 -0.0848501 0.45257434 -0.029396826 0.08381783
ETV4 0.121779054 0.22693351 0.0899869 0.62048703 0.8467272 -0.4303936 -0.013684748 0.00572384 -0.3364905 -1.6359527 0.13351634 0.56748646 0.58603585 0.12418187 -0.27557376 0.61466503
ABAT 0.262629 -0.24669003 -0.09846727 0.184352 0.52563083 0.3183823 0.08310284 0.01324073 0.5683254 -0.7067243 0.50512856 0.883636 0.19461854 0.3091708 0.0011243445 0.30166426
DGKQ 0.3453802 -0.5082166 0.05013098 0.38727173 -0.00018757879 -0.08364163 0.031009726 -0.84607774 -0.047750168 -0.17147008 0.19133577 0.3193995 0.5723075 -0.12952852 -0.009299635 0.2697282
NAT2 0.04787528 0.4506192 0.13989437 0.9867179 0.39331996 0.11339265 0.34705946 0.27893442 0.37240028 -0.46339983 0.25129363 -0.3428563 0.2655496 0.64704347 0.08333207 -0.10122555
WNT10A -0.5538476 0.25041142 -0.22123165 0.6317348 0.016010737 -0.22043133 -0.0730652 0.23659149 1.1153078 0.37486073 -0.0037316184 0.18723515 0.13483964 -0.23754153 -0.5167926 0.61906326
RASSF4 0.7375303 -0.16538335 0.5471736 0.054792628 0.45067847 0.65560895 -0.46066833 -0.5319077 -0.2990888 0.087345354 0.15119247 -0.11640722 2.1946163 1.4036843 1.1466708 -0.32833642
ACBD4 1.186419 0.41285974 0.12695979 -0.08639735 0.01936475 -0.1524481 -0.80995804 -0.31175464 0.18545985 0.5274952 -0.03100968 -0.3291272 0.08547615 0.46592373 -0.02227937 0.08316469
U2SURP 0.73064363 0.120264225 0.2758897 0.48526517 -0.2381029 -0.039866265 -0.4517718 1.3053552 -0.22462557 -1.6521608 0.4777143 0.19857891 0.49498403 0.5227326 -0.0764386 -0.08664022
CRNDE -0.5505279 0.40012282 0.009734549 -0.05601784 0.8396628 0.26092345 -0.10105344 -0.2837818 0.61687505 -0.15606615 0.24887328 0.34963837 -0.9008995 0.40720662 -1.0191414 0.08587016
SFT2D2 1.0070634 -0.4829639 0.42736426 0.35275587 0.116992064 -1.7690728 -0.5949776 -0.36321613 0.35445103 0.29386505 0.578461 -0.084900275 0.49304983 0.61517066 0.3926458 -0.056328494
TPR -0.8593096 0.23600173 -0.44677573 0.8089722 -0.08803933 -0.15947388 0.1776347 1.1963937 1.5258926 -0.4604811 0.7235271 1.3161552 -1.2963973 0.1573944 -0.30386177 0.18136744
USH1G 1.384978 1.9501891 0.14415482 0.37284887 0.10457025 0.058086056 0.26904482 0.0343213 0.101829395 0.7352424 0.5861749 0.07888271 0.16160548 -0.15143915 -0.011838672 0.124492906
AXL -0.147786 -0.35173222 0.028944671 -0.13219902 -1.0052315 0.063800596 -0.017036363 1.6415294 -0.033989754 -0.5219017 0.6205343 -0.02027424 -0.08272777 0.6198594 -0.46777043 -0.26196694
RPL12 -0.24776019 0.017125823 0.4776395 -0.117784835 -0.12550208 0.52987206 0.5191929 -0.34163567 -0.1015826 -0.3305866 0.5042896 0.5222731 0.42645875 0.019100472 0.9323175 0.03160741
GPANK1 -0.96276623 1.714496 -0.24334843 0.5129319 0.13686797 -1.4013598 0.84482026 0.58942735 -0.19360438 1.0895791 0.9713 0.15077856 0.050464906 -0.005401209 0.14312206 0.68690914
ONECUT2 0.19299237 0.18436529 -0.027692027 -0.01412787 0.35276338 0.3537538 0.1082111 -0.0025048493 -0.26683262 0.084854856 0.3218151 1.0331228 0.31501967 0.8942225 0.002947322 0.18413864
USP1 -0.48525628 0.3962894 1.394592 0.3118035 0.12445123 -0.1938838 -0.49017283 0.14764531 0.89923614 0.33541283 -0.5990751 1.316126 0.28561616 0.1501133 -0.14729276 -0.10041941
TLCD1 0.024951097 -0.10002613 0.19372039 -1.246146 0.008274667 0.5074824 0.027616125 -0.0063864617 -0.21257703 0.10333377 -0.35173482 0.052338388 0.09722736 0.43259004 0.0016378586 -0.79448783
HSDL1 1.628518 -0.763014 0.31371993 -0.34023476 -0.0135604385 0.54501957 0.00029580752 -0.022913033 -1.8888582 -0.112395145 0.24702431 -0.87035805 0.49621436 0.43573055 -0.01333948 0.3389392
RUSC1 0.043445516 0.36784083 0.030551089 2.0727625 0.53535056 0.25040194 0.46548465 1.2564595 0.07775911 0.08518194 0.7509005 -0.10612959 -0.4646468 2.3694036 0.43289503 0.45212525
RPLP2 0.13522673 0.21950093 0.9960884 0.85513747 0.34842658 0.7019849 0.06120895 -0.22576025 -0.48645917 0.46342096 0.13847817 -0.07573558 0.24647418 0.20145562 0.24970481 0.77824086
MECOM 0.6950888 0.28376925 0.45084864 1.6419178 0.14079566 0.28857216 -0.04153345 0.11673578 0.3113072 1.2040664 -0.40427884 0.059883922 0.2098152 -0.71682686 -0.63753676 0.3227071
PTBP3 0.5090174 0.34082642 0.62632865 0.9723103 -0.030167807 0.35959062 -0.18406974 -0.63108414 0.7735943 0.057606418 -0.5891204 1.5221536 1.2498538 -0.32897308 -0.40389055 -1.4587324
NFYC 0.33904064 -0.46022525 -0.8982275 0.41320848 0.71346885 -0.02829003 -0.10563975 2.2160997 0.58706605 0.6243351 1.3051785 0.45293668 -0.042596437 -0.87260836 -0.11082027 0.2902059
CAMSAP1 0.35092452 -2.169158 -0.5923003 -0.5795052 -0.035713226 0.3576956 -0.086504996 -0.0014796108 0.5693108 -0.11768567 0.10371808 0.5618532 0.27727944 0.49772865 -0.10625519 -0.21370646
CHP1 0.23123544 0.3270229 0.38739145 1.0046116 0.1666552 -1.5544795 0.048484635 1.2935656 -0.18633886 0.4959582 -0.6818769 -0.037107885 0.43509755 0.9601825 -0.009776693 0.097891256
CAMK1 0.61779535 0.26814875 0.43807927 -0.5828224 -0.0012082562 0.13583548 0.14583534 -0.43966106 0.07790387 0.9419714 0.29355538 -0.23711185 -0.01289577 0.11240563 -0.4711293 0.57927734
PQBP1 -0.27622193 -1.0802323 -0.10993118 0.0066771507 0.41250286 -0.43774953 -0.044345744 -0.10241687 1.2262408 0.05049034 -0.39376944 1.4388367 -0.8817191 1.4920707 -0.015122504 0.4423191
ACTR6 0.23292698 0.37774092 0.16837746 1.0059828 0.10295925 0.044470802 -0.40647003 -0.0047536753 0.28701898 0.35190392 0.21261348 0.12885512 0.3722786 0.4171278 -0.019710919 0.19711225
MTMR7 0.33145094 -0.29227158 0.97961533 0.7226352 0.5000507 0.48138127 0.36557135 -0.013945555 -0.6087635 -1.4710107 0.22223213 -0.09446906 0.19218916 0.681935 -0.037311137 1.0761701
KIAA1143 0.07573467 -1.2373897 -0.7743652 -0.06451695 0.17661917 0.15692079 -0.0107699465 -1.4393605 0.07778861 -0.054636847 0.66433376 0.755172 -0.42568162 0.30170476 -0.2548463 1.0374408
AP1S1 0.98599315 -0.46332216 -0.4227688 -0.35617486 -0.79066294 -1.6719635 0.792882 -0.087209746 0.82689905 -0.24694559 0.2226158 0.9049207 0.52854663 0.1685239 -0.7193942 -0.05305925
RFC3 -0.17083989 -0.048163403 0.73929614 -0.1454772 -1.5180135 0.31955457 1.5753936 0.6097238 -0.15809947 -0.08674695 0.5806375 0.33843574 0.20353389 1.2048312 0.8421402 -0.062049046
HOMER2 1.4423143 -0.31136453 0.50126123 -0.14728214 0.5767624 -0.13389014 0.09142679 0.08906576 0.576236 -0.4486942 1.9664764 0.49528506 0.20792992 0.64599 0.06589782 -0.18873295
CCDC117 0.27774706 0.26532662 -1.330364 0.10123249 0.27029973 0.19908728 0.010241463 -0.00044709363 0.55067784 -0.24026051 -0.5220557 0.31939855 0.224874 0.29913586 0.1884813 0.2670162
EFCAB7 0.23189601 0.253948 0.3844634 0.37787974 0.69811654 0.0640617 0.07872675 -0.0817286 0.22204572 -0.51195693 0.03212894 0.13227037 0.4139285 0.98092115 -0.0046146656 0.17790034
SUPT4H1 0.12615685 -0.13502228 0.43395564 -0.02659492 -0.13786454 -0.10594325 0.7324931 -0.16777608 0.23404932 0.39412856 -0.062577635 -0.24218915 -0.18355821 1.5703908 -0.051113743 0.17227334
HAX1 0.53291905 -0.8500026 0.835592 -1.9505858 -0.01478374 -0.04102674 -0.7372073 0.029114768 0.39498788 0.502333 1.1485045 -1.0487655 -0.546509 0.3798542 0.005124936 -1.3492826
C1orf216 0.38682765 0.23785564 0.40958756 -0.090275995 0.031594094 0.273498 0.04306277 0.10723151 -0.2908827 0.18415454 1.4865105 0.0007893011 0.6048116 0.72677124 0.16763505 -0.036566984
PSMG4 0.08102857 0.09457137 0.09245942 0.43260688 0.55197686 0.13126847 0.5942687 0.098209575 0.30510658 -0.15436251 -0.50437045 -0.05003155 0.092041925 0.6300349 -0.0076707616 1.0147648
HLTF -0.45222655 0.5003849 -0.7143385 0.32309178 0.5511515 0.21067914 -0.8411427 -0.18810697 0.93604314 0.095368095 0.1717297 0.11377061 -0.57231647 0.32254004 0.020676702 0.47774163
FBXW2 0.22344786 0.40985945 0.9273381 -0.382819 -0.03382457 0.21847777 0.7875194 -0.6500603 0.2841443 1.5298896 0.36068022 0.18908532 0.27925324 0.27979615 0.35221952 0.32427385
MRPL24 0.2684762 0.3958512 0.47561887 0.1964236 -0.007931949 0.7884757 0.7687022 0.42884943 0.5268724 -0.28831127 0.47925866 0.05181575 0.16280338 -0.40756387 -0.94775283 -1.6054271
LENG8 0.46863794 -0.18009473 0.4585756 1.1030477 -0.06593135 0.18440741 0.027308041 0.16500264 0.65772337 0.77556264 0.4064562 0.17720903 0.25028408 -0.34124562 0.001218592 -0.24697718
PEAK1 0.024990879 0.34960577 0.25402057 0.5544509 0.012974939 0.21253507 0.7178846 0.36817163 0.43035185 0.29027897 -0.6308074 -0.6734233 0.34474468 -0.53209686 1.0209907 0.0928418
UBQLN4 0.26764274 0.81965196 -0.18358508 -0.098127745 0.040967826 0.59606385 0.006754598 -0.011772533 0.3893554 -0.37403357 0.5190272 -0.37283 0.5290117 -0.42268515 -0.15208352 -0.020357374
DPCD -0.03136941 0.11440141 0.57666594 0.7900923 -1.0295831 0.42594385 1.2035375 -0.3833859 -0.1306925 0.18221508 0.104819365 0.26607665 0.45617467 0.19932427 -0.0323819 2.872645
UBE2S -0.3345999 0.22507463 0.59590226 0.41333753 -0.033896044 -0.24915214 0.5940556 0.5701734 0.3687962 1.8449011 0.46555567 0.026081894 -0.43634725 -0.124274105 0.06331612 0.26057214
CENPF -0.6055927 0.32641545 0.7555205 0.8366629 1.5125083 1.1064516 0.086337544 -1.5464987 0.19719079 -0.50490284 -0.0673592 0.19979303 1.2323308 -0.13437851 0.21494102 -0.04848001
WBP11 -0.14585856 0.23343068 0.6925005 -0.24950106 -0.41836956 -0.38725522 2.3829062 0.62479633 -0.12629174 -0.2962414 -0.120006025 0.042721882 0.14683858 -0.07277582 0.5838837 0.39631906
SORT1 0.68937546 0.31112823 0.42661482 0.6010775 0.65363187 -0.12477234 -0.1414208 -0.73111737 -0.10984519 0.29841095 0.29548186 0.36246783 0.7606281 1.0699371 -0.01041482 0.96082103
CNOT1 0.022614574 0.08487678 0.4502277 1.5996491 0.8194136 0.40927562 0.5621498 0.40257508 0.036427323 -0.23512876 0.39193457 1.875155 -0.21432258 0.14793642 0.8641681 0.100990094
HPX 0.40347567 0.4557009 1.0430413 0.55720204 0.058580272 0.31759828 0.17211968 0.15206325 -1.1172994 0.28834826 -0.14108871 -0.028898783 0.17961022 0.7840847 -0.62878025 0.24264301
GSTA3 0.044911303 -0.58409685 -0.8344326 -0.13515532 0.011054279 -0.6256088 0.5274828 -1.2223746 1.0518495 0.18035412 -0.43488193 0.38194555 -0.30749962 0.021127691 0.005658377 0.42527568
ARID2 -0.083840296 0.09271793 -0.18369171 0.5695206 -0.079217814 0.4771254 0.47312587 0.36133963 -0.021223195 -0.3567262 -0.11912163 0.24579777 -0.11575799 -0.065170795 0.043153312 1.6043766
PDZD11 -0.9226585 -0.28716025 0.32698324 0.6363403 0.3378444 0.1459271 -0.34311005 -0.07586085 1.974196 -1.0405866 0.25885957 -0.62976974 -0.024190623 0.25907025 0.014201566 -0.48103568
CSNK2A1 0.17803892 0.38998038 0.6940887 0.21590532 0.39492548 -0.23705237 0.5692004 0.082918085 0.124809094 -0.22000706 0.08296333 -0.04505795 0.19204082 1.0738049 -0.7537224 0.23556733
UNG 0.29584765 0.18295433 0.34033015 0.60337174 -0.20421292 -0.47992197 -0.13321395 0.7577675 0.5336316 -0.009801692 -0.45904002 0.99250907 0.23773105 0.34836036 -0.29877725 -0.018542929
RNPS1 0.30404356 -0.2539748 -1.432759 -0.15932092 0.11202709 0.65000874 0.009880979 0.42947614 0.7281922 0.25206846 -0.058555238 -0.00636057 0.03390003 0.53409296 -0.055402014 -0.017343253
PLCG2 0.35607472 -0.67256564 0.47569248 0.051545396 -1.0716289 0.1727196 0.124780156 -0.37906453 0.029694537 0.14516245 0.23475023 0.60533303 1.1069256 1.472896 0.04028545 -0.5497314
ASL -0.007077538 -0.09378714 0.14847924 -0.53233945 -0.017563371 0.21724398 -0.27714604 -0.022586163 -0.35424078 0.16981106 -0.060747333 0.10876621 0.32011876 -0.15127802 -0.003980355 0.3113076
PUS7 0.240376 0.67419136 0.30782655 0.84287375 -0.097523205 0.16094123 0.16917267 0.0060935216 0.25760075 0.007008329 0.2784327 0.17362261 0.9006395 0.3088941 -0.010185616 -0.018790182
GMPS 2.3537395 -0.44335842 1.4078664 -0.32727748 -0.74085635 0.28477666 -0.24237874 -0.024622556 -0.19957662 0.59937686 0.42929378 -0.5939399 0.7154876 0.36106724 1.0674369 -0.03973217
SHC3 -0.3199527 0.3996648 0.48705631 -0.4878215 0.20675223 0.11310114 0.14125906 0.056767527 1.250199 0.35713398 1.0055946 0.24512778 0.5590169 0.64053226 -0.00051947765 -0.03389788
ADAMTS13 0.09848706 -0.4383367 -0.24840531 0.060915597 -0.20386115 0.2646202 -0.2085608 0.4310822 0.43843254 0.1286578 0.2261414 -0.5389072 -0.101665236 0.056633364 -0.017564982 0.32775348
SUOX -0.29261622 0.35831076 1.0765535 -0.1475466 -0.024045603 0.41419816 1.54523 -0.13021311 -0.49966937 0.3675781 0.5457003 0.12567472 -0.038026825 -0.27669823 0.9488427 -0.7687426
RPA1 0.3925173 0.1908382 -0.2335391 0.7604062 0.31021675 0.20005289 -0.5317467 0.5126246 0.46252424 0.5799523 0.3088776 0.08847716 0.06458584 0.34887648 -0.18290097 0.6130061
LAMA4 0.035991557 0.19048066 1.1599336 -0.13905577 -0.022816934 0.82349086 -0.3890215 -0.014339592 0.9806248 0.8784891 -0.48027855 0.19307993 0.17902736 0.044616614 0.038861386 0.1253964
S100A8 -0.24710426 0.22735405 -0.026940545 0.19659342 -0.13112375 -0.051324964 0.033356898 0.13822818 0.65848213 -1.0163738 0.44206944 0.9586872 0.5831927 0.83417314 -0.35939762 -0.122743376
HMMR 0.6347077 -0.9281287 0.1504471 0.35108465 0.6395523 0.0796187 -0.01318859 0.07660216 0.53676885 -1.0811363 -0.11383375 0.18656412 0.018406691 0.49702364 -0.010618978 0.15735868
STIL 0.21959278 0.32416174 -0.6435694 0.4282698 0.072645664 0.15020302 0.021969546 -1.1033266 -0.67442715 0.357355 -0.09596299 -0.4301851 -0.47206566 -0.636193 0.0002999229 0.8685298
COLEC12 -0.7641208 -0.2727529 0.9450821 0.7150519 -0.015561867 -0.0961139 -0.2611439 0.00782919 -0.24444272 0.5741154 -0.34002098 -1.883787 0.62828314 0.27312288 0.0103729 0.7750384
MASTL -0.23791617 -0.19960363 0.19347213 -0.16254419 0.55004656 0.37337425 -0.32548615 -2.1837866 -0.22551022 -0.013955506 -0.1742987 -0.0371259 0.26031262 1.9643477 0.38927266 0.19961359
APIP -0.15998502 0.1384527 1.4591593 -0.08719917 -0.28605643 0.23288362 -0.07241335 -0.035601214 -0.48139632 -0.667716 -0.2291834 0.60823095 0.4978089 0.042636864 0.22609851 -0.11414379
HHIP 0.22063927 0.35895815 -0.4852649 -0.5171057 0.065248236 0.13516897 0.7424084 -0.13815954 0.70805025 -0.33665586 0.33726415 0.363833 0.46379083 0.30122578 0.42643437 -0.06312119
TMEM68 -0.24394558 0.4783144 0.023934906 0.69548905 -0.16115728 0.15772356 0.11496656 0.9030445 -0.20362297 1.0277675 -0.3799955 0.66455066 0.5839284 1.4850746 0.07259909 -0.35052887
GTF2IRD1 0.024577372 0.28365692 0.15636547 0.24009411 0.48460388 0.63507164 0.36339492 0.30446333 0.17175466 -0.7236921 0.09307648 -0.22579756 0.58599824 1.1337109 -0.0068433634 0.50238395
CDC20 0.4233454 -0.23923609 -0.0804929 0.722335 -0.041948646 0.079580076 0.20740265 0.0013522416 0.11831863 0.61286706 -2.2022738 0.062001403 0.112556614 -0.22671449 -0.7598356 0.9585933
PXMP2 -0.20022959 -0.08976388 0.2976496 0.17072049 -0.0023903358 0.29108346 1.1125138 0.47457272 0.24536762 -0.42488766 0.2766778 0.107859984 0.121921286 0.79690444 -0.09475624 0.37261397
HAO1 0.4544259 0.3610054 0.15311207 0.31681263 -0.7337283 -0.15314834 0.27770877 0.12605934 -0.47820032 0.3627343 -0.43454018 0.35253954 0.278082 0.28601307 -0.83653224 0.2263699
RPL29 0.13817874 0.14437054 0.08091849 0.6805804 -0.21854219 0.34383413 0.17557 -0.11345567 0.22771321 -0.43474984 0.038968857 -1.0410832 -0.2655884 0.33407155 -0.027065182 0.7035592
FBXO4 0.4896273 -0.068630144 0.71334606 -0.16299394 0.4326023 0.9738234 0.391223 -0.032357752 0.49051884 -0.27235693 1.03578 1.4155802 -0.34144416 0.24414992 0.7338565 0.49748233
MCAM 0.13283983 0.24812774 0.4873042 -0.18947722 -0.1106432 0.52127224 0.5655761 0.26726073 -0.42338678 -0.758854 -0.11520521 0.018919913 0.20413925 -0.38934717 -1.9332116 0.33854666
ASS1 -0.091275856 0.48094118 1.4064281 0.31537604 0.080109894 0.05976259 0.45611897 -0.043708254 0.40547046 -0.6663124 0.092673846 0.27906674 0.7806048 -0.2590545 -0.82998234 0.18568416
CCND1 -0.29625213 -0.1173493 0.3407648 0.83615136 -0.75722605 0.4434581 -0.040075578 0.06343565 -0.32082224 0.8032913 0.5879737 -1.1808825 -0.101663776 -0.33679134 0.5177211 -0.49557614
SPINT2 -0.05437395 1.1527759 -0.07436063 -1.9774549 0.34671688 -0.05679094 0.6094105 2.2372553 1.3326281 0.0075217625 -0.4904296 0.6204823 -0.14253429 1.100037 -1.6014066 -0.014160547
NVL 0.041498356 0.4735781 0.46663478 0.1652224 0.35055768 -0.35411155 0.86331683 -1.0797527 -0.03448813 -0.06264813 0.22880797 0.58647966 0.44877025 0.19462055 0.1299718 0.29621324
CSNK1A1 -0.3087593 0.085406184 0.23110726 0.573539 1.4486742 0.34416458 0.25355676 0.54017556 0.06298479 -0.07260363 -0.096140355 0.22574747 0.06966811 0.6387767 0.28157988 0.6355102
TIGD1 0.45274824 1.1646892 0.40261194 -0.0758199 -0.13669991 0.04267168 0.07323302 -0.25289118 0.016581614 1.1731583 -0.41708726 -0.11985275 0.5604688 -0.02243233 1.2325453 -0.048214305
RNF44 -0.9417125 0.2392254 0.77194864 0.22808395 0.111636415 0.13339561 -0.096128285 -0.8833515 0.72451884 0.34064424 0.5511549 0.03311049 0.3316099 -1.5586486 -0.07861539 -1.4459321
LRP6 -0.4499082 0.21450137 0.27440464 -0.012837595 -0.18613695 -0.75495434 0.47445142 0.007397732 0.87696326 0.40470946 -0.9666327 -0.011636021 0.42575824 -0.5214626 -0.3796105 0.63573724
HSP90AA1 0.5309851 0.92561394 0.2220929 0.4044997 -0.033549555 0.28512242 -0.17476085 0.47178498 -0.1838149 0.6323629 -0.89465195 0.30287495 0.39503065 -0.25372514 -0.6828188 -0.097629696
IGF1 0.12375489 0.21659984 -0.11686096 -0.841381 0.65856093 0.051120065 -0.13221817 1.3745005 0.41403002 0.101453915 0.29439217 -0.10791746 -0.04976879 0.5346547 -0.7864389 -0.73942024
SDC1 0.5553653 0.41014424 0.17253394 0.16241948 0.03668788 -0.29619092 -0.4194285 -0.13724367 1.0202483 0.76060355 -0.0015223189 -0.5020161 -0.08856103 0.63796765 0.036497127 0.47316253
TTF2 -0.051018544 -0.18913682 1.1888155 0.6694094 0.26299047 0.5293458 0.3150137 -0.036662612 -0.9872098 0.026586844 -0.039243218 1.2546641 0.22756454 0.36721078 0.66130537 0.0069589517
WAS 0.7462895 1.0155742 0.1786812 -0.27066478 -0.052879293 -0.38030183 0.0972866 0.03237262 -0.85258645 0.50664026 0.27138653 -0.043181587 0.1616775 0.32356897 -0.02359601 0.33237484
KHK 0.1060385 0.37153035 0.64063513 0.029275438 0.89192045 0.18020739 0.8783862 -0.031096373 0.21899357 0.088446796 0.1946346 0.19844373 0.31039137 -0.35327137 0.29299515 0.31459022
CEP152 -2.8689 0.5216472 1.4413004 0.857353 1.5009398 0.09243551 0.9518956 -0.45842648 -0.20250465 -0.07962262 0.158557 0.3280516 0.4457364 0.6928305 1.3272281 0.631876
RABIF -0.2366708 -0.24150187 0.36932737 -0.4250228 0.390445 0.37351874 0.71770465 0.7033145 -0.06935828 0.21743578 0.51296574 0.61494917 0.021103244 0.7042145 1.039842 -0.07898082
RPS24 0.55489373 -0.5650911 -0.13085191 0.6091174 -0.0060184845 0.026950726 -0.013290955 0.025755081 0.55229425 0.47473258 -0.9320773 0.0044110427 -0.085006654 0.13205369 -0.05503632 -0.641796
SNRPF 0.4512835 0.20077898 0.25379062 0.12396028 0.0031629903 0.36322677 0.052122917 -0.66975486 -0.4857398 0.44607562 0.3178112 0.49705228 0.52946246 -0.45131308 0.2179396 0.24761629
PAFAH1B3 -0.26282257 0.21636085 -0.20043686 0.085074686 -0.0048019644 0.3217351 -0.16292149 0.6983783 0.33106938 0.3063291 -0.47993705 0.2597635 0.5364348 0.4172532 0.03198425 0.047947135
FAM91A1 -0.21238558 -0.16112506 0.5223742 -0.14212559 -0.36375025 -0.32698315 0.68253285 0.2809927 -1.1428075 0.24057637 0.49221155 0.7802623 -0.34342048 -0.030341113 -0.66747355 -0.049539935
OIT3 -0.14262272 0.33286116 0.37381673 0.34379402 -0.08471591 -0.058160104 -0.4865589 1.4156679 0.2909352 0.64065105 0.61255604 0.07454018 -0.24909702 0.5955332 -0.17504251 0.017080745
SLC31A1 0.03049805 0.17049289 0.2321982 1.1419195 -0.662192 0.128828 0.046752844 -0.15089948 -0.65021443 -0.57186466 0.43345687 0.2890835 0.42856473 0.2531176 -0.022952959 0.5113756
POLD1 1.5702742 0.5201715 -0.9901635 0.015628492 0.018670764 -0.49756965 0.006802181 0.14195466 0.08928017 -0.14742339 0.16100526 0.07752785 -0.7423963 0.27261436 -0.15509386 -0.61250764
EPCAM 0.5447164 0.1809143 -0.054725535 -0.16622855 -0.13246034 0.90966034 0.025622882 -0.0043597375 -0.03780598 1.2807406 -0.24237494 0.010353139 -0.232713 -0.50362813 0.07106663 0.32660943
EXOC4 -0.50752664 0.22341037 -0.28045732 0.31150198 -1.3660325 -0.3460671 0.30472758 -0.20774546 0.65678513 -0.41650853 0.18077458 0.20033757 0.44362837 0.14494757 -0.25129926 0.15284714
AURKB -0.11051845 -0.5940956 1.4499744 0.9819094 -0.37324396 -1.1136202 0.8867157 0.65420526 -0.2687935 0.038520332 -0.36395332 -0.044750813 -0.99740815 0.3427399 -0.020417456 0.509198
CNTN4 0.5027978 0.9423029 -0.9073695 -0.06513115 0.032447353 0.41318992 0.1602948 0.21469109 -1.0394895 0.14133464 0.12746154 0.4516392 0.095006555 1.2218093 -0.1349673 -0.4595471
BRD7 -0.57830423 0.42966548 0.93236226 0.5558845 0.72411114 0.14941983 0.39721453 0.20117956 0.74444795 2.2439315 0.21097788 0.006428116 -0.59900194 -0.31338444 0.65726525 0.4107645
FGF13 0.38292837 0.2088461 -0.35245013 -0.19590342 1.5357573 0.30409637 -0.02098581 0.004281127 0.0022453042 -0.13206422 -0.8462068 1.0142714 0.23389341 0.81957847 0.060921535 0.7200745
FBLN1 -0.5711194 -0.32520527 0.5306943 0.35801882 0.1377152 0.59675777 0.112460226 0.0025919867 -0.16238044 -0.33581534 0.36582908 -0.8201415 0.33569756 0.3425933 0.24581647 0.2618257
CCT6A 0.29255727 0.4315821 0.91295284 0.46884856 -0.024108013 -0.060661606 -0.5627656 2.1445518 -0.2572733 0.87480813 0.68813914 -0.024684312 0.5823875 -0.2869987 -0.04403879 -1.1151332
NNMT 0.2596334 0.47368786 -0.23798425 -0.05991741 0.052809965 -0.8293448 0.007583059 -0.8688881 0.9840629 0.4973254 0.38299027 -0.5201623 -0.16068438 -0.7275218 -0.006947307 0.106937245
FXYD2 -0.12541087 0.41960984 -0.15187001 1.1059817 1.2536803 0.25716537 0.77654743 0.011981245 0.5788195 0.22905286 -0.16452925 1.3857199 0.13069487 0.14578891 0.5411895 0.5775903
PRKD2 0.45861453 -0.27307224 1.0101719 0.027443485 0.20866744 0.24199605 -0.02328924 0.06772476 -0.43928683 0.17220412 0.27047753 0.32507396 1.0302416 0.32516342 0.053848755 -0.07083395
RBSN 0.77307487 0.25565565 -0.12844428 -0.003109358 0.062102314 0.6213338 -1.4709313 -0.0137293525 -0.23298623 0.36025715 0.22977982 0.28007692 0.24138302 0.3500947 -0.021565598 -0.20056821
CEP55 1.199287 0.15715829 1.1403445 0.32877403 0.11744385 0.12251936 0.1062337 0.26360014 0.8670507 1.0456934 0.37853158 0.51948094 0.2620163 0.39393035 -0.5120094 0.027681014
PEX5 0.2945724 0.14925541 1.7184156 0.85457605 0.12699218 -0.18027197 0.20625918 0.8633863 -0.23919924 1.4994305 0.50516814 0.009175929 0.087180294 0.38194284 0.39300728 0.56077725
MYO10 -0.24250963 0.20029406 0.025822999 0.48841208 0.19268814 0.6895237 -0.6629288 0.5919082 -0.14964081 0.051009167 0.2596109 -0.09536541 0.34815267 1.5124778 -0.02752744 0.04046011
STOML2 0.21697822 0.35971284 -1.5231887 -0.7517889 1.038978 0.31159973 0.17128423 -0.015900565 0.6256496 0.32216957 1.1792405 1.1109502 -0.05398538 -0.26858422 0.065056086 0.9126933
PODXL 0.2906483 0.008668055 -0.3227699 -0.34447992 -0.13864493 0.1093013 0.010106195 -0.062776245 -0.5812854 -0.14761142 0.21288213 0.47317153 1.5970696 0.6366932 0.04197595 0.001671532
PTGES3 -0.60964453 1.2770998 -0.20638357 -0.17850046 1.0783724 0.86792445 -0.32487005 0.6734569 0.28411746 0.31151444 0.21186544 0.4143944 -0.054008275 0.16143009 -0.06464878 0.22664343
NDUFA2 0.28280875 -1.0650183 -0.015004695 -0.11407609 0.19139722 0.020606808 0.36590013 0.1362994 0.47891188 -0.47852013 1.6390351 0.88268346 0.032013137 0.3621576 0.0075974935 0.5860248
ALPL 0.05460044 1.0897086 1.8951671 0.30107474 0.7337063 0.12497783 0.36766803 -0.01241956 0.6809818 0.5526269 0.32893768 0.09326366 -0.2351498 -0.11999728 0.05953564 0.46954113
YWHAZ 0.17284274 -0.0065680277 0.5233084 -0.33392805 0.57247204 0.46815977 0.8013241 -0.0675559 0.39866078 0.1728735 0.30511475 -0.4640678 -0.18071526 0.6418304 0.7071853 -0.07631574
PCCA -0.003669559 1.5302649 -0.10233699 -0.6902233 0.048505157 -0.0044820462 -0.46720803 1.195827 0.1935766 -0.42660812 0.49659988 0.17541009 0.15214556 0.45094392 0.024641493 0.01040518
GSTA4 0.15193096 -0.7710489 0.080200784 1.5769516 -0.042136885 0.29050055 -1.3909723 0.36618274 0.60034794 -0.318577 -0.13872674 0.056203507 -0.53439844 0.8593122 -0.23463044 -0.033831395
ROCK2 0.5029685 0.35657647 0.07077802 1.3049197 0.76742214 -0.5818915 0.073757745 0.2198639 -0.05525006 -0.2913998 -0.325624 0.98407364 -0.41990003 0.64818215 -0.010813637 0.40395644
NUP155 0.36117944 0.13398367 1.1877532 0.36003056 0.6083607 0.278261 -0.29308534 0.030569509 0.7546545 -0.27917722 1.4034302 0.110388204 -0.6976368 0.19776468 -0.0109995045 0.22688368
UBE2Q1 0.16524494 -0.2533826 -0.15425895 0.6506079 -0.086213365 0.28880352 0.03456466 -0.73828506 -0.19430798 0.16273785 1.0131758 0.14765 -0.00887605 0.25669873 0.05612484 0.32952768
RMST 1.1201779 0.26785773 1.403739 -0.28125036 -1.3180721 -0.093388155 0.4478937 0.33998194 0.35148686 0.904603 0.41906524 -0.026686342 0.20168152 0.30980873 0.03326412 -0.01746364
RAD51C 0.33055264 0.6670256 0.5106601 0.55633277 -0.24404898 1.094828 -1.8731098 0.16039169 -0.077460416 0.6079037 1.0432255 0.27538684 0.1117489 0.13520405 -0.07424451 0.59346664
DDX39A -1.2888163 0.1773396 0.080061086 0.028593188 0.58093137 0.4633677 0.92084306 0.13314815 -0.8114571 -1.2732986 -0.35624534 0.39503667 0.023739202 -0.11691859 1.2831359 -0.27557167
FAM120AOS 1.0042317 0.26524574 0.097334474 0.4001624 0.0020174256 -0.09369161 -0.008226352 -0.25018144 0.1956409 0.51809585 0.08632431 0.4367876 0.31045932 -0.8437346 -1.0781833 0.33637425
FASTKD3 -0.13178584 -1.0234954 -0.9498152 0.64229584 -0.15528077 0.7101333 0.035126485 1.1747797 0.03109405 0.06327084 0.1549274 -0.5346476 -0.008302763 0.19112425 -0.49989986 1.1984868
PLCB2 -0.21697198 -0.15655859 0.056951635 -0.498232 0.8982911 0.46600688 0.7993171 -0.08423408 0.6090315 0.290215 0.31130186 0.6347398 0.10771344 0.7123676 1.9016738 -0.13891757
CYP2C8 1.2861946 0.14499311 -0.20478177 0.58472925 -0.03544179 0.8774085 -0.892794 -0.24553475 0.6048559 0.7646902 -0.6569286 -0.25783393 1.5728017 -0.24106216 -0.19017528 -0.057741284
CENPK 0.62981325 0.20149146 -1.2688363 0.84075946 -0.9720506 0.31586996 0.1377841 -0.44064644 -0.116908245 -0.27154672 -0.68850744 0.048874572 0.21693218 0.24895956 0.0027488216 0.1370867
CNOT10 0.23096193 1.8557191 0.16458148 0.4255639 0.73282623 0.011433139 -0.75469524 0.29592457 0.16403106 0.24759784 0.52161795 0.9656191 -0.40836793 0.25759068 0.030720238 -0.13686702
RHOBTB1 0.46394214 -0.15170419 0.3156521 -0.6619536 -0.015019761 0.20497939 0.009640358 0.2959971 -0.10741844 0.3882476 1.3070741 0.24249129 0.06822593 0.79709756 0.19994459 0.040594257
NCBP2 -0.53520197 0.24529035 0.79177475 0.40758103 -0.0492963 0.16636686 -0.02446653 0.19079773 0.42624217 0.21715617 0.46402925 -0.083101496 0.12219676 0.45568818 0.107384354 -0.02556704
ZNF623 0.01992156 0.2648243 0.11262275 -0.19300823 0.09310714 0.29546794 0.5940566 -0.00521906 0.37017012 0.26699024 0.24389541 -0.018843707 0.59920806 0.36651132 0.76142883 -0.027919404
UGDH -0.1851809 0.17140538 0.5061034 1.8071283 0.6801366 0.0064270976 1.4918653 -0.50510806 -0.07802815 0.9395932 1.5963267 1.1144638 -0.109749645 0.01273695 1.5668949 0.17911483
KCTD6 -0.12060816 0.65306354 0.9857734 0.13328516 0.2129833 0.24413288 -0.18737382 0.05348034 0.17542396 0.38019583 0.081712015 -0.05768107 -0.27156338 0.2888668 -0.292247 0.26906297
EIF3D -0.06645843 -0.6842781 -0.27589503 -0.021154365 -0.042785935 0.23414296 -0.02318398 0.009332763 -0.37676564 1.2344103 -1.2447822 -0.07245694 0.6270835 -0.24510747 -0.6673314 0.46048746
CENPJ -0.1496086 -0.26526117 1.3554723 0.5235896 -0.02430262 0.37277737 0.25016162 -0.04246215 -2.7193227 -1.275322 0.3792237 -0.014429296 1.0088589 0.11418013 0.049327653 -0.69474316
TRAF5 1.6905181 0.9548432 1.0041318 0.5246399 0.70832044 0.30866086 1.0112288 -0.040649533 -1.7485735 -0.11062082 0.64919025 0.06686653 1.6386975 0.7140297 0.19805998 -0.07439541
FIGNL1 0.14667591 0.21404211 0.11983412 0.784489 0.29374325 0.30907863 0.010850013 0.078464285 0.294129 -0.15582149 0.34027386 0.41354567 0.35539836 0.45512393 -0.3035877 0.5885471
EXOC2 0.1298743 0.9410674 0.184134 -1.1862383 0.2233604 0.37029946 0.3591717 -0.00032331276 0.65655214 0.18273261 0.21930476 0.23902515 0.30165735 -0.19885753 0.08936947 -0.028391464
CLIC1 1.0954454 -1.3898317 -1.2875891 0.30873352 0.3605523 0.4911052 0.003077535 -0.005069025 -0.10518916 -0.44505516 0.2259781 0.54714966 0.25986546 0.49547946 0.37735036 0.46182323
SEM1 1.3812772 0.015881928 -0.056165617 -1.1521577 0.9825676 0.39530548 0.17179409 -0.029971035 0.4732311 0.017967165 -0.068706825 0.4102956 0.0044147847 0.59052366 -0.6741222 1.063289
SUV39H1 0.40075907 -1.0270165 0.32198414 -0.0700812 -0.32105604 0.4680224 0.26263684 0.3748314 0.18789138 0.525908 -0.040771246 -0.3346548 -0.5262069 0.5641368 -0.00667422 -0.62518996
ZNF189 -0.18726467 0.8958044 0.4507711 -0.53728324 -0.09506403 0.4006508 0.9618305 -0.59149283 -0.14617567 0.7548779 0.26852062 -0.01728085 0.11110089 0.12760346 0.5038977 -0.019843342
TOPBP1 0.15147913 0.24298601 -0.46324775 -0.06980437 -0.084693655 0.05478226 -0.3848865 -1.5723392 0.028625859 -0.7236525 0.49116826 -0.022260236 -0.66131735 0.004681508 0.18677756 -0.31331354
HSF2 0.06522266 -0.15574025 0.13356985 0.009545811 -0.0065533686 -1.0306145 -0.67224467 -0.08162359 0.48486024 0.042126305 0.25896114 0.10105308 0.36351383 1.3681794 0.023895439 -0.07459931
ZWINT -0.8820139 -0.3070392 1.4704102 0.38115105 -0.029590806 0.5640338 0.09382311 -0.1848897 0.48294255 0.93098474 0.5364481 -0.33661208 -0.1738764 0.034581188 0.5530958 -0.4892647
SLC2A2 0.6270159 0.28513914 0.22219287 0.28658992 0.048455827 0.23131895 -0.47114155 0.29434475 -0.24410796 -0.059084814 -0.108025126 -0.8539996 0.41596013 1.4397017 0.10511921 -0.5890662
CPSF3 1.1495143 -0.6809545 0.27601624 0.3340155 -0.010150206 0.96639776 0.07056622 0.13922895 -0.26139778 -0.5781437 0.49264523 0.55952173 0.27443528 -0.34167773 -0.005712268 0.0065192957
ZNF746 0.53721166 0.17007017 0.51950985 0.13557763 0.15870547 0.36176133 -1.2423403 0.21905193 -1.119819 -0.42207327 0.25935796 -1.2148719 1.0442668 1.9899288 0.005529629 -0.021203218
ACADM 0.3694857 -0.018294685 0.29576275 2.2261891 -0.07591202 0.16344278 0.6143857 0.03708811 0.67269385 0.27676395 -0.7596553 1.9182853 0.22661954 0.47497293 -0.021956027 0.039526273
SMARCC1 0.38709956 -0.1562712 0.6133641 -0.10351062 -0.94218636 0.5198866 0.74830985 -0.9339934 0.5444609 -0.28552422 -1.157535 0.98882437 0.43874827 0.6744747 0.03803108 -0.009521953
FUBP1 0.4674147 0.41606197 -0.045247022 0.5530939 -0.089857325 -0.2521987 0.022235481 0.5945623 -0.18866733 -0.07403513 -0.5355356 -0.015899284 0.19643739 1.2553303 -0.0070904978 -0.19922438
NEDD1 -0.061299548 0.18492527 0.57464826 -0.3804958 0.37366572 0.50501245 0.20837253 0.20479144 0.0673077 -0.073798716 0.002808166 -0.6966074 0.38139838 2.455312 -0.40437067 0.12088675
CYP4F3 -0.060757447 0.07562096 0.77120894 -0.16058846 0.4922575 -0.053010583 -0.17851223 -0.026366564 -0.5766326 0.7477024 -0.2941245 0.32570902 0.30064428 0.043728825 1.2523575 0.5414942
NUDT3 -0.08662033 0.6421157 0.36524 0.7958862 -0.008584308 -0.9070878 -0.5075052 0.82134855 0.49726558 0.519958 -0.1901756 -0.104232535 0.22121815 0.01288202 -1.3740646 0.19859439
KPNB1 -0.12893522 0.07065927 0.3165401 1.1790868 0.331295 0.16614513 0.41903475 0.018646752 0.84142166 0.23864964 0.19082469 0.0933639 -0.4669248 -1.5418105 0.14284106 -0.86315376
NIT2 -0.19015397 -0.28480208 -0.03516437 0.19623931 -0.011257944 -0.5796468 0.010014793 0.13190563 0.2773766 -0.056380324 0.3261577 0.47031316 0.6725636 0.38615474 -0.25828996 0.20989974
CDCA7 0.45360416 0.24875186 1.1298816 0.2251333 -0.25501978 -0.36692864 1.4287896 -0.06354085 0.32806256 -0.68437797 0.4942959 -0.17621748 0.092837624 -0.7813566 -0.022428779 0.6550547
DDX55 -0.5313116 0.2894112 -0.045652486 -0.6430442 0.5483098 0.25754488 -0.18728064 0.3170295 0.6143499 -1.1548836 0.4351646 1.4451928 0.27083564 0.278065 0.041210834 0.16082408
RCAN1 -0.17695734 0.43567178 -0.55402017 0.6480525 0.7892158 0.34108153 -0.16489539 0.24258876 0.09831022 -0.16554868 0.14009875 -0.051250923 -0.36313102 0.5753229 0.014507899 0.6735625
RFWD3 -0.2580707 -0.28187895 0.6433252 0.6925502 -0.075463586 0.26487198 0.12084612 0.10032463 -0.42401287 0.2894051 -0.32156894 0.097842366 0.2793324 0.2457215 0.18588217 -0.12625581
WNT5B 0.024597172 0.230832 0.5134293 0.5500293 0.28029376 1.083484 0.895866 -0.017970257 -0.020894788 -1.4447684 0.15916432 -1.3998222 0.46679765 0.32024214 1.2773958 0.33529267
EZH2 -0.64541703 0.4983508 -0.12150863 -1.0332537 -0.049845934 0.3752633 0.032490995 -0.04611288 -0.6076867 0.07267802 -1.3385366 0.21303363 1.8727279 0.14187631 -0.44358945 0.23457
FZD3 0.3615441 0.26750812 -0.13445428 0.37572208 0.38725102 0.2639772 -0.00023595942 -0.96046215 1.3267823 -0.4720356 0.68003494 -0.24087311 0.11153965 0.48709127 -0.006060516 0.23105368
WNT9A 0.046204627 0.32732755 0.8870416 1.7609099 -0.063905954 -1.3057845 1.0410447 1.9942604 -0.053199343 1.0566624 -0.41360292 -0.019700814 0.01975571 0.99206513 -0.5095741 -0.84996045
CALU -0.8868095 1.1447514 0.31377447 0.7512322 0.015522872 -0.010460909 -0.28900352 -0.023976834 0.354141 0.68756646 0.2721176 -0.029870037 0.38767362 -0.83411795 0.22286531 0.2532638
PCGF6 0.6829443 -0.77866375 -0.21210253 -0.8961071 0.8552741 0.17552203 -0.043230504 -0.010548086 0.41899687 0.7286569 0.24811825 -0.4631885 0.021346804 -1.0055068 0.07387226 0.23026544
LDOC1 0.3392403 0.33644575 0.07263442 -0.05677839 -0.26983866 -0.024604326 0.095027536 1.3669996 -1.153527 0.73234373 0.8721337 0.057761457 -0.07625005 0.9382462 -0.0224406 -0.0049336655
HNRNPK 0.5832587 0.38498288 0.9254603 0.6623491 0.23915976 -0.07496489 0.15976022 -0.01672795 0.3791281 0.33161002 0.22463669 0.49457592 0.66823214 -1.4270166 0.48726997 -0.6707211
SET 0.14297986 0.1870702 -0.13133536 -0.5739131 0.0071663675 0.26966536 -0.54701173 0.012480193 0.041631233 -0.25292793 0.76271385 1.1989887 -0.2733588 -0.90417993 -0.0029463258 -0.95569164
FANCI 0.0787257 -0.8367688 0.25014406 0.011672148 -0.12671804 0.17890319 0.25579438 0.0076545156 0.6571284 0.42791396 0.515495 0.3039582 0.41257027 0.07812358 -0.28236884 0.080058806
LRP5 0.24355584 -0.30291626 0.41413695 -0.11498792 -0.2553256 0.23984274 0.12519565 0.17041562 -0.880913 0.027490586 0.33964428 -0.022565356 0.55699706 0.84291667 0.26000577 -0.036163684
ARID4B 0.49152195 0.18452293 0.35508347 0.22285545 -0.19243741 -0.13537242 0.016279254 -0.12457893 -2.1292481 0.44510892 1.9695127 0.011509004 0.0184385 -0.14844687 -0.054723307 0.7946445
CXCL14 0.100682914 -0.5451108 0.31401244 0.8533053 -0.304565 -0.060508784 2.2951171 0.38280073 -0.09328419 -0.21246545 0.27308217 -0.22622466 0.26306134 0.32260624 -1.0662678 0.8883191
MTOR 0.8256465 -0.23999278 -0.10233268 -0.17235503 -0.06767625 0.082370356 -0.04897126 0.19440044 -0.12565567 0.09651634 -0.6767695 1.0202582 0.61972034 1.2616563 -0.5838402 -0.12467423
CYP2A6 0.6533979 0.44519413 -0.8604268 -0.078118704 0.62691 0.24177039 -0.5071167 -1.1346391 0.2282176 1.8622314 0.29947034 0.03278742 0.32061404 0.28718925 0.0509167 0.53192
CNTFR 0.040558193 0.13403612 0.009422873 0.7354944 0.18076795 0.17360657 -0.5638643 -0.034768265 0.9820597 0.7990682 -0.59523976 0.55302966 -0.44251907 -0.29726243 -0.046101626 1.3166555
RPS6KA3 -0.14340088 0.27202368 0.09194887 -1.1137774 0.018445846 0.110301875 -0.005675724 -0.3791735 -0.12943885 -0.022965632 0.45142502 1.2624876 0.54981405 0.23999824 -0.11274699 0.11003575
GPSM2 0.015052809 0.018107474 1.0320287 0.21513256 0.3710526 0.5038706 0.8225132 0.033208854 -1.0773569 0.2871669 -0.07263032 0.20568377 -1.0598077 0.46495944 0.8790027 0.048728596
POLR3F 0.18257387 0.10733225 0.49025893 0.08645976 -0.37519744 1.3508933 0.8559637 -0.22001922 0.5145451 0.2825026 0.33310926 0.6596658 0.4121061 0.8515046 0.82872385 -0.079066046
PRPF31 0.44136858 0.57337356 0.73349714 -0.30212486 -0.23097007 0.26660055 0.98787624 -0.5853765 0.13883418 0.30942568 0.2850785 0.07535925 0.14782828 -0.29010785 0.21450892 -0.5413414
HBB 0.7874992 0.2963182 0.42008108 0.9010568 0.0050385436 0.1867247 0.06186007 -0.14362302 -0.040541854 0.5950976 -0.9038118 0.458987 0.23716944 -0.546418 0.020315338 -0.06455154
HJURP -0.1317273 0.26572776 0.6123444 0.034856487 1.4920471 -0.16173704 0.44469976 0.010436369 -0.19491816 0.0709554 0.073061846 0.47680694 0.18931314 0.7346762 0.45536295 0.5131224
DTL 0.16728415 0.5751874 0.8984808 0.28343183 1.1194965 1.3575064 0.01891164 -0.22947986 -0.029115355 -0.041327395 -0.33221927 0.5186053 0.48464683 0.47498846 0.06243415 0.5389156
MMP12 -0.14228906 -0.3486472 0.5294262 0.086687945 -0.110867165 0.11369252 1.2749783 -0.47487962 0.79034 0.8867245 0.25305858 0.056499615 0.07963377 -0.0281792 -1.3952546 0.28059292
HKDC1 0.0058080005 0.37248692 -1.7490466 0.63388944 -0.508232 -0.2153208 0.013475788 -0.37785834 0.3578544 0.24985859 -0.44507873 0.15172863 0.17692707 -0.21157855 -1.7308677 0.95860016
PRKCG 0.4431125 0.30217496 -0.02436416 0.74571234 -0.023966616 0.33829778 -0.02740183 0.0052229296 -0.01391103 0.054653093 0.21229348 0.11681705 0.33996195 0.6858579 0.018245084 0.0906144
DIRAS3 1.0819279 -0.61313903 0.14714032 0.7262489 -1.8305743 0.09104756 0.033163846 0.9286312 0.40816566 1.0786161 0.12893012 -0.040996842 0.4319302 0.46014437 -0.06643841 -0.01564152
GADD45B 0.076861314 0.15703392 0.122184694 0.08778638 0.097832836 1.0027931 0.8578954 -0.018523727 0.35973984 -0.24515638 0.16909431 0.6760732 0.8587306 0.40188074 0.24524978 0.06975167
SUPT16H -1.1383554 -0.1418001 0.0023896722 0.14855751 0.064101264 0.35883552 -0.92361546 0.49209782 0.068098284 0.41331875 1.0119462 0.3661598 0.33060405 -0.13887873 0.43687445 -0.87956333
GCHFR 0.43732852 -0.19327906 0.041573834 0.62900406 0.0018140366 0.4185306 0.030841574 0.34717453 -0.23310876 -0.23750162 0.29408148 0.7809531 0.23403312 -0.5208468 -0.7200023 0.39393967
FNTB -0.22809173 -0.14934805 1.5814753 -0.09321356 -1.1820806 0.46159858 0.14298517 -0.022091376 -0.45009193 -0.16402034 0.6204862 0.36420134 0.5586968 -1.1285443 0.80734575 -1.0580767
ATP6AP1 -0.96927255 0.9139037 1.0868748 -0.21002422 0.5593236 0.18877193 1.4525598 -0.27246013 0.56995326 0.17272268 0.095828906 0.14239739 -0.32507655 0.42499352 0.75150084 0.2409284
SOS1 0.5424893 0.25405362 -0.23787418 -0.0867054 -0.75713557 0.31975862 0.05679862 0.5019535 0.02963497 0.7370903 -0.20270357 0.19838777 -0.30647632 1.3281546 0.013107605 0.08502432
BCHE -0.17147295 0.37229487 -0.26051414 -0.34522668 0.12955429 0.49719694 -1.2141389 1.5398886 0.5552667 0.4572293 -0.262804 -0.68465155 0.13633391 0.52915806 -0.12986095 0.08330487
EFTUD2 0.19395418 0.3056441 0.14747837 0.35653788 0.13599452 0.25715593 -0.9980147 0.2155566 0.4257181 0.08792223 -0.23646985 -0.0012195816 0.4616603 1.527857 -0.1726816 0.05872682
SLC39A14 0.3749238 0.300504 1.6122804 0.4936843 -0.3082078 0.49926254 -0.3458897 0.27058056 -0.17499621 0.77112794 0.29747367 -0.31422627 0.23716317 0.10175477 0.0014421577 -0.7968557
CEP70 0.16306277 -1.3458568 1.123132 -0.09953408 -0.028584838 0.42139485 0.010347979 0.74758154 0.043766752 0.681305 -1.2738373 0.03411094 0.4350024 0.40163147 -0.06947438 0.09273304
RPS6KB1 0.5446813 -0.045734834 0.6211702 -0.14214748 0.07035349 0.8169397 -0.3180356 0.44024867 0.40994483 0.5565214 0.43290746 -0.39874 0.60845995 0.8219598 -0.68531305 -0.07906989
CCT4 0.50926095 0.24472263 0.5185711 0.7689949 -0.754844 0.21285535 0.7724234 0.020008663 0.20041277 0.3747002 0.6032309 -0.48154268 0.775556 -0.40730086 0.7020246 0.041495245
GLUD2 1.1092054 -0.1389598 0.61413264 -0.047808807 0.10486165 0.8473344 -0.12960373 0.021762518 -1.5953279 0.71546936 1.5306741 0.0011814174 0.083007686 0.2571603 -0.655131 -0.21458413
SFRP1 0.5762316 0.3096892 0.38057867 0.9250453 0.49073175 0.3801466 0.8602951 0.45372573 -0.1913139 0.5352769 0.283202 0.13266398 -1.6181154 0.22862183 -0.009359471 1.3459562
SLCO4C1 -0.15319195 -0.66982716 0.99746096 -1.0563204 0.04900152 0.042986717 0.010811765 -0.6163071 -1.1871082 -0.37134698 0.7524234 -0.094906345 0.45724916 0.24479201 0.32736555 0.24047121
TARDBP 0.28891745 -0.889185 0.20776144 0.08460179 -0.023204356 0.3444769 -0.45700228 -0.9044764 0.18592407 -0.55461663 -0.0335367 0.8614835 1.276803 -0.7641075 -0.6196996 -0.10114705
GGH 0.2348645 0.3177005 0.4138773 0.7608018 -0.37030515 0.42742392 0.058556065 -0.26511475 0.47104234 0.9311486 -0.9504767 -0.0027075058 -0.122196615 -0.64221466 0.0036905245 -0.038094588
DAP3 -0.34730688 -0.014158144 -0.52177763 -0.46114114 0.044390887 -0.61331314 0.90379655 0.7656902 0.11856989 0.36093834 0.34030002 -0.10910268 0.3597948 0.41071045 0.10459913 1.3618712
LOX 0.40651616 1.4408221 -0.00031602255 0.6252752 0.78355986 -0.95177436 0.354747 0.28713816 0.12322553 0.15534581 0.030484129 0.035088096 0.074632764 0.9519228 0.5496763 0.20642674
XPO1 1.528241 0.21864682 0.39852625 -0.05105171 0.03233299 0.54651827 -0.80042416 0.49922323 0.3791322 0.70053977 0.660538 -0.031149479 -0.60836905 0.31486946 -0.025546392 -0.0985108
EIF2AK1 -0.15226924 -0.08184018 0.663513 0.13810247 0.35542765 1.1993351 1.0322075 -0.25513998 0.21183845 0.08066339 -0.1411876 0.49144298 -0.22848597 0.40441874 0.8715999 -0.38323215
GPAA1 -0.050741233 0.41393209 -1.4192214 1.1361412 0.0009182551 -0.0062425034 -0.014370935 -0.014986236 0.2792789 0.7323227 -0.009881828 0.10926086 2.3441424 -0.2985867 -0.060032163 -0.33302227
MSH6 0.8843322 -0.031626977 -0.22162631 0.44473207 -0.16172287 -0.61312634 0.27328724 0.6021475 -0.27604136 -0.026185421 -0.36689627 -0.015923876 0.26616892 1.5881386 -1.2128867 0.14901674
PPP2R5A 0.024427457 0.39965767 -2.1754804 -0.5176974 0.002976526 0.6119525 -0.046253394 0.058906283 -0.19480962 0.046608955 0.28151867 0.57518095 0.46944395 0.22524613 -0.25035337 -0.0067542754
RUVBL1 0.31065264 0.32146603 0.2025904 0.21712433 0.26210126 -0.018158462 0.008973665 -0.36620945 0.14745457 -0.37464836 -0.56954473 -0.67405236 0.32963082 -0.30235904 0.006501557 -0.71486634
MTHFD1 0.0946932 -0.47018793 -0.11042168 0.09395558 -0.087264284 0.040946778 0.005520164 -0.056889344 0.053117275 0.30484924 -0.41912913 -0.00041039876 -0.09393813 0.1108643 0.0025551226 1.3129814
NGFR -1.5499494 0.82376176 -0.031703353 0.2914314 0.0050250688 0.3176891 0.3962439 -0.0674162 -1.3775226 -0.049086522 0.0650774 -0.4315153 0.65527695 0.5227481 -0.88791424 -0.30339605
MRO 1.0966988 0.41276723 -0.3075105 -0.1277116 -0.013902956 -0.30946305 -0.013047309 -0.48009026 0.18858303 0.32658577 -0.62881756 0.046495065 0.8119785 -1.1558287 -0.0047501195 -0.14275685
TTC27 -0.742198 0.3211314 -0.12015333 0.3603003 0.030374182 0.35193896 -0.7839608 0.29026487 -0.7552097 0.11997473 0.49128264 -0.35583857 -0.41022032 -0.4138278 0.7616569 -0.005767586
UROC1 0.07011548 0.46298763 -0.51845515 -0.4063236 0.023298418 0.65806603 0.18925302 -0.54669064 -0.09779351 0.5005687 0.24346161 -0.64838374 0.17040713 0.15846302 -0.0373883 -0.28192523
NR2C2 0.59438753 0.09004044 0.13345453 -0.0022029814 -0.03631648 0.8338076 0.36428514 -0.0017217697 1.0682151 0.25664735 -1.0460889 0.72292095 -0.7900637 0.4301091 0.79377687 -1.1396317
RBBP7 0.1945889 0.1343852 0.9180405 0.6149487 -0.5166812 0.3065654 0.0972539 -0.12886931 1.0877987 0.411062 -0.013365683 -0.18006001 2.0466855 0.09597708 0.17408822 -0.03787292
TCF7 0.11634202 1.2272071 1.3497243 1.5240296 -0.07546877 -0.15223452 0.55018467 1.2134715 0.14496703 0.84266865 0.8052542 0.0089519005 -0.07955392 1.0217187 -0.07282835 0.10913399
CDKN2AIPNL 0.57467055 -0.6651944 0.2650091 -0.23314986 -0.53065026 0.727719 -0.43139452 -0.07662129 0.034187358 0.28616333 0.47360405 -0.6657214 0.20880412 0.839106 -0.000536075 0.15895313
NKD2 0.6669631 -0.23955344 -0.15651074 0.2542767 0.07613675 2.0958216 0.17387494 0.013370769 0.3968888 0.34853023 0.34242088 0.425626 -0.42372066 0.55270165 0.06634995 -0.0027281928
C3 0.49795124 0.18850684 -0.735758 -0.8060414 -0.0014518488 0.2068784 -0.50111604 0.08781506 0.70712906 0.27757016 0.29126865 0.7163723 0.188121 0.46610278 -0.7136206 -0.1003795
NMRK1 1.611859 0.4607956 -0.5735038 0.11333903 1.1264927 0.3339707 0.47118232 0.042523243 -0.44920573 -0.10395066 0.14385417 0.38105145 0.22447403 2.0620337 0.4287581 0.08873067
ACD 0.052408617 0.31965777 0.6926953 1.5049477 -0.58046556 -0.18943585 1.6190839 0.2569683 0.91696423 -0.71647775 0.24071312 0.55832565 0.17597003 1.4225752 0.041594878 0.08174389
SMC1A -0.02508631 -0.4091333 -0.24238376 0.89681077 -0.12937678 -0.377811 0.30743623 0.013337074 1.3874164 -0.35276556 0.4087458 1.6590824 0.45969763 -0.1911208 0.10689707 -0.039718255
AKT3 0.010856946 -0.19911708 -0.04308415 0.17333566 0.2690562 1.2330551 -0.2093644 -0.6946181 -0.12752561 0.6513234 -0.0040709856 -0.112672605 0.33550072 1.2901136 -1.8174431 -0.14036751
TIMM17B 0.26625794 0.10075793 -1.0715604 0.29544923 -0.13293427 0.3516442 1.2469416 0.07916814 -0.048140172 0.0016538902 0.12434542 -0.46342605 0.34292433 0.3875298 -0.5577162 0.3563071
HNRNPC 1.0203234 0.047167465 0.46147746 -0.31613892 -0.48730704 0.1887855 -1.4980041 0.07239435 -0.10727503 0.6043 0.2934743 -0.6828384 0.24013844 0.27067447 0.0019307595 0.1937389
FCER1A -0.052522637 0.36163303 0.55760545 -1.7113706 -0.027611809 0.091598086 0.3709553 -0.05369985 1.139418 -0.8573418 0.25009295 0.1146028 0.55649614 -0.17176956 -0.012781711 -0.9248204
PPP2R1A -0.01957251 0.18146591 -0.12522775 0.01773182 0.5844273 -0.17239621 -0.79107976 1.4709288 -0.113318704 0.5928973 0.5255462 0.16249146 -1.593662 0.7978847 -0.015318933 -0.1788089
PHYHIPL -0.57949215 0.2669294 0.47348613 0.07769398 0.4128892 -0.32605854 -0.5516165 0.013324643 0.4415209 -0.72659093 0.46574676 1.4211353 -0.59220934 0.18683724 0.2567741 0.1240193
CAMK2B -0.024909636 0.17880929 0.5123088 0.005140001 0.21469665 0.07798896 0.002837678 0.27517688 0.5625392 -1.3091114 0.15256405 0.3504123 1.014386 0.2301534 -0.33684322 0.18851614
ANAPC11 -0.22959982 0.5120983 -0.6458968 1.234992 0.13650694 1.6682744 0.06858111 -0.026223311 -0.3332891 0.19811694 -1.1926988 0.1416013 0.24007142 0.0018398196 0.19031 0.87049156
ARMC6 0.13313124 0.17862085 0.4568243 0.020911768 0.20463334 1.3847404 0.40910047 -0.2541027 -0.102520026 0.00037051784 0.18302952 -0.48917615 0.7718987 -0.94100964 1.0072011 -0.2062812
AGXT 0.6186777 0.3150092 -0.40728605 -0.0997077 -0.6746479 -0.40544543 0.13964842 0.026916048 0.62096596 1.0474995 0.23467234 0.1710475 0.25382856 0.74785 -0.046291582 0.104113005
SLC16A2 0.48030612 0.3419357 0.28421345 0.4286077 -0.0094911475 -0.32753664 0.0786809 0.044423643 -0.085811816 0.37456226 0.37753287 0.17292081 0.29420373 -0.24732926 -0.00047337706 -0.6133461
RBM28 0.7446447 0.2286181 0.007913148 0.09673307 0.2701557 1.1157326 -0.11053087 0.023572138 -0.40694982 0.045535892 0.60634077 -0.08376519 0.08442809 0.37902057 0.077155 0.13933422
CAND1 -0.048909437 0.48662493 0.43629026 -0.18623902 0.16477819 -0.2834702 0.15002081 0.4102978 0.32949233 0.20267393 0.27504212 0.6912195 -0.16109505 -0.26141235 -0.92316073 1.2596006
IL13RA2 -0.5806443 0.23024479 -0.030458044 0.7294338 -0.0051219407 0.30791786 0.12275687 0.48700354 -0.397118 0.22530796 0.34680134 0.049291432 0.19978712 0.40828788 0.123697184 -1.0636481
SLC27A5 0.15277845 0.44937184 0.36654654 -0.46647215 -0.061889704 0.045631707 1.0467476 0.23381056 0.8595927 -0.24639815 0.41918635 -0.08079216 -0.2618047 0.60758424 -0.16260827 -1.1937485
FEN1 0.32513407 0.29512027 0.40225354 0.8831383 0.39767516 0.28098556 0.19031735 0.10459413 0.34723288 0.2078742 0.23387279 -0.0013156692 0.24000902 0.33318886 0.004092106 0.35600454
SMC3 -0.22734152 0.013137189 0.124640755 -0.045991752 0.34973204 0.75819075 -0.047376767 -0.034739733 -0.096399195 0.6562562 0.1568264 1.0303829 1.7960566 0.19512354 1.1552616 -0.074803844
A2MP1 0.56200606 0.45327345 -1.1206487 -0.27791497 -0.016923001 -0.32805893 0.2603845 0.040909044 0.22089094 0.25749972 0.21180172 -0.83825374 0.24872103 -0.057530247 -0.78525025 0.28219306
TGFBR2 0.15569438 0.32425532 0.08974794 -0.8380627 0.01423598 0.1261783 -0.55541515 -0.15789558 0.53002155 0.43805042 0.46095908 -0.10146873 0.27078393 -0.2899 0.58608985 0.026785113
SERPINI1 0.65518105 0.27173793 0.49048692 0.3729648 -0.008580189 0.25791466 -0.105568625 -0.31322256 0.510749 1.1376923 0.36594722 0.025461014 0.18654017 0.21130313 0.0077037746 -0.9516027
ACYP1 0.4482256 0.30446163 0.43261755 -0.14754336 0.0026859213 1.522825 -0.9704132 -0.47286236 -0.22415692 0.8075732 0.52005863 -1.850174 -0.2767532 0.031433173 0.109422065 0.54267716
FBXO5 -0.48349315 0.36909333 -1.204806 0.37501 0.21095979 0.22363947 0.54311794 0.007086517 1.0621002 -0.14333048 -0.7951793 -0.12260028 0.39487207 0.6468774 0.66279835 0.17502157
IL1B 0.4970304 0.5084129 0.53095895 0.39244908 -0.1357821 -0.2028166 0.14128657 0.63242847 0.022050386 0.7457673 -0.47649315 0.1611907 -1.6356586 0.81108785 -0.60749924 0.20387137
KIN 0.43722197 0.45449388 0.57673806 -0.15457273 -0.08999856 -0.10003127 1.3368412 -0.010485987 0.41261974 0.39913645 0.30870655 0.07195998 0.16641392 -0.33355018 0.28037012 -0.15768234
UBE2T -0.03209511 0.34606805 -0.21510291 0.21031633 -0.022804454 -1.2256312 0.610664 -0.22600034 0.32199994 0.44074878 0.17101182 0.18297206 0.89006674 -0.45005634 0.48105386 0.34131342
WNT11 0.56685024 0.21590865 -0.17897327 0.25057757 0.122718915 0.61617446 0.24045566 -0.079172865 0.7308965 -0.019941699 0.32040212 0.2041453 0.022471879 1.0825872 -1.598928 -0.16905813
PLK4 -0.15033764 -0.06429876 1.3777596 0.50960636 0.01827543 0.12320809 0.55702513 0.8485323 0.5062906 1.4699718 0.5536372 -0.22310321 -0.06783654 -0.16125187 0.79909533 -0.96038836
CAD 0.26651683 0.91114825 -0.87719667 0.51607406 -0.021595608 -0.14525649 -0.01009451 1.3292061 -0.014477761 -0.088574745 0.3787188 -0.024100209 0.7640558 -0.53402346 -0.06457899 -0.7358981
SNRPE -1.1479778 0.39229104 0.5371412 -0.01974012 -0.17853734 0.1366833 0.3427444 0.104386024 -0.2463723 0.4428806 -0.049127236 -0.67878443 1.6332872 0.4182835 0.17456949 -0.070036024
RBM24 -0.10035282 -0.60360426 0.21379201 -0.545138 -1.901354 0.08641833 0.4160761 1.0436468 1.1101592 0.47930178 0.6286949 0.15961416 -0.1001782 0.91469085 -0.13473643 -0.0106413765
CD4 0.56733394 0.44757774 0.13979927 -0.1744903 0.1588571 -0.4360877 -0.017068278 -0.096445166 0.504874 0.9296098 0.09362604 0.06349137 -0.5298395 0.13494681 -0.54972386 0.1027111
ABL2 1.2302028 -0.054881625 0.9863271 0.21259609 0.43445024 0.39155415 -0.72767764 0.7043735 0.61036116 -0.42752373 0.6787593 2.6521285 -0.33891898 -0.23880534 0.41455272 -0.14825705
ARPC1A 0.68501747 0.29549772 0.48407686 0.82147044 -0.36626658 0.8192053 0.45269912 -0.077763006 -2.4707835 1.5065169 0.32480046 -0.007973581 0.11564748 -0.8168859 0.1870728 0.81412506
GABPB2 -0.029477837 0.5002188 0.822519 0.22951417 0.033360064 0.100511745 -0.29475144 -0.042103305 1.3288218 0.20273653 0.1401304 0.38583553 2.239612 -0.083908126 0.00047463295 -0.051086973
CENPQ -0.2409462 0.4109095 -1.7943956 0.13611032 -0.006745377 -0.9526638 0.013756866 0.2662323 0.28079543 0.8068018 -0.21241708 0.08372275 -0.14248948 0.8015092 0.1573921 0.48022002
IVD -0.25269866 -0.58278525 0.29121518 0.10665364 0.0037312082 0.9904728 0.010611688 0.050295077 -0.31447315 -0.2437435 0.4022016 0.22109872 0.07322226 0.23980333 -1.1067923 0.007890938
PTEN -0.100648224 0.38819724 -0.3508065 -0.19908258 -0.19927365 0.1742791 0.6954017 -0.008263577 0.38297498 0.04502457 0.117139824 0.18315303 1.1615452 0.4056554 -0.008740653 -0.19805978
NTN4 -0.03111132 0.60456806 0.50788 1.092786 -0.26542595 -0.6252026 0.13250658 -1.3799436 0.4472024 -0.49649927 0.06370252 0.023733241 1.0993125 0.3370573 -0.58348715 0.025514243
AQP1 -0.13063416 -0.16022106 0.17907391 0.4229253 -0.010112957 0.45349845 0.029490074 0.28433102 1.611952 -0.06223055 0.232569 1.902346 0.3396917 1.0267799 -1.8221517 -1.0063422
RPL14 0.6364558 0.2608011 2.344534 0.35111892 -1.0926011 -0.8836961 -0.11591227 -0.015999405 0.14045994 1.0967007 0.071198925 0.5383065 -0.6043254 -1.2058545 0.00560259 0.029640103
IRAK1 0.2385718 -0.025090877 -0.30771074 -0.062754735 -0.24806997 -0.24541867 -0.30063727 -1.0019269 0.74809796 0.3792283 0.08435926 -1.105141 0.7221226 -0.91891986 -0.3632335 -0.75478894
CCNE2 -0.19215685 -0.54952735 0.7200393 0.8199917 0.022863995 0.8978309 -0.5988209 -0.29976326 -1.1510062 0.32944122 0.89348537 0.12053455 0.17232218 -0.21187496 -0.0058320947 1.2884964
FOXM1 0.11977861 0.062093172 -0.36385575 0.32619363 0.0054983823 -0.15367062 0.09083194 -0.20646332 -0.79145694 0.021424033 0.30298468 0.040612888 0.40767747 0.13469061 -0.220754 0.8258405
CH25H 0.43759143 -1.2537545 0.7950327 -0.0033465745 -0.060771234 0.35188273 -0.050849527 0.66758335 -0.793027 0.50343376 -0.21226647 0.46732575 0.096695274 0.41401517 -0.16877028 -0.041152842
DNMT1 -0.4631759 0.5487207 -0.033903256 0.25886834 0.012137623 0.2942162 0.15803054 0.51023364 0.3986112 0.5193855 0.36081064 -0.04757927 0.08043937 0.29581845 -1.1344953 0.056610733
SART1 0.22775985 0.34509528 0.7847311 0.34545526 -0.016891168 0.93013597 0.070618674 0.0074827555 -1.2087361 0.35909188 0.4290855 0.0031886492 0.27235 -0.5268289 0.14047983 -0.19100173
HK3 -0.85458374 0.41198653 -0.5358593 -0.18526855 0.5219006 0.279264 -0.047515042 -0.020588903 0.27862656 0.17839526 0.78620505 -0.114002354 0.119210646 -0.22408827 0.60915834 1.0415903
ASPA -0.4219679 0.101636834 0.47553325 1.5012981 0.0008691866 0.041589208 0.33956817 2.0110574 0.7768388 0.8451817 0.55437547 -0.10651551 -0.6716638 0.59768003 0.6439609 -0.44628838
MID1 1.0679635 0.47973722 0.1973586 1.2425954 0.3465887 0.08997722 0.07558174 0.01653047 0.07161624 0.23651399 0.3048547 0.38637793 -0.024531206 0.92925376 -0.014586032 0.27043423
FSD1L 0.61102927 0.6007938 0.058640644 -1.3303369 -0.006853485 -0.8010098 0.0065455837 0.566224 -0.6110897 0.8545004 -0.5263808 1.0941849 0.055990443 0.43601695 -0.28300482 0.07196479
SNRNP40 0.604559 0.32088295 -0.95447123 -0.08339273 0.7624701 0.5043436 0.029155448 -1.1462324 -0.1442753 -0.11096438 -1.0741894 0.20259014 0.38093594 -0.62945646 0.2583666 0.00821876
IGF2BP2 0.9002861 0.3241276 0.8545412 1.1987782 0.3658807 0.41971794 0.09067212 -0.011547517 -0.23740795 1.4591402 0.24391504 -0.20482512 -0.029378837 -0.21948402 0.0013191232 1.629927
AKR1B10 0.6007329 -0.7383793 0.058435142 -0.42212477 0.6097457 -0.33966875 0.8850923 1.0807244 0.19635871 1.4893634 0.3559283 -1.111247 -0.073643684 2.1320302 0.35263133 0.7169172
TERT -0.099097304 -0.29267848 -0.0926988 0.2710261 0.1741196 -0.61921656 -0.008426535 2.4588501 0.7417311 -0.0414078 -0.25598902 0.47022957 -0.23333086 0.9829898 -0.095514685 0.0034580552
PRCP -0.28005263 0.38111067 0.62266624 -0.21379797 -1.0755132 0.32070082 1.418086 0.37051678 -0.15436527 0.5129319 0.33045036 0.19045201 -0.06818123 1.2923131 0.67013985 -0.23334046
AGTR1 0.35746822 0.4489729 0.9656881 0.18072829 0.0028267177 -0.639884 -0.12075045 0.3364692 0.96343964 0.48416263 -0.3718041 0.060005106 1.2930515 -0.2703235 0.0051504215 -1.6186007
BUB3 0.59996957 -0.7335451 0.041981447 -0.5078 -0.015851272 0.6135156 0.08601275 -0.8846926 -1.2963675 0.2035111 -0.4818073 0.06287558 -0.36713997 -0.06656943 0.5128622 -0.21629022
AKR1D1 0.26377258 0.24631499 0.5177815 0.65120757 -1.08821 0.31017303 0.8675339 0.13904811 0.53560716 0.20412263 0.39049867 0.10979814 0.2742807 0.34550765 0.022590932 -0.87230396
SNX27 0.22846395 -0.089934856 1.5216123 -1.6253135 0.2599282 -0.07028188 1.8844415 0.13977025 1.3407265 1.2697396 0.18153144 -1.2988305 -0.25949728 0.3250682 0.15857235 0.5539953
ARL15 -0.47802275 0.68726814 -0.38293523 0.17857498 0.69714344 0.5842866 1.1785036 0.09398946 0.5861024 0.25572512 0.3665303 1.9436177 -0.4207392 0.1356553 0.77275604 0.7849572
BBOX1 2.0660188 -0.16693278 -0.06996699 2.325 -0.33198237 0.071454115 0.12351064 0.0318153 -0.3440907 0.21258546 -1.5083913 0.8775803 0.01442716 0.024986679 -0.79393107 1.0757184
CFI -0.37885523 0.21174291 0.4432317 -0.3713014 0.13108084 0.17896469 0.41278306 0.35486054 0.026945338 -0.13774464 0.23822199 -0.16303852 -0.5278924 -0.7252898 0.41586027 -0.14753039
RALA 0.92036617 -0.50706863 0.779279 -0.35779387 0.8043668 0.070224434 -0.048172437 0.18902981 0.08312665 0.47750014 -0.97070545 0.032602057 0.13562293 0.5594673 -0.23772885 0.3235401
DHX16 0.5760301 0.2359353 0.3869871 0.29705843 1.4318724 0.2617671 1.7626656 -0.0020820512 2.1378036 -0.14067554 0.30381167 1.2768967 -0.08905045 0.8574353 0.7405882 0.14497577
NRBP1 0.49777767 0.34657505 0.28641525 -0.38528427 0.86863583 0.7407835 0.16994599 -0.086978145 0.39958012 0.19622463 0.25481322 0.5580978 0.12538986 0.9154411 0.1353816 0.2206109
MTHFD1L -0.37457266 -0.6800916 0.49134806 1.0295697 1.341709 0.5979334 0.74921936 1.2662908 0.25732756 -0.018146096 1.246778 1.1311955 -0.070164956 1.0939462 1.2223766 0.3167356
CYP8B1 0.0974418 0.23054475 0.57638884 0.41901726 -0.2774027 0.16502705 0.25057432 -0.25315517 0.18762751 0.76068676 -0.6723877 0.046333205 0.33793142 0.3246754 -0.31218925 -0.6559401
SNRPD2 -0.09055744 0.40089113 1.017484 -0.24858536 0.0026848088 -0.16922705 1.3406552 -0.34464183 0.4316511 -0.85564935 1.7399912 -0.34150434 0.06543014 -0.06627997 0.42701885 -0.7264782
ZFP64 -0.0826488 0.18625042 0.07537566 0.58689153 -0.3810002 -0.22466953 -0.064450204 -0.01728744 -0.6835513 -1.0697114 0.2385313 -0.06912395 0.48575452 -0.15836841 -0.067760825 0.35345745
PLOD3 0.5480811 0.572689 -0.08552663 0.51789224 0.012516415 0.17112279 -0.116461486 0.77138025 -0.07228675 0.5026342 0.8831748 -0.077504806 0.30936408 0.56863654 -0.0025551857 0.057539728
WASF2 0.78635865 0.26877454 0.55473286 0.0022818914 1.7275 -0.03933339 0.44801462 -0.076439254 0.37767398 -0.15834776 -0.48956344 0.24510334 0.67849785 0.80302554 0.6907734 0.13965136
RTP3 0.25290394 -0.04016434 2.03614 0.2554336 -1.2669029 0.33262816 1.2317162 0.025894707 0.8633039 -1.0520501 -1.7775043 -0.18798336 -0.17973569 1.3106797 0.0072706244 0.0012963263
CSNK1D -0.13172752 -0.34428257 1.45716 0.032183636 0.30557233 1.215453 0.54543084 0.18450175 0.40861955 -0.22919153 -0.022088626 0.003870768 -0.65856624 -0.45055795 0.19041915 0.48837784
SF3B2 -0.08458885 -0.32669368 0.23410897 0.037095297 -0.57567096 -0.5409932 0.16013975 -0.025898384 0.2271001 0.0272383 -0.45566502 -0.30906847 -1.0709599 -1.220931 -0.101949565 -0.1299511
SMS -0.40838727 0.021439482 0.7356303 -0.19014181 0.908127 0.3405767 -0.3361425 -0.06626372 -0.06465481 0.24685344 -0.6992082 0.3531452 0.20843925 0.49121997 1.0516659 -0.0164703
HGF -0.018891571 1.7561238 0.73868835 0.023813903 0.88449055 0.107798986 -1.5521843 0.23407379 0.5565189 0.19443616 0.39430034 0.26624277 -0.19782455 0.72926587 -0.91971445 0.4801597
PARD3 -0.055442195 0.0526454 0.0021934991 0.65224355 0.024208182 0.41909185 1.1170706 0.93258417 0.38924307 0.3270705 0.39570138 0.076108046 -0.1856466 0.40457132 0.41032404 0.4172395
FAF1 0.25406957 0.5553559 -0.29398742 0.23282258 0.16545253 0.27779555 -0.09653298 0.019342085 0.41852018 0.41435027 0.12786351 0.18072224 -0.7325458 -0.37907925 -0.000755363 0.28872967
PGP 0.26149532 0.51248455 0.719631 -0.08221857 -0.035000112 -0.011511672 0.29939422 0.8507573 0.018927379 0.18314688 1.5717032 0.34019068 0.20695285 0.6790783 -0.019287374 -0.86363
MYOZ3 -0.46669036 -0.70030767 0.23632203 -0.049233742 0.16613868 -0.36828974 0.40090716 -0.90112853 -0.42116773 0.43716553 -0.23072834 0.068064116 0.37840745 -0.6173705 0.45896766 0.6624334
NAMPT -0.03399059 1.3872209 0.25097612 0.9560707 0.085449696 0.80590206 -0.43086433 -0.1084061 -0.065992326 0.37772223 0.21053824 0.07122884 0.3441717 -0.0046975613 -0.016155887 0.17145579
DHX9 -0.046410605 0.4128139 1.0449506 -0.39788744 0.32217443 -0.024420295 0.34623086 -0.06383249 1.0751977 -0.030553175 -0.12856838 0.31682047 1.2508147 -0.1993316 -0.0076467427 -0.3690205
UHRF1 -0.28669265 -0.022183511 0.17593637 0.22715479 -0.2171576 0.69513214 0.5591151 0.010304867 0.85062575 0.00946326 0.42460442 0.46842077 -0.05547022 -1.1946682 0.0010662917 -0.21586885
STARD7 0.008142546 0.18257558 -0.5132001 0.6371126 0.98805463 0.77669203 0.113875635 -0.47727522 0.18407956 -1.5892625 -1.616257 0.22217754 -0.06985889 1.507433 -0.1465416 0.6507137
SRD5A1 -0.059941087 -0.263302 0.65746635 0.4992212 -0.060314927 0.14851058 0.72947234 1.1461164 -0.15879309 -0.34139836 0.56754714 -0.016890146 0.0082523925 0.040019013 0.23732473 -0.0014029257
RALBP1 -0.48951486 -0.2303748 -0.35149375 0.8479812 0.09986443 1.3680786 0.009356965 -0.03331463 -0.1066882 -0.042482756 -1.2678467 0.6549426 1.5784314 -0.0028471716 0.4873241 -1.6236833
SMG8 0.070089996 0.39901486 0.15301752 -0.08153004 0.13270243 -0.030399548 -0.3796411 0.02731509 -0.889064 0.0354242 0.40549234 0.413579 1.1975989 -0.119674444 -1.2346565 0.18314666
LIFR -1.3128434 0.4973142 0.38590553 -1.0127763 0.2369644 -0.7621047 -0.55740047 0.033480056 0.14631629 0.23003761 0.6936913 -0.081804685 -0.35817984 -0.018247684 0.37421277 -0.012190581
PLG 0.07970875 1.5862806 -0.38169152 0.4393573 0.01218399 -0.3202552 -2.4708273 0.43686444 -0.031938337 0.5611842 -0.94302183 -0.12914981 -0.2565093 0.20400314 -0.115203485 0.12052152
WNT7A 0.8619765 0.18651842 0.049588848 1.5516024 -0.09140082 0.14337231 0.05723133 0.1465978 0.53442144 0.6434988 0.37786093 0.04092361 0.22510251 -0.95358944 -0.09263249 -0.23365654
VKORC1 -0.032102738 0.5454692 -0.06452789 1.375985 0.35922724 1.5470908 -0.20187475 1.4242642 -0.13395903 0.10368194 0.3984988 0.6126079 0.14624783 0.5987041 -0.13348703 1.1654465
PROM1 0.39106807 -0.28380224 -1.5683781 0.020410074 0.209876 0.34386924 0.035483528 -0.014002172 0.76314455 -0.4279251 0.26598 0.55747694 -0.9049375 0.6809764 0.16654629 -0.24365968
ACAT1 0.26233786 -0.2250416 0.12751403 0.435964 0.05955646 0.9846761 0.2343105 0.8488411 -0.38303065 0.20416285 0.51181805 0.5537014 -0.0470233 0.49236983 0.33246595 -0.26129326
GLYAT 0.49817 -0.8615409 1.1470652 -0.13283235 -0.051015466 1.4356529 -0.4402045 1.9952605 -0.034754638 -0.5357583 0.61060107 0.06482498 0.115826376 0.7004036 -0.06445306 -0.0574301
ASH1L 0.46952537 0.5496169 -0.21962523 -0.31253517 -0.04290728 -0.8303652 0.9540371 1.2690496 -0.14385508 0.4524996 1.8037196 0.002753372 -0.07784074 0.5957995 -0.3957403 0.7569359
CYP2B6 -0.10244105 0.276904 -0.26065242 0.5505483 0.21271515 -0.1810024 0.13341343 -1.547956 1.1767418 0.08461093 0.4678305 0.85144174 0.047635388 0.65938705 0.15387684 -0.012071904
FPR1 -0.19733089 -0.34308818 -0.11908719 -0.105379224 -0.13796224 -0.19144894 -0.5420793 0.3746666 0.792583 0.38068572 0.17628656 0.46139067 0.833886 0.7032811 -1.0501437 -0.38508284
FLAD1 -0.29066554 0.24371384 0.68408376 0.5126892 0.0022926156 0.29101017 0.055985093 -0.0062325094 -0.9156682 0.33285075 -0.9359844 0.3217987 0.47799984 -1.0336821 -0.061941624 0.42256284
CCDC142 -0.35415888 0.32653642 -1.3473886 0.16010833 -0.015661437 0.24180472 -0.02311879 -0.024861543 0.5160348 0.9213313 -0.6969941 0.2170138 0.1536308 0.2974888 0.5492178 0.2269839
DNAJC7 0.47003314 0.81467813 0.48702207 0.5169374 1.3004785 0.12689817 -0.16186373 0.0060304655 0.6405121 -0.09552989 0.12458475 0.40308952 0.27923793 0.6870368 -0.26701057 -0.061630063
TOP2A 0.720259 -0.54955965 0.5814683 0.39086026 0.6298996 0.45745638 -0.69838184 -0.01068858 -0.29830235 -0.16737291 -1.8090347 0.1320111 0.25829908 0.2304947 0.64013743 0.41837305
IGF1R 1.0343571 -1.365076 0.24832354 0.01801979 4.5779278e-05 0.8464878 -0.67512304 0.6247312 -0.153323 0.7028021 0.7091746 1.0984591 0.52778846 0.3355634 0.016290689 0.17473608
FRMD6 0.45150173 0.2452771 0.56942064 0.7799764 0.01217072 0.3451048 0.42365724 -0.003558747 0.17940132 0.625648 -0.055123843 -0.25671798 0.3350121 -0.18851712 0.14689842 0.3741551
MMUT 0.2063695 0.40381718 -0.36735252 1.3858674 -0.085387744 0.086095214 0.043114778 0.6042851 0.30930793 0.4144013 0.4438435 -0.069465995 0.22503567 0.40685707 -0.07746935 -0.1620815
FCGR3B 1.245312 -0.22285192 0.7047857 1.5514345 0.83384657 0.547979 0.9374864 0.021772105 -0.12995677 -0.28719056 0.17040649 0.10471467 -0.09406487 -0.88131607 -0.46307603 0.59652543
TSC2 -0.21179995 0.5229093 -0.06396098 1.202987 0.04572571 0.19591613 -0.24015364 0.19264787 0.11421702 0.12619583 -0.11674168 -0.32909295 -0.49819866 -0.29050142 0.10788968 0.17588165
NUP37 -0.63606304 0.35793343 -0.045125205 0.5075 0.31517875 0.27793154 -0.5358274 -0.018516146 -0.54901195 -0.024010679 0.047760032 1.0244527 0.89424646 0.012922176 -0.40894917 0.47383296
ENOPH1 -0.015954567 -0.16861139 -0.24982716 0.43355685 0.79311633 0.029918747 0.28055274 -0.09963092 2.3467922 -0.019432018 0.048400797 -0.5508822 1.0021445 -0.09367701 -0.09406486 0.23232242
DR1 -0.0635352 0.5116937 -0.063809015 1.2866131 -0.06258325 0.42655537 -0.6680877 0.06068889 0.69555205 0.5926653 0.21092048 0.6117608 0.33168814 0.32412207 -0.013023103 0.97749853
SSRP1 1.3188039 1.2562207 0.86473364 0.36726505 -0.011676384 0.18303527 0.49317378 0.28214657 0.05194646 0.113935106 1.198408 -0.057405017 0.3551234 1.0063144 0.21076283 -1.1321125
PIAS1 1.3867847 -0.82428646 0.24037276 -0.10461434 0.38101387 1.0883912 0.066928804 0.04044804 -0.25561053 0.13811412 -0.31492695 0.42964238 0.01396215 1.6792386 -0.08315779 0.1239485
PRKAB1 0.26166523 -0.30320278 0.21724536 0.3935782 0.022030514 0.23989594 0.5492566 0.25296083 0.7741295 0.9373932 0.59719145 0.6047004 0.9966082 0.34491143 0.4642182 -0.06272634
C8B -0.071820185 0.17768884 0.93603086 0.051293395 0.36691725 0.4276518 1.5818628 -0.08750263 0.25801915 -0.26278707 1.7181879 0.865443 -0.12377011 0.055092342 0.9702643 0.27725512
SLC38A6 -0.4083547 0.9464462 -0.0010277829 -0.60354024 0.48690692 0.24171394 -0.55515426 0.027273323 0.42554432 0.2100893 0.3165227 0.8668454 0.30992484 0.36979416 -0.012061347 0.2778693
DCTN4 0.31853274 -0.8287912 0.44304153 0.12788443 -0.43689108 -0.17449133 0.5918213 -0.013472538 0.7347437 0.39763153 -0.48131305 0.31078032 0.2890947 0.4312241 0.15469323 0.12498785
C18orf54 0.42247644 0.35679612 0.66044617 0.5533313 0.9596361 0.35412616 0.13994278 1.530621 -0.023480514 -0.53268784 -0.32385805 -0.6083227 -0.12059543 0.47321454 -0.014658322 0.3980818
ERCC3 -0.11055652 0.44292837 1.869112 1.2583925 0.16426475 0.05457839 0.1765701 1.07571 0.011426311 1.2763555 0.099399045 -0.027494892 0.041374337 0.4225023 -0.7901722 1.3918805
UBE2D2 1.3481698 -0.21966667 -0.12541418 0.33017743 0.010070358 -0.06515341 0.023034742 0.20148303 -0.47853506 -0.030320488 0.42046097 0.14674388 0.2933285 0.7538564 -0.20053695 0.055824563
CHST4 0.33049905 -1.5127379 -0.4075538 0.040538646 0.13876536 0.09415178 0.689073 0.044202324 -0.9504696 0.217897 -0.11271223 0.07527086 0.44756863 0.04959379 0.043848462 -0.29160243
NEK2 0.7538513 0.21063302 -0.584389 0.2458935 -0.00026208395 0.28205884 -0.12703924 -0.2866641 0.5616253 0.38277817 -0.15190944 0.067354076 0.43986776 1.7245904 -0.27042124 0.04488946
TK1 0.37181255 0.20040339 0.7067529 0.055725347 0.95181656 0.16516137 0.3179991 -0.19286276 0.52723914 0.8084311 0.33832422 0.23124897 -0.4394373 0.5240237 0.40940177 0.3834281
EIF3F -0.015032668 0.71757996 0.52816373 1.5678533 0.100480415 0.11284772 0.47612512 -0.48163563 0.30254206 0.28145 0.23784286 -0.010389465 0.26063895 -0.46928322 -0.4460654 0.20479833
EPHX2 -0.39702138 -0.17985846 0.31540695 1.0516512 -1.1904175 -0.3794524 0.65148765 0.14838992 0.3937103 -0.26800984 0.29356772 -0.056406643 0.46703306 -0.4443206 0.0038608864 0.071052484
PTMA 0.0075557497 0.2992157 1.3393329 1.2459519 -0.021924168 -0.06332918 0.55936915 0.4842879 0.28166625 -0.69311464 0.098182626 -0.036235176 0.5342987 0.66183037 0.0067603705 -0.029079877
CPNE1 -0.23365045 0.1373129 0.36119917 -0.25985315 0.20302917 0.24048741 2.1906178 -0.7880829 -0.091924794 0.11650533 0.30563304 0.17266299 0.094009005 -0.03056383 1.4911989 0.024810966
THOC6 0.21508269 0.12361752 0.38629472 0.5187975 -0.0031046912 0.13964726 0.36619315 -0.0036648663 0.043427598 -0.028566059 0.32774055 0.1230601 0.259878 -0.11612338 -0.012277541 0.29311067
FOSB 0.9790477 0.051425446 -0.28521347 -0.4189367 0.011822973 0.33259702 0.5402155 1.1164043 0.8954535 0.51062316 0.02772665 -0.20066585 0.13803236 0.63331085 -0.42845577 0.20752624
SLC39A10 -0.111302905 0.6290519 0.09962421 0.781323 0.43389735 0.20629278 0.042642683 0.25885624 0.055734668 0.69515574 0.39626464 -0.08207744 0.20802148 1.3515463 -0.3592191 1.089639
WNT7B 0.4677665 -0.13027704 -0.082467176 -0.22264965 -0.046399117 0.40187842 0.6242028 -0.179567 -0.49080637 0.19357952 0.7512331 0.3193108 0.14811471 0.026068263 -0.17818402 0.39733186
RFX5 0.39076266 -0.9839552 0.08948666 0.29401776 -0.245296 0.12531225 0.043649066 -0.10366812 0.30156493 0.61050093 -1.2790493 -0.93312204 -0.2419238 -0.54783314 -0.3532871 0.4007514
EXOSC1 -0.78282696 -0.24744342 -0.060519688 0.3005172 0.22451955 0.30841166 -0.3381498 -0.20451671 -0.16408016 0.06594445 0.29092336 0.39480227 0.10082465 0.034761626 -0.13242996 1.7488998
RBM12 0.11555305 0.03269 -0.16084547 -0.4119404 -0.09673178 1.926463 -0.06763555 1.8647225 -0.40557176 -0.23247325 0.5206757 0.99880266 0.015627341 0.5621484 -0.07043031 0.09898449
HGS -0.27680337 0.3280736 0.26206538 0.35619584 0.04519656 0.2589884 0.914578 0.14581032 0.85115486 0.3599431 -0.55468166 0.7393821 0.19785742 0.068428695 0.15575743 0.2115007
PNPLA7 0.43540573 0.03147498 1.3274564 0.51045495 1.0240065 -0.19728439 -0.52779645 0.014678465 -0.50416076 -0.26248285 0.48536667 1.7325418 0.43941668 0.71042943 0.106698796 0.6506563
AGBL5 0.2915691 0.40988314 1.1762618 0.7960931 -0.008798407 -0.00804092 0.46926948 -0.07577945 0.38821244 0.2880855 0.33142757 0.12049168 0.63692087 -0.44661328 -0.0041067377 0.15211537
TSPAN1 0.9960285 -0.36187413 0.2291788 0.61698866 0.009037276 0.23747967 0.5339784 0.0043147095 0.69033027 0.58660823 0.22320722 0.41922748 -0.23856612 0.37451437 -0.008936569 0.7608329
WASF1 1.6068813 0.16383274 -0.08167206 -0.8964437 0.19013682 0.1583939 -0.2758262 0.15720142 -0.232648 0.43295804 0.7126318 -0.10240833 1.0006187 0.7988487 -0.006960663 -0.10543894
PRKAB2 0.27445891 0.22002433 -0.91330385 0.17207241 0.39126915 0.2691468 -0.9260762 0.5197794 1.1292918 0.37133813 0.20804666 0.6981906 -0.40137407 0.7481676 -0.31263977 0.38513544
FAM168B 0.40339845 0.30446663 0.13348795 -0.82400227 0.1178103 0.32971153 0.3962631 0.12970488 -0.10734763 -0.19434194 -0.032319 0.027431369 0.19679525 0.80134547 -0.005294091 0.09214256
TRMT12 0.15288353 0.74229014 0.1874598 -1.0181975 -1.7403636 0.03652659 0.42157993 -0.020005595 -0.10338501 0.120305486 0.5671097 -0.36943668 1.5891385 0.2055408 -0.054283436 -0.026118692
REPIN1 0.67718285 0.62856895 0.1257331 -0.022565488 1.0462761 0.23577702 -0.5064006 -0.12181534 0.47470918 0.005361198 0.23656952 1.058002 -0.29408702 0.7606045 -0.07801726 -0.020359484
SH3GLB2 -0.015371178 0.42583582 -0.028165227 -0.13019204 0.6367279 -0.44153166 -1.4609462 0.33412313 1.1419034 -0.53113955 -0.8766714 0.15449384 -0.12467607 0.46886596 -0.35254338 1.4389218
DPF3 0.292934 1.9457426 1.2248213 0.7424264 0.4292525 0.40099686 -0.24379796 0.3762087 -0.17376591 -0.603722 0.03686019 -0.024501912 0.39346957 -0.65048873 0.2515352 -0.01457087
STAG1 1.3716881 0.34695756 1.0186514 0.7286603 0.040372618 -1.1539443 -0.36796588 0.3406831 0.34870547 -0.032190032 0.28779915 -0.24430716 0.75192666 0.85307586 -0.06178559 -0.041781176
ZIC2 -0.03693502 -0.054788068 1.3375963 -0.067135125 0.01375577 0.12737986 -0.10021007 -0.98479056 0.48076043 0.030761583 0.2883842 0.028008105 0.30810046 -0.9763856 -0.17134295 -0.01923672
RPIA 1.2714411 0.2343023 0.008454863 0.7224452 0.20386836 0.0021159484 -0.3640111 -0.0048837336 -0.755032 -0.4291997 0.8990445 0.10546228 -0.23631239 -0.27902332 -0.029238718 0.98188156
SUZ12 0.45718136 0.5673958 0.27798408 -0.3368931 -0.0020733061 0.16023304 -0.027753152 0.88000566 -0.022055212 0.403903 0.39441672 -0.17023055 0.19614823 0.4030003 -0.1335214 0.3167441
TINAGL1 -0.19530113 -0.5335928 -1.0001452 0.8131938 -0.060460005 0.08448672 -0.0650614 2.4355388 0.53790605 0.55666584 1.2136785 -0.043998137 1.2714815 -0.38435626 -1.4202396 -0.13821962
FZD5 -0.16120765 -1.318058 0.3281987 0.124818824 -0.03811372 0.990672 0.71204555 -0.08983676 -1.0226532 -0.08353222 0.26418838 0.14344046 0.13417596 0.55003303 0.7229859 -0.55525875
GADD45A 2.021419 0.026297223 -0.030608581 0.27969763 0.056745905 0.48592025 -0.042293403 0.22219853 -0.066065975 0.6709132 2.0273054 0.5256638 0.04128781 0.28548887 0.80599374 0.15011348
GSTT1 -0.07116276 0.96806836 0.531602 -0.3869103 0.35460755 -0.63343287 0.4779605 -1.0396793 0.02259108 -0.7758206 -0.56103545 -0.0956169 0.54913104 -0.28993472 0.21208902 -0.29619217
ALDH2 0.5726383 -1.1912507 -0.035187557 -0.07092042 0.89531213 -0.7732585 0.037873685 -0.6527644 -0.05073793 -0.17784905 0.087092 0.26748586 0.09492512 0.75405383 -0.26178008 0.27628243
TMEM65 0.251515 -0.22449467 0.36358458 -0.18210165 -0.0378744 0.15939997 -0.1346182 0.04859157 0.5026712 0.34921217 0.2794184 -0.52015835 0.13968715 0.44102514 -0.06128971 0.2656965
SNX30 -1.3749392 -0.55546826 1.0391047 0.23918349 1.1063417 0.747079 0.25222358 -1.0846462 0.7945154 -0.23926891 -0.27398962 0.04795114 -0.082340315 0.59034884 0.7354379 -1.0360291
POLA1 -0.17300451 0.26809096 0.6372933 -0.6488576 0.85928434 0.96676874 0.5829679 -0.04228104 -0.12587923 -0.041693985 0.20703726 -1.5536584 -0.44800472 1.0025277 0.15689331 0.45948005
ATP6V1F 0.06374942 0.036344055 0.21617134 -0.21394737 0.22721514 -1.0986818 0.07981234 -0.27355084 0.47624978 0.37326616 -0.2799262 0.061305285 0.19062684 -0.10987909 -0.8551188 0.60933095
IGFBP3 0.14691275 0.36826807 1.3420718 -0.6170978 0.0890766 -0.7391011 0.2890229 -0.28707355 0.71715504 0.58129025 0.19084302 -0.7135986 0.22448646 0.62452775 -0.5384528 0.4834774
SAP30L -0.70344037 -0.20911218 0.89762497 -0.27812406 0.284715 -0.07340875 1.0121721 0.0793337 0.99390733 0.020485692 -0.17531896 -0.21135409 0.3435808 0.57247335 0.29667157 0.22180015
ATOH8 0.21343708 0.33130452 -0.8893598 0.7908729 -1.3262568 -0.23707798 0.19998205 0.9083382 -1.1235875 0.75900424 0.46931922 -0.0827533 -1.3149267 0.66206187 0.19676259 1.1650856
ACADS -0.10428663 -0.6474717 0.3259805 -0.09138877 0.70788515 0.24346718 -1.3176073 -0.25502738 1.2888361 0.051549885 0.082346946 -0.033395626 0.120331794 0.31020662 0.14813156 0.0017722659
RAN 0.926229 0.15690348 0.0824567 -0.05904882 0.034869358 0.30319533 0.43379006 -0.08878509 0.13762905 -0.030467093 0.3980905 -0.13765313 -0.22229007 0.34732404 -0.3359336 0.19145173
RNF144A 0.07769223 0.33805785 0.18449473 -0.3182578 -0.0065616244 0.86046165 0.03547224 0.8154842 0.42553508 0.6037837 0.5832653 0.20243917 -0.59894466 0.46596628 -0.011126509 0.06708681
RPS10 -0.12304773 0.38599914 -0.24804787 -0.26831397 -0.19938175 -0.15130824 -0.35929614 0.25054967 -0.03993943 0.9306607 0.15679547 -0.21757625 -0.4917666 -0.12818375 0.11578501 2.6091537
SMARCB1 0.32684916 0.34317645 -0.043171633 -0.60168743 0.031174365 0.4746087 0.29944065 0.00807354 -1.0689422 0.33035237 0.5034961 0.71356773 -0.0038128286 0.097748116 0.030075308 0.274995
STMN1 0.026395584 -0.0893927 0.19648813 0.37671736 -0.039693773 0.214263 0.9305281 0.30503145 0.21166217 -0.26565552 -0.27154458 -1.33577 0.35466468 0.48892274 0.04516987 0.24894758
VPS37C 0.08092852 2.125571 0.19062248 0.5889058 0.13259971 0.10752694 -0.76788944 0.061700206 0.4912311 0.50279075 0.7285258 0.02017453 -0.08432058 -0.14760037 -0.588416 0.15099254
CNOT4 -0.5048722 0.23305179 0.1144946 0.09791067 0.012048045 0.45732933 0.22071737 -0.020361442 -0.16736795 -0.54767346 -0.12576145 0.17143954 0.31251562 0.31094724 -0.37845474 0.3457971
CDYL 0.1939322 -0.24128345 0.45975387 0.029668143 0.0076876655 0.49155563 1.3399844 -0.14805152 0.9394572 0.24936648 0.2601326 0.47791493 0.30774462 0.33372974 0.4941945 -0.105270125
AARS2 -0.9162932 0.60885644 -0.6555408 1.0800745 0.31638288 -0.07676043 0.0245694 -0.03216923 1.3074428 -0.1301441 0.22945243 2.4498763 0.7224523 -0.16042037 -0.48902526 -0.87090117
DACH1 -0.0577404 1.6453265 1.4440635 -1.1827992 0.028169703 -0.26660895 0.20911379 1.2833841 0.19812931 0.6120244 0.44864213 0.3584651 -0.44662455 0.48613414 -0.089966916 -0.10017097
CHCHD7 -0.712356 0.2607541 -0.36528993 -1.0102168 0.50819457 -0.3258161 -1.4213504 -0.98250616 1.2838279 0.08114657 0.39933354 0.20223522 -0.22257024 0.24657892 0.15480424 0.94886327
FBP1 0.59546167 1.4252383 0.40421206 0.059929207 0.46970782 0.3299029 0.26338637 0.05793108 0.16694517 0.16457197 0.24858779 0.092596784 0.12158065 0.5164349 -0.17704079 -0.31129247
DTX1 -0.106380105 -0.4027207 0.37638497 -0.08261448 1.0063215 0.60684484 -0.17274094 -0.029183278 0.44535235 -0.0046529546 -0.5557587 0.820717 -0.8949218 0.6811098 1.1229982 0.099203825
LIPG 0.051825687 0.15067384 0.5882469 0.2682751 -0.020250734 0.3056065 0.5002442 -0.61379004 0.24093133 0.5057443 0.42418706 0.039958715 -0.57441795 -0.25025463 0.0420876 0.51098424
NR2C2AP -0.44327268 -1.14143 -1.0381125 1.821786 0.41151235 0.30475968 -0.025116872 -0.45652413 1.3637159 0.11938405 0.06456436 0.8200462 0.42795366 0.14806616 -0.7291539 1.09753
CTCF 0.99520975 -0.991896 0.6624155 0.45067394 0.42257679 0.50957227 0.027203104 -1.180973 -0.41973537 -1.137898 0.052469652 -0.46450904 -0.23332684 -0.11881887 0.038957924 0.38120177
CERS5 0.43427852 0.38050607 0.36417407 0.44171995 -0.0056255064 -0.18793222 0.0013878178 0.1902246 -0.63683164 0.5127511 0.09819068 0.04273328 0.4366439 0.1328526 -0.016456164 0.2665078
CSPP1 0.76900584 0.43431833 0.37504852 0.23601516 0.5687839 0.3075337 -0.58763176 -0.043707237 -0.27554655 0.81932676 0.05180666 0.027222086 0.4907288 0.3729476 0.5287653 0.3463338
NR1H4 -0.8512382 -0.04446195 -0.20881492 0.281703 -0.14467973 0.3996387 0.7335522 0.019339623 0.40903208 0.14324382 -0.46340236 0.66814095 0.155897 1.3168843 0.44318226 0.18181337
NIPBL 0.77661604 -0.44859737 1.5719929 0.76085174 -0.23871917 0.3327066 0.27672338 -0.43570533 -0.20531055 0.0068354793 1.1293174 0.0050470307 -0.28345728 -0.20011352 0.015752224 -0.18113382
ITSN1 -0.09277415 0.54240894 0.22536454 0.7470642 0.20064323 0.25348637 0.2050675 -0.13316892 0.24769846 -0.115191124 0.8222356 0.26022786 0.05219587 0.11962177 -0.0018083368 0.26748255
MYO5A 1.0026687 -0.6024561 0.2959209 0.8326848 1.461597 0.98057526 -0.27539304 1.0662347 0.5558638 -0.41877666 0.11138086 0.6823363 0.20747128 0.744379 -0.49283713 0.21170822
MELK -0.119112894 0.3393221 -0.20231873 0.22236732 0.7268067 0.13893771 0.010140686 0.031423654 0.52088654 -0.11320012 -0.24305926 0.3284036 0.28900704 0.42936274 0.020847024 0.35626826
UGGT1 1.599952 0.2738512 0.14195311 0.3621306 -0.0052570887 0.28564444 0.77522105 0.21875285 0.45449436 0.45156044 1.025836 0.27518412 -0.20741406 -0.36495864 0.13781479 0.032652922
DROSHA -0.18416962 0.71975213 -0.1304621 -0.39953732 -1.1048275 1.7067708 0.2441571 -0.026728047 -1.491511 -0.4043932 0.17375262 0.08685375 0.28086025 -0.055542696 0.093853965 -0.16082907
TMPO 0.5373489 0.4006019 0.4939417 0.41801655 -0.04095644 -0.20808633 0.16145867 -0.2860633 0.7138935 0.70877665 0.2821854 -0.85318613 0.15612632 0.4538812 -0.0049683163 -0.050968062
RAB11FIP4 0.48987037 -0.26136854 -0.17485988 0.19781075 -0.010109834 0.37008634 0.031833798 0.009433049 -0.13951667 0.34958172 0.27633134 -0.10698109 0.42697734 -0.31791452 0.009528164 0.19933929
LRRC42 0.31943044 -0.28767917 0.29556316 1.1580572 -0.105612 0.16791123 0.09837599 -0.5199788 0.2413346 -0.36782074 0.09188786 0.3936873 0.50868064 0.59963816 0.066144995 -0.21858872
PSMG3 0.2097955 0.15433651 0.25757778 0.12499352 0.6670319 0.41182634 0.40732914 0.0059937676 -0.14987083 -0.5053852 0.40666142 0.3427662 0.3446622 0.22889449 0.6880485 0.13594638
DPF2 0.31761327 -0.7486214 -0.161349 -0.12950017 0.2915981 0.30189908 0.0155469505 0.25165477 0.74855614 0.22681597 0.20382151 -0.66996396 -0.43338686 0.5170893 -0.99691767 0.3362003
C9 1.3034388 0.06525893 -0.07580214 -0.12646668 0.11147174 -0.42459074 1.2321017 0.6656622 -0.438947 -0.79944956 0.17081079 0.26397154 0.24377193 0.73336893 -0.25380683 0.051641542
PCNA 0.3143932 0.47874388 0.27107295 0.31516376 0.034647077 0.26907372 0.4111055 -0.086247526 -0.1393142 -1.1205248 1.5561188 0.11486392 0.2000916 0.4094178 0.057203587 -0.5172693
TRIM16 -0.12722853 0.37411693 -0.38601103 0.11499368 0.05186188 -0.18177274 0.31276003 -0.14061391 -1.5704112 0.09775022 0.035567418 0.0042574746 -0.9858308 -0.43189928 -0.027758293 1.0505803
GTF3C2 0.8377247 0.33784777 -0.0019518228 -0.11528827 0.2898763 0.13797325 -0.3709398 -0.06359076 -0.49218047 -0.07717331 -1.1915375 -0.10541871 -1.8138139 0.45552737 0.8261989 -0.020052338
SLCO1B3 -0.04033804 0.6264804 -0.08619611 0.46398106 0.39541352 -0.10307557 0.15679131 -0.0018830558 0.19038436 0.32054695 0.7177299 0.0923802 -0.21781033 0.5005288 -0.030218692 1.5033846
AMDHD1 -0.09792972 0.3699917 0.16688536 0.5763449 0.3314337 0.42876574 0.066625185 0.01480719 0.15193336 0.3783139 0.1912176 0.8257006 -1.0032672 0.23835647 -0.025417209 1.1887509
CDKN2A -0.23610096 1.936925 0.35671732 -0.014452428 0.2204751 0.056458604 -0.8295226 0.11517536 0.14608623 0.9079358 0.81812644 0.027302925 0.8758551 0.36579895 0.82410866 0.040775966
RRM1 -0.14565967 0.22891484 0.9740761 -0.043666404 0.792633 -1.1951325 0.6843663 -0.043953408 0.5324834 0.66279125 -0.119286165 -0.8542773 -0.6521587 0.99452335 0.5592273 -0.19370256
PRMT3 -1.3700701 -0.13671708 1.6014187 0.8623275 -0.21356192 0.121830426 -0.032706786 0.48501343 0.81319207 0.3452086 0.42300734 1.1098104 0.72705835 -0.11538747 0.021608569 0.21338622
PTTG1 -0.11322319 0.07818119 -0.23794337 0.120068245 -0.044511944 -0.01384087 1.6013807 -0.8455739 0.19270204 0.2101434 -1.6686915 0.7829395 1.4954993 -0.10095468 1.3008126 -0.6970621
ACLY 0.51628244 0.6636532 -0.15641429 -0.14731798 -0.008219232 -0.52130204 0.0002488012 0.8386457 0.2785817 0.41275042 -0.1460058 -0.2913064 -0.096455544 -0.20001504 -0.048556603 0.06281326
HNRNPA1 1.3192091 -0.6743729 0.3145145 0.31798497 -0.04223119 -0.28636515 0.27946144 0.08785914 0.40281478 0.4211045 0.48321667 0.6945914 0.40539995 0.411084 -0.8336724 -0.0037925085
IL1RAP -0.59917575 1.200657 0.0051386813 0.13547818 0.09107514 0.15241592 -0.2401291 -0.18193959 1.2624809 -0.22001764 -0.6960558 -0.29447684 -0.3672576 0.41642478 -0.2523299 0.0475882
GAS1 -0.17802295 0.20235163 -0.10209142 -1.127875 0.47404766 0.34763 -0.83150077 -0.71560884 0.71425503 -0.85051113 0.20780475 0.58616966 0.4291807 0.45283094 -0.107044 0.80805933
BMP8A -0.39595026 -0.1690297 0.65399307 -0.46111065 0.5083847 1.5061044 0.81457776 0.06563303 0.052028105 0.65982234 0.6357227 0.7968625 -1.9526718 0.41592523 1.7601969 -0.31489384
STK3 1.3633149 0.0782163 -0.23701371 -0.042833623 0.16186064 1.0650622 -0.00580302 -0.42502615 -0.05735906 0.32206443 0.2702682 0.74302965 1.370915 -0.2740586 -0.13494283 -0.03196278
PRR14L 0.47978523 0.2637244 -1.0653279 -0.15914011 0.39656934 0.8127816 -0.025097873 -0.8464715 0.6622015 -0.3399371 -0.37088686 0.10058727 0.1991733 0.16814691 -0.89076763 0.037579134
SMARCD2 0.4850751 0.21342185 0.43940252 0.4849301 0.008705609 0.94815713 0.8898905 0.13698326 0.8755415 0.5542754 -0.011116193 0.1541692 0.15665136 -0.7927274 0.051813215 -0.3668748
E2F2 0.48042813 0.23928566 -0.6600698 1.2402781 -1.2840796 0.70219946 -0.15143928 0.7854228 0.22102888 -0.7101466 -0.95317745 -0.99911904 -1.0938587 -1.4189951 -0.12335924 0.504429
AXIN1 0.10124509 -0.2999971 -0.014258582 -0.21919185 0.39774275 0.061648235 -1.5241065 0.18698876 0.68441063 0.3198062 0.11372106 1.6092896 -0.17515883 0.4133544 -0.8709504 0.12257498
C12orf75 -0.14130044 -0.522943 1.1663052 0.18320838 0.93573886 0.45968667 0.8121977 -0.035707515 -0.04202134 -0.23613766 0.21968834 -0.06836266 0.060820714 0.336899 0.97148776 0.62014
IDE 0.4406293 0.5344142 -0.029193042 -0.03364258 0.079975314 1.183591 -0.36499727 0.07185635 0.4818446 0.42084828 0.36202127 0.28670335 0.27286175 0.9964165 0.14872742 0.06415172
CKS1B -1.0996709 0.5053754 0.5511598 0.596019 -0.2803071 -0.2363364 1.2202407 0.45026526 0.23890162 0.57031655 0.491686 -0.07181568 0.4091146 0.20916568 0.34650856 0.1128561
PURA 1.6387057 0.17472099 0.12554517 2.1348982 0.2662846 0.24076287 0.04527867 -0.32495427 0.039237775 0.89295673 0.56946796 0.5288601 -0.11763051 0.08411018 -0.042451613 1.2878898
DUSP1 1.0681802 0.28817406 0.52772707 -0.83667535 0.022276014 0.2612738 0.14283498 -0.070891425 -1.4304242 1.3089223 -0.9542693 -0.08194306 0.2508068 0.69109714 -0.02007214 -0.17206089
SERPING1 0.02190649 0.45560533 -0.23828214 0.09889059 -0.4114758 0.19661903 0.56256366 -0.58224696 0.8391249 -1.3131279 -0.34038863 -0.5896914 0.2972481 -0.82523674 -0.014817 -0.113510005
SMG5 0.46633765 0.22412892 -0.1569007 0.11528034 0.5885093 -0.4675014 0.88856214 0.020531919 -1.10259 0.42671755 0.28840357 0.1589283 0.057645027 -0.32687056 0.48169747 -0.20852678
GGCT 0.44684428 0.13237096 0.4937849 -1.21533 -0.43762425 1.2154602 0.3828114 -1.0625923 0.3677001 0.1585428 0.37624753 0.018788872 -0.29469374 0.12085471 0.26258582 -0.5054541
RCL1 1.4870672 0.36807808 0.16902724 0.3089111 -1.0737404 -0.17040062 -0.17739402 0.15466799 -1.0171955 0.52927905 0.67654985 0.33161503 0.6351236 0.21830863 -0.6973273 0.010190271
ARSJ -0.85339737 0.13628641 -0.928296 0.56028897 0.10876997 0.46614146 -0.11598661 -0.6507358 0.0031199888 0.049186114 -1.1440462 0.45590317 -0.077457726 0.90546954 0.07650779 1.7499146
BCL2L1 0.12656443 0.3119566 1.3615664 0.18827718 0.06866291 0.10349518 0.19603224 -0.53142303 0.3050228 0.9260001 -0.052148327 0.101894595 0.9798228 -0.045137823 0.010373017 0.15868172
PIK3CD 0.26531506 -0.12202455 0.970845 0.6135491 -0.5950516 0.3437374 0.5725569 0.06547898 -0.096650265 -0.41842455 0.6732458 -0.13088377 -0.27964503 0.30144256 0.21261738 0.3451826
GPM6A 0.5032827 1.0181222 0.06860743 0.45389453 -0.10331159 0.2885913 -0.013797801 0.09987289 -0.208632 -1.3255757 0.3341861 -0.008826982 -0.023454238 0.34899557 -0.26428795 -0.032596618
RCC2 -0.0791577 0.32468936 0.28679177 0.6122052 0.0031994868 -0.221253 0.09383837 0.0043276073 0.3316634 0.29691488 -0.07164972 0.13763766 0.8157566 -0.341924 -0.0037259622 0.15795101
TNF -0.24281706 -0.28070435 0.40395498 0.24442026 0.012248599 0.33177656 0.12111628 0.95578045 0.123140864 0.19005449 0.49069843 0.21216193 0.29365855 0.5775554 0.11137018 -0.027124263
DTYMK 0.34434572 1.1435674 0.34618855 0.13116854 0.5702577 0.04899206 -0.883318 0.97524935 0.11676342 0.6576497 1.5612849 0.105944164 -0.0937761 0.48129335 -1.0754292 0.49936935
ZMAT2 -0.6004781 0.6368846 -0.2988659 -0.15900898 0.01736052 0.19240949 0.3642615 0.094200745 0.36092636 0.2375214 0.16595736 0.0028256061 -0.05320885 0.40832847 0.021553233 -1.1148753
WNT2 -0.19490503 0.13363367 -0.13481419 -0.6537988 -0.4155744 0.6507602 0.33705643 -0.005149252 0.3406541 -1.191694 -0.07321929 0.8025913 0.35728678 0.10054219 -0.016900333 -0.10946398
OGDHL 0.23864165 0.37538323 1.297007 -1.510049 -0.06113329 0.10568046 0.38363934 0.13371125 0.58709645 0.22887109 0.40953413 -0.102895916 -0.027246075 1.0226476 -0.04284251 -0.9068591
SOCS2 0.85989296 0.8151381 0.050707605 -0.18662536 -0.85165423 0.18059978 0.24443972 0.2719339 -0.53635466 0.6126708 0.22689933 0.18388285 0.06423332 -0.7761275 -0.011705773 0.09569189
PSMD3 0.28802282 0.36293584 0.24336345 0.3033895 0.12161888 -1.1158472 0.030880988 0.07121488 -0.6602413 0.16674332 -0.033810783 0.39682084 0.49547178 0.09319946 -0.070807435 -1.349485
MEFV 0.48302373 0.40642843 -0.4585644 0.10680455 0.10300166 0.08039275 0.14610332 0.018045792 0.86601245 2.0449257 0.35124895 1.0363743 0.045957495 -0.56623054 0.028011352 0.38259494
PIK3R1 1.1847111 0.47662377 -0.34315953 -0.071410686 -0.24347843 -0.11624927 0.12109539 -0.13419192 -0.5902302 0.5867678 -0.06987175 0.8893752 0.4531111 0.22606258 0.18644881 -0.12207422
RETSAT -0.5647051 0.49079794 -0.5079171 1.4425025 -0.13750154 -0.23927136 -0.17138661 0.51233435 0.25499585 0.3621548 -0.54679614 -0.3982157 0.33640435 0.45846656 -0.015828948 -1.019805
MCM8 1.5638235 0.09822445 0.2400223 0.27923477 -1.263049 0.08206996 0.2230875 0.3563086 0.7314747 -0.32311785 1.1213427 -0.84269685 0.545795 1.3256651 -0.0021314125 -0.041082863
RPS27 -0.10941446 -0.09604601 0.2466175 0.39821312 -0.14921091 -0.16300358 0.108656526 1.7617399 0.43544295 0.666349 0.34471416 -0.029979916 0.046623345 0.07551996 -0.015399712 0.03377381
LZIC -0.3135481 0.9317722 0.24930207 -0.6643752 0.09222073 -0.23649448 0.30466053 0.011042067 -0.15067407 0.323361 0.26986983 -0.49910924 0.16483083 0.36219838 -0.009184938 0.13916664
ZNF282 0.18398699 0.37776247 0.25200763 -0.0023380034 -0.4372524 0.05634095 -0.20887221 0.1088855 0.5929633 -0.10680206 -0.015074709 -1.1316501 0.49487323 0.4566536 -0.0058248155 0.097433
CDC25B 0.13133797 -1.0059986 -0.41410506 1.0710142 0.020967674 0.5763416 -0.074855916 -0.025058104 0.13818093 0.13612176 0.09917824 0.780155 1.406598 -0.47376472 0.0020089345 0.70370424
G6PD -0.069691695 0.43221617 -0.08913003 1.439232 0.08668357 -0.008450147 -1.1413602 0.25797394 1.3544568 0.23296052 0.039064743 0.11044108 0.2913745 0.34352615 -0.034308314 0.3107527
KIF2C 0.3796415 0.86857545 0.32253954 0.3781339 0.20127288 0.6083212 0.20266068 0.31990293 0.14600413 0.44216272 0.3101624 0.13005854 -0.36825737 0.110553935 0.0011819594 0.31741196
ANXA10 0.38753158 0.2853543 0.48559567 1.2431942 0.5722438 0.28604192 0.2474775 0.49044442 1.1695154 0.85023415 0.3713775 0.35792673 -1.806252 0.38772264 0.0027864156 0.50212276
ACTL6B -0.13211142 0.07099174 0.11146143 0.051875908 -0.70527416 -0.2120294 -0.48456478 0.1640273 1.0385602 0.6662814 0.30832085 -0.0878129 -0.0004183415 0.66004425 -0.09831396 0.10788183
YBX1 0.28092316 0.44889492 -0.19089599 0.1636986 -0.12156129 -1.5946159 0.1909294 0.6916975 -0.7869591 0.28286862 0.5172681 -0.010499882 0.056966566 0.88980716 0.16842633 0.030633101
GTF2H4 -0.019719979 1.4635434 0.07229806 1.1815226 1.1318991 0.120289706 0.040410172 -0.044860303 0.73175716 -0.19066773 -0.12780319 0.034198947 -0.16275173 0.3299614 -1.5150733 1.7769042
DYNLL1 -0.5531423 0.1165392 0.27840912 -0.41004458 0.14535639 0.5544124 0.66849 -0.01802148 -0.015684424 -1.8496798 -0.18526824 -0.07782929 0.33754283 -0.4764926 0.5867618 -1.225159
BLM 0.09295338 0.38468075 -0.0029955849 0.019598987 -0.003994449 0.15162101 0.18614869 0.010743178 0.083523445 -0.5541916 -0.1429302 0.07312976 -0.7880972 -0.28528237 0.011460554 -0.20873949
COL4A1 0.263083 0.21216057 -0.18894435 -1.2105116 0.19189781 0.18865564 0.08412472 -0.0007307625 0.010326744 0.649189 0.783356 0.24332815 -0.052541945 0.16012469 -0.036293663 2.0355172
NDC80 -0.3554756 0.57010233 0.24802677 0.58723015 1.7968806 0.08492076 0.429302 1.0538421 0.26131195 0.18934585 -0.4158406 0.29100493 -0.090357795 0.56324404 0.40212977 1.3477321
PPIA -0.10938708 0.51810676 0.7334704 0.5274583 0.028995782 -0.31229985 0.30743295 0.54411876 -0.16964465 0.48858696 1.1523685 0.7615911 0.28828862 0.3493311 -0.04477976 0.25461435
RMI2 0.9035077 0.054349963 -0.21600091 -0.11883602 0.021897642 -0.10283447 1.3639274 0.094513066 -0.10886663 0.1361018 -1.2472876 -0.017309183 0.36551803 1.2114664 0.18601178 -0.032694634
SMARCD3 0.41467836 1.6443927 0.24612956 -1.936503 -0.23985605 0.6925065 0.86972255 0.44042844 -0.7311788 -0.4166468 0.5141334 -0.600596 -0.88271254 0.18844709 0.29774547 -0.91678727
NSFL1C 0.5764875 0.35876524 0.46638525 -0.9227165 0.8245333 0.26131964 0.465274 0.020839307 0.09732645 -0.06506968 0.5272153 0.9155289 0.067320436 0.8064077 0.64722943 0.239686
CNOT6 -0.64823675 -1.0922023 0.73924685 0.0018017802 0.5812056 0.22332653 0.6074229 0.60315293 0.555483 0.6375206 0.30526283 -0.56161356 -0.07665085 1.6393394 0.8081823 -0.18866071
SPON2 0.13059807 0.11687321 -0.8871637 0.38910455 -0.047868393 -0.06115784 0.16864353 0.64299583 -0.5063101 0.42425382 0.3006894 -7.781957e-05 0.17841025 0.06936533 -0.13772842 -0.06388595
SLC2A3 -0.0054199197 0.18491957 0.011958452 -0.39686322 0.31802768 0.87344295 1.683722 0.040898103 0.3170335 -0.7134205 -0.05844883 0.47981572 0.53981465 1.3148679 0.22863542 0.084671386
CYP2A7 0.009733967 0.093902096 0.2840896 1.6497618 -0.0094909165 0.74569345 0.26335776 0.44828373 0.43805206 -0.59872574 0.2209906 0.029255591 0.17811924 -1.1396047 -0.17108595 0.48241323
PPWD1 -0.5937068 0.4422654 -0.8308422 0.5563013 -0.37240458 0.05936777 0.029861461 0.5229718 0.4324493 0.53323627 0.1889738 -1.375329 0.3399543 -0.09440368 0.08572061 -0.2152185
ACACA 0.16252275 -0.011635252 0.5173356 -0.664845 -0.06656172 0.13194066 0.9921382 0.01328229 -0.44734058 -0.044146534 0.780079 0.07821337 -0.20447715 -0.1844942 -0.50897884 0.6166881
MRC2 0.3154892 0.3267273 1.2937005 1.7680285 -0.13980763 -1.0919051 0.15197328 0.79032075 0.40659294 1.0868059 2.0084918 0.31059757 -0.45809957 -1.1887839 -0.14778097 -0.24364892
MTR 0.13266025 -0.12763904 -0.42009556 0.5235269 0.75358063 0.46502677 0.045740966 0.64983076 0.41580582 -0.0014988852 1.1012974 0.33654642 -0.47884396 -0.35579142 0.06478831 0.5636118
SNF8 -1.7369027 -0.6635558 0.9202384 0.14423397 -0.34240836 1.0559279 1.1742893 0.2527696 -0.6586071 -0.07863559 -1.1355321 -0.72654283 0.46347266 0.36729464 0.6131678 -0.008648209
JDP2 -0.16271833 0.43355626 -0.101890616 -0.102240875 -0.018123388 0.18164319 -0.40114808 0.02538864 -0.30386537 0.7198664 0.32952252 1.3803695 0.17459457 0.05647112 -0.20382944 0.37283492
RIC3 0.15350068 1.2884873 0.7091722 0.06698703 -0.04674599 -0.14201336 1.4692894 0.035020825 0.4566037 0.4589793 -0.42030066 0.009649827 0.15982604 -0.70916146 -0.16544151 -0.18286803
RNF150 0.46118206 0.71652603 0.6642831 -0.30009615 0.11897785 0.4116615 -0.060222775 -0.08638452 -0.5379818 1.4692341 0.41372684 0.23919818 -0.15289038 0.114534415 0.33091387 0.035779435
AHNAK 0.017637325 0.64247894 -0.78061193 -0.09525852 0.01593919 0.33990407 -0.03411156 -0.04339644 0.78567845 0.72183716 -0.88209933 1.1220465 -0.23756346 0.059557687 -0.058374137 0.28756338
FCGR2C -0.7296071 0.45358604 -0.11157023 0.19175576 0.06268089 -0.47161275 0.22154382 -0.40903115 -0.089740016 -0.05180304 0.43243983 0.72718185 -0.23138016 0.019490825 -0.8891509 0.3775368
C6orf62 -1.5959557 0.16615833 0.2127933 0.614286 0.10386724 0.33695775 0.11440408 -0.37477565 -0.186595 -0.9090045 0.37238878 -0.031012181 0.8168932 0.21524554 -0.04516385 0.42575547
RBBP5 0.553223 -0.037101816 0.011503815 -0.30208454 -0.72621316 -0.3989196 -1.1467855 -0.009763794 -0.29158774 -0.21007676 0.42041376 0.059444964 0.5210632 -0.6677151 -0.01792128 -0.22918531
TAF2 -0.23982681 0.07216935 0.64571935 0.07538282 0.24472393 1.4406632 0.48852783 -0.040906724 -0.031566728 -0.084114656 0.47451225 0.5506811 1.1111585 0.36254126 0.21022104 0.3600152
GSK3B -0.16915008 0.34046838 0.61826736 0.13626513 1.4121969 -0.28958294 -0.32650223 -0.49262905 1.584076 1.3196024 -0.11641772 0.20629565 0.5995958 -0.43098232 0.5330813 -0.14760472
ECHDC2 0.35463172 0.25222835 -0.03322114 0.2766314 0.107840635 -0.1808907 0.13555695 0.29159367 -0.83383894 0.5213121 0.23340479 0.11297325 0.40208194 -0.1458515 1.327255 -0.01376102
CXCL12 -0.26351437 0.35053378 -1.6035198 0.62586486 -0.013659555 0.07975735 -0.05760792 0.30390906 0.69123197 -0.8391488 1.71118 0.7483962 0.51986796 0.88622123 -2.1268735 0.15024363
UGP2 0.15355149 0.12853082 -0.40432826 1.0446864 -0.15308641 0.8277879 0.10040188 0.8749972 -0.13744906 0.090638176 0.40452704 -0.040225245 0.09935739 0.48710486 -0.018625911 0.23054118
ARAF -0.4206351 1.6245575 -0.8099588 -0.1461114 -0.058552645 -0.018158088 0.16782184 -0.07883583 -0.50820446 0.31964263 -0.054887503 -0.71677 1.0822414 0.3233428 0.40522352 -0.11675421
XRCC6 0.8783639 0.3653079 -0.3317327 -0.35420245 -0.049673874 0.76085883 0.28201213 -0.0043814834 0.09428575 0.22823422 0.030998798 -0.10089918 0.43382952 0.21476977 0.05666892 -0.20319314
