SNRPF 1.5278046 0.82216203 0.45390743 -1.2309046 0.2050884 -0.54067814 0.12113819 -0.7157634 -0.025573503 0.9990188 0.19153279 -0.6137305 -0.2105389 -0.018244818 -0.10219537 0.4646525
ADAMTS1 1.0560274 0.13334318 -0.08158908 0.16420083 -0.13393715 0.3321015 0.3858379 1.0278639 0.42730317 0.7955719 0.44564778 0.82991934 -0.012842694 0.48552504 0.19857931 0.22999007
DHX9 -0.5510738 -0.09687254 0.41040418 0.8705275 0.0076601338 -0.02684459 0.11393581 -0.026251918 -0.7279016 0.48151037 -0.23682909 0.051298812 -0.4965248 1.5288827 -0.43891028 0.18021172
CFTR -0.19367509 -0.04112502 0.3797343 0.119129665 0.11653128 0.4035779 -0.059895303 -0.023079235 -0.5397453 -0.01969118 0.14374381 0.16391166 0.18139932 1.3101836 -0.3838732 0.85859287
TRPV4 0.99238795 0.3087452 1.7343664 0.031825904 -0.034161605 -0.018281223 -0.39431107 0.5887694 -0.016677286 0.08051018 0.4353953 0.036723144 0.15218922 -0.16012849 -1.3409655 -0.2532657
GSTM5 0.019647088 0.12700072 -0.51038605 0.0007188926 0.4174892 0.18778831 0.6997144 0.10749458 0.061810102 0.1495265 -0.4275484 0.14039788 -0.86118406 -0.17020196 0.8637322 0.1916891
AP3B1 -1.5959582 0.088231795 0.45780584 -0.01896161 0.31101945 0.10737123 0.59639204 0.18004331 0.012399929 0.05360883 0.23481895 0.3124188 0.007829671 0.7345327 0.6348327 0.27152288
RAD1 -0.5790648 0.4184681 -0.02844962 -0.006322562 0.31685135 0.35230052 0.189971 0.056536276 0.002994464 -0.03349393 0.13686328 0.42494044 0.47326162 0.1369499 0.37445623 0.030030867
CAT 1.4790723 0.3718187 -0.68244725 -0.23368543 0.5060073 0.9140722 0.19999103 0.019315435 0.41218093 -0.16732477 -0.98337746 0.33122504 0.2431518 0.63300073 0.120197885 0.10130046
DDX20 -0.16017728 0.26543745 1.247372 0.8370281 0.34225237 0.0038545374 -0.06744335 0.45973957 0.05381489 0.5471971 0.0075324457 0.9517407 -1.6288935 0.003099498 -0.45298225 0.70571035
TPM3 -0.96313447 0.39186594 0.42086402 0.5249955 0.5558156 -0.056496486 0.3251458 -0.3274305 -0.74293995 0.678023 0.6556577 -0.035514332 -0.7120779 0.23996024 0.49509075 1.4543567
CASP2 0.13455391 0.30231765 -0.14938986 0.0034312187 -0.2133456 -0.82868963 -0.4106061 -0.08088963 -0.0101005435 -0.7804513 -1.0438274 0.009701763 0.5827068 0.107368544 0.20537983 0.09553841
NOP56 1.3950651 -0.17955296 0.6321615 0.2825979 -0.34703425 -0.0309399 0.40383306 0.7687287 0.06013887 1.4228194 0.19458957 -0.24318542 -0.13388817 0.910124 0.8526043 0.17297189
SKP2 -0.23451772 -0.26833907 -0.07836039 0.04199786 0.46400347 0.19954278 0.07130934 -1.4128917 0.061747093 0.38512754 -0.9998738 0.89207566 0.22194022 0.0050951163 0.44755298 1.031911
STOM 0.08889155 1.0559962 -0.04215784 -0.31786937 0.0066063874 -0.007974965 -0.048398327 1.3365502 -0.013112983 -0.122727856 -1.1446418 -0.29561052 0.30457175 0.49410018 -0.11197046 0.15011024
MUC6 -0.15593132 0.018130392 0.04312344 -0.036308996 -0.24635807 0.030283663 0.14829798 0.79867035 0.42457667 -0.14741316 0.2892189 0.28881708 0.08567602 0.22347376 -0.06147182 -0.047289554
CDK5 -0.15213427 0.24202025 -0.61766064 -0.73715967 -0.64295936 0.019399304 0.11852468 0.29784498 -0.73062587 -0.03710822 0.19106095 0.214609 0.6102487 0.14815117 -1.0754551 -0.045777578
WDR5 -0.50975394 0.44197348 -1.644112 0.028187554 -0.09854194 0.017332314 1.1806332 0.4595993 0.43581593 1.2154256 0.502137 0.48723137 -0.22756499 0.732294 0.81762666 0.06757278
GPANK1 0.57387596 -0.27632046 -0.07234948 0.0028374293 0.31877065 0.23919922 -0.029575653 0.03209911 1.153455 0.5578318 0.31492698 0.22644876 -0.009953538 0.33964404 0.7686715 0.109405436
PMF1 0.088426806 -0.13422918 0.2560071 -0.16478367 0.67897326 0.53380346 -1.4972615 -0.4758504 -0.0048484285 -1.3505933 0.18513647 -0.2791768 -0.07621811 0.1750804 0.66847944 -0.38354436
CDK1 0.25223938 -0.21826698 0.7563199 -0.69315374 0.114340454 0.026098136 -0.11641869 -0.12845361 0.13502878 0.083333 -0.97681856 -0.12726583 0.33349982 0.64035887 -0.0937112 0.33100128
FKBP11 0.7216476 0.4123219 0.5270888 0.42016998 0.055558868 -0.09470737 -0.0217128 0.5334649 0.07895975 0.90359056 0.36674306 0.48725846 0.22920986 -0.090163745 0.10656652 0.14426374
HSP90AA1 -0.102809034 0.41396648 0.5229661 -0.4000856 0.13279948 -0.23656458 -0.05006873 1.3142334 1.0524467 1.1384773 0.21006846 0.056397986 -0.87620205 -0.02347136 -0.06031993 1.2485898
AHNAK 0.1967909 0.02092066 1.6898662 1.082449 0.44676268 0.006010784 0.28562796 0.30891913 -0.006891559 -0.44986978 -0.50323945 0.14213017 0.03842252 0.38751128 -0.02631548 0.2531847
SMARCD3 0.33749068 0.2885425 0.29202285 0.031050375 0.9174824 -0.33288902 -0.16877316 -0.06339339 -0.10734136 -1.642133 -0.07443032 0.20032698 0.4092333 0.18935695 -0.1535656 0.18855497
EEF1D -0.0660273 -0.2929612 -0.1741465 0.31737325 0.3938335 0.13049622 0.3478192 0.21285672 0.67246497 -0.76866204 0.6391559 0.6017914 0.082891926 0.36817938 0.22110912 0.10094017
FOSB 0.2903289 -0.5842587 -0.047428213 0.20489186 -0.016205886 -0.18424249 -0.025120499 -0.89229405 -0.06866238 -0.21599138 0.43644384 0.54310435 0.21273744 -0.08874168 -0.1312209 0.54918206
RAB4A 0.06391889 0.55703926 0.13394164 0.6394341 0.4612838 0.01659006 0.44230235 0.40258685 0.046399906 -0.503818 0.09750082 -0.27196002 0.27170345 0.6540151 0.3405682 0.011905672
MMUT -0.6161316 0.24097371 -0.25087622 -0.022508718 0.03649557 -0.3153319 -0.037927356 0.22679587 0.750474 0.030583693 -0.11391831 -0.08161632 0.042421307 -0.21529144 -0.49294153 0.53679776
CTNNBL1 0.8081247 -0.055703845 0.70307434 0.014510099 0.15876074 0.61561394 -0.5652983 -0.55806416 -0.32215926 0.022508683 -0.13332415 -0.03856638 2.1683745 1.3181895 1.5039966 -0.42384556
ZNHIT3 1.1990516 0.2718018 -0.01316189 -0.0054479553 0.19853303 -0.08729473 -0.865223 -0.31196454 0.0057725194 0.32932162 -0.024539834 -0.35789075 0.18051606 0.32637316 0.0002893377 0.1527064
SNX27 0.70678973 0.034590863 0.8067775 0.41202122 -0.18781845 -0.05690655 -0.5900209 1.2794887 -0.21931936 -1.756961 0.19712074 0.17285968 0.24105616 0.24984619 -0.16047764 -0.024967963
RPLP1 -0.4770628 0.3677977 -0.06470602 -0.023650678 0.8881454 -0.017282732 -0.16659473 -0.2021381 0.006527009 -0.057211958 0.31845182 0.27841952 -0.9038244 0.1080225 -1.0274156 0.0469502
STMN1 0.9206689 -0.5717214 0.82564217 0.5207694 0.3408177 -1.768107 -0.63274056 -0.32409185 -0.009548885 0.44858536 0.3814414 -0.0073958305 0.39339787 0.1404559 0.5667678 -0.11408648
DR1 -0.87210655 -0.053356018 -0.61282426 0.40002295 0.026991542 -0.0021579855 0.39300317 1.0136403 1.1109669 -0.43747243 0.48293287 1.299797 -1.2392558 -0.12729584 -0.20875996 -0.107458934
TMEM30B 1.183842 1.9329171 0.2832198 0.19839345 0.36164066 -0.02059618 0.21666086 0.071068026 -0.015964052 0.6165593 0.5301913 -0.09829989 0.22296812 -0.073543966 0.15567943 0.03284026
ARHGAP10 -0.09570448 -0.30474526 0.18806551 -0.1228537 -0.932467 0.21750152 -0.1116167 1.5521532 -0.08081806 -0.6260076 0.31719095 0.23035051 -0.028721763 0.45806038 -0.37895504 -0.3779838
BAX -0.06776575 -0.007104354 0.6557334 0.16799884 -0.2679246 0.27017072 0.50956804 -0.36749303 -0.019591687 -0.46045426 0.2300358 0.10189374 0.55823636 0.20631722 1.1287407 0.08418543
PRKCA -1.0332236 1.738643 -0.19974922 0.17842408 0.061924588 -1.4057593 0.7437098 0.60162634 -0.14448148 1.1268674 0.9577475 0.36064792 -0.03710185 0.4764866 0.390983 0.58087885
RPS10 0.094517805 0.12941162 -0.125274 -0.002697054 0.29699424 0.37156564 0.46470863 0.15141863 -0.2589971 0.0340611 0.4277833 0.8829495 0.08929412 0.89464813 0.23033863 0.05266108
USP43 -0.50734174 0.28015774 1.427792 0.019447602 0.055283166 -0.041438166 -0.35027757 0.48175812 0.04081909 0.0013351924 -0.6913819 1.1015984 0.4122214 0.10585136 -0.23958349 -0.14784403
RNMT 0.12098487 -0.07470326 -0.046573497 -1.2915106 0.16753656 0.28228337 0.17399083 0.13980982 -0.2644504 -0.05691247 -0.35867667 0.080035865 0.10168486 0.57643396 0.3910438 -0.8836318
DEPDC7 1.6194474 -0.7674691 0.11859926 -0.39812082 -0.01127155 0.16733424 0.34431243 -0.05024598 -1.8937476 -0.061985902 0.23207751 -0.8628424 0.25965115 0.31459174 0.03326939 0.24062315
STK3 0.45748278 0.07784988 1.0122982 2.1475387 0.56838906 -0.008324175 0.3989761 1.0557467 -0.06809531 0.25777772 0.693561 0.0013777015 -0.44690937 2.4314733 0.75314367 0.33961836
PIK3R2 0.10256672 -0.087936364 1.0367749 0.7460953 0.5995208 0.6589627 0.046589967 -0.14248186 -0.6330832 0.015155219 -0.023988916 -0.047539342 0.11563845 0.30346614 0.70394826 0.7043701
SLC4A1AP 1.0213336 0.25907794 0.83718807 1.4277127 0.30398554 -0.13794199 0.030943457 0.3750767 0.07494655 0.9700807 -0.590875 0.24476175 0.14660737 -0.6757962 -0.6724537 0.5674911
LYVE1 0.52645415 0.15526834 0.64013857 0.5901709 0.1414866 0.16041145 -0.13779391 -0.66135514 0.21809714 0.037434038 -0.6607685 1.3946823 1.4305278 -0.28856647 -0.48652607 -1.469511
WNT7B -0.05575916 -0.1501188 -0.7557376 -0.019420533 0.54432887 0.68150854 -0.07398662 2.1510134 0.09382644 0.36457086 1.1711389 0.81145746 -0.08536745 -0.7312578 -0.13153918 -0.04242021
RRM1 0.33562165 -2.2186704 -0.6273086 -0.60680664 -0.07226799 0.032392524 -0.115866184 0.014692266 0.012045992 -0.23995745 0.0063489284 0.008227369 0.025411837 0.4248904 -0.12509009 -0.27732262
METTL15 0.3633242 0.054438207 0.9011535 0.68323517 0.020264383 -1.5317018 0.15717776 1.2555041 -0.09785869 0.658612 -0.71424854 0.18406609 0.06032713 0.91749823 0.1527977 0.34859452
PABPC4 0.6629179 0.30708498 0.36511812 -0.57311994 -0.08154185 -0.063524164 0.10763176 -0.46721286 0.053721286 0.71840066 0.36930197 -0.26212966 -0.15167445 0.09153456 -0.4669521 0.55899966
DTX1 -0.29936954 -1.0929492 0.06331871 -0.018273866 0.34881285 -0.2949562 0.26432246 0.022346072 0.5470149 0.016786182 -0.36842164 1.2776115 -0.8390953 1.5644681 -0.13277511 0.5627894
LTF 0.450556 0.24388513 0.8332713 0.98380005 0.09604762 -0.0026942678 -0.49137095 -0.04174513 0.121245846 0.21321112 0.026410298 0.043784246 0.30579743 0.4252226 -0.047467966 0.47937712
UCK2 0.34131965 -0.24421228 1.0718702 0.62813675 0.25556424 0.50577193 0.40842313 0.023455506 -0.6084471 -1.5216516 0.04669467 -0.025770385 0.08811309 0.71852136 0.01638841 1.0095223
AADAC -0.056402467 -1.2806613 -0.786905 -0.013516623 0.23458001 -0.018794376 0.52313197 -1.4779735 -0.015778268 -0.008725784 0.62574553 0.51663154 -0.41322628 0.27431408 -0.23081508 0.81652206
KIF2C 0.9898789 -0.67929107 -0.5107607 -0.482542 -0.7239293 -1.7216988 0.85607153 -0.08003934 0.08716206 -0.2655825 0.24628493 0.5903435 0.25508332 0.09163902 -0.70596826 -0.1539196
BMPR1B -0.20251392 -0.09146432 0.6395064 -0.12540872 -1.5186827 0.061750922 1.3375392 0.41005477 -0.07133198 -0.1408254 0.04634266 0.07165052 0.25801328 1.1822773 1.0073159 -0.07465094
FUBP1 1.2010462 -0.39023522 0.7468631 -0.32789373 0.62436146 -0.17377414 0.024014138 -0.1562724 0.3064322 -0.45423034 1.8171332 0.045900684 0.32182536 0.73371315 0.10928467 -0.36681774
ADH1A -0.10985986 0.09370947 -1.3315269 -0.15226166 0.2055676 0.066775 0.05570197 -0.1078261 0.21719389 -0.2643137 -0.6465065 0.33548477 0.12731893 0.24860221 0.30531287 0.05080515
DUSP1 0.43042833 0.067970715 0.35535184 0.026305543 0.098155946 -0.061874934 0.13545653 -0.11549657 -0.08723832 -0.6568103 -0.045284174 0.016009362 0.3197505 0.95840913 0.24174069 -0.025951201
SAMHD1 0.1771882 -0.14650063 0.053018037 -0.021945478 -0.12569031 -0.12347022 0.8200673 -0.24557614 0.0176974 0.19431439 0.0700482 -0.2501077 -0.093389176 1.5899594 0.02080128 0.4096551
DKC1 0.614972 -0.92151177 0.8722991 -2.0234826 -0.010802722 -0.157966 -0.9035578 0.17717175 0.32886702 0.02804366 1.1490921 -1.1230922 -0.5378323 0.6127118 0.076666296 -1.4768856
MCM2 0.1960193 0.25965315 -0.07060294 -0.025400434 -0.034562513 0.06271198 0.14681754 0.01754147 -0.28863737 0.42155203 1.4045159 0.11087573 0.29379308 0.71851677 0.32537118 0.12212969
MMS19 0.15556718 -0.03539834 0.4626482 0.3093357 0.38753483 -0.019786404 0.6731579 0.10938563 0.05472444 -0.12527817 -0.5963801 0.00077738415 0.10557013 0.67897385 0.16834964 0.97689086
BROX -0.38766304 0.464457 -0.70241815 0.052641246 0.34880233 -0.00089451217 -0.7972034 -0.1803371 0.4443276 0.22256483 0.1329397 0.034953825 -0.4587036 0.17572543 0.1671329 0.28702566
DEPDC1B 0.44775146 0.29258215 0.7356161 -0.4087026 -0.076098435 -0.07553001 0.77843255 -0.61286575 0.105023056 1.3220602 0.44660932 0.12711617 -0.0036820152 0.75997376 0.76262206 0.5247944
HIF1AN 0.5039192 0.1455522 0.073926106 -0.005669835 -0.013114204 0.46190816 0.7044472 0.42543533 0.10680368 -0.094277546 0.5085225 0.16594414 0.21114004 -0.35853535 -0.8957425 -1.6329343
TRIM22 0.7556913 -0.08699164 0.52054507 0.789467 -0.21430637 -0.07670549 0.43429098 0.32626012 0.36485404 0.7689036 0.57889855 0.4010786 0.006979306 -0.25908315 0.45513526 -0.16615322
MDC1 0.24029471 0.14963019 0.19745438 0.086808816 0.4389071 0.26411274 0.79768306 0.51785076 0.089274354 0.7103761 -0.6317172 -0.66467977 -0.009603161 -0.6002736 1.3327233 0.16089715
PPOX 0.09234698 0.83571714 -0.12872572 -0.09848273 0.19241841 0.34123203 0.18264805 0.0959743 0.09187902 -0.31633386 0.40050304 -0.37938866 0.37051556 -0.36646986 -0.15296775 0.032623038
TIMM13 -0.009802436 -0.005204223 1.0082386 0.78739774 -1.0279253 0.09761781 1.0903372 -0.3256832 -0.16805191 0.2717571 -0.14445274 -0.090405405 0.31885713 0.36846715 -0.08379056 2.7430599
ELK4 -0.23446451 0.42474025 0.34403262 0.37393922 0.057330802 -0.26537883 0.7458045 0.44991186 0.012798583 1.7548463 0.74022377 0.40104666 -0.6038913 0.07305341 1.1982185 0.50074613
COPS7A -0.53597593 0.20299874 0.19643976 0.39709225 1.5026143 1.044351 0.112737544 -1.4883692 -0.06474098 -0.5488114 -0.0122994585 0.14854649 1.2117792 -0.112972096 1.0201665 0.07442088
CSPP1 -0.097896 0.060753405 0.288354 -0.31300914 -0.29481673 -0.24230193 2.3044982 0.673586 -0.06433409 -0.23754844 -0.18556133 -0.08478146 0.061225336 -0.06685555 0.68414414 0.3829514
LEMD2 0.764961 0.29193157 1.0983342 0.55390567 0.3033015 -0.016282376 -0.2727985 -0.76142144 -0.04992354 0.12199714 0.13277797 -0.0048700627 0.6228019 1.1994727 -0.051214278 0.87097377
PHIP -0.10295456 -0.08463519 1.4110317 1.4087605 0.6188025 0.30905485 0.4617452 0.5133097 -0.107179105 -0.070151806 0.16682526 1.6237652 -0.12310956 0.0366641 0.9432593 0.2670997
RBBP7 0.3185936 0.4528502 1.0401181 0.3557924 0.32784402 0.01497559 0.2981591 0.3129698 -1.1516578 0.03970071 0.018456751 -0.0055179857 0.24279688 0.7607416 -0.60792404 0.26607025
TUBA1B 0.28861463 -0.7074622 -0.87547153 -0.0009148453 0.47574478 -0.67264885 0.76968265 -1.2379727 0.6048534 0.00064343377 -0.4232611 0.023518266 -0.09355975 0.010722393 0.18522471 0.18581672
AKT3 -0.15438402 0.08627599 -0.14226142 0.32063112 -0.0027770447 0.5449765 0.3317088 0.4712061 0.0008750509 -0.3481731 -0.3162317 0.015843684 -0.057923518 0.029183058 0.08114884 1.5478313
SETD2 -0.83684313 -0.30158734 0.35620233 0.2800607 0.46528363 -0.0035695913 -0.40549228 -0.10372844 1.501069 -1.08357 0.12957032 -0.64138067 0.1378199 0.28385785 -0.04688932 -0.48291326
PTEN 0.119101204 0.0567432 0.6302511 0.008146119 0.34740287 -0.22905728 0.59552956 0.20614961 0.016916707 -0.25026423 0.08659315 -0.063554384 0.11638948 1.0809138 -0.6587035 0.3474297
WNT10B 0.17222837 0.20487352 0.581644 0.4085295 -0.08367469 -0.40150535 0.054777775 0.79409456 0.041506846 -0.026947059 -0.44941416 0.8093135 0.28108683 0.42176393 -0.32043168 0.05474186
HMOX1 0.4140212 -0.28980112 -1.421449 -0.11157296 0.41276944 0.62242705 0.16082133 0.49227813 0.3622999 0.01314819 -0.19045226 0.39143667 0.089113615 0.60636926 0.12771186 0.03584137
SMYD2 0.654928 -0.73891217 0.90858096 0.009337685 -1.1011719 0.003856001 0.11313512 -0.5641704 -0.004723662 0.020917403 0.17425528 0.5282044 1.1054413 1.4243107 0.2037442 -0.5862427
CUX2 -0.0010135173 -0.038564596 0.25884584 -0.5741142 0.33227432 0.011522012 -0.2516277 0.072137095 -0.36487958 -0.043248214 -0.07141702 -0.0038788505 0.15641317 -0.1903517 0.04450517 0.2796073
TCF7L1 0.25073108 0.6529849 0.13872275 0.667732 -0.18178795 -0.0730299 0.118028656 0.32280052 -0.08423695 -0.11111698 -0.051166374 0.008327091 0.89488477 0.0038008513 -0.06543138 -0.083153665
ADH1B 2.327982 -0.45186874 1.442749 -0.42570534 -0.70261765 0.07465501 -0.33972546 -0.10044805 -0.29339394 0.65281206 0.29294103 -0.64149755 0.6287197 0.47165677 1.345757 -0.05966611
CDC25C -0.32799596 0.33237907 0.14771663 -0.49724647 0.6048676 -0.08408757 0.1415317 0.1314886 0.8955997 0.0846635 1.0923454 0.350292 0.39021304 0.9109746 -0.035917107 -0.12546137
COPZ1 0.16856794 -0.35998648 -0.24968518 0.007863153 -0.18168226 -0.0128054805 -0.24931514 0.2361261 -0.0068136672 0.12205002 0.20339625 -0.53255576 -0.11094514 0.03897762 -0.04910489 0.24517034
CHCHD2 -0.2829312 0.11283587 0.6087504 -0.12496306 0.252471 0.06995299 1.3216598 -0.10881638 -0.49279425 -0.012810187 0.6066644 0.0671093 -0.140413 -0.2054525 1.3083961 -0.74178976
LRP5 0.6602455 0.29433605 -0.23220551 0.067597516 0.068783395 -0.023891203 -0.47456205 0.5161969 0.014560313 0.42898318 0.2384879 0.21170127 -0.05068875 0.3127946 -0.15782075 0.49486274
COLEC12 0.04226914 0.1954477 1.1892015 0.067870736 0.20656122 0.6628908 -0.27462643 -0.16551946 0.497927 0.69280785 -0.5099958 0.21080239 0.3576242 -0.07541319 0.04359627 0.008794433
CCNE1 -0.27013966 -0.04344526 -0.048003584 0.5842122 -0.25545633 -0.0046906765 0.18715625 0.22393902 0.43401867 -1.1659904 -0.053032923 0.777564 0.52609164 0.9403445 -0.26781183 -0.17531475
SFXN4 0.67732316 -0.9854654 0.7838978 0.20183834 0.2857729 -0.13807267 0.016176378 0.042809427 0.02371203 -1.1705859 -0.20497988 -0.042307574 0.16039899 0.42527658 -0.10088592 0.10617082
NKD2 0.5154846 0.55381745 -0.67457324 0.031736575 0.22946125 0.002747434 0.2974811 -1.0437378 -0.65355104 -0.021591587 -0.09639661 -0.36560446 -0.47230396 -0.63625216 -0.041034706 0.6769099
AGXT -0.72431827 -0.30848718 1.239058 0.29490626 0.20140937 -0.22496349 -0.2588219 0.16884613 -0.20544402 0.25710902 -0.38112226 -1.8940647 0.6175527 0.2554364 0.17644525 0.82904756
MCM3 -0.119756326 -0.074425906 -0.16387302 -0.32811588 0.72286654 0.19453065 -0.39432418 -2.1522694 -0.11288693 -0.13077001 -0.29065812 0.0956455 0.37848645 2.1056316 0.86622584 0.37255383
CYP2C19 -0.25751024 0.038883824 1.4533254 -0.109736964 -0.33608916 0.008881956 -0.015105753 0.16566673 -0.489354 -0.79263026 -0.127814 0.4785897 0.734828 0.07241012 0.06868717 -0.1591548
PLCG2 -0.102702 0.05479322 -0.48010466 -0.56331 0.120820105 -0.13142149 0.7571529 -0.20091204 0.4810202 -0.45277593 0.07632595 0.17838657 0.3948003 0.36821315 0.28034756 -0.08171488
MANEAL -0.27272728 0.38374856 -0.042275872 0.04532264 -0.079463325 0.16264874 0.21368748 0.9256489 0.10394574 0.66538393 -0.37327528 0.5312776 0.4905102 1.4502966 0.61753863 -0.27462873
GINS1 0.2449608 0.0035169502 0.050582856 0.006674967 0.47341642 0.50345016 0.40157008 0.35232154 -0.011752345 -0.74035466 -0.06716367 -0.2533748 0.3794891 1.1368142 0.30704325 0.509864
EGFR 0.5459058 -0.08475742 0.47040164 0.2977033 0.025386041 0.066283315 0.199151 0.5187607 -0.104690924 0.18556647 -2.1710813 -0.07080396 0.046490323 -0.1916385 -0.79789203 1.0569617
DMGDH -0.20970297 -0.03542362 -0.04736016 0.09645417 0.02696298 0.057274632 1.0498196 0.49695718 0.5354902 -0.41294172 0.2968601 0.35584858 -0.04799634 0.8349659 -0.1425635 0.37888327
NCAPD2 0.44837296 0.012274701 -0.013683271 -0.014298722 -0.7010701 -7.64812e-05 0.37194112 0.2652876 -0.4270166 -0.02869654 -0.39067563 0.3091514 0.012682328 0.22604895 -0.76741415 0.047268122
SEM1 0.27163455 0.19531332 0.5447442 0.09706184 -0.3552741 0.1444951 0.44417098 -0.18279454 -0.009186519 -0.5018557 -0.008917024 -1.0065991 -0.22042853 0.17996597 -0.05454391 0.64396834
PCID2 0.0767679 -0.10502751 0.32124114 -0.22999175 0.5627011 0.8181519 0.24201722 0.2134111 -0.035056904 -0.20224929 0.9281999 1.1587915 -0.22516036 -0.05999571 0.0091943 0.45741987
SFRP5 0.16816199 0.1511291 0.56914896 -0.15523838 -0.1278047 0.31015304 0.58306015 0.1981199 -0.5036705 -0.68777484 -0.07666854 -0.003955606 0.25728205 -0.34680673 -1.8422904 0.25128946
R3HDM1 -0.215146 0.10424851 1.4667919 0.2427755 0.15402001 -0.00133944 0.3821332 0.013912266 0.0031627242 -0.63039833 0.14566334 0.13548659 0.7230211 -0.15053135 -0.7547834 0.141831
IFNAR1 -0.22076543 0.18325944 0.104726724 0.31213623 -0.6311986 0.018735848 0.07655295 0.21409827 -0.24110511 0.33469522 0.24277511 -1.1542988 -0.071239404 -0.2409249 0.6334328 -0.63233805
IGF2BP2 -0.15247656 1.1031809 0.030271318 -1.974303 0.5343742 -0.101307265 0.55479324 2.2696815 1.0651742 0.052397035 -0.5538822 0.6767498 -0.04305876 1.0000511 -1.5306023 0.039313193
TCP1 0.37793595 0.19641441 0.1798081 0.031851724 0.26815915 -0.18885739 0.85017335 -1.0894778 0.025373131 -0.047051083 0.25091156 0.4266876 0.41051933 0.25571388 0.36436957 0.25644007
SF3A3 -0.31432757 0.080866165 0.17505343 0.3544176 1.5458466 0.622486 0.043960422 0.666724 0.007954465 -0.037644383 -0.21667632 0.092726186 -0.023960462 0.38642958 0.44579563 0.4659704
SUPT4H1 0.60836726 1.173045 0.058777038 -0.02230316 -0.18625799 -0.05634594 0.44557905 -0.14849222 0.053909585 1.0093275 -0.3165743 -0.07872436 0.20516434 0.57875097 1.6143638 0.04959832
RCC2 -0.85582083 0.24826361 0.37495953 -0.043649472 0.1206306 -0.03057968 -0.24392171 -0.8020429 0.33912772 0.026133247 0.61043173 0.20627527 0.2995593 -1.4842372 -0.19430265 -1.3911604
UNKL -0.5073601 0.21050048 0.24641572 0.00036686962 -0.12871999 -0.67099065 0.56071085 0.035402637 0.44373062 0.23447515 -0.93750423 0.05099321 0.0035629324 -0.5535178 -0.36147183 0.57830304
VWF 0.39316797 0.92832184 -0.07956759 -0.042028006 0.049904756 0.17898536 -0.24794677 0.6102618 -0.126563 0.35845333 -0.97884786 0.16985701 0.3261464 -0.28790364 -0.61572564 -0.27452293
EIF2AK1 0.37127313 0.37681973 0.020148708 -0.9196198 0.83241343 -0.0170526 -0.12573963 1.3472522 -0.040687006 0.008921105 0.27542126 0.14052933 -0.039995953 0.51229566 -0.7353334 -0.69998646
NTN4 0.69657475 0.35440782 0.46194082 0.013994671 0.24903469 -0.16329478 -0.37565485 -0.1766774 0.5074104 0.61418015 0.19885151 -0.5292275 -0.032456707 0.6711841 0.25913548 0.4130661
STAU2 -0.120367944 -0.087030165 1.1628953 0.4189036 0.5024734 0.47218433 0.20407458 0.09570227 -1.0807105 -0.03351415 -0.088845186 1.1549817 0.23912726 0.27408057 0.773539 0.30170304
STIP1 0.57968104 0.9890988 -0.05245021 -0.3011314 0.062102243 -0.23596218 0.30623218 0.20736572 -0.8573969 0.1464851 0.18950455 -0.08174742 0.09160214 0.3958609 -0.026559372 0.19741039
CALM1 0.1783105 0.25053555 0.41042233 -0.09434123 1.0017856 0.024765812 0.7150619 -0.05479087 0.012487411 -0.044802636 0.2611409 0.04250058 0.17875154 -0.28162938 0.50063634 0.31465685
RBM28 -2.8872845 0.44133705 1.5797936 0.5047018 1.4221551 0.37404734 0.7486233 -0.38395178 -0.269319 -0.027980357 0.40484798 0.23846415 0.23234601 0.19859682 1.4651841 0.8367943
SNAPIN -0.13125657 -0.19865932 0.26140562 -0.46191853 0.005200398 0.81519395 0.51843184 0.55771035 -0.008980869 0.007880377 0.13738787 0.21669997 0.06459677 0.6302504 1.3311915 0.101881005
KIN 0.61047083 -0.59173715 -0.094346516 0.20778576 -0.001404564 -0.03289081 0.13338119 0.10214759 -0.008065308 0.028303813 -1.0109229 0.02531495 -0.029251268 0.08667533 -0.17538938 -0.6975654
KIF2A 0.36560288 0.22147448 0.60741144 0.3733128 0.14407614 0.09945188 0.40448284 -0.7091104 -0.45829764 0.19835623 0.29680103 0.43066752 0.4727648 -0.46768457 0.5170014 0.03930141
UCKL1 -0.2262033 0.42292118 -0.15307476 -0.033851665 0.016694846 -0.008454445 -0.23633306 0.6180896 -0.01508898 0.028581139 -0.5473748 0.21306032 0.510043 0.19809663 0.123446375 0.008734565
STARD7 -0.24911402 -0.10949832 0.32131004 0.040048603 -0.32312343 -0.18170778 0.7599901 0.64024734 -1.1538538 -0.030082546 0.66644216 0.65082467 -0.34934685 -0.08538702 -0.5922045 -0.14683926
AIDA -0.12731548 0.20053001 0.45520204 0.0006775118 0.061454035 0.004090514 -0.49890915 1.3166084 -0.020795574 0.25227624 0.30923328 0.21663263 -0.1189463 0.34830335 -0.11683757 -0.01856184
KIF4A 0.0642784 0.046869725 0.6063095 0.9740613 -0.68175 -0.03310108 0.27058205 -0.1096616 -0.65834874 -0.62468636 0.36376265 0.3177514 0.14994995 -0.020510254 0.02194319 0.51508147
RALBP1 1.5523546 0.37837362 -1.03621 -0.007197093 0.18408632 -0.47192028 0.18520015 0.120291896 -0.035073437 0.0426807 -0.0013422607 0.07288443 -0.7384742 0.20204432 -0.1636388 -0.6929052
KLF13 0.7455479 0.43915048 -0.10016784 -0.07428921 -0.24376911 0.68293905 0.032186404 0.3177187 0.020706909 1.1233476 -0.1921292 0.059808753 -0.3505766 -0.5785298 0.62282443 0.49461812
IVD -0.52480114 0.15921812 -0.21873377 -0.01106962 -1.3828695 -0.3051394 0.39178053 -0.25813577 0.21756634 -0.57053584 -0.079527505 -0.03032544 0.5191286 0.065360434 -0.3750371 -0.12794895
PRC1 -0.058619052 -0.5851742 1.5107998 0.85273916 -0.1652452 -0.9972456 0.7993147 0.5377505 -0.27386293 0.11429912 -0.40601647 -0.021188417 -0.92973065 0.22587547 -0.022430794 0.64447415
ETS2 0.6214669 1.1509081 -0.93523675 -0.03917523 0.38933817 0.03370542 0.07955491 0.2782215 -1.1200112 0.12739654 0.1285352 0.62839013 -0.046153624 1.2215883 -0.074558005 -0.51398385
SNHG7 -0.41315106 0.7116 0.9622337 0.61622334 0.722006 -0.041542605 0.21046233 0.53851444 0.38513768 2.042814 0.5202998 0.34363222 -0.6535323 -0.24879307 1.326031 0.7292944
PDGFRA 0.24300835 0.12935862 -0.4117475 -6.460701e-05 1.5021753 0.29420134 0.17534295 0.04612812 -0.09723043 -0.16700661 -0.97817224 0.5886238 -0.063108966 0.71992403 -0.02097359 0.48907346
PRKAB2 -0.58385366 -0.07962136 0.06202926 -0.058570206 0.38463947 0.5469694 0.5872233 0.29074013 -0.04372173 -0.3336039 0.34817892 -0.80491596 -0.05482241 0.17376597 0.5880727 0.40331206
DPF2 0.31632796 0.26176605 1.1026281 0.097533435 -0.08404873 -0.026077928 -0.7439752 2.1376557 -0.38143095 0.275038 0.41870797 0.48382717 0.62595594 -0.33455828 -0.012274995 -1.1959214
CD1D 0.3817882 0.38810262 -0.23550963 -0.02207714 0.3069878 -0.84848464 0.08822064 -0.8061555 0.5924032 0.045637276 0.15652454 -0.5757681 -0.1013769 -0.7784807 0.10749242 0.15571861
ARID1A -0.11589173 0.28568193 -0.036947496 0.83425653 1.2571062 0.1943028 0.26267403 0.15494788 -0.05180238 0.17263603 -0.19961455 1.0801833 0.32884353 0.12723933 0.54557335 0.20118065
CEP55 0.44480947 -0.19381618 1.1082467 0.08367711 0.22065379 0.009780956 -0.12669744 0.12393386 -0.45099086 -0.03558672 -0.0029324063 0.07051954 0.9124366 0.055977296 0.114910915 -0.16598718
XDH 0.3440578 0.21261671 -0.11804615 -0.0022920447 0.17072834 0.37794527 -1.5187043 0.20448962 -0.32787272 0.10685156 0.30173677 0.047094695 0.07260913 0.13943362 0.3349891 -0.25365612
ACTR6 1.1941171 0.22857659 1.0904583 0.39259073 0.015583848 -0.042600203 0.32071033 0.6107829 0.62169945 1.0370544 0.5304467 0.20635237 -0.049615256 0.60555637 -0.46717587 0.41536182
DSE 0.42053175 0.29188037 1.7174885 1.0457331 0.11897972 -0.017697195 0.1266382 0.89856946 -0.20664136 1.3923099 0.48888814 0.0005078275 0.10626989 0.45939893 0.7914848 0.61850667
LCMT1 -0.22003841 0.36439937 0.031530358 -0.01017276 0.28257972 0.75474674 -0.68673843 0.48863992 -0.09899407 -0.07399331 0.124461986 0.21197355 0.28634408 1.4837431 0.3900853 0.10736585
LZIC 0.18901764 0.346228 -1.5428804 -0.7515596 1.0892949 0.20853452 0.53568006 -0.022806797 0.16872746 0.30340716 1.0538985 0.76414967 -0.14206733 -0.32899898 -0.18472554 0.6794074
RAC1 0.21018133 -0.021328978 -0.3118986 -0.3865198 -0.19338243 0.0427514 0.27725548 -0.05076275 -0.62172973 -0.29083732 -0.063710235 0.038323905 1.5609565 0.7333914 0.18804787 -0.071359366
EGR2 -0.626539 1.4210172 -0.43818846 -0.21367267 1.3159711 1.077369 -0.4763503 0.85971886 -0.02634089 0.31077665 -0.14777242 0.12729819 -0.28748408 -0.04459589 -0.008549089 -0.216375
HNRNPU 0.2536277 -1.0963974 0.038838282 -0.17866297 0.09615238 -0.13134569 0.687335 -0.14252084 0.045831818 -0.56641763 1.498069 0.07364165 -0.039989114 0.1949083 -0.2648272 0.4473204
SEMA3F 0.22836256 1.0339206 1.6572542 0.37272933 0.854144 -0.03424701 0.2655574 0.12817563 0.35689723 0.67950004 0.060285416 -0.08493262 -0.13238025 -0.10613253 0.025423292 0.5170103
SUPV3L1 0.2797334 0.041950986 0.59306926 -0.3408522 0.67587054 0.3435819 0.75042576 -0.0144679 0.011329492 0.026242303 0.3152295 -0.5599444 -0.036051735 0.5820834 1.0823703 0.027647505
SPNS1 -0.12444933 1.4506181 -0.08020603 -0.6711954 0.3499533 -0.04462654 -0.5603554 0.84061664 -0.036580198 -0.48087448 -0.0033022496 0.15328 0.3446272 0.13608651 -0.12780853 -0.06672091
PLCD3 0.08823032 -0.7311078 0.43340597 1.3221753 0.070301026 -0.10706373 -1.4089123 0.64763343 -0.06947013 -0.4556963 -0.043367878 0.19016941 -0.37713072 0.74516976 -0.2786737 0.0047707283
SMARCD2 0.5859482 0.101596795 0.32884097 1.146643 0.77476513 -0.48419553 0.44222042 0.3124808 -0.11192378 -0.2406358 -0.5083307 0.8340171 -0.5050726 0.30063492 -0.13542548 0.33023795
FBP1 -0.08305894 -0.10037334 1.2055652 0.08260207 0.78703797 0.07153486 -0.2547185 0.40685588 0.35532466 -0.08905173 1.3245572 0.48473608 -0.6199398 -0.04874296 -0.121851586 0.06186207
WBP11 0.24001062 -0.268665 -0.12855916 0.25275832 -0.10558548 0.019191107 0.13159376 -0.71103585 -0.21447276 -0.063557245 1.0647222 0.0059400997 -0.025471881 0.28631485 0.18929774 0.11672547
PSG6 0.9318174 0.1110853 1.3387275 -0.41027096 -1.2933648 0.018244073 0.2239239 0.409015 0.029739639 0.7463361 0.38953844 -0.08491085 0.1960152 0.63259333 0.19105485 -0.057455014
RAF1 0.20554867 0.6140997 0.73578185 0.009851516 -0.28472495 0.92850405 -1.9234713 0.12570879 -0.13819295 0.75499946 1.0569912 0.08056756 0.12817939 -0.0007428853 0.12136173 0.5861784
AGBL5 -1.2371192 0.3562149 -0.12445343 -0.0319243 0.58570695 0.49312958 0.63661426 0.45345515 -0.88358486 -1.3237671 -0.38508365 0.19265194 0.049639486 -0.14992064 1.3390334 -0.25913325
UBE2T 1.0095496 0.026192877 0.03842376 0.12023905 0.15443099 -0.021178737 0.004039563 -0.27827126 0.010041117 0.24854057 0.09090447 0.2173087 0.20246495 -0.84600693 -1.0750844 0.18237166
MAP2K2 -0.14285733 -0.9791748 -0.9312449 0.03317968 -0.057568796 0.59544134 0.14196448 1.1309072 -0.055084478 0.05544175 0.05268739 -0.44110015 -0.017955057 0.14333242 -0.39511716 1.0862794
COPA 0.035695344 0.22056918 0.11710781 -0.5294383 0.889982 0.34060624 0.6786781 -0.12546566 0.39888772 0.36156893 -0.08149181 0.4534773 -0.06207503 0.68442273 2.1422832 -0.10181694
KMO 1.3689773 0.3817633 -0.13952096 0.18590483 -0.09764789 0.63303536 -0.91390496 -0.4374642 0.27097318 0.54678094 -0.74632925 -0.2980666 1.4906044 -0.29517254 -0.1617435 -0.08724449
SLC2A3 0.6585819 0.0642187 -1.2513437 0.4194299 -1.0054526 0.13473561 0.42730963 -0.4829264 -0.09358229 -0.33511436 -0.7168235 0.021315705 0.13755655 0.21077242 -0.019409636 -0.026528375
MYC -0.063317455 2.1565752 -0.027442113 -0.3402581 1.2107035 -0.37426475 -1.0326729 0.67869735 -0.54244846 0.081455275 0.5960861 1.2096412 -0.5588789 -0.2000101 0.32068172 -0.2588842
ACTG2 0.6409017 -0.12185144 0.40861812 -0.6358845 0.10361182 0.02160405 0.5262044 0.29522818 -0.06459678 0.40733328 1.2485625 0.16996123 -0.029093476 0.8056774 0.055430572 -0.038059834
CYP4F3 -0.5643107 0.15864804 0.77594763 0.0053598466 -0.05236322 -0.025416527 0.14499003 0.26790226 -0.010153905 -0.016290221 0.2366552 -0.095624164 0.18625927 0.3837421 0.3150024 -0.018530658
RPL12 0.27539304 0.26460838 0.18989387 -0.18888749 0.25965372 0.24022892 0.7087263 -0.054941647 0.0075573125 0.05595564 0.115457535 0.0016111416 0.47653836 0.3560594 1.1009252 -0.07824324
C2orf76 0.28005013 0.2812632 0.57110405 1.5168514 0.629563 0.16083331 1.3053741 -0.4244956 0.019404583 0.9738624 1.562954 0.8829908 -0.11518851 0.13896415 1.7507882 0.003363054
RNF144A -0.1258396 0.63178086 0.9410854 0.10321729 0.45548114 0.008926636 -0.20378774 0.21913278 0.0021786126 0.15623945 0.17302461 -0.122054644 -0.30683807 0.15896395 -0.3117579 0.30457267
CLOCK 0.00043106987 -0.7772509 -0.1992567 -0.0054312614 -0.010696077 0.0050826785 -0.019598033 0.08204304 -0.35405952 0.93982244 -1.2705733 -0.014780067 0.4739012 -0.22523603 -0.6527612 0.363614
FARSB -0.07001677 -0.12068398 1.4749302 0.29143965 -0.039608117 0.039246555 0.5222191 -0.063193426 -2.7306976 -1.3709577 0.31770307 -0.009942428 0.9679762 0.027981188 0.09094137 -0.7580067
ALDH18A1 1.5555083 0.99242896 0.97608244 0.67407 0.55334103 0.30549648 0.88463235 -0.106626526 -1.7516354 -0.07317552 0.57205343 -0.027544828 1.580682 0.6360651 0.59112227 -0.21724206
RFX5 0.4039088 0.09846702 0.49506247 0.48818085 0.36452976 -0.012942532 0.2657385 0.23793444 -0.021832738 -0.15711398 0.16862066 0.1336066 0.16075514 0.3251349 -0.3001902 0.54563665
PURA -0.009604922 0.8795278 -0.01450721 -1.1945183 0.2863794 -0.028158909 0.15621915 0.055222515 0.27236584 0.021955626 0.119965106 0.056556992 0.2322599 -0.22319737 0.25150475 -0.06502506
TOPBP1 1.100269 -1.3993658 -1.2613231 0.025209393 0.33788392 0.36492682 0.41397306 -0.07165452 -0.014210786 -0.49310508 0.04357879 -0.031128692 0.042768486 0.42639986 0.576803 0.16442633
FUT4 1.3693589 -0.06296069 -0.04085325 -1.1845155 1.0293432 0.3118449 0.22058187 0.028115062 0.040138863 0.092894785 -0.12926511 -0.030114442 0.02068631 0.6009115 -0.5725739 1.0472368
PDGFD 0.22469564 -1.0019196 -0.0150889205 -0.045192584 -0.35787675 -0.03943912 0.41004667 0.08657852 -0.025635103 -0.02698378 -0.092536435 -0.35152274 -0.5158736 0.16452195 0.29656684 -0.6621781
BRD9 -0.21868084 0.9014253 -0.0938237 -0.52137256 -0.23629916 0.2558886 0.8978824 -0.65427697 -0.12434907 0.4483689 0.5126254 0.3710573 0.1170868 0.40630388 0.5219742 -0.10065561
MTX1 -0.06621271 -0.021304678 -0.3856951 -0.016256308 -0.15912396 -0.012084987 -0.56101227 -1.5892096 -0.04450888 -0.8169873 0.4291132 0.059619725 -0.72664183 0.014488717 0.23630525 -0.49894938
ETV4 -0.07715711 0.14631175 -0.03333984 -0.0060252883 -0.16258727 -1.1081748 -0.56891537 -0.091039404 0.20144026 0.053869903 0.10808694 -0.016286956 0.06970024 1.3856496 0.046899237 -0.17569888
AGXT2 -0.8252156 -0.26557603 1.5267906 -0.032228254 0.22790982 0.34676853 0.13148154 -0.20704749 0.0037263022 0.67078537 0.48379427 -0.40894407 -0.13707264 0.09603026 0.58961123 -0.5634582
MAZ 0.67201257 0.19148849 -0.042564034 -0.078916535 0.38986132 0.030060893 -0.5073261 0.37168086 -0.3230202 -0.034596987 -0.12506866 -0.7990162 0.5610985 1.4317997 0.29481384 -0.7121149
ZNF532 1.01575 -0.64714456 -0.03249364 -0.013308363 0.56795746 0.9151513 0.3763417 0.10808212 -0.26699165 -0.5998739 0.2519234 0.31129336 0.38621616 -0.23755553 0.23147656 0.03845814
TGFBR2 0.5742691 0.28427726 0.42802116 0.097656734 0.045820266 0.1332888 -1.3876964 -0.020571923 -1.1214164 -0.5842132 0.33387086 -1.2003506 0.9072479 2.0047731 -0.06757543 0.0034978357
RETSAT 0.75218093 0.08405063 1.310422 2.047455 -0.060516465 0.048008576 0.6860489 0.24148871 0.035049796 0.3454614 -0.8551338 1.7691652 0.63722306 0.26133698 0.61234146 0.6561795
NAP1L1 0.38266766 0.053444188 0.17942005 -0.0036681062 -1.0307753 0.3207532 0.6940546 -0.94021404 0.32626623 -0.3687542 -1.161091 0.8271792 0.7313019 0.6284952 0.48029053 0.10028936
NIPBL 0.6299385 0.1147151 -0.10001059 -0.026807113 -0.01623646 -0.1493151 0.23928009 0.40830588 -0.1726717 -0.18031952 -0.47833562 0.010241367 0.097736426 1.215796 -0.039903738 -0.17619462
GPATCH1 -0.008027354 0.20516577 0.049841583 -0.35508737 0.29498738 0.18161166 0.30167243 0.23529002 0.097235814 -0.035750654 0.026419224 -0.6079164 0.22696833 2.4770308 -0.33494645 0.28055242
STOML2 -0.04041445 0.38077873 1.0513365 -0.2371997 0.4164452 0.09730213 -0.27032343 0.2451115 -0.5655469 0.68468684 -0.23414677 0.09761265 0.17685264 -0.0029230798 1.5415287 0.79400694
ITGB1BP1 -0.15001073 0.6083609 0.52405083 0.58144194 0.041258145 -0.8454256 -0.44639978 0.79612446 0.036333777 0.0067050564 -0.14164197 -0.09444612 0.06940808 -0.08721997 -1.3574315 0.42231098
RNF4 0.01953967 0.029730031 0.6326729 0.8010036 0.5862582 -0.042904187 0.37369817 0.2817489 0.29410934 -0.0018410124 0.20150243 0.16622503 -0.3986103 -1.5011488 0.529306 -0.6833318
SLC25A37 -0.20322931 -0.3896869 -0.07820274 -0.0077239024 0.0874392 -0.6961205 0.092317626 0.33601218 0.24255994 -0.1654425 0.14000864 0.07355346 0.4069872 0.3426192 -0.17573017 -0.014473705
PPP1R3B 0.30115938 -0.042315677 0.9960997 0.27014652 -0.23730548 -0.30518115 1.3526163 -0.056359824 0.10526558 -0.64344686 0.34088102 -0.21613975 0.11141983 -0.6971602 0.0024167055 0.6304697
GTPBP4 -0.46194524 0.19505134 0.5728359 -0.65035033 0.4453597 0.7253359 -0.09207171 0.37631637 0.1354671 -1.2592816 0.46624896 1.308705 0.20460863 0.044657584 -0.029338878 0.013898965
RNPS1 -0.19135639 0.4262096 -0.5428116 0.16453797 0.95656157 0.7804621 -0.24579243 0.001564658 0.031782817 -0.082374915 0.15165763 -0.12474145 -0.37584153 0.3712089 0.08326075 0.43592882
NIF3L1 -0.2521884 -0.18132138 0.768123 0.45277864 -0.07048331 -0.04532022 0.32801142 0.26604745 -0.4382348 -0.030769218 -0.41378406 0.14211555 0.51815 0.14048676 0.50789213 -0.07693959
AXIN1 -0.018312307 0.15112115 0.46291566 0.070955575 0.69556284 1.1131327 0.83373994 -0.011329884 -0.012633109 -1.4595397 0.018006442 -1.3680933 0.34552473 0.33069107 1.7033925 0.22976184
MT1H -0.6349717 0.51554704 0.074575275 -0.9660233 -0.0151583 0.10845249 -0.09397318 0.06943836 -0.5120902 -0.01892866 -1.4103136 0.08141385 1.8091598 0.16421634 -0.39630315 0.07051262
NOL8 0.50523734 0.1919955 -0.11383613 -0.009389989 0.51971805 0.033972867 0.56268954 -1.0166761 0.9954403 -0.5313344 0.59736884 -0.17644882 -0.00849091 0.47276068 0.24852763 0.15948613
DAP3 0.7184913 0.22544383 1.0626138 1.583778 -0.0011400841 -1.2661302 0.9659757 1.9227935 0.0034340927 0.8703092 -0.5180569 0.35014474 0.038663078 0.9406236 -0.5683969 -0.88846534
CNOT10 -0.8351589 1.2521766 0.6009534 0.37017414 0.43244243 -0.026913581 -0.32068244 0.06425299 0.04367022 0.3230185 0.32051265 0.040368535 0.7110087 -0.81898284 0.5361 0.24489799
CEP70 0.65422916 -0.79187894 -0.10512725 -0.9705605 1.0956582 -0.03682596 0.1718259 0.049951404 0.045866378 0.53261846 0.3458865 -0.5836146 -0.09537123 -1.0111066 0.4263884 0.25803772
ADAR 0.49040693 0.17166023 0.1150875 0.07995763 -0.21612684 0.021750132 0.30337486 1.2706763 -1.1681873 0.6976667 0.78081065 0.1269786 -0.11442365 0.8494747 0.14836854 -0.043140065
MAPK3 0.509319 -0.007325788 0.98169494 0.38212314 0.40386268 -0.019259103 0.046584047 0.07080706 0.090536974 0.008057499 0.44627124 1.1474606 0.5698151 -1.4105947 0.2688182 -0.62444943
CYP2R1 -0.064917095 0.16879249 -0.12944503 -0.551686 0.14859353 0.19944817 -0.67836076 0.4063834 -0.10718203 -0.28515443 0.7663707 1.0269427 -0.25810108 -0.9071582 0.012038942 -1.0379431
TRAF5 0.28379017 -0.8602461 0.1307444 -0.0462975 -0.047870837 -0.0135910865 0.4410233 0.18477058 -0.011572758 -0.005736238 0.45574257 0.17922218 0.01375949 0.068975024 -0.24147774 0.10718267
GEMIN5 0.3836413 -0.29837903 0.37841198 -0.11961538 -0.2134822 0.2374846 0.4819091 0.10437549 -0.87239635 -0.07496157 0.09389949 -0.06512974 0.4379613 0.8302669 0.58207023 -0.09394772
FANCC 0.64175117 0.1783515 0.21963997 0.44268364 -0.1967016 0.0386778 0.4390787 -0.03832867 -2.0758762 0.634022 1.8775716 0.015621804 -0.06441431 -0.10217069 -0.12597677 0.61306536
FASTKD3 0.22813728 -0.56072307 0.19178422 0.30179134 -0.12926649 -0.06518653 2.2934353 0.010113488 -0.001954265 -0.06041724 0.42901537 0.044067327 -0.056051012 0.41858247 -1.0059823 0.82443374
FDPS 0.78737885 0.08863372 -0.0975977 -0.026387066 0.18776529 0.035331786 0.048193324 0.10557293 0.04893344 0.022237295 -0.7177593 0.7559838 0.47583628 1.1682994 -0.37409875 0.005734211
LIFR 0.58710366 0.6863122 -0.8352588 -0.05096018 0.8076306 -0.022077376 -0.66214067 -1.1190507 0.092899255 1.6047075 0.3788665 0.020729309 0.12506583 0.495281 0.45052 0.5730569
CUL4A 0.63267326 0.31486174 0.2303766 0.32985327 0.36288133 -0.019270826 -0.47921044 0.19313924 0.5804507 0.67654496 -0.6255832 0.31520143 -0.3470234 -0.3217835 -0.09462104 1.27902
PSMA1 -0.17183279 0.2152572 0.24653502 -1.13001 0.3046677 0.014511959 0.2806948 -0.39019316 -0.09709412 0.0045971805 0.40664133 1.1620224 0.22193886 0.11497658 -0.17813106 0.09656844
ITGA6 0.5160185 -0.011546696 1.0519911 -0.02455644 0.81941515 0.44528854 0.47290316 0.74714375 -1.1919236 0.03675828 -0.15961774 0.083109885 -1.0539151 0.28044128 1.0903338 0.1926309
PRPF3 0.34153664 -0.016102685 -0.13029216 -0.01260412 -0.47965434 1.2348118 0.71151906 -0.22268096 0.19682646 0.23738281 0.3101548 0.48934114 0.4336987 0.835966 1.3122268 0.053112246
MMP9 0.612147 0.44954854 0.64630955 -0.36956432 -0.4150176 -0.02670984 0.8717751 -0.71645945 -0.014383107 0.061891694 0.63777566 0.97390634 0.0073143654 -0.47132453 0.32258236 -0.7933094
RPS24 0.595884 0.1364787 0.4342227 0.6161019 0.16383588 -0.030010153 0.24431647 0.053608567 -0.017572492 0.33569455 -1.0092673 0.3300815 0.28572592 -0.5081822 0.30242106 0.008159728
ARL6IP6 -0.12335717 0.063999854 0.35647923 -0.1189497 1.5348488 -0.2338056 0.40441775 0.34263504 -0.15069912 0.014835692 0.02871038 0.3834603 -0.0026078029 0.3431538 0.53941643 0.29181355
NOL7 0.04979577 0.50400037 0.47891557 0.086994 1.0269353 1.3734479 0.08958661 -0.21726358 -0.044661134 -0.14766319 -0.2758438 0.28098753 0.5113472 0.31930354 0.96690595 0.61355644
SMG7 -0.22039466 -0.33592653 0.17733182 -0.01477332 -0.024970248 -0.0334957 1.3536631 -0.5154509 0.044464853 0.681505 0.52195656 0.2067991 -0.029469648 -0.010803862 -1.4363911 0.15945306
HRAS -0.12597908 0.2644568 -1.8379761 -0.095245145 -0.6647789 -0.32563406 0.009629334 -0.5309153 0.13520166 -0.08768786 -0.53822935 -0.019044109 0.024842486 -0.22784449 -1.7209299 0.63725775
TTC21A 0.6222772 0.18338886 0.6573281 0.6505617 0.25233725 0.12808229 0.5393415 0.1752719 -0.014091261 0.07680213 0.24368729 0.34170523 0.19829473 0.72403944 0.2693264 0.19373462
DSTYK 1.2257988 -0.53639513 0.44303074 0.15699255 -1.8106469 -0.053943392 -0.013021913 0.8348722 0.056798935 1.0796986 0.12067576 0.21606278 0.3636614 0.56757027 -0.010636164 0.10224228
KDM6A 0.011256283 0.13803639 -0.009062234 0.00057571393 0.46123046 1.0067319 0.7102148 -0.003998704 -0.016661832 -0.36923745 0.021162711 0.21527103 0.80649626 0.13886796 0.69015133 0.12224087
COPS6 -1.0381626 0.09878975 -0.041112147 -0.005950273 0.09011435 0.21752833 -1.0452405 0.53552973 -0.036141094 0.1367257 0.9591006 0.47511455 0.24210142 -0.085311286 0.67384654 -0.9207783
DCTN4 0.32518396 -0.20328803 0.25607064 0.42237753 0.20969564 -0.012825815 0.18977116 0.40910256 -0.32035348 -0.08509283 0.41973248 0.6578985 0.0878354 -0.55489546 -0.64562654 0.32018086
SDHB -0.11100844 0.038079657 1.6090902 -0.06820431 -1.2290429 0.016944142 -0.018633706 0.0017291256 -0.5047254 -0.21704172 0.4581446 0.14350411 0.779616 -1.0890651 1.0589079 -1.1480271
SMARCB1 -1.0111843 0.7704876 1.373847 -0.40234876 0.6499223 0.2799688 1.4119987 -0.32351872 0.449098 0.17370349 -0.035442285 1.0161309 -0.4380133 0.6373798 1.7329638 0.38963842
LIG1 0.60285074 0.11220177 -0.23987359 -0.010368533 -0.696034 -0.015346821 0.29337668 0.45697764 0.02243217 0.62852013 -0.034483418 0.049587697 -0.2981232 1.3004092 0.32760423 0.10691568
AQP3 -0.05554667 0.39437824 -0.2012248 -0.36901242 0.48612997 0.2892104 -1.265748 1.5503867 -0.004313476 -0.010778442 -0.2763417 -0.6631909 0.14944054 0.45004526 -0.07888998 0.074638054
IGF1 0.33356383 0.30669466 0.075827695 -0.029210957 0.25087115 -0.009206354 -0.98680145 0.39086652 -0.02787653 0.02879598 -0.23050189 0.037936866 0.15729392 1.5214612 -0.17326878 0.02621821
MT2A 0.5817332 0.104753 1.7290219 0.23423783 -0.31805488 0.38230398 -0.41652682 0.36070433 -0.20722155 0.5126204 0.30374894 -0.38146347 0.5301797 -0.06749768 0.40780854 -0.9126095
CIDEB 0.25405732 -1.3506839 1.1478637 0.041640144 -0.0469585 0.11347128 -0.024367128 0.78944564 9.088554e-05 0.19946073 -1.3177292 0.036762863 0.19396526 0.5251098 -0.11951438 0.34301054
MGLL 0.6657265 0.07374887 0.43598497 -0.14350916 0.1906132 0.49931183 -0.38724056 0.24138631 0.082767166 0.3265224 0.05707022 -0.43859276 0.58801186 0.7825688 -0.58319074 -0.0035492717
GSTM2 0.5143643 0.20982361 0.77450675 0.43576646 -0.7500984 0.016033951 0.74984086 0.026032673 -0.00096208084 0.35361236 0.43799382 -0.47844067 0.75593746 -0.4020349 0.988755 -0.0020000394
BOP1 0.8552275 -0.08696759 0.048128683 0.15247545 0.27011767 0.6206612 -0.27893227 0.5553151 -1.5648866 0.43429807 1.4914696 0.13229199 -0.06662588 0.32301956 -0.59632987 -0.108228765
GADD45A 0.74828255 0.1005505 0.247537 0.236978 0.53515995 0.03886262 0.85159683 0.41785017 -0.44306153 0.82367015 0.3885131 -0.06602426 -1.7230047 0.47076154 0.37314722 1.2326912
STRBP -0.11409873 -0.7421394 1.0304977 -1.1454462 0.16045542 -0.051151887 -0.08587615 -0.5719585 -1.2144728 -0.43118238 0.5941453 -0.056168046 0.28756154 0.12208667 0.10322098 -0.040828332
WNT5A 0.19021778 -0.9577295 0.7873274 0.038888883 0.18297878 0.037596658 -0.53333044 -0.9113919 0.026259 -0.6401187 -0.225061 0.7310505 1.357042 -0.69491696 -0.58305365 0.058363833
NIPAL3 0.6533151 0.27733165 0.2877754 0.38211048 -0.42761296 -0.04934887 0.14406379 -0.16739987 0.04028451 0.8015801 -0.9695836 0.071163826 -0.09197123 -0.66780865 0.63925683 0.08561292
PLAG1 -0.2508771 -0.019318806 -0.48212433 -0.5653802 0.110837765 -0.81222713 0.9720932 0.7569821 0.022197276 0.26789626 -0.06790074 -0.15239888 0.25408638 0.56391686 0.021158928 1.3106729
USP39 0.36493495 1.3425655 -0.11504454 0.40296462 0.667126 -0.8856906 0.5601445 0.27504233 -0.0070337965 0.8265855 0.13073133 -0.020629141 0.029598938 1.0312266 0.98733354 0.16313888
EPHA2 1.6190894 0.054984048 0.43013328 -0.030697418 0.057976764 0.35459954 -0.8007081 0.3259648 0.0320256 0.67500025 0.30319253 -0.040816315 -0.5585155 0.42548493 -0.13520174 0.05835982
RBMS3 -0.12779115 -0.060072277 -0.1497396 -0.04063221 0.57951677 1.0907708 0.85312474 -0.15998496 -0.022703405 -0.11757121 -0.10906313 0.2574043 -0.23755962 0.3531994 1.4428941 -0.21668525
ALDOB 0.023834234 0.5654095 -1.3518926 0.6552351 -0.038579624 0.18287006 -0.088347875 -0.05233103 -0.11876476 0.45904362 -0.068948515 0.21560763 2.2403188 -0.17340472 -0.19597411 -0.38052318
UGGT1 0.97194046 -0.17727894 -0.31168404 0.10322418 -0.07988488 -0.6005243 0.4434169 0.15533988 -0.060467657 -0.07872721 -0.4195172 -0.012340507 0.09850179 1.6288186 -1.1629027 0.2201775
ROMO1 -0.12678206 0.2918567 -2.1384482 -0.51574934 0.1669077 0.59680134 -0.12480943 0.31592172 -0.068942346 1.726509e-05 0.19537005 0.3318551 0.2544615 0.17291681 -0.17923258 -0.027232857
NEU1 0.32294083 0.17876945 0.026150644 0.0012427067 0.3535318 -0.011697344 0.120972715 -0.25228626 -0.03121987 -0.46257332 -0.6650114 -0.7295174 0.41274977 -0.27807727 0.11543136 -0.768339
TSPYL1 0.26479903 -0.48362696 -0.13655221 0.20040683 -0.0026266708 -0.08422961 0.38964146 -0.060587488 -0.012580336 0.12534623 -0.46315372 -0.049765542 -0.076256804 0.2957887 0.004294733 1.2295451
PHYHD1 -1.5842856 0.66671115 -0.16807044 0.18051532 0.052124906 0.20687902 0.48997337 0.031101614 -1.3750883 -0.0279286 0.48962525 -0.402097 -0.011051093 0.5789982 -0.8519502 -0.26822343
ARID4B 1.1746116 0.2448475 -0.31933972 -0.16725181 0.19618046 -0.17814896 0.2673801 -0.56812704 0.099191085 0.035436284 -0.67655617 0.081759475 0.8170794 -1.1509811 0.2987993 -0.19652452
MAPK10 -0.57657194 0.35631898 -0.13624209 0.069921 0.26672545 0.41177624 -0.8832054 0.31311834 -0.8224657 -0.025379576 0.120876476 -0.42094314 -0.3946188 -0.45996696 1.01731 -0.07559312
CCDC86 0.23654088 0.5433305 -0.44378668 -0.44168252 0.13539262 0.44604746 0.17334296 -0.57464993 -0.026104731 0.18740264 0.32930338 -0.65825516 0.06567066 0.021646343 -0.05680748 -0.29198003
LOX 0.26234165 0.11997327 -0.02072893 -0.010057979 -0.17528397 0.58643353 0.48833868 0.12347934 0.765542 0.014755536 -0.986653 0.31154287 -0.7352342 0.37639785 0.7008018 -1.0711578
CLEC4M 0.8551668 0.33407366 1.6113617 0.4095993 -0.52404857 -0.014134008 0.1543543 -0.19979197 0.6932501 -0.065122664 -0.16519965 -0.09751152 1.9921738 0.28842804 0.39677206 -0.114810966
DTYMK 0.22329359 1.2535841 1.4998543 1.4039195 -0.08230063 -0.20776096 0.2565693 1.0920153 -0.13390708 1.0244137 0.71494585 0.40731364 -0.017365355 1.1179782 0.21477 0.2895156
WDHD1 0.6432126 -0.6558438 0.19804378 -0.22942688 -0.5113859 0.39121082 -0.4903507 -0.12149958 -0.0072849486 0.07558839 0.36819038 -0.6781906 0.05539635 0.8609039 0.0103831105 0.118501894
TIMM50 0.18389845 -0.15729025 -0.29974732 0.012571327 0.34952348 1.9378655 0.25466278 0.03386966 0.019479139 -0.17983595 0.37291157 0.3295691 -0.40768483 0.45639095 0.7250418 0.4690209
ZFP64 0.38429558 0.12684467 -0.715701 -0.8175479 0.043840993 0.023854593 -0.51451683 0.2722328 0.11978062 0.044208236 0.2307092 0.51293784 0.04502111 0.5194662 -0.64980996 -0.12812907
ACTB 1.6652622 0.46650267 -0.53574723 -0.03573788 1.1623875 0.39130223 0.6920413 0.007349038 -0.5308973 0.498758 0.08987958 -0.08525686 0.30337232 2.2114391 0.8707977 -0.11857457
BACE2 0.48200545 -0.106231354 0.8815902 1.2629515 -0.50936943 -0.10749353 1.572132 -0.025291067 0.15995882 -0.7978143 0.0017739118 0.45265478 0.52565867 1.5284867 -0.0532293 0.32990342
TRIM24 0.026700944 -0.42253774 -0.18558428 0.5100508 0.008987483 -0.4098172 0.6152896 0.049418945 1.1649382 -0.41900066 0.41858327 1.6524873 0.009016665 -0.058178745 0.020188345 -0.060894813
GSTM1 0.8362907 0.1203197 -0.026045283 -0.01643942 0.5044008 0.9234755 -0.019570632 -0.6852613 0.015057506 0.33705202 0.017512444 0.1432364 0.39983737 0.99648625 -1.7045178 0.3303342
AXL 0.34239563 0.053665668 -1.0796686 -0.0100597525 -0.17834054 -0.011704436 1.3378576 0.027627014 0.01361857 -0.040689573 0.18792062 -0.4726244 0.1728373 0.5325707 -0.5565375 0.114341155
KLHL23 1.0580239 0.0006984989 0.66400164 -0.34332404 -0.41068575 0.022473907 -1.5235952 0.19054128 -0.080183856 0.22391768 0.08186576 -0.73988074 0.2965815 0.26257306 -0.039332706 0.39847422
HSPA14 -0.033515394 0.23054495 0.7404765 -1.7462308 0.35055047 -0.02256124 0.18807635 -0.044788893 0.7545626 -0.8563561 0.21194789 0.041366927 0.4994308 -0.11855887 0.1187437 -0.9276508
MKI67 -0.030150285 0.0918502 -0.07485675 -0.037471622 0.6853611 -0.06027995 -0.73386323 1.4457586 -0.24085337 0.65619856 0.45101506 0.28986236 -1.577312 0.3323323 0.03833329 -0.20749947
CACYBP -0.49761847 0.20885302 0.55251247 0.054751325 0.39080262 -0.26551485 -0.5422065 0.20212835 0.06936975 -0.8551572 0.3365147 1.2094656 -0.44797412 0.05207026 -0.05106883 0.012879861
MDM4 0.018596351 0.42715904 0.7135464 -0.020082459 -0.024723995 0.019761609 0.17828567 0.37966385 0.3044705 -1.3845034 -0.031301193 0.15862373 1.1240592 0.04279915 -0.21767098 0.23600611
AGAP1 -0.19819966 0.5189179 -0.6350525 0.90659 0.34470284 1.6822665 -0.0042777364 0.08375063 -0.45373276 -0.092289165 -1.192112 0.1272399 0.43992013 -0.085773624 1.0887276 0.7039223
F9 -0.0011298757 -0.0050690044 0.2939578 0.23701333 0.83113855 1.4356136 0.011552876 -0.16122861 -0.07484015 -0.10680706 0.23748331 -0.5294988 0.7476513 -0.9440615 1.4308858 -0.2030116
CCNB1 1.0075037 0.33108768 -0.44347405 -0.015692659 -0.63862973 -0.44982356 0.17700055 -0.030635169 0.28400043 0.9650908 0.20839478 0.15810084 -0.05184705 0.8450512 -0.0143059995 0.13106887
PXMP2 0.20865059 0.11663848 0.043673687 0.014068996 0.110575736 -0.2607025 0.18789124 0.099100485 -0.067261964 0.33284587 0.14414237 0.36523518 0.008641697 -0.14993508 0.30380815 -0.69913346
RPS27 0.42215714 -0.00848707 -0.12835227 -0.014934768 0.5660585 1.042656 -0.31973326 0.25974113 -0.5057679 0.04057608 0.47272396 -0.059179183 0.19718455 0.12654305 0.50775623 0.008839881
RBBP5 -0.107183166 0.32501745 0.4211557 -0.038537815 0.18112886 -0.2499962 0.05885923 0.58159924 0.050863825 0.065700464 0.16778259 0.38449875 -0.024233202 -0.20288734 -0.844939 1.1490215
VPS54 -0.5773098 0.30970612 0.0028374977 0.22226404 0.1086632 -0.021130402 0.30505127 0.4788345 -0.39645663 -0.0030440395 0.33375707 0.18318292 0.17767648 0.23595777 0.38454503 -1.03931
ZSWIM5 0.47341594 0.07175203 0.048190888 -0.48822403 -0.03431192 -0.042823084 0.97300243 0.22291416 0.046218112 -0.22815008 0.52948606 0.048054498 -0.27710456 0.58135945 -0.21987335 -1.2154858
HNRNPC 0.4861631 0.09349886 0.47940284 0.6941864 0.5187844 -0.009298131 0.22994971 0.24208398 -0.034721192 0.36599582 0.21251152 0.18546434 0.18148924 0.10912132 0.2048244 0.58176786
LBR 0.15143028 0.32295716 -0.038682602 0.023384755 0.4767106 0.71429026 -0.2565104 0.14835708 0.004360688 0.32247883 -0.019648157 0.7777261 1.8455526 -0.02361115 1.4479847 0.053966936
WDSUB1 0.5446384 0.3332682 -1.1456643 -0.36374122 0.103822865 -0.41393656 0.44879404 0.05285226 -0.002270284 -0.015458191 0.2307813 -0.8867759 0.074808046 -0.15446194 -0.77730596 0.13427109
DHX16 0.06585413 0.3508467 0.19408593 -0.84260696 0.29733443 0.005183993 -0.57295173 -0.18884586 0.15732089 0.31299233 0.37604162 -0.048953503 0.06116686 -0.24531777 0.835921 -0.033703897
OSBPL3 0.97724533 0.27458435 0.26411337 0.021015273 -0.07607089 -0.060251284 -0.1586328 -0.30868706 0.091877736 0.91875124 0.6011147 0.06292283 0.07205622 0.5015341 0.5734237 -0.9867362
ABCB4 0.31849474 0.26228505 0.17513347 0.041398033 0.23096696 1.4639106 -1.0101551 -0.48736367 -0.28722626 0.6530394 0.6964194 -1.854261 -0.29573444 -0.16180742 0.7340251 0.9921339
CENPN -0.4165555 0.3572645 -1.1643105 0.0027215634 0.15115805 0.32087347 0.6205854 -0.014250284 0.68550193 -0.15983428 -0.80102825 -0.033018634 0.18254378 0.6440304 0.9078117 -0.010201549
PIK3R1 0.59827906 0.3060789 0.34001726 0.33729407 -0.06051267 -0.075285405 0.27283344 0.49330822 0.055285357 0.8715021 -0.45678148 0.49635902 -1.5960236 0.76745427 -0.5738752 0.90733165
MRO 0.6773224 0.0940742 0.0067734867 -0.1451016 -0.20946346 -0.0759203 1.2997816 -0.023518374 0.018331544 0.3481217 0.5507657 0.16958721 -0.052197143 -0.29683015 0.1872053 -0.1854671
SLC27A2 0.2680782 0.33979246 -0.18839762 0.21039148 0.10772331 -1.2589825 0.6846372 -0.16477421 -0.01313663 0.16616106 -0.017964197 0.10670413 0.80425155 -0.37206408 0.7545807 0.30550206
C8A 0.72496045 0.03220422 -0.25608525 -0.020030089 0.14135325 0.37630436 0.344188 -0.15774488 0.19510546 -0.032688703 0.365373 0.0510113 0.0028511342 1.0118552 -1.5653884 0.12023641
GORASP2 0.36221063 0.10815105 1.400041 0.21673925 0.079041585 -0.06424955 0.32363793 0.8846078 0.06706044 1.3403232 0.67032903 -0.36735108 -0.28560436 -0.17759128 1.1486155 -0.9136765
CDCA3 0.28830022 0.9362079 -0.8342649 -0.0013247663 0.19531249 -0.04179223 -0.20983812 1.4547654 -0.07949765 -0.12652446 0.20992745 0.43595648 0.8255168 -0.5969373 -0.025646118 -0.75372577
TXNRD1 -1.1215984 0.5048975 0.41985935 -0.0001158035 -0.24700372 0.0061454223 0.09667223 0.14532529 -0.25431117 0.11031588 -0.13725945 -0.6652018 1.5469692 0.40592635 0.40085506 -0.25913942
BMP5 -0.07083043 -0.5503636 0.31889972 -0.54131246 -1.8886145 -0.0073761004 0.28170562 0.85942656 0.8040259 0.3618976 0.45875138 0.3732495 0.0020842154 0.9515571 -0.08967158 -0.019333534
CYGB 0.52993566 0.28488037 -0.036682576 -0.16667818 0.27474433 -0.4105387 0.13185981 0.15398946 0.02059769 0.71782416 0.21589352 0.035348494 -0.6008342 0.10627625 -0.5325035 0.016790466
HSP90AB1 1.0162195 -0.098329835 0.66122514 0.39455494 0.32178745 0.6386987 -0.7377705 0.6505654 0.19587988 -0.31684214 0.3760079 2.4455767 -0.1266516 -0.20943037 0.5862388 -0.24395643
AURKB 0.8903892 0.29602778 0.18141678 0.5048267 -0.46916083 0.56855834 0.54765195 0.19812797 -2.4828796 1.3003508 0.44034016 0.19705905 -0.15558298 -0.87481177 0.6487316 0.8225622
ARF1 0.29054862 0.5454235 1.312959 0.15277344 0.00052123494 0.014020387 -0.393629 -0.093932904 1.0570054 -0.07231404 -0.06728714 0.2844665 2.2315257 -0.081207305 0.039732747 -0.11621032
TRNP1 -0.20003273 0.5896072 -1.8100548 -0.00190533 0.18187214 -0.9386522 0.25084567 0.15252563 0.013559159 0.7365613 -0.07250687 0.015392975 -0.14564955 0.90165114 0.42927623 0.37932262
MNAT1 -0.172232 -0.5112246 0.23538557 -0.011253855 0.16604073 0.7296523 -0.0038606643 0.32099926 -0.2714463 -0.27337095 0.30751225 0.07506539 0.11050472 0.28675103 -1.0968034 0.24392614
APH1A -0.1339562 0.38290557 -0.29801705 -0.18691476 -0.2854724 0.057626568 0.6375107 -0.057564028 0.015306946 -0.018956784 0.0063126395 0.27959472 1.0482246 0.20867436 0.52068543 -0.22540867
ACTR3C 0.18152584 0.67201525 0.8697001 0.7412055 -0.38227758 -0.4641078 0.23007627 -1.31388 0.033348076 -0.54343253 0.057215318 0.13786946 1.2387491 -0.02890853 -0.61268365 0.07562729
MCM4 -0.2485491 -0.15544276 0.24584818 -0.06054293 -0.0064789737 0.2083369 0.5274317 0.09086558 1.4302351 0.053308725 0.3785955 1.8144177 0.008781455 1.1686113 -1.829651 -1.0613155
MEFV 0.53537786 0.0058139027 2.2510998 0.32327145 -1.0401349 -0.643653 0.03627322 0.23417483 0.05503119 0.6381135 0.2560058 0.3826985 -0.5684064 -1.2133836 0.10640166 0.16755648
BTF3 0.22791609 0.043436 -0.1846652 -0.054737523 -0.28895012 -0.138119 -0.2713056 -1.0076787 0.0033934498 0.05677917 0.1526257 -1.1161745 0.70597076 -0.8759997 -0.41915622 -0.8814204
HTATSF1 -0.12734257 -0.532157 0.84645295 0.64089257 0.53118587 0.87686676 -0.60215497 -0.31311563 -1.184834 0.029217642 0.7962486 0.14738633 0.009656314 -0.25109804 0.39074042 1.263367
LRRC4C 0.3666196 0.27448437 -0.3757089 0.12781431 0.29337478 -0.027588606 0.37425998 -0.20579048 -0.7979252 0.13707131 0.33260304 0.026065292 -0.009951287 0.35085723 -0.1581362 0.6044906
CD14 0.13304113 -1.245739 0.90955937 0.021315472 -0.004914391 -0.0073852274 -0.17382023 0.79190594 -0.9319407 -0.016711181 -0.30154487 0.23575568 0.1346537 0.3139803 -0.18252105 -0.15653339
PIP4K2B -0.55682 0.6280429 -0.035108123 -0.11439069 0.028645879 -0.011611788 0.016534569 0.41391757 0.09446247 -0.048495125 0.20779574 0.23224403 0.11783987 0.083071254 -1.0758995 0.0020525304
FPR1 0.31527624 0.064627364 0.8229275 0.15618719 0.20218296 0.8007191 0.14011274 0.25615183 -1.2620021 -0.15445216 0.446092 0.11421817 0.5606783 -0.56080174 0.36710933 -0.17018236
SRSF9 -0.8302301 0.66547865 -0.4993572 -0.051856603 0.7580998 0.51385355 0.05015714 -0.046107 0.012785535 0.17965576 0.74264747 -0.090935 -0.0581612 -0.19413659 0.8685272 0.8663946
RAD51 -0.40687326 0.18855825 0.59243476 0.9677892 0.06327713 0.036162216 0.31610176 1.7467362 -0.0003304421 0.52552307 0.5499879 0.3982133 -0.77649796 0.28887832 0.117738016 -0.30318695
MECOM 1.0965871 0.29525796 0.6628325 1.0026717 0.29898912 -0.021221383 0.4920865 0.12603608 0.1449373 0.38888562 0.13391545 0.2603252 0.15618683 1.0467893 0.06969521 0.23449433
ABCF1 0.5877347 0.59673727 -0.06314102 -1.3483245 -0.08164497 -0.7564454 0.04983055 0.8228307 -0.65127003 0.62726104 -0.5608515 1.0226133 0.0016208605 0.474677 -0.14599887 0.101006426
RPS6KB1 0.32031262 0.09286219 -0.8865688 -0.04701736 0.79586965 0.79203767 0.309577 -1.1628445 -0.072261184 -0.0028477611 -1.1431296 -0.019729609 0.5235444 -0.6889345 0.7601117 -0.06787889
TPPP2 0.9804438 0.3983469 1.119655 0.89047354 0.43869135 -0.021502126 0.27626836 0.27181587 -0.2781386 1.4045582 0.3047141 -0.3092007 -0.1450388 -0.31367776 0.5462705 1.5959837
NTF3 0.9947656 -0.78261316 0.019105293 -0.479458 0.78086185 -0.5524127 1.0287321 0.91895306 0.08964717 1.5054306 0.16869089 -1.1181153 -0.20976144 2.1564872 0.62252367 0.71127725
BAD -0.13415718 -0.39556426 0.03730422 0.1458481 0.22497587 -0.664226 -0.0095631275 2.3816178 0.0032706037 -0.031547174 -0.36537498 0.38818678 0.011538517 0.5927248 -0.1804252 -0.0044430187
NUTF2 -0.38117155 0.36894044 0.55217254 -0.1766425 -1.1041641 0.060895547 1.1710964 0.5235612 -0.03924 0.5794021 0.37835938 0.47981364 -0.12158068 1.4491054 0.66352195 -0.34066406
EXOC4 0.5685193 0.40640515 1.2336375 0.002191353 -0.009043233 -0.6366037 -0.18339328 0.42712027 0.55125356 -0.010929533 -0.47460786 0.37955207 1.3698286 -0.24124095 0.25632882 -1.6612495
DPCD 0.21034777 -0.7362677 -0.08074132 -0.5929304 -0.058057044 0.3794149 0.40524474 -0.9413222 -1.3404468 -0.03162069 -0.62265205 0.0141667565 -0.41039246 -0.19979325 0.7333714 -0.26285544
AATF 0.81718034 0.09105624 0.029513828 0.2904467 -1.1575161 0.020719474 0.9012839 0.261177 0.17914653 0.117442034 0.039879814 0.062133092 0.4347619 -0.089928985 0.092860706 -0.8635038
THOC2 0.21460542 -0.052472584 1.6275021 -1.6961241 0.45297316 -0.21104813 1.8997788 0.45397407 0.77807087 1.1658008 0.20303407 -1.3244822 -0.4099109 0.5100548 0.14146791 0.7586823
EPB41L4A -0.49116573 0.49232078 -0.3694037 0.026552886 0.38042447 0.7212381 1.3238231 0.2243216 0.09725462 0.49123412 0.45814523 1.7860892 -0.59504646 0.11517597 0.8962616 0.42463395
PRKAA2 2.0545924 -0.20146814 1.1491505 2.1980534 -0.06018918 -0.09291303 0.28304458 0.5675742 -0.46373114 0.34850505 -1.6257013 0.7650445 0.04187247 0.13785397 -0.75245124 1.2088237
CDKN1A -0.38069412 0.24148346 0.34529364 -0.4947067 0.33532697 -0.028875899 0.24581619 0.34945062 0.1657241 0.0242778 0.17571527 -0.25503287 -0.44737452 -0.6820213 0.61601 -0.21502496
SMC4 0.48897165 -0.53822005 0.87975997 -0.40796608 0.9110337 -0.021120489 -0.07645527 0.5324994 0.003951569 0.27845508 -1.0050595 0.14518212 0.4596406 0.4392934 -0.17819232 0.31604725
DGKZ 0.42707402 0.106691875 0.16852728 -0.119244985 1.3370966 0.0064035924 1.6844124 -0.114221916 1.8170379 -0.14870943 0.004435041 0.3166585 0.10888576 0.786385 1.0491763 -0.12066327
IDO2 0.5957503 0.27764314 -0.020489216 -0.38899827 0.9402942 0.52857876 0.31373328 -0.042538702 -0.0069430033 0.060580324 0.34103057 0.35489738 0.09348081 0.9013662 0.42816728 0.18517166
CENPM -0.32229275 -0.59373343 0.9460262 0.6843482 1.2539284 0.72918886 0.7072256 1.1181682 -0.020447012 0.32297298 1.0989342 0.8353632 -0.037777845 0.63310856 1.3879251 0.12467326
NCOA6 0.2835457 0.06468116 0.3980993 -0.014256108 -0.2743027 0.008650421 0.35079274 -0.28934675 0.0076454175 0.5181161 -0.71565634 0.024340034 0.20454237 0.41662022 -0.31643045 -0.7522563
GRB2 -0.12299705 0.41158053 0.58001095 -0.36752644 0.2572452 -0.12280472 1.2427381 -0.32036945 0.24855332 -0.8472029 1.6254262 -0.3510626 0.41848993 -0.16497609 0.80033225 -0.68295044
MTHFD1L -0.06956184 0.06070663 0.13713297 0.1310108 -0.37552345 -0.10821114 -0.18161957 -0.0041720965 -0.688223 -1.1231394 0.057108197 -0.02113581 0.19055055 -0.037835933 -0.07864971 0.38320836
TGFA 0.48943436 0.55975807 0.04736434 -0.023475721 0.31183818 -0.018031169 -0.300422 0.7680516 -0.15363026 0.35913312 0.751615 -0.00989597 0.15213493 0.51790744 -0.112329185 -0.13894042
STAMBP 0.7061155 0.2551021 0.78896207 0.06555107 1.7205045 0.07819439 0.5069836 -0.10496681 0.11139757 -0.08199192 -0.5297167 -0.06950973 0.63619286 0.47357684 1.0851331 -0.0726318
SLMAP 0.3409233 -0.05467537 2.0496156 0.35670584 -1.2875865 0.04330439 0.77631724 0.15946494 0.23891078 -1.1439652 -1.7929502 -0.2049307 0.07046829 1.3864785 0.34825334 0.43142584
SAP130 -0.195791 -0.34306976 1.3829739 0.3178673 0.7766444 1.1202277 -0.08499858 0.29637402 0.069213495 -0.13190775 -0.06491815 0.24864604 -0.5485475 -0.49264482 0.62977904 0.6820438
CH25H -0.08783144 -0.27934435 0.070982106 -0.033145607 -0.44730338 -0.51823896 0.26009023 0.16150609 0.02725109 -0.0625704 -0.48999453 -0.32323226 -1.010228 -1.2453787 -0.09456244 -0.21517065
TSPAN1 -0.21539328 0.20306541 0.7527246 -0.34781516 0.5063534 0.06121997 -0.416972 -0.055611603 0.005597401 -0.028378032 -0.6495322 0.046858594 0.33984762 0.5757541 1.1757957 0.042501695
SHC1 -0.058278684 1.7206414 0.7183391 -0.057832547 1.0153996 -0.042257212 -1.5656483 0.33878925 -0.062641315 0.15584454 0.14675523 -0.08274998 -0.10325008 0.596055 -0.8457323 0.5240588
PDCD11 0.027235683 -0.08394 0.07412808 -0.024575975 0.2745818 0.4039743 0.90708417 0.9447709 -0.0979165 0.15204315 0.3380284 0.17280152 -0.119975656 0.29560173 0.52441853 0.1455137
PRDM10 0.12912984 0.5445441 -0.3173701 -0.006220058 0.33110306 -0.0037559597 -0.14976946 0.24447349 0.007667329 0.15729985 0.12779061 0.0829152 -0.7772157 -0.43638778 0.029778708 0.16281424
FBLN1 0.37837607 0.5048288 0.4320844 -0.030186204 0.004422669 0.024374278 0.3575035 0.9556462 -0.04400286 0.508374 1.4144124 0.27442133 0.15554582 0.38007465 -0.038325023 -0.92218345
PIK3CA -0.54540414 -0.831316 -0.18376367 0.14776757 0.1959255 -0.39939797 0.63179547 -0.7721381 -0.2415734 -0.022903822 -0.29654703 -0.08618333 0.08948734 -0.5468899 -0.045675866 0.75798357
ASPH 0.014391282 1.4347566 -0.06668178 0.69147813 0.30002025 0.7430985 -0.5219092 -0.0923022 -0.12791951 -0.06575584 0.22900656 0.24614254 0.6497007 -0.055234898 0.1661758 0.15482722
MAP3K4 9.796745e-05 0.41833785 0.60597086 -0.43234283 0.3032753 -0.068878695 0.31015325 -0.06901043 0.35228014 -0.051991906 -0.17521058 0.2877444 1.2182477 -0.17350844 0.121442005 -0.3387944
MTHFD1 -0.34682047 0.014700362 -0.07851285 -0.018351257 -0.39153326 0.49412775 0.73556364 0.09519642 0.33565792 -0.026547588 0.3993396 0.37647775 -0.010104279 -1.1009586 -0.0655112 -0.22794026
USH1G 0.039538383 -0.083438136 -0.48035693 0.28663927 0.6416131 0.5442184 0.235852 -0.48499468 -0.0089788865 -1.6508051 -1.6711197 -0.07029806 0.08520672 1.5460461 -0.16442247 0.7105495
GAS5 0.19064233 -0.20014063 0.7314305 0.30379823 0.11927557 0.026432129 0.52726185 1.0992484 -0.11271387 -0.27284026 0.27931345 0.13555789 -0.008829062 0.017151942 -0.031994447 0.05708838
E2F4 -0.4520318 -0.24985707 -0.50736445 1.0163788 0.29062417 1.6936762 0.11299765 0.11403874 -0.23398949 -0.060814466 -1.379627 0.48650938 1.8886764 -0.25546232 0.8158382 -1.642981
RPL23A 0.2981756 0.45400208 0.29705015 -0.032883953 0.27375445 -0.018053833 -0.50467205 0.21417429 -0.84061414 -0.06564888 0.3162818 0.3905267 1.1755751 -0.120570816 -1.1857461 -0.16797085
E2F8 -1.2238048 0.48660088 0.25376076 -1.0419168 0.5350907 -0.77100974 -0.5751674 0.16839726 0.17036419 0.024676455 0.33724844 -0.17086482 -0.22380808 -0.086768605 0.64862186 -0.10064755
UBE2D4 -0.10999201 1.5571382 -0.3493904 -0.02411061 0.08116967 -0.22210278 -2.4650588 0.58348733 0.016600922 0.20318495 -0.8382462 -0.1655016 -0.10803511 0.1823143 -0.09833124 0.06359291
GCHFR 1.0078769 0.09219857 0.35235313 1.2498707 0.0040397616 -0.111520216 0.29672354 0.30282587 0.20340991 0.3807201 0.29790017 0.44966027 0.13925412 -0.9101258 -0.15924439 -0.14395048
CYP2A7 -0.12958212 0.37702626 0.16892424 0.8362631 0.82235247 1.6941473 -0.20901506 1.4434395 -0.21580072 0.32443622 -0.004145639 0.5038843 0.30412525 0.012736992 0.093243994 1.1538156
DYM 0.12792857 -0.34493268 -1.5651212 0.0008447411 0.35002208 0.39940736 0.74970615 -0.090234905 0.14063412 -0.5019035 0.26743272 0.35133561 -0.928022 0.65505755 0.27508983 -0.23162821
SLC16A2 -0.0593738 -0.05564168 -0.10975778 -0.014817265 0.23892859 0.91965514 0.24002023 0.73260015 -0.40896368 0.071420334 0.3506074 0.43551868 0.05672252 0.28405383 0.85721993 -0.29682037
RNF216 0.30807337 -0.8992298 1.0251877 -0.26125333 0.41990894 1.3444159 -0.5508701 2.0184278 -0.08940645 -0.59445035 0.34575123 0.30819625 0.15345708 0.37775663 0.41704762 0.07764674
TKT 0.27734974 0.43974134 -0.27568653 -0.4726915 -0.0496217 -0.85333776 0.93400955 1.1645503 -0.18995409 0.67769814 1.6550051 -0.15772931 -0.0027241223 0.58050543 -0.43702298 0.69343585
POLR2J -0.13795623 0.05069767 -0.1841223 0.1355373 0.35072163 -0.15152784 0.25838652 -1.5173589 0.7433404 -0.09898151 0.17655084 0.15917163 0.11113351 0.45838207 0.3482218 0.087720945
FCGR2B -0.19070046 -0.41667682 -0.11510752 -0.016227357 -0.13402824 -0.30289766 -0.5689715 0.18721889 0.11907746 0.046206117 0.121068835 0.31233945 0.8462872 0.6937139 -1.0376953 -0.45737278
KLK8 -0.29169762 0.1462402 0.7524372 0.24825302 0.26967257 -0.00816386 -0.015444909 0.15708145 -0.97915095 -0.02140733 -1.0286008 0.2722465 0.279089 -1.0191225 -0.12691799 0.4882474
FZD8 -0.3021479 0.4062578 -1.3385593 0.019256407 0.17273293 0.22829399 0.34347764 0.0690877 0.09148513 0.63905704 -0.6853641 0.077694 -0.09273272 0.45116135 0.77467996 0.25564724
DENR 0.42986253 0.7826184 0.3135812 -0.032448225 1.3131332 -0.015197257 -0.29712662 0.35817432 0.015764307 -0.045584854 0.23424226 0.23639303 0.56713104 0.27368927 -0.29027334 -0.20602213
TRRAP 0.8955581 -0.57949 0.6950338 0.40455678 0.3385786 0.5817454 -0.71579546 0.19503957 -0.4923787 -0.21784331 -1.8338733 -0.0033491931 0.24014652 0.36323258 0.89226145 0.4368314
C1R 0.8973264 -1.3596866 0.48582065 0.049143516 0.26196936 0.2122688 -0.7109336 0.29815778 -0.06341722 0.008969469 0.4979197 0.2435184 0.3806471 0.09187467 -0.0016821711 -0.036626384
RPP40 0.6499537 0.2709922 0.58124983 0.47223574 0.0792921 0.07350714 0.45350218 0.0416315 -0.0033722639 0.49518985 -0.01096607 -0.26416466 0.18169849 -0.1956331 0.4389599 0.5358753
FZD3 0.46268767 0.16597174 -0.28640613 1.2212782 -0.06006134 -0.075072706 0.5371365 0.33216003 -0.009752933 0.37411377 0.5087585 0.38332233 0.055024054 0.20865758 0.17973876 0.012601925
SMG5 1.2057031 -0.27486324 0.7863096 1.3697618 1.0149574 0.17116097 0.7720786 0.2969673 -0.29018676 0.01073137 0.29525426 0.15969086 -0.19948299 -0.9533791 -0.45253325 0.5352074
RMI2 -0.07732825 0.431747 0.54320484 0.8856685 0.396619 -0.05776507 -0.2192727 0.17402768 -0.028070409 0.23784573 -0.106803134 -0.3580223 -0.29185963 -0.28845412 0.11687919 0.6864092
LAMC1 -0.6334702 0.42118758 0.12702006 0.017566133 0.36860248 0.25335452 -0.5956012 0.27548558 -0.4868375 -0.07091007 0.082359314 0.934227 0.8583542 0.0011682757 -0.32372564 -0.1522093
THRSP 0.057832535 -0.16664027 -0.20575956 -0.014778079 0.9572763 0.08967031 0.44336537 -0.07097616 1.8802507 -0.09539412 -0.038167913 -0.54705304 0.87272966 -0.2537907 -0.10800495 0.011957284
IFFO1 0.24294946 0.346854 0.6585918 1.1551504 0.051402554 0.25510153 -0.65201813 0.38691598 0.33321488 0.7159351 0.08085971 0.550446 0.25064492 0.29078713 0.18633628 1.007097
CNPY2 0.961031 1.1972262 0.7749813 -0.044898197 0.04495107 0.010972335 0.63711417 0.058312897 -0.039858066 0.21035795 1.1382335 0.15230544 0.5956256 0.9098351 0.39767426 -1.125225
FLAD1 1.3531585 -0.8499073 0.11271742 -0.019019376 0.23352277 0.7815093 0.213234 0.19152844 -0.22463413 -0.083721764 -0.41415793 0.2751431 0.09961335 1.6018493 -0.012378176 0.4470416
EIF3B 0.8254083 -0.3140252 0.3648473 0.23049776 -0.10283546 0.13987361 0.54719293 0.12523414 0.3515115 0.7640168 0.54743814 0.6087292 0.8072842 0.39585578 0.53426784 -0.02750153
NCOA2 -0.112293564 -0.086921446 0.69874656 -0.022683224 0.793681 0.46936375 1.4232881 -0.14037599 -0.06700115 -0.18518397 1.6077849 0.7078333 0.04076518 -0.014256768 1.1941681 0.1508235
BUB3 -0.35079998 0.95150036 -0.049652964 -0.65897644 0.644276 0.009735822 -0.6636073 0.33873898 0.38630772 0.056700032 0.3250391 0.7126832 0.09812708 0.05577408 0.07514117 0.009470261
RTP3 0.44449154 -0.8748998 0.32304877 -0.012713496 -0.345402 -0.15544014 0.6862346 -0.05145418 0.29858682 -0.014904113 -0.49612433 0.01899886 0.16231757 0.47186857 0.45640245 0.13868834
RAD21 0.25682938 0.08491033 0.6865681 0.26499835 1.0556512 0.30965814 0.22957987 1.5516387 -0.15134566 -0.4304681 -0.4415395 -0.5428458 -0.072225064 0.11695213 0.2870835 0.3045487
UBQLN4 -0.045988545 0.51934123 1.9798101 0.58592105 0.094865575 -0.053440806 -0.024490187 1.1187117 0.01481792 1.2307031 0.25545353 0.12562256 -0.08007135 0.49656546 -0.77737564 1.3359208
HGF 1.2665595 -0.20087118 -0.11974583 0.12833244 0.26526445 -0.091544434 0.20786048 0.1978067 -0.54776025 -0.019297505 0.2877213 0.03468473 0.15355882 0.6947357 -0.19149688 -0.048115786
MORC2 0.44061503 -1.5487747 -0.4186829 0.028764488 0.30029592 -0.20911133 0.7993162 0.07978234 -0.8693507 0.028619885 -0.2611879 -0.039611664 0.30586088 0.1681746 -0.06744795 -0.25270277
ADSS1 0.9795642 0.19181044 -0.57726794 -0.0015003891 0.022755235 -0.013373186 -0.08605159 -0.32364652 0.17637658 0.2530769 -0.0856423 -0.005328901 0.10141824 1.7419424 -0.24771738 0.1812562
MID1 0.5447343 0.13747008 0.46019626 0.24430229 0.9891708 0.03099807 0.29480493 -0.23405842 0.026135769 0.7886295 0.2877621 0.058118876 -0.45100677 0.35601157 0.7195116 0.4377225
RMI1 0.30189043 0.7049135 0.73674834 1.2588274 0.23692651 -0.043443356 0.3747157 -0.38821343 -0.046435416 0.028667536 0.3776795 0.112353034 0.31186926 -0.40633413 -0.45976672 0.46072596
ROCK2 -0.4698903 -0.054894663 0.29107442 0.553237 -1.164844 -0.30381063 0.5552946 0.141233 -0.084204435 -0.12106642 0.3313687 -0.08416099 0.17623281 -0.3764607 0.09798302 0.09841374
FUS 0.578646 0.19496092 1.4153104 1.0432754 0.33823213 0.0022270426 0.5366019 0.5467453 -0.027698252 -0.74392325 0.097993575 0.17666295 0.8388468 0.7419309 0.17742549 0.33875674
EXOSC1 0.1624725 0.22117132 0.23482558 -0.30978352 0.35611105 0.18801436 2.05271 -0.80239475 0.02744045 0.034214072 0.24127685 -0.037501503 -0.0056890096 0.11799479 1.6979244 -0.06751073
MND1 0.38288045 0.05938933 0.47182605 0.17496206 0.29840034 0.0047000456 0.35084835 0.09272784 -0.006441138 -0.027076472 0.22046357 0.16207373 0.17167251 -0.064503655 0.22133964 0.22289772
FBXL18 0.755365 0.08217081 -0.20916727 -0.23819079 0.11243298 0.06949279 0.5417068 1.0466899 0.37312835 0.26507205 0.23154812 0.24279362 0.023526419 0.6380092 -0.1972537 0.041694593
GTF2H4 -0.110503025 0.628348 0.10202252 0.11019655 0.2766127 -0.0042888653 0.3706095 0.3359305 0.028589886 0.55153567 0.29567 -0.11510099 -0.05545526 1.3917173 -0.29748943 1.0278034
ACYP2 0.5539619 -0.1440882 -0.09952377 -0.3615705 0.08796327 0.0043053217 0.68584126 -0.23743722 -0.47431558 -0.0254876 0.6809704 0.11670572 -0.0041095717 0.0952168 -0.15146251 0.09232911
HNRNPM 0.4305889 -1.0182475 -0.036209665 -0.00034689187 -0.14385928 0.02099368 0.15612307 -0.25570086 0.012454742 0.15736113 -1.3751917 -1.0014068 -0.06962604 -0.69291687 -0.4267095 0.52173567
SEPHS1 -0.7952246 -0.30043733 0.48501822 0.3649989 0.33486798 0.21784934 -0.37403354 -0.35751817 -0.09233096 -0.017706309 0.1476289 0.112906106 -0.022474507 0.045698266 -0.09399853 1.6811079
XPO1 -0.11411006 -0.05508414 -0.17527924 -0.4746427 0.4297303 1.9303972 -0.1193137 1.8900962 -0.48888877 -0.251678 0.5597195 1.0211804 0.056866333 0.22498597 0.2890496 0.21372898
NSF -0.35063612 0.28950232 -0.13397369 0.40127426 0.33074597 -0.022404125 0.9669823 0.28325507 0.40345368 0.12783396 -0.6511877 0.61714005 0.35681462 0.11221192 0.18404436 -0.0020510766
METTL23 0.37631172 -0.13347809 1.595613 1.1620762 0.910283 -0.099925585 -0.5505789 0.264042 -0.46945575 -0.3149397 0.41408288 1.5503874 0.24543394 0.6456222 -0.13874139 0.5155554
SLC7A8 0.37977293 0.11474468 1.1482738 0.5068882 0.06506103 -0.0070311152 0.503411 -0.09014678 -0.004487039 0.16798492 0.26503468 0.3106796 0.3971064 -0.3948682 0.33455414 0.23838247
SMARCA4 1.0693548 -0.3998229 0.25412843 1.1322322 -0.017139576 0.39968574 0.8764976 -0.09053846 0.91979134 0.5741094 0.115826465 -0.07854474 -0.32233298 0.28837496 -0.17722131 0.73928136
CCT4 1.5205538 0.047712393 -0.008332786 -0.98822784 -0.043411497 -0.036423426 -0.3728435 0.36878785 -0.2917743 0.22909532 0.4479819 -0.12669143 0.85874104 0.8265933 -0.056404643 -0.20361783
EARS2 0.10553073 0.12358194 -0.9103117 -0.014404393 0.32607302 0.27274853 -0.83408463 0.29068053 0.56241626 -0.016269477 0.15541449 0.41286466 -0.36331394 0.70420605 -0.20405933 0.11652536
UBE2J2 0.42963594 0.13055322 0.07083956 -0.85737985 0.30061632 -0.012641803 0.42762327 0.2165382 -0.06614925 -0.22265567 -0.08980549 0.0013108894 0.16111465 0.8817596 0.2627302 0.12434867
SMC2 0.59284073 0.78896874 0.44999745 -1.0195649 -1.7538159 0.014968334 0.49968073 -0.062950864 -0.051154077 -0.011286436 0.47365633 -0.42198935 1.5531187 0.26267204 -0.060835924 -0.09569917
SMARCC1 0.5878844 0.5431279 -0.07177454 -0.097044915 1.0914147 -0.022711407 -0.62577957 -0.002537698 0.03730503 0.30549318 0.32846007 0.7912279 -0.23970214 0.46594223 -0.16141377 -0.13825275
IL1RAP -0.09262398 0.28550622 0.10967448 -0.1541021 0.3048462 -0.5137389 -1.4142228 0.34742618 0.9470463 -0.63346183 -0.8880388 0.030644393 0.043016966 0.14015932 -0.28277585 1.3397113
PTK2 0.15502231 2.0312452 1.2144924 0.035279877 0.564203 0.32991636 -0.32473502 0.2697693 -0.3755493 -0.68482536 0.022604758 0.09122099 0.19709565 -0.69500476 0.36607593 -0.002634013
PPP2CB 1.1602648 0.21137 1.0084063 0.5005352 0.18444638 -1.2478602 -0.39470524 0.28768212 -0.042126354 0.124477915 0.09707767 -0.2798383 0.42771843 0.7612283 -0.15192792 0.060366254
BANF1 0.2101213 0.057779517 1.2927486 -0.04845388 -0.010075618 -0.008161391 0.052312892 -0.9405863 0.0017559868 -0.031480417 0.2267998 -0.009225819 0.4549043 -0.8731428 -0.12021297 0.16586654
ADSL 1.1854802 -0.09123922 0.16054739 0.5125519 0.19758758 0.044696234 -0.4698301 -0.118077956 -0.8680957 -0.33945727 0.6937055 0.019704066 -0.25662372 -0.33010757 -0.19958119 0.7584863
KDM6B 0.329723 0.4998115 0.19125271 -0.33085585 0.08656613 0.012717121 -0.005780813 0.95881826 0.27999908 0.10499474 0.1437886 -0.24899596 0.0119636385 0.44988596 -0.087696545 0.2587037
SMS -0.16882923 -0.53202766 -0.8924515 -0.018852137 -0.030194305 0.20905335 -0.059472743 2.3804092 0.019778306 0.09454328 1.0266567 0.3318793 1.0840025 -0.29606703 -1.3526063 -0.22381829
RPL38 -0.2283495 -1.2661648 -0.14146435 -0.008887177 0.1883656 0.7118712 0.74223053 -0.05942233 -1.0011264 -0.09732963 0.10889664 0.19597664 0.04510382 0.35774726 0.9265539 -0.493316
RRM2 1.9219812 -0.09469423 -0.018054483 0.41084924 0.29008663 0.51346946 0.90203315 -0.049285255 -0.043784685 1.0425076 1.8830272 0.35993314 0.017089805 0.18903881 1.1126527 -0.014323721
SHC4 -0.104759134 0.7998278 0.4181331 -0.51374316 0.4744396 -0.5142192 0.4780957 -0.93806875 0.0027167476 -0.7612878 -0.5680009 -0.103550345 0.60950387 -0.3296744 0.71988004 -0.3948218
UROC1 0.6184555 -1.224073 0.06674516 -0.010702603 0.89160424 -0.8934874 0.35569537 -0.56979316 -0.022989037 -0.13307577 0.20186847 -0.0060906117 -0.006472678 0.49997926 -0.11696219 0.20931023
CNOT4 -0.23393072 -0.24302696 0.024866972 -0.40820727 -0.0076156594 -0.029294832 -0.2429144 0.570017 0.122115865 0.24325679 0.0755132 -0.5679162 0.08521137 0.7282774 -0.23515941 0.25780076
ENSA -1.401912 -0.5632972 1.0843031 -0.0082607595 1.0932384 0.44162068 0.09445529 -1.0357289 0.025094194 -0.20813634 -0.3431807 0.12204817 0.077261455 0.23186189 0.6245501 -1.0866008
CNTFR -0.16490999 0.1299305 -0.07475886 -0.6840655 0.9024887 0.7443117 0.47620597 0.052396566 -0.120509125 -0.11591993 0.27117425 -1.5335264 -0.41177857 0.950267 0.6806096 0.43246964
CSNK1A1 -0.08456786 -0.14435628 -0.034556624 -0.3514129 0.4154869 -1.1746056 0.08424366 -0.28736275 0.20231985 -0.014088196 -0.34990615 -0.014615694 -0.083841816 -0.2100431 -0.8768516 0.5982182
ASXL2 0.6548565 0.25298828 1.3619057 -0.7627055 0.1633222 -0.71945995 0.4356533 -0.27488634 0.30620742 0.39194804 0.1931208 -0.8398143 -0.01432885 0.6607959 -0.54233927 0.6078089
STK35 -0.7071361 -0.25967807 0.8026771 -0.32687327 0.27648652 -0.22512136 0.8264834 0.06917891 0.32434148 0.005196497 -0.18905278 -0.25626123 -0.01764744 0.57651347 0.57293814 0.46509728
HAAO 0.2864428 0.21126369 -0.9278445 0.05126552 -1.2533748 0.014205733 0.37216195 0.6772395 -1.2376113 0.83242553 0.1858642 -0.12317146 -1.3389814 0.63653153 0.2049557 1.0170176
TACSTD2 -0.087570205 -0.66796035 0.19143935 -0.10393499 0.8696826 0.11009623 -1.3588772 -0.24655217 0.7521312 -0.10036902 0.07670259 -0.074176125 0.2168378 0.13410392 0.28300586 -0.039755836
PRKAG1 0.88947487 -0.006713588 0.027797604 -0.06327732 0.08818828 0.0048398026 0.46716154 -0.25032777 0.060423847 -0.051299427 0.18797337 -0.15200524 -0.1266455 0.31405553 -0.38285863 0.30676332
PPM1D 0.2160091 0.33229288 -0.10437976 -0.35043368 0.2176246 0.7016773 0.088553466 0.88719106 0.08518901 0.58524746 0.45693782 0.5101095 -0.5881734 0.34295923 0.55532575 0.083978765
HMGB2 -0.17898656 0.39841652 -0.23847066 -0.26828042 -0.121676184 0.09612193 -0.22771038 0.122071914 -0.15918367 0.8293249 -0.09079953 -0.26224992 -0.5775464 0.048263162 0.1459493 2.5193055
ZHX1 0.13473785 0.17959695 -0.036490902 -0.60956526 -0.048758756 0.23803662 0.41935837 0.021423042 -1.0286822 0.67333496 0.5024511 0.5372585 -0.14496942 0.060053565 0.12477497 0.18688297
FCGR3B 0.27879086 -0.16122064 -0.013020543 -0.0065889703 0.103472896 0.008919266 0.874761 0.28701556 -0.008274967 -0.2198199 -0.3532039 -1.3124354 0.18429942 0.4414572 0.19215606 0.24586645
APBB3 0.22559083 2.1229932 0.051765393 0.2931632 0.5660036 -0.03263634 -0.81538683 0.124740034 0.07243308 0.49900767 0.6711547 0.059113424 -0.043335024 -0.11216964 -0.5331451 0.29881877
FOXP1 -0.52621144 0.03425343 0.029336821 -0.012803906 0.13988692 0.25769684 0.43035793 0.09120024 -0.19319418 -0.56402034 -0.14857905 0.02020954 0.121706195 0.1593144 -0.320996 0.39746538
NSUN5 0.40856075 -0.18364853 0.04249227 0.18236437 0.3374015 0.06935777 1.2878631 -0.10820113 0.29629245 -0.012944256 0.19256292 0.029355556 0.12031411 0.26971224 0.49863535 -0.04871724
BMX -0.9877017 0.26838854 -0.55441564 0.72033226 0.31648973 0.0020619375 0.38764596 0.17040665 0.13320075 -0.02632107 0.27638 2.3298638 0.3462308 -0.054971017 -0.5952048 -0.79995376
CFP -0.09280347 1.6093397 1.4901899 -1.2891896 0.51470935 -0.2430149 -0.048744716 1.2829984 0.009129917 0.68462634 0.31982225 0.4420631 -0.39720875 0.3172157 0.14536189 -0.21891794
NR2C2AP -0.5656928 0.51412845 -0.3576054 -1.016534 0.87402254 -0.392706 -1.4318593 -0.9675424 0.8339395 -0.0068937317 -0.011797148 -0.027946657 -0.17938134 0.1745235 0.2246045 0.93613714
PSMD4 0.5176525 1.4476304 -0.08528884 -0.011745211 0.59189373 0.123173155 0.2997262 0.12440664 0.0002800922 0.16063318 0.2646036 -0.00898168 0.20997325 0.29328793 -0.11212327 -0.3320277
SHISA9 -0.077231616 -0.41378126 0.324395 -0.015649945 0.9995276 0.54714894 -0.07897423 0.037804186 0.07698989 -0.08023438 -0.5768136 0.49241585 -0.8211417 0.15907507 1.2788218 0.10129105
SPATS2 0.0451496 0.097763814 0.59921396 0.102457464 0.12327825 -0.003369731 0.44386744 -0.6256984 -0.0036777102 0.08320698 0.27135304 0.019492071 -0.5897931 -0.215474 0.2245298 0.455855
AQP1 -0.5079104 -1.1862298 -0.9811571 1.5566653 0.36430526 0.11742634 0.028790433 -0.34455356 1.0021431 0.08619177 0.27901044 0.42396775 0.14473501 0.022693224 -0.7720581 0.9530825
AVPR1A 1.0059633 -0.84433866 0.5221659 0.080096245 0.43663466 0.28523326 0.32892913 -0.99643904 -0.07011498 -0.9761515 0.2292745 -0.24867341 0.05363691 0.30284604 0.24700825 0.31365323
CHCHD7 0.5038356 0.3848815 0.3128732 0.5039785 0.14573355 -0.10459607 0.2561472 0.4124699 -0.6511029 0.18785204 -0.015905272 0.14815728 0.4442397 0.13792297 0.054792643 0.1565049
TRIM15 0.8164027 0.5981764 0.32648072 0.14369339 0.7944012 0.13939582 -0.6496089 0.08402006 -0.29895103 0.5846195 0.08791451 -0.024087442 0.42213398 0.4097631 0.8534664 0.110222645
ADH1C -0.8165294 -0.042114407 -0.16711135 -0.007978389 -0.1400255 0.033924278 0.33876503 0.115076356 0.026769852 -0.03810264 -0.41952237 0.32826412 0.11783936 1.3383493 0.6317197 0.17370628
PDE2A 0.81790435 -0.5523754 1.5200747 0.6444004 -0.27735525 0.034134895 0.38696706 -0.5456412 -0.24100998 0.040310908 1.0102003 0.01872089 -0.19165881 -0.20090446 0.19016947 -0.111884184
DDX55 -0.13860005 0.5315874 0.5943739 0.38060158 0.36191794 0.042448323 0.40073255 -0.17170581 -0.034636956 -0.09542939 0.7861058 0.35294837 0.06926288 -0.031912107 0.053309757 0.260518
MGST2 0.83407235 -0.6363563 0.17394719 0.73972857 1.3812845 0.7861342 -0.32635802 1.2198324 -0.054128278 -0.4721339 -0.12202864 0.5073599 0.4095389 0.5352911 -0.48726976 0.2951965
PAPOLA -0.12183436 0.28516203 -0.21873464 -0.02644017 0.7576881 -0.007193036 0.2067736 0.054046184 0.15024509 -0.052321307 -0.1411105 0.03041945 0.0723461 0.41774985 0.00312592 0.26967004
DNAJC7 1.5104259 0.14160593 0.041178226 -0.0022477822 0.32520398 0.010247613 0.86230195 0.20106557 0.18674755 0.42879927 0.8311337 0.4376704 -0.14275356 -0.39499062 0.3748861 -0.056457225
FANCI -0.16279936 0.6384127 -0.13266122 -0.42182878 -1.1478074 1.8094407 0.1326109 0.3241072 -1.5599197 -0.5043167 0.04362303 0.027240843 0.16485104 -0.09477418 0.6779763 -0.17677218
HBB 0.739844 0.34699005 0.16750853 0.053261068 -0.1631468 -0.15176316 0.3961076 -0.33374888 0.049426828 0.5546029 0.37408435 -0.8782111 -0.06124219 0.439936 0.4070085 -0.033586666
TMPO 0.31512958 -0.1719798 -0.1265843 -0.002091506 0.13829513 0.11340932 0.16507667 0.0001405272 -0.13762262 0.11703882 0.22318995 -0.103609614 0.18688603 -0.33127698 0.3724237 0.122521885
GALNT10 0.63886 -0.29205766 0.8012516 0.8612582 -0.20094372 -0.07459703 0.5541358 -0.5381396 -0.018745264 -0.4867135 0.009972816 0.29450905 0.5416666 0.4130539 0.32732305 -0.025614262
AMBP 0.24611296 0.11799336 0.49935347 0.048311207 0.44085807 0.32498917 0.30725637 0.018554894 -0.007852075 -0.5844446 0.263934 0.059808128 0.24020666 0.29307044 0.80271417 -0.008535583
MAF1 0.36376357 -0.744058 -0.16521136 -0.076340996 0.3924886 0.009039681 0.24059917 0.24113317 0.37752154 -0.022051217 0.30062318 -0.6481742 -0.43543923 0.48594087 -0.98931134 0.30334237
KRTCAP2 1.2154076 -0.12086189 -0.11904779 -0.2449494 0.2701311 -0.43352944 1.1701763 0.6212083 -0.45894083 -0.77581894 -0.15377752 0.39661393 0.13987897 0.5916639 -0.2516033 -0.11695695
MRPL49 0.03248889 0.4365129 0.026825696 -0.0026291162 0.14888854 0.267171 0.78024036 -0.053618103 -0.18280415 -1.2068825 1.5176191 0.022950858 0.35572878 0.15126331 0.44591048 -0.61989814
NDUFA2 -0.122775994 0.15139033 -0.41710752 0.09985199 0.42689767 -0.10533238 0.4922666 -0.031644262 -1.66988 0.08494259 0.0065737553 -0.08248937 -1.08201 -0.4629303 -0.01996757 0.9976808
AP5M1 0.6658285 0.016349886 -0.056598146 -0.048564177 0.5717844 0.09085026 -0.44367498 0.023591748 -0.76088446 -0.07663001 -1.1970379 -0.020899352 -1.7898583 0.2036602 1.0755383 -0.15752843
DCK -0.03148489 0.615268 -0.12476934 0.2093978 0.50463474 -0.026239451 0.37731797 0.036071595 0.004383724 0.74527234 0.69535995 -0.047485232 -0.12608825 0.516442 0.044409223 1.4061
NGFR -0.07644203 0.26648283 0.7316916 0.44691524 0.42665693 0.017246801 0.10309283 0.3239775 0.013941122 0.4148044 0.1195363 0.64818245 -1.0129675 -0.019845672 -0.16353732 1.015309
LIPG -0.18330573 1.959339 0.58661634 0.047931217 0.47317278 0.13118644 -0.8943422 0.19684039 0.049347892 0.77299243 0.58799744 0.3142828 0.78229374 0.39334947 1.2487652 -0.10331368
SRM 0.108698934 0.3905327 -0.17524195 -0.012353881 0.6016924 -1.2111068 0.7468117 0.10993131 0.20021732 0.69440895 0.20062393 -0.84838605 -0.583349 0.92925876 1.127368 -0.15659954
SLC34A2 -1.4173709 -0.20760338 1.7602998 0.63804656 -0.18027069 0.10344349 0.014760541 0.53823555 -0.0022218102 0.030752227 0.38525188 1.1198956 0.5773088 -0.068268664 -0.25464302 0.14284633
F3 -0.04541989 0.17268617 -0.11571095 0.004883068 0.025958685 0.2940863 1.3558409 -0.7867117 0.024825227 0.043295268 -1.7167825 0.7509349 1.4806281 -0.015714075 1.3498579 -0.6939619
SMARCE1 0.5508578 0.5661099 -0.13432617 -0.20068868 -0.09526538 -0.510993 0.15688306 0.9314656 0.032604665 0.40312776 -0.16165061 -0.3121828 0.04306564 -0.26822463 0.013017362 0.033291664
MRPL43 1.2391709 -0.7558588 0.30912954 0.23326902 -0.080378406 -0.28316274 0.43531832 0.2788768 0.013539803 0.15951024 0.5492196 0.46925217 0.19519934 0.35995662 -0.8127681 -0.11960271
ISG20L2 -0.5770824 1.1583616 -0.033732284 0.020759098 0.45213088 -0.009278979 -0.12479994 -0.21803065 0.8465514 -0.1875363 -0.67469543 -0.20431891 -0.27050233 0.10785167 -0.28641376 0.50200593
CDKN3 -0.18557954 0.44884735 -0.06751555 -1.165743 0.41271445 0.004508844 -0.9414792 -0.70827305 0.5001286 -0.96892655 -0.030092828 -0.01029842 0.52528834 0.57373375 -0.08068948 0.68274194
ANXA3 -0.29733744 -0.09218894 -0.09248767 -0.46697375 0.9229855 1.4793895 0.71487314 0.24678314 -0.025175713 0.86743927 0.44056657 0.5833305 -1.9280987 0.14833514 1.988701 -0.24156305
TIPIN 1.2475847 0.40930375 -0.18851556 0.016311843 0.09601925 0.8063405 0.07050773 -0.51987326 -0.056410857 0.099419974 0.20438582 0.4472519 1.374927 -0.3373054 -0.04956991 -0.0067201657
IGF1R 0.40934482 0.055598937 -1.0399829 -0.12805308 0.5516504 0.5048552 0.022554966 -0.8344289 0.20334734 -0.29314986 -0.39969078 0.084676065 0.103717625 0.16004273 -0.91004306 -0.065161414
SMARCD1 0.33179927 -0.0433309 -0.10040841 0.19695576 0.15749869 0.9873532 0.9379252 0.28134373 0.47371188 0.14088093 -0.07658606 0.20448437 0.33422273 -0.75288 0.79496485 -0.38454142
PIAS1 0.022864137 -0.03896029 -0.35867405 0.6584768 -0.93011254 0.34700945 0.1444145 0.5204217 -0.0044758217 -0.25929883 -0.73535764 -0.49151352 -0.80472887 -1.0035343 -0.13737695 0.257453
BAK1 -0.041996904 -0.3519514 -0.08509613 -0.27479526 0.3354793 0.06519788 -1.5060543 0.40851533 0.07152222 0.08272822 0.24749066 1.3949805 -0.0023706493 0.09557548 -0.81780684 -0.006580458
CPNE1 -0.10833725 -0.45789838 1.1770632 0.6731885 0.8368629 0.48554587 0.6364638 0.047203407 0.18284541 -0.20405397 0.08317161 -0.09115344 0.23969609 0.24791056 1.1799335 0.6623075
SQLE 0.35221532 0.47476617 -0.14576976 0.006383209 0.5271744 1.065385 -0.39881 0.3235401 0.093909174 0.13559718 0.2629332 0.45429114 0.28838697 0.982715 0.60663426 0.32542676
ZSCAN29 -1.1047068 0.50538117 0.14580852 0.07797155 -0.35939726 -0.20987035 1.1633118 0.21421833 0.005784608 0.32103878 0.3833049 0.5080386 0.161387 0.20184554 0.16388881 0.19268952
KLHL12 1.5567846 -0.06463289 1.1908797 2.089332 0.27512497 0.03524814 0.38254103 -0.2608058 -0.0063800355 1.1406739 0.6004217 0.2720896 -0.13846515 0.35592085 -0.05300278 1.2462134
OLFML2B 0.8747186 0.1909106 0.36322156 -0.90016407 -0.01540363 -0.067058705 0.16592135 0.37637293 -1.4683456 0.9624108 -0.91281265 0.011999434 0.33594555 0.7030743 0.40686885 -0.1869526
ARSJ 0.19011503 0.32725516 -0.15988919 -0.0019373492 -0.41520855 -0.010369148 0.50656295 -0.6195686 0.47600216 -1.3064622 -0.4095929 -0.5874884 0.24399123 -0.7470404 0.05958111 -0.08027847
SUCLG2 0.34494397 0.4660841 -0.10879755 0.21925414 0.55763304 -0.340507 0.737119 -0.05271879 -1.0450681 0.03345439 0.30793816 -0.07442073 0.5069163 -0.117482446 -0.05901581 -0.15920985
CHKA 0.40549865 -0.10246441 0.3856661 -1.2274537 -0.5752602 1.0142119 0.47943977 -1.122827 -0.05070573 0.073404 0.6304557 0.07824988 -0.36873454 0.5662949 0.37193075 -0.5285462
ILF2 1.448981 0.14039946 0.16078174 0.210443 -1.0145108 -0.013204478 -0.23690794 0.25199315 -1.0533996 0.02986284 0.59263706 0.4180183 0.5276886 0.16142176 -0.6400338 -0.05984423
SERPINI1 -0.78474957 0.20697516 -0.9394295 0.11223726 0.11791805 0.3007103 0.12673208 -0.6561031 0.019121872 -0.019370213 -1.0947267 0.32478213 -0.03806361 0.95960474 0.10915945 1.6755337
RALA 0.22621264 0.40545988 1.3055255 0.538025 0.21669672 -0.092420645 0.04338307 -0.47299582 0.036007952 0.65407944 -0.116581894 0.1692882 1.0049182 -0.013609591 0.44814667 0.2670045
MAPRE1 -0.010442188 -0.1805121 0.8378696 0.102770075 -0.55488265 0.33392018 0.62742126 -0.064825654 -0.04490441 -0.321055 0.5304749 -0.15763733 -0.2786798 0.09200898 0.12406865 0.34373197
RPS2 0.34994715 1.055377 -0.029989174 0.027381184 -0.039662626 0.038295895 -0.076265104 0.16843215 -0.31084302 -1.4079169 0.18991747 -0.010623154 0.0800945 0.13691954 -0.21640563 0.08706757
FSD1L -0.10346663 0.32428977 0.31921902 0.24145192 0.11128458 -0.18281692 0.29180583 0.13614252 -0.011366184 -0.03522957 -0.15237655 0.1565424 0.78687394 -0.3094716 0.37147835 0.113767795
CNTN4 -0.22324106 -0.29063955 0.5075537 -0.0061815 0.17043345 0.19480485 0.24103586 0.85704625 -0.026165338 0.011402351 0.31895208 0.4436652 0.15990974 0.4391859 0.34407192 0.1517762
TXLNG 0.0725077 1.0881627 0.32467806 0.06604957 0.71251595 0.047872532 -0.9454258 0.9740849 -0.025363177 0.62027216 1.4813429 0.25976977 -0.09656067 0.2816349 -0.9981825 0.35029438
CTH -0.5723946 0.60042727 -0.22562274 -0.15821415 0.283514 -0.031972058 0.32611686 0.18039408 0.008770261 -0.0023101103 0.2532217 0.15638693 -0.059811614 0.20049846 0.5859011 -1.1287925
HMGCS2 -0.2452485 0.028283056 -0.12287777 -0.6685674 -0.55778044 0.53559995 0.36233044 0.18028305 0.011780672 -1.2788391 -0.014515765 0.65983003 0.55818206 0.05288786 0.24327357 -0.15555386
TMEM68 0.038906813 0.26252535 1.4213358 -1.5207579 -0.09614954 -0.007403986 0.3588599 0.2987036 0.2832859 0.045407154 0.47266 0.33344963 0.008182748 0.9304257 0.029490896 -1.033258
UTP14A 0.702145 0.7501507 -0.12954478 -0.12418053 -0.75862134 -0.009286324 0.32876095 0.17677806 -0.6160976 0.32302278 0.29189447 -0.030691803 0.018253215 -0.8134752 0.11019193 0.15705791
WASF1 0.3736211 0.28988272 0.36409402 0.0022605122 0.3493986 -1.1125844 0.20973964 0.060400452 -0.6209636 -0.040274505 -0.09002428 0.24523169 0.7570565 0.124059394 -0.16466977 -1.3810703
GDI1 0.6820022 0.6305175 -0.47935382 0.30442646 0.12299154 -0.05787313 0.3746729 0.1660801 0.37536693 1.8798671 0.8419643 0.94485605 -0.24321637 -0.5144325 0.80321395 0.36772233
PIK3CB 1.4027926 0.4789969 -0.34685183 -0.031870235 -0.13339067 0.041511107 0.1592522 -0.17132021 -0.53900105 0.03706992 -0.03003501 0.5914497 0.534769 0.28629613 0.2640978 -0.060965277
HSF2 -0.58272284 0.3444939 -0.57420796 1.3076613 -0.1246737 -0.28805318 -0.143847 0.4794828 -0.13389239 -0.0033754092 -0.6048679 -0.41415894 0.22731401 0.48614007 -0.043368056 -1.03627
PCBP2 1.3880321 0.14523736 0.39975533 -0.054450277 -1.2597781 0.030110873 0.7926107 -0.0833555 0.5792968 -0.31157368 0.9508151 -0.79096764 0.6155901 1.3462671 -0.112627216 -0.15210757
ITGB3BP -0.10792547 -0.04381252 0.3492826 0.33872363 -0.14598486 -0.1756253 0.15489973 1.7141187 -0.018685864 0.20387106 0.13500656 0.423306 0.06594001 -0.069717735 -0.030960921 0.0881153
PCGF6 -0.27859873 0.89392835 0.15618883 -0.7114131 0.32725286 -0.14851508 0.29300395 0.07556371 -0.073399164 0.00010637735 0.35645083 -0.5446917 0.057079524 0.37503156 0.21550417 0.12089144
PTGES3 0.23551232 0.5315706 0.103447214 -0.013035055 -0.4229445 -0.005895373 -0.22899573 0.014081714 0.26144937 -0.05790026 0.024087042 -1.104784 0.15232494 0.1824671 0.054913994 0.21902472
TSC2 0.39066634 -0.9596628 -0.22615111 0.8207366 0.43882746 0.7223926 -0.23906377 0.09573426 -0.08655396 -0.035868157 -0.14166594 0.52130115 1.4129472 -0.41011485 0.16235974 0.28603676
RUSC1 0.22518882 0.4327704 -0.13209486 1.1401039 0.42960894 -0.08775254 -1.1379642 0.68976504 0.9577847 6.994733e-05 0.045180444 0.8305124 0.31461766 0.11684614 -0.0065346044 0.28067064
RBSN 0.30422246 0.80503 -0.105215885 0.08612031 0.60534513 0.58285815 0.23604544 0.32104954 -0.021229 0.5165282 0.4251622 0.1090204 -0.42138615 0.023409914 0.7215394 0.32500008
FAM50A 0.5533262 0.05789432 0.68032604 0.99623156 0.6287831 -0.012379668 0.42057985 0.44843706 0.6957014 1.0578283 0.52405053 0.3166191 -1.8445232 0.19211598 0.4241944 0.6593134
ANGEL2 0.32570013 0.23723778 0.06230004 -0.03246646 -0.6248198 -0.064271025 -0.41182384 0.41277352 0.7332481 0.5502913 0.24489474 0.016666252 0.08288934 0.6931872 0.06619353 0.09886863
EPHX2 0.43853799 0.32647616 -0.23290874 0.07868544 -0.047522373 -1.5668082 0.5628365 0.516719 -0.7924808 0.52001685 0.31143412 -0.011745741 0.0043973317 0.9443679 0.28680772 -0.06961204
ARHGAP11A -0.026759557 1.3711064 0.6747324 0.5459206 1.1464283 -0.016424464 -0.021883236 0.0749309 0.38633305 -0.08025054 -0.19631955 -0.13377188 -0.04738633 0.123496935 -1.4799016 1.6740776
LSM2 -0.5151638 0.06758506 0.06629586 -0.44028473 0.49537948 0.43463913 0.5334114 -0.0078737205 0.1138723 -1.8626457 -0.21055835 -0.05048991 0.6236173 -0.41980293 0.9519883 -1.2050505
CBX1 0.37696433 -0.01846624 -0.08210726 -0.019287312 0.37548375 -0.026836567 0.3400383 0.23232603 -0.040011853 -0.56080115 -0.19565201 0.26915076 -0.7686514 -0.2743151 0.08366807 -0.18823554
MCRS1 0.26600873 0.2574662 -0.10449672 -1.2237794 0.20931986 0.04657458 0.49410665 -0.012001055 0.031515315 0.68366164 0.593523 -0.071611136 -0.103831924 0.43479103 -0.1251393 1.9546189
RUVBL1 -0.28489873 0.5988068 0.7154879 0.5282821 1.7975239 0.14668109 0.28348315 1.1287756 -0.033224385 0.200077 -0.5700062 -0.18931393 -0.08626259 0.35269025 0.33188522 1.2815466
TALDO1 -0.16414893 0.43934715 0.71728736 0.44285783 0.15038264 -0.2012193 0.32539916 0.56419176 -0.15565439 0.47882977 1.135163 0.63890207 -0.028171279 0.27046984 0.061626997 0.18594423
BHMT 0.96245456 -0.1238818 -0.2568255 -0.12584566 0.06645233 -0.16333593 1.3637776 0.0457297 -0.043669537 0.0254352 -1.2791349 -0.06337371 0.14536633 1.3494331 0.6810815 0.067181885
A2MP1 0.2918871 1.564845 -0.12160104 -1.9287018 -0.21824628 0.62409455 0.4186112 0.27216977 -0.7642037 -0.29581505 0.3695547 -0.58311504 -0.89046454 0.40183032 0.15080015 -1.0341877
GADD45G 0.12699911 0.18098968 0.29648975 -0.95282876 0.9039154 0.07109423 0.8101183 0.095102444 0.041710705 0.13537328 0.44317815 0.5632447 -0.014176163 0.75640947 0.6247264 0.0040468737
RPL37 -0.56025237 -1.0920665 0.39016733 -0.034973834 0.57197577 0.10809132 0.5957767 0.45252505 0.05843445 0.43815368 0.38917387 -0.5700929 -0.10353588 1.6874732 1.1337589 -0.25240314
ASL 0.41702947 0.15888247 -0.9264526 0.13099095 -0.10730307 -0.15234236 0.2198054 0.5422569 -0.4926275 0.041838422 0.389665 0.05409716 -0.06141747 -0.097527005 -0.1927011 -0.12752812
PEX5 0.107864454 -0.015055785 -0.093739234 -0.267062 0.22867674 0.7524569 1.6210443 0.05757229 -0.0062673916 -0.7763898 -0.05500582 0.15842918 0.45483145 1.3526031 0.9298272 0.16901255
CREB3L4 0.16774027 -0.024227967 0.55451185 1.4710866 0.4936262 0.56133294 0.14176622 0.54723424 0.012474065 -0.4811886 -0.0048925723 0.33760527 0.4416557 -1.1144675 -0.041235153 0.64693207
IL13RA2 -0.5677373 0.5555137 -0.80146426 0.0068952767 -0.41915235 -0.04120875 0.2024946 0.37157384 0.056829195 0.36964175 0.25788766 -1.4015677 -0.027224215 -0.20810138 0.33408785 -0.1620176
HHIP 0.026588585 -0.035059605 0.5270222 -0.7027712 -0.058668155 0.02890081 0.5789305 0.33640337 -0.5232588 -0.03176653 0.77925736 0.23970874 -0.067581445 -0.14248824 -0.3820656 0.03271208
TSG101 0.42559707 0.084122516 1.4752542 1.533794 -0.2578256 -1.0127332 0.18216924 0.36109138 0.051364657 1.1939504 1.961285 0.5102569 -0.52695286 -1.1167899 -0.15670772 -0.37941846
DUSP12 0.0044668284 -0.08318283 -0.4624861 -0.016109265 0.8939178 0.4547098 -0.00440989 0.68073463 -0.040379643 0.08781613 0.9829806 0.13376732 -0.447738 -0.3819028 0.005673231 0.08690716
HNRNPA1 -1.8207806 -0.54205716 0.8785568 -0.041882068 -0.41859043 0.8055114 1.130484 0.16684803 -0.57790214 -0.056351487 -1.2365106 -0.56431 0.049566943 0.23681636 0.4942082 -0.056235116
LOXL2 -0.17172551 0.36296147 -0.12643918 -0.006545676 0.21581355 0.24343324 -0.3968742 0.47805747 -0.32290617 0.399827 0.44868395 1.2865603 0.39232057 0.0025497405 -0.11107999 -0.05833761
BAG2 0.3232506 1.2295226 0.23469584 -0.041948948 0.013648249 -0.09604222 1.3717691 0.09990959 0.0055640377 0.24123733 -0.53471285 0.025309276 0.5016546 -0.6819167 -0.22260712 -0.3228469
DCAF13 0.54296154 0.8744924 0.43695164 -0.28193143 0.23035927 -0.01863881 -0.12971571 0.101451054 -0.5618479 1.2245537 0.44742838 0.10523676 -0.2534556 0.4297921 0.78920335 0.20626645
HSPA4 -0.14350744 0.6650867 -0.8201975 -0.01518748 -0.019806042 0.11062642 0.13358098 -0.030751623 0.0989647 0.3800349 -0.815298 0.9791526 -0.11496768 0.04387964 0.076393545 0.16815908
UNC5C -0.78260106 0.11690871 0.14784817 -0.0031486042 0.16623743 -0.28374135 0.46240023 -0.41886932 -0.06033162 -0.026611187 0.4862353 0.7703992 -0.22014451 -0.030860636 -0.80197734 0.17664625
APOA1 -1.5971811 0.09677545 0.5474316 0.028138967 0.20154278 0.2832484 0.21788907 -0.39921772 -0.055193197 -0.9572553 0.25284415 0.087466404 0.5949803 0.044750005 -0.09298867 0.24858016
TBC1D14 0.6253459 -0.15257387 -0.10181591 -0.3098247 -0.640814 -0.44685194 -1.2470713 0.37557268 -0.3671726 -0.26732013 0.19205299 -0.0023631987 0.2689272 -0.65152264 0.008253815 -0.3865596
ARMC6 -0.24344136 0.22790296 0.61507636 0.23092239 0.52363795 1.4804062 0.37610474 0.04759007 -0.060673732 -0.17000787 0.3793952 0.6160383 0.99772745 0.2875065 0.95275146 0.25443405
PRPF19 0.13333465 0.846735 0.45271534 0.05089528 1.5014365 -0.2410506 -0.37843293 -0.34735596 1.0578035 0.9446047 -0.10684021 0.3705024 0.5591259 -0.39850965 0.9616527 0.0158809
CYP2J2 0.28722438 0.42121124 0.07841739 0.31570143 0.23773514 0.07025096 0.21889181 0.45795473 -0.8878275 0.6506666 0.017835513 -0.06308239 0.06445462 -0.13429825 1.5408098 -0.17625096
PIK3R3 -0.36113408 0.25140992 -1.5572274 0.35996813 0.15940593 0.08356463 -0.15795071 0.1842481 0.21670942 -0.9030281 1.7416698 0.49503508 0.33175728 0.995833 -2.1240008 0.13614315
