KHK 1.3006824 0.9732451 0.4219585 -1.2097906 -0.0021817898 -0.46034005 0.37603948 -0.725548 -0.21847036 1.414752 0.3547464 -0.58133316 -0.19840261 -0.11297705 -0.27159324 0.41384783
ACAA1 1.0716027 0.1896913 -0.0015974469 0.68233514 -0.080001995 0.5164512 0.46779403 1.226631 0.5623444 1.1127266 0.99916846 0.777937 -0.03865204 0.13448395 0.038774952 0.41149905
PPP2R1A -0.5177108 -0.108598165 0.4155163 1.1383803 -0.15565073 0.002025865 0.14269793 -0.13255729 -0.8227475 0.6064642 -0.12165502 -0.06311247 -0.453148 1.6649002 -0.585335 0.19941247
ATP6V1H -0.23710401 0.013435615 -0.0042301584 0.37146312 -0.006905201 0.6521054 -0.15405944 -0.12489498 -0.6890061 -0.05480011 0.019652681 0.15686709 0.18081029 1.3928251 -0.4968746 0.9797408
EFTUD2 0.8526419 0.28031546 1.5113423 0.46190116 0.23493811 0.17919654 -0.24356483 1.0328517 -0.1530441 0.6644055 0.43589157 -0.06837207 0.300791 -0.07193287 -1.3615092 -0.100482784
DDX50 0.001114413 0.07576969 -0.649909 -0.07467172 0.07005561 0.64805996 0.82167214 -0.070471965 0.27660227 0.09714837 -0.2876803 0.48060524 -0.8832278 -0.16037641 0.70915395 0.22580177
AGXT2 -1.5836385 0.2866397 0.37118694 0.24335484 0.27868822 0.24726307 0.6982925 0.02899244 0.18778642 0.5013866 0.03412329 0.25423452 0.112888984 0.86944205 0.5450088 0.28446838
YBX1 -0.6572051 0.38981864 -0.0865692 0.66356564 0.021716675 0.21875387 -0.10269797 0.39494532 0.1721047 0.13877472 -0.073074564 0.65416694 0.6567637 0.20316917 0.30705568 0.25266185
SERPINI1 1.2395878 0.66951406 -0.67336553 -0.30088514 0.41870648 1.0357623 0.27292854 0.41825137 0.4925101 0.44810158 -0.85233605 0.4594596 -0.008955248 0.7033662 -0.1892515 0.24932058
RETSAT -0.21847314 0.54387724 0.98613447 1.0426773 0.68509364 0.13432026 -0.11276302 0.4208496 0.25844976 0.87244695 0.15353954 0.98666185 -1.536577 0.06575043 -0.40815693 0.35758275
TRMT112 -1.0687498 0.019290965 0.38687637 0.042055935 0.14695221 -0.11052218 0.53714603 -0.31939057 -0.8867487 0.9540816 0.78727764 0.18249169 -0.7769232 0.42987764 0.37086576 1.6073427
STAM 0.01268312 0.1606651 -0.17871296 0.19374193 -0.16954416 -0.7668113 -0.2966072 -0.031856447 -0.023960866 -0.67488813 -1.0795264 -0.006883167 0.64387023 -0.08686976 0.118096314 0.16323964
RPS2 1.2304494 -0.17134082 0.4626811 0.36215103 -0.36796802 0.45269775 0.56863284 0.90406233 -0.044251636 1.8400247 0.21901523 -0.20007125 0.27919987 0.69461316 0.68580693 0.13266471
UBE2D2 -0.1975136 -0.24726054 -0.02679341 -0.00015050347 0.6306955 0.7032305 0.40725717 -1.420812 0.028464435 0.76250404 -0.9119083 1.0199871 0.22056052 0.067623585 0.57772696 1.2049758
AQP3 0.019684467 1.0912292 0.45412803 -0.24484323 0.2329082 0.14727455 0.13955039 1.5038816 -0.02467548 -0.2079948 -1.1417465 -0.31085864 0.16957651 0.6094064 -0.056296702 0.028173083
RALGPS2 -0.21675865 0.3330059 -0.09799423 0.36715648 -0.13777922 0.0354557 0.26834205 1.0600474 0.66191554 -0.11058255 0.67846 0.023649504 0.10488325 0.6351907 -0.03138135 0.0067092613
ZNF746 -0.15338548 0.25992903 -0.72394043 -0.76964307 -0.5819292 0.22598942 0.111088835 0.534249 -0.76532555 -0.04413483 0.36952928 0.11005403 0.6998115 0.124716684 -1.1494853 0.1019791
GNS -0.6400917 0.487234 -1.769877 0.040714372 0.015733767 -0.14695106 1.1942025 -0.028934205 0.71872264 1.2969164 0.67002726 0.55905217 0.034358654 0.82396585 0.4920621 0.12883104
XPOT 0.22038731 -0.27747002 -0.08913359 0.09734472 0.5403642 0.49328288 -0.11300968 0.25866327 1.3038782 0.8221055 0.97305256 0.13611291 0.14873526 0.71184033 0.64540595 0.3904633
ASPA -0.013423863 -0.10646813 0.12187238 -0.20864561 0.3768042 0.8478691 -1.4089676 -0.46007872 0.20552057 -1.2346151 0.3651505 -0.2834 -0.11692693 0.28600702 0.49214634 -0.2603787
DHX30 0.00021471933 -0.10906296 0.31357658 -0.60754347 0.002336025 0.25537354 0.15772703 0.40554285 0.026454728 0.41529804 -0.8370436 -0.13158852 0.23125581 0.31920177 -0.08957909 0.29653344
MMUT 0.44249105 0.26518714 0.29207742 0.28795812 0.14450249 -0.11113073 -0.059339285 0.48767212 0.104284145 1.2292881 0.47797486 0.530598 0.44141147 -0.10225387 0.02930874 0.03158561
ZNF581 -0.07873253 0.4225135 0.10805704 -0.39686152 0.3472013 -0.21111788 -0.097048335 1.5555505 1.2203622 1.2912012 0.7197095 -0.02889125 -0.93617696 -0.16581497 -0.09135887 1.4676118
LAMB4 -0.07175768 0.129274 1.4158098 1.2306492 0.39479482 0.2303483 0.32380104 0.38769463 -0.1408533 -0.3042932 -0.45442316 -0.09374552 -0.038235985 0.43893692 0.01728332 -0.0645703
NIPBL -0.04511852 0.28880322 0.037245683 0.20014474 0.804336 -0.27972776 -0.09601101 0.3239769 -0.3345483 -1.593179 0.101713985 0.39605027 0.5234222 0.11576411 -0.07729384 0.5148676
YEATS2 -0.013510979 -0.32778612 -0.2003119 0.02581834 0.5485415 0.5686166 0.16032065 0.13686368 0.4022197 -0.6961467 0.5465644 0.651729 0.20310013 0.16154112 0.14843948 0.29850078
CENPE 0.16002041 -0.46666208 -0.0075692944 0.34940267 -0.017550182 0.001399253 0.05836056 -0.7589567 0.07638264 -0.10966127 0.43548435 0.030443996 0.57925206 -0.122595705 -0.0034683263 0.42940384
CAT -0.0056689777 0.65253466 -0.018224055 0.8416999 0.27571064 0.3623171 0.23584308 0.6034777 0.0706592 -0.47728056 0.060576085 -0.36891675 0.14196403 0.8260782 0.29167005 -0.124968395
DHX9 -0.6239798 0.4921736 -0.47634012 0.23676963 0.15723555 -0.216096 -0.014122858 0.6052938 1.0540746 0.14368485 -0.0843526 0.05747528 0.07771578 -0.21720442 -0.43407616 0.46580866
CETP 0.5260177 -0.1622594 0.03942801 0.38226673 0.25391668 0.84716296 -0.37900677 -0.570125 -0.29753634 0.40427762 0.28652743 -0.094123065 2.3075695 1.4479662 1.4006466 -0.39131588
BUB3 0.8832011 0.600926 -0.0059191897 0.01160619 0.009223741 -0.12553154 -0.7743504 -0.2548384 -0.073464975 0.55011004 0.105556935 -0.34269145 -0.024505997 0.5184142 -0.041683186 0.21388032
MTR 0.41900858 0.13645646 0.05009121 0.20119505 0.009989974 -0.08122401 -0.44017062 1.4579333 -0.22301894 -1.6290586 0.592197 0.18579951 0.48690113 0.48795626 -0.051407535 0.03465859
FGF23 -0.59309155 0.785191 -0.103577755 0.18634455 0.85577285 0.49815074 -0.07515494 -0.15438785 0.75771976 -0.059158962 0.19968371 0.20807639 -0.93473625 0.3692703 -1.0599328 -0.00079802005
SLC25A39 0.66951424 -0.4532183 0.13677983 0.35736734 0.016432075 -1.7223446 -0.58667165 -0.23401482 -0.00144094 0.7096711 0.84008616 0.0013598201 0.7500553 0.35180372 0.45897353 -0.11583439
MYOZ3 -0.88680536 0.07916567 -0.80145675 0.791022 0.14568792 -0.18242058 0.3809614 1.2796094 1.4386106 -0.47193274 1.1755278 1.2152827 -1.1761289 0.060190517 -0.2536404 -0.06269971
POLE3 1.2618375 2.1075308 -0.024865914 0.4547033 0.35679016 0.56895214 0.2746471 0.15186375 0.5327022 0.5452577 0.91277134 -0.015146588 0.04163921 -0.03209276 0.17318425 0.36389646
COL4A1 -0.18437274 -0.36857936 1.5623285e-05 -0.17083828 -0.918249 0.17765681 0.00036299555 1.7438958 0.037685405 -0.38988805 0.593286 0.08389901 0.11378851 0.18256974 -0.44668058 -0.19845776
CDCA7 0.04488507 0.16272675 0.028965462 0.56408525 -0.13401517 0.5165579 0.78390515 -0.30276844 0.0018856955 -0.40009683 0.47798473 -0.0017148434 0.21975219 0.53183484 1.154522 0.41083997
RPS6KA3 -0.9924118 1.8589963 -0.14062947 0.35674325 -0.17930599 -1.3804172 0.830661 -0.015378628 -0.15470193 1.0299206 0.9404258 0.06626419 0.3062338 0.62506646 0.5451817 0.83526015
TCFL5 -0.0060899174 0.19271533 -0.12928636 0.023894675 0.3172607 0.39801943 0.40757638 -0.03966292 -0.41282415 0.0161943 0.31083494 0.9672516 0.10879666 1.0273707 0.36430657 0.10431533
STMN1 -0.41323686 0.19256353 1.203928 0.25541404 0.60270053 -0.20223442 -0.35842535 0.6328593 -0.11174887 0.8083731 -0.53446263 1.1526699 0.09325279 0.028916795 -0.08420664 -0.06504903
BHLHE40 -0.02007419 -0.2369929 0.36475417 -1.346501 0.43914664 0.8385794 0.112259 0.17018725 -0.35798958 -0.15481761 -0.18011259 0.5302961 0.041100774 0.90003014 0.14723969 -0.7852292
DISP1 1.5708293 -0.6832255 0.26050702 -0.32726532 -0.015186744 0.74398047 0.3016145 -0.070652306 -1.8790193 -0.06506266 0.53007895 -0.8321762 0.72604126 -0.017966453 0.3220038 0.44407722
TCF7 0.43859288 0.3752209 0.1668693 2.0435233 0.08816684 0.17451568 0.2424271 1.1473887 0.29457283 0.048840288 0.98458654 -0.15929396 -0.3743988 2.5139282 0.8204958 0.45423138
PIK3R1 0.27708223 0.14973354 0.82316566 0.79779744 0.37784818 0.8601232 0.087230325 -0.28563184 -0.63890105 0.6752261 0.019905653 -0.1472199 0.030121475 0.4754399 0.453173 0.8154787
PRKCG 0.80576074 0.3498713 0.7071837 1.6418685 0.15561888 0.42869025 0.0045240126 0.053273246 0.2001671 1.308345 -0.42493516 0.42373398 0.14150284 -0.6263663 -0.65562975 0.012891451
CENPT -0.027403776 0.14111432 0.2807789 0.85756856 0.52741575 0.40099543 -0.16993442 -0.6132189 -0.017058687 0.2122078 -0.53206784 1.3966724 1.234695 -0.14596228 -0.45318758 -1.3802521
PMF1 0.26552323 -0.22435139 -0.92010736 0.08786784 0.57233423 0.57959145 -0.052650236 2.373594 0.45603937 0.36408424 1.4186339 0.5975118 0.20697896 -0.790445 -0.011956882 0.28124678
KAT7 -0.016573424 -2.20765 -0.7398391 -0.6172736 -0.074533485 0.3738241 -0.070685156 0.044092588 0.123577654 -0.14378907 0.09260649 0.41976053 0.19331484 0.51189196 -0.19708343 -0.23417431
PEX5 0.09051951 0.046743978 0.39709347 0.8757428 -0.03326014 -1.5614285 0.12105613 1.4412721 -0.0893304 0.40656114 -0.6930699 0.05090475 0.3713958 1.0061519 0.09147918 0.0067874137
GSTM5 0.43372044 0.37165213 0.37331906 -0.579353 -0.062190726 0.34451756 0.4805239 -0.4196275 0.12054616 1.1341927 0.33797497 -0.2450597 -0.09226483 -0.0044502327 -0.5776341 0.80040467
PRCP -0.25210044 -1.113757 0.024524782 0.58472085 0.39151406 -0.34904554 0.32570162 -0.10002881 0.8397762 0.06437902 -0.22616047 1.3972763 -0.7992607 1.7050596 -0.19376662 -0.0041875476
SLC38A6 0.4909542 0.39351013 -0.0025918484 1.1840327 -0.019080216 -0.019272557 -0.44249898 -0.09238565 0.1810675 0.026087213 0.2657393 0.016068982 0.46159324 0.61989474 -0.134341 0.08400139
PDE7A 0.14877096 -0.10420842 0.64830065 0.6790861 0.4954837 0.5691167 0.42780513 0.1016143 -0.67664164 -1.4490088 0.29301092 -0.06526021 0.21856321 0.7544464 0.105123624 1.1362816
UCK2 -0.026926877 -1.2941343 -0.90125066 -0.13134266 0.014304733 0.19486341 0.4644617 -1.4120222 0.04771447 -0.07378248 0.7063827 0.6922583 -0.43823925 0.08796516 -0.31230968 1.0998077
GPAA1 0.6777828 -0.5484466 -0.5873709 -0.4255954 -0.73063976 -1.626096 0.82716167 -0.08469725 0.27176383 -0.15844795 0.43338388 0.73384 0.32185104 0.10290184 -0.76692784 -0.14046226
FOLH1 -0.12231978 0.041584272 0.16149892 -0.13932584 -1.414661 0.17471291 1.5593674 0.66913986 -0.03417362 -0.16958687 0.5994979 -0.03907423 0.23391418 1.3221606 0.94977117 -0.050548844
SLC16A2 1.2386215 -0.29736504 0.358951 -0.19001931 0.46268877 -0.10719229 0.104327455 0.4983521 0.4249934 -0.35408837 2.0916052 0.03104982 0.2652604 0.6894997 0.3859318 -0.28510267
MSTO1 -0.015123829 0.106319785 -1.4344498 0.00788575 0.008421574 0.1897229 0.27170318 0.12525965 0.39963943 -0.24537031 -0.5166694 0.3660942 0.28911695 0.39630753 0.29925522 0.2781305
EMG1 0.00050505565 0.2957262 0.0005601044 0.366019 0.14623657 -0.051489677 0.34312308 -0.1057317 0.2372735 -0.51280427 0.062150758 0.12213507 0.15291196 1.0530963 0.05683962 0.09584684
MICB 0.076786496 -0.15500471 0.20584598 0.15387625 -0.07531908 -0.19422579 0.88364524 -0.14168075 0.18134667 0.35884926 -0.026756072 -0.19460502 -0.13003933 1.7920219 -0.06324016 0.2926353
HK3 0.15405771 -0.8160519 0.5791668 -2.016246 0.003917479 -0.2810134 -0.83472717 0.18310148 0.24471614 0.6557025 1.3297833 -1.0275478 -0.63267666 0.31308237 0.19199519 -1.4084092
POLR3F 0.3222823 0.18008126 0.024623862 -0.052531406 -0.03763108 0.25022617 0.06451517 0.41282362 -0.35322773 0.10054526 1.5303854 -0.008066607 0.6322255 0.7396669 0.4468847 0.70065385
SCAMP3 -0.01830698 0.024061315 0.032326758 0.23938997 0.18334986 0.0006231441 0.8192169 0.2696094 0.16982552 -0.13253595 -0.55376136 0.011331058 0.19076858 0.87564254 0.17099488 1.0569419
RPP40 -0.46926445 0.4782037 -0.83564126 0.49727297 0.575735 0.2365872 -0.7765258 -0.07033372 0.7155956 0.10672086 0.37713337 0.073179044 -0.56387687 0.5451962 0.023919357 -0.006848432
MRC1 0.3481963 0.2800497 0.61174625 -0.37904742 0.12923051 0.19855739 0.7646182 -0.6706202 0.062973745 1.6249743 0.33204713 0.038317636 0.32379907 0.43176034 0.52408314 0.22921208
UPF2 0.29928735 0.33444694 0.32103586 0.1558294 -0.04200469 0.8168843 0.9590259 0.64099014 0.2629211 -0.14612406 0.6364194 0.28463286 -0.0034213 -0.32295942 -0.909336 -1.6300471
MCM8 0.35831603 -0.0976632 0.20441441 1.0255327 -0.18481608 0.1924747 0.20980313 0.06038499 0.49351847 0.97252864 0.56396127 0.12024729 0.16122225 -0.3066488 0.2206246 -0.15889645
AXL 0.17098747 0.2471114 0.31786025 0.33020017 0.5707778 0.5629037 0.8647637 0.65132225 0.15755351 0.63386446 -0.6268708 -0.6325628 0.47355756 -0.5906867 1.2655845 -0.029334974
WNT4 0.091164805 0.75131845 -0.25876322 -0.12917387 0.19427063 0.5409512 0.02303418 0.32270858 0.26167935 -0.29951996 0.6255261 -0.39518788 0.49197197 -0.31996778 -0.16238154 0.14311552
BRD8 0.25865263 0.07575388 0.3146225 0.35563666 -1.0116497 0.20946877 1.2218676 -0.28309825 -0.08785437 0.27909452 0.49175826 -0.023471108 0.560631 0.56249076 0.26222676 2.8959758
RPLP1 -0.3285477 0.20578359 0.5585845 0.10805318 -0.034468252 -0.12892263 0.6426379 0.17788252 0.39420006 1.8758277 0.28629696 0.41740483 -0.48086792 -0.09960911 0.3499713 0.21152684
CITED2 -0.5789001 0.30480224 0.13318811 0.5629572 1.544014 1.2790345 -0.08060028 -1.5179762 0.0911516 -0.5939153 -0.06979442 0.12901351 1.317484 -0.09201877 0.8575862 0.14423685
TGFBR1 0.003969054 0.17446414 0.5131277 -0.21466014 -0.20077257 -0.19458076 2.4912932 0.97559774 -0.11863819 -0.2450904 -0.20570397 0.2105696 0.028798902 -0.23756461 0.6471783 0.72338897
SLC5A7 0.46675375 0.2892937 0.1129904 0.57889456 0.16731946 -0.050638836 -0.17455444 -0.70670027 -0.17313409 0.36144716 0.3967067 -0.037314504 0.7332874 1.2718853 0.39965907 1.0470784
ECHS1 0.11830944 0.17377569 0.18452391 1.5888085 0.79571354 0.84819835 0.3507599 0.64269334 -0.025874792 -0.15189403 0.3181407 1.6978086 -0.09003029 0.19434711 0.9051494 -0.09842928
PRKDC 0.10318176 0.6953796 0.9163463 0.5986725 0.10743679 0.26990756 0.32893708 -0.10393446 -1.2116331 0.3532012 -0.060691603 -0.104004495 0.14064497 0.86446726 -0.74147296 0.16603765
CTNNA1 -0.027654212 -0.62074435 -0.94181 -0.042974688 0.06882336 -0.59841985 0.77211154 -1.1163203 0.8468142 0.23636833 -0.41060174 0.25683656 -0.22160327 0.059335325 0.04421778 0.47663355
GLS2 -0.11775577 0.09804827 -0.20890403 0.3073744 0.016685633 0.4375613 0.4911468 0.6380881 0.02178803 -0.3113726 -0.16171643 -0.07237775 -0.16710514 0.020500228 0.23465678 1.7440498
RBP5 -0.87074757 -0.2821992 0.028071014 0.5970222 0.6418071 0.12299436 -0.29237458 -0.12366176 1.7302879 -1.0040758 0.7642813 -0.6050116 -0.051677912 0.2860691 -0.11747066 -0.45739913
DRG1 0.02914004 0.222838 0.43446508 0.1743652 -0.016028212 -0.24919342 0.7606913 0.22032994 0.021178424 -0.15014045 0.2984016 -0.091794476 0.10342817 1.3004404 -0.7470004 0.2332734
RAN -0.09705814 0.1572152 0.14609629 0.6468246 -0.05943314 -0.5841021 0.10749858 1.0334476 0.0032859861 -0.0034345272 -0.34126222 0.85965204 0.029438104 0.30090886 -0.23911136 -0.13107812
MPZL1 0.19915129 -0.30102906 -1.5533426 -0.13816033 0.21041445 0.7282787 -0.0519251 0.7072284 0.6731283 0.02461091 -0.050147977 0.3058342 0.22266033 0.34756467 -0.0550969 -0.047638554
IQSEC1 0.1358512 -0.6810822 -0.025606915 0.13733873 -1.1306887 0.20225018 -0.11245546 -0.42775473 -0.00908022 -0.044690665 0.2204573 0.6313801 1.1851462 1.54841 0.16141295 -0.5853316
DCAF7 -0.043881048 -0.00186059 0.062471017 -0.5726458 0.32368046 0.43485773 -0.3071345 -0.030150069 -0.4090121 0.24354346 -0.13692026 0.066512406 0.4474779 -0.13035983 0.064680666 0.27168792
CUX2 0.11003003 0.75226206 -0.026388075 1.0102504 -0.2521448 0.019519215 0.015343998 0.1109564 -0.02912043 -0.07715948 0.24029432 0.18453372 0.98732233 0.27646258 0.033970114 -0.031096999
ZNF532 2.1950018 -0.35805386 1.1832306 -0.29064634 -0.7106787 0.46130052 -0.16543987 0.1129947 -0.38572794 0.7976421 1.0517727 -0.58835256 0.7990544 0.12959482 1.1954832 -0.11581265
CCT4 -0.3496161 0.5680837 -0.048938252 -0.47375992 0.67446285 0.056369822 0.028756911 0.28133342 1.032117 0.021042036 1.2523813 -0.03595952 0.5178672 0.84824383 0.13003813 0.27673534
C1orf216 0.1330188 -0.43413618 -0.38497722 -0.04724323 -0.17230429 0.30489615 -0.16644186 0.44068933 0.21086387 0.41783458 0.4064968 -0.5186522 -0.23249836 0.04098656 0.054141805 0.41765046
PLCD3 -0.3590473 0.31993905 0.678876 -0.15563287 0.10381324 0.27850398 1.535891 -0.095078684 -0.5751629 0.26292098 0.65145206 0.0022612577 -0.17863193 -0.086054124 0.93996656 -0.68062556
EXOC3L1 0.2602255 0.0307233 -0.29620105 0.3228803 0.33822438 0.41887835 -0.5798834 0.7061067 0.31621557 0.7381442 0.24175362 0.21984527 0.14503428 0.3008518 -0.28144634 0.7641267
EHD3 -0.06548914 0.48996863 1.0868483 -0.10695934 0.6899424 0.8857757 -0.37589806 -0.12494581 0.56113225 1.275736 -0.36017668 -0.07607664 -0.06962473 -0.12103108 0.19974105 -0.0862673
STEAP3 -0.2373122 0.13717546 -0.024029123 0.4291367 -0.11582599 -0.19299246 0.18013784 0.3726008 0.22480258 -0.9713665 0.44130823 0.8309464 0.3026309 1.1007042 -0.39291972 -0.13345526
ZFP36 0.23132302 -0.9597641 0.014421473 0.34051085 0.030380828 -0.09984366 -0.027824182 0.23515499 0.008374609 -1.0746591 -0.22430487 0.2904847 0.08142279 0.38702503 -0.009048934 0.97608423
DAP3 0.20538902 0.17435513 -0.692189 0.3680973 0.16432236 0.3235552 0.25396365 -1.0301313 -0.78213596 0.05301625 -0.1277742 -0.4288938 -0.47165298 -0.6597337 0.021945754 0.84529454
BMP5 -0.7875955 -0.13113327 0.8892021 0.49329308 0.013600174 -0.15878272 -0.27770522 0.21307185 -0.32961428 0.730887 -0.3905641 -1.8778149 0.8003806 0.39938062 0.28420368 0.89426064
RAD54B -0.19642873 -0.08552406 0.01971631 -0.14060426 0.26278085 0.5540598 -0.22541824 -2.1818812 -0.41490155 -0.06883219 -0.05332097 0.023065493 0.50627846 2.1157482 0.60343605 0.27768815
SAFB2 -0.2584366 -0.048780587 1.2014469 -0.09743513 -0.16844672 0.05849142 0.13920878 0.11915025 -0.5761188 -0.64610714 -0.17585209 0.45267323 0.39290622 0.3293923 0.00070561795 -0.11948949
HSPA4 -0.017804772 0.18307671 -0.59049505 -0.5030123 0.22691703 -0.019813469 0.7535032 -0.08911677 0.6114388 -0.37795374 0.35637015 0.21050863 0.51152927 0.38087666 0.2614799 -0.113363504
MID1 -0.17391765 0.5280938 0.14341821 0.5450215 -0.14597642 0.47246304 0.081857696 0.9625254 -0.15292145 0.90482515 -0.27427572 0.7295995 0.6331122 1.654977 0.34443328 -0.3077818
EIF2S3 0.011650502 0.25882825 -0.01316306 -0.040513296 0.11650966 0.6299254 0.47173038 0.5087361 0.066659555 -0.71458703 0.058317073 -0.25405383 0.6367597 1.2369567 0.2507748 0.5761866
CDKL5 0.29359078 -0.15642105 0.024199206 0.6190109 0.10497417 0.2590993 0.28026313 0.0316312 -0.010407143 0.44189742 -2.0527668 0.06501483 0.12268922 -0.21495003 -0.7291249 1.0639132
UTP14A -0.19337365 -0.12936762 0.16999626 -0.07632776 0.05090366 0.09525151 1.2501161 0.7176383 0.23634672 -0.41689155 0.43115163 0.12590557 0.038423274 0.9464662 -0.12815152 0.43639743
CAD 0.15284501 0.15386505 0.020815147 0.11166003 -0.70351523 -0.018625643 0.53160053 0.1556817 -0.49702156 0.28451094 -0.38374296 0.25782892 0.15512449 0.244392 -0.8339054 0.19462456
PRR14L 0.045800515 0.2784648 -0.032057438 0.4157764 -0.21443613 0.35325417 0.4248515 -0.12473165 0.17965247 -0.3846663 -0.006399181 -1.020848 -0.22994141 0.45626768 -0.09267097 0.8198446
ZSWIM5 0.32134157 -0.05200732 0.49903348 -0.15413961 0.7264981 1.1898794 0.644069 0.5419009 0.050415263 -0.16159008 1.059859 1.2957169 -0.27377743 0.014936234 0.366242 0.40821296
PRKAR2B 0.060901962 0.25771117 0.13461131 -0.17531264 -0.0010464056 0.6316087 0.7467562 0.40497157 -0.5118194 -0.71852463 -0.029240608 0.09270144 0.21664535 -0.31037673 -1.8481542 0.23816451
SMAD2 -0.22707672 0.22057523 1.0750949 0.1332823 0.013533107 0.016266135 0.5159063 0.4251314 0.02970457 -0.6328726 0.33514002 -0.049159914 0.7331535 -0.20186824 -0.82432616 0.31842107
CSPP1 -0.31896263 0.18214807 0.5299008 0.68953085 -0.7026248 0.20152818 0.0076957215 0.09928004 -0.2360831 0.46505088 0.3158038 -1.1106986 -0.068437316 -0.24075489 0.573424 -0.60615367
SLC3A1 -0.05809445 1.2796326 -0.15590161 -1.9922718 0.7444834 0.28406987 0.8042782 2.4948034 1.3268665 -0.06424867 -0.40494117 0.6328177 -0.056554895 1.1174115 -1.5223085 0.01512555
HHIP 0.09046915 0.14966819 0.061480686 0.21097758 0.014760568 -0.2364658 0.98447007 -1.0201167 -0.0514751 -0.12784344 0.27842042 0.3951966 0.3374805 0.48177016 0.34062132 0.19021167
FBXW2 -0.34646475 0.009280048 0.14152601 0.109992936 1.4713411 0.62371874 -0.064082146 0.82160866 0.5259361 -0.07462806 -0.058546048 0.19434576 0.23651929 0.5269525 0.36158484 0.3911725
WNT2B 0.15765847 1.2303021 0.24633268 -0.07847654 -0.23013501 0.10242624 0.48419535 -0.23106594 -0.035344593 1.306658 -0.32616073 -0.080081515 0.6108788 0.63755536 1.4678174 -0.10002696
APIP -0.8897001 0.4307524 0.067188755 0.26201597 0.12959372 0.16098465 -0.19246407 -0.80876863 0.5111622 0.3131394 0.700656 0.34630764 0.07712 -1.4609641 -0.15654694 -1.3616644
NCOA6 -0.43850926 0.26439455 0.0704791 0.21866126 -0.24704006 -0.6755238 0.46281293 0.109055445 0.50645334 0.58069754 -0.8630919 0.041837744 0.12331017 -0.5521951 -0.2548115 0.615462
TMEM106C 0.09589654 1.000034 0.21254052 0.1501386 0.26819092 0.4098613 -0.23442057 0.6152437 -0.13607338 0.8053738 -0.86265296 0.39586717 0.23739453 -0.19392036 -0.58671063 -0.05996788
CSE1L -0.018261066 0.54164845 0.19270858 -0.9141499 0.7751541 0.54885316 -0.06661116 1.4952776 0.48061782 -0.022878518 0.26733688 0.13173817 -0.010321217 0.3594324 -0.775184 -0.6499031
SATB2 0.34044057 0.2955867 0.20945434 0.3501339 0.46507055 -0.216162 -0.35233548 -0.1177942 0.71609235 0.8598734 0.48604622 -0.4997941 0.008238339 1.0759506 0.29324067 0.42220926
XPR1 -0.09114987 -0.03656598 1.0503542 0.6183816 0.6002771 0.7111783 0.39505655 -0.09097233 -1.064548 0.8616126 -0.1526917 1.2694063 -0.024353398 0.49074453 0.6095403 -0.08338741
HDAC2 0.6502078 1.2356473 0.30524534 -0.49894688 -0.12324814 -0.4148881 0.117680594 0.26748562 -1.1130272 0.6718705 0.16966832 -0.0741969 0.15885666 0.49994972 0.020318815 0.5690252
MOGAT2 0.008330096 0.37711978 0.43249068 -0.09911394 0.984005 0.3734526 0.8516868 0.07929212 0.16827825 0.2680919 0.41169187 0.35637078 0.36267316 -0.31539237 0.5164223 0.59564245
FAM83H -2.9082634 0.16101511 1.3540165 0.5472578 1.5330806 0.37420782 0.84128726 -0.4134305 -0.4196973 0.25704837 0.029313955 0.75283515 0.09356686 0.28351146 1.0007615 0.38031575
TIGD1 -0.2042664 -0.26700327 0.0054220483 -0.4675381 0.52057546 0.52706814 0.23431706 0.9458691 0.07997271 0.0052785855 0.5710563 0.45209908 0.39641464 0.8026741 1.1095128 -0.02523012
SMARCD3 0.24985966 -0.53106344 -0.09425915 0.6769534 -0.07889926 -0.057074822 0.15430844 0.28689554 0.10425231 0.3759035 -0.96883076 -0.02587696 0.040857278 0.1041861 -0.087531514 -0.67969805
HMGCS2 0.606451 0.025822142 -0.007718698 0.43142825 0.2762663 0.35493612 0.27757317 -0.6539219 -0.50904673 0.5274558 0.37548774 0.51499015 0.6228105 -0.37242222 0.50786155 0.05961563
RPS10 -0.28707084 0.12804036 -0.32413918 -0.070655055 0.408836 0.49345803 -0.11079068 0.87419975 0.14812146 0.22058213 -0.44630215 0.27768913 0.62920004 0.60956347 0.22111131 0.07216166
RALA -0.31734988 -0.09852644 0.72574127 0.012374326 -0.29505005 -0.1875151 0.711812 0.22467425 -1.128201 0.064868145 0.35767314 0.56997895 -0.26543486 -0.04793222 -0.6155152 -0.0065531367
DDX55 -0.049875703 0.18085134 0.17336129 0.29006046 -0.011010617 -0.038474828 -0.49956 1.4934186 0.26915744 0.46411458 0.43670335 0.17247838 -0.12577602 0.45380667 -0.25113198 -0.04070355
EEF1G -0.052071314 0.00944739 0.03020249 1.0953377 -0.6266043 0.2182577 -0.009068693 -0.124129266 -0.7411337 -0.5342985 0.5423655 0.104997516 0.4160348 0.27170703 -0.06380018 0.5254766
HLTF 1.3730274 0.59817386 -1.0916376 0.13780719 0.004376147 -0.45722204 0.1771112 0.31517714 0.07500508 0.04242601 0.14888744 0.16782491 -0.66058505 0.27478096 -0.16217422 -0.62591106
DTL 0.48433337 0.22752407 0.0055354536 -0.13997753 -0.23982798 1.0664674 0.28924435 0.13096987 0.007616156 1.4333948 -0.26068482 0.24287175 -0.29133114 -0.56904125 0.35465738 0.34545547
RRM2 -0.5253358 0.23079352 -0.3594467 0.37753725 -1.3442242 -0.2724825 0.35751215 -0.11158398 0.37860924 -0.33652666 0.37992394 0.01673937 0.122838214 0.38106737 -0.28328928 0.09573763
ITGA6 -0.0038681976 -0.4867505 1.226234 0.95071656 -0.13406342 -1.0107586 1.0008271 0.7138918 -0.18019536 0.16830313 -0.26719448 0.018405624 -0.8781445 0.4051374 0.13271584 0.5820344
C7 0.23317097 1.1462381 -0.99534345 -0.03139915 -0.010050467 0.5414151 0.06577418 0.7181822 -1.1670134 0.20397413 -0.03418505 0.5866989 -0.004725255 1.3877753 -0.13699289 -0.41440025
GLUL -0.49951822 0.49686354 0.85234916 -0.057374276 0.78319216 0.33972695 0.14181472 0.1241977 0.5337305 2.2406294 0.23104754 0.232676 -0.5615524 -0.31797037 0.6589224 0.1987659
ERCC3 -0.011411766 0.44345874 -0.44696644 -0.1759284 1.5277916 0.45223075 -0.08593838 0.23822974 -0.0032430382 -0.17417337 -0.83264315 0.829742 0.15869662 0.75843346 0.22462615 0.40785387
IPO9 -0.64076364 -0.17749745 0.29604977 0.38418108 0.32640097 0.72674716 0.120787755 0.27611586 -0.21325876 -0.3773619 0.45462418 -0.83335143 0.6512244 0.24083069 0.417909 0.20541972
MSH3 0.38486767 0.13136826 0.9787534 0.030032698 0.21048248 -0.11693006 -0.5539388 2.2418718 -0.31169194 0.7506828 0.55904734 0.35007086 0.8105026 -0.2886682 -0.0061861216 -1.0686584
MAPRE1 0.058616593 0.621627 -0.25800687 0.37958708 0.0924232 -0.7194184 -0.027281355 -0.7317385 0.8233391 0.19203871 0.6553179 -0.53837 -0.16839671 -0.7201619 0.016212415 0.15753031
NDUFA4L2 -0.12791365 0.53315794 0.0005285053 0.9949537 1.1585269 0.6702269 0.034465455 0.1818855 0.15218069 0.16783993 -0.1758504 1.4315426 0.04366234 0.3281782 0.5106427 0.34079176
PHACTR3 0.06754115 -0.1572497 0.7672668 0.37553766 0.1818645 0.1402332 -0.04535158 0.25573376 -0.39553887 0.43566868 0.40524203 0.014117032 1.0211895 0.12013745 0.26849017 -0.10858663
NUP37 0.3716724 0.1094368 -0.14314184 0.39327136 0.30303696 0.7361032 -1.4974151 0.51253456 -0.34282607 0.4675921 0.491615 0.37273094 0.18743691 0.28134638 0.15000902 -0.12749946
DUSP12 1.0661212 0.39640203 0.9696485 0.41385978 0.22788578 0.09858268 0.5686871 0.493853 0.7017935 1.512838 0.683021 -0.08204267 -0.011637106 0.14483677 -0.6109991 0.14160559
TCEA2 0.24429066 0.18684788 1.6236197 0.6079442 0.23881337 -0.123762816 0.51109457 0.9758341 -0.26661265 1.7532238 0.42364183 -0.07635519 0.12871988 0.33094403 0.6101473 0.53420323
FOSB -0.3084838 -0.05201335 -0.015755128 0.048628025 0.38792098 0.84364665 -0.7885203 0.5235431 -0.06865302 -0.047139335 0.10129537 0.23420769 0.7168598 1.4319206 0.33039612 0.041030664
UROC1 0.1339647 0.2517028 -1.6895341 -0.7193917 1.0431956 0.16587676 0.21037517 0.14062315 0.5678462 0.4658556 1.1416041 1.0903417 -0.0066473116 -0.42204788 0.10468261 1.0251986
WBP11 0.015905512 -0.06876978 -0.35832086 -0.34925506 -0.05459913 0.14821967 0.0060316906 -0.13412085 -0.581147 -0.23132367 0.51142526 0.10152915 1.6414833 0.6659576 0.19659571 -0.023804491
CDK16 -0.63920766 1.2878938 -0.35960215 -0.25885776 1.2417275 1.0843056 -0.2814595 0.99053127 0.31655067 0.35968682 -0.056763247 1.1501417 -0.10292416 0.01865668 -0.07298271 0.04966063
RFC3 0.15491843 -1.080082 -0.044683214 -0.12361223 0.020877939 0.014425576 0.5999931 0.11743498 0.16373046 -0.44990724 1.6173728 0.23009779 0.3565931 0.32323727 0.29804963 0.70724005
SMARCA4 -0.116168596 1.1593993 1.6978999 0.20950773 0.89845365 0.08907015 0.35260102 0.34133685 0.48348746 0.8724797 0.39577225 -0.059848037 -0.13838635 -0.11104543 0.3050912 0.5126181
XRCC6 -0.00849002 -0.031742897 0.57412493 -0.32873175 0.72048116 0.22478247 0.7582485 0.09686784 0.07336011 0.093974225 0.52580214 -0.5190011 -0.10927294 0.63937014 0.9310508 0.020231847
MZT1 0.0024746654 1.5203741 -0.0698505 -0.63666177 0.10115687 0.10023931 -0.41801962 0.9282224 0.2294051 -0.34426472 0.30753452 0.3631715 0.17354377 0.2417606 0.07670034 0.018589342
CLOCK -0.040312685 -0.7890859 -0.044916775 1.5772715 -0.1311281 0.15973973 -1.4526478 0.46514216 0.41194236 -0.20287135 -0.11504685 0.19531734 -0.39366624 0.963008 -0.34772897 -0.13640453
CCT3 0.2889061 0.44596577 0.021822564 1.1907634 0.62191004 -0.5111089 0.15041286 0.49548584 0.031895667 -0.18921682 -0.3062588 0.98135 -0.33017325 0.19763124 0.09258499 0.05935704
ZHX1 -0.037997115 0.24238266 1.0196304 0.34237835 0.85927486 0.15405776 -0.20388603 0.4459279 0.61264455 -0.056764413 1.5310537 -0.051873337 -0.5911119 0.007593874 0.1452484 0.0354364
TPPP2 0.45721638 -0.14060737 0.007700039 0.48555705 -0.0976869 0.44212586 0.13060531 -0.6961239 -0.26043418 0.03863918 1.0781378 0.32985932 0.080382444 0.18041694 0.32917878 0.5098503
PRKAB1 1.123147 0.392458 1.2754543 -0.26316 -1.3231356 -0.013626599 0.78953505 0.48122698 -0.085390255 1.2870812 1.1313297 -0.053021632 0.09724336 0.49970937 0.2599357 -0.031075126
UTP23 0.53254944 0.75767463 0.15750992 0.37072226 -0.39538303 1.1644752 -1.9114704 0.18822959 -0.113307096 0.7050317 1.2351922 -0.08930817 0.42937976 -0.0073867715 -0.14215685 0.5744287
CAMSAP2 -1.3208537 0.4773659 0.013438484 0.3386197 0.59135765 0.76709133 0.38861212 0.33570838 -0.94500786 -1.3788339 -0.29513067 0.39407778 -0.0010912851 -0.035229985 1.1972263 -0.09541738
PSMB4 0.90703547 0.11739687 0.032609284 0.4594168 -0.013159731 0.07298245 -0.004905151 -0.16035496 0.22394265 0.70057267 0.43089908 0.30699104 0.2040104 -0.77881134 -1.1158575 0.025305651
PSPH -0.19219758 -1.0447776 -1.1207978 0.16897836 -0.12145656 0.71925765 0.003417459 1.3262956 0.20779705 -0.032204196 -0.06282704 -0.50503814 0.33325344 0.0021994782 -0.49682385 1.3095028
NCAPG2 -0.04160154 0.22545093 0.0040442403 -0.4646864 0.7635337 0.46674293 0.60589665 -0.07643327 0.5352023 0.63432616 0.38822863 0.34294847 0.15977633 0.7910679 2.053741 0.31062937
OIP5 1.1741725 0.13312832 -0.1846651 0.6527533 -0.2090226 0.9416579 -0.92200756 -0.2783812 0.27856296 1.0760162 -0.6597098 -0.31004876 1.5411284 -0.1732584 -0.29927772 0.18128061
TBXA2R 0.3306505 0.21213545 -1.2901169 0.794858 -0.9552469 0.43298507 0.26428148 -0.40508798 -0.07121863 -0.23673564 -0.6649818 0.07573413 0.45763233 0.3346901 0.04220199 -0.075878106
STAG1 0.038267978 1.9197048 0.17155695 0.11654615 0.918164 0.22458123 -0.6939615 0.46354938 -0.039813455 0.15567417 0.34076205 0.893333 -0.28663743 0.20673382 0.17448342 -0.07393271
CDCA3 0.32737863 -0.12819737 0.21733627 -0.64690304 0.13037062 0.3051104 0.4729407 0.49436128 -0.1257751 0.38515654 1.4341205 0.019797772 0.05483234 0.86615646 0.38171571 0.0913097
MCM3 -0.58668756 0.25261772 0.5311826 0.57254046 -0.161019 0.09582834 0.20845181 0.43160543 0.005245077 0.6156557 0.15199971 -0.023566818 0.1561186 0.53535783 0.16992542 0.019742504
FBXO4 0.1935894 0.273257 0.09366987 -0.1411415 0.31128383 0.47245157 0.7277621 -0.07051458 0.13723627 0.3872295 0.49664778 -0.047571644 0.69307786 0.41336772 1.000406 0.32895213
ADSL 0.8657477 0.15786892 0.060839117 1.6305656 0.7435125 0.122720234 1.4439013 -0.3574032 0.06400572 0.9878418 1.5888282 0.7816796 0.27801177 0.11663211 1.6149955 0.047287837
DSTYK -0.10369611 0.81026894 0.80438745 0.14677393 0.39358607 0.29220507 -0.12943861 0.46247917 0.022685755 0.6334548 0.09830891 -0.1373372 -0.24696943 0.11835922 -0.29668456 0.15305495
DPM3 0.025642004 -0.7027155 -0.30179244 -0.058009695 -0.09022541 0.43053776 -0.07496461 -0.024442524 -0.36624303 1.2762759 -1.2032293 -0.10948247 0.6447581 -0.16826491 -0.6891105 0.46032384
ZNF398 -0.1870885 -0.13025755 1.1722124 0.6763269 0.038924083 0.38292366 0.35444766 -0.14109474 -2.7721524 -1.3414575 0.3300869 -0.07525305 0.97534484 -0.0344083 0.12592252 -0.69848907
TRMT12 1.7185344 1.2148792 0.67172956 0.53159726 0.59968823 0.5338043 1.1696976 -0.08782118 -1.8160582 -0.12493433 0.883733 0.0008082852 1.7084161 0.7729717 0.74657845 -0.16304113
EGR2 0.24907038 -0.11304181 0.0029714731 0.8905191 0.057388537 0.070039175 0.18232165 0.36952767 0.33027375 -0.081179045 0.62255603 0.6391429 0.4341839 0.3155016 -0.47453195 0.7148884
HMOX1 -0.003794924 0.91562694 0.00035011116 -1.1889963 0.49056634 0.36734688 0.2252387 0.06468358 0.42652106 0.28614753 0.34832862 0.18896389 0.31658724 -0.11445946 0.2223833 -0.051609572
IL17RC 1.0216689 -1.4352993 -1.3661547 0.61421907 0.1409375 0.4861268 0.51944 0.03267346 0.006275866 -0.42608315 0.3977172 0.36750633 0.65176386 0.17681447 0.5711802 0.37066227
PIK3CD 1.1789374 -0.11256984 -0.06867694 -1.1485748 0.88560516 0.6099191 0.124284476 0.28498593 0.25269595 -0.047203448 0.1771996 0.30469579 0.23520063 0.42981902 -0.7726323 1.1722406
OTUD7B 0.4478128 -0.93164164 -7.067516e-06 -0.08222307 -0.38310605 0.23111832 0.5146245 0.336771 0.20488064 0.4309955 -0.17273657 -0.25643334 -0.5259513 0.5837573 0.122264706 -0.69280976
NOSIP -0.24065867 1.0525568 0.29626992 -0.5123409 -0.0853484 0.54795337 0.94908756 -0.639403 -0.33151427 0.7499382 0.13625012 0.079495504 0.18649259 0.37714988 0.54679406 -0.10323589
DDX20 -0.07637798 0.047121875 -0.46092933 -0.19141003 -0.26612076 -0.17125294 -0.32462093 -1.5236462 0.15096764 -0.704517 0.56697077 -0.17714028 -0.5896747 -0.08255358 0.28474477 -0.51440835
PPP1CC -0.0015652522 -0.054054838 -0.008894365 0.11383116 0.0576857 -1.1595229 -0.38468385 0.18928869 0.40170795 0.014402112 0.28582323 -0.026269212 0.2875154 1.4992379 -0.10248305 0.18990757
FEZ1 -0.8629587 -0.20940486 1.3135921 0.36147904 0.40130642 0.6000969 0.09126739 -0.21087962 0.25487253 1.2939795 0.5534365 -0.39206177 -0.15550923 -0.08308225 0.38095132 -0.4713294
UBE2J2 0.09745722 0.26477954 0.20562199 0.33486098 -0.04635465 0.4421527 -0.4102339 0.43252426 -0.34952143 -0.09223621 -0.09398494 -0.80546063 0.4657293 1.5057472 0.29482946 -0.623729
MKRN1 1.0581957 -0.63481903 -0.02196311 0.6927836 0.016878027 1.087186 0.23291914 0.64335215 -0.27411368 -0.53121525 0.7003589 0.5610357 0.28878495 -0.21532771 0.22290446 0.09059593
RPL37 0.24383985 0.03676841 0.022611907 0.33994484 -0.01699775 0.46276426 -1.23878 -0.10013166 -1.187092 -0.46172363 0.45036262 -1.2029423 1.0594712 2.084866 0.21544285 0.37836543
HMMR 0.35614955 0.05641497 -0.015611176 2.2116928 -0.22561081 0.35080066 0.6693332 0.18032381 0.036239192 0.6679914 -0.7763782 1.8566183 -0.014502983 0.7419726 0.18960072 -0.039242655
ITGB3BP -0.01499314 0.20623673 -0.027964545 0.2743468 -0.9342682 0.5482881 0.91121185 -0.8259381 0.3057345 -0.24800047 -1.0817155 0.9063679 0.017113334 0.83492297 0.2488968 -0.042326752
SLC7A8 0.28071937 0.36675808 -0.103191264 0.34446585 -0.07101153 -0.29545867 0.12559214 0.56989586 -0.19476432 -0.11248631 -0.4436912 0.14180304 0.21678822 1.3097426 0.15103683 -0.14343394
MRPL49 -0.0061531523 0.2753536 0.06958952 -0.30024478 0.21255629 0.5035724 0.3702257 0.4827867 -0.0940029 -0.08998324 -0.08903143 -0.6385362 0.27792302 2.519932 -0.48778704 0.6718754
ORC6 0.060145594 0.018389523 0.5941888 -0.16912019 0.31871578 0.044167206 -0.18689314 -0.04341678 -0.6005085 1.0449667 -0.25798598 0.22757684 0.6173782 -0.1543196 1.375674 0.7049058
PEAK1 -0.07796364 0.5965335 0.1301278 0.8420437 -0.006083521 -0.90836793 -0.52408606 0.93136686 0.41044086 0.122454785 -0.11848112 -0.16468464 0.18558331 -0.010413689 -1.3701907 0.0542815
GAS1 -0.05931174 0.15088867 0.21887852 1.0371352 0.40080994 0.11348751 -0.031697296 0.14757219 0.56996846 0.29373515 0.23239571 0.4739597 -0.27816287 -1.5139458 0.11069157 -0.7148926
DDB2 -0.25669247 -0.25650442 -0.014386602 0.22736631 -0.021471027 -0.5509099 0.012111544 0.38147846 0.17714961 -0.082878895 0.19312853 0.29526865 0.5998982 0.49192217 -0.29881632 0.26578814
F9 0.2595324 0.13647822 0.71392936 0.09870572 -0.077629894 -0.21183111 1.5170255 0.08285782 0.041435514 -0.5874393 0.9740195 -0.20909764 0.23837127 -0.77491385 0.17118041 0.7353845
PQBP1 -0.5088351 0.28264415 -0.04836341 -0.6078974 0.91222304 0.44504666 -0.08526825 0.69033384 0.33545563 -1.2090083 0.5495162 1.3539486 0.22576702 -0.09876456 0.0072086593 0.20831652
PLG -0.31017128 0.6284747 -0.61640316 0.32305324 0.88317525 0.6855147 -0.1512695 0.10308632 0.024669562 -0.11359638 0.16717266 -0.047544125 -0.37749112 0.6689433 0.34923816 0.64152926
LRP6 -0.27293548 -0.13220079 0.39460784 0.5063013 -0.04828339 -0.01552918 0.45401397 0.10967722 -0.3824723 0.28267726 -0.28219363 0.28077352 0.23186496 -0.09086466 0.15538317 -0.07410124
INTS10 -0.0034745738 0.33665428 0.22702691 0.5192304 0.3713584 1.2077342 0.8318419 -0.02618738 -0.014311251 -1.4577794 0.38596937 -1.3771081 0.6759219 0.40531346 1.5212728 0.5276642
IRF3 -0.6516308 0.232016 -0.011391858 -1.0154812 0.1594384 0.27518237 -0.07224689 0.08602195 -0.58090746 0.14392355 -1.2967455 -0.02063799 1.9161421 -0.037680168 -0.46026453 0.36945906
HOMER1 0.11846898 0.555927 -0.069829084 0.248388 0.54627085 0.18379699 0.10460229 -0.90752846 1.1662588 -0.40693605 0.808955 -0.2178519 0.11625915 0.48666745 0.15067904 0.38248828
SDC1 0.28196433 0.11445075 0.9441056 1.8196957 -0.044985343 -1.304071 1.0690473 2.0770335 0.10251969 1.0094188 -0.414587 -0.1030328 -0.015257418 1.0400412 -0.5309908 -0.89765227
FXYD2 -0.8585327 1.2291878 0.32965404 0.6385961 0.40303355 0.06113347 -0.2761234 -0.0048541734 0.32616058 0.8141762 0.34597117 0.08459375 0.44113615 -0.82477057 0.4074881 0.10115057
OGG1 0.46094102 -0.7934585 -0.11159996 -0.92067987 0.9628892 0.3672905 -0.03307492 0.027599199 0.49232194 0.84124404 0.4955524 -0.49018827 -0.029336626 -1.0722383 0.26588252 0.546544
NIPAL3 0.48685881 0.16659223 0.39500257 -0.13065939 -0.20540012 0.045062635 0.28269196 1.4400461 -1.2186674 0.61293113 0.87324095 0.1792685 -0.06595183 0.99362665 0.14552118 0.026032014
UBXN2B -0.028168293 0.22510481 0.76843315 0.54543096 0.29874197 0.019836958 0.27951816 0.4306242 0.16325878 0.6468354 0.5638806 0.35777894 0.08557394 -1.3219382 0.12425515 -0.6183532
EIF3G 0.016725475 0.07051512 -0.1263553 -0.58863425 0.23242046 0.4322778 -0.5787325 0.51509744 0.0017412647 -0.17328292 0.6007018 1.0894786 -0.23218739 -0.85466677 -0.0036149323 -0.9413103
TRIM15 0.11334604 -0.84462386 0.05046625 -0.07407215 -0.092479035 0.28039145 0.43419254 0.17463873 0.085014336 0.11942912 0.6333241 0.2776188 0.30127752 0.10709122 -0.2912812 0.5079681
GFOD2 0.11802004 -0.21936451 0.103278615 -0.1231082 -0.1478503 0.26634684 0.26861617 0.2781167 -0.88557655 -0.07360433 0.4324117 0.0065219025 0.63669395 0.9151773 0.5283263 0.20708767
METTL15 0.8220672 0.072550625 0.30585957 0.11627769 -0.2191645 -0.06333563 0.2502322 -0.091451705 -2.1484857 -0.11424073 1.9868879 -0.025893204 0.65821165 -0.039728675 -0.22408581 0.9684788
DYNLL1 0.17760327 -0.49615332 0.33595583 0.1394538 -0.16334818 -0.10433379 2.4183211 -0.09292522 -0.08123753 -0.10301098 0.40915546 0.020546326 0.060990725 0.4695552 -1.1008892 1.0030736
PCYT1A 0.5527922 0.1882076 -0.18053435 0.034443807 0.21474645 0.5550432 0.046167653 -0.00026524346 -0.12216013 0.20672047 -0.5750271 0.8924653 0.13261423 1.2696527 -0.43928427 -0.08800086
CTDSP2 0.6883752 0.31340435 -0.88517106 -0.12604517 0.80226815 0.56102407 -0.56677014 -1.0936959 0.38336134 1.9944103 0.2098252 0.29398152 0.48040968 0.41855744 0.6335865 0.63551646
CNOT10 -0.019996425 0.5659012 -0.024091635 0.4504042 0.565338 0.31788012 -0.56276965 0.066944435 0.6954826 0.9086733 -0.45622188 0.3291457 -0.3911494 -0.35540012 -0.1419003 1.4803581
S100A8 -0.17878427 0.2637301 -0.006352929 -1.1327225 0.15153861 0.45897412 -0.0008167018 -0.40953973 -0.008632459 0.24898016 -0.042287804 1.2564659 0.3881745 -0.018972114 -0.073911265 0.24670714
HNRNPM 0.20447643 0.12639944 0.7885842 0.5265398 0.36209542 0.52202785 0.38119012 0.08722485 -1.1574512 0.29940733 -0.06450599 0.19563253 -1.0232496 0.3629915 0.8822874 0.025178984
SHC2 0.37425697 -0.032497592 -0.062382422 0.6017964 -0.45580256 1.3548043 1.0101943 -0.20197776 0.19923875 0.31938452 0.41471848 0.40700102 0.3628007 1.10535 1.0209125 -0.13758484
GSTM4 0.27987787 0.7054127 0.4877937 -0.29941353 -0.19400741 0.22124076 0.97897005 -0.5476322 0.019847978 0.5668083 0.4934445 0.110148475 0.03173977 -0.3074616 0.28959262 -0.58162
GGNBP2 0.05000342 0.33691472 0.21619835 0.87803614 0.2549059 0.37832746 0.07924313 -0.04370584 0.05870631 0.71563256 -0.8834284 0.37747705 0.23883931 -0.41569558 0.25581747 -0.03687657
NUAK1 -0.18140438 0.41623005 0.77514136 -0.089783385 1.4650702 -0.114953235 0.54813 0.1406447 -0.24132757 0.48539948 0.16760409 0.39494526 0.3693168 0.13959786 0.5864259 0.32120517
RPL15 0.017053923 0.7079581 0.5547826 0.13640171 1.0989703 1.5147656 0.047331814 -0.24667063 -0.027918156 -0.050060954 -0.23948298 0.29770356 0.51878506 0.47323295 0.7280878 0.35029197
RRAGD 0.021094441 -0.33983013 0.4887285 0.10334582 -0.027724423 0.037019342 1.3022331 -0.38587523 0.3804782 0.9473224 0.1737844 0.31066713 -0.016490445 0.0042797015 -1.4432704 -0.033191085
LAMA4 -0.023824843 0.351052 -1.7999011 0.25327656 -0.5397767 -0.18073599 0.16461034 -0.30803594 0.24964671 0.080746576 -0.41107973 0.12059657 0.4662217 -0.15522435 -1.7277356 0.9450012
NPY1R 0.1066233 0.35321417 0.49684152 0.6051185 0.15340874 0.23314026 0.2288287 0.12839265 0.068658255 0.032220203 0.28013507 0.17001452 0.4747341 0.86903083 0.20197463 -0.022449866
GAS5 1.0699328 -0.518423 -0.0049284026 0.54558265 -1.886461 0.41053903 0.2366765 0.9065625 -0.0043774606 1.3420805 0.027392045 -0.0050946847 0.5983895 0.24069923 -0.1666898 0.258163
FAM20B 0.07846794 0.083436236 -0.011662906 -0.057624403 0.41341218 1.0313538 0.8144591 -0.024317157 0.03324914 -0.32757488 0.35737163 0.1908729 0.9407505 0.29148638 0.54065096 0.39718878
WNT8A -1.1212541 -0.16170853 -0.07430869 0.20960593 0.13439858 0.25351217 -1.0033019 0.64997023 0.23805848 0.16816755 1.0442449 0.34668228 0.6355843 -0.094562575 0.5361009 -0.7781055
GAB1 0.41990507 -0.12153946 -0.015926933 0.56124574 0.19299665 0.549637 0.0799388 0.5483849 -0.24148148 -0.12265536 0.42563435 0.69523686 0.23262954 -0.52334183 -0.6999952 0.5350061
MELK -0.23546988 0.07919323 1.3260161 -0.08569041 -1.2454202 0.21751231 -0.07769623 0.13547817 -0.45638126 0.15285869 0.8829385 -0.08069965 0.61012125 -1.0472665 0.99264115 -1.0828198
TIGD2 -1.0509319 0.97179806 0.9370729 -0.13760772 0.73713464 0.16806963 1.6157311 -0.20028582 0.31050816 1.0194904 0.13408448 0.36226365 -0.46406955 0.62002945 0.7921331 0.35863453
SOS1 0.17696227 0.1499646 -0.27924937 -0.04573036 -0.7620341 0.42193586 0.18236262 0.21286969 0.033136014 0.8704407 -0.15627715 0.16650419 -0.25667065 1.3964753 0.20518695 0.2287271
MCAM -0.17700064 0.50730234 -0.38746935 -0.38307163 0.50791276 0.55903363 -1.1796076 1.6935 0.34264934 0.11540759 -0.16789931 -0.6905329 0.42885312 0.6910885 -0.12787873 0.12044814
ITPA 0.04558009 0.32960805 -0.00168633 0.27720913 0.23951915 0.23274456 -0.9562651 0.56466365 0.2576175 0.18059614 -0.11816723 0.13202463 0.29331547 1.6064615 -0.2931141 0.112225085
DYNC1H1 0.06394754 -0.02475377 1.4860123 0.22202018 -0.4325429 0.6270428 -0.3525194 0.53164536 -0.20544297 1.1676385 0.1730934 -0.2412009 0.23158705 -0.07274879 0.26599914 -0.8061749
C6orf62 -0.02578666 -1.3195145 0.8591949 0.049614348 0.17578556 0.41616097 0.06411761 0.9992401 -0.053516623 0.8193082 -1.2444121 -0.01584755 0.041357797 0.48810965 -0.022474928 -0.032179598
EZH2 0.34623846 0.06273242 -0.011830726 -0.27100676 -0.0266953 0.8903301 -0.2582138 0.5641787 0.30215436 0.84319484 0.11387808 -0.43340272 0.58898604 0.9032884 -0.6368823 0.1102055
SPRY2 0.64698106 0.21224096 0.1023579 0.7380035 -0.71219134 0.26939306 0.8287954 -0.049908932 0.046963092 0.5478784 0.7896506 -0.46023798 0.88206524 -0.36260897 0.93756944 0.12988114
EIF4EBP1 1.0374948 -0.11754519 0.75048316 -0.060407348 0.13920034 0.9008626 -0.22598627 0.18878438 -1.580847 0.6815029 1.6602951 0.13185184 0.50093836 0.074002795 -0.7683339 0.054878436
ASPM 0.6806512 0.10602582 0.32106337 0.329327 0.3964246 0.7342193 0.9703896 0.62369126 -0.38186285 0.76101583 0.52608263 0.4141822 -1.6562531 0.46599692 0.38197374 1.4588588
SOS2 -0.2034214 -0.58623236 0.76882285 -1.1369952 0.13618413 0.02043285 0.118547805 -0.6613216 -1.2276101 -0.32231396 0.8600719 -0.0710092 0.53546345 -0.015356264 0.2628622 -0.017955394
TPR -0.015844503 -0.8782113 -0.015818771 0.324274 0.21621485 0.39727637 -0.46901602 -0.85175765 -0.00582284 -0.60507417 -0.18343711 0.81472945 1.371817 -0.6515128 -0.5494829 0.019315574
EIF4H 0.18942136 0.15271711 0.23661637 0.75206447 -0.52663743 0.30405176 0.19070962 -0.20613389 -0.0037854551 1.1240946 -0.89268905 0.23248799 -0.020184452 -0.66528285 0.1925391 -0.031553842
NCAPD2 -0.36151898 -0.13141853 -0.71303916 -0.4621058 0.22101538 -0.5640742 1.060923 1.0269942 0.24131703 0.21655498 0.48960647 -0.043548338 0.56001675 0.64253974 0.2809514 1.3898197
CYGB 0.012947163 1.5617783 -0.10116482 0.6341183 0.58460635 -0.94063675 0.49709946 -0.0736243 0.46316782 0.46447006 0.086505406 0.30743945 0.17814633 1.1567894 0.7755635 0.0011282769
ALDOB 1.5058067 0.17286557 0.18472342 0.2612008 -0.00032709888 0.8432125 -0.79844475 0.8562392 -0.13473693 0.66254485 0.6272821 -0.0041984133 -0.5610922 0.41110104 0.114320144 -0.051842585
TNFAIP2 -0.063375816 0.035081156 0.45136854 0.17410532 0.50509953 1.2865767 1.0143045 -0.18890151 0.0015973059 0.5151422 -0.10261114 0.50652605 -0.28700036 0.46532434 0.93057436 -0.21777697
MAVS -0.08956398 0.1543782 -1.4600313 0.94731015 -0.05532523 -0.025946718 -0.060798354 0.0049067405 0.14636429 0.73541194 -0.03008474 -0.018885152 2.4009333 -0.21360336 -0.065757915 -0.329179
KBTBD11 0.5844717 -0.119198844 -0.301515 0.5193313 -0.09753773 -0.62320095 0.49428204 0.18076418 -0.11006715 0.0021644928 -0.31151187 0.12504789 0.31119275 1.8303567 -1.2275115 0.17611896
SLC27A2 -0.08366508 0.4354953 -2.2262044 -0.542374 0.10412197 0.7201726 -0.14345749 0.28546393 -0.0101178605 0.07721617 0.10345855 0.6210505 0.5514205 0.09927588 -0.31039608 -0.106940426
ADSS1 -0.0030749529 0.10379066 0.038121816 0.2728299 0.22311822 -0.04903246 0.042531222 -0.17619024 -0.046043966 -0.45948634 -0.6531574 -0.81426895 0.19083238 -0.27186826 0.121220045 -0.7105215
HSPB1 0.02975756 -0.4642656 -0.17473514 0.21028595 -0.07302756 0.013416384 0.43395728 0.005898323 0.047460638 0.44644195 -0.36225557 -0.051510505 -0.014628213 0.50978523 0.18249215 1.4579241
INMT -1.6386156 0.8924295 0.16222568 0.37078288 -0.072597705 0.22044025 0.6198318 -0.13669145 -1.5369636 -0.08717129 -0.01819571 -0.44633716 0.347338 0.88971746 -0.9437528 -0.25221664
HBA2 0.87533706 0.21907295 -0.36767864 -0.15583584 -0.0068645254 -0.26784334 0.13641083 -0.3589179 -0.04426602 0.44384947 -0.65605104 -0.038777377 0.8834961 -1.1399407 0.017773468 -0.12930939
IGF1R -0.8479897 0.17397827 -0.1310674 0.62256026 0.24728577 0.312061 -0.84733945 0.43781674 -0.94344 -0.022348017 0.53046966 -0.5587282 -0.48628485 -0.4253214 0.8699405 0.056933206
LIPG 0.05662257 0.6631748 -0.5659358 -0.4919111 -0.04716806 0.7704341 0.08979925 -0.53812164 -0.044197004 0.4972418 0.023760563 -0.6513052 0.0141394315 0.080901995 -0.091202766 -0.22128166
SMARCA2 -0.04626414 0.15558518 -0.105174385 0.039159447 -0.056720406 0.82432646 0.3560705 0.07121054 0.9746792 0.5398322 -0.89550257 0.68040645 -0.7614117 0.6276244 0.47231647 -1.1418381
PSMG3 0.103269525 0.250489 0.6320702 0.702797 -0.470242 0.051128037 0.30664805 -0.061326332 0.81355226 0.47862637 0.55082864 -0.12276082 2.075539 0.20326157 0.4827049 0.20285659
MGST1 0.10366299 1.3385235 1.1753248 1.5856382 -0.12448136 -0.17873797 0.5312361 1.1750273 0.12041276 0.93729377 0.76379675 -0.085633814 -0.019644363 1.0436225 0.31830117 -0.0394478
ACACA 0.35496283 -0.6314549 -0.0116886385 -0.19736828 -0.5945705 0.7590973 -0.51891065 -0.10356097 -0.008526883 0.13515693 0.5794478 -0.61994654 0.63882023 0.97454846 -0.053222805 0.4737394
WASF2 0.48678654 -0.23220795 -0.19129187 0.5849371 0.27997562 2.1091754 0.44764152 -0.098695755 0.16794558 0.12888052 0.18709108 0.47005796 -0.5397879 0.6219969 0.37187394 -0.03277021
TCERG1 0.20797347 -0.06825819 -0.85641146 -0.84502256 0.4981225 0.37357375 -0.47394958 0.8347814 0.4964412 0.43646353 -0.023617903 0.66666144 0.23672265 0.6981522 -0.7678151 -0.08519447
SCGB3A1 1.4499964 0.7349542 -0.6502613 0.07703177 0.95811206 0.793971 0.72143596 -0.090549804 -0.63832486 0.47932398 0.36186066 0.50701034 0.41270307 2.2404346 0.7957973 -0.046912424
TMPO 0.022065245 0.34337378 0.26481932 1.4715731 -0.38347483 -0.18901756 1.7253058 0.08588103 0.32784376 -0.6685608 0.25749207 0.3136114 0.016334133 1.727435 0.08143814 0.09861173
CD1D -0.034526497 -0.4759461 -0.48053277 0.89148587 0.17905894 -0.37824935 0.4704495 0.051143985 1.39546 -0.43695158 0.62084115 1.6415472 -0.06365478 -0.07851892 0.122002035 -0.11611532
HAO2 0.048077878 0.042888753 0.16057366 0.07350328 0.4171886 1.2774303 -0.069089495 -0.61735 0.31693536 0.7907344 -0.06379919 0.18287866 -0.02477256 1.1774052 -1.7707813 0.10718265
ATP6AP1 0.2499928 0.007114738 -1.1697497 0.14525127 -0.117295645 0.29700628 1.408575 0.13655816 0.21528092 -0.041750442 0.26358685 -0.4477415 0.35588288 0.46921209 -0.610135 0.2654616
HGS 0.8458601 0.03509635 0.193745 -0.30016175 -0.554821 0.44965747 -1.5252469 0.519388 -0.09784773 0.6271818 0.5972569 -0.6459635 0.53418136 0.25661775 0.10060313 0.32222298
RALGAPB -0.032370154 0.63156736 0.35556877 -1.7366115 0.46182448 0.061413813 0.21668796 -0.067711 0.94672936 -0.8362236 0.32935 0.06757805 0.55131793 -0.07521894 -0.027386371 -0.92771333
ZNF189 -0.020118205 0.28615996 -0.13896438 -0.060517296 0.6013808 -0.021243962 -0.63233143 1.6137493 -0.12513092 0.33684966 0.35158917 0.8838648 -1.5955544 0.37469047 0.02151847 -0.062695704
WNT10B -0.54725283 0.40636975 0.15201063 0.18717623 0.70091575 -0.29964605 -0.4573836 0.022425162 0.3207553 -0.7773283 0.34589848 1.2849083 -0.3448241 0.27127397 0.018744176 -0.0033423407
SMARCD2 0.0027509748 0.1823903 0.22698088 -0.012856379 0.23131993 0.21186809 0.12493821 0.46490204 0.05027805 -1.2691292 0.45291317 0.12770264 1.1080474 0.32390484 -0.20464659 0.39182636
SEC24C -0.26820987 0.7104775 -0.5927283 1.0816821 0.27212587 1.6659596 -0.011512741 -0.012320908 -0.5361796 0.097890384 -1.1576828 0.2870596 0.41552514 0.040335145 0.37272647 0.5059778
HSD17B6 0.16942546 0.2359167 0.21239595 0.23194097 0.64713705 1.4770331 0.20661625 -0.20256329 -0.039876193 -0.14470981 0.26968926 -0.5220381 0.88227004 -0.85640347 1.2241162 -0.13377783
ACTR6 0.26365367 0.4939393 -0.36401197 0.012602093 -0.75926983 -0.42631373 0.49637616 -0.101098955 0.4338868 1.1342899 0.4377907 0.14465506 0.25996846 0.90622425 -0.16556895 0.34449065
STIP1 0.08192123 0.36068055 0.375851 0.37525722 -0.025903929 -0.3023365 0.20377488 0.2891625 0.072760426 0.4469562 0.3615572 0.33113116 0.36582112 -0.12193838 0.19761342 -0.57289404
DCAF8 0.56300956 0.33744165 0.03287674 0.058498986 0.4279501 1.260106 -0.11148427 0.1332239 -0.45753846 0.1591089 0.6237417 -0.10932557 0.18705449 0.20869374 0.4674329 0.020385498
SNX30 -0.03759671 0.4690499 0.15561485 -0.12772022 0.31849462 -0.2602556 0.21234542 0.6386572 0.3212453 0.12057219 0.5801057 0.46375456 -0.08543734 -0.16609204 -0.8593284 1.3451221
GSTP1 -0.6356391 0.097195454 0.07720102 0.99416935 0.46015307 0.17092697 -0.04928236 0.5106196 -0.36575866 0.089662075 0.13770224 0.65857595 0.4808905 0.61863655 0.2708763 -1.0425208
MGST3 0.012813405 0.31297392 0.07179915 -0.48302016 -0.081248395 -0.005889759 1.1566308 0.48894793 0.29340273 -0.23586653 0.51937145 0.36701193 -0.27840015 0.32750133 -0.18656215 -1.2054396
CAMK2B 0.17894647 0.2666424 0.31115988 1.0291507 0.3690039 0.15944241 0.16185105 0.31771797 0.10395611 0.39722407 0.28720576 0.015618261 0.117264956 0.6072577 0.14148396 0.042181198
PRKAA2 0.25343558 0.40023994 0.18314183 -0.009487052 0.6067548 0.8277603 -0.07810307 -0.043842074 -0.015897479 0.71813244 0.2616781 0.6424099 1.8972696 0.4747661 1.2050476 0.060613345
CSNK2A1 0.5244775 0.18194894 -1.2851532 -0.32029623 0.028087636 -0.4572966 0.48406547 -0.0017175474 0.23265576 -0.033579648 0.27814782 -0.87399864 0.43670627 -0.2167489 -0.91502106 0.2865445
C3 -0.012138006 0.4534837 0.034807853 -0.85290706 0.47713795 0.15946335 -0.5307148 -0.15070014 0.329836 0.47924158 0.6743018 -0.062346566 0.56363755 -0.2982733 0.7561839 0.20080288
SNRPA 0.37455708 0.34364387 0.20265193 0.44487453 -0.099341586 0.33958292 -0.16405244 -0.32899258 0.15970363 1.2813412 0.3872084 0.12730002 0.35091904 0.2031597 0.46202663 -0.9609942
MRE11 0.77737415 0.41756728 0.4868044 -0.06319072 0.014122808 1.686401 -1.0043967 -0.5421235 -0.35031438 1.0173991 0.7113586 -1.8457369 -0.34564355 -0.117649 0.42339158 0.5243992
FZD2 -0.47297347 0.59237826 -1.3176689 0.33862516 0.30068535 0.44436097 0.60329884 -0.06488174 0.8698173 -0.12765521 -0.652715 -0.09290432 0.3532675 0.84210277 0.7432737 0.16837966
DMGDH -0.001651536 0.57836217 0.30532435 0.24056938 -0.1260134 -0.16649796 0.6507354 0.49455073 0.13366707 1.0621676 -0.28423396 0.3713974 -1.546103 0.90270895 -0.6323858 0.23659652
NUP153 0.5442448 0.29352266 0.44736412 -0.10515633 -0.09818302 0.0067203967 1.3215295 0.08173756 0.11218331 0.69690824 0.6784153 0.08534365 0.11070809 -0.3131599 0.2104924 -0.122460894
SYT13 0.09176877 0.14665386 -0.3060262 0.046779405 -0.033112563 -1.1273596 0.7007278 -0.07031905 0.15159702 0.4953938 0.6020467 0.22900197 0.98601043 -0.38606563 0.7097254 0.50890887
PRKAG1 0.4324445 0.53841674 -0.31596184 0.34835136 0.07449228 0.7976226 0.35164365 -0.15339996 0.5295229 -0.05528709 0.62061673 0.64613116 -0.015143125 1.1371524 -1.6570631 -0.0067531713
SLC25A20 0.16170219 0.19684498 1.2153562 0.070686534 0.10843105 0.16977894 0.527164 0.98349726 0.2241742 1.7083527 0.53826237 -0.37616625 0.2863987 -0.15555477 0.8716501 -0.9414647
TCP1 0.180719 0.983442 -0.8981997 0.21769641 -0.029642683 -0.18760882 0.03906564 1.454126 0.09491465 -0.10542606 0.4062172 0.4201976 0.96800596 -0.582767 0.041533627 -0.67489654
TPD52L1 -1.152147 0.50768226 0.31100428 0.09602209 -0.19477968 0.05213617 -0.03682239 0.3340498 -0.31764948 0.4038787 0.014434734 -0.6463807 1.7249157 0.448362 0.38236406 -0.10745254
NDC80 -0.053026233 -0.6414197 0.010374475 -0.56906563 -1.8845736 0.06280906 0.6520792 1.1096371 0.93987924 0.46213368 0.77810496 -0.01935815 -0.079839714 1.095541 -0.18871872 0.084871374
PCGF6 0.06140556 0.18614909 0.10117206 -0.22242773 0.39800456 -0.3297684 0.2041357 -0.018219706 0.41179833 0.95997316 0.15005304 0.025899405 -0.5499132 0.14815977 -0.62366897 0.012097423
HDAC4 1.1634452 -0.0083172005 0.6462683 0.6636298 0.103116885 0.71397007 -0.6437441 1.1998441 -0.07584691 -0.272387 0.5443702 2.576068 -0.18858102 -0.08430693 0.5745178 -0.058183406
DIRAS3 0.90490514 0.05778071 0.5408944 0.38547343 -0.5315576 0.73428303 0.45891428 -0.099890515 -2.4707158 1.640893 0.19103666 0.11354361 0.36719573 -0.84288865 0.3916252 0.767862
SLC34A2 -0.0027434323 0.57117933 0.5818765 0.19149473 0.03793341 0.14608818 -0.32453254 0.28398174 1.1327534 0.24867773 0.37765917 -0.11483193 2.3169322 0.0031518782 0.21259272 0.075658135
CENPI -0.34253436 0.2845894 -1.8785465 0.1891163 -0.008538242 -0.9104923 0.12519053 0.12303084 0.33790407 0.8196212 -0.1846889 0.15594941 -0.11776584 1.0062916 0.25715426 0.4598432
GSTO2 -0.27099824 -0.5151736 0.14558865 -0.012308746 0.24319524 1.1425285 0.048042417 0.40238017 -0.36684766 -0.26490128 0.15501444 0.18342797 0.22986977 0.2016626 -1.1341571 0.4805966
MTCH1 -0.101750426 0.37977442 -0.4034574 -0.17700861 -0.2265325 0.13436222 0.6729445 0.11410068 0.026253782 0.057719108 0.277002 0.13982546 1.2015425 0.39713532 0.4101278 -0.16133107
YWHAZ 0.06213979 0.70795566 0.118772455 1.0770959 -0.2752437 -0.43559593 0.114980355 -1.2991258 0.13833332 -0.40627104 0.37472412 -0.011704972 1.1903491 0.03624107 -0.5984464 0.06430709
CNOT4 -0.10634972 -0.21941167 0.055752594 0.40035644 0.19458093 0.41907394 0.25756267 0.4326838 1.525515 0.23453698 0.49405387 1.8427925 -0.08649919 1.3617152 -1.8653175 -1.015319
SNRPE 0.27959168 -0.027041046 2.0944898 0.7354228 -1.0813315 -0.7271573 -0.11886398 0.43088406 -0.17679486 1.120679 0.31925195 0.34210238 -0.46314368 -1.1908646 0.032893084 -0.118410975
FYN 0.17133337 0.005420609 -0.33397606 -0.061522055 -0.26407388 -0.11258489 -0.3648175 -0.87214506 0.1546572 0.29021427 0.4361557 -1.071777 0.79452264 -0.86845875 -0.46141976 -0.84417784
CHRDL1 -0.1589989 -0.38294354 0.46435434 0.43436998 0.35996202 0.93929285 -0.7244267 -0.4230277 -1.2176794 -0.028341545 0.90647995 -0.045183472 0.19454241 -0.21206053 0.27625003 1.4052116
KCNMB2 0.5197176 0.1670831 -0.38228676 0.33262452 -0.05301135 -0.1609124 0.054774225 -0.1795273 -0.8765323 0.3170339 0.42621988 0.08865616 0.39045817 0.11477894 -0.33474606 0.89765
ACYP2 -0.02089803 -1.2360817 0.57624924 0.08321711 -0.0021648044 0.44158894 -0.09259748 0.9181758 -0.81863743 0.40011778 -0.2057613 0.38651666 0.0422262 0.37394142 -0.12661807 -0.083182864
VPS37C -0.5180853 0.6706552 -0.08907304 0.41886106 0.086627655 0.05349868 0.13965942 0.36278906 0.25122255 0.13903742 0.38333085 0.20390989 0.12843668 0.40476882 -1.1026915 -0.042098045
LDOC1 0.22614321 0.23088527 0.6590969 0.2076454 0.22275656 1.0656103 0.26842546 0.46966 -1.2405643 0.31494144 0.1819358 0.24419406 0.30522773 -0.44962877 0.31655687 -0.08503945
PPM1D -0.9858361 0.5773153 -0.6551477 -0.10344141 0.755145 0.4796613 -0.05003942 -0.04949183 0.6061663 0.12550266 0.9141792 -0.1903745 0.11987996 -0.2031823 0.83680904 1.2629251
BMP8A -0.43984243 0.20177132 0.48188335 1.2578918 -0.005821055 0.1026479 0.06622009 2.0125515 0.2862639 0.6308323 0.44947073 0.24166377 -0.6026801 0.75701785 0.050905187 -0.29310635
FTL 1.0129728 0.57722723 -0.015502364 1.2238625 -0.013220079 0.5738383 0.14930813 0.40099776 0.05938966 0.3975023 0.2787247 0.39229003 0.16041793 1.0606619 0.268122 0.33302024
FCER1A 0.2935553 0.686328 0.24457073 -1.3105088 0.28711805 -0.73388594 0.22223537 0.93856335 -0.5785152 0.9329635 -0.3855259 1.0828677 0.16443303 0.09186758 -0.3053285 0.004390225
CCNB2 0.011138869 0.44663984 -0.9797892 -0.12932529 0.76568 0.89364606 0.036735743 -1.0584832 -0.15433282 0.13959982 -1.0607836 0.38397536 0.46571884 -0.6602162 0.44137666 0.023877565
DPF2 1.0059056 0.15751104 0.7691431 0.8444558 0.30925217 0.41135272 0.3814131 0.13884823 -0.2664098 1.721807 0.46504477 -0.24738552 0.28283778 -0.32067636 0.36098376 1.704719
ADH1A 0.7178253 -0.8373025 0.08149032 -0.60285383 0.5807753 -0.3283226 1.0820433 1.1755658 0.30855435 1.5454565 0.699796 -1.0616238 -0.079797804 2.2858644 0.7325526 0.9558181
IL1B -0.092258535 -0.34876332 -0.12707461 -0.03943618 0.22946069 -0.5982309 -0.04924966 2.62657 0.1533812 -0.17130905 -0.28723526 0.5348021 0.05422235 0.731647 -0.029446566 0.041461553
CD14 -0.36807224 0.4785307 0.33868912 -0.17635871 -1.0589848 0.24941324 1.3499992 0.27826253 -0.16664827 0.7501473 0.36693612 0.08761301 -0.10439284 1.5948156 0.51854956 -0.2749006
ILF3 -0.12826782 0.050928455 0.79597104 0.17250451 -0.039725084 -0.68535197 -0.030672053 0.73148084 0.7403515 0.65832376 -0.35326996 -0.09627623 1.4086772 -0.23458076 0.0942334 -1.6648602
WNT9A 0.26102906 -0.65203613 0.024111409 -0.52204365 -0.010940827 0.7817123 0.2670663 -0.8619576 -1.3351284 0.46715015 -0.47154748 0.26072603 -0.40769544 -0.11391438 0.55271804 -0.15497822
E2F8 0.19639595 0.22620036 0.093894005 0.68764824 -1.0749565 0.19467579 0.818439 0.31922385 0.14915612 0.2883993 0.30940333 0.16376442 0.05079387 0.35857454 0.0020590294 -0.92504156
SAP130 -0.06433194 -0.124665 1.324731 -1.6273006 0.3869182 -0.07604729 1.9512217 0.6511083 0.7077769 1.5427296 0.20176868 -1.3027842 -0.42234302 0.27041602 0.054335654 0.81783104
GSTA3 -0.61224115 0.87024975 -0.57846016 -0.003093278 0.038498145 0.7801178 1.3375698 0.49392638 0.48480713 0.406993 0.32395166 1.8542273 -0.5750861 0.0127397375 0.27769387 0.93570286
SSNA1 2.0182137 -0.0558181 -0.0320972 2.412414 -0.18785343 0.23047516 0.39633352 0.1265253 -0.31178084 0.23615183 -1.4545383 0.70780873 0.20098208 0.07441761 -0.85584146 1.2065175
TMEM68 -0.37275547 0.35782143 0.26104575 -0.43025374 0.31734183 0.39856026 0.36508527 0.47108647 0.22237334 -0.08676296 0.5947264 -0.27014682 -0.5205951 -0.6425985 0.52371067 -0.13677767
DENND4B 0.038994655 -0.46719623 0.6020338 -0.36372235 0.8017637 0.531957 -0.043796584 0.54368794 0.18140365 0.7592513 -0.8833891 0.4083134 0.14103317 0.1310789 -0.18269138 0.27842605
XPO5 0.30088657 0.76302475 0.18677709 -0.035549372 1.3767536 0.0606622 1.8815784 -0.075884014 2.0522256 -0.24337718 0.13853772 0.49731603 -0.10596622 1.0041562 0.84759635 0.16799049
ARID3B 0.24135704 0.3258777 0.05431908 -0.35579216 0.9422762 0.88812864 0.20758961 -0.11028854 0.23985052 0.34074515 0.27327922 0.72929 0.14279714 0.9502934 0.35646865 0.106776915
IGF1 -0.4629971 -0.661195 0.48908022 0.77806103 1.3615843 0.7263283 0.37432617 1.4006045 0.6146948 -0.060500965 1.2474769 0.94404036 0.21746969 0.7711757 1.283658 0.020554593
PRKCD 7.95475e-05 0.28153738 0.28431544 0.3730034 -0.24478737 0.2455308 0.35462806 -0.20539051 -0.014116556 0.92747694 -0.5749507 -0.033440083 0.29985288 0.36628574 -0.40171805 -0.62357914
CREB3L4 -0.0169996 0.5816913 0.4994451 -0.2913163 0.13220054 -0.08928327 1.3337171 -0.31462023 0.3841143 -0.8443443 1.8155135 -0.4099639 0.3125115 -0.018903263 0.71613616 -0.7248225
WNT2 -0.14839862 0.09355854 0.013626854 0.45700762 -0.27819717 -0.11917317 -0.16033417 -0.019718226 -0.80913204 -1.0587454 0.36304078 -0.031746425 0.40575212 -0.027325802 -0.12871274 0.3977878
NKIRAS2 0.44876435 0.5865807 -0.013944417 0.1685639 0.08913773 0.26559368 -0.1350478 0.9789818 -0.051594973 0.22359324 0.9621585 -0.08378704 0.4272557 0.19662225 0.15173763 0.083865814
PRKAG2 0.4140455 0.55335915 0.23535228 -0.046593525 1.6607364 0.10541848 0.53986806 0.013720291 0.22445525 -0.06577283 -0.43944284 0.69774204 0.7790902 0.47025934 0.99547994 0.12236296
AGBL5 0.041539744 0.020711584 1.6673447 0.74274653 -1.1140437 0.33848685 1.0285801 0.1131474 0.2997548 -0.98229504 -1.7700084 -0.15161115 -0.113094956 1.3940572 0.18123144 0.22295201
TGFBR2 -0.13364346 -0.26428938 1.1739421 0.007156791 0.74389005 1.2976182 0.37782407 0.3784795 0.16779082 -0.100626856 -0.10100454 -0.109293535 -0.59268093 -0.44429258 0.18174884 0.062269006
PTTG1 -0.1064071 -0.299692 0.6281815 -0.08537814 -0.40261462 -0.45860663 0.15218562 0.14568973 -0.0062117004 0.28005973 -0.32944688 -0.37011996 -1.0210189 -1.2409362 -0.09318943 -0.15045759
MRPL24 -0.36367947 0.3109272 0.3940168 -0.2502518 0.42155957 0.31600833 -0.1805175 -0.12983693 0.05504983 0.027413366 -0.643298 0.17669964 0.58922535 0.8407318 1.1080875 0.1201556
BROX -0.022556221 1.8174857 0.4726763 -0.003292438 0.9839971 0.41156325 -1.5594248 0.59201694 0.46005774 0.1365125 0.38620645 0.36368552 -0.23749298 0.789908 -0.9497084 0.65450895
DHX57 -0.008546732 -0.13794006 0.011009519 0.2634311 0.04708382 0.5317545 1.1268535 1.1484782 0.23786725 -0.05256293 0.45825678 0.4943658 -0.1340554 0.28784174 0.25246435 0.14189659
SFRP5 0.0414423 0.60178167 -0.3434074 0.43457294 0.4544406 0.45952177 -0.13417551 0.21056159 0.39327282 0.41378045 0.16506027 0.25546926 -0.71397066 -0.35933346 0.13703914 0.1266522
AURKA 0.51740193 0.56211734 0.43379608 -0.110236734 -0.032150503 0.06389842 0.5197719 1.2082828 0.032815445 0.35235658 1.5954226 0.1473886 0.37911913 0.5043914 0.38453874 -0.8289306
CCDC167 -0.50670046 -0.53461534 0.17025778 0.06673391 0.12704724 -0.23807012 0.47222963 -0.775329 -0.3795739 0.1735516 -0.22028042 0.25020203 0.46660608 -0.4409923 0.3158158 0.9497952
ACTL6B 0.051220886 1.4552238 0.0011209343 1.0508051 0.2849687 0.8248623 -0.47187147 -0.14315523 -0.2695037 -0.029136654 -0.018756181 0.15119155 0.19487292 0.07445436 -0.0219993 -0.029964447
METTL5 -0.033174712 0.6072115 0.062298253 -0.4119916 0.40112996 -0.057994835 0.3285662 -0.07756962 0.4744928 0.010183279 -0.0019728849 0.07818471 1.303274 -0.12482647 0.23077647 -0.32142866
UPF3B -0.3561958 -0.116474025 0.0630523 0.31692547 -0.33849177 0.6533347 0.6226384 0.13986336 0.4323229 0.37109727 0.6381008 0.27517134 -0.14029351 -1.1365323 -0.07422754 -0.21362348
KRTAP13-1 -0.057839844 0.3149519 -0.5377792 0.496034 0.50840056 0.8151124 0.04261574 -0.51213735 0.10815442 -1.6137142 -1.586971 0.4030058 -0.09713732 1.5890746 -0.16364393 0.68891907
PCDH9 0.06660969 -0.120601 0.5122529 0.2662322 0.10608662 0.1801663 0.7644267 1.2790647 -0.0798641 -0.2083815 0.45866036 0.07520499 0.1446694 -0.11681103 0.071919784 0.09332225
KBTBD4 -0.41696575 -0.21392544 -0.38954726 0.6961919 0.3901147 1.4039799 -0.037666332 0.017816683 -0.02521143 -0.004813941 -1.2348232 0.71702915 1.6023883 0.070257284 0.5246985 -1.5518769
AKT2 0.065031275 0.053761333 0.056988426 -0.11388456 0.22215714 0.04513114 -0.4238528 0.3716533 -0.9061701 -0.07179812 0.53562224 0.46929732 1.1960661 -0.04894636 -1.2724631 0.07947665
ZNF652 -1.3178961 0.60067976 0.24842 -1.0798708 0.54259855 -0.7586236 -0.51366395 0.12836224 0.47256503 0.23797657 0.5395358 -0.20470408 -0.3274531 -0.08446812 0.51090276 -0.028322019
CH25H 0.03296869 1.581443 -0.44771868 0.25349835 0.10319078 -0.34555352 -2.456631 0.44968584 0.15105568 0.17663845 -0.86798656 -0.2443962 -0.17518774 0.46571237 -0.20434257 -0.043853953
AKR1C3 0.89018726 0.16509297 0.00059816684 1.56772 -0.13204424 0.34870005 0.08696574 0.29995015 0.3651348 0.60818136 0.42074868 0.19682656 0.18388383 -0.91252375 -0.21651627 -0.12955575
FANCI 0.42947337 0.6794918 0.12270334 0.79827935 0.6501163 1.608577 -0.19445783 1.5345554 -0.33102068 -0.09861302 0.15862052 0.5149987 0.45655727 0.3098981 0.17269833 1.3288572
SERPING1 -0.019017676 -0.41988048 -1.6856354 0.26070645 0.302895 0.29417282 0.2462518 -0.11819956 0.5526676 -0.51102465 0.217854 0.5344351 -0.8606492 0.78647596 0.25402376 -0.2855842
RFXANK 0.25146964 -0.13847311 0.119236745 0.23444264 0.2099422 1.0926484 0.3127738 0.8366569 -0.3673364 0.25407782 0.32649308 0.56157684 0.07734767 0.504611 0.51543754 -0.21473853
NIT2 0.32750192 -0.8419663 0.8098818 -0.2093005 0.5499268 1.5162634 -0.3532119 2.1841054 -0.1027263 -0.4493814 0.57319224 0.09736396 0.21827222 0.4254661 0.08492141 -0.066601865
FZD4 0.5343382 0.5737598 -0.19809173 -0.33623743 -0.13118625 -0.7512324 1.1381919 1.4610375 0.0392056 -0.105213545 1.8738354 -0.018496443 0.2440959 0.46379817 -0.5681854 0.98607934
GGH -0.06057279 0.549357 -0.21768281 0.4688845 0.3387741 -0.21956724 0.35048318 -1.4782995 0.9407189 -0.009274953 0.6850502 0.18600169 0.012296016 0.55013597 0.2631905 -0.03731498
SMG5 -0.13293834 -0.35956657 -0.17270969 -0.074521124 -0.19627021 -0.24465343 -0.6130051 0.14158738 0.3197321 0.45442188 0.22440194 0.2889014 0.9147131 0.8732518 -1.1122633 -0.3995371
SDS -0.3709893 -0.00972183 0.53554124 0.25188652 0.12563944 0.33710676 0.13764492 0.050094593 -1.0205361 0.38614628 -0.93378097 0.24630065 0.22567287 -0.93548703 0.016526438 0.1450395
GRB2 -0.3949053 0.23512577 -1.4361585 0.3929247 0.23921551 0.5343373 0.2731077 0.06418849 0.30885825 0.94705856 -0.703839 0.3795783 0.04930409 0.48134717 0.7300642 0.13154763
ELK4 -0.006626111 0.94447184 0.25523165 -0.051805783 1.3253676 0.48268244 -0.17163005 0.43173513 0.34124014 0.06863162 0.14346169 0.76784784 0.22203162 0.23813197 -0.35143307 -0.059589624
EIF2AK1 0.3485147 -0.50537074 0.41359526 0.40406293 0.37887564 0.7021874 -0.6212518 0.100431725 -0.451396 -0.18177454 -1.814235 -0.06447295 0.6589578 0.21852483 0.7923833 0.008768372
AOC1 0.8678153 -1.3552446 -0.011649389 0.1800957 0.12625243 0.55602926 -0.7150337 0.47151577 -0.10171936 0.35959834 0.83560354 0.2655964 0.5638276 0.06842477 -0.09899326 0.24507539
CCNE1 0.2570082 0.056097254 0.5741081 0.8414749 0.40755475 0.3823883 0.27917165 0.02532092 0.018394597 0.8198566 -0.10706788 -0.30539545 -0.014161676 -0.2797254 0.25783986 0.0008215644
ARHGEF11 0.34989065 0.2732231 -0.34209767 1.4396535 -0.06983846 0.16777942 0.05004338 0.39459166 0.27604842 0.14302568 0.37358287 0.26502532 0.210512 0.481095 -0.095043115 -0.086897306
GLYAT 1.199917 -0.15387742 0.568688 1.4015747 0.7088989 0.5879748 0.9451361 0.20936461 -0.2079111 0.03530595 0.63502216 0.53263533 -0.09056132 -0.8874749 -0.52907616 0.62718076
SET -0.16559264 0.58800715 0.21467756 1.0965626 0.19219637 0.17144567 -0.13792334 0.14146282 0.21670146 0.13025633 -0.14037476 -0.40633118 -0.27819073 -0.23545885 0.14794599 0.22090773
ORC1 -0.6536473 0.25909662 -0.07168901 0.15338744 0.50095826 0.51171607 -0.5661645 0.3803381 -0.5880432 -0.061825797 0.12525631 0.9527954 0.9650516 0.094650686 -0.38855207 0.03819602
ACAA2 -0.13137595 -0.21603233 -0.4239993 0.092648834 0.96751416 0.21640456 0.25765657 -0.0475336 2.1039698 -0.003818139 0.59812534 -0.5370459 0.9616896 -0.16321206 -0.16660634 0.9862347
ABHD2 0.37027377 0.4946991 -0.05601505 1.3194637 -0.10377386 0.37262818 -0.705534 0.042938907 0.42520687 0.76494855 0.45669523 0.33868924 0.21263081 0.69676083 0.17144968 1.0553744
HDGF 1.0874228 1.2833053 0.63011867 0.4575976 0.041538958 0.22441177 0.6188939 0.45101327 0.02472892 0.38141084 1.3715984 -0.019468063 0.24763027 0.97044456 0.44285235 -1.1046035
WASF1 1.2834169 -0.8249338 -0.028915124 -0.0074856253 0.050794486 1.1889281 0.15045609 0.76565963 -0.271207 0.66260946 -0.21900032 0.48294193 -0.006912848 1.7015792 -0.12558022 0.19230235
PIPOX 0.57643163 -0.29168195 0.018151132 -0.012604168 0.21911424 0.063170165 0.55778253 0.19615239 0.5564798 0.778765 0.6592243 0.01290901 1.0787373 0.4164319 0.40631518 0.27271578
IL13RA2 -0.009434145 0.29685965 0.18419687 0.04038837 0.17795324 0.10618596 1.5774716 -0.05090808 0.24520874 -0.2417562 1.7314935 0.0945271 0.28000548 0.13714316 1.0907767 0.49352625
ITSN1 -0.41377047 1.0048614 -0.0115977125 -0.58708465 0.75179106 0.36583513 -0.5348278 0.47894275 0.22644736 0.32349 0.2753593 0.7193604 0.26893303 0.15081245 0.23181929 -0.009732668
UBAP2L 0.05460796 -0.7931613 0.02170703 0.37305826 -0.35386404 -0.1868982 0.7053544 0.042029448 0.3823975 0.5727369 -0.45961714 0.058631174 0.29784465 0.616055 0.3524251 0.15396045
ALDH1B1 0.24836105 0.34232 0.5591649 -0.020274717 0.9933376 0.77556366 0.1551355 1.7216113 -0.14993566 -0.45737305 -0.39585045 -0.54223454 -0.07152004 0.1861439 0.15270168 0.11229568
MCRS1 -0.14626686 0.5279871 1.7741528 0.7896826 0.47827262 -0.0030151624 0.51495486 1.1973317 -0.03391737 1.5171419 0.053547002 -0.10133742 0.07782133 0.62755775 -0.841291 1.4403073
ZIC2 1.2195377 -0.10820585 -0.12185903 1.0284773 -0.071065255 -0.08943681 0.12112575 0.6181247 -0.5049063 0.02250844 0.46062276 0.36518 0.28384373 0.72043365 -0.29369056 0.6867753
KIN 0.26111245 -1.5281719 -0.57982665 0.05754849 0.20582885 -0.036645968 0.8624905 0.30851522 -0.85515946 0.048728622 -0.11319687 0.24964418 0.49337858 0.12316296 0.08773108 -0.17054775
SLC39A14 0.42444018 0.33872664 -0.61492693 0.3212282 -0.099078275 0.2177086 -0.12748228 -0.21656413 0.30153713 0.46702594 -0.1119185 0.09855573 0.25625834 1.8787253 -0.44449636 0.046039365
PCLAF 0.016453274 0.24247427 0.45105547 -0.07072792 0.9857676 0.5174513 0.04549751 -0.23469062 0.36591536 0.99047893 0.23870446 0.38752156 -0.37482923 0.27475232 0.49846834 0.5252037
MCM10 0.30668318 0.785762 0.3172768 1.5884131 -0.03916134 0.1762538 0.3600811 -0.38662875 0.49158508 0.3807336 0.24310113 0.009962448 0.04776243 -0.38908836 -0.48766223 0.13111229
SNRPD1 -0.43226868 -0.104810834 0.14520632 1.0034838 -1.1717123 -0.32178235 0.53879094 0.44197804 0.044956043 -0.06553653 0.2963522 -0.065336645 0.038404822 -0.43980187 -0.057840887 -0.06419318
SRPK2 -0.049560286 0.22664271 1.0196875 1.1863 0.4186409 0.08625072 0.2592914 0.66016203 0.010987427 -0.5836083 0.48779345 -0.12847917 0.39353913 0.549314 0.19112644 -0.025745751
ANK3 0.030126108 0.30953062 0.07081261 -0.16968498 0.038061634 0.40770468 2.191779 -0.68059546 -0.04818676 -0.09482155 0.2995118 -0.04215873 0.27912438 0.13295716 1.5560422 0.21055849
TSC1 0.051369704 0.143026 0.15811314 0.44011158 0.12749872 0.18488592 0.42522514 0.079186 0.16200408 0.00035249302 0.39160335 0.038558308 0.28122097 -0.14665008 0.31675062 -0.111999094
DNAJC9 0.70030755 0.0034229883 -0.35707211 -0.23492236 0.058759965 0.40027252 0.600942 1.2880113 0.5246447 0.4955696 0.5598087 0.2347661 0.028509507 0.61467135 -0.30628812 0.21788065
SUPT4H1 -0.07420433 0.7370053 0.15470849 0.19637519 -0.08611681 0.018716982 0.2551348 0.18179661 0.05006115 0.67541915 0.41317886 -0.06836477 0.052985195 1.5050255 -0.51282966 1.2497079
TRIM71 0.3194795 -0.10260546 -0.10616056 -0.29426184 -0.08115262 0.07341723 0.6472172 -0.12891687 -0.5255772 -0.058261123 0.6822718 0.20554629 0.3903024 -0.07360975 -0.29214063 0.48221204
EFCAB11 0.09487498 -0.9616696 0.11354993 0.2967796 -0.18796995 0.2648239 0.21293126 -0.08351127 0.094176024 0.45513314 -1.2208623 -0.96719646 -0.16197473 -0.5722775 -0.4279464 0.21394081
CCND1 -0.77099705 -0.31712258 0.028997317 0.14371306 0.26060358 0.30327204 -0.4359288 -0.29869238 -0.2956328 0.13859257 0.364354 0.18739578 0.4940489 -0.0859178 -0.13934965 1.8591378
FCGR2C -0.043538123 -0.023271019 -0.3007256 -0.5392277 0.72393894 2.0660934 0.018343003 2.0761316 -0.41073212 -0.26204738 0.44477493 1.0332527 0.16187194 0.23967129 0.08929106 -0.016337963
FCGR3B -0.26935738 0.25903285 0.23780145 0.14233968 0.6102382 0.27177277 1.0098428 0.44045365 0.3805822 0.4976886 -0.5110399 0.5862441 0.04109751 0.20299914 0.27414927 0.06457348
BCHE 0.024999877 -0.054828584 1.0358485 0.38630986 1.0220336 -0.13341238 -0.544738 0.33084458 -0.6134848 -0.15174219 0.5286147 1.6758311 0.29555437 0.62035596 0.12537825 0.62178916
RNASEH2A 0.26011994 0.28912616 0.8723749 0.7303951 0.13336663 0.051078018 0.59046584 -0.048716553 -0.0019904545 0.58863264 0.54199886 -0.0697722 0.48580047 -0.42600596 0.38442746 0.033210468
SLC46A3 0.95486677 -0.35494614 0.028985532 0.57728165 0.107921906 0.23034221 0.6656386 0.17421511 0.54710805 0.7988296 0.77295387 0.062006146 -0.18857393 0.28798527 -0.11306832 0.92313623
RBSN 1.4020296 0.12268231 -0.0897154 -0.9158981 -0.0490271 0.13821666 -0.2965802 0.5387068 -0.25389162 0.7672841 0.85305244 -0.14092757 1.0776271 0.86308426 0.054125454 -0.13039967
AGXT -0.020693583 -0.09684615 -1.1039127 0.17815289 0.27913195 0.34988284 -0.833831 0.5276214 0.9029458 0.18020621 0.3962759 0.5513324 -0.38049763 0.8240143 -0.35388598 0.2440893
GADD45B 0.11419941 0.24381112 -0.025343481 -0.7796423 0.10176055 0.27061227 0.6298804 0.44750804 -0.06864456 -0.1803046 -0.094815016 0.13796133 0.13928105 0.9488827 0.22820677 0.12154059
ARIH2 0.10001703 0.8190352 -0.009610708 -0.9902325 -1.7102759 -0.023442015 0.5257359 0.26691854 -0.10776822 0.021676857 0.6870133 -0.42646658 1.6066521 0.19467443 -0.11344188 0.078316584
RAF1 0.4030638 0.67147845 -0.010236992 -0.11535347 0.99366826 0.52636445 -0.48065525 -0.14182536 0.28880247 0.21872036 0.122844346 0.93755 -0.18599099 0.041452657 -0.21601157 -0.07771923
POLA1 0.0057505965 0.6124396 -0.045097917 -0.11948763 0.6693287 -0.48123255 -1.4424932 0.67760724 1.0494616 -0.40192562 -0.84810233 -0.035455447 -0.07888407 0.56427455 -0.24272233 1.5751767
VPS35 -0.059218887 2.086449 1.0280039 0.17574659 0.7306517 0.59661514 -0.0495344 0.5873736 -0.47443336 -0.6055119 0.04390853 0.07260308 0.27489358 -0.5744814 0.14473453 -0.064966016
PGM1 1.2498974 0.37181908 0.6712284 0.77496004 0.044366855 -1.1617649 -0.3315464 0.675154 -0.016396046 0.3443117 0.5857984 -0.27372605 0.70048505 0.9870456 -0.123216406 -0.010224092
ALYREF -0.05063489 0.12996681 1.0790973 -0.12098507 0.11718206 -0.03607354 0.049378715 -0.9015051 -0.056378454 0.3392374 0.6019919 -0.07352221 0.32290635 -0.8466044 -0.05329029 -0.113942735
C6 1.1673665 0.06382445 0.031616192 0.86299974 0.091133 0.055634994 -0.4177847 0.14752091 -0.87257826 -0.2535834 1.1195325 0.011393881 -0.29054767 -0.22898571 -0.06499329 1.1031942
LRP5 0.058072336 0.63262165 0.24222924 -0.3014671 0.36755937 0.24945147 0.030537289 1.1367973 0.12932329 0.34856 0.3049149 -0.16025408 0.2256354 0.13374591 -0.20586748 0.40755373
POU2F1 -0.11571101 -0.5966375 -1.1505578 -0.08100699 -0.02366619 0.36233795 -0.13533586 2.6660125 0.62741405 0.33120906 1.3625467 -0.044755027 1.5391551 -0.4440464 -1.4988054 -0.14635323
MSH6 -0.12190128 -1.2559733 0.114293985 0.20346877 -0.04195951 1.0760233 0.87656575 -0.113825224 -0.97564095 -0.0237221 -0.07000863 0.64042157 -0.037438214 0.41926494 0.6316149 -0.48219076
MEP1B 2.0436378 0.105703555 0.0671553 0.37724507 0.20848133 0.7809422 0.715185 0.12383318 -0.09319642 0.93239963 2.1187396 0.29418194 0.33628327 -0.0077599557 0.94702893 0.5246313
DUSP9 -0.13292333 1.062694 0.21350251 -0.44295672 0.4466833 -0.51000154 0.53239787 -0.93951166 -0.15492521 -0.8225572 -0.55592173 -0.118595 0.3899378 -0.25423193 0.44721657 -0.2859627
CDK4 0.23189022 -1.1681153 0.14942001 -0.062873155 0.74838346 -0.8059342 0.21253496 -0.51095283 -0.04018397 -0.104940705 0.12439254 0.2633373 0.054689188 0.5070394 -0.22135463 0.15084244
GGPS1 0.0029190197 -0.24526474 0.2802957 -0.19549735 -0.039877765 0.12372469 -0.13771102 0.21864125 0.37670523 0.41980845 0.473057 -0.5392866 0.04872499 0.11789954 -0.20347676 0.5583859
TK1 -1.3762579 -0.49983972 0.8342584 0.14287964 1.2454996 0.9050839 -0.030541254 -1.0475138 0.2948153 -0.24864051 -0.16553698 0.4449431 -0.066808425 0.440677 0.5891901 -0.9615069
CBX3 -0.22924387 0.47136447 0.42129084 -0.7055213 0.90257204 1.2146609 0.631909 -0.08913759 -0.25323066 0.3899259 0.19270694 -1.5469342 -0.46528697 0.97924125 0.86040574 0.33852404
SUCLG2 -0.017070709 -0.11147038 0.074021176 -0.30055866 0.12745029 -1.0838628 0.33269548 -0.23063003 0.36824638 0.08548782 -0.21335201 0.051514644 0.19491965 -0.04625606 -0.8937144 0.7673313
ADH1B -0.04057471 0.20052493 1.1995587 -0.65304095 0.14380291 -0.71881515 0.81953156 -0.25965288 0.4464314 0.82720184 0.43886954 -0.7380173 0.1472763 0.83327097 -0.7294412 0.61781824
TOPBP1 -0.68550366 -0.2090892 0.48836824 -0.25620794 0.22438733 -0.16371861 0.9449437 0.13270423 0.43732017 0.15055852 -0.14718911 -0.16707365 0.056188777 0.73855644 0.33522332 0.35987347
KPNB1 0.34471032 0.30339772 -0.96526 0.49824935 -1.260986 -0.16587824 0.7036442 0.737253 -1.2187886 0.64989704 0.5334254 -0.044120092 -1.3157182 0.90829355 0.16605477 1.205686
USH1G -0.08803091 -0.6924059 -0.003855401 -0.14496365 0.89725524 0.2922117 -1.2905853 -0.13561732 1.042681 -0.12671795 0.3403423 0.021641567 0.21520081 0.06617777 0.07275407 0.0028348197
AGAP3 0.80526394 0.10186058 -0.0037539962 -0.04641232 -0.022823233 0.38644785 0.597245 -0.122563235 0.14771116 -0.10992279 0.3393754 -0.189721 -0.1310263 0.2509332 -0.43167844 0.18146183
ROBO1 0.10684563 0.41223884 0.09321458 -0.33154088 0.44634742 1.0321518 0.17856552 1.0901421 0.3262397 0.67732614 0.48201966 0.48267266 -0.6032436 0.4258839 0.2876549 0.14206134
DCTN4 -0.1155678 0.3611929 -0.21587065 -0.21914339 -0.14253941 -0.10775742 -0.31263757 -0.0016411918 0.23725632 0.81012416 0.54208606 -0.20569824 -0.5606329 0.42922634 0.19824408 2.7301633
NFE2L2 0.42655277 0.26378927 0.3609212 -0.5872579 -0.031883914 0.63816196 0.6228285 0.3193734 -1.094325 0.3595229 0.56703484 0.7118454 -0.22586104 0.009456285 0.1539201 0.09432654
TUFT1 0.0907268 -0.14410512 -0.064163186 0.23580375 -0.008806118 0.3764964 1.0008953 0.5724895 0.13366601 -0.2730895 -0.27784732 -1.2926928 0.2900172 0.42425552 0.3560243 0.33959326
KNTC1 0.048526652 2.1844614 -0.010621267 0.6273658 0.42715126 0.069098815 -0.79456806 -0.0058764773 0.66831064 0.01499161 0.8870792 0.064620055 -0.13365631 -0.08087916 -0.620563 0.07478632
TALDO1 -0.5434224 0.13768658 0.082883276 0.21300109 0.20459722 0.6397564 0.48796538 0.291197 -0.3487941 -0.6082404 -0.0967524 0.30534485 0.2038291 0.38303608 -0.33055556 0.5672526
HMGCL 0.24041061 -0.18728302 0.17399803 0.09728398 0.101275705 0.20369029 1.3912454 -0.066249445 0.4124541 0.3676364 0.6824643 0.43022215 0.053849053 0.32745337 0.48218098 -0.11718859
FSD1L -0.9420907 0.35926062 -0.73474264 0.99234694 0.5920381 0.54187626 0.38031125 0.052357405 0.26896143 0.26009178 0.15604144 2.3714063 0.0071006767 -0.06330975 -0.5628027 -0.74566543
CHST4 -0.07463224 1.6589079 1.2848547 -1.228021 0.58189124 -0.20299658 0.3223932 1.4993434 0.16741972 0.794636 0.4688617 0.32677612 -0.30572143 0.11166213 0.09317667 -0.1353005
OSTF1 -0.67447835 0.56120133 -0.46958718 -1.043375 0.8544055 -0.28014952 -1.3650467 -0.9653656 1.110518 0.11041804 0.52227354 0.025557507 -0.17355582 0.47973102 0.07631379 1.06307
CENPX 0.001490854 1.5535958 0.15550601 -0.052272882 0.6580105 0.44989195 0.44203922 0.0835601 0.37085563 0.06740572 0.17248568 0.3778266 0.09179944 0.34069827 -0.08585056 -0.30169675
AATF -0.030201975 -0.448379 0.047372483 0.009498275 0.9542942 0.8879309 -0.117672004 0.050622832 0.25245243 -0.17862442 -0.46926326 0.73986477 -0.84815997 0.4133815 1.1705939 0.07050495
SPRYD4 -0.08651704 0.09487247 0.33624563 0.17792372 0.25089282 0.12516321 0.6004945 -0.56082374 0.15267536 0.46275535 0.38562903 0.03152593 -0.5953257 -0.23573354 0.25207847 0.5545527
C8B -0.5224149 -1.1790906 -1.1157348 1.8169917 0.31998408 0.12511635 -0.09768774 -0.2613511 1.2447062 0.2468608 0.5868659 0.3599969 0.25697178 0.5825276 -0.86594224 1.0601234
KCNN2 0.7936677 -0.7762693 0.19998017 0.5872398 0.13242325 0.7725502 0.6315589 -0.95392966 -0.10031679 -0.93548006 0.40853256 -0.21473758 0.06929451 0.34092942 0.30812454 0.6999701
RBM22 0.21045384 0.4075929 0.45652035 0.34801543 -0.035210706 -0.22800821 0.08816164 0.48176476 -0.59685284 0.6083996 -0.00074046955 0.15065308 0.39081374 0.2555301 0.19016705 0.07127305
THOC2 0.572227 0.30548698 0.23815905 0.18932575 0.7028447 0.74676013 -0.5096394 -0.09789927 -0.30452898 0.97518927 0.1892769 0.15185916 0.6355285 0.37568882 0.727597 0.48421186
PA2G4 -0.8028821 -0.12146061 -0.23923054 0.33502868 -0.06064051 0.17629494 0.5670117 0.14159825 0.16555423 0.3133149 -0.24688709 0.28807986 0.19882667 1.4085455 0.42553455 0.16800526
C8A 0.635691 -0.44281325 1.2489991 0.9518314 -0.24626842 0.25537503 0.5047718 -0.5084917 -0.25504017 0.32437557 1.2269284 -0.09599858 -0.20632572 -0.1422156 0.2522012 -0.10278706
RASSF4 -0.16324534 0.76021546 0.009117035 0.69048107 0.18346113 0.2968434 0.3908444 -0.12970915 0.42035106 -0.12097904 0.839821 0.36616832 -0.04537576 0.0939231 0.3390151 0.30246508
LZIC 0.79144686 -0.5833459 0.09523809 0.7754499 1.2480891 1.1567354 -0.24154896 1.2276639 0.14546645 -0.30934197 -0.03761519 0.6995947 0.37284523 0.5054262 -0.65146244 0.101173
TAF6 -0.10736015 0.5181864 -0.29647252 0.14317715 0.7699709 0.4717593 -0.090750545 0.18513526 0.3864737 -0.084657006 -0.112686835 0.3253426 0.24951316 0.30370995 0.06344052 0.29324856
A2MP1 1.4482346 0.29882726 0.11893253 0.5448662 0.059566516 0.4449686 0.92302734 0.45086044 0.26628128 0.6982225 1.2731237 0.13990784 -0.122214 -0.40248317 0.33866587 0.46243152
MEPCE -0.32388198 0.8767487 -0.052273728 -0.43109348 -1.0773352 1.8233695 0.20133717 0.17774487 -1.6299486 -0.47772247 0.042870957 0.1734723 0.11699944 -0.090163216 0.27587906 -0.099760115
DYNC1I2 0.33839607 0.4132331 0.28895345 0.16387902 -0.097026095 -0.14408706 0.12606776 -0.29363263 0.23820846 0.7843376 0.54610205 -0.8634222 0.17756006 0.6245805 0.25292876 -0.14288889
TIMELESS 0.1489808 -0.18046893 -0.26748306 -0.16174708 -0.19310789 0.4028013 -0.007635176 -0.060554046 0.03792635 0.553244 -0.15717226 -0.16444212 0.4382029 -0.3275671 0.38809475 -0.13941747
BHMT 0.12526001 -0.22917812 -0.009950061 1.1498054 -0.19840786 0.37347025 0.3642951 -0.44415998 0.06855224 -0.34134609 -0.099699706 0.3928739 0.36472514 0.73002875 0.22366399 -0.15399273
EXOSC4 0.04793036 0.27288213 0.044163357 0.21737489 0.32345384 0.5846716 0.32191813 0.0011529934 -0.10055501 -0.52795106 0.48501754 0.17895143 0.5814206 0.4497651 0.7423539 0.16013786
FAM168A -0.026224524 -0.8188765 -0.32261968 -0.11491457 0.38087752 0.41723704 0.011144366 -0.07798139 0.71684915 0.083985925 0.20398533 -0.6399749 -0.49577084 0.54330444 -1.0781193 0.496611
WNT7A 1.1365993 0.05952934 -0.20486714 -0.1312591 0.0025410554 -0.33680892 1.4569045 0.8893648 -0.40250447 -0.7637427 0.1662835 0.2106 0.20855363 0.6130519 -0.21650325 -0.017407265
SCARB2 0.1994172 0.3695283 0.056062125 0.31269348 0.05500371 0.1460597 0.5796904 -0.11330536 -0.30737564 -1.12911 1.6244807 0.154246 0.38428444 0.30110538 0.41381615 -0.50134426
DROSHA -0.17932516 0.14202182 -0.52436215 -0.027847784 -0.077632286 -0.039760005 0.49488467 -0.09426135 -1.6562505 -0.17226888 0.1131264 0.48213387 -1.0469093 -0.40351504 0.04856481 1.1875488
MEFV 0.3810001 0.41070822 -0.052740213 -0.12456857 0.37187135 0.6793706 -0.2535045 -0.08198411 -0.70291704 -0.22666675 -1.0973042 -0.1265958 -1.7669607 0.7422891 0.9761201 -0.099503234
SAP30L -0.08750319 0.76791674 -0.12921055 0.13604036 0.23259784 -0.10686928 0.7354042 -0.030871745 0.41932365 0.11870411 0.776932 0.07193945 -0.26005566 0.71127206 0.222843 1.6276219
KPNA2 0.10031036 0.414629 -0.020556293 0.4257966 0.5429124 0.39296907 0.28065398 0.3359135 0.40069634 0.25295436 0.026186785 0.83663815 -0.96810913 0.30605084 -0.038247257 1.264453
NAMPT -0.26684612 2.0142899 0.17674735 0.07432284 0.80989945 0.37024564 -0.8245979 -0.09496993 0.414335 1.0334647 0.83081794 0.06589765 0.92300457 0.3690017 1.0599846 0.18580073
TRMT1 -0.03874628 0.5550707 0.6593205 0.26904717 0.484381 -1.1987731 0.5800482 -0.017534034 0.48169893 0.67383754 0.065358125 -0.8591557 -0.6125171 1.0633849 0.58298784 -0.19634786
ANGPTL6 -1.3496883 -0.121646665 1.443526 0.78436565 -0.13353309 0.07627969 0.26709002 0.71003723 -0.09730273 0.7258039 0.39612794 0.9880499 0.7022411 -0.08271981 -0.10160242 -0.118094236
FBXO5 -0.043282177 0.25688574 -0.24153528 0.069642454 -0.05806648 0.2243896 1.3851304 -0.7031366 -0.02351107 0.59667856 -1.6578224 0.874384 1.506431 0.16828242 1.200323 -0.66091204
DNAH14 0.19883917 0.7932359 -0.26412502 -0.1489425 0.012783196 -0.53393894 0.045696095 1.1058595 0.31881997 0.14070813 -0.20916106 -0.2412668 0.04080539 -0.19278947 -0.035315946 0.09307716
PDPK1 1.2350893 -0.75406593 -0.004591763 0.47152656 -0.053138606 -0.17416011 0.5764852 0.37180123 -0.048562557 0.80237275 0.9305328 0.4343304 0.26866424 -0.024062155 -0.9545832 -0.011501797
MAP3K4 -0.54391956 1.3306245 0.028276293 0.21051556 0.2660674 0.33421552 -0.14583452 -0.14223197 1.1688712 -0.1540648 -0.5712559 -0.25250986 -0.31846607 0.35027778 -0.22685611 0.48015365
RPA1 -0.2687366 0.5669975 -0.16619793 -1.1097913 0.4727673 0.34006158 -0.8132032 -0.6802591 0.6253655 -0.8353789 0.45253542 -0.0019837795 0.43455398 0.58814865 -0.08969377 0.85787475
RAD50 -0.3909387 -0.1857947 0.2591358 -0.5463403 0.87367976 1.6715174 0.5313322 -0.1073806 0.22791207 1.0013512 0.37896273 0.8178453 -1.972169 0.8304464 1.7483805 -0.15538049
NAE1 1.1318085 0.1269104 -0.27394712 0.0614571 0.3546586 1.1779779 -0.035644818 -0.42231014 -0.02255872 0.53724307 0.49392745 0.33548442 1.3847181 -0.24857177 -0.0768152 0.02084293
BAZ1B 0.021022882 0.018423276 -1.147793 -0.21575531 0.52115023 0.9604982 -0.03450101 -0.7331165 0.4189318 -0.32572702 -0.23535824 0.2363337 0.2712137 0.13822655 -0.9445799 -0.115195796
MMP9 0.42599738 0.5278443 0.038252197 0.48233435 0.05102435 0.98968476 0.8948108 0.37400475 0.54680496 0.6870933 0.08184696 0.7164494 0.09273517 -0.7799354 0.3342269 -0.27072343
IMPDH2 0.067121655 0.2044799 -0.3876162 1.0321723 -0.957179 0.68529457 0.1276929 0.5217524 0.003988342 -0.19163339 -0.6920343 -0.5037665 -0.7856151 -0.99492013 -0.004412654 0.2383234
CYP2R1 0.0077428664 -0.42359132 -0.014371879 -0.19777142 0.58806765 0.49929255 -1.5137324 0.61666787 0.31345716 0.29671815 0.35879472 1.4285288 -0.11770156 0.22539409 -0.9056999 -0.07341728
MDM4 -0.047478884 -0.40573967 1.0643265 0.31717288 0.97519845 0.7170857 0.3111075 0.004004161 0.27915776 -0.17071834 0.7311124 -0.09148437 0.13975383 0.15143542 1.1354166 0.8148052
CHCHD7 0.32303277 0.63916355 -0.045426577 -0.011599814 0.43110695 1.2821511 -0.3070514 0.22011541 0.30914643 0.45818737 0.08781015 0.3919195 0.44006076 1.0293947 0.45347556 0.4959772
EXOSC10 -1.1024262 0.56578916 0.4640896 0.020495651 -0.35068664 -0.18673433 1.2354974 0.23910032 0.33775997 0.58909625 0.5037143 0.26853654 0.37106848 0.43590498 0.21576597 -0.016125469
FUBP1 1.6248559 0.23819885 0.1299953 2.0829742 -0.053880177 0.3444348 0.6054819 -0.15000418 0.17326036 1.1529189 0.64446414 0.41884163 -0.11695397 0.24850936 -0.076075144 1.4080069
SMG7 0.37969178 0.08433585 0.47143674 -0.7936998 -0.042364534 0.45566046 0.3819333 -0.0078687845 -1.48886 1.3770276 -0.8361779 0.040503744 0.23948556 0.7922791 0.373231 -0.07616893
STAU2 -0.020569552 0.5740722 -0.30912375 0.21044236 -0.30666125 0.144843 0.55824065 -0.5015969 0.5052877 -1.281681 -0.3334479 -0.58502966 0.301229 -0.76813245 -0.017230077 -0.117159285
CYP2J2 0.2828408 0.21177968 -0.058543883 0.09739023 0.54250765 -0.29058573 0.7449923 -0.008880671 -1.0758698 -0.10610431 0.42844644 0.23196933 0.6146762 -0.14239423 0.40356883 -0.12175828
RPS6KB1 0.3888956 0.18500891 0.25185183 -1.1973972 -0.5596044 1.2771963 0.7376495 -1.069207 0.31726328 0.103611976 0.5422972 -0.049732745 -0.41374886 0.39361757 0.20035 -0.5079985
BMX 1.4430741 0.32271487 -0.012175069 0.35922366 -1.12168 -0.10053724 -0.2608884 0.67976725 -1.0699911 0.22216882 0.95187277 0.24158579 0.7046815 0.030474458 -0.76783675 0.027380701
HDAC1 -1.0553517 0.18950367 -1.1857413 0.15576342 -0.18521902 0.7305646 -0.088372104 -0.5590959 -0.2412354 -0.17467588 -1.2204158 0.73575467 -0.07248411 0.77261555 0.2844861 2.0401425
DPCD -0.025607552 0.26806456 1.1681118 0.3718041 0.40953723 0.11196641 0.22602862 -0.47772127 -0.062923834 1.1427038 -0.1409791 -0.074426435 1.0374507 -0.06414849 0.49206552 0.21909319
FZD6 -0.005819708 -0.10373886 0.66299045 0.4170964 -0.46139395 0.26397246 0.6869773 -0.011676046 -0.068112224 -0.1748481 0.72920364 -0.17618509 -0.28912085 0.37596244 0.3026327 0.31613553
PEMT 0.17948404 1.2063303 0.0028202028 0.33770818 -0.006075537 0.5492717 0.042812306 0.7140785 -0.48056468 -1.3218259 0.35177705 0.010068862 0.06538814 0.2603562 -0.19148809 0.26220033
SNRPD2 -0.03869055 0.18709214 0.22335514 0.6908603 0.15295362 -0.28855672 -0.028826987 0.11666252 0.1666984 -0.06592676 -0.19211932 0.31355736 0.87327135 -0.29353532 0.12063801 0.11232644
MLLT6 -0.22844575 -0.2871737 0.27409908 0.06527767 0.3854519 0.43479967 0.122664124 1.0948682 0.16185491 0.30585873 0.32750767 0.26600245 0.41978678 0.31845248 0.21382733 0.58681107
PTGES3 0.55164146 1.1941366 0.06531421 -0.069647424 0.775249 0.16776012 -0.92992085 1.2254977 0.19211626 0.7146472 1.7026831 0.26754767 0.4521685 0.37644747 -1.1365205 0.51389074
TOP2A -0.6131911 0.65944904 -0.39317837 -0.14782621 0.23444845 0.2877487 0.25373778 0.2815151 0.30739963 0.2522317 0.21740237 0.78792363 -0.17454226 0.40943694 0.16407855 -1.0900493
XPO1 -0.23087418 -0.002050409 -0.27047002 -0.64830863 -0.45300215 0.68095535 0.56310356 0.043361813 -0.045010615 -1.2105062 -0.03326777 0.7783521 0.34847066 -0.071804635 0.0357603 -0.11272915
ABAT -0.036003698 0.203245 1.1738228 -1.5290234 0.13400915 -0.10786428 1.0190707 0.42759538 -0.054078724 0.81957835 0.20816906 -0.14290948 -0.025434481 1.064249 0.058131848 -0.95424306
COPS7A 0.6518688 0.89362204 0.28726354 -0.17414118 -0.82906526 0.38193142 0.17193933 0.17279625 -0.5465818 0.6400741 0.5084024 0.008833163 0.13466433 -0.773671 0.045409627 0.32580546
MAZ 0.007257982 0.3784218 0.48876178 0.29458722 0.13254511 -1.1033075 0.096666895 0.45608127 -0.6427874 0.018437717 -0.054359116 0.39656872 0.38675284 0.21773149 -0.05633495 -1.3346766
DTYMK 0.3235435 0.57701063 -0.65915346 -0.084434636 0.38131148 0.13275178 0.18153414 -0.053972103 0.6949714 1.9818243 0.65555024 0.9727704 -0.0057424223 -0.56206465 0.4207683 -0.13646759
GREM2 1.1685481 0.5466221 -0.43435246 0.21418346 -0.17510983 0.04577798 0.26554897 -0.109244905 -0.58842856 0.75574154 0.044060174 0.78842145 0.4174338 0.092708014 0.2449009 -0.081918836
GADD45A -0.5146807 0.1947424 -0.60603493 1.6209866 -0.19189477 -0.34310743 -0.25402552 0.27774596 0.17844073 -0.068133816 -0.44718063 -0.403684 0.44801483 0.44722012 0.2034677 -1.0743872
NR2C2 1.421919 0.3148513 -0.026591927 0.9070357 -1.2580949 0.17380628 0.5651255 0.2602511 0.48957792 -0.14505187 1.2733103 -0.8696882 0.45881832 1.4647496 0.018248083 0.029667309
TTK -0.017027568 -0.12437809 0.31139275 0.14183371 -0.10934292 -0.17931305 0.20917012 1.9273554 0.047269333 0.52276653 0.13492121 0.22067674 0.2577465 -0.17333627 -0.010005068 -0.007679578
KDM3B -0.39745516 1.0400412 0.3115739 -0.7076833 0.06011953 -0.17392676 0.32875612 0.005011093 -0.31014192 0.3604362 0.12517935 -0.5157319 0.1365327 0.29170644 0.24422343 0.20981799
EHHADH -0.0052514793 0.71806103 0.062659904 -0.042326286 -0.4206309 0.018709848 -0.17668849 0.38121045 0.42546365 -0.07372726 0.14077829 -1.1239101 0.3109709 0.68106335 -0.09790792 0.20651239
FBP1 0.27345607 -1.0249879 -0.51555663 0.8396059 0.23667854 0.62398684 -0.1634642 0.12741032 -0.013505947 -0.027692212 0.34684312 0.6182606 1.469744 -0.42150554 0.2661324 0.6344791
ETS2 -0.044637844 0.84165525 -0.23048963 1.444219 0.4867344 -0.15242308 -1.0774766 0.4106174 1.23674 0.14804883 0.06368184 0.15888618 0.18543707 0.55309016 -0.06332148 0.5411065
RPL7 0.27113804 1.0008307 0.1612447 0.43662184 0.40765452 0.7716781 0.30500925 0.15095201 0.039965916 0.45339593 0.23662993 0.4784252 -0.35884234 0.17973818 0.3799614 0.21420102
PABPC1 0.2699607 0.24922158 0.017031915 1.137385 0.5547322 0.42249444 -0.051673967 0.21128666 1.0544419 1.02185 0.6555222 0.4327468 -1.7814837 0.28904095 0.155543 0.35031706
EPM2A -0.038100086 0.4235123 -0.022617405 -0.04737703 -0.7294253 -0.13430876 -0.42365596 0.46144217 0.92160654 0.541621 0.4763172 0.005280932 -0.10808649 0.8447522 0.01158193 0.19080593
ZNF3 0.060369425 0.2736646 -0.23819922 0.07800651 -0.06085524 -1.5623058 0.31858715 0.5965305 -0.8548907 0.10307172 0.38380992 0.27512565 0.19989508 1.1026523 0.17732152 0.25685728
AIFM2 -0.007001813 1.5410105 0.0063574 0.7338758 1.0351629 0.2787105 -0.001568839 0.028348707 0.80107373 -0.11529817 -0.08541447 -0.0732099 -0.13236192 0.46322018 -1.4457576 1.831397
HAO1 -0.5619844 0.24459454 0.004536352 -0.44541052 0.44525346 0.61193 0.27406383 0.009531219 0.08770729 -1.8816229 -0.22219884 -0.053521194 0.5414891 -0.36550635 0.68179023 -1.136638
TRAF5 -0.005003211 0.23264953 -0.103761554 0.47769296 0.09154411 0.21440175 0.30640492 0.10927409 0.05797316 -0.5483889 -0.21801288 0.12927046 -0.7698072 -0.22703758 0.02695939 -0.14418425
ARID1A 0.26772344 0.056216516 -0.19797675 -1.1703857 0.23806392 0.2056741 1.0016754 0.039104 0.27474305 0.7553663 0.8061668 -0.072354466 0.18112575 0.31346476 0.35281184 2.1752198
POLD1 -0.3657835 0.733686 0.4803292 -0.034556147 1.7591388 0.21050306 0.20999026 1.3256605 0.6047241 0.64205855 -0.3658925 0.65153515 0.1083141 0.67009044 0.39766225 1.4417664
LIG3 -0.1164497 0.5621705 0.57832247 0.14120767 0.18829991 -0.2645954 0.35822344 0.7354085 -0.31433603 0.2855411 1.1797493 0.61217654 0.27855882 0.34193587 0.06326408 0.20385839
SMC2 0.8233506 0.02271264 -0.35864013 0.0004887305 -0.10029649 -0.15672375 1.5414468 0.1788351 -0.016877212 0.1716971 -1.2514999 0.107374184 0.21318631 1.5013875 0.49230978 -0.052650515
SMARCE1 0.18374768 1.6901301 0.011815799 -1.9307129 -0.17279115 0.9761982 0.5636652 0.48431298 -0.8300751 -0.27040428 0.17982951 -0.60204613 -0.8790328 -0.02139706 0.20134635 -0.90860635
UHRF2 -0.0026891495 0.3442723 0.1352249 -0.90413785 0.9040333 0.24480107 0.40965414 0.41898844 0.12958336 0.052673068 0.45927706 0.6801321 0.30115107 0.7958362 0.45668676 0.18002813
BMPR1B -0.67561066 -1.097492 0.645373 -0.05790122 0.61236024 0.35599732 0.6345207 0.6087191 0.45340842 0.49701393 0.4358469 -0.60454756 -0.09444023 1.7004805 0.8334411 -0.18797337
UBE2Q1 0.2900971 0.12527032 -0.9748209 0.1375817 -0.0706763 -0.055433203 0.29177552 0.84897983 -0.48483434 0.23333448 0.42650628 0.4187136 0.36816782 -0.12049731 -0.17583635 -0.004283696
CDKN2A 0.0069884933 0.4988889 -0.14060254 -0.43453738 0.09840679 0.8167706 1.8046272 -0.06777779 0.09799093 -0.7403186 -0.12542656 0.06826058 0.61749136 1.7985119 0.70876956 0.14392528
SMARCB1 0.048231628 -0.1131103 0.09699778 1.7423642 -0.00079173915 0.6217395 0.06145776 0.7942382 0.35853565 -0.45323735 -0.2150072 -0.14825656 0.17360896 -1.1592735 -0.13952528 0.42490858
CA2 -0.70954806 0.66554654 -0.92392486 0.109088704 -0.36744073 0.17210355 0.114571966 0.6899563 0.62973255 0.6977592 0.18499324 -1.3957497 0.22147651 -0.16301276 0.12124056 -0.1584085
HOMER2 0.05625875 -0.08411552 0.2673407 -0.6380705 0.024725145 0.3313149 0.68553066 0.31062186 -0.5925522 -0.10841116 0.9423045 0.31592298 -0.10266836 -0.10566012 -0.47717988 0.27900115
GMPS 0.54659104 0.21277447 1.0925618 1.7569859 -0.3407408 -0.9880576 0.08336541 0.22816026 0.21598892 1.2971696 2.04532 0.07665764 -0.45099127 -1.0944452 -0.19697145 -0.15726997
ITGA9 -0.09987011 -0.20415387 -0.5993573 0.018179769 0.8878013 0.5797146 -0.092972726 0.9183538 0.5343547 -0.10032726 1.1706105 0.24382098 -0.49307746 -0.40368444 0.24796453 0.2677461
COPA -1.8424922 -0.526835 0.83573645 0.051986106 -0.30679575 1.101045 1.2071005 0.44261438 -0.7740558 0.3452751 -1.1268274 -0.6613692 0.4712118 0.28258708 0.4757772 -0.08569617
TRIM10 -0.10395725 0.10553579 -0.11576602 -0.113380596 0.42096707 0.26500478 -0.42978016 0.25224864 -0.37608418 0.67100835 -0.011047793 1.3198898 0.07486642 0.19246504 -0.20097701 -0.017248359
PHF6 0.19186273 1.3359958 0.3433559 0.022786884 -0.01535899 -0.1149604 1.4605523 0.2426878 0.20154698 0.5539695 -0.35786924 0.16089159 0.024935098 -0.6585079 -0.07049682 -0.14454716
SUV39H1 0.4096008 0.9052926 0.78867763 -0.29451388 0.46643427 0.50578976 -0.14349486 -0.15263757 -0.60391957 1.5287328 0.3533833 0.42432502 -0.15970711 0.34960523 0.5889657 0.16642736
SPRR1A 0.013757161 0.69004273 -0.8332879 -0.036259633 -0.07484365 0.31266725 0.016701361 -0.08109678 0.18884453 0.80481446 -0.75789464 1.1048206 -0.09055647 0.33458018 0.12502521 0.44384205
GHR -0.7928091 0.21650004 0.3233271 0.21007513 0.2078579 -0.24386802 0.43466252 -0.3829484 -0.08738838 0.20340545 0.25411052 0.6578988 -0.20014253 0.10061996 -0.81834835 0.113844134
UBTF -1.6441907 0.16481927 0.07551419 0.46243098 0.10249205 0.16388553 0.115067184 -0.38686675 -0.21194665 -0.9158853 0.36208937 0.033001166 0.86747044 0.17819878 -0.041293353 0.37787485
WAS 0.2283443 -0.018159239 -0.013512146 -0.33988643 -0.72808015 -0.46135533 -1.1626015 0.418702 -0.29056114 -0.16180407 0.41616416 0.009144848 0.7130469 -0.67310554 -0.007860937 -0.31489992
CEP55 -0.27602035 0.14693692 0.40440682 -0.071082465 0.584939 1.5264037 0.49466825 0.10850469 0.007159355 -0.06978967 0.6179869 0.047228582 1.1545372 0.41717753 0.6629178 0.51382256
AHCTF1 -0.117460504 0.84354126 0.19500768 0.03293644 1.4266784 -0.23107317 -0.29288712 -0.2810431 1.2479043 1.3700304 0.051136456 0.63337684 0.6897838 -0.38686296 0.65213543 -0.084948674
BUB1B 0.713607 0.1610018 -0.05544639 0.06450407 0.039938126 -0.30401856 0.16496432 0.43423188 -0.7986749 0.54526466 0.21108218 0.053015668 0.8131577 -0.13211644 1.5054224 -0.02268916
RPS20 -0.4284243 0.12405748 -1.6975169 0.930843 -0.04673748 0.029369775 -0.15862761 0.2400392 0.7426823 -0.7701771 1.7109559 0.41882065 0.4934191 1.1894412 -2.163842 0.25082815
MTHFD1 0.9032485 0.26159844 -0.53340316 0.8729472 -0.119735405 0.93121463 -0.02640197 0.96566236 -0.17068553 -0.06578873 0.22938278 0.6611758 0.35431948 0.273724 -0.09232973 0.07685542
SUPT16H -0.32453623 1.7157458 -0.8303423 0.03094694 -0.082724385 0.174878 0.16970718 -0.04108815 -0.5264006 0.45743677 0.01701037 -0.5875051 1.2213118 0.3749363 0.56486106 -0.17075004
ACSL1 0.08280604 0.38527593 -0.4354602 -0.4412397 0.19260105 0.7724377 0.094031334 0.16621836 0.18402198 0.20736495 0.092389174 -0.1429099 0.124460764 0.2263909 -0.042535778 -0.22281739
UBE2S 0.6642276 -0.66550887 -0.023205653 0.43329698 0.35178694 0.8305501 0.6154778 0.36743575 -0.72950745 0.6383467 0.5549232 1.4247427 -0.50103354 0.5621329 0.42608812 1.591001
